-1.517760334536433220e-03 3.203857317566871643e-02 -2.501822113990783691e-01 -9.112011641263961792e-03 -8.741199970245361328e-02 -8.108430355787277222e-02 -1.466131769120693207e-02 -2.123097516596317291e-02 -2.993728034198284149e-02 -6.998019758611917496e-03 7.303438335657119751e-02 -2.379498444497585297e-02 -1.154432520270347595e-01 4.144217073917388916e-02 -5.337302759289741516e-02 -1.317485142499208450e-02 -9.828593581914901733e-02 3.665995225310325623e-02 -1.136754006147384644e-01 3.854551166296005249e-02 -3.125846013426780701e-02 5.796687677502632141e-02 -6.134601426310837269e-04 1.053862925618886948e-02 -4.885818809270858765e-02 -1.781096681952476501e-02 6.258296221494674683e-02 -2.074067294597625732e-02 -2.671705931425094604e-02 -5.288377031683921814e-02 -2.612854838371276855e-01 1.334134638309478760e-01 -1.823672279715538025e-02 1.361677795648574829e-01 1.483133882284164429e-01 1.143070980906486511e-01 -3.655595937743782997e-03 5.061029270291328430e-02 6.661749631166458130e-02 2.607585629448294640e-03 1.549939811229705811e-02 -6.038513407111167908e-02 8.405610918998718262e-02 -8.517986536026000977e-02 -2.236203849315643311e-01 1.645030379295349121e-01 -1.501110382378101349e-02 1.310708820819854736e-01 2.229092409834265709e-03 6.705108284950256348e-02 -9.000978432595729828e-03 1.707664430141448975e-01 -3.154695965349674225e-03 1.234663883224129677e-03 1.661823689937591553e-02 -2.165933549404144287e-01 -2.892343793064355850e-03 1.054039821028709412e-01 -3.573568537831306458e-02 3.727076947689056396e-01 -3.360782284289598465e-03 2.244936376810073853e-01 3.503162041306495667e-02 1.484762132167816162e-01 1.269553788006305695e-02 -1.454973816871643066e-01 -8.335232734680175781e-02 -7.991601526737213135e-02 3.013001196086406708e-02 -1.448474526405334473e-01
-7.246857136487960815e-02 9.991817176342010498e-02 4.174078628420829773e-02 -1.176375225186347961e-01 -1.256740987300872803e-01 4.659152776002883911e-02 -1.036078035831451416e-01 -4.119223915040493011e-03 4.569876939058303833e-02 1.180168539285659790e-01 1.206764131784439087e-01 1.660599559545516968e-02 2.388145960867404938e-02 -5.711821466684341431e-02 8.354626595973968506e-02 1.670661754906177521e-02 -9.460336714982986450e-02 -1.361555904150009155e-01 5.900564789772033691e-02 1.477264761924743652e-01 -2.427008748054504395e-02 -3.381313756108283997e-02 -3.426889702677726746e-02 1.564973965287208557e-03 5.537978839129209518e-03 -7.739942520856857300e-02 4.780933260917663574e-02 5.271522328257560730e-03 -2.805058145895600319e-03 -1.259776651859283447e-01 8.107873052358627319e-02 2.601383440196514130e-02 -2.334143966436386108e-02 -1.596286520361900330e-02 -4.420469049364328384e-03 2.115130983293056488e-02 2.513556741178035736e-02 -1.128503531217575073e-01 -7.067791372537612915e-02 9.045389294624328613e-02 -2.429428696632385254e-02 1.526215113699436188e-02 -3.359988331794738770e-02 -6.028413400053977966e-02 6.622850149869918823e-02 8.978722989559173584e-02 -1.110778823494911194e-01 -5.447524040937423706e-02 -1.025542020797729492e-01 -2.761892415583133698e-02 -9.680211544036865234e-02 -1.997100189328193665e-02 3.549313172698020935e-02 7.809602469205856323e-02 1.326922178268432617e-01 1.196160987019538879e-01 -4.993264004588127136e-02 1.010507866740226746e-01 1.198649629950523376e-01 1.502376794815063477e-01 1.175939068198204041e-01 -1.420298516750335693e-01 -1.251126974821090698e-01 5.932237207889556885e-02 -5.679361522197723389e-02 -9.374587237834930420e-02 -5.886162631213665009e-03 7.041338831186294556e-02 -5.850892886519432068e-02 -5.352276936173439026e-02
5.823045969009399414e-02 7.654416561126708984e-02 -2.068888843059539795e-01 2.363659255206584930e-02 1.904458850622177124e-01 1.089390292763710022e-01 -4.670950025320053101e-02 -1.372993439435958862e-01 -2.685478143393993378e-02 3.984633833169937134e-03 8.957250416278839111e-02 1.281433273106813431e-02 6.846210360527038574e-02 1.639515161514282227e-02 -2.481784299015998840e-02 -3.679589554667472839e-02 -1.949867457151412964e-01 1.856598071753978729e-02 2.759948372840881348e-01 8.339077979326248169e-02 -8.337398618459701538e-02 -3.204696113243699074e-03 -7.366912066936492920e-02 -9.365315549075603485e-03 8.023769408464431763e-02 2.924661710858345032e-02 -1.135205570608377457e-02 -9.276670962572097778e-02 -7.819980382919311523e-02 5.239212885499000549e-02 -2.490503638982772827e-01 8.522636443376541138e-02 1.799661815166473389e-01 -1.854215413331985474e-01 1.571263372898101807e-02 2.833014726638793945e-02 -2.067184448242187500e-02 -2.232490479946136475e-02 -2.860003896057605743e-02 -8.896556496620178223e-02 3.041389770805835724e-02 4.442209750413894653e-02 7.844591885805130005e-02 1.813025325536727905e-01 -5.412871390581130981e-02 -1.623110771179199219e-01 3.288467824459075928e-01 1.227762103080749512e-01 -1.829941272735595703e-01 -5.501317325979471207e-03 1.001651883125305176e-01 8.705849945545196533e-02 -5.400433391332626343e-02 6.006408482789993286e-03 -3.993732109665870667e-02 -1.198790594935417175e-02 -3.520735725760459900e-02 -2.785823047161102295e-01 1.617428660392761230e-02 2.560487762093544006e-02 1.922616809606552124e-01 -1.297301501035690308e-01 -3.359741717576980591e-02 1.247047185897827148e-01 2.092281170189380646e-02 -6.134718656539916992e-02 -9.496837109327316284e-02 4.167367890477180481e-02 -5.742886289954185486e-02 4.276508465409278870e-02
-2.987005561590194702e-02 3.378940746188163757e-02 -1.834855675697326660e-01 -1.012316271662712097e-01 6.511795520782470703e-02 2.702282369136810303e-01 7.820297032594680786e-02 8.695264905691146851e-02 1.148081272840499878e-01 -6.297618150711059570e-02 -3.395580127835273743e-02 1.433691708371043205e-03 4.173717275261878967e-02 -3.339103609323501587e-02 1.314287818968296051e-02 8.848883956670761108e-02 -3.552986085414886475e-01 -8.009599894285202026e-02 1.896440088748931885e-01 4.606148973107337952e-02 1.086267158389091492e-01 -4.281767457723617554e-02 -3.680768609046936035e-02 6.394173949956893921e-02 3.613283857703208923e-02 -3.274965286254882812e-02 -7.333117723464965820e-02 1.404124684631824493e-02 -4.619893804192543030e-02 -4.582359455525875092e-03 -1.762107163667678833e-01 1.563299149274826050e-01 1.900898516178131104e-01 -1.495875567197799683e-01 1.678581982851028442e-01 -1.148799434304237366e-02 -4.908486828207969666e-02 7.147858850657939911e-03 -6.139407679438591003e-02 -1.505582622485235333e-04 -3.652642667293548584e-02 1.066430658102035522e-01 2.026928402483463287e-02 -6.000545341521501541e-03 -3.769612908363342285e-01 -1.373568028211593628e-01 2.000981271266937256e-01 -4.892410337924957275e-02 1.518800556659698486e-01 -1.127052027732133865e-02 -3.436071798205375671e-02 -1.465593837201595306e-02 -1.353388768620789051e-03 -3.422872349619865417e-02 7.915155962109565735e-03 -9.412583708763122559e-02 4.244888201355934143e-02 -1.136565729975700378e-01 -1.274925321340560913e-01 1.602032035589218140e-01 -3.561438992619514465e-03 -1.255545318126678467e-01 -1.140795089304447174e-02 -1.644429378211498260e-02 -1.466553891077637672e-03 6.861803587526082993e-03 5.492953211069107056e-02 6.202892959117889404e-02 6.196486204862594604e-02 7.257499266415834427e-03
1.016263216733932495e-01 7.088659703731536865e-02 2.728615514934062958e-02 -1.610165536403656006e-01 1.488856971263885498e-01 -5.238309875130653381e-02 1.660450245253741741e-03 -4.098161309957504272e-02 5.719428882002830505e-02 5.729738157242536545e-03 8.320174179971218109e-03 2.476131170988082886e-02 -3.761288523674011230e-02 8.390931040048599243e-02 5.642532184720039368e-02 -8.680753409862518311e-02 -8.890151232481002808e-02 -7.384493947029113770e-02 4.326144605875015259e-02 -2.573293820023536682e-02 -3.412835299968719482e-02 3.325074911117553711e-02 1.188272833824157715e-01 -1.120353043079376221e-01 7.548701763153076172e-02 -4.979387298226356506e-02 5.964884534478187561e-02 6.898470968008041382e-02 3.796232491731643677e-02 5.742394179105758667e-02 9.484510868787765503e-02 4.690406471490859985e-02 1.503506451845169067e-01 -1.106160357594490051e-01 -7.153324782848358154e-02 -3.755575045943260193e-02 3.781025484204292297e-02 -9.599838405847549438e-03 2.903001196682453156e-02 -1.518889218568801880e-01 -6.541961431503295898e-02 -9.037463366985321045e-02 -4.705024510622024536e-02 -1.334720253944396973e-01 -1.000270061194896698e-02 1.561945527791976929e-01 7.053964305669069290e-03 -1.155249625444412231e-01 3.173425048589706421e-02 2.750713005661964417e-02 2.675982564687728882e-02 7.621741294860839844e-02 -4.858723655343055725e-02 -1.282718330621719360e-01 7.879031449556350708e-02 1.142077445983886719e-01 -4.517307877540588379e-02 1.321793794631958008e-01 -1.277352683246135712e-02 5.284280702471733093e-02 1.152244955301284790e-01 2.528226971626281738e-01 1.226021815091371536e-02 1.272128522396087646e-01 1.304398179054260254e-01 -1.897279545664787292e-02 1.579947583377361298e-02 -1.001920476555824280e-01 -1.433538924902677536e-02 -4.230825603008270264e-02
6.071222200989723206e-02 4.804204031825065613e-02 2.842912375926971436e-01 -5.436909198760986328e-02 1.325134634971618652e-01 -5.971202254295349121e-02 -2.653390467166900635e-01 1.589835882186889648e-01 -9.417030028998851776e-03 3.841641545295715332e-02 4.736964404582977295e-02 -3.157556056976318359e-02 -4.561403393745422363e-02 1.869097352027893066e-03 4.731059819459915161e-02 -2.733356319367885590e-02 2.076250016689300537e-01 -5.913760513067245483e-02 1.485791355371475220e-01 7.630640268325805664e-02 -3.182608187198638916e-01 9.961335361003875732e-02 6.259483844041824341e-02 -1.981159672141075134e-02 -2.008430287241935730e-02 4.373677819967269897e-02 -5.427217110991477966e-02 -3.811202943325042725e-03 -6.951978802680969238e-02 2.345409989356994629e-02 1.162971407175064087e-01 4.369964078068733215e-02 1.270376890897750854e-01 6.561599671840667725e-02 -2.901347875595092773e-01 -1.243891119956970215e-01 -2.158531919121742249e-02 -2.829221636056900024e-02 -2.841049339622259140e-03 -4.911323636770248413e-02 1.264172792434692383e-01 -4.006158187985420227e-02 -1.731012389063835144e-02 -2.117873877286911011e-01 2.762112021446228027e-01 5.927736684679985046e-02 2.289397269487380981e-01 -5.043678730726242065e-02 -1.033719480037689209e-01 -1.179844886064529419e-01 3.149097412824630737e-02 2.836486324667930603e-02 -4.476315900683403015e-02 7.572837173938751221e-02 -4.386611282825469971e-02 3.686862438917160034e-02 -1.974154822528362274e-02 1.655673980712890625e-01 8.618812263011932373e-02 1.001716684550046921e-02 7.904546707868576050e-02 -3.319009765982627869e-02 -8.763086795806884766e-02 -1.712417230010032654e-02 -6.422535330057144165e-02 -1.736344583332538605e-02 1.350132282823324203e-02 -3.753241524100303650e-02 1.937950216233730316e-02 6.206627469509840012e-03
2.234577573835849762e-02 -4.072441458702087402e-01 3.148797154426574707e-02 6.905297935009002686e-02 1.455067247152328491e-01 -1.368751376867294312e-01 2.825909107923507690e-02 2.331560850143432617e-01 -1.308131515979766846e-01 -6.772309076040983200e-03 6.395768374204635620e-02 -8.069331943988800049e-02 4.750406369566917419e-02 -8.814137428998947144e-02 -2.882468700408935547e-02 -1.205492392182350159e-01 4.262279719114303589e-02 -1.191926002502441406e-02 4.174399003386497498e-02 -4.882287234067916870e-02 -1.424296498298645020e-01 2.097665667533874512e-01 1.022011041641235352e-01 -6.336298584938049316e-02 6.947858631610870361e-02 -9.638669341802597046e-02 6.011930480599403381e-02 1.086331754922866821e-01 -9.411409497261047363e-02 3.975855559110641479e-02 1.216107830405235291e-01 1.240131556987762451e-01 1.495153158903121948e-01 -7.136684656143188477e-02 -1.607867926359176636e-01 -1.195804700255393982e-01 4.792040959000587463e-02 -1.867732405662536621e-02 -8.566363900899887085e-02 -5.924967676401138306e-02 -3.503248468041419983e-02 -8.341182954609394073e-03 4.867152124643325806e-02 9.709478914737701416e-02 1.660865992307662964e-01 3.602807968854904175e-02 5.856357142329216003e-02 6.733124703168869019e-02 -1.049672588706016541e-01 -1.747091710567474365e-01 5.904604867100715637e-02 1.339434087276458740e-01 -3.318339958786964417e-02 8.467914164066314697e-02 1.278327591717243195e-02 -3.621468693017959595e-02 4.670085012912750244e-02 4.251019656658172607e-01 -5.716725811362266541e-02 -2.036101669073104858e-01 9.931007027626037598e-02 2.128393799066543579e-01 -7.255437225103378296e-02 -1.773840934038162231e-01 -7.679735869169235229e-02 -4.417355358600616455e-02 1.017312984913587570e-02 1.424426734447479248e-01 -8.047318458557128906e-02 2.533664926886558533e-02
8.705220371484756470e-02 -1.064585871063172817e-03 -2.149026840925216675e-01 9.261296130716800690e-03 2.444372177124023438e-01 1.501125283539295197e-02 3.820169949904084206e-03 -5.084719881415367126e-02 1.251939591020345688e-02 6.414683535695075989e-03 6.797315180301666260e-02 -5.350094288587570190e-02 -2.024988178163766861e-03 3.523273020982742310e-02 -5.487091094255447388e-02 7.206812500953674316e-02 -1.573879569768905640e-01 1.935169287025928497e-02 2.120160162448883057e-01 -2.307728119194507599e-02 -1.438521891832351685e-01 -8.275780826807022095e-02 4.939291626214981079e-03 -1.061671786010265350e-02 5.801067128777503967e-02 2.746390178799629211e-02 5.883662775158882141e-02 3.537048771977424622e-02 -6.592419743537902832e-02 1.196230202913284302e-02 -2.182868272066116333e-01 1.157404556870460510e-01 3.073609173297882080e-01 2.782952599227428436e-02 3.931949287652969360e-02 1.220036596059799194e-01 -4.688086733222007751e-02 -1.695420220494270325e-02 -1.160423457622528076e-01 1.962673105299472809e-02 4.867251589894294739e-02 6.845749169588088989e-02 -5.935165286064147949e-02 7.678477466106414795e-02 -1.686962544918060303e-01 4.987918213009834290e-02 2.992369830608367920e-01 4.709901288151741028e-02 -3.292724862694740295e-02 2.180997747927904129e-03 -4.906228184700012207e-02 -1.146752852946519852e-02 -4.008825868368148804e-02 6.344237178564071655e-02 -1.204533353447914124e-01 -1.354055255651473999e-01 9.624939411878585815e-02 -1.649477481842041016e-01 -9.732605516910552979e-02 -1.935557126998901367e-01 1.240696161985397339e-01 -6.881634891033172607e-02 -7.028228789567947388e-02 9.277568198740482330e-03 6.888862699270248413e-02 3.292626515030860901e-02 3.055733814835548401e-02 -5.339919403195381165e-02 1.497992780059576035e-02 -3.415322862565517426e-03
2.297991700470447540e-02 2.147643119096755981e-01 -2.583128511905670166e-01 -2.489468306303024292e-01 -3.105368614196777344e-01 1.482789963483810425e-01 -1.979410275816917419e-02 -1.892217993736267090e-02 -1.027790457010269165e-01 6.839106231927871704e-02 -7.411528378725051880e-02 -5.449328199028968811e-02 6.907168775796890259e-03 -1.811933703720569611e-02 4.190389439463615417e-02 -5.194691475480794907e-03 -3.531099557876586914e-01 1.266409456729888916e-02 -3.051226139068603516e-01 5.127710755914449692e-03 -2.530664019286632538e-02 -1.418928653001785278e-01 3.905593603849411011e-02 2.685991488397121429e-02 -4.158442094922065735e-02 -1.228878647089004517e-01 1.470198668539524078e-02 8.881213515996932983e-02 -4.037027433514595032e-02 -2.367400936782360077e-02 -2.760301828384399414e-01 2.387361600995063782e-02 -3.003219068050384521e-01 -2.154410071671009064e-02 5.539426580071449280e-02 1.424246579408645630e-01 8.322647213935852051e-02 -5.317629873752593994e-02 6.711572408676147461e-02 6.066983938217163086e-02 -7.254551164805889130e-03 -2.233994379639625549e-02 -1.064159441739320755e-02 1.040086299180984497e-01 -2.697264552116394043e-01 5.599319934844970703e-02 -1.453516781330108643e-01 1.373936831951141357e-01 -1.796791097149252892e-03 -5.107719823718070984e-02 1.405257917940616608e-02 -1.324036344885826111e-02 3.086546249687671661e-02 4.306030645966529846e-02 -1.858429424464702606e-02 -1.043587625026702881e-01 -9.004661813378334045e-03 -3.083367645740509033e-01 -1.426114737987518311e-01 1.424985677003860474e-01 -1.934398859739303589e-01 -2.820606827735900879e-01 1.110592111945152283e-01 7.278620451688766479e-02 -3.045594319701194763e-02 -2.920571528375148773e-02 6.116538867354393005e-02 7.372283190488815308e-02 1.460331142880022526e-03 5.272319167852401733e-02
-9.638470411300659180e-02 -4.842437058687210083e-02 2.499399036169052124e-01 7.781326025724411011e-02 7.367965579032897949e-02 7.510291785001754761e-02 6.402651779353618622e-03 5.992890894412994385e-02 9.974305331707000732e-02 1.152448263019323349e-02 -1.469726767390966415e-02 2.467800304293632507e-02 -4.180712997913360596e-02 -1.177904605865478516e-01 7.716841250658035278e-02 3.159747272729873657e-02 2.560431659221649170e-01 -1.346186269074678421e-02 4.661175981163978577e-02 -3.136740252375602722e-02 -8.141650259494781494e-02 -7.208067923784255981e-02 8.664190024137496948e-02 -6.844367086887359619e-02 -5.143229663372039795e-02 -3.651823103427886963e-02 -4.760558158159255981e-02 5.156755819916725159e-02 2.249529818072915077e-03 4.675819352269172668e-02 1.917424798011779785e-01 -2.569882869720458984e-01 5.285893008112907410e-02 -1.203788667917251587e-01 -1.995118148624897003e-02 -8.797749876976013184e-02 -7.487694919109344482e-02 -2.224841900169849396e-02 -5.179731175303459167e-02 2.073698677122592926e-02 3.027342492714524269e-03 1.393498331308364868e-01 -8.273081853985786438e-03 1.129004582762718201e-01 1.802406609058380127e-01 -2.861385941505432129e-01 2.599129639565944672e-02 -1.726687401533126831e-01 -5.849102512001991272e-03 -2.026417851448059082e-01 -1.107641607522964478e-01 -8.479204028844833374e-02 2.804045751690864563e-02 9.272104501724243164e-02 2.545059844851493835e-02 2.143086940050125122e-01 2.648515999317169189e-02 -1.295351386070251465e-01 -1.268514082767069340e-03 -2.244414389133453369e-01 4.005035385489463806e-02 -2.040002644062042236e-01 -3.968990594148635864e-02 -6.706701964139938354e-02 3.041019849479198456e-02 8.529952168464660645e-02 8.523333072662353516e-02 1.729269884526729584e-02 5.276465415954589844e-02 1.185001954436302185e-01
-1.764071583747863770e-01 1.023924499750137329e-01 -6.974793225526809692e-02 -1.339929737150669098e-02 -4.363201092928647995e-03 -5.038000270724296570e-02 -6.046187877655029297e-02 7.954617030918598175e-03 -4.733646288514137268e-02 -7.815258204936981201e-02 -1.766510903835296631e-01 -5.692186951637268066e-02 2.652254700660705566e-01 -5.927783250808715820e-02 -1.316572874784469604e-01 1.592388898134231567e-01 -1.651739142835140228e-02 6.142432987689971924e-02 1.300446540117263794e-01 -2.268185466527938843e-02 -1.781117729842662811e-02 -2.068205177783966064e-02 -6.468077003955841064e-02 4.453501105308532715e-02 -2.617056667804718018e-01 -1.446667015552520752e-01 2.986678183078765869e-01 8.554579317569732666e-02 -1.427704691886901855e-01 -3.971750661730766296e-02 -5.111613776534795761e-03 8.834679424762725830e-02 5.296610295772552490e-02 -2.637492865324020386e-02 4.186495020985603333e-02 -7.556867599487304688e-02 -1.332669854164123535e-01 -4.497627727687358856e-03 -1.823315769433975220e-01 -8.116080425679683685e-03 2.084318846464157104e-01 -1.213647075928747654e-03 -2.074343264102935791e-01 -1.146065145730972290e-01 -1.135579794645309448e-01 -1.122142300009727478e-01 7.373701035976409912e-02 5.575277656316757202e-02 6.941483914852142334e-02 -5.592233967036008835e-03 -1.751350611448287964e-01 9.793319553136825562e-02 -2.719211578369140625e-01 1.069661453366279602e-01 2.598942518234252930e-01 -6.821227818727493286e-02 2.298232720931991935e-04 -1.964610368013381958e-01 1.967126280069351196e-01 1.353322267532348633e-01 6.673640012741088867e-02 1.984535483643412590e-03 1.372296661138534546e-01 -2.113419771194458008e-02 -1.557637304067611694e-01 4.561258852481842041e-02 -1.762478649616241455e-01 1.655201017856597900e-01 9.655746817588806152e-02 -2.605690620839595795e-02
-6.462239474058151245e-02 4.361521452665328979e-02 -2.562713921070098877e-01 1.606797054409980774e-02 7.531319558620452881e-02 7.944857329130172729e-02 1.619073599576950073e-01 1.908105015754699707e-01 -2.604386769235134125e-02 1.334712654352188110e-01 -6.846129894256591797e-02 -5.486517772078514099e-02 8.566501736640930176e-02 -5.047013238072395325e-02 -1.066228374838829041e-01 1.890608295798301697e-02 -6.609962880611419678e-02 -7.150006294250488281e-02 3.915328904986381531e-02 8.992917090654373169e-02 2.114163339138031006e-01 1.122625619173049927e-01 7.235979288816452026e-02 2.057319879531860352e-02 2.218989469110965729e-02 2.801432274281978607e-02 -2.257070876657962799e-02 1.300980057567358017e-02 8.165437728166580200e-02 -1.125946715474128723e-01 -2.560169100761413574e-01 2.478786557912826538e-02 5.257391557097434998e-02 -1.313865780830383301e-01 2.091327160596847534e-01 -1.011023372411727905e-01 2.175147458910942078e-02 -8.554948121309280396e-02 9.704856574535369873e-02 4.631359502673149109e-02 4.546665120869874954e-03 8.647503703832626343e-02 4.709873348474502563e-02 -2.684341743588447571e-03 -1.122134402394294739e-01 -1.073762178421020508e-01 6.890888512134552002e-02 -1.417431533336639404e-01 2.138348966836929321e-01 -1.081168726086616516e-01 -1.326955668628215790e-02 -1.373179703950881958e-01 -1.163234817795455456e-03 1.162154227495193481e-01 -1.205750927329063416e-01 4.531129077076911926e-02 5.211158841848373413e-02 9.120690077543258667e-02 -4.972088336944580078e-02 1.115414127707481384e-01 4.985060170292854309e-02 -4.993794485926628113e-02 1.664589047431945801e-01 -2.481974959373474121e-01 -2.213994972407817841e-02 -1.395734492689371109e-02 5.379675701260566711e-02 2.626075595617294312e-02 4.370259866118431091e-02 8.230058848857879639e-02
-6.313792616128921509e-02 -2.937131524085998535e-01 1.876250207424163818e-01 1.276097148656845093e-01 1.722178757190704346e-01 4.432111978530883789e-02 1.237127780914306641e-01 5.282828211784362793e-02 -3.219872340559959412e-02 2.417519092559814453e-01 -3.558509796857833862e-02 -8.278509229421615601e-02 -1.073832437396049500e-01 1.458559334278106689e-01 -1.153133511543273926e-01 -2.293526679277420044e-01 1.163561940193176270e-01 1.908416301012039185e-02 5.366578325629234314e-02 -6.403829902410507202e-02 1.127486024051904678e-02 9.221605956554412842e-02 -2.077305875718593597e-02 -1.386242546141147614e-02 -9.269931167364120483e-02 7.641113828867673874e-03 -1.610390394926071167e-01 4.667770583182573318e-03 -5.464971810579299927e-02 1.275335717946290970e-02 6.108608841896057129e-02 2.900926209986209869e-02 1.364332437515258789e-01 -7.167650759220123291e-02 1.171353459358215332e-01 -3.437448665499687195e-02 5.990406870841979980e-02 -5.511433351784944534e-03 -3.175282478332519531e-02 6.324662361294031143e-03 2.444051764905452728e-02 -6.132812425494194031e-02 -1.041292473673820496e-01 3.536962866783142090e-01 9.114983677864074707e-02 -1.022148430347442627e-01 1.344725489616394043e-02 -3.276427835226058960e-02 -6.302900612354278564e-02 -4.920423030853271484e-02 7.641427963972091675e-02 8.689211681485176086e-03 3.578690811991691589e-02 9.505672752857208252e-02 2.583259157836437225e-02 -1.130709797143936157e-01 1.276818662881851196e-01 8.830713480710983276e-02 -2.613716060295701027e-05 2.010290510952472687e-02 1.773105114698410034e-01 -1.158166900277137756e-01 -2.369235642254352570e-02 -4.741866514086723328e-02 -5.002494901418685913e-02 -2.369513958692550659e-01 -8.253081887960433960e-02 5.946755874902009964e-03 6.224506068974733353e-03 2.337522059679031372e-02
1.082507893443107605e-01 -4.879271611571311951e-02 8.126683533191680908e-02 3.410731628537178040e-02 -2.108304202556610107e-02 -7.396766543388366699e-02 -9.154696762561798096e-02 -2.205572873353958130e-01 3.511426970362663269e-02 -1.383065134286880493e-01 -6.072439625859260559e-02 1.771003240719437599e-03 -3.323764726519584656e-02 -1.985111273825168610e-02 -3.824201971292495728e-02 7.656093686819076538e-02 2.669580280780792236e-01 -1.773740164935588837e-02 -1.400587409734725952e-01 -7.147774845361709595e-02 -1.503506600856781006e-01 -7.917037606239318848e-02 -2.991381846368312836e-02 -4.284615814685821533e-02 3.711003437638282776e-02 7.484650611877441406e-02 3.266930207610130310e-02 2.103453502058982849e-02 -5.931214615702629089e-02 -6.254295352846384048e-03 9.544112533330917358e-02 3.969620913267135620e-02 -1.871930202469229698e-03 1.156799569725990295e-01 -2.417305707931518555e-01 1.389198303222656250e-01 3.965089842677116394e-02 1.608677804470062256e-01 -5.251812189817428589e-02 -1.039586365222930908e-01 8.106251806020736694e-02 -1.649736613035202026e-02 2.647405304014682770e-02 9.440476447343826294e-02 1.182779446244239807e-01 7.948461174964904785e-02 -7.547275628894567490e-03 1.084025949239730835e-01 -1.851084828376770020e-01 9.071200340986251831e-02 -7.459960877895355225e-02 1.222253665328025818e-01 4.366322979331016541e-02 -4.221044480800628662e-02 -3.565783798694610596e-02 -8.221622556447982788e-02 -4.561237990856170654e-02 -1.482117027044296265e-01 6.484948843717575073e-02 -1.129491999745368958e-01 -7.053209096193313599e-02 5.195984616875648499e-02 -1.483626067638397217e-01 2.027079313993453979e-01 3.164307214319705963e-03 -2.976103127002716064e-02 -6.311999261379241943e-02 -6.870987266302108765e-02 -3.618972003459930420e-02 -4.989149421453475952e-02
-7.947490364313125610e-02 -3.281269967555999756e-02 -8.490072563290596008e-03 2.638715691864490509e-02 -8.712883293628692627e-02 -3.389989584684371948e-02 9.712650626897811890e-02 3.943750634789466858e-02 -3.435543738305568695e-03 5.566060543060302734e-02 4.439862444996833801e-02 -7.892886549234390259e-02 -4.496105760335922241e-02 6.254550069570541382e-02 1.031208708882331848e-01 -1.402461081743240356e-01 -4.430955648422241211e-02 -2.771939337253570557e-02 9.471329301595687866e-02 -7.740283012390136719e-02 5.562371388077735901e-02 7.501930743455886841e-02 -2.852101624011993408e-02 -3.194399178028106689e-02 -4.681366682052612305e-02 -4.410672560334205627e-02 -1.374435517936944962e-02 2.707762271165847778e-02 -9.396214783191680908e-02 -1.830927282571792603e-01 -1.163419857621192932e-01 -6.791317462921142578e-02 -3.601115569472312927e-02 -1.027287319302558899e-01 -1.368602961301803589e-01 -1.097373068332672119e-01 6.459581106901168823e-02 3.671165183186531067e-02 -3.341099619865417480e-02 7.181932777166366577e-02 -8.073513396084308624e-03 -5.387248471379280090e-02 6.627833098173141479e-02 1.455725356936454773e-02 -8.239472657442092896e-02 -5.529930070042610168e-02 6.049316003918647766e-02 -1.478135436773300171e-01 9.235683083534240723e-02 -7.671700417995452881e-02 -8.589542657136917114e-02 2.711398154497146606e-02 -5.285743996500968933e-02 1.666067242622375488e-01 8.610071986913681030e-02 -6.198116764426231384e-02 3.048865823075175285e-03 -4.703735113143920898e-01 -2.016880549490451813e-02 7.881006598472595215e-02 -1.504752133041620255e-02 -3.234175443649291992e-01 2.705709077417850494e-02 -1.268388032913208008e-01 3.750111907720565796e-02 -7.396262884140014648e-02 -1.447342988103628159e-02 -4.262785241007804871e-02 -1.880161277949810028e-02 -2.135301381349563599e-02
8.342246711254119873e-02 1.081513911485671997e-01 2.696529962122440338e-02 1.806925982236862183e-01 -3.890497684478759766e-01 7.693678140640258789e-02 3.536974787712097168e-01 1.272181570529937744e-01 -5.158446356654167175e-02 -1.087981387972831726e-01 4.298259504139423370e-03 -3.455045819282531738e-02 -1.027960404753684998e-01 7.408509403467178345e-02 -4.201249405741691589e-02 1.141604855656623840e-01 -1.542738378047943115e-01 1.196587830781936646e-02 -2.473388463258743286e-01 1.904640719294548035e-02 3.034760951995849609e-01 8.855074644088745117e-02 -7.716713100671768188e-02 -1.234148070216178894e-02 9.474717080593109131e-02 1.088917553424835205e-01 8.881179988384246826e-02 3.948191180825233459e-02 -8.095593005418777466e-02 1.200613006949424744e-02 -1.059653237462043762e-01 -4.098762571811676025e-02 -3.373758494853973389e-01 3.806988894939422607e-02 1.760667562484741211e-01 4.603410884737968445e-02 9.527366608381271362e-02 9.074313938617706299e-02 -1.298167705535888672e-01 -4.518242925405502319e-02 5.701310187578201294e-02 -6.873625516891479492e-02 8.950693160295486450e-02 1.151919960975646973e-01 -1.663260757923126221e-01 2.583329752087593079e-02 -3.521488904953002930e-01 -5.006314814090728760e-02 3.456043303012847900e-01 -1.603997051715850830e-01 2.768659964203834534e-02 1.399639155715703964e-02 4.786739498376846313e-02 4.104789346456527710e-02 -7.108209282159805298e-02 -5.088841915130615234e-02 -4.418418183922767639e-02 -3.483576476573944092e-01 -1.249607726931571960e-01 -1.717237234115600586e-01 -4.009303152561187744e-01 -7.537174969911575317e-02 3.149482607841491699e-01 -9.273629635572433472e-02 2.326428890228271484e-02 1.584599539637565613e-02 -3.068208880722522736e-02 -6.726746261119842529e-02 2.132418751716613770e-02 9.473490528762340546e-03
3.577892482280731201e-02 6.107557099312543869e-03 1.984315514564514160e-01 4.681413120124489069e-04 3.174480795860290527e-02 1.761830970644950867e-02 6.071280222386121750e-03 1.878264360129833221e-02 -2.857907861471176147e-02 -6.247351318597793579e-02 -4.130295664072036743e-02 2.054954878985881805e-02 3.008043020963668823e-02 8.029146492481231689e-02 -7.477600127458572388e-02 1.993774622678756714e-02 2.470549196004867554e-01 -1.218886151909828186e-01 2.306200005114078522e-02 1.076977998018264771e-01 -8.790306001901626587e-02 2.179545536637306213e-02 -2.028084360063076019e-02 9.156297892332077026e-02 -3.074450790882110596e-02 -3.898527100682258606e-02 -1.047373116016387939e-01 2.875368297100067139e-02 -7.219368219375610352e-02 1.457595080137252808e-01 1.192983016371726990e-01 -1.909720897674560547e-01 7.756835222244262695e-02 -1.136216744780540466e-01 -5.832060426473617554e-02 7.564834505319595337e-02 -3.855343908071517944e-02 6.461849063634872437e-02 -1.110745687037706375e-02 -5.117223784327507019e-02 2.713429182767868042e-02 3.554980037733912468e-03 1.009454652667045593e-01 1.600392460823059082e-01 2.181300818920135498e-01 -2.134430110454559326e-01 1.068120300769805908e-01 -1.524513214826583862e-01 9.957553446292877197e-02 7.104583829641342163e-02 2.579968981444835663e-02 -1.373551506549119949e-02 1.227365992963314056e-02 -8.309115469455718994e-02 1.997442170977592468e-02 -4.054620489478111267e-02 1.218990609049797058e-02 3.915839195251464844e-01 9.156779199838638306e-02 -2.998062074184417725e-01 -1.212934870272874832e-02 1.501658111810684204e-01 -2.756911329925060272e-02 1.262563019990921021e-01 4.160755872726440430e-02 -5.037439987063407898e-02 3.351415798533707857e-04 -2.794305980205535889e-02 1.984154060482978821e-02 -3.857419267296791077e-02
1.343076210469007492e-02 9.912453591823577881e-02 2.814298272132873535e-01 -2.209900021553039551e-01 -1.369681358337402344e-01 1.679061800241470337e-01 -2.975372970104217529e-01 3.248942792415618896e-01 -3.991661220788955688e-02 4.227260500192642212e-02 1.003357246518135071e-01 1.711173541843891144e-02 3.699602931737899780e-02 2.892929315567016602e-02 -4.739711433649063110e-02 4.618655890226364136e-02 2.098212689161300659e-01 -1.033880412578582764e-01 -6.981676071882247925e-02 1.161750629544258118e-01 -2.341958880424499512e-01 1.609365940093994141e-01 -1.091838721185922623e-02 2.465989254415035248e-02 -6.098771840333938599e-02 -2.764232922345399857e-03 1.876246929168701172e-02 1.076404750347137451e-01 8.965773507952690125e-03 -1.182356104254722595e-02 2.701114118099212646e-01 9.067856520414352417e-02 -1.424297541379928589e-01 -9.138268232345581055e-02 -2.953029870986938477e-01 -2.172303199768066406e-01 -7.691475749015808105e-02 -4.225493595004081726e-02 -1.190951541066169739e-01 -7.492842525243759155e-02 3.318251669406890869e-02 -3.420867770910263062e-02 2.008917927742004395e-02 1.079808473587036133e-01 3.534647524356842041e-01 2.032195925712585449e-01 -1.432721619494259357e-03 -1.078020222485065460e-02 -1.723413169384002686e-01 -1.168932989239692688e-01 9.760481119155883789e-02 -6.757938861846923828e-02 1.531728729605674744e-02 7.795613259077072144e-02 -1.766205206513404846e-02 -7.354122400283813477e-02 7.358314469456672668e-03 -2.440189421176910400e-01 1.244039610028266907e-01 3.407936915755271912e-02 -9.825451998040080070e-04 -1.823669672012329102e-01 -9.347718209028244019e-02 -1.560918539762496948e-01 3.296808898448944092e-02 4.339777305722236633e-02 5.606432631611824036e-02 -1.976662874221801758e-02 -7.537053525447845459e-02 -2.898829616606235504e-02
-1.492665335536003113e-02 -8.912787586450576782e-02 -2.314476817846298218e-01 -1.338368952274322510e-01 4.062135890126228333e-02 -6.296706944704055786e-02 1.940740793943405151e-01 2.225331366062164307e-01 -8.188117295503616333e-03 1.870755106210708618e-02 -9.079164266586303711e-02 2.272523939609527588e-02 -6.648386269807815552e-02 6.438648700714111328e-02 7.254031300544738770e-02 9.489060938358306885e-02 -2.123225033283233643e-01 -9.038464725017547607e-02 -1.127907037734985352e-01 5.224632471799850464e-02 2.306744754314422607e-01 -9.916702285408973694e-03 2.457846701145172119e-02 -1.074474491178989410e-02 -2.585901133716106415e-02 -6.221299991011619568e-02 7.913085073232650757e-02 -6.572379061253741384e-05 1.680439710617065430e-02 -4.566939547657966614e-02 -2.321776598691940308e-01 1.790760755538940430e-01 -7.505474984645843506e-02 -1.836989307776093483e-03 1.070904955267906189e-01 -1.049622893333435059e-01 -8.973122388124465942e-02 4.585637897253036499e-02 -5.078295245766639709e-03 -4.607190564274787903e-02 -8.229503035545349121e-02 -6.716884672641754150e-02 -8.518601208925247192e-02 1.182129606604576111e-01 -1.922452449798583984e-01 -1.347768157720565796e-01 -8.951447159051895142e-02 3.723694011569023132e-02 2.536650598049163818e-01 3.670655190944671631e-02 5.172807350754737854e-02 -6.352312862873077393e-02 7.540719211101531982e-02 1.136548593640327454e-01 2.486209943890571594e-02 1.290463935583829880e-02 1.081257220357656479e-02 -7.764845341444015503e-02 -1.539891809225082397e-01 1.800177544355392456e-01 2.564059384167194366e-02 -2.013369835913181305e-02 8.664108812808990479e-02 -1.431833505630493164e-01 1.824533380568027496e-02 9.485303424298763275e-03 4.771880060434341431e-02 -2.817162685096263885e-02 5.124095082283020020e-02 -1.093650516122579575e-02
3.120449185371398926e-02 -2.393039017915725708e-01 -2.491336464881896973e-01 4.243207871913909912e-01 -1.853470653295516968e-01 1.408957988023757935e-01 -2.012589424848556519e-01 1.227064952254295349e-01 8.692187070846557617e-02 -1.179172396659851074e-01 -9.691619127988815308e-02 -2.903701737523078918e-02 4.807678237557411194e-02 -4.631410166621208191e-02 7.783050648868083954e-03 -6.824170053005218506e-02 -2.633096873760223389e-01 2.606626152992248535e-01 -8.685155212879180908e-02 1.283200234174728394e-01 -2.395015768706798553e-02 1.177559122443199158e-01 -4.504400119185447693e-02 1.255209296941757202e-01 3.665449097752571106e-02 6.331122666597366333e-02 -1.271449923515319824e-01 -3.389080986380577087e-03 5.808644462376832962e-03 5.693866685032844543e-02 -1.318349540233612061e-01 8.399522304534912109e-02 -9.963974356651306152e-02 -7.354684919118881226e-02 -1.585549414157867432e-01 -1.501048207283020020e-01 -1.221618708223104477e-02 -7.492809742689132690e-02 -1.728492975234985352e-02 -7.994386553764343262e-02 4.575581103563308716e-02 -8.296640589833259583e-03 -5.822344496846199036e-02 1.888699829578399658e-01 -1.462547481060028076e-01 -2.582191824913024902e-01 -8.456091582775115967e-02 -4.759195446968078613e-02 -4.040978103876113892e-02 2.284061163663864136e-03 -1.010638661682605743e-03 1.654602773487567902e-02 5.166108161211013794e-02 2.676512114703655243e-02 3.201729804277420044e-02 6.304715573787689209e-02 1.402015145868062973e-02 8.574236184358596802e-02 4.389790818095207214e-02 -5.351576805114746094e-01 1.563064754009246826e-02 -1.697115451097488403e-01 -9.171732515096664429e-02 -1.062755957245826721e-01 -2.124167978763580322e-02 5.199011415243148804e-02 1.129764690995216370e-02 1.181520335376262665e-02 2.170759439468383789e-02 -9.005453437566757202e-03
6.328445672988891602e-02 -9.552024304866790771e-02 2.689139842987060547e-01 -1.854862868785858154e-01 -2.418047934770584106e-01 -2.209224849939346313e-01 2.350971698760986328e-01 1.866755634546279907e-01 1.064916923642158508e-01 5.777706857770681381e-03 -1.281949225813150406e-02 -7.616033405065536499e-02 1.019070222973823547e-01 -7.516355253756046295e-03 6.294050067663192749e-02 1.013838965445756912e-02 2.676468193531036377e-01 -2.017160207033157349e-01 -3.229390829801559448e-02 -5.397769808769226074e-02 3.689991533756256104e-01 5.898066982626914978e-02 -3.752119094133377075e-02 3.433413058519363403e-02 7.541710510849952698e-03 -8.503887802362442017e-02 -4.733993858098983765e-02 4.163483902812004089e-02 5.278544127941131592e-02 -1.824879320338368416e-03 4.490862190723419189e-01 9.436146169900894165e-02 -2.051526904106140137e-01 2.822110988199710846e-02 3.894647955894470215e-01 -1.781689585186541080e-03 -2.894771657884120941e-02 -3.449681028723716736e-02 6.924601644277572632e-02 -6.616917997598648071e-02 -3.190622478723526001e-02 -1.646530069410800934e-02 -8.676666021347045898e-02 1.450135856866836548e-01 2.450015395879745483e-01 1.226347610354423523e-01 -1.243678554892539978e-01 2.098689675331115723e-01 3.016383349895477295e-01 2.558571845293045044e-02 -7.812581211328506470e-02 -6.851915270090103149e-02 1.709538511931896210e-02 1.172766759991645813e-01 6.048190966248512268e-02 -5.124605074524879456e-02 -8.821324259042739868e-02 -5.704000964760780334e-02 3.712296783924102783e-01 1.796270012855529785e-01 -6.108002737164497375e-02 3.639167174696922302e-02 3.300104439258575439e-01 -2.672740519046783447e-01 3.317209705710411072e-02 6.191524490714073181e-02 -4.684797301888465881e-02 1.180454120039939880e-01 -7.411049306392669678e-02 3.133091703057289124e-02
-3.367329016327857971e-02 9.200502187013626099e-02 9.396696835756301880e-02 -5.673658847808837891e-02 1.448533684015274048e-01 -1.315898553002625704e-04 7.969983667135238647e-02 2.295987866818904877e-02 -4.826292023062705994e-02 -9.311324357986450195e-02 1.045181378722190857e-01 -8.822952210903167725e-02 7.955991476774215698e-02 5.382167920470237732e-02 5.937059223651885986e-02 4.361316934227943420e-02 8.065926283597946167e-02 -7.621832937002182007e-02 -5.452626571059226990e-02 4.137836024165153503e-02 1.969591528177261353e-02 2.160020917654037476e-02 -4.095715284347534180e-02 9.237752296030521393e-03 -5.603198707103729248e-02 3.312440458103083074e-05 -8.831471204757690430e-02 1.586030982434749603e-02 4.516142606735229492e-02 -6.439267843961715698e-02 1.690743714570999146e-01 -1.249831989407539368e-01 1.214850619435310364e-01 2.222687192261219025e-02 -1.413328666239976883e-02 -1.045784726738929749e-01 1.272260397672653198e-01 1.173456832766532898e-01 -7.485240697860717773e-02 1.658223569393157959e-01 3.366502374410629272e-02 -1.250624507665634155e-01 -1.125415042042732239e-01 -8.904550969600677490e-02 5.606576427817344666e-02 -8.572988212108612061e-02 -8.681534230709075928e-02 8.217059820890426636e-02 2.846488729119300842e-02 -1.558579802513122559e-01 -6.530420854687690735e-03 1.391917467117309570e-01 -3.984063118696212769e-02 8.765367418527603149e-02 -9.315339475870132446e-02 -2.420809715986251831e-01 4.480054602026939392e-02 -4.661060124635696411e-02 4.382840916514396667e-02 -1.268687546253204346e-01 6.125172972679138184e-02 1.226849183440208435e-01 -1.806863769888877869e-02 -1.556655466556549072e-01 -1.475079916417598724e-02 -9.534256160259246826e-02 4.425656050443649292e-02 2.039131969213485718e-01 6.267430633306503296e-02 -3.688648045063018799e-01
-4.565977491438388824e-03 4.417403414845466614e-02 2.009074836969375610e-01 6.647657603025436401e-03 4.671019688248634338e-02 3.238267078995704651e-02 -3.424578309059143066e-01 -1.566487736999988556e-02 -1.022182498127222061e-02 1.287329662591218948e-02 -7.781112939119338989e-02 4.116980731487274170e-02 -7.939654588699340820e-02 -3.384898230433464050e-02 2.856946364045143127e-02 -1.312617398798465729e-02 3.753233551979064941e-01 1.376808434724807739e-01 9.897311218082904816e-03 -6.533507723361253738e-03 -1.968938857316970825e-01 -8.770259469747543335e-02 -1.257355790585279465e-02 4.767013341188430786e-02 1.134142875671386719e-01 4.933009669184684753e-02 -4.378664866089820862e-02 8.598645031452178955e-02 1.904530823230743408e-02 2.973522618412971497e-02 2.386154830455780029e-01 1.626596450805664062e-01 6.269905716180801392e-02 -6.408895831555128098e-03 -1.849589347839355469e-01 9.881421923637390137e-03 -1.878407783806324005e-02 -7.532632350921630859e-02 4.932329524308443069e-03 -1.045083925127983093e-01 1.325369328260421753e-01 -1.168099716305732727e-01 1.460558455437421799e-02 -7.838132232427597046e-02 3.652264773845672607e-01 -5.754357203841209412e-02 -6.706384569406509399e-02 -3.669371828436851501e-02 -1.380607932806015015e-01 3.015913069248199463e-03 -4.595756158232688904e-02 3.269653767347335815e-03 -3.301703184843063354e-02 1.965183205902576447e-02 6.056980229914188385e-03 1.007035002112388611e-01 -5.483004450798034668e-02 1.932444982230663300e-02 1.195375099778175354e-01 -2.570938467979431152e-01 -3.667283058166503906e-02 1.588583365082740784e-02 -2.890303432941436768e-01 8.715607970952987671e-02 8.607698231935501099e-02 9.583056904375553131e-03 -3.054632805287837982e-02 -2.357197692617774010e-03 -1.557004172354936600e-02 -3.677805140614509583e-02
-9.338531643152236938e-02 4.385598935186862946e-03 -2.097852230072021484e-01 5.358604341745376587e-02 1.105731204152107239e-01 -3.402572497725486755e-02 2.120298445224761963e-01 9.370546787977218628e-02 2.419662429019808769e-03 1.773881539702415466e-02 4.725964739918708801e-02 6.198840960860252380e-02 4.027900472283363342e-02 2.457161061465740204e-02 3.817984461784362793e-02 9.172984212636947632e-02 -2.887724936008453369e-01 1.092667803168296814e-01 1.786789298057556152e-01 -3.496431559324264526e-02 1.014341935515403748e-01 1.426222622394561768e-01 6.724021583795547485e-02 -1.147773675620555878e-02 1.113201379776000977e-01 4.204432014375925064e-03 -7.504756748676300049e-02 -2.050548419356346130e-02 2.133099175989627838e-02 2.371151186525821686e-02 -3.618088662624359131e-01 9.535212069749832153e-02 2.611194849014282227e-01 7.347133755683898926e-02 6.134139746427536011e-02 -1.445658504962921143e-01 3.173265606164932251e-02 6.121145188808441162e-02 -1.128309965133666992e-01 -1.140052750706672668e-01 1.999557390809059143e-02 1.284989416599273682e-01 6.246726587414741516e-02 1.316981464624404907e-01 -3.390541374683380127e-01 -1.076099872589111328e-01 1.719838231801986694e-01 3.821661695837974548e-02 1.119996532797813416e-01 -6.775145232677459717e-02 -6.254392862319946289e-02 -5.595362186431884766e-02 3.680503368377685547e-02 9.376583248376846313e-02 -3.283454105257987976e-02 -5.596126243472099304e-02 -2.963260374963283539e-02 -2.562178075313568115e-01 -1.828870773315429688e-01 -1.767334192991256714e-01 1.761422157287597656e-01 -3.016987070441246033e-02 4.461612552404403687e-02 -2.722363919019699097e-02 -4.059617221355438232e-02 -1.414917502552270889e-02 -9.871096163988113403e-02 -4.716887697577476501e-02 4.364309459924697876e-02 -8.152402192354202271e-02
1.151205971837043762e-01 8.529614657163619995e-02 2.297817915678024292e-01 4.776806104928255081e-03 -1.463633328676223755e-01 3.090598620474338531e-02 9.829603880643844604e-02 -1.117722243070602417e-01 5.092598870396614075e-02 4.073635861277580261e-02 -6.708456575870513916e-02 -2.411918714642524719e-02 -4.742129892110824585e-02 5.846587568521499634e-02 8.933964418247342110e-04 8.715981990098953247e-02 9.064412862062454224e-02 -3.757327049970626831e-02 -1.543026268482208252e-01 3.239814937114715576e-02 1.855410188436508179e-01 -7.239828258752822876e-02 -2.090077660977840424e-02 -1.332146394997835159e-02 -9.679575264453887939e-02 8.418247103691101074e-03 -2.751482650637626648e-02 1.692229323089122772e-02 -6.248760595917701721e-02 -3.246173262596130371e-02 2.159774452447891235e-01 -3.009858913719654083e-02 -2.325131595134735107e-01 -3.667107224464416504e-02 4.468474537134170532e-02 9.798682481050491333e-02 1.784793287515640259e-02 -5.882658809423446655e-02 -9.721820242702960968e-03 8.007993549108505249e-02 9.817114472389221191e-02 3.001344949007034302e-02 -2.231436595320701599e-02 9.780556708574295044e-02 2.532742023468017578e-01 1.763545125722885132e-01 -2.123807072639465332e-01 -2.152662910521030426e-02 1.952992975711822510e-01 1.002327278256416321e-01 -4.879569262266159058e-02 7.234466075897216797e-02 1.231366246938705444e-01 -6.703715026378631592e-02 1.673276163637638092e-02 -5.217402800917625427e-02 -3.389812633395195007e-02 -2.435298413038253784e-01 6.218792870640754700e-02 -1.174261346459388733e-01 -7.904601842164993286e-02 -4.477333277463912964e-03 1.539946943521499634e-01 -1.273020822554826736e-02 -3.221207065507769585e-03 -4.222519695758819580e-02 5.478558689355850220e-02 1.117591280490159988e-03 -3.445401042699813843e-02 -5.503565073013305664e-02
-1.130794733762741089e-01 -1.287664622068405151e-01 -1.424693167209625244e-01 -3.006601929664611816e-01 3.841763362288475037e-02 -2.485266700387001038e-02 6.883250176906585693e-02 -1.288788206875324249e-02 -8.400781080126762390e-03 -2.271429449319839478e-02 -4.906160384416580200e-02 3.604700788855552673e-02 -7.046395540237426758e-02 2.933441847562789917e-02 8.483854681253433228e-02 -4.599100351333618164e-02 -1.593451499938964844e-01 -1.006009131669998169e-01 1.542317569255828857e-01 1.160030066967010498e-01 1.764678806066513062e-01 -3.630977356806397438e-03 -8.111859112977981567e-02 -4.658053815364837646e-02 3.858181461691856384e-02 -1.130635514855384827e-01 3.878166154026985168e-02 5.808458104729652405e-02 6.739065796136856079e-02 -9.066844731569290161e-02 -3.872020915150642395e-02 1.590168029069900513e-01 1.232408359646797180e-01 -1.033855080604553223e-01 6.665011495351791382e-02 -1.025746464729309082e-01 3.544163703918457031e-02 8.418292552232742310e-02 1.173291634768247604e-02 -9.984363615512847900e-02 3.349387273192405701e-02 -5.036046728491783142e-02 -4.821447655558586121e-02 1.262022405862808228e-01 -2.169691622257232666e-01 3.629910200834274292e-02 1.572221815586090088e-01 1.978197880089282990e-02 1.214833110570907593e-01 4.689658526331186295e-03 7.755934726446866989e-03 6.114671379327774048e-02 1.286148726940155029e-01 1.049334183335304260e-01 -1.853780634701251984e-02 -2.036083117127418518e-02 1.913834828883409500e-03 1.691264510154724121e-01 9.334015101194381714e-02 1.981066465377807617e-01 -4.535973072052001953e-02 1.084964629262685776e-02 7.213503867387771606e-02 1.261630803346633911e-01 4.758727177977561951e-02 -7.638694345951080322e-02 -1.084397211670875549e-01 7.134670764207839966e-02 2.138302847743034363e-02 -2.201881073415279388e-02
-2.011897973716259003e-02 1.630007475614547729e-02 3.164998888969421387e-01 1.646734029054641724e-02 3.255373835563659668e-01 -1.337661687284708023e-02 4.633517190814018250e-02 -6.224915385246276855e-02 -5.347698926925659180e-02 3.404584154486656189e-02 -6.457536667585372925e-02 5.639918893575668335e-02 -3.438710235059261322e-03 -2.404482848942279816e-02 9.525028057396411896e-03 -3.135690838098526001e-02 2.509045302867889404e-01 6.966874003410339355e-02 2.354322075843811035e-01 5.608394369482994080e-02 -2.477032504975795746e-02 -7.050962001085281372e-02 2.232195250689983368e-02 9.732025861740112305e-02 5.577358603477478027e-02 -1.256027072668075562e-02 4.441085737198591232e-03 1.590841636061668396e-02 7.946092635393142700e-02 -6.239803042262792587e-04 1.717863678932189941e-01 3.077182732522487640e-02 2.087309360504150391e-01 -1.919170655310153961e-02 8.989669382572174072e-02 5.092522874474525452e-02 7.661264389753341675e-03 -8.074852824211120605e-02 2.164771594107151031e-02 5.856893584132194519e-02 -8.495675027370452881e-02 -4.936593398451805115e-02 -7.110530883073806763e-02 -1.361885219812393188e-01 3.222053050994873047e-01 1.368590742349624634e-01 2.945774495601654053e-01 3.049203194677829742e-02 5.352522805333137512e-02 7.024921476840972900e-02 3.448558598756790161e-02 -8.692434430122375488e-02 4.144181683659553528e-02 -8.900804817676544189e-02 2.616634592413902283e-02 4.709351062774658203e-02 6.242077797651290894e-03 1.543732285499572754e-01 -1.508517004549503326e-02 -2.601405978202819824e-01 1.389192491769790649e-01 -5.755335465073585510e-02 -4.834545310586690903e-03 7.533009164035320282e-03 -2.718140371143817902e-02 3.541192784905433655e-02 -4.454239457845687866e-02 -1.436852384358644485e-02 6.133886426687240601e-02 7.726014591753482819e-03
6.450561806559562683e-03 -8.991601318120956421e-02 -1.654570698738098145e-01 -1.326160579919815063e-01 9.247962385416030884e-02 4.633641615509986877e-02 5.131341889500617981e-02 -1.415448486804962158e-01 6.330347061157226562e-02 6.703430414199829102e-02 4.355279728770256042e-02 -1.784627325832843781e-02 -9.683711081743240356e-02 1.017237752676010132e-01 -9.158254414796829224e-02 6.292085349559783936e-02 -1.137859374284744263e-01 -1.586308702826499939e-02 -3.133952617645263672e-02 1.941626518964767456e-02 1.320071667432785034e-01 7.892523705959320068e-02 -8.113832771778106689e-02 -2.223679423332214355e-02 9.314464032649993896e-02 -2.515404671430587769e-02 1.091368570923805237e-01 -5.027378723025321960e-02 8.297728747129440308e-02 1.394408047199249268e-01 -1.263200640678405762e-01 1.751679033041000366e-01 -3.545311838388442993e-02 -1.425359696149826050e-01 1.186266914010047913e-02 2.541923820972442627e-01 5.434022843837738037e-02 -9.804585576057434082e-02 -1.239165291190147400e-01 -2.956420183181762695e-03 5.409444123506546021e-02 -1.837191581726074219e-01 7.842675782740116119e-03 1.157210171222686768e-01 -1.090364158153533936e-01 1.657286286354064941e-01 -8.298612385988235474e-02 -2.414277642965316772e-01 -4.682788625359535217e-02 1.902767121791839600e-01 1.144381240010261536e-02 -9.906860440969467163e-02 -1.149303615093231201e-01 8.183320611715316772e-02 -3.373231366276741028e-02 -8.695933967828750610e-02 -6.066604517400264740e-03 1.713451892137527466e-01 -1.099131628870964050e-01 3.242955505847930908e-01 1.648210547864437103e-02 -7.679183781147003174e-02 3.332669660449028015e-02 2.553699910640716553e-01 -1.199933979660272598e-02 -1.559412479400634766e-01 6.375669687986373901e-02 9.703581780195236206e-02 -3.721657395362854004e-02 -1.363490521907806396e-01
6.178984045982360840e-02 -1.266659647226333618e-01 7.906937040388584137e-03 -2.327211201190948486e-01 1.509190257638692856e-02 -3.030723929405212402e-01 -4.291993007063865662e-02 1.959392987191677094e-02 -6.682656705379486084e-02 2.045309916138648987e-02 -1.431959122419357300e-02 -1.286161839962005615e-01 -2.519705891609191895e-02 -5.059892311692237854e-02 7.615543901920318604e-02 -5.973400548100471497e-02 -1.630631834268569946e-02 -1.350606828927993774e-01 -1.191096454858779907e-01 -1.812694780528545380e-02 2.297739498317241669e-02 2.518886700272560120e-02 4.052542522549629211e-02 7.805934548377990723e-02 1.433217078447341919e-01 -5.848223343491554260e-02 -9.554980695247650146e-02 7.730543613433837891e-03 -1.175887435674667358e-01 1.689621359109878540e-01 1.399032920598983765e-01 5.125160887837409973e-02 9.387289732694625854e-02 2.597641348838806152e-01 8.072590827941894531e-02 -2.584192156791687012e-02 -8.612953126430511475e-02 -8.488020300865173340e-02 -5.130865424871444702e-02 7.036656141281127930e-02 9.636402875185012817e-02 7.534905802458524704e-03 2.705753222107887268e-02 6.036873459815979004e-01 -4.424122627824544907e-03 1.011719107627868652e-01 2.033309312537312508e-03 4.728173911571502686e-01 -5.275041610002517700e-02 -4.450773075222969055e-02 4.409186169505119324e-02 -7.662697136402130127e-02 -1.629828941076993942e-03 1.126902028918266296e-01 9.692589938640594482e-02 -4.926293715834617615e-02 -4.873481765389442444e-02 -5.906541347503662109e-01 -8.798676729202270508e-02 2.174295783042907715e-01 6.782080512493848801e-03 -4.168727993965148926e-01 1.744392141699790955e-02 2.752188593149185181e-02 6.324835121631622314e-02 6.094584614038467407e-02 -9.582387655973434448e-02 3.583795158192515373e-03 -6.832531094551086426e-02 8.398336172103881836e-02
6.154952570796012878e-02 -9.390252083539962769e-02 -2.484541237354278564e-01 -2.018549293279647827e-02 -1.192884668707847595e-01 3.128227544948458672e-03 -1.333339065313339233e-01 -4.222101531922817230e-03 1.759383594617247581e-03 5.116112902760505676e-02 -1.398446261882781982e-01 3.699495270848274231e-02 3.128967061638832092e-02 7.619341462850570679e-02 -7.491753250360488892e-02 8.365641348063945770e-03 -2.091241180896759033e-01 1.223664879798889160e-01 -2.143629938364028931e-01 -8.381927758455276489e-02 5.411630868911743164e-02 6.751218438148498535e-02 -1.907048560678958893e-02 7.922559976577758789e-03 1.031113043427467346e-02 -2.095509879291057587e-02 -6.423776596784591675e-02 -1.671146042644977570e-02 -6.209574639797210693e-02 -6.274384260177612305e-02 -2.501577436923980713e-01 1.267732381820678711e-01 -2.826000750064849854e-01 -2.856156602501869202e-02 -3.169551119208335876e-02 -1.041187942028045654e-01 5.450276285409927368e-02 -4.020804539322853088e-02 7.212492078542709351e-02 -5.717601254582405090e-02 1.252866629511117935e-02 -1.145008280873298645e-01 6.278575956821441650e-02 -1.452068686485290527e-01 -2.805466651916503906e-01 -2.083214074373245239e-01 -2.958209216594696045e-01 -8.901876211166381836e-02 -1.044688746333122253e-01 -3.585493192076683044e-02 -6.804189831018447876e-02 2.258914895355701447e-02 -2.032342739403247833e-02 1.117977946996688843e-01 4.043314605951309204e-03 6.801535189151763916e-02 1.547082047909498215e-02 2.974859476089477539e-01 6.588229909539222717e-03 -1.930152252316474915e-02 -1.085201948881149292e-01 2.006552964448928833e-01 -1.194210797548294067e-01 8.036289364099502563e-02 3.449771180748939514e-02 -4.103735461831092834e-02 6.426488608121871948e-02 -7.186601310968399048e-02 1.696826331317424774e-02 -1.513063721358776093e-02
-1.067076716572046280e-02 -2.534104697406291962e-02 2.698216736316680908e-01 1.509014815092086792e-01 -4.928299039602279663e-02 -1.991078443825244904e-02 2.072933018207550049e-01 2.021147310733795166e-01 -6.543963402509689331e-02 7.472701370716094971e-02 8.696631342172622681e-02 -5.722173303365707397e-02 8.242543786764144897e-02 1.316124573349952698e-02 2.458708360791206360e-02 3.996994718909263611e-02 2.028871178627014160e-01 9.319573640823364258e-03 1.911958307027816772e-02 1.008766442537307739e-01 3.015093803405761719e-01 -3.424742445349693298e-02 4.172920808196067810e-02 -4.207671061158180237e-02 -3.600430116057395935e-02 -5.920824781060218811e-02 -9.219945967197418213e-02 -3.328145295381546021e-02 1.463603321462869644e-02 -6.208100914955139160e-02 2.052569687366485596e-01 -1.588169634342193604e-01 2.186190895736217499e-02 -8.268103003501892090e-02 2.740088999271392822e-01 -1.957644373178482056e-01 8.422753959894180298e-02 -7.075297087430953979e-02 -5.945303291082382202e-02 9.530844539403915405e-02 -2.050277218222618103e-02 3.596805781126022339e-02 6.062446162104606628e-02 1.793067529797554016e-02 1.507501900196075439e-01 3.241818025708198547e-02 -2.774173021316528320e-02 -1.002354174852371216e-02 2.423647791147232056e-01 2.613732218742370605e-02 4.328292328864336014e-03 -2.504795230925083160e-02 -7.825216650962829590e-02 1.568316295742988586e-02 -2.770773880183696747e-02 5.206636711955070496e-02 -9.030079096555709839e-02 3.058224357664585114e-02 3.454058989882469177e-02 -3.450764715671539307e-02 -2.037820219993591309e-02 1.418778114020824432e-02 1.241046562790870667e-01 2.532888669520616531e-03 -6.304244697093963623e-02 6.251322478055953979e-02 7.867920398712158203e-02 4.015005659312009811e-03 5.594078823924064636e-02 -6.828435510396957397e-02
-3.863805159926414490e-02 -8.217873983085155487e-03 3.429329991340637207e-01 7.901732623577117920e-02 5.310431495308876038e-02 -5.751165002584457397e-02 1.403990685939788818e-01 -1.016134172677993774e-01 -2.264082431793212891e-02 6.543244235217571259e-03 1.513242628425359726e-02 6.131247431039810181e-02 -1.908468268811702728e-02 -7.644674926996231079e-02 3.661329625174403191e-03 4.470517858862876892e-02 4.093464612960815430e-01 -6.164331361651420593e-02 -5.457614362239837646e-02 1.255002021789550781e-01 -4.572108387947082520e-02 6.212108582258224487e-02 -1.778224296867847443e-02 9.393828362226486206e-02 -9.828056208789348602e-03 -1.013951674103736877e-01 5.218452587723731995e-02 9.208459407091140747e-02 1.673744618892669678e-02 4.282358661293983459e-02 2.273377627134323120e-01 -9.222950041294097900e-02 1.989769190549850464e-02 -3.195095108821988106e-03 3.101048432290554047e-02 -1.372642219066619873e-01 5.076255276799201965e-02 -5.249585211277008057e-02 2.639870718121528625e-02 6.578975915908813477e-02 -5.282398313283920288e-03 -5.100996792316436768e-02 -6.493163108825683594e-02 3.564365208148956299e-03 4.154709577560424805e-01 1.290977150201797485e-01 2.403446473181247711e-02 -3.739668428897857666e-02 1.320332139730453491e-01 6.291120499372482300e-02 1.706619933247566223e-02 -1.253822892904281616e-01 3.474860265851020813e-02 3.028620779514312744e-02 -9.853551164269447327e-03 5.476496368646621704e-02 8.363474905490875244e-02 -8.398540318012237549e-02 7.752394676208496094e-02 -5.674902722239494324e-02 -1.579685881733894348e-02 -2.466382645070552826e-02 1.160729378461837769e-01 1.155495718121528625e-01 -2.853805385529994965e-02 7.675367593765258789e-02 -5.129037797451019287e-02 -5.338951945304870605e-02 -2.042042836546897888e-02 -1.574773341417312622e-02
4.711012169718742371e-02 1.627482846379280090e-02 2.451704815030097961e-02 3.682225011289119720e-03 3.595509380102157593e-02 -1.816905848681926727e-02 -5.840163677930831909e-02 -1.657446175813674927e-01 4.842656850814819336e-02 -1.545699965208768845e-02 8.735818415880203247e-02 8.499004691839218140e-02 7.545213401317596436e-02 -6.034803017973899841e-02 -4.298917017877101898e-03 1.437205523252487183e-01 1.384047698229551315e-02 -7.034305948764085770e-03 -1.124456748366355896e-01 9.563579410314559937e-02 -1.143730059266090393e-02 4.154770076274871826e-02 2.153268642723560333e-02 3.614651039242744446e-02 7.736606895923614502e-02 -4.400982707738876343e-02 -9.634703397750854492e-02 -2.066067792475223541e-02 1.765431463718414307e-02 1.647654622793197632e-01 5.565738305449485779e-02 2.724608220160007477e-02 6.572534143924713135e-02 1.992673575878143311e-01 -1.454112119972705841e-02 1.488804668188095093e-01 2.637195959687232971e-02 -1.067896634340286255e-01 -3.544023633003234863e-02 -4.698675125837326050e-02 -1.156158819794654846e-01 1.540614198893308640e-02 -7.832827419042587280e-02 1.557299494743347168e-01 7.942730933427810669e-02 1.034972071647644043e-01 -7.619180530309677124e-02 1.567973494529724121e-01 1.981454528868198395e-02 9.703320264816284180e-02 -8.562251925468444824e-02 -4.490040615200996399e-02 -1.054197922348976135e-01 -1.402046997100114822e-02 3.217309713363647461e-02 8.303453773260116577e-02 1.956884004175662994e-02 3.926354348659515381e-01 1.179669573903083801e-01 -7.738047838211059570e-02 6.810362637042999268e-02 3.035778999328613281e-01 -8.047080039978027344e-02 9.167964011430740356e-02 5.464442074298858643e-03 1.166334301233291626e-01 8.633871376514434814e-02 -5.849510058760643005e-02 1.039856523275375366e-01 3.473389893770217896e-02
-8.858868852257728577e-03 -1.701475232839584351e-01 3.936772421002388000e-02 3.459230363368988037e-01 -6.332993507385253906e-02 1.138493418693542480e-01 4.985137283802032471e-02 -3.065675497055053711e-01 -9.899175167083740234e-02 -8.626028895378112793e-02 5.142088234424591064e-02 -3.072945587337017059e-02 9.891390055418014526e-02 7.772286981344223022e-02 -2.043106034398078918e-02 2.321578562259674072e-02 -6.101861968636512756e-02 1.332380324602127075e-01 -1.279715448617935181e-01 -2.023333683609962463e-02 -7.278435677289962769e-02 -1.545458137989044189e-01 6.833960767835378647e-03 1.077718213200569153e-01 2.834956347942352295e-02 -7.780145853757858276e-03 -8.360177278518676758e-02 1.056493073701858521e-01 1.356036122888326645e-02 -4.062500968575477600e-02 -3.856686642393469810e-03 1.045023556798696518e-02 -1.087801530957221985e-01 3.599985502660274506e-03 1.215183883905410767e-01 8.120708167552947998e-02 3.598379669710993767e-03 -4.663975909352302551e-02 4.182296991348266602e-02 -7.625272870063781738e-02 -1.289846748113632202e-02 -1.256724894046783447e-01 3.818142041563987732e-02 3.093192577362060547e-01 2.861178293824195862e-02 -2.748193144798278809e-01 -5.444975197315216064e-02 8.584523200988769531e-02 -8.618229627609252930e-02 1.681361645460128784e-01 -3.719141706824302673e-02 2.056663297116756439e-02 -1.206805929541587830e-02 -5.854507908225059509e-02 -6.262402236461639404e-02 -9.739822894334793091e-02 -1.693863607943058014e-02 -1.040279045701026917e-01 -1.621937304735183716e-01 -3.181567490100860596e-01 -7.203096523880958557e-03 -1.899680048227310181e-01 2.558403275907039642e-02 2.350519746541976929e-01 1.284562200307846069e-01 4.491361789405345917e-03 -9.011862426996231079e-02 1.761815696954727173e-01 5.751223489642143250e-02 4.753564670681953430e-02
4.254904389381408691e-02 -1.155282091349363327e-02 -1.746133714914321899e-01 -1.319850832223892212e-01 4.299646988511085510e-02 1.302550584077835083e-01 9.912478178739547729e-02 6.029157340526580811e-02 -5.150617659091949463e-02 -4.839413985610008240e-02 -6.795744597911834717e-02 7.788180559873580933e-02 -1.032039709389209747e-02 -1.979642733931541443e-02 4.549802746623754501e-03 1.080505773425102234e-01 -2.472355812788009644e-01 -6.203536316752433777e-02 2.604252472519874573e-02 -6.043986603617668152e-02 1.793298311531543732e-02 3.999261930584907532e-02 4.976089671254158020e-02 1.307985372841358185e-02 7.692931592464447021e-02 -6.378348916769027710e-03 1.907201111316680908e-02 -2.258991263806819916e-02 -3.380154957994818687e-03 -1.385498605668544769e-02 -1.890245676040649414e-01 1.686029881238937378e-01 6.126144528388977051e-02 -1.025883182883262634e-01 1.165559291839599609e-01 2.671964466571807861e-03 -3.904989734292030334e-02 2.117257751524448395e-02 1.614579930901527405e-02 -1.419302672147750854e-01 -2.383558638393878937e-02 6.265314668416976929e-02 -4.567876085638999939e-02 -3.623135760426521301e-02 -2.651829123497009277e-01 1.426224857568740845e-01 -7.721293717622756958e-02 -9.369297325611114502e-02 1.639367043972015381e-01 6.723207235336303711e-02 2.859222004190087318e-03 1.020460501313209534e-01 1.029067337512969971e-01 -1.695788353681564331e-01 7.176071405410766602e-02 -5.611317232251167297e-02 5.753224715590476990e-03 -1.009851396083831787e-01 -2.105305939912796021e-01 3.321406245231628418e-01 4.810176324099302292e-04 -1.077015623450279236e-01 4.692412167787551880e-02 -1.312228888273239136e-01 -1.258052699267864227e-02 2.127958089113235474e-01 -2.376801334321498871e-02 -1.167185306549072266e-01 -7.354337722063064575e-02 -2.155574224889278412e-02
-3.569734841585159302e-02 5.205154418945312500e-03 -4.576608538627624512e-01 -5.476867407560348511e-02 -5.524797737598419189e-02 -3.297939198091626167e-03 2.100789174437522888e-02 9.373080730438232422e-02 1.264121104031801224e-02 -2.772616595029830933e-02 2.293881401419639587e-02 -8.223951607942581177e-02 -7.718507200479507446e-02 -4.622820392251014709e-02 1.148565486073493958e-01 4.830169305205345154e-02 -2.506389021873474121e-01 6.029922515153884888e-03 -5.474843829870223999e-02 -1.502157654613256454e-02 1.180650889873504639e-01 -1.195548623800277710e-01 2.409890666604042053e-02 2.094206586480140686e-02 -6.550686061382293701e-02 7.201888412237167358e-02 8.431942015886306763e-02 1.720260269939899445e-02 -5.133021995425224304e-02 1.151183396577835083e-01 -2.593955993652343750e-01 2.180129587650299072e-01 -6.192245054990053177e-04 1.477460116147994995e-01 -4.145051911473274231e-02 -1.516487449407577515e-01 -2.647268958389759064e-02 -3.525747731328010559e-02 1.106559932231903076e-01 1.686523854732513428e-01 9.194913506507873535e-02 6.207653135061264038e-02 -4.968834295868873596e-02 1.505178809165954590e-01 -3.217022120952606201e-01 1.057300418615341187e-01 -4.994465410709381104e-02 -2.266357652842998505e-02 -3.758886363357305527e-03 -3.184811472892761230e-01 -8.922909386456012726e-03 7.441889494657516479e-02 -1.147315502166748047e-01 4.570413753390312195e-02 -5.006769672036170959e-02 1.510194987058639526e-01 2.068948745727539062e-02 2.659273445606231689e-01 -1.694561094045639038e-01 3.290231227874755859e-01 -8.148559182882308960e-02 3.012621402740478516e-01 1.308277845382690430e-01 -4.564538002014160156e-01 -1.561280619353055954e-02 1.234783604741096497e-02 -4.062471911311149597e-02 4.295267909765243530e-02 -5.741398409008979797e-02 4.244292527437210083e-02
-3.549458086490631104e-02 -2.262260764837265015e-01 8.383120410144329071e-03 3.919386863708496094e-01 2.460052631795406342e-02 -8.834658563137054443e-02 1.078213565051555634e-02 1.521600130945444107e-02 -1.111188903450965881e-01 6.788985431194305420e-02 1.058848351240158081e-01 -2.089852392673492432e-01 5.468195676803588867e-02 1.824291609227657318e-02 6.979164481163024902e-02 -3.771351650357246399e-02 6.941870599985122681e-02 1.523713022470474243e-01 5.809057503938674927e-02 6.325874011963605881e-03 3.997227549552917480e-02 -3.345912694931030273e-02 -8.582340925931930542e-02 4.291975498199462891e-02 9.002900123596191406e-02 -1.303186919540166855e-02 1.451587886549532413e-04 -2.005875110626220703e-02 8.678429573774337769e-02 -1.713806018233299255e-02 -1.122913435101509094e-01 4.035181179642677307e-02 8.875645697116851807e-02 -4.681627452373504639e-02 -3.653566166758537292e-02 1.250124070793390274e-02 6.869179755449295044e-02 3.736732527613639832e-02 -1.191298011690378189e-02 3.010453470051288605e-02 -5.690496042370796204e-02 2.392462827265262604e-02 -1.275590509176254272e-01 1.902004331350326538e-01 8.226376771926879883e-02 -3.219527602195739746e-01 -5.092813447117805481e-02 1.574299931526184082e-01 4.307430610060691833e-02 -2.399669960141181946e-02 4.917770624160766602e-02 -4.827721416950225830e-02 -3.976809978485107422e-02 1.150240600109100342e-01 -4.707362502813339233e-02 -3.189480304718017578e-02 -9.667866397649049759e-04 1.248710453510284424e-01 -7.624892145395278931e-02 -2.965770959854125977e-01 -1.144151091575622559e-01 -1.393748912960290909e-02 5.328740552067756653e-02 2.908104471862316132e-02 6.554549932479858398e-02 -1.017178520560264587e-01 -6.023424863815307617e-02 8.613015711307525635e-02 2.255995385348796844e-02 1.100912413676269352e-04
-2.581207640469074249e-02 5.788279697299003601e-02 1.983860880136489868e-01 -5.888773873448371887e-02 -2.609159052371978760e-01 5.184981040656566620e-03 2.094863057136535645e-01 -1.861270964145660400e-01 -2.319756522774696350e-02 -2.238062210381031036e-02 -1.283143740147352219e-02 -1.599015202373266220e-03 7.140992674976587296e-03 8.184652030467987061e-02 -7.559566944837570190e-02 -6.859420984983444214e-02 2.194332182407379150e-01 7.746344804763793945e-02 -1.444727629423141479e-01 1.080696587450802326e-03 1.982668489217758179e-01 -6.987405568361282349e-02 -5.855151265859603882e-02 2.694055065512657166e-02 1.197801828384399414e-01 -2.912734635174274445e-02 -1.405467689037322998e-01 -8.639901131391525269e-02 1.026335656642913818e-01 5.574299767613410950e-02 2.527893483638763428e-01 9.172492660582065582e-03 -2.145502865314483643e-01 -9.007737040519714355e-02 2.576687335968017578e-01 1.472289413213729858e-01 7.698285579681396484e-02 -6.298347562551498413e-02 -3.849985823035240173e-02 -1.968543045222759247e-02 2.470890805125236511e-02 5.637250375002622604e-03 -8.938179910182952881e-02 3.921027481555938721e-02 2.107003182172775269e-01 1.024490967392921448e-01 -2.512496411800384521e-01 -5.543990060687065125e-02 8.661917597055435181e-02 1.193041652441024780e-01 -7.536944001913070679e-02 -2.300358377397060394e-02 -3.800338506698608398e-02 7.746876776218414307e-02 1.407923642545938492e-02 -5.296511575579643250e-02 8.768450468778610229e-02 -8.977673947811126709e-02 4.133347421884536743e-02 -1.304028034210205078e-01 -4.252000898122787476e-02 1.425307393074035645e-01 3.162316977977752686e-02 -1.008369214832782745e-02 8.657962828874588013e-02 8.210596442222595215e-02 -3.358492255210876465e-02 -2.257855422794818878e-02 9.459947049617767334e-02 5.196394771337509155e-02
-3.441806882619857788e-02 8.798833936452865601e-03 -3.564931154251098633e-01 -1.233821809291839600e-01 3.287767767906188965e-01 5.313006788492202759e-02 4.731414839625358582e-03 8.476240932941436768e-02 5.216935276985168457e-02 -6.305513530969619751e-02 3.876581788063049316e-02 2.650077454745769501e-02 -8.056855946779251099e-02 3.582003992050886154e-03 5.120831355452537537e-02 -2.575844526290893555e-02 -2.740316390991210938e-01 -8.265275508165359497e-02 3.988386392593383789e-01 -1.298339571803808212e-02 -1.617776155471801758e-01 1.591385155916213989e-01 1.059527844190597534e-01 -1.259546168148517609e-02 1.184871196746826172e-01 -1.553534120321273804e-01 1.300056725740432739e-01 -8.309040218591690063e-02 -4.168063029646873474e-02 4.700494185090065002e-02 -2.506859600543975830e-01 1.786527968943119049e-02 2.584016919136047363e-01 5.119071574881672859e-04 4.965929314494132996e-03 -8.088027685880661011e-02 -9.777435660362243652e-02 1.061912439763545990e-02 -9.329930692911148071e-02 2.314208634197711945e-02 -3.096876293420791626e-02 3.403606265783309937e-02 2.283756621181964874e-02 4.131536558270454407e-02 -1.622850596904754639e-01 7.520747184753417969e-02 3.076096177101135254e-01 -3.038330562412738800e-02 -4.643726348876953125e-02 -9.494937956333160400e-02 -4.647786542773246765e-02 3.759945277124643326e-03 1.266081817448139191e-02 8.306707441806793213e-02 1.847480610013008118e-02 9.802541881799697876e-02 -5.217166035436093807e-04 -7.202731817960739136e-02 -2.642016410827636719e-01 1.275439113378524780e-01 2.025736272335052490e-01 -8.452146314084529877e-03 -3.320337086915969849e-02 -7.208392769098281860e-02 -1.487568765878677368e-02 6.185471639037132263e-02 -6.970106810331344604e-02 2.307467907667160034e-02 -3.501015901565551758e-02 -5.090630799531936646e-02
4.828033596277236938e-02 4.143497049808502197e-01 -2.223601043224334717e-01 -3.596920073032379150e-01 -4.185346513986587524e-02 -1.091477368026971817e-02 1.375285238027572632e-01 -3.338712453842163086e-01 1.044526994228363037e-01 7.600503414869308472e-02 2.441810257732868195e-02 1.093138474971055984e-02 -4.783679172396659851e-02 -1.180018857121467590e-02 5.410068482160568237e-02 2.470797896385192871e-01 -5.013646185398101807e-02 -1.878964453935623169e-01 -1.040961891412734985e-01 3.409853950142860413e-02 1.501352339982986450e-01 -1.310546845197677612e-01 -1.197802871465682983e-01 1.435074862092733383e-02 5.005616694688796997e-02 2.207257412374019623e-02 2.034682780504226685e-02 1.978547498583793640e-02 7.592231780290603638e-02 -2.215650081634521484e-01 4.388111177831888199e-03 1.556792557239532471e-01 -1.002162396907806396e-01 -1.346467435359954834e-01 1.482238527387380600e-02 -4.238799959421157837e-02 -9.183848649263381958e-02 4.865589551627635956e-03 8.040615916252136230e-02 3.624525666236877441e-02 1.286868005990982056e-01 1.749360188841819763e-02 -1.166811957955360413e-01 -1.997668743133544922e-01 -1.944004148244857788e-01 2.117815911769866943e-01 -1.418245490640401840e-03 -7.294344156980514526e-02 9.020070731639862061e-02 2.192758172750473022e-01 9.479700773954391479e-02 -2.696785330772399902e-02 -1.344406604766845703e-01 1.907437108457088470e-03 -1.614638790488243103e-02 -2.337846718728542328e-02 -5.158143118023872375e-02 -3.202107548713684082e-01 -1.007841303944587708e-01 2.188644558191299438e-01 -9.409475326538085938e-02 6.602650135755538940e-02 1.172801405191421509e-01 3.233326971530914307e-01 6.162634585052728653e-03 -5.449634790420532227e-02 3.329954296350479126e-02 -8.318417519330978394e-02 -6.154273077845573425e-02 9.251764975488185883e-03
-1.182653475552797318e-02 3.987995535135269165e-02 3.630421757698059082e-01 -2.013170160353183746e-02 -4.183893799781799316e-01 1.171483770012855530e-01 8.033716678619384766e-02 -8.524850010871887207e-02 5.503656342625617981e-02 4.510393366217613220e-02 -6.503386050462722778e-02 2.356124669313430786e-02 -8.705299347639083862e-03 9.853982366621494293e-03 4.762751981616020203e-02 1.044203294441103935e-03 1.409653872251510620e-01 -5.380590260028839111e-02 -2.666200697422027588e-01 -4.721423983573913574e-02 5.557930469512939453e-02 2.699041925370693207e-02 -2.760291844606399536e-02 -5.011912435293197632e-02 4.927175864577293396e-02 2.445208653807640076e-02 4.617272317409515381e-02 1.313850581645965576e-01 -6.266108155250549316e-02 -4.302106052637100220e-02 3.326789736747741699e-01 5.260834470391273499e-02 -4.146793782711029053e-01 -4.689629375934600830e-02 -2.061240375041961670e-02 2.112361788749694824e-02 1.016256138682365417e-01 1.525518950074911118e-02 4.817485064268112183e-02 -4.716719686985015869e-02 -1.063366979360580444e-01 -7.705273479223251343e-02 -4.141099750995635986e-02 5.838281475007534027e-03 3.682477772235870361e-01 1.894973516464233398e-01 -4.200092554092407227e-01 -9.193119406700134277e-02 9.006512165069580078e-02 -6.768294144421815872e-03 -9.848450124263763428e-02 -5.855829268693923950e-02 -3.167485445737838745e-02 -3.241129964590072632e-02 -9.069399908185005188e-03 2.230798639357089996e-02 7.009240239858627319e-02 -9.528876398690044880e-04 8.211613446474075317e-02 -1.793866008520126343e-01 -2.569259703159332275e-01 7.413359731435775757e-02 -2.226037345826625824e-02 4.637626931071281433e-02 -2.394608967006206512e-02 4.964128509163856506e-02 -7.897151634097099304e-03 2.930273488163948059e-02 7.404343783855438232e-02 -8.942963182926177979e-02
5.807375162839889526e-02 7.556483894586563110e-02 -2.831383645534515381e-01 -1.912130862474441528e-01 1.485152095556259155e-01 8.431434631347656250e-02 2.719454467296600342e-01 1.913861930370330811e-01 2.536431513726711273e-02 -1.420365553349256516e-02 -2.304682321846485138e-02 4.613958299160003662e-02 3.744553402066230774e-02 -8.733934909105300903e-02 5.932924896478652954e-02 -9.758023172616958618e-02 -1.955996155738830566e-01 1.184848044067621231e-02 2.891393005847930908e-01 5.393292754888534546e-02 8.192801475524902344e-02 4.108259081840515137e-02 -1.746487990021705627e-02 6.982549559324979782e-03 -1.008015219122171402e-02 -5.914624407887458801e-02 -4.584650322794914246e-02 1.245140954852104187e-01 -4.301929846405982971e-02 1.049444302916526794e-01 -1.814274489879608154e-01 1.757907122373580933e-01 8.171835541725158691e-02 -1.049408614635467529e-01 2.277944684028625488e-01 -2.365666776895523071e-01 3.809265419840812683e-02 -5.571139045059680939e-03 -1.280295848846435547e-02 3.672771155834197998e-02 8.359332382678985596e-02 -4.890231788158416748e-02 -5.099060479551553726e-03 2.172638662159442902e-02 -2.346972674131393433e-01 -1.346937716007232666e-01 1.414754241704940796e-01 6.975770741701126099e-02 2.692079842090606689e-01 9.759882092475891113e-02 -1.463765278458595276e-02 -1.838400773704051971e-02 4.012997087556868792e-04 -3.223640844225883484e-02 -4.590060934424400330e-02 -3.805248811841011047e-02 -6.303181499242782593e-02 -1.147708371281623840e-01 4.723301157355308533e-02 1.531370580196380615e-01 1.159754022955894470e-02 -1.057569459080696106e-01 1.310788691043853760e-01 -9.805490076541900635e-02 -3.107170201838016510e-02 3.447883948683738708e-02 4.753484949469566345e-02 1.031486969441175461e-02 -2.882511541247367859e-02 4.957186430692672729e-02
-6.704993546009063721e-02 1.250096783041954041e-02 3.481120467185974121e-01 2.137500047683715820e-01 8.974435925483703613e-02 -5.757925286889076233e-02 1.235619261860847473e-01 -3.891003085300326347e-03 -2.029354870319366455e-02 -8.216074667870998383e-03 7.416815310716629028e-02 2.744143083691596985e-02 -7.396284025162458420e-03 6.207107007503509521e-02 1.166896596550941467e-01 -4.624073207378387451e-02 1.884740293025970459e-01 1.275576055049896240e-01 -1.846690103411674500e-02 -7.901291362941265106e-03 1.484768986701965332e-01 6.469905376434326172e-02 4.379573091864585876e-02 -1.003861241042613983e-02 -6.498693674802780151e-02 -4.977748915553092957e-02 6.580297648906707764e-02 -4.994386434555053711e-02 -2.932235412299633026e-02 5.867273360490798950e-02 3.681464791297912598e-01 -1.737806797027587891e-01 6.624538917094469070e-03 5.215311422944068909e-02 -3.512193262577056885e-02 -4.038771986961364746e-02 1.278230249881744385e-01 -1.179484650492668152e-02 -1.227020621299743652e-01 -1.501009520143270493e-02 5.485831759870052338e-03 -4.568884894251823425e-02 4.891446977853775024e-02 4.548638686537742615e-02 3.053805828094482422e-01 -6.503495573997497559e-02 -7.236379384994506836e-02 8.310832828283309937e-02 -2.961846999824047089e-02 -6.167014315724372864e-02 -7.831609249114990234e-02 2.425286546349525452e-02 9.171199053525924683e-02 2.061280235648155212e-02 -1.287396997213363647e-01 -1.807737047784030437e-03 -6.819606572389602661e-02 -7.185424864292144775e-02 9.201930463314056396e-02 -1.081887260079383850e-01 1.228027045726776123e-02 -6.860975921154022217e-02 1.209370270371437073e-01 4.094014689326286316e-02 -7.545246183872222900e-02 5.699906032532453537e-03 1.869765482842922211e-02 1.419919822365045547e-02 7.060419768095016479e-02 3.557150810956954956e-02
-1.912824809551239014e-02 3.008286654949188232e-02 1.617941856384277344e-01 1.232288926839828491e-01 1.101966202259063721e-01 -1.155382171273231506e-01 -1.017096787691116333e-01 -3.332170844078063965e-02 8.900849521160125732e-02 2.648853138089179993e-02 -6.085562333464622498e-02 -1.049192398786544800e-01 -5.682439729571342468e-02 7.098978012800216675e-02 -8.787675201892852783e-02 -1.043380945920944214e-01 3.182800114154815674e-01 4.473629221320152283e-02 -3.623952344059944153e-02 7.223661988973617554e-02 -3.951310738921165466e-02 -5.448672920465469360e-02 -5.990769341588020325e-02 8.494177460670471191e-02 8.887218683958053589e-02 5.471631139516830444e-02 2.976998221129179001e-03 -8.557349443435668945e-02 1.127024069428443909e-01 -2.430094406008720398e-02 2.104325443506240845e-01 -1.569925099611282349e-01 -1.464626099914312363e-02 9.637448191642761230e-02 -2.652846649289131165e-02 -5.429241806268692017e-02 7.872399687767028809e-02 -1.065145805478096008e-01 -6.119112670421600342e-02 7.423651963472366333e-02 -5.787944048643112183e-02 2.988981269299983978e-02 -3.299374133348464966e-02 3.191385418176651001e-02 2.147100418806076050e-01 -1.300277858972549438e-01 -7.698829472064971924e-02 1.751363463699817657e-02 -1.682662367820739746e-01 -2.868817187845706940e-02 -8.594155311584472656e-02 -1.609801203012466431e-01 -5.370267480611801147e-02 2.163828611373901367e-01 6.028443202376365662e-02 -1.128908526152372360e-02 2.340660616755485535e-02 1.214897334575653076e-01 1.741731762886047363e-01 -3.260152637958526611e-01 -3.788587078452110291e-02 1.617899984121322632e-01 -1.029200926423072815e-01 1.321204006671905518e-01 2.889648079872131348e-02 -1.435127556324005127e-01 -1.998192444443702698e-02 1.145377457141876221e-01 6.573718786239624023e-02 5.303660780191421509e-02
4.645061492919921875e-02 -9.854982048273086548e-02 3.442322313785552979e-01 2.662390656769275665e-02 -9.170338511466979980e-03 -6.581503152847290039e-02 9.586687386035919189e-02 9.004341810941696167e-02 3.492368012666702271e-02 1.677761226892471313e-02 -5.299432203173637390e-02 3.801507875323295593e-02 5.935769155621528625e-02 -1.765680033713579178e-03 1.374657303094863892e-01 1.509445160627365112e-02 2.807837724685668945e-01 3.745002299547195435e-02 -4.658221453428268433e-02 -7.484372705221176147e-02 8.936452120542526245e-02 -5.080260336399078369e-02 -1.261873245239257812e-01 -5.779137089848518372e-02 9.505532681941986084e-03 6.629582494497299194e-02 -5.575146526098251343e-02 1.681392197497189045e-03 -5.628478154540061951e-02 4.871008917689323425e-02 2.052721232175827026e-01 -7.568379491567611694e-02 -5.349802970886230469e-02 9.931378811597824097e-02 1.547669172286987305e-01 -1.030688360333442688e-01 -2.611293271183967590e-02 3.154075145721435547e-02 2.254492416977882385e-02 -4.412987455725669861e-02 -5.513281561434268951e-03 7.394496351480484009e-02 -8.647748082876205444e-02 9.293763339519500732e-02 3.433270752429962158e-01 -2.790756896138191223e-02 -3.316001594066619873e-02 -1.718354038894176483e-02 4.683572053909301758e-02 -7.539508491754531860e-02 1.026933714747428894e-01 2.280136942863464355e-02 -2.153101563453674316e-02 1.333185750991106033e-02 1.304826885461807251e-02 -8.836314082145690918e-02 -4.470150917768478394e-02 -5.412040650844573975e-02 2.266616672277450562e-01 3.971171379089355469e-02 1.418850272893905640e-01 6.073310971260070801e-02 -1.379227079451084137e-02 1.394560337066650391e-01 9.831787087023258209e-03 -1.434354204684495926e-02 2.596286498010158539e-02 -7.595375180244445801e-02 -6.403099745512008667e-03 1.424563582986593246e-02
4.224212467670440674e-02 -4.969606176018714905e-02 -1.036442723125219345e-02 2.736435644328594208e-02 -5.595654249191284180e-02 -1.799222268164157867e-02 2.253817860037088394e-03 5.471719428896903992e-02 -7.574982941150665283e-02 3.379863919690251350e-04 -3.219169005751609802e-02 3.104264102876186371e-02 -2.654675394296646118e-03 -5.409132689237594604e-02 6.315559893846511841e-02 1.400935743004083633e-02 1.029372215270996094e-02 3.551478311419487000e-02 -4.797912016510963440e-02 -9.982688724994659424e-02 2.530806325376033783e-02 -4.666264355182647705e-02 1.359139103442430496e-02 -2.166651189327239990e-02 3.075053356587886810e-02 -6.078324839472770691e-02 -8.976119011640548706e-02 -5.157317221164703369e-02 3.593166545033454895e-02 1.648792624473571777e-01 1.057837344706058502e-02 -2.682728692889213562e-02 -6.845013797283172607e-02 -1.174340918660163879e-01 1.314252763986587524e-01 -2.888012230396270752e-01 4.318919032812118530e-02 1.083006965927779675e-03 1.742992252111434937e-01 -5.204648897051811218e-02 8.321170508861541748e-02 -4.724135249853134155e-02 -1.004142314195632935e-01 1.043869778513908386e-01 3.787446394562721252e-02 -9.031538851559162140e-03 6.290297210216522217e-02 -2.673050761222839355e-01 -8.509797602891921997e-02 -2.802007496356964111e-01 1.675833389163017273e-02 2.297470159828662872e-02 -1.294758263975381851e-02 -4.850604757666587830e-02 -1.768747530877590179e-02 -6.361834704875946045e-02 -4.342420399188995361e-02 3.176358640193939209e-01 7.215490937232971191e-02 1.395187713205814362e-02 4.346513748168945312e-02 -1.379239559173583984e-01 -6.147258728742599487e-02 -2.204663157463073730e-01 -8.795900270342826843e-03 -6.105463951826095581e-02 -2.919885516166687012e-02 -1.667891889810562134e-01 4.044292494654655457e-02 -1.227753311395645142e-01
2.987934276461601257e-02 -4.919753596186637878e-02 -3.221359550952911377e-01 -1.951238512992858887e-01 -6.726782023906707764e-02 -1.422550082206726074e-01 2.328221350908279419e-01 -9.020475670695304871e-03 -7.831936329603195190e-02 -1.049701706506311893e-03 -1.136768516153097153e-02 4.718981683254241943e-02 1.004804973490536213e-03 -1.528322231024503708e-02 4.887595772743225098e-02 -8.831669576466083527e-03 -2.794016301631927490e-01 -4.786965996026992798e-02 -2.493187934160232544e-01 2.790916897356510162e-02 1.837090551853179932e-01 7.237293571233749390e-02 1.246862858533859253e-01 -3.179638832807540894e-02 1.138033531606197357e-02 1.495880540460348129e-02 -4.913113638758659363e-02 3.725105524063110352e-02 2.472433820366859436e-02 2.383275516331195831e-02 -2.666634023189544678e-01 1.509110778570175171e-01 -2.186570912599563599e-01 1.228083372116088867e-01 2.304865717887878418e-01 -1.298998147249221802e-01 -2.087093889713287354e-02 2.723532356321811676e-02 7.242242991924285889e-02 -1.945049874484539032e-02 -3.294668346643447876e-02 6.825018674135208130e-02 -4.875092953443527222e-02 -5.420542880892753601e-02 -1.657474935054779053e-01 -7.437688112258911133e-02 -2.375041544437408447e-01 2.701588906347751617e-02 2.418200671672821045e-01 6.292662024497985840e-02 1.438301615417003632e-02 5.179138109087944031e-02 1.501967664808034897e-02 -4.643332585692405701e-02 5.095629766583442688e-02 -7.947538048028945923e-02 -5.346334725618362427e-02 9.076172858476638794e-02 -4.275222867727279663e-02 1.679978072643280029e-01 -4.843497648835182190e-02 -3.126154094934463501e-02 1.829739063978195190e-01 6.037470884621143341e-03 -3.532949090003967285e-02 -4.685138165950775146e-02 -9.307710081338882446e-02 3.328050253912806511e-03 3.239834681153297424e-02 -9.860721416771411896e-03
3.637267649173736572e-02 1.406586468219757080e-01 -7.285670936107635498e-02 1.912148892879486084e-01 -3.966953139752149582e-03 2.814411222934722900e-01 -5.460320506244897842e-03 7.258088886737823486e-02 6.147312000393867493e-02 2.437081001698970795e-02 2.411068789660930634e-02 1.684948652982711792e-01 -8.167006075382232666e-03 2.664205431938171387e-01 -2.081124112010002136e-03 1.445940732955932617e-01 1.893586106598377228e-02 1.107192486524581909e-01 6.181105226278305054e-02 2.690983116626739502e-01 -7.645865529775619507e-02 -6.420564837753772736e-03 -2.111300081014633179e-02 6.521477550268173218e-02 -2.179250307381153107e-02 1.541389990597963333e-02 -2.198111079633235931e-02 1.124212145805358887e-01 3.185681626200675964e-02 -1.756042707711458206e-03 3.634818643331527710e-02 -1.306963860988616943e-01 -4.995480552315711975e-02 -8.099212497472763062e-02 8.072023838758468628e-02 4.755609109997749329e-02 5.547847971320152283e-02 -1.153685823082923889e-01 -7.749943435192108154e-02 -2.992307767271995544e-03 -2.868673391640186310e-02 -1.339606344699859619e-01 -8.926682919263839722e-02 -1.071705147624015808e-01 8.914498984813690186e-02 -1.503863334655761719e-01 -5.827450007200241089e-02 -2.901735156774520874e-02 -6.396894901990890503e-02 -1.863352805376052856e-01 -6.179340183734893799e-02 1.226143911480903625e-01 2.145291492342948914e-02 -1.007858067750930786e-01 -8.338655531406402588e-02 -2.693998813629150391e-01 2.882093191146850586e-02 -1.566536575555801392e-01 -1.003433763980865479e-01 -6.610515713691711426e-02 4.104780778288841248e-02 -4.443899989128112793e-01 1.225829776376485825e-02 8.005008101463317871e-02 -6.408409029245376587e-02 -9.800007194280624390e-02 -1.447667777538299561e-01 -4.476682841777801514e-02 1.244234219193458557e-01 2.132753096520900726e-02
1.074371188879013062e-01 -7.658648490905761719e-02 5.378958955407142639e-02 2.451771497726440430e-02 -2.676962129771709442e-02 1.107690557837486267e-01 -2.918111719191074371e-02 2.068800665438175201e-02 -3.282891958951950073e-02 1.025880202651023865e-01 -1.196090783923864365e-02 -1.091968454420566559e-02 8.795722573995590210e-02 3.457147255539894104e-02 -8.527334034442901611e-02 5.961645767092704773e-02 2.865202538669109344e-02 -4.168671369552612305e-02 -8.149404078722000122e-02 -5.380538851022720337e-02 -1.820938736200332642e-01 -9.245587140321731567e-02 -1.097701489925384521e-01 9.184481948614120483e-02 -3.722351044416427612e-02 1.789960451424121857e-02 -4.865914583206176758e-02 -1.612683385610580444e-02 4.578758776187896729e-02 5.621394142508506775e-02 -1.074891760945320129e-01 -9.934779256582260132e-02 -2.594731450080871582e-01 -7.524677366018295288e-02 -1.529756784439086914e-01 -2.834279835224151611e-02 6.762748956680297852e-02 3.074401803314685822e-02 -3.577868267893791199e-02 3.454269468784332275e-02 2.304847538471221924e-02 1.830962114036083221e-02 4.488842189311981201e-02 -1.562291849404573441e-02 6.931579113006591797e-02 3.558408468961715698e-02 -1.598109304904937744e-01 3.871345892548561096e-02 -1.972058229148387909e-02 4.295492917299270630e-02 -2.453844808042049408e-02 -1.181426718831062317e-01 7.159649580717086792e-02 -9.147539734840393066e-03 -3.116734791547060013e-03 -1.635694131255149841e-02 -1.145201697945594788e-01 -1.830907762050628662e-01 -1.737186312675476074e-01 3.599450225010514259e-03 -1.369498521089553833e-01 -1.902416795492172241e-01 7.939148345030844212e-04 6.534408032894134521e-02 7.066249847412109375e-02 -9.442384541034698486e-02 -1.297570951282978058e-02 -3.188997507095336914e-02 -4.879209771752357483e-02 -2.474020794034004211e-02
4.339684545993804932e-02 1.045829877257347107e-01 1.390687674283981323e-01 3.341985642910003662e-01 -5.231019854545593262e-02 -4.079841822385787964e-02 -4.053204506635665894e-02 1.546274274587631226e-01 4.363812506198883057e-02 9.252449870109558105e-02 9.135416895151138306e-02 1.066067963838577271e-01 1.065416261553764343e-01 -7.035923004150390625e-02 -4.653358832001686096e-02 1.823892891407012939e-01 1.617779880762100220e-01 1.426272243261337280e-01 -1.488467212766408920e-02 -8.974000066518783569e-02 -5.103299766778945923e-02 -5.132751539349555969e-02 -2.569540962576866150e-02 -5.511455237865447998e-02 -5.713930353522300720e-02 5.507306382060050964e-02 5.931589379906654358e-02 -8.259246498346328735e-02 1.800530403852462769e-02 -4.199757426977157593e-02 2.206165716052055359e-02 -1.824863404035568237e-01 -2.655163593590259552e-02 -4.843353293836116791e-03 1.283218413591384888e-01 1.185273304581642151e-01 -7.859608530998229980e-02 -1.083061005920171738e-02 1.553250476717948914e-02 6.309161335229873657e-02 -3.719399496912956238e-02 5.854594334959983826e-02 -6.967015564441680908e-03 1.810878068208694458e-01 2.621905319392681122e-02 -8.027505129575729370e-02 2.316379919648170471e-02 2.557920217514038086e-01 9.879340231418609619e-02 -1.744039505720138550e-01 -4.379256628453731537e-03 -3.622908378019928932e-03 3.026096709072589874e-02 -8.303803950548171997e-02 -8.333799988031387329e-02 3.027266263961791992e-02 3.372231731191277504e-03 -4.574224054813385010e-01 -2.416776120662689209e-02 -2.548397481441497803e-01 -5.700049549341201782e-02 -1.068798452615737915e-01 5.484758876264095306e-03 -8.907397091388702393e-02 6.439984589815139771e-02 -2.090295962989330292e-02 -9.823175519704818726e-02 -1.417940258979797363e-01 -4.320558905601501465e-02 6.371065974235534668e-02
4.318769276142120361e-02 -1.530769616365432739e-01 -4.211464431136846542e-03 -2.616692483425140381e-01 -4.823607206344604492e-02 -3.457957208156585693e-01 -9.078250080347061157e-02 3.176521658897399902e-01 -8.805632591247558594e-02 3.048687987029552460e-02 1.915311557240784168e-03 2.117327414453029633e-02 1.627608947455883026e-02 2.750155702233314514e-02 -2.664003334939479828e-02 -7.144236564636230469e-02 1.273577958345413208e-01 -1.317917853593826294e-01 -3.936104848980903625e-02 -5.876266583800315857e-02 -6.181023269891738892e-02 1.507207155227661133e-01 -7.139995694160461426e-02 1.073830202221870422e-01 5.227199196815490723e-02 -5.973645672202110291e-02 -8.950008451938629150e-02 1.133669912815093994e-01 -4.689442738890647888e-02 -3.861322253942489624e-02 1.294525247067213058e-02 7.589579373598098755e-02 -6.626982241868972778e-02 -2.270510420203208923e-02 -2.133024036884307861e-01 -1.439551413059234619e-01 7.620744407176971436e-02 -3.834630921483039856e-02 -1.632171124219894409e-01 -1.699160598218441010e-02 1.298386454582214355e-01 -3.650090843439102173e-02 -5.759864673018455505e-02 -8.286751806735992432e-02 3.571825474500656128e-02 6.481555104255676270e-02 1.214158535003662109e-01 7.440807670354843140e-02 -1.494014859199523926e-01 -1.414515525102615356e-01 1.036079227924346924e-01 -5.358786508440971375e-02 4.449731111526489258e-02 1.039010211825370789e-01 -1.657662540674209595e-02 -1.190105900168418884e-01 8.885495364665985107e-02 3.583817183971405029e-01 -3.923279047012329102e-02 2.537035644054412842e-01 4.970753565430641174e-02 3.804372251033782959e-01 -5.453900992870330811e-02 -1.989440023899078369e-01 -1.969447731971740723e-02 -4.785959795117378235e-02 6.211036816239356995e-02 -5.032196640968322754e-02 -4.667580127716064453e-02 1.423949655145406723e-02
2.718341536819934845e-02 1.553254574537277222e-02 -1.585697531700134277e-01 -5.560309290885925293e-01 -2.066504955291748047e-01 2.174066901206970215e-01 3.583294898271560669e-02 2.508601248264312744e-01 -1.081006824970245361e-01 -3.056783229112625122e-02 -3.829287365078926086e-02 -2.682954818010330200e-02 5.734304338693618774e-02 -5.013579130172729492e-02 -5.410347506403923035e-02 5.536683276295661926e-02 -1.371435672044754028e-01 -3.836898505687713623e-01 -1.505385339260101318e-01 1.339358240365982056e-01 -7.046298682689666748e-02 9.395784139633178711e-02 -1.773739233613014221e-02 -6.217543780803680420e-02 -4.347206652164459229e-02 1.401212625205516815e-02 -9.542934596538543701e-02 -1.465877294540405273e-01 1.219376176595687866e-02 -6.993259489536285400e-02 -1.339240521192550659e-01 1.215093582868576050e-01 -8.967429399490356445e-02 -6.470374017953872681e-02 6.471930444240570068e-02 -2.042962471023201942e-03 -1.025240682065486908e-02 1.829893700778484344e-02 1.086383461952209473e-01 8.589360117912292480e-02 -3.270447999238967896e-02 3.663310781121253967e-02 6.840273737907409668e-02 6.957885622978210449e-02 -1.220612376928329468e-01 2.063488662242889404e-01 -3.734387084841728210e-02 -1.703918427228927612e-01 -3.313778433948755264e-03 -5.171375721693038940e-02 1.180214583873748779e-01 1.263114213943481445e-01 -1.608232036232948303e-02 3.317457856610417366e-03 2.158449217677116394e-02 1.182142347097396851e-01 -6.043514981865882874e-02 -2.858948707580566406e-02 -1.871889829635620117e-01 7.002540230751037598e-01 1.046886108815670013e-02 -1.539764255285263062e-01 5.722754821181297302e-02 -3.150540292263031006e-01 1.245204079896211624e-02 -5.130580067634582520e-02 -1.145919878035783768e-02 -9.669411182403564453e-02 4.915812239050865173e-02 4.246684908866882324e-02
-8.460046723484992981e-03 -2.052975296974182129e-01 -8.903948962688446045e-02 -2.900853157043457031e-01 -9.438921511173248291e-02 4.287033155560493469e-02 -3.332137688994407654e-02 2.127328962087631226e-01 1.083071436733007431e-02 7.239745557308197021e-02 4.585688933730125427e-02 2.987636066973209381e-02 6.122813373804092407e-02 -3.753634542226791382e-02 8.145985752344131470e-02 -2.126548886299133301e-01 -6.656066328287124634e-02 -1.765923798084259033e-01 5.224888399243354797e-02 -5.932527408003807068e-02 -1.140935570001602173e-01 1.517411619424819946e-01 4.886642470955848694e-02 -5.036705732345581055e-02 -1.185188367962837219e-01 5.813897401094436646e-02 3.855857253074645996e-02 2.855709008872509003e-02 -5.292100086808204651e-02 -9.569232165813446045e-02 5.061801895499229431e-02 3.717142716050148010e-02 -3.327631577849388123e-02 -9.560930728912353516e-02 7.622561603784561157e-02 -1.194376423954963684e-01 -6.175491586327552795e-02 -3.151044249534606934e-02 -7.366601377725601196e-02 -3.091543726623058319e-02 5.159396305680274963e-02 2.680548466742038727e-02 6.069710850715637207e-02 -3.633697330951690674e-01 -8.183927834033966064e-02 1.273021101951599121e-01 -1.553607825189828873e-02 -2.907526791095733643e-01 -1.291377376765012741e-02 -6.427858769893646240e-02 2.750085480511188507e-02 -1.394694950431585312e-02 6.336069852113723755e-02 5.836506560444831848e-02 -7.993117719888687134e-02 6.836778670549392700e-02 -8.119127154350280762e-02 8.879387378692626953e-01 2.117666602134704590e-01 3.171997368335723877e-01 9.265330433845520020e-02 3.816075623035430908e-01 5.873973667621612549e-02 -1.761683672666549683e-01 -2.676948532462120056e-02 2.662540227174758911e-02 8.458309620618820190e-02 -1.092870905995368958e-01 -7.323321700096130371e-02 -8.718758821487426758e-02
-8.468875312246382236e-04 7.842976599931716919e-02 1.114054471254348755e-01 2.528207004070281982e-01 -2.485385835170745850e-01 -1.505554318428039551e-01 -2.908206172287464142e-02 4.593756049871444702e-02 -1.236350275576114655e-02 -1.058424040675163269e-01 -7.191410660743713379e-02 -3.304671868681907654e-02 -3.086926229298114777e-02 -2.737599238753318787e-02 6.832541525363922119e-02 5.433647334575653076e-02 1.044941693544387817e-01 1.518341600894927979e-01 -1.751252561807632446e-01 -1.419423818588256836e-01 -2.717592753469944000e-02 -3.586233779788017273e-02 5.432954803109169006e-02 6.068876944482326508e-03 -9.527746587991714478e-02 1.198774874210357666e-01 3.860232234001159668e-02 1.577178761363029480e-02 -1.328109502792358398e-01 5.043245106935501099e-02 -2.330635441467165947e-03 -1.196567118167877197e-01 -2.633662819862365723e-01 1.358832567930221558e-01 1.895594745874404907e-01 1.054330021142959595e-01 -3.961632400751113892e-02 6.367795169353485107e-02 -5.392777733504772186e-03 1.979795983061194420e-03 1.147327348589897156e-01 -3.058028407394886017e-02 4.236857593059539795e-02 2.238819003105163574e-02 2.121429443359375000e-01 -3.169892355799674988e-02 -2.217850387096405029e-01 7.972899824380874634e-02 -3.093117661774158478e-02 6.196409463882446289e-02 -3.166904207319021225e-03 -2.950581908226013184e-02 8.376454561948776245e-02 -5.929978936910629272e-02 -6.886186450719833374e-02 4.234010353684425354e-02 1.921738870441913605e-02 -2.076072394847869873e-01 3.498722240328788757e-02 -2.746551036834716797e-01 -2.940219640731811523e-01 8.864349871873855591e-02 9.775564074516296387e-02 -1.957052201032638550e-01 7.235013414174318314e-03 6.532439589500427246e-02 9.952610731124877930e-02 -3.186297416687011719e-02 -4.245560616254806519e-02 -5.838007782585918903e-04
2.659067325294017792e-02 9.788145869970321655e-02 -6.547158956527709961e-02 -7.705434411764144897e-02 7.221164554357528687e-02 -4.432073980569839478e-02 6.635254621505737305e-02 -4.332819581031799316e-02 3.158890828490257263e-02 4.141234606504440308e-02 -5.188036710023880005e-02 -7.056910544633865356e-02 -1.483539491891860962e-02 1.252592448145151138e-02 -1.247083023190498352e-02 -5.625399947166442871e-02 1.397013757377862930e-02 -1.194881368428468704e-02 9.940964728593826294e-02 -3.290405124425888062e-02 5.878745764493942261e-02 -4.576588794589042664e-02 8.988280780613422394e-03 9.808166883885860443e-03 -2.853926271200180054e-02 -6.710676848888397217e-02 -7.072277367115020752e-02 4.286120180040597916e-03 6.191533803939819336e-02 -1.977007091045379639e-01 6.261891871690750122e-02 -6.133891269564628601e-02 -9.445087611675262451e-02 -9.103341400623321533e-02 7.935945689678192139e-02 -3.228539228439331055e-02 4.937640391290187836e-03 -8.121851086616516113e-02 2.992402529343962669e-03 3.045619651675224304e-02 4.193025827407836914e-02 -4.891480132937431335e-02 -1.231871917843818665e-01 -5.972466468811035156e-01 -1.274064928293228149e-01 -8.867818862199783325e-02 -2.295571751892566681e-02 -4.686217606067657471e-01 -6.549477577209472656e-02 5.469704791903495789e-02 -3.211461380124092102e-02 -5.102090165019035339e-02 -1.778302527964115143e-02 5.090344324707984924e-02 6.091488897800445557e-02 -2.307860925793647766e-02 4.734991863369941711e-02 7.594776749610900879e-01 1.385635733604431152e-01 2.354282289743423462e-01 -4.555607214570045471e-02 6.429675817489624023e-01 -9.191954135894775391e-02 6.531905382871627808e-02 -2.085283026099205017e-02 8.325818181037902832e-02 6.932984292507171631e-02 5.476952716708183289e-02 -1.185240969061851501e-02 5.677087977528572083e-02
1.204235404729843140e-01 2.719250321388244629e-01 -6.662358343601226807e-02 -5.510279536247253418e-01 3.307960927486419678e-02 8.022208511829376221e-02 -7.432496640831232071e-03 -1.949183493852615356e-01 5.362296476960182190e-02 -1.267160028219223022e-01 2.939975075423717499e-02 1.406374853104352951e-02 2.849061787128448486e-02 -8.986528217792510986e-02 -4.035530611872673035e-02 2.741395235061645508e-01 9.912609122693538666e-03 -3.379479646682739258e-01 1.545395050197839737e-02 1.353792399168014526e-01 9.689648449420928955e-02 -2.015955746173858643e-01 5.904296878725290298e-03 -7.925967685878276825e-03 5.042630806565284729e-02 -5.653326958417892456e-02 1.915838755667209625e-02 9.830791503190994263e-03 3.754002228379249573e-02 -3.986557200551033020e-02 -1.141197308897972107e-01 2.141824811697006226e-01 -4.639141634106636047e-02 3.944167122244834900e-02 6.487021595239639282e-02 1.968885585665702820e-02 -3.409318625926971436e-02 7.228088378906250000e-02 -4.235174506902694702e-02 -2.138874679803848267e-02 -1.812071911990642548e-02 8.687338978052139282e-02 -1.003319919109344482e-01 1.654308736324310303e-01 9.789160639047622681e-02 9.366185963153839111e-02 2.886975370347499847e-02 3.153531551361083984e-01 -9.074277430772781372e-02 1.955256909132003784e-01 -9.379050135612487793e-02 7.041531056165695190e-02 -2.519357763230800629e-02 -1.111323572695255280e-02 4.066258296370506287e-02 6.138802040368318558e-03 -1.559279765933752060e-02 -6.319453716278076172e-01 5.475970730185508728e-02 5.573752522468566895e-01 -2.409675903618335724e-02 -5.411087870597839355e-01 -3.528831899166107178e-02 1.651267707347869873e-01 6.600976735353469849e-02 -1.165663823485374451e-02 8.797911927103996277e-03 5.549077317118644714e-02 -6.244612485170364380e-02 -1.190347131341695786e-02
