-1.144119501113891602e-01
5.904778838157653809e-01
2.520800530910491943e-01
4.663442075252532959e-02
-2.499433755874633789e-01
-1.848666369915008545e-01
-6.826096773147583008e-01
-1.778084039688110352e-01
-4.764550924301147461e-01
-3.823121190071105957e-01
-1.371557116508483887e+00
-1.624364107847213745e-01
-1.417252570390701294e-01
-5.935195088386535645e-01
-2.658258974552154541e-01
-5.268387794494628906e-01
5.372548699378967285e-01
-4.167899489402770996e-01
-1.081792473793029785e+00
1.402169913053512573e-01
-2.991420626640319824e-01
-1.196897149085998535e+00
2.295366674661636353e-01
6.321783661842346191e-01
-7.601230591535568237e-02
-4.217333197593688965e-01
1.592724472284317017e-01
6.946109980344772339e-02
-3.280201554298400879e-01
-7.586502432823181152e-01
-1.984790116548538208e-01
5.318441428244113922e-03
1.195706613361835480e-02
-8.399500697851181030e-02
2.226096019148826599e-02
-7.189593315124511719e-01
-2.128258161246776581e-02
6.131349802017211914e-01
1.192394196987152100e-01
-4.628852307796478271e-01
-1.803907603025436401e-01
-4.545597434043884277e-01
-3.366516828536987305e-01
-4.131717234849929810e-02
-3.142502605915069580e-01
-4.053519070148468018e-01
-1.085763499140739441e-01
-9.640810489654541016e-01
-4.038804471492767334e-01
-2.227688729763031006e-01
-2.858887240290641785e-02
6.906836479902267456e-02
-3.493754565715789795e-02
-4.624795615673065186e-01
-1.109014749526977539e-01
-5.588887333869934082e-01
4.865189492702484131e-01
5.342279002070426941e-02
-2.134140282869338989e-01
-2.789392881095409393e-02
-5.407447814941406250e-01
-6.453142166137695312e-01
-9.139980077743530273e-01
-3.926979005336761475e-01
-4.394096136093139648e-01
-7.933198809623718262e-01
1.714972779154777527e-02
-1.599732488393783569e-01
-7.563076615333557129e-01
3.272381797432899475e-02
-1.270962208509445190e-01
1.267513781785964966e-01
-1.034411549568176270e+00
-3.212682902812957764e-01
-9.259125590324401855e-01
4.480226933956146240e-01
-1.905565112829208374e-01
3.408326953649520874e-02
-4.630204439163208008e-01
-1.243241548538208008e+00
-1.531167268753051758e+00
-6.890229880809783936e-02
-2.248050868511199951e-01
1.323130279779434204e-01
-3.158697187900543213e-01
-4.815231263637542725e-01
-3.848186880350112915e-02
-7.253604531288146973e-01
-6.648448705673217773e-01
-7.473399043083190918e-01
-2.309508025646209717e-01
-1.466030240058898926e+00
-2.430822551250457764e-01
-1.048117041587829590e+00
-4.514619410037994385e-01
-9.605535119771957397e-02
-4.371636211872100830e-01
-1.288571476936340332e+00
-4.939999580383300781e-01
-8.778994530439376831e-02
1.350282579660415649e-01
2.686922624707221985e-02
-4.886565506458282471e-01
-5.796838402748107910e-01
-2.528923451900482178e-01
-1.937124133110046387e-01
-4.415397047996520996e-01
-6.904705166816711426e-01
9.937454015016555786e-03
-5.676445364952087402e-02
-1.712662875652313232e-01
-9.165823459625244141e-03
-5.232062563300132751e-02
-3.454922884702682495e-02
-5.320008993148803711e-01
-3.008055388927459717e-01
-1.978974789381027222e-01
-1.310280114412307739e-01
-9.097772836685180664e-01
-5.606178939342498779e-02
-7.626684904098510742e-01
6.220401730388402939e-03
-2.311259359121322632e-01
-8.418968319892883301e-02
-7.154679894447326660e-01
-2.880887985229492188e-01
-8.816637396812438965e-01
-4.844112098217010498e-01
-2.543142437934875488e-01
2.218105196952819824e-01
8.782661519944667816e-03
-4.458713904023170471e-02
-5.153931975364685059e-01
-1.257070600986480713e-01
-1.763860695064067841e-02
-1.026892587542533875e-01
-3.108088076114654541e-01
-3.188107907772064209e-02
1.180709972977638245e-01
-1.536954641342163086e-01
-4.123078286647796631e-01
-2.689679265022277832e-01
8.318281173706054688e-02
8.755470067262649536e-02
-1.359878778457641602e-01
1.419844478368759155e-01
-1.192613482475280762e+00
-1.138720288872718811e-01
-6.089924573898315430e-01
-2.833088636398315430e-01
2.170713543891906738e-01
-2.399566620588302612e-01
-8.190950155258178711e-01
-1.010515093803405762e+00
-6.214975118637084961e-01
-1.101509332656860352e+00
-4.593023657798767090e-01
-4.331947565078735352e-01
-6.016538143157958984e-01
-1.543335914611816406e-01
-6.827963888645172119e-02
1.383884400129318237e-01
5.218221992254257202e-02
-4.741163253784179688e-01
8.056857436895370483e-02
-3.692455589771270752e-03
2.881839275360107422e-01
-7.685368061065673828e-01
-6.163009628653526306e-02
-3.586051762104034424e-01
8.466900885105133057e-02
-3.400313854217529297e-01
-9.587513208389282227e-01
-7.146331667900085449e-01
-1.553508937358856201e-01
-2.377362921833992004e-02
-8.941209875047206879e-03
-2.062807530164718628e-01
5.169242620468139648e-01
-4.506167471408843994e-01
2.154051512479782104e-01
-3.512494862079620361e-01
-8.659375458955764771e-02
-8.298914879560470581e-02
2.311688214540481567e-01
-6.778964996337890625e-01
-7.913957238197326660e-01
-2.570659480988979340e-02
-1.467935889959335327e-01
3.142298460006713867e-01
-1.160636663436889648e+00
-7.044886946678161621e-01
-1.949807554483413696e-01
-1.605383455753326416e-01
2.364385575056076050e-01
2.595335543155670166e-01
-6.274682879447937012e-01
-1.254622817039489746e+00
-2.829515933990478516e-01
-2.289774119853973389e-01
