1.418823897838592529e-01 2.198804616928100586e-01 1.198960989713668823e-01 5.661338195204734802e-02 8.486621081829071045e-03 -1.347796469926834106e-01 -5.949538666754961014e-03 -1.355584859848022461e-01 1.368394941091537476e-01 -9.095785766839981079e-02 -9.104091674089431763e-02 1.397948563098907471e-01 -6.085411086678504944e-02 6.846226751804351807e-02 1.926248706877231598e-02 -3.293058602139353752e-03 -2.415842749178409576e-02 3.491115197539329529e-02 -2.609143033623695374e-02 7.166613638401031494e-02 4.964537918567657471e-02 3.444867953658103943e-02 6.002911925315856934e-02 -5.380082130432128906e-02 3.518633171916007996e-02 -8.138899505138397217e-02 1.014456450939178467e-01 -1.531835645437240601e-03 -6.339232623577117920e-02 -1.745147258043289185e-01 1.728597730398178101e-01 -7.754615694284439087e-02 5.351817980408668518e-02 1.572735607624053955e-01 9.747563302516937256e-02 1.368789374828338623e-01 1.194655895233154297e-03 9.414942562580108643e-02 -7.662773877382278442e-02 -7.608591765165328979e-02 -8.005235344171524048e-02 -1.781106740236282349e-01 -7.510266453027725220e-02 -3.281327784061431885e-01 1.696045994758605957e-01 -1.706327944993972778e-01 9.430181980133056641e-02 2.274589091539382935e-01 -4.928568378090858459e-02 2.290633916854858398e-01 -4.462097212672233582e-02 1.559971421957015991e-01 1.896206103265285492e-02 -1.253724396228790283e-01 -1.041933335363864899e-02 -9.306539595127105713e-02 -2.391667850315570831e-02 -1.302628964185714722e-01 3.085792809724807739e-02 8.091373369097709656e-03 7.774579524993896484e-02 7.504158467054367065e-02 1.563618332147598267e-02 2.272867858409881592e-01 -8.027171716094017029e-03 3.429247066378593445e-02 2.464321069419384003e-02 -1.127785295248031616e-01 4.760004207491874695e-02 6.219022907316684723e-03
-2.158700488507747650e-02 5.230325274169445038e-03 1.431651562452316284e-01 1.081231236457824707e-01 -1.066036242991685867e-02 7.904362864792346954e-03 1.727631688117980957e-01 9.783778339624404907e-02 -9.882967174053192139e-02 1.460350211709737778e-02 1.094898134469985962e-01 5.467535182833671570e-02 2.447633014526218176e-04 -5.195954442024230957e-02 -6.442021578550338745e-02 -2.852246724069118500e-02 2.606348693370819092e-01 6.142815575003623962e-02 3.223029896616935730e-02 2.960624173283576965e-02 1.221643611788749695e-01 2.554419822990894318e-02 3.829191625118255615e-02 -8.422712236642837524e-02 -1.269098669290542603e-01 -1.689256541430950165e-02 -5.168811231851577759e-02 3.877404332160949707e-02 8.533850312232971191e-02 1.935695484280586243e-02 2.368527352809906006e-01 -3.628017753362655640e-02 5.321573093533515930e-02 -3.486222773790359497e-02 1.899058520793914795e-01 -4.231203719973564148e-02 6.543364375829696655e-02 8.941002935171127319e-02 7.628496736288070679e-02 7.445740047842264175e-03 1.085178479552268982e-01 7.417789101600646973e-02 6.810341961681842804e-03 -3.048932179808616638e-02 2.813256680965423584e-01 -2.444779425859451294e-01 -5.203316733241081238e-02 -1.962028443813323975e-03 1.831181347370147705e-01 -2.453369796276092529e-01 -4.032656177878379822e-02 -3.522033244371414185e-02 -2.108806930482387543e-02 -5.574986338615417480e-02 -5.945488438010215759e-02 -2.187569253146648407e-02 -6.972623988986015320e-03 3.288878872990608215e-02 5.504763219505548477e-03 1.081909388303756714e-01 -3.646213561296463013e-02 -2.427343511953949928e-03 1.629617065191268921e-01 1.632127910852432251e-01 3.238628432154655457e-02 1.478045526891946793e-02 -4.131664335727691650e-02 8.812152780592441559e-03 5.510496906936168671e-03 -3.683346882462501526e-02
-6.466381251811981201e-02 -3.446468710899353027e-02 -1.035654023289680481e-01 -8.573152869939804077e-02 -4.827819764614105225e-02 -1.550203263759613037e-01 -1.014471948146820068e-01 9.497660398483276367e-02 -3.909637406468391418e-02 1.587875932455062866e-01 1.571493037045001984e-02 5.002354830503463745e-02 -1.718387566506862640e-02 -1.259965449571609497e-01 8.925939351320266724e-02 -2.974492125213146210e-02 -3.163830144330859184e-03 -2.667495049536228180e-02 2.230339311063289642e-02 5.496426299214363098e-02 9.494433552026748657e-02 1.723271980881690979e-02 -1.009496953338384628e-02 -6.780347321182489395e-03 1.145435720682144165e-01 1.294877529144287109e-01 -2.483645267784595490e-02 -8.912343531847000122e-02 9.794574975967407227e-02 1.907260157167911530e-02 -1.319686882197856903e-02 7.270225882530212402e-02 9.150929003953933716e-02 1.750799715518951416e-01 -3.208018094301223755e-02 -3.505884110927581787e-02 -3.375884518027305603e-02 -6.786110997200012207e-02 2.843281626701354980e-02 -5.972564965486526489e-02 2.202828414738178253e-02 1.343046873807907104e-01 -7.050087302923202515e-02 1.770679056644439697e-01 -8.652456104755401611e-02 9.265531599521636963e-02 5.143201909959316254e-03 2.768586575984954834e-01 -5.218670144677162170e-02 -2.830472290515899658e-01 2.908946201205253601e-02 -3.727656006813049316e-01 -5.732897669076919556e-03 -1.673670113086700439e-01 3.975909948348999023e-02 2.776705026626586914e-01 -4.999543726444244385e-02 6.197952106595039368e-02 9.408781677484512329e-02 3.114530444145202637e-02 -6.808195030316710472e-04 1.244486123323440552e-01 -5.792960897088050842e-02 -1.155226379632949829e-01 4.182600975036621094e-02 -1.215517669916152954e-01 -2.645726129412651062e-02 -1.226445659995079041e-01 -3.765397518873214722e-02 -9.300724486820399761e-04
4.782794788479804993e-02 3.104512393474578857e-01 8.573532849550247192e-02 3.073652386665344238e-01 -7.159208506345748901e-02 6.922572106122970581e-02 -3.525436669588088989e-02 -6.023449450731277466e-02 -1.010643541812896729e-01 -2.522418834269046783e-02 6.121566053479909897e-03 -3.059170674532651901e-03 4.621835798025131226e-02 1.988156586885452271e-01 -8.561744540929794312e-02 2.416514456272125244e-01 1.234316378831863403e-01 2.621875517070293427e-02 -7.002294808626174927e-02 3.433255106210708618e-02 3.840434178709983826e-02 -1.116964519023895264e-01 -4.583931341767311096e-02 9.745392948389053345e-02 -9.407761693000793457e-02 5.449885502457618713e-03 9.009905159473419189e-02 -8.405604958534240723e-02 8.326893299818038940e-02 -1.985585317015647888e-02 1.388566792011260986e-01 1.463525146245956421e-01 -1.114919558167457581e-01 -1.638245186768472195e-03 1.161618754267692566e-01 9.751901030540466309e-02 5.228167772293090820e-02 7.917989045381546021e-02 5.159630253911018372e-02 -5.397557839751243591e-02 -8.718848228454589844e-02 -9.613333269953727722e-03 2.508900873363018036e-02 -3.599897623062133789e-01 1.670344173908233643e-01 -2.942714989185333252e-01 -3.352889791131019592e-02 -1.410779058933258057e-01 6.454405933618545532e-02 2.228392064571380615e-01 8.236771076917648315e-02 -1.515766233205795288e-02 -2.590101957321166992e-02 8.600439876317977905e-02 -1.119278892874717712e-01 -1.085469350218772888e-01 -6.692983955144882202e-02 -2.122543305158615112e-01 -1.105401962995529175e-01 -2.145186960697174072e-01 -9.717412292957305908e-02 1.933251880109310150e-02 -9.145411103963851929e-02 -1.244691014289855957e-01 1.657485589385032654e-02 -1.321353465318679810e-01 3.154676035046577454e-02 -4.232354462146759033e-02 5.551376566290855408e-02 6.394654046744108200e-03
5.470940470695495605e-02 4.287206381559371948e-02 -1.353815197944641113e-01 -5.877896547317504883e-01 5.371680110692977905e-02 -6.307352334260940552e-02 5.951239168643951416e-02 1.266179084777832031e-01 6.067593768239021301e-02 2.553535997867584229e-02 -1.436941772699356079e-01 3.491829335689544678e-01 -9.626009501516819000e-03 -1.061604544520378113e-01 3.413619101047515869e-02 -1.240461505949497223e-02 -1.543205380439758301e-01 -2.898266613483428955e-01 4.225882887840270996e-02 -9.090775996446609497e-02 1.596733629703521729e-01 5.697279796004295349e-02 -4.397103562951087952e-03 -4.302311316132545471e-02 -9.891495853662490845e-02 1.042804419994354248e-01 -3.515147045254707336e-02 -1.315432339906692505e-01 9.984017378883436322e-05 2.863653190433979034e-02 -1.930466741323471069e-01 -2.347059175372123718e-02 -5.056151188910007477e-03 4.099509865045547485e-02 1.727020144462585449e-01 -4.752332717180252075e-02 3.642181679606437683e-02 1.326655298471450806e-01 7.787948846817016602e-02 -1.170100271701812744e-01 -6.163202971220016479e-02 5.757107585668563843e-02 -9.547941386699676514e-02 -1.595259308815002441e-01 -1.496963500976562500e-01 4.174428880214691162e-01 4.055411368608474731e-02 1.031766459345817566e-01 1.711757630109786987e-01 -9.053138643503189087e-02 -2.428997494280338287e-02 -5.215712636709213257e-02 2.850843220949172974e-02 -2.347555905580520630e-01 9.321595728397369385e-02 1.978843659162521362e-01 4.791201557964086533e-03 1.125281378626823425e-01 -1.968173533678054810e-01 5.445690155029296875e-01 4.939376935362815857e-02 1.807636953890323639e-02 -6.718015298247337341e-03 -4.801834002137184143e-02 8.370533585548400879e-02 -5.916555598378181458e-02 -6.702598929405212402e-02 -1.227015107870101929e-01 -2.681299857795238495e-02 -2.332727191969752312e-03
8.157527446746826172e-02 3.360057249665260315e-02 -1.225893571972846985e-01 -1.319369077682495117e-01 2.023812383413314819e-01 1.015021428465843201e-01 -7.933948189020156860e-02 -1.384806931018829346e-01 7.035659253597259521e-02 8.163575828075408936e-02 -2.196415513753890991e-02 3.841470927000045776e-02 -1.035778596997261047e-01 -9.255892783403396606e-02 -7.493080198764801025e-02 -1.331787439994513988e-03 -3.047457337379455566e-01 -5.946345999836921692e-02 9.329538047313690186e-02 9.567685425281524658e-02 -1.339714527130126953e-01 -9.239274263381958008e-02 -2.386661246418952942e-02 -1.687268167734146118e-02 2.742927288636565208e-03 6.876953691244125366e-02 -5.358407273888587952e-02 5.272253882139921188e-03 -4.942362755537033081e-02 8.913014084100723267e-02 -3.040851056575775146e-01 1.359528452157974243e-01 2.783701717853546143e-01 2.404534816741943359e-02 -1.634923964738845825e-01 1.156936585903167725e-01 -7.456400245428085327e-02 -6.725215166807174683e-02 -3.655095770955085754e-02 -5.078775063157081604e-02 4.717200249433517456e-02 3.330174833536148071e-02 9.339552372694015503e-02 -8.806437253952026367e-02 -1.843652874231338501e-01 1.447564810514450073e-01 2.759725749492645264e-01 -2.613762319087982178e-01 -1.647448241710662842e-01 1.457987725734710693e-01 4.985985159873962402e-02 -1.315226498991250992e-02 1.582964695990085602e-02 -4.614011198282241821e-02 4.222413152456283569e-02 5.524195730686187744e-02 -5.206343531608581543e-02 -3.329333662986755371e-02 -4.549708589911460876e-02 -9.017403423786163330e-02 1.395198851823806763e-01 3.848664835095405579e-02 -1.407348960638046265e-01 -3.178515657782554626e-02 -2.559658512473106384e-02 1.735555566847324371e-02 3.960853442549705505e-02 -1.242814026772975922e-02 6.912497431039810181e-02 -2.575977705419063568e-03
3.823427483439445496e-02 -2.899283468723297119e-01 7.365003228187561035e-02 -1.947192251682281494e-01 -8.510450273752212524e-02 -7.971694692969322205e-03 1.186908408999443054e-01 -5.965817347168922424e-02 -7.368077337741851807e-02 1.720265299081802368e-01 3.711159527301788330e-02 -1.787840127944946289e-01 -6.689329445362091064e-02 2.838608026504516602e-01 6.041576620191335678e-03 -1.746374666690826416e-01 -3.197096660733222961e-02 -2.132918089628219604e-01 6.157718133181333542e-03 6.059747561812400818e-02 6.555967777967453003e-02 -1.864662617444992065e-01 1.585470736026763916e-01 5.095110461115837097e-02 -6.259433180093765259e-02 -1.335619837045669556e-01 -3.154949471354484558e-02 1.920600235462188721e-01 -6.119047105312347412e-02 -9.510119445621967316e-03 -1.344548910856246948e-01 -8.529813587665557861e-02 -1.059405654668807983e-01 -3.841257095336914062e-02 4.921571910381317139e-02 2.247752249240875244e-02 -6.879682838916778564e-02 -1.495577841997146606e-01 7.596066594123840332e-02 5.237830802798271179e-02 8.035361766815185547e-03 -1.919465214014053345e-01 5.693740211427211761e-03 3.814986348152160645e-01 -5.611133947968482971e-02 2.638432681560516357e-01 3.010047040879726410e-02 2.291713468730449677e-02 8.502008020877838135e-02 -9.644182398915290833e-03 2.320882678031921387e-02 -2.204571217298507690e-01 -4.720656201243400574e-02 2.596091926097869873e-01 5.301644280552864075e-02 -3.198429346084594727e-01 8.989162743091583252e-03 1.278840303421020508e-01 1.709646545350551605e-02 2.371439337730407715e-01 4.421474784612655640e-02 -2.936157584190368652e-02 5.595409497618675232e-02 2.580296993255615234e-01 -4.844928532838821411e-02 1.422549784183502197e-01 -2.255719341337680817e-02 -1.323527540080249310e-03 3.029453754425048828e-02 2.887202054262161255e-02
-9.551106393337249756e-02 1.604524441063404083e-02 -2.217700183391571045e-01 -1.802465170621871948e-01 -6.811189651489257812e-02 -7.008235901594161987e-02 9.635301679372787476e-02 1.762900203466415405e-01 -3.603075444698333740e-02 1.298451423645019531e-02 6.235511600971221924e-02 1.988159678876399994e-02 9.246196597814559937e-02 -9.675415605306625366e-02 1.316490471363067627e-01 3.651140257716178894e-02 -2.106599360704421997e-01 -1.361995786428451538e-01 -1.044816896319389343e-01 -1.319457292556762695e-01 1.822226643562316895e-01 1.709462851285934448e-01 1.049003079533576965e-01 -1.003817841410636902e-01 -1.675879955291748047e-02 -8.306246995925903320e-02 6.729798018932342529e-02 1.293998360633850098e-01 8.807167410850524902e-02 -3.492635861039161682e-02 -1.851124316453933716e-01 6.515561789274215698e-02 -2.162937968969345093e-01 7.324293255805969238e-02 1.683062314987182617e-01 -1.037383228540420532e-01 -3.881176933646202087e-02 1.681316085159778595e-02 -7.864212989807128906e-02 -4.089304432272911072e-02 -7.337094843387603760e-02 -1.608326472342014313e-02 -8.778171241283416748e-02 -9.652627259492874146e-02 -1.664006412029266357e-01 3.093515932559967041e-01 -5.255345255136489868e-02 1.633315384387969971e-01 2.146985381841659546e-01 -1.999653726816177368e-01 -3.086102195084095001e-02 1.933756656944751740e-02 1.108029335737228394e-01 3.797642141580581665e-02 -4.884463548660278320e-02 1.063559763133525848e-02 -3.334327787160873413e-02 7.632458955049514771e-02 -3.456422593444585800e-03 -5.564637109637260437e-02 -8.810286968946456909e-02 -3.484557569026947021e-02 9.491153061389923096e-03 -4.731073975563049316e-02 6.130816880613565445e-03 5.017191171646118164e-02 -6.923365592956542969e-02 6.852288544178009033e-02 -3.203345090150833130e-02 -2.608938328921794891e-02
-9.562894701957702637e-02 1.526628881692886353e-01 -3.077424168586730957e-01 4.689990729093551636e-02 5.558709055185317993e-02 -1.815311610698699951e-01 -1.886262930929660797e-02 1.808126121759414673e-01 1.533056888729333878e-02 1.813867315649986267e-02 1.026254519820213318e-02 1.513988375663757324e-01 7.684991508722305298e-02 8.280194550752639771e-02 1.092957854270935059e-01 1.805480122566223145e-01 -3.598806560039520264e-01 9.491945803165435791e-02 3.357924520969390869e-02 -1.717334836721420288e-01 -1.373259127140045166e-01 4.157955292612314224e-03 -5.707149580121040344e-02 5.984660983085632324e-02 -1.002172529697418213e-01 -1.642821356654167175e-03 -1.522671990096569061e-02 -1.929163374006748199e-02 -1.243324875831604004e-01 3.320637717843055725e-02 -1.852207034826278687e-01 -1.176477875560522079e-03 1.089206635951995850e-01 7.186862826347351074e-02 -9.043835103511810303e-02 5.679316446185112000e-02 -5.614127591252326965e-02 -9.483472257852554321e-02 6.387832015752792358e-02 -1.385215520858764648e-01 -2.425912208855152130e-02 3.184854239225387573e-02 1.033642888069152832e-01 -2.069131433963775635e-01 -3.803605437278747559e-01 -1.105772480368614197e-01 2.796495705842971802e-02 1.318976432085037231e-01 -5.619870126247406006e-02 -1.934022009372711182e-01 2.334123104810714722e-02 -1.270840596407651901e-02 -9.379949420690536499e-02 -1.037998795509338379e-01 -6.426891684532165527e-02 -1.173358596861362457e-02 4.903979133814573288e-03 -1.797001361846923828e-01 -1.473248600959777832e-01 -2.852959930896759033e-02 3.355874493718147278e-02 1.624650061130523682e-01 9.365729056298732758e-04 -4.905971139669418335e-02 7.094106823205947876e-02 2.719062380492687225e-02 9.872990846633911133e-02 9.223951399326324463e-02 1.783227548003196716e-02 -8.691280335187911987e-02
3.667899221181869507e-02 -2.647548019886016846e-01 -2.919873781502246857e-02 3.770275413990020752e-01 -7.554550468921661377e-02 2.988458424806594849e-02 3.326450586318969727e-01 1.616155612282454967e-03 1.341901123523712158e-01 4.101021215319633484e-02 -8.126380294561386108e-02 -3.568376973271369934e-02 -5.149073898792266846e-02 1.208602488040924072e-01 7.198294997215270996e-02 -7.612892240285873413e-02 -2.291708439588546753e-01 2.925568222999572754e-01 -8.014451712369918823e-03 9.436745196580886841e-02 2.670679986476898193e-01 -9.224398992955684662e-03 1.344453264027833939e-02 1.617976129055023193e-01 -4.097589477896690369e-02 1.098182946443557739e-01 1.401668787002563477e-02 1.146091613918542862e-02 -1.386080235242843628e-01 1.006230637431144714e-01 -1.407291144132614136e-01 -8.946587145328521729e-02 -4.347724467515945435e-02 -9.670805186033248901e-02 1.755522340536117554e-01 8.888074010610580444e-02 -1.020650030113756657e-03 -6.029959395527839661e-02 9.872422553598880768e-03 -1.597295515239238739e-02 9.004777669906616211e-02 -6.661099940538406372e-02 1.898459158837795258e-02 1.158087793737649918e-02 -1.343047618865966797e-01 -3.584827184677124023e-01 -1.016909033060073853e-01 5.718753207474946976e-03 2.552739381790161133e-01 -1.315611880272626877e-02 1.840326935052871704e-02 -1.090242862701416016e-01 -1.080578118562698364e-01 -8.482882380485534668e-02 -3.350948914885520935e-02 -5.524460598826408386e-02 2.994289994239807129e-02 2.580905556678771973e-01 -9.170156717300415039e-02 -2.481232583522796631e-01 1.601251028478145599e-02 -1.252795569598674774e-02 1.667585223913192749e-01 -1.065759956836700439e-01 1.098883450031280518e-01 -3.745957836508750916e-02 -7.459685206413269043e-02 1.504682283848524094e-02 -5.666352808475494385e-02 -3.845386952161788940e-02
1.509225964546203613e-01 -5.961263924837112427e-02 4.267150908708572388e-02 -8.058469742536544800e-03 2.950268425047397614e-02 8.049204200506210327e-02 1.215161979198455811e-01 -7.111247628927230835e-02 5.461619049310684204e-02 6.502897478640079498e-03 -6.927422434091567993e-02 -2.865056693553924561e-01 5.006800219416618347e-02 -4.551225006580352783e-01 -1.603415235877037048e-02 -5.921923089772462845e-03 -9.565175324678421021e-02 -1.480633858591318130e-02 -5.025604739785194397e-02 1.903525553643703461e-02 5.159997195005416870e-02 -1.352042704820632935e-02 -9.443213790655136108e-02 4.144564270973205566e-02 -1.374366581439971924e-01 -1.444406062364578247e-01 4.466072842478752136e-02 -5.441579967737197876e-02 -3.580753505229949951e-02 6.596487015485763550e-02 -4.492144286632537842e-02 6.159377098083496094e-02 -4.171679168939590454e-02 -3.026926331222057343e-02 1.007200330495834351e-01 6.400357186794281006e-02 -1.395661942660808563e-02 -6.540237367153167725e-02 2.185223624110221863e-02 1.607524752616882324e-01 6.297703087329864502e-02 5.397640913724899292e-02 -4.307959973812103271e-02 -1.842434890568256378e-02 -1.421801298856735229e-01 7.642702758312225342e-02 1.215862110257148743e-01 -1.526359915733337402e-01 -4.126436635851860046e-02 -8.924406953155994415e-03 -8.727318793535232544e-02 4.824845585972070694e-03 1.901247887872159481e-03 2.743869721889495850e-01 2.241198159754276276e-02 3.227469623088836670e-01 2.192203886806964874e-02 -9.312867373228073120e-02 -1.390631347894668579e-01 8.027935028076171875e-02 -3.933324944227933884e-03 -8.001004904508590698e-02 1.120780482888221741e-01 -1.164037175476551056e-02 9.349855035543441772e-02 9.361080825328826904e-03 7.453169673681259155e-03 2.566667087376117706e-02 5.077965930104255676e-02 1.392537206411361694e-01
2.234373008832335472e-03 -7.268686592578887939e-02 1.884427815675735474e-01 2.181264311075210571e-01 1.705768555402755737e-01 -7.729905098676681519e-02 5.164187168702483177e-04 -1.850700080394744873e-01 -5.882062390446662903e-02 1.881154440343379974e-02 7.715091109275817871e-02 4.493239149451255798e-02 1.612118445336818695e-02 1.420885231345891953e-02 2.337101288139820099e-02 -1.234483793377876282e-01 3.003284335136413574e-01 1.179369259625673294e-02 3.350544869899749756e-01 -7.745686173439025879e-02 1.533635258674621582e-01 3.785943239927291870e-02 -5.643964931368827820e-02 -4.687086865305900574e-02 9.094603359699249268e-02 6.278123706579208374e-02 1.817204616963863373e-02 1.265883147716522217e-01 -6.346924602985382080e-02 -8.048654347658157349e-02 1.903156638145446777e-01 1.231261901557445526e-02 2.199577391147613525e-01 2.581883035600185394e-02 9.376393258571624756e-02 -2.281299792230129242e-02 4.858676344156265259e-02 2.748182602226734161e-02 -5.834512412548065186e-02 -3.127860277891159058e-02 -5.541722290217876434e-03 1.701833121478557587e-02 5.689502507448196411e-02 1.637413650751113892e-01 2.023832648992538452e-01 -1.222604513168334961e-01 3.086612522602081299e-01 1.304245442152023315e-01 6.023404747247695923e-02 5.333738774061203003e-02 9.006553143262863159e-02 -3.243596851825714111e-02 -1.270768791437149048e-01 1.985042355954647064e-03 -1.166148185729980469e-01 -1.447506546974182129e-01 -1.806501112878322601e-02 1.198663786053657532e-01 4.196675866842269897e-02 -1.282725781202316284e-01 9.645627439022064209e-02 -1.003194367513060570e-03 1.952461004257202148e-01 1.201305761933326721e-01 -2.465217001736164093e-02 3.097746148705482483e-02 9.795469231903553009e-03 -7.937862724065780640e-02 9.294633567333221436e-02 -1.607897877693176270e-02
5.759674683213233948e-02 -1.400650441646575928e-01 -3.535230830311775208e-02 6.211625412106513977e-02 -1.194415986537933350e-02 -5.535444989800453186e-02 1.264887601137161255e-01 1.631461083889007568e-02 1.128575857728719711e-02 1.070807352662086487e-01 6.563249230384826660e-02 3.397578001022338867e-01 1.173310130834579468e-01 -1.940114051103591919e-02 1.370422355830669403e-02 3.171150758862495422e-02 -2.483214775566011667e-04 1.192688941955566406e-02 5.190071091055870056e-02 -1.084811910986900330e-01 -1.820395328104496002e-02 -6.494489964097738266e-03 5.555888637900352478e-02 3.120559267699718475e-02 6.295047700405120850e-02 -1.986838690936565399e-02 -3.231742605566978455e-02 -1.182389780879020691e-01 -4.370664432644844055e-02 1.460804492235183716e-01 -9.086012840270996094e-02 -5.680435895919799805e-02 -3.257483243942260742e-02 4.426371306180953979e-03 -1.132399402558803558e-02 7.012616377323865891e-03 1.500868517905473709e-02 -9.022551774978637695e-02 -7.667789608240127563e-02 -2.608331739902496338e-01 -2.811178192496299744e-02 7.137139141559600830e-02 -3.359736874699592590e-02 1.374602764844894409e-01 -7.795393466949462891e-02 4.410804808139801025e-02 1.274981051683425903e-01 2.422215044498443604e-01 6.342563033103942871e-02 -2.218995541334152222e-01 5.438116937875747681e-02 -1.241757124662399292e-01 -1.158891543745994568e-01 -3.913823962211608887e-01 -8.574512600898742676e-02 1.584746390581130981e-01 2.518982626497745514e-03 5.166539922356605530e-02 1.458083465695381165e-02 -1.807978563010692596e-02 -5.171368271112442017e-02 7.546931505203247070e-02 1.644285768270492554e-01 -1.617577970027923584e-01 6.284602731466293335e-02 -1.715646833181381226e-01 -7.424412667751312256e-02 -2.574073672294616699e-01 2.967535704374313354e-02 -1.983034051954746246e-02
8.018068224191665649e-02 -5.377568006515502930e-01 1.682299673557281494e-01 -8.311929553747177124e-02 5.354064516723155975e-03 4.607037454843521118e-02 -3.021335415542125702e-02 -1.073589622974395752e-01 -3.816562518477439880e-02 6.530261039733886719e-02 -9.767053276300430298e-02 5.512864887714385986e-02 -6.561698857694864273e-03 1.059259399771690369e-01 9.374557435512542725e-02 -2.061126232147216797e-01 5.923931673169136047e-02 -1.007459759712219238e-01 1.122699826955795288e-01 -2.358232066035270691e-02 -5.556403845548629761e-02 1.187389716506004333e-02 -3.435333818197250366e-02 -1.108914054930210114e-02 -1.612791605293750763e-02 4.583288729190826416e-02 1.588141731917858124e-02 4.228467866778373718e-02 -6.528490036725997925e-02 1.454844605177640915e-02 2.224287539720535278e-01 7.605025917291641235e-02 1.019722223281860352e-02 -6.081841140985488892e-02 -1.113147810101509094e-01 8.827116340398788452e-02 -1.031941995024681091e-01 1.930041797459125519e-02 8.156646043062210083e-02 -3.950509801506996155e-02 3.622768819332122803e-02 3.662185743451118469e-02 -6.672399491071701050e-02 3.585325479507446289e-01 2.029638886451721191e-01 3.462740406394004822e-02 -7.036691159009933472e-02 -8.875963836908340454e-02 -4.878136143088340759e-02 3.358556330204010010e-02 5.396906286478042603e-02 -5.125816538929939270e-02 6.876178830862045288e-02 2.542002871632575989e-02 -4.948898032307624817e-02 -1.736924201250076294e-01 -4.997434839606285095e-02 4.306572079658508301e-01 7.039687037467956543e-02 9.131906181573867798e-02 -7.759081572294235229e-02 1.362397968769073486e-01 8.205041289329528809e-02 -3.887204453349113464e-02 1.067144647240638733e-01 -2.312311530113220215e-02 -7.639639824628829956e-02 -8.085287362337112427e-02 7.200014777481555939e-03 -9.762804023921489716e-03
1.787956245243549347e-02 1.238215714693069458e-01 2.281628102064132690e-01 7.268638163805007935e-02 -1.250940412282943726e-01 1.083442103117704391e-02 -1.139741539955139160e-01 1.428821235895156860e-01 -2.729746140539646149e-02 -4.812063649296760559e-02 -4.998898506164550781e-02 7.231325656175613403e-02 -5.009951815009117126e-02 -4.751296341419219971e-02 4.462088271975517273e-02 1.405161470174789429e-01 2.409823685884475708e-01 1.197521835565567017e-01 -3.184087872505187988e-01 8.158669620752334595e-02 -2.025302052497863770e-01 1.016371026635169983e-01 -7.192985713481903076e-02 2.789871208369731903e-02 1.227027177810668945e-01 5.277892574667930603e-02 -8.577360957860946655e-02 -1.812760159373283386e-02 -8.567941188812255859e-02 -8.863556385040283203e-02 2.722803056240081787e-01 -3.716934844851493835e-02 -2.433418780565261841e-01 -1.891292631626129150e-02 -1.980884969234466553e-01 -9.255617111921310425e-02 3.695186227560043335e-02 3.154031932353973389e-02 -5.850182846188545227e-02 -2.351461537182331085e-02 5.073806643486022949e-02 -1.788272522389888763e-02 3.833072260022163391e-02 -1.693751215934753418e-01 2.652583718299865723e-01 -3.693885728716850281e-02 -1.219471469521522522e-01 -7.993320375680923462e-02 -1.321929693222045898e-01 -9.493412822484970093e-02 1.633045449852943420e-02 6.381002068519592285e-02 -5.881017073988914490e-02 -7.260582596063613892e-02 9.196790307760238647e-02 7.424020022153854370e-02 -1.264603529125452042e-02 -1.429983787238597870e-02 -7.896456122398376465e-02 -1.259350329637527466e-01 -4.433543607592582703e-02 2.879607258364558220e-03 -1.748215593397617340e-02 -5.513925850391387939e-02 4.061423987150192261e-02 -7.461372762918472290e-02 4.757148399949073792e-02 -2.704941667616367340e-02 -8.028157055377960205e-03 1.069633848965167999e-02
-3.110269829630851746e-02 -1.502644568681716919e-01 -3.268903493881225586e-02 -1.201699599623680115e-01 2.838036511093378067e-03 4.445851966738700867e-02 2.520349435508251190e-02 2.020551264286041260e-02 9.455423057079315186e-02 -1.688529253005981445e-01 1.879261806607246399e-02 1.003107279539108276e-01 -3.937071934342384338e-02 -2.620150148868560791e-01 -1.047061681747436523e-01 4.406791180372238159e-02 -3.681130707263946533e-02 -7.467524707317352295e-02 -3.585872426629066467e-02 4.066584631800651550e-02 -1.559623051434755325e-02 4.421987012028694153e-02 -1.255993843078613281e-01 -1.262499690055847168e-01 5.683263391256332397e-02 6.287020444869995117e-02 -3.412761911749839783e-02 5.673030763864517212e-02 6.250700354576110840e-02 1.086517870426177979e-01 -1.635170429944992065e-01 4.610000178217887878e-02 1.045189127326011658e-01 -5.493203923106193542e-02 7.937212288379669189e-02 2.564121782779693604e-02 1.132775098085403442e-02 1.782270073890686035e-01 -1.471019163727760315e-02 -8.651940524578094482e-02 -1.716972887516021729e-02 2.027551978826522827e-01 7.073833793401718140e-02 2.666212022304534912e-01 -1.337099373340606689e-01 2.219826281070709229e-01 -1.946972496807575226e-02 -3.849403932690620422e-02 -5.854028463363647461e-02 1.067284122109413147e-01 8.597136288881301880e-02 3.285831809043884277e-01 -2.632916718721389771e-02 -2.636142671108245850e-01 5.895384773612022400e-02 4.059132933616638184e-01 2.742282347753643990e-03 1.376163214445114136e-01 -1.956133171916007996e-02 1.496813595294952393e-01 2.675515227019786835e-02 7.399852387607097626e-03 3.045449033379554749e-02 8.621031045913696289e-02 1.530585717409849167e-02 2.166069447994232178e-01 -4.641479253768920898e-02 -1.758023053407669067e-01 2.684234268963336945e-02 1.692779809236526489e-01
1.075195521116256714e-02 -4.235124681144952774e-03 7.075634784996509552e-03 1.419875118881464005e-02 -4.748200625181198120e-02 -1.365475654602050781e-01 -6.612537056207656860e-02 -4.836226347833871841e-03 -9.387526661157608032e-02 -1.134691834449768066e-01 7.420008629560470581e-02 -1.727498322725296021e-01 1.000012531876564026e-01 2.778035402297973633e-01 2.937954291701316833e-02 -1.329042389988899231e-02 -6.047110632061958313e-02 6.714971363544464111e-02 7.370383292436599731e-02 6.073124334216117859e-02 -4.065937176346778870e-02 8.655325509607791901e-03 6.098375841975212097e-02 -7.227139919996261597e-02 -3.438585996627807617e-02 -3.517371416091918945e-02 9.824547916650772095e-02 1.750395074486732483e-02 1.037171855568885803e-01 1.475853938609361649e-02 2.625532634556293488e-02 -4.392090812325477600e-02 8.934313803911209106e-02 1.058003678917884827e-01 1.301021128892898560e-02 -9.123414754867553711e-02 -8.165509998798370361e-02 1.616167277097702026e-01 -1.592527180910110474e-01 1.673021018505096436e-01 -1.059964001178741455e-01 -2.668560147285461426e-01 -6.641628593206405640e-02 1.336796879768371582e-01 -2.696490101516246796e-02 -5.275835283100605011e-03 -6.166978552937507629e-02 1.658995449542999268e-01 1.494190990924835205e-01 -1.740994676947593689e-02 -2.661641221493482590e-03 2.381492108106613159e-01 -1.455008331686258316e-02 3.580238819122314453e-01 -1.182419881224632263e-01 -5.499283671379089355e-01 -8.045976608991622925e-02 1.112309545278549194e-01 -1.093068998306989670e-02 -4.462872818112373352e-02 3.523133229464292526e-03 8.409124612808227539e-02 1.289419829845428467e-01 -7.830306142568588257e-02 5.180330947041511536e-02 1.532795727252960205e-01 5.742954835295677185e-02 2.768291831016540527e-01 3.431394323706626892e-02 -3.520532846450805664e-01
8.373417891561985016e-03 -7.287976890802383423e-02 -8.222647011280059814e-02 -4.022417217493057251e-02 1.127265617251396179e-01 8.986350893974304199e-02 9.507710486650466919e-02 -1.304818242788314819e-01 -7.792861759662628174e-02 1.105981767177581787e-01 -5.605760589241981506e-02 -1.361697018146514893e-01 -1.005429476499557495e-01 1.840767115354537964e-01 6.707408279180526733e-02 -3.607480553910136223e-03 -7.661785930395126343e-02 -4.465461149811744690e-02 -7.836542278528213501e-02 5.699932575225830078e-02 4.360317811369895935e-02 1.173004228621721268e-02 6.791605055332183838e-02 -3.665930032730102539e-02 1.053009182214736938e-03 -1.531050950288772583e-01 5.643619224429130554e-02 2.269545197486877441e-02 7.314457744359970093e-02 2.563232742249965668e-02 -1.080656051635742188e-01 4.710088297724723816e-02 -9.799665957689285278e-02 -7.072134315967559814e-02 -8.711028099060058594e-02 1.050005406141281128e-01 4.541976377367973328e-02 -1.197363734245300293e-01 -2.617161348462104797e-02 2.105948030948638916e-01 8.191356807947158813e-02 -1.331419497728347778e-01 -7.498255372047424316e-02 1.129001230001449585e-01 7.706274278461933136e-03 9.681180119514465332e-02 2.464732527732849121e-02 -1.696826070547103882e-01 -4.043951164931058884e-03 3.729332089424133301e-01 7.590097934007644653e-02 -2.898778915405273438e-01 -1.154645625501871109e-02 4.199724495410919189e-01 -3.313315287232398987e-02 -4.232715666294097900e-01 -6.797981262207031250e-02 -7.403604220598936081e-03 2.031823620200157166e-03 9.452986717224121094e-02 3.986442834138870239e-02 -1.382514089345932007e-01 9.456643462181091309e-02 1.904353350400924683e-01 2.610871940851211548e-02 -1.333891898393630981e-01 3.981762006878852844e-02 2.166865020990371704e-01 -1.966710202395915985e-02 -1.322226673364639282e-01
-7.083323597908020020e-02 1.282660812139511108e-01 -1.170952692627906799e-01 -4.007323831319808960e-02 3.875693678855895996e-02 2.081787586212158203e-01 1.249099820852279663e-01 1.344440132379531860e-01 -2.595870010554790497e-02 1.725177466869354248e-01 -2.228027768433094025e-02 2.594924569129943848e-01 5.944429896771907806e-03 2.018042206764221191e-01 8.199641853570938110e-02 1.373070031404495239e-01 2.478627674281597137e-02 -2.694565057754516602e-02 6.651513278484344482e-02 1.116431877017021179e-02 4.830598086118698120e-02 -2.432259730994701385e-02 -1.134495949372649193e-03 5.998347699642181396e-02 1.129027921706438065e-02 -6.158296484500169754e-03 -4.936002939939498901e-02 1.069745197892189026e-01 8.246551454067230225e-02 -7.468279451131820679e-02 -7.234115898609161377e-02 -1.117459610104560852e-01 -7.263036072254180908e-02 -9.750495105981826782e-02 8.360815048217773438e-02 -3.217802569270133972e-02 6.525950133800506592e-02 -4.600301326718181372e-04 -2.537711523473262787e-02 -1.411052942276000977e-01 2.674161829054355621e-02 -1.772102564573287964e-01 -5.727896466851234436e-02 -1.687367409467697144e-01 -1.732400804758071899e-01 5.317160487174987793e-02 1.152731478214263916e-02 -1.775168776512145996e-01 -2.653339505195617676e-02 -2.822495698928833008e-01 1.649121008813381195e-02 -2.454405874013900757e-01 4.958363249897956848e-02 -2.476372718811035156e-01 -1.994936726987361908e-02 -3.090226054191589355e-01 -4.011446982622146606e-02 -1.551074236631393433e-01 -8.211021870374679565e-02 8.390033245086669922e-02 -1.290749013423919678e-01 -1.117134764790534973e-01 -2.186965383589267731e-02 -9.075184911489486694e-02 6.874515861272811890e-02 -1.286098808050155640e-01 -2.852915041148662567e-02 -1.761617213487625122e-01 5.051316693425178528e-02 -1.776068955659866333e-01
1.231691054999828339e-02 2.875960469245910645e-01 -3.556721806526184082e-01 -3.672080338001251221e-01 -7.394465059041976929e-02 1.857911981642246246e-02 -8.447865396738052368e-02 -2.145140916109085083e-01 -1.375253051519393921e-01 -2.131666243076324463e-02 -6.894357502460479736e-02 -6.064086407423019409e-02 -1.095816586166620255e-02 -8.663497120141983032e-02 -7.613662630319595337e-03 1.229488700628280640e-01 -1.374446898698806763e-01 -4.469693824648857117e-02 -1.647531390190124512e-01 -8.197221904993057251e-02 6.685221940279006958e-02 -2.171671539545059204e-01 2.857636660337448120e-03 -5.947256460785865784e-02 3.328585252165794373e-02 -8.372350782155990601e-02 -1.095069274306297302e-01 -1.001103594899177551e-01 -3.525727242231369019e-02 -6.751053035259246826e-02 -2.232760488986968994e-01 1.079637110233306885e-01 -9.545829147100448608e-02 -6.554416567087173462e-02 6.748172640800476074e-02 7.519021630287170410e-02 6.557717919349670410e-02 4.358165711164474487e-02 4.972078837454319000e-03 4.874533414840698242e-02 8.622659742832183838e-02 -8.740258961915969849e-02 1.152837350964546204e-01 -1.557372659444808960e-01 -2.747041285037994385e-01 1.911597400903701782e-01 -1.262624263763427734e-01 1.082805916666984558e-01 -3.143481165170669556e-02 1.934877336025238037e-01 3.850758448243141174e-02 7.469035685062408447e-02 -5.072455480694770813e-02 8.433469384908676147e-02 -8.582117408514022827e-02 1.678141057491302490e-01 -7.631158083677291870e-02 -2.536745071411132812e-01 -9.897197782993316650e-02 1.527563780546188354e-01 -2.590700089931488037e-01 4.962093196809291840e-03 6.252973526716232300e-02 2.201215475797653198e-01 3.917669877409934998e-02 -3.114309720695018768e-02 1.115982457995414734e-01 1.214648876339197159e-02 1.370859146118164062e-01 1.057456135749816895e-01
-2.759330719709396362e-02 2.424877583980560303e-01 -8.163382858037948608e-02 -1.238501369953155518e-01 -4.064450040459632874e-03 -1.656685620546340942e-01 5.958254635334014893e-02 2.666899561882019043e-02 -6.769314873963594437e-03 -1.147599071264266968e-01 2.098455466330051422e-02 9.022996574640274048e-02 3.335662558674812317e-02 2.313389033079147339e-01 5.554528906941413879e-02 3.264384344220161438e-02 -1.377566065639257431e-02 -8.603984862565994263e-02 8.661419898271560669e-02 -2.964004874229431152e-03 1.055373623967170715e-01 5.837117880582809448e-02 1.905666105449199677e-02 -6.585628539323806763e-02 1.360756903886795044e-02 1.573744267225265503e-01 -6.825850903987884521e-02 6.995592731982469559e-03 -3.094662539660930634e-02 -6.044115126132965088e-02 1.195436641573905945e-01 -6.728280335664749146e-02 -3.952254727482795715e-02 1.024896204471588135e-01 6.243537738919258118e-02 -3.966764360666275024e-02 2.746147103607654572e-03 1.586822420358657837e-02 1.157393585890531540e-02 -1.701325550675392151e-02 1.040638908743858337e-01 -6.969413161277770996e-02 -9.833428077399730682e-03 -2.401083260774612427e-01 -3.285524994134902954e-02 5.623268708586692810e-02 -1.461606938391923904e-02 2.193374186754226685e-01 -8.616740256547927856e-02 3.948098421096801758e-02 -4.845742881298065186e-02 1.081107929348945618e-01 1.533275563269853592e-02 -3.351937830448150635e-01 -6.686592102050781250e-02 -2.435140162706375122e-01 2.584483847022056580e-02 -8.464165776968002319e-02 -1.937861740589141846e-02 3.511590883135795593e-03 1.956541649997234344e-02 2.403885684907436371e-02 3.267610073089599609e-02 -3.332090377807617188e-02 -5.218614637851715088e-02 5.745892599225044250e-02 9.236174076795578003e-02 2.424917370080947876e-02 -9.512077085673809052e-03 -1.928382813930511475e-01
-5.760188400745391846e-02 -1.774858087301254272e-01 -3.066754341125488281e-02 -5.382652580738067627e-02 -3.163575753569602966e-02 1.069658398628234863e-01 5.509082227945327759e-02 7.416646927595138550e-02 5.601060763001441956e-02 6.715884804725646973e-02 1.118055135011672974e-01 -6.921634078025817871e-02 5.890164524316787720e-02 -3.547532856464385986e-02 3.454450890421867371e-02 -3.559522097930312157e-03 -7.242390513420104980e-02 -4.969942569732666016e-02 2.544669061899185181e-02 -5.271823331713676453e-02 7.248284295201301575e-03 1.063714735209941864e-02 -2.819173224270343781e-02 2.183101698756217957e-02 2.367787063121795654e-02 -2.116921590641140938e-03 8.774881064891815186e-02 -2.346999570727348328e-02 -7.859669625759124756e-02 8.995458483695983887e-02 -2.216695100069046021e-01 6.623373925685882568e-02 -2.738449722528457642e-02 -1.315354406833648682e-01 -5.341582372784614563e-02 -3.419206291437149048e-02 -1.107127815485000610e-01 -6.387580651789903641e-03 -4.919783025979995728e-02 3.501183539628982544e-02 -1.772329583764076233e-02 1.262970417737960815e-01 8.866371214389801025e-02 3.628595471382141113e-01 -1.231669634580612183e-01 1.875314861536026001e-01 -8.210656791925430298e-02 -2.379101514816284180e-01 -3.197821229696273804e-02 -3.133182227611541748e-01 -9.529040008783340454e-02 -1.523677855730056763e-01 6.573552265763282776e-03 2.281219810247421265e-01 -1.170767694711685181e-01 1.102503314614295959e-01 1.474852114915847778e-02 1.706160008907318115e-01 -4.941140115261077881e-02 6.548599805682897568e-03 -1.033553332090377808e-01 -1.056678518652915955e-01 -8.949451893568038940e-02 -2.592232525348663330e-01 2.582270279526710510e-02 -7.736396044492721558e-02 6.402694270946085453e-04 7.940132915973663330e-02 -8.667905814945697784e-03 3.373860195279121399e-02
-1.598051004111766815e-02 -2.382910102605819702e-01 1.447466056561097503e-04 9.759370982646942139e-02 -4.076068848371505737e-02 -1.337943375110626221e-01 -2.625275589525699615e-02 4.414090141654014587e-02 4.281496163457632065e-03 1.859838068485260010e-01 5.262453481554985046e-02 1.618887484073638916e-01 -1.069625020027160645e-01 -4.431240856647491455e-01 8.722490072250366211e-02 -5.475344508886337280e-02 -6.500177085399627686e-02 6.173260882496833801e-02 -6.301810592412948608e-02 -1.382035855203866959e-02 -1.147472932934761047e-01 3.293218091130256653e-02 -6.347047537565231323e-02 2.431000024080276489e-02 -5.525005608797073364e-02 -4.263054206967353821e-02 5.111920833587646484e-02 -1.290080547332763672e-01 -7.453740388154983521e-02 5.843308940529823303e-02 -9.012828767299652100e-02 2.603477984666824341e-02 1.039015576243400574e-01 4.652453586459159851e-02 -8.052294142544269562e-04 3.329378738999366760e-02 7.482873648405075073e-02 -9.540200233459472656e-02 -1.742164138704538345e-03 1.635811105370521545e-02 -7.364807277917861938e-02 1.366329193115234375e-01 6.499912589788436890e-02 4.351599141955375671e-02 8.016840368509292603e-02 -1.489019840955734253e-01 -8.404711633920669556e-02 1.526968628168106079e-01 1.120165586471557617e-01 -1.221519112586975098e-01 -9.641746431589126587e-02 -1.037624776363372803e-01 -1.281679719686508179e-01 -1.390347480773925781e-01 1.122532933950424194e-01 3.878549933433532715e-01 -6.447145342826843262e-02 1.703479886054992676e-01 2.868604846298694611e-02 -3.920041769742965698e-02 -3.222639858722686768e-02 1.285913866013288498e-02 7.900337874889373779e-02 1.968373544514179230e-02 6.950242072343826294e-02 -1.748063601553440094e-02 7.948799431324005127e-02 1.547233946621417999e-02 6.296938657760620117e-02 5.917157605290412903e-02
4.318564757704734802e-02 2.376866787672042847e-01 1.029108166694641113e-01 -6.331292390823364258e-01 1.229180246591567993e-01 -2.236319333314895630e-02 5.977533757686614990e-02 5.143881961703300476e-02 -1.508017163723707199e-02 7.822204381227493286e-02 -2.344120666384696960e-02 1.710737943649291992e-01 5.165659263730049133e-02 -2.119964808225631714e-01 5.433772876858711243e-02 1.289681792259216309e-01 -6.897727400064468384e-02 -2.331963777542114258e-01 9.253121912479400635e-02 -4.403941333293914795e-02 -2.808182500302791595e-02 1.705343276262283325e-02 2.149226376786828041e-03 -3.727719560265541077e-02 -7.360879331827163696e-02 -8.062481880187988281e-02 1.738269068300724030e-02 -7.154621183872222900e-02 3.529850021004676819e-02 -3.581041470170021057e-02 -1.511930115520954132e-02 8.378041535615921021e-02 1.875708065927028656e-02 1.154516488313674927e-01 1.362196803092956543e-01 1.284235622733831406e-02 3.847878426313400269e-02 -2.906166948378086090e-02 6.570439040660858154e-02 3.303519450128078461e-03 5.644851177930831909e-02 3.723327815532684326e-02 -1.241552308201789856e-01 -3.026534020900726318e-01 9.667361527681350708e-02 4.546356201171875000e-01 1.177093237638473511e-01 -1.071041217073798180e-03 1.603452712297439575e-01 3.569477424025535583e-02 -2.038855291903018951e-02 -8.673010766506195068e-02 -5.353437736630439758e-02 -1.937191784381866455e-01 -6.902411580085754395e-02 3.148950040340423584e-01 -9.286445565521717072e-03 -5.068310722708702087e-02 4.321260377764701843e-02 3.765087425708770752e-01 -2.038900554180145264e-02 -5.306607484817504883e-02 -5.777495913207530975e-03 -1.166286095976829529e-01 -2.162540331482887268e-02 7.505799829959869385e-02 7.699128240346908569e-02 9.839604049921035767e-02 -4.697791486978530884e-02 -6.733202189207077026e-02
-7.382231950759887695e-02 1.578786373138427734e-01 -3.424125164747238159e-02 6.220522522926330566e-02 1.582550853490829468e-01 1.520814895629882812e-01 -9.348817169666290283e-02 -9.856598079204559326e-02 -1.103217005729675293e-01 1.352190673351287842e-01 -1.789196729660034180e-01 3.310099840164184570e-01 -2.502686344087123871e-02 -3.464056923985481262e-02 9.131278842687606812e-02 2.110866270959377289e-02 -1.623452901840209961e-01 5.207544565200805664e-02 6.368596851825714111e-02 1.186477467417716980e-01 8.299266546964645386e-02 -1.380006968975067139e-01 -8.789274841547012329e-02 1.058018654584884644e-01 -1.536365449428558350e-01 1.052990034222602844e-01 -1.209219824522733688e-02 6.606874056160449982e-03 1.712307333946228027e-02 5.673597007989883423e-02 -2.127482593059539795e-01 -2.470437670126557350e-03 -5.457944422960281372e-02 6.854206323623657227e-02 -6.995972990989685059e-02 7.566025853157043457e-02 -1.903949230909347534e-01 -5.886794626712799072e-02 -4.932965338230133057e-02 -3.715268895030021667e-02 4.446322470903396606e-02 -4.368164110928773880e-03 6.616953294724225998e-03 -1.215745359659194946e-01 -4.325491562485694885e-02 -9.138332307338714600e-02 1.026435494422912598e-01 -1.808516681194305420e-01 3.861473500728607178e-02 2.050986699759960175e-02 -1.923691183328628540e-01 -2.522931694984436035e-01 -1.072306334972381592e-01 -4.760612845420837402e-01 -1.800981909036636353e-02 8.737990632653236389e-03 -4.049315676093101501e-02 -1.287639737129211426e-01 -1.870974898338317871e-01 -2.754858322441577911e-02 1.130151897668838501e-01 -1.699574738740921021e-01 3.892452642321586609e-02 1.473953574895858765e-01 -1.812448948621749878e-01 6.930358707904815674e-02 -1.458623856306076050e-01 8.111874759197235107e-02 2.435268089175224304e-02 2.464954555034637451e-02
1.018181964755058289e-01 3.387402743101119995e-02 2.105430662631988525e-01 8.697035908699035645e-02 2.182197570800781250e-01 -2.352884262800216675e-01 3.018737137317657471e-01 1.795260012149810791e-01 -2.649780176579952240e-02 -4.673937335610389709e-03 -8.115227520465850830e-02 -1.533941924571990967e-01 -8.564030379056930542e-02 -3.644507750868797302e-02 -8.292611688375473022e-02 -5.509379878640174866e-02 1.759686917066574097e-01 -2.093060873448848724e-02 2.007846981287002563e-01 4.580125212669372559e-02 1.861033290624618530e-01 1.135386675596237183e-01 6.004269421100616455e-02 -3.482228517532348633e-02 2.500912360846996307e-02 3.225785121321678162e-02 5.133017152547836304e-02 -3.412212803959846497e-02 -1.087728072889149189e-03 -9.383523464202880859e-02 3.360870480537414551e-01 5.427928268909454346e-02 1.407028883695602417e-01 -6.744741648435592651e-02 2.400539815425872803e-01 -3.894999995827674866e-02 -1.343003213405609131e-01 1.124842166900634766e-01 -9.440246969461441040e-02 1.316863298416137695e-01 7.686050981283187866e-02 -1.217303448356688023e-03 2.645285567268729210e-03 7.618556171655654907e-02 2.878478765487670898e-01 -1.024902835488319397e-01 2.249589562416076660e-01 1.006927862763404846e-01 3.337477445602416992e-01 -9.240104258060455322e-02 1.474785711616277695e-02 1.785414293408393860e-02 -9.415080398321151733e-02 1.150667369365692139e-01 -6.196153163909912109e-02 5.214428529143333435e-02 -9.277753531932830811e-03 6.631904095411300659e-02 2.317532896995544434e-01 -3.355376422405242920e-02 2.043027877807617188e-01 1.710848659276962280e-01 3.094893693923950195e-01 -1.736084371805191040e-01 4.304775595664978027e-02 -8.993945270776748657e-02 1.231194362044334412e-01 -1.310473680496215820e-01 3.451764583587646484e-02 8.989284746348857880e-03
1.202900931239128113e-01 -7.915304601192474365e-02 2.165910601615905762e-01 9.928026050329208374e-02 7.765022665262222290e-02 9.010197967290878296e-02 -7.558748126029968262e-02 9.905121475458145142e-02 -4.597193375229835510e-02 -9.723535925149917603e-02 -6.005111709237098694e-02 6.026509776711463928e-02 3.211930394172668457e-03 -5.740467086434364319e-02 -8.511558175086975098e-02 -1.115227043628692627e-01 5.291446298360824585e-02 -1.956336759030818939e-02 -3.003145009279251099e-02 6.080531328916549683e-02 5.468917265534400940e-02 5.718673113733530045e-03 -5.638618394732475281e-02 1.317867189645767212e-01 4.235945269465446472e-02 -1.938821002840995789e-02 5.813871324062347412e-02 -4.615220800042152405e-02 -6.001854315400123596e-02 -5.461455509066581726e-02 4.306219518184661865e-02 -3.289639577269554138e-02 -7.120358943939208984e-02 5.153809860348701477e-02 1.103794276714324951e-01 1.069181971251964569e-02 -1.012231037020683289e-02 -3.945442289113998413e-02 -1.188218314200639725e-02 1.311547160148620605e-01 -2.420073188841342926e-02 -7.302823662757873535e-02 7.339090853929519653e-02 1.971989870071411133e-01 8.942494605435058475e-05 -1.200955957174301147e-01 4.894222598522901535e-03 -1.384697109460830688e-01 1.051150038838386536e-01 -1.097192838788032532e-01 8.618022501468658447e-02 -9.294863045215606689e-02 -3.385148569941520691e-02 -2.426574355922639370e-04 -1.056581065058708191e-01 7.586318254470825195e-02 -3.703514114022254944e-02 1.452179253101348877e-01 6.474106758832931519e-02 -6.595337390899658203e-02 6.242777034640312195e-02 -1.054419949650764465e-01 3.689595311880111694e-02 -8.434430509805679321e-02 -2.448594896122813225e-04 1.012716814875602722e-01 6.345111131668090820e-02 -1.360987424850463867e-01 -1.701113581657409668e-02 6.875772774219512939e-02
-3.781900182366371155e-02 5.813333019614219666e-02 1.430927067995071411e-01 1.233546435832977295e-01 -5.765816941857337952e-02 8.224634826183319092e-02 4.085228219628334045e-02 -8.591003715991973877e-02 -5.309689417481422424e-02 -9.248401969671249390e-02 4.286514967679977417e-02 -9.799002110958099365e-02 2.160559594631195068e-02 1.172480657696723938e-01 4.626091569662094116e-02 3.473079204559326172e-02 -1.219199039041996002e-02 -3.877738490700721741e-02 -6.225692853331565857e-02 3.142629191279411316e-02 2.742994017899036407e-02 -4.843545705080032349e-02 1.006400436162948608e-01 -5.968033894896507263e-02 -1.187005043029785156e-01 -5.748739838600158691e-02 -6.673469673842191696e-03 1.063400655984878540e-01 -9.864881634712219238e-02 -9.418745338916778564e-02 3.804862126708030701e-02 -2.891632728278636932e-02 4.809786006808280945e-02 -1.889884173870086670e-01 6.208979710936546326e-02 1.163268908858299255e-01 3.638985799625515938e-03 1.292797774076461792e-01 -1.380487978458404541e-01 5.861353501677513123e-02 -4.930004477500915527e-02 -1.715537607669830322e-01 3.577406704425811768e-02 -1.474064737558364868e-01 4.989863932132720947e-02 -4.545621946454048157e-02 -3.073826618492603302e-02 -2.451852411031723022e-01 7.222773134708404541e-02 1.714428067207336426e-01 -2.221768535673618317e-02 2.637437582015991211e-01 2.671907283365726471e-02 1.586960107088088989e-01 1.811506971716880798e-02 -2.242262363433837891e-01 5.172332748770713806e-02 -3.970488160848617554e-02 -1.110871732234954834e-01 -9.126234799623489380e-02 3.415330871939659119e-02 -1.444470286369323730e-01 -5.758892372250556946e-02 1.601876914501190186e-01 -1.778113096952438354e-02 1.595522612333297729e-01 6.368327140808105469e-02 1.052154377102851868e-01 3.433432430028915405e-02 -1.930876076221466064e-02
5.118137225508689880e-02 3.417766690254211426e-01 -3.636526688933372498e-02 -1.143647357821464539e-02 3.400803729891777039e-02 2.605989873409271240e-01 6.445220857858657837e-02 -2.346481680870056152e-01 -8.737707138061523438e-02 1.630068421363830566e-01 3.676934540271759033e-02 3.443262577056884766e-01 -5.411516502499580383e-02 -5.141033530235290527e-01 7.367622852325439453e-02 2.197403907775878906e-01 -2.314367145299911499e-02 1.075878366827964783e-02 5.962924286723136902e-02 1.762488931417465210e-01 1.095763072371482849e-01 3.310710191726684570e-02 -2.957810275256633759e-02 8.946094661951065063e-02 -1.799686998128890991e-02 8.559533208608627319e-02 3.803619742393493652e-02 -1.056759282946586609e-01 -8.790968358516693115e-02 9.437398985028266907e-03 -2.810484170913696289e-02 6.987856328487396240e-02 -2.720618806779384613e-02 4.459192045032978058e-03 1.224384322995319963e-04 6.591232120990753174e-02 2.217436581850051880e-02 -4.185823723673820496e-02 2.532300911843776703e-02 -1.479918360710144043e-01 2.340229414403438568e-02 1.346769034862518311e-01 -2.537957392632961273e-02 -3.488691747188568115e-01 5.394446849822998047e-02 1.050395295023918152e-01 -3.976102918386459351e-02 -1.594914942979812622e-01 9.261007606983184814e-02 1.209405139088630676e-01 1.130266934633255005e-01 -3.175595700740814209e-01 -8.697577565908432007e-02 -2.269716262817382812e-01 -8.226847648620605469e-02 4.985280334949493408e-01 -9.769003838300704956e-03 -2.427293807268142700e-01 8.402571827173233032e-02 -1.633073985576629639e-01 -7.014875113964080811e-02 -3.106136023998260498e-01 3.146511316299438477e-02 2.952111326158046722e-02 -2.575474046170711517e-02 1.082633286714553833e-01 5.023523420095443726e-02 -6.324691325426101685e-02 7.643856853246688843e-02 -8.930305019021034241e-03
1.176928132772445679e-01 -4.599845409393310547e-02 6.237790733575820923e-02 1.521273851394653320e-01 -1.109662503004074097e-01 7.232356071472167969e-02 1.613675616681575775e-02 1.426966637372970581e-01 -9.026213549077510834e-03 -1.556288450956344604e-02 4.052183404564857483e-02 1.678333729505538940e-01 -7.075608521699905396e-02 2.337791621685028076e-01 1.487978827208280563e-02 -7.416146993637084961e-02 1.377621442079544067e-01 7.115239277482032776e-03 -6.689558923244476318e-02 -1.309862732887268066e-02 -1.144235506653785706e-01 3.944270312786102295e-02 8.499544113874435425e-02 -1.095363721251487732e-01 -9.080162271857261658e-03 6.845334917306900024e-02 -4.635531827807426453e-02 9.861140698194503784e-02 -6.521761417388916016e-02 8.195921778678894043e-02 2.127930074930191040e-01 -6.023835018277168274e-02 -3.297702595591545105e-02 -1.035970728844404221e-02 -1.777902096509933472e-01 -1.030639484524726868e-01 -4.560345411300659180e-02 1.848150603473186493e-02 1.289493497461080551e-02 -1.541324108839035034e-01 1.401486098766326904e-01 -3.082990646362304688e-01 -4.822755232453346252e-02 7.851152122020721436e-02 9.002037346363067627e-02 -2.457037419080734253e-01 5.034226551651954651e-02 -1.430723965167999268e-01 -1.691797673702239990e-01 -3.082630336284637451e-01 4.065083339810371399e-02 1.346936821937561035e-01 6.148908659815788269e-02 -4.239271581172943115e-01 -8.738917298614978790e-03 -5.713086724281311035e-01 -1.441248413175344467e-02 1.949594914913177490e-02 -9.158348664641380310e-03 -1.118716374039649963e-01 2.907072380185127258e-02 -1.010904610157012939e-01 -3.145286068320274353e-02 -1.859447360038757324e-01 -8.367349393665790558e-03 3.664320334792137146e-02 -6.474613398313522339e-02 -2.101725488901138306e-01 -2.085644379258155823e-02 -2.546753585338592529e-01
-7.658860832452774048e-02 -1.334357559680938721e-01 -3.637285530567169189e-01 8.017784915864467621e-03 3.492965400218963623e-01 -5.586029589176177979e-02 1.767261028289794922e-01 -6.935547292232513428e-02 -7.549131661653518677e-02 8.210992813110351562e-02 3.763460554182529449e-03 -1.825189590454101562e-01 1.023665517568588257e-01 -1.900133192539215088e-01 6.094704568386077881e-02 5.944138020277023315e-02 -2.074581384658813477e-01 -8.177923969924449921e-03 1.644052714109420776e-01 5.070148967206478119e-03 1.729719638824462891e-01 -1.545805037021636963e-01 -1.138373184949159622e-02 2.691887691617012024e-02 8.551090210676193237e-02 -7.544764131307601929e-02 -8.429189771413803101e-02 -7.197301834821701050e-02 3.626783937215805054e-02 -7.719698548316955566e-02 -3.397338390350341797e-01 2.871504984796047211e-03 2.373630106449127197e-01 2.417512983083724976e-02 1.056751459836959839e-01 8.309670537710189819e-02 5.555576644837856293e-03 2.920099301263689995e-03 1.366550289094448090e-02 6.428916007280349731e-02 -8.185103535652160645e-02 5.294966977089643478e-03 5.003464594483375549e-02 1.132396459579467773e-01 -3.089531362056732178e-01 4.383575171232223511e-02 3.416115939617156982e-01 5.814794450998306274e-02 1.844493895769119263e-01 1.872007846832275391e-01 1.189649403095245361e-01 -1.307770758867263794e-01 5.475382134318351746e-02 2.184936106204986572e-01 -2.234688494354486465e-03 1.804490238428115845e-01 -6.964460015296936035e-02 4.756460338830947876e-02 -3.749668598175048828e-01 -5.096031352877616882e-02 2.055384367704391479e-01 -3.235548734664916992e-02 1.901679933071136475e-01 -3.088055923581123352e-02 -2.559407427906990051e-02 1.763484440743923187e-02 -1.136048957705497742e-01 -3.342252969741821289e-02 8.118113875389099121e-02 8.008930087089538574e-02
3.315559402108192444e-02 1.359751969575881958e-01 4.478607326745986938e-03 1.126548871397972107e-01 -4.402705468237400055e-03 -4.842549189925193787e-02 4.511709138751029968e-02 -2.170009352266788483e-02 -5.019565671682357788e-02 1.947762668132781982e-01 -1.313959062099456787e-02 -1.584544181823730469e-01 8.268760144710540771e-02 1.509197056293487549e-01 -1.450072135776281357e-02 -2.290618047118186951e-02 2.006802707910537720e-01 9.402945637702941895e-02 -2.501856721937656403e-02 -1.582466252148151398e-02 -7.576430588960647583e-02 2.956180088222026825e-02 -1.809692941606044769e-02 9.970673173666000366e-02 -1.770320697687566280e-03 -1.284454390406608582e-02 4.327336326241493225e-02 7.370894402265548706e-02 4.866906628012657166e-02 -1.196398288011550903e-01 1.584083214402198792e-02 -5.812139436602592468e-02 -5.811807513236999512e-02 2.827726490795612335e-02 2.490344631951302290e-04 -1.282497644424438477e-01 1.687786728143692017e-02 -2.005898356437683105e-01 1.325539350509643555e-01 1.864423900842666626e-01 -3.603478521108627319e-02 -2.094361484050750732e-01 -6.466902792453765869e-02 -2.603443264961242676e-01 1.564685553312301636e-01 -2.353669404983520508e-01 2.115708403289318085e-02 1.495947502553462982e-02 -8.296460658311843872e-02 -1.115989536046981812e-01 -2.633641473948955536e-02 -3.288997113704681396e-01 -5.257564783096313477e-02 1.878068894147872925e-01 -4.438498243689537048e-02 -3.595949709415435791e-01 -3.049532882869243622e-03 -1.354580074548721313e-01 3.311401931568980217e-03 -1.329152733087539673e-01 -1.145278383046388626e-02 2.193893305957317352e-02 5.413122102618217468e-02 -4.788669571280479431e-02 -3.303763456642627716e-03 -1.890521496534347534e-01 -5.174350365996360779e-02 1.563882827758789062e-01 -4.078921303153038025e-02 -2.220213860273361206e-01
-3.074407763779163361e-02 1.527119660750031471e-03 2.689992822706699371e-02 -3.376495838165283203e-01 3.814319521188735962e-02 2.945579588413238525e-01 2.112104296684265137e-01 -8.860085904598236084e-02 3.252765536308288574e-02 6.864506006240844727e-02 8.738751709461212158e-02 1.444354504346847534e-01 -1.231661811470985413e-01 1.221923157572746277e-01 2.899936027824878693e-02 -1.335300505161285400e-01 -6.338518112897872925e-02 -6.702286005020141602e-02 4.867921397089958191e-02 1.244743820279836655e-02 3.003778159618377686e-01 3.919155523180961609e-02 2.195992693305015564e-02 -8.086804300546646118e-02 -1.083528250455856323e-01 1.209109202027320862e-01 -7.786057144403457642e-02 3.205937892198562622e-02 5.202916264533996582e-02 3.719345480203628540e-02 -4.847390949726104736e-02 -1.213624887168407440e-02 -1.303800381720066071e-02 -4.829762503504753113e-02 1.643628776073455811e-01 5.034568160772323608e-02 -5.885912850499153137e-02 7.154136151075363159e-02 8.357333950698375702e-03 -8.867283165454864502e-02 9.171122312545776367e-02 -1.359591633081436157e-01 -8.558741956949234009e-02 9.412303566932678223e-02 1.398256719112396240e-01 1.049216464161872864e-01 -4.131047800183296204e-02 -9.074132144451141357e-02 3.034673631191253662e-01 4.960557818412780762e-02 -1.277548521757125854e-01 -1.641299277544021606e-01 -1.572822593152523041e-02 -1.108649075031280518e-01 6.702522188425064087e-02 -6.680787354707717896e-02 3.875643387436866760e-02 3.682120470330119133e-03 3.482885658740997314e-02 3.250355720520019531e-01 -1.002038344740867615e-01 -2.051481604576110840e-01 1.861843168735504150e-01 -5.260711908340454102e-02 5.916125327348709106e-02 1.061754375696182251e-01 5.798747763037681580e-02 -7.966236770153045654e-02 6.462531536817550659e-02 3.687021508812904358e-02
8.664939552545547485e-02 5.162444710731506348e-02 3.640291988849639893e-01 -8.326084166765213013e-02 4.704614356160163879e-02 1.081762909889221191e-01 -1.064649149775505066e-01 5.305135995149612427e-02 3.190628066658973694e-02 3.435062617063522339e-02 8.086061477661132812e-02 -8.488255739212036133e-02 -1.141819879412651062e-01 -3.829158097505569458e-02 4.183069989085197449e-02 2.059766120510175824e-04 5.170807242393493652e-01 2.184857055544853210e-02 -4.594146460294723511e-02 3.249346464872360229e-02 -1.060383915901184082e-01 -5.544307082891464233e-02 1.960838399827480316e-02 6.408274639397859573e-03 -5.577290058135986328e-02 9.082970768213272095e-02 5.708091333508491516e-02 2.600771933794021606e-02 7.215018384158611298e-03 -3.146768361330032349e-02 4.533183574676513672e-01 -2.434661425650119781e-02 -1.123715471476316452e-02 -7.244821637868881226e-02 -6.979934871196746826e-02 4.139040410518646240e-02 -3.253551945090293884e-02 -9.341735392808914185e-02 -7.538951188325881958e-02 -4.891019687056541443e-02 8.363305777311325073e-02 -4.409622773528099060e-02 -1.273185312747955322e-01 -7.050208747386932373e-02 5.027694106101989746e-01 1.977403908967971802e-01 6.425275653600692749e-02 2.959885401651263237e-03 -1.399506777524948120e-01 -5.075892433524131775e-03 2.499052789062261581e-03 -2.414366416633129120e-02 4.557649046182632446e-02 -4.000049456954002380e-02 -3.768217191100120544e-02 5.757116898894309998e-02 -1.035338174551725388e-02 4.508210718631744385e-02 2.538499236106872559e-01 -1.274727731943130493e-01 -6.129119172692298889e-02 -7.421084493398666382e-02 -6.757514923810958862e-02 -3.194473683834075928e-02 -2.074377797544002533e-02 7.691467553377151489e-02 8.081632666289806366e-03 8.392154425382614136e-02 1.039961073547601700e-02 -2.762663643807172775e-03
1.191093102097511292e-01 1.098122224211692810e-01 1.566022783517837524e-01 -6.873574852943420410e-02 -1.526132039725780487e-02 1.275390535593032837e-01 1.620979234576225281e-02 -5.986391752958297729e-02 -1.502135070040822029e-03 -1.130926832556724548e-01 7.944921031594276428e-03 -2.296271473169326782e-01 2.205338329076766968e-03 3.366966173052787781e-02 -2.724283933639526367e-02 -5.753766745328903198e-03 2.314929151907563210e-03 3.855932876467704773e-02 1.027581281960010529e-03 8.094659075140953064e-03 -1.396906226873397827e-01 -8.875103667378425598e-04 -1.117245182394981384e-01 -7.442813366651535034e-02 -5.637252703309059143e-02 -9.729694575071334839e-02 6.593861430883407593e-02 9.274230152368545532e-02 3.617472713813185692e-03 -4.546455666422843933e-02 -2.956153266131877899e-02 -2.680545207113027573e-03 -5.435728654265403748e-02 2.004516310989856720e-02 -8.829242736101150513e-02 3.450696915388107300e-02 -1.668421179056167603e-02 1.300476491451263428e-01 4.730875417590141296e-02 1.749262213706970215e-01 -1.379905082285404205e-02 -6.685756891965866089e-02 -7.725325971841812134e-02 -2.274485230445861816e-01 4.228608682751655579e-02 -7.995867729187011719e-02 -3.556583821773529053e-02 -1.811009645462036133e-01 3.903947398066520691e-02 2.485546320676803589e-01 3.891593590378761292e-02 2.251398712396621704e-01 9.673698246479034424e-02 4.672574698925018311e-01 4.971892014145851135e-02 -7.998641580343246460e-02 -1.515433285385370255e-02 -2.852053940296173096e-02 -1.080392766743898392e-02 7.792019844055175781e-02 3.208892792463302612e-02 -1.115254536271095276e-01 -1.085237711668014526e-01 9.923486411571502686e-02 -8.138812333345413208e-02 4.840921238064765930e-02 2.738734893500804901e-02 1.990213692188262939e-01 -1.066542714834213257e-01 -4.208231717348098755e-02
-4.003158211708068848e-02 9.878783673048019409e-02 1.253122743219137192e-02 -1.514895707368850708e-01 -5.323423445224761963e-02 2.659450750797986984e-03 -3.460493981838226318e-01 -8.112636953592300415e-02 6.526252720504999161e-03 3.614019230008125305e-02 -6.648873537778854370e-02 -5.024632066488265991e-02 4.380618035793304443e-02 3.823874890804290771e-02 9.721681475639343262e-03 -5.624807253479957581e-02 -6.900871545076370239e-02 -2.454933337867259979e-02 -1.010575443506240845e-01 8.056684583425521851e-02 -2.482014745473861694e-01 5.849538743495941162e-02 -5.107697099447250366e-02 1.704252883791923523e-02 -9.879578649997711182e-02 -4.938330873847007751e-02 -2.561803907155990601e-02 1.005639880895614624e-01 5.391079001128673553e-03 2.250652201473712921e-02 1.468769181519746780e-02 -3.740322589874267578e-02 7.922919094562530518e-02 -3.810012340545654297e-02 -1.751818805932998657e-01 8.830980956554412842e-02 5.148075520992279053e-02 -3.266762569546699524e-02 1.434248313307762146e-02 3.799534216523170471e-02 8.734153211116790771e-02 -4.979178309440612793e-03 3.163109719753265381e-02 -5.576502159237861633e-02 -5.439704656600952148e-02 4.657599329948425293e-02 3.545205295085906982e-02 1.880952715873718262e-02 -1.758439838886260986e-01 -1.318568438291549683e-01 4.393758624792098999e-02 2.653246372938156128e-02 1.019578203558921814e-01 1.822332665324211121e-02 8.368778042495250702e-03 -1.338052153587341309e-01 -1.540397852659225464e-02 -1.885068230330944061e-02 -5.420505255460739136e-02 1.559345722198486328e-01 3.208791092038154602e-02 -6.542408466339111328e-02 -3.090648651123046875e-01 6.008692458271980286e-02 -3.434119746088981628e-02 -5.157354474067687988e-02 4.650884494185447693e-02 4.505347087979316711e-02 -1.125032380223274231e-01 -6.281137000769376755e-03
-9.804956614971160889e-03 8.625250309705734253e-02 -1.304677426815032959e-01 1.300906985998153687e-01 -3.255569189786911011e-02 6.568361073732376099e-02 8.414266258478164673e-02 -7.881923764944076538e-02 6.186902895569801331e-02 6.694965064525604248e-02 -1.315980106592178345e-01 3.026192188262939453e-01 -1.775993593037128448e-02 -1.401888281106948853e-01 3.562553599476814270e-02 8.568572252988815308e-02 -1.035085171461105347e-01 1.240789070725440979e-01 1.049396321177482605e-01 1.997053064405918121e-02 8.653352409601211548e-02 -4.803902283310890198e-02 3.870602324604988098e-02 6.824220716953277588e-02 -1.168473064899444580e-01 7.531842589378356934e-02 -1.058475524187088013e-01 -1.621853560209274292e-02 -2.873845025897026062e-02 -1.469177603721618652e-01 8.002660423517227173e-02 -4.313418641686439514e-02 2.630445547401905060e-02 -8.054906874895095825e-02 -2.013620175421237946e-02 -4.287053272128105164e-02 1.842203885316848755e-01 -7.718776911497116089e-02 -6.116633862257003784e-02 -1.807864159345626831e-01 1.239228248596191406e-01 5.164497345685958862e-02 9.472517669200897217e-02 -1.043530702590942383e-01 -3.231621161103248596e-02 -1.316898316144943237e-01 -9.586897492408752441e-02 -1.474382914602756500e-02 1.322083324193954468e-01 1.305705606937408447e-01 2.033424973487854004e-01 -7.630759477615356445e-02 -2.742072194814682007e-02 -2.831270396709442139e-01 5.115491896867752075e-02 2.237243801355361938e-01 -8.819187432527542114e-02 7.819026708602905273e-02 -4.533381387591362000e-02 -8.253006637096405029e-02 7.087653130292892456e-02 7.310148794203996658e-03 3.443402796983718872e-02 5.510671436786651611e-02 1.116158291697502136e-01 1.367730833590030670e-02 -1.477321833372116089e-01 8.921623975038528442e-02 -5.159460008144378662e-02 -1.126859039068222046e-01
4.118996206670999527e-03 -1.325105577707290649e-01 4.639922082424163818e-02 1.235296353697776794e-01 2.677210606634616852e-02 5.053735151886940002e-02 6.479079276323318481e-02 -9.812284260988235474e-02 -8.707021363079547882e-03 2.322629541158676147e-01 8.074987679719924927e-02 8.381432890892028809e-01 -2.769036218523979187e-03 1.698078960180282593e-02 -5.064346268773078918e-02 -1.365968883037567139e-01 1.067643240094184875e-01 1.282013058662414551e-01 3.099638223648071289e-02 9.738060832023620605e-02 -5.175263062119483948e-02 -9.071364067494869232e-03 2.976185642182826996e-03 6.423552334308624268e-02 -4.307148233056068420e-02 2.474126964807510376e-01 -8.149269223213195801e-02 2.937543578445911407e-02 5.083149299025535583e-02 -1.956559345126152039e-02 6.643766909837722778e-02 -9.377421438694000244e-02 -4.293151944875717163e-02 -5.953747779130935669e-02 3.639113390818238258e-03 -4.635713621973991394e-02 -1.180038228631019592e-02 -1.475428044795989990e-01 6.075190007686614990e-02 -3.263686895370483398e-01 6.972169876098632812e-02 -5.560977011919021606e-02 -1.099919341504573822e-02 1.528834104537963867e-01 8.417116105556488037e-02 -9.414077550172805786e-02 -1.256630122661590576e-01 -7.511172443628311157e-02 4.994253069162368774e-02 3.324235603213310242e-02 1.146527975797653198e-01 -2.366861701011657715e-01 6.351546198129653931e-02 -8.057909011840820312e-01 2.646352723240852356e-02 7.107969373464584351e-02 -3.194257384166121483e-03 1.657035499811172485e-01 -1.569130830466747284e-02 -1.106173545122146606e-01 -2.358036674559116364e-02 -2.951032016426324844e-03 1.234849095344543457e-01 1.231821179389953613e-01 4.793711937963962555e-03 1.106692180037498474e-01 9.549343585968017578e-02 -1.226371433585882187e-02 3.750007227063179016e-02 -5.083275586366653442e-02
-8.419309556484222412e-02 -9.550248086452484131e-02 -2.127413600683212280e-01 7.680445909500122070e-02 -7.435306906700134277e-02 -5.257500708103179932e-02 2.125386148691177368e-01 -9.610431268811225891e-03 -4.542458429932594299e-02 -5.645730346441268921e-02 8.066240698099136353e-02 -6.760624051094055176e-02 4.261810332536697388e-02 -4.131912440061569214e-02 4.801665246486663818e-02 -4.983582999557256699e-03 -2.699807584285736084e-01 -6.619641184806823730e-02 -1.813841313123703003e-01 -3.182828053832054138e-02 2.274176627397537231e-01 2.513965778052806854e-02 8.507776260375976562e-02 5.633309483528137207e-02 2.221884496975690126e-04 2.116066403687000275e-02 6.269075721502304077e-02 -1.410374231636524200e-02 -1.638023369014263153e-02 -2.443980425596237183e-02 -2.667187750339508057e-01 -6.230529397726058960e-02 -1.570382267236709595e-01 -2.849438413977622986e-02 9.298708289861679077e-02 -1.657256931066513062e-01 -6.835377961397171021e-02 1.737078838050365448e-02 1.279631350189447403e-02 -4.886097460985183716e-02 -1.337219625711441040e-01 1.280270516872406006e-01 4.400086775422096252e-02 8.357290178537368774e-02 -2.440269440412521362e-01 1.104755997657775879e-01 -1.835069954395294189e-01 6.762412935495376587e-02 1.333124190568923950e-01 2.487339079380035400e-03 1.240744963288307190e-01 9.914886206388473511e-03 -1.276130080223083496e-01 1.791411787271499634e-01 -3.112982399761676788e-02 -4.282738640904426575e-02 7.049175910651683807e-03 4.292771592736244202e-02 1.156736165285110474e-02 -5.680756643414497375e-02 -1.053415704518556595e-02 5.142937973141670227e-02 1.622799485921859741e-01 1.540718376636505127e-01 -9.529988467693328857e-02 -2.681896276772022247e-02 3.876781836152076721e-02 -8.435472846031188965e-02 4.784369096159934998e-02 -2.653630077838897705e-02
-3.150331974029541016e-02 -9.881436824798583984e-02 3.402049094438552856e-02 1.249009594321250916e-01 9.145640581846237183e-02 -1.469265669584274292e-01 1.048812344670295715e-01 -4.933166131377220154e-02 -1.021151989698410034e-01 -1.174651458859443665e-02 -9.976017475128173828e-02 -2.825888097286224365e-01 -6.046767160296440125e-02 1.083188131451606750e-02 -3.580245003104209900e-02 -1.653240062296390533e-02 1.109384670853614807e-01 -3.370398283004760742e-02 -3.807129338383674622e-02 -5.865053087472915649e-02 -5.682124570012092590e-02 2.444442175328731537e-02 -9.227991849184036255e-02 2.893750555813312531e-03 -9.223681688308715820e-02 -1.700860857963562012e-01 -2.046243660151958466e-02 3.791052382439374924e-03 6.351882219314575195e-02 5.972911044955253601e-02 -7.075142115354537964e-02 7.402265816926956177e-02 1.276056021451950073e-01 9.878341853618621826e-02 6.423053145408630371e-02 -7.066641747951507568e-02 -3.795034065842628479e-02 -1.361260190606117249e-02 -7.464621216058731079e-02 2.238033264875411987e-01 5.120249837636947632e-02 -8.567735552787780762e-02 7.133646309375762939e-02 1.147153452038764954e-01 3.639459609985351562e-02 -9.861967712640762329e-02 -5.802749469876289368e-02 6.367138773202896118e-02 -7.318242639303207397e-02 8.758071810007095337e-02 -9.620448201894760132e-02 -4.319784790277481079e-02 -1.061860918998718262e-01 4.008401632308959961e-01 -3.069098480045795441e-02 2.944031544029712677e-02 -6.396108120679855347e-02 -5.151876434683799744e-02 -5.946439504623413086e-02 -7.450183480978012085e-02 -7.285613566637039185e-02 5.726539343595504761e-02 -7.119404152035713196e-03 1.997916586697101593e-02 -3.473125107120722532e-04 6.388873606920242310e-02 -1.373868137598037720e-01 -1.728828549385070801e-01 5.392815917730331421e-02 4.103022441267967224e-02
-3.638661652803421021e-02 -1.136581823229789734e-01 2.005575448274612427e-01 -7.917249947786331177e-02 8.678999729454517365e-03 -9.507416188716888428e-02 -1.885396987199783325e-01 1.656163670122623444e-02 7.808289676904678345e-02 -5.500391498208045959e-02 -3.155182301998138428e-02 5.442485809326171875e-01 3.628095611929893494e-02 1.640385836362838745e-01 -1.079544052481651306e-01 4.571289196610450745e-02 4.564758017659187317e-02 -6.541319936513900757e-02 -6.287698447704315186e-02 -1.008269470185041428e-02 3.203993290662765503e-02 -3.116203844547271729e-02 7.439055480062961578e-03 -8.597043342888355255e-03 -6.485302746295928955e-02 1.288214027881622314e-01 -5.838773027062416077e-02 1.027131900191307068e-01 4.251085221767425537e-02 -4.909964278340339661e-02 5.047081783413887024e-02 -8.309990912675857544e-02 -1.534512192010879517e-01 5.396775156259536743e-02 -8.828935772180557251e-02 3.326329216361045837e-02 1.814289093017578125e-01 -2.151326835155487061e-02 -5.988326296210289001e-02 -1.901393383741378784e-01 7.415241748094558716e-02 -6.417760252952575684e-02 3.328172862529754639e-02 1.004088148474693298e-01 3.338338807225227356e-02 7.743357867002487183e-02 3.093555802479386330e-03 -6.045294180512428284e-02 2.206104435026645660e-02 -8.714934438467025757e-02 8.658106625080108643e-02 1.232273429632186890e-01 -1.313630193471908569e-01 -5.670284032821655273e-01 -9.075450897216796875e-02 -1.952942907810211182e-01 6.418978422880172729e-02 2.590809576213359833e-02 1.091528907418251038e-01 1.523649096488952637e-01 -9.751106053590774536e-02 1.107258275151252747e-01 1.222647540271282196e-02 7.064525783061981201e-02 6.096301600337028503e-03 -4.544314742088317871e-02 -1.166023537516593933e-01 8.534377813339233398e-02 3.447099402546882629e-02 -8.155560120940208435e-03
-3.884553164243698120e-02 -1.623431593179702759e-02 -1.548851877450942993e-01 -7.453869283199310303e-02 -4.898553714156150818e-02 -6.649441272020339966e-02 1.121264994144439697e-01 -8.104615658521652222e-02 -9.447409212589263916e-02 4.797892645001411438e-02 1.072543933987617493e-01 1.407766491174697876e-01 1.618968136608600616e-02 3.311943113803863525e-01 -7.145755924284458160e-03 -2.239031158387660980e-02 -8.900465816259384155e-02 1.602049730718135834e-02 9.602668881416320801e-02 -2.187181636691093445e-02 7.806921843439340591e-03 -4.436298459768295288e-02 -7.266581058502197266e-02 1.542253047227859497e-01 -3.580152615904808044e-02 1.153733059763908386e-01 3.245621919631958008e-02 7.569600362330675125e-03 -3.652140870690345764e-02 1.774656266206875443e-05 4.762689024209976196e-02 1.218525096774101257e-01 5.312420893460512161e-03 1.033614017069339752e-02 -6.552113592624664307e-02 1.055502593517303467e-01 -7.593486458063125610e-02 -2.815232984721660614e-02 9.669823944568634033e-02 -2.297299802303314209e-01 7.645151764154434204e-02 -2.526155412197113037e-01 4.851380735635757446e-02 7.255219668149948120e-02 -7.067868858575820923e-02 1.489402055740356445e-01 -3.250094503164291382e-02 5.316891148686408997e-02 3.348593413829803467e-02 2.689802944660186768e-01 1.256875246763229370e-01 -1.788216531276702881e-01 -7.242809236049652100e-02 -5.194109678268432617e-01 -8.997731655836105347e-02 -4.608080685138702393e-01 3.102752566337585449e-02 4.227019101381301880e-02 1.256464701145887375e-02 1.130566149950027466e-01 3.970073070377111435e-03 6.314837187528610229e-02 -5.914707854390144348e-02 1.759577542543411255e-01 5.534184724092483521e-02 -1.891738474369049072e-01 3.575899824500083923e-02 -2.797322571277618408e-01 -1.730503141880035400e-02 -1.929441243410110474e-01
6.928650289773941040e-02 -5.171700939536094666e-02 -3.151414692401885986e-01 -1.884230673313140869e-01 -1.504095792770385742e-01 -4.564201086759567261e-02 7.746066898107528687e-02 1.552438139915466309e-01 -9.553360939025878906e-02 -3.415703028440475464e-02 -2.814128249883651733e-02 -3.673339262604713440e-03 7.780996710062026978e-02 6.893591955304145813e-03 -5.568192526698112488e-02 -2.972112037241458893e-02 -2.967353463172912598e-01 -2.242743782699108124e-02 -1.594433635473251343e-01 -2.382237435085698962e-04 1.110200658440589905e-01 5.401273816823959351e-02 -4.628003388643264771e-02 5.519994720816612244e-02 5.281080491840839386e-03 -4.910312965512275696e-02 5.383582413196563721e-02 -7.896970212459564209e-02 -7.774731516838073730e-02 -9.016942232847213745e-02 -1.558344960212707520e-01 -8.423460274934768677e-02 -1.739941835403442383e-01 -7.207383960485458374e-02 2.606051266193389893e-01 -8.745879679918289185e-02 1.167734414339065552e-01 -9.042917937040328979e-02 -9.578168392181396484e-02 8.269939571619033813e-02 -1.088767424225807190e-01 -4.196656495332717896e-02 3.811214864253997803e-02 8.651207387447357178e-02 -2.229283004999160767e-01 2.851971387863159180e-01 -1.578671336174011230e-01 1.161858737468719482e-01 1.770916730165481567e-01 -2.340627461671829224e-01 -1.736749149858951569e-02 6.274447590112686157e-02 7.826253771781921387e-03 -2.902716770768165588e-02 3.160025551915168762e-02 7.604998350143432617e-02 2.850875072181224823e-02 8.648879081010818481e-02 -4.319544509053230286e-02 1.171082071959972382e-02 -1.768203452229499817e-02 4.527726210653781891e-03 1.879066377878189087e-01 1.146992519497871399e-01 4.293660447001457214e-02 7.068242412060499191e-03 1.122780442237854004e-01 9.322172845713794231e-04 -4.416642338037490845e-02 3.826568648219108582e-02
1.142987608909606934e-01 -1.648333109915256500e-02 1.663218289613723755e-01 1.400802433490753174e-01 -2.865063026547431946e-02 1.133569106459617615e-01 -2.090675197541713715e-02 -1.884555369615554810e-01 -6.142453849315643311e-02 -1.626715064048767090e-01 -8.553188294172286987e-03 2.394685149192810059e-01 1.015555951744318008e-02 -2.740007340908050537e-01 4.188606515526771545e-02 5.240925773978233337e-02 1.387025346048176289e-03 8.687259256839752197e-02 -3.977238014340400696e-02 -1.608733460307121277e-02 9.839784353971481323e-02 6.230917572975158691e-02 7.185487449169158936e-02 -3.128657990600913763e-04 1.073565892875194550e-02 8.112419396638870239e-02 1.202389821410179138e-01 -1.543896943330764771e-01 -9.578278288245201111e-03 2.874850470107048750e-04 1.402500718832015991e-01 -1.394723653793334961e-01 4.749232437461614609e-03 -1.884990371763706207e-02 6.103613972663879395e-02 8.272592723369598389e-02 -1.347498148679733276e-01 9.325265139341354370e-02 2.882912568747997284e-02 -2.423350661993026733e-01 -6.534798443317413330e-02 1.329285204410552979e-01 -7.092603296041488647e-02 -3.722036257386207581e-02 -5.520795006304979324e-03 -2.460304945707321167e-01 -4.738396033644676208e-03 -1.534102112054824829e-01 1.228208988904953003e-01 2.464697510004043579e-01 -3.801647201180458069e-02 1.807495802640914917e-01 -1.272164192050695419e-02 -3.785898089408874512e-01 -3.359194844961166382e-02 3.236218094825744629e-01 -7.424648851156234741e-02 -4.033380374312400818e-02 1.810972020030021667e-02 -1.660207062959671021e-01 -3.189961239695549011e-02 -7.603771239519119263e-02 6.760120391845703125e-02 1.044219508767127991e-01 6.084121018648147583e-02 -2.391171641647815704e-03 7.173395901918411255e-02 -2.251991629600524902e-01 -3.460789099335670471e-02 1.574830561876296997e-01
-9.695021063089370728e-02 1.002339795231819153e-01 1.133897453546524048e-01 5.192215088754892349e-03 -2.518841624259948730e-02 -1.293169558048248291e-01 -9.218513220548629761e-02 1.160691827535629272e-01 -2.745026536285877228e-02 -7.294959574937820435e-02 -5.889823287725448608e-02 1.898266077041625977e-01 3.738155215978622437e-02 -2.256264984607696533e-01 1.530218496918678284e-02 -6.512328237295150757e-02 -2.625096775591373444e-02 6.652688235044479370e-02 9.327290207147598267e-02 -1.481773052364587784e-02 -6.071303784847259521e-02 1.641590334475040436e-02 4.975314065814018250e-02 -3.231654316186904907e-02 3.416915610432624817e-02 8.771624416112899780e-02 -5.678216367959976196e-02 2.550423517823219299e-02 -9.769122302532196045e-02 -5.147324874997138977e-03 1.705562025308609009e-01 -1.958342641592025757e-02 3.695382550358772278e-02 7.011316716670989990e-02 -3.955472260713577271e-03 -1.564439684152603149e-01 -1.104235369712114334e-02 1.305034607648849487e-01 1.039233207702636719e-01 -2.195514738559722900e-01 7.065939903259277344e-02 1.517460346221923828e-01 1.214430704712867737e-01 -5.918760225176811218e-02 -1.155704818665981293e-02 -1.032760292291641235e-01 -8.611851930618286133e-02 2.079707533121109009e-01 1.118889898061752319e-01 -2.918716669082641602e-01 -1.129877790808677673e-01 3.114622533321380615e-01 -9.226763993501663208e-02 -3.928738236427307129e-01 8.125157910399138927e-04 3.548667728900909424e-01 5.286975204944610596e-02 -2.396592125296592712e-02 2.397312200628221035e-04 -9.624453634023666382e-02 -2.098899148404598236e-02 8.880108594894409180e-02 -9.177006781101226807e-02 -2.111458629369735718e-01 -2.935347147285938263e-02 1.129000857472419739e-01 6.615742295980453491e-02 -2.005385160446166992e-01 -3.721814230084419250e-02 1.561199873685836792e-01
6.658568233251571655e-02 7.564792782068252563e-02 7.522299140691757202e-02 4.268288612365722656e-02 -2.434031851589679718e-02 -1.278216391801834106e-01 8.967593312263488770e-03 1.148642748594284058e-01 1.232144143432378769e-02 -1.298347264528274536e-01 -9.002048522233963013e-02 2.197869271039962769e-01 -1.112134158611297607e-01 3.306773304939270020e-01 -6.191653385758399963e-02 1.020666304975748062e-02 1.008143275976181030e-01 2.461634762585163116e-02 1.458179950714111328e-01 -6.834870576858520508e-02 -9.885127842426300049e-02 1.767108589410781860e-01 9.975405409932136536e-03 9.819214465096592903e-04 6.439860165119171143e-02 8.618440479040145874e-02 9.776556491851806641e-02 2.174905389547348022e-01 1.336437091231346130e-02 -4.218810796737670898e-02 3.191717714071273804e-02 -4.292555153369903564e-02 5.842600017786026001e-02 -4.263865947723388672e-02 5.897177848964929581e-03 -6.530930101871490479e-02 9.352928400039672852e-02 1.135294586420059204e-01 5.058027803897857666e-02 1.905617187730967999e-03 3.911872953176498413e-02 -9.341342002153396606e-02 -7.531321048736572266e-02 -6.481862813234329224e-02 1.168095618486404419e-01 -1.704214513301849365e-02 2.306795120239257812e-02 1.899948120117187500e-01 5.571948736906051636e-02 -1.522362530231475830e-01 5.156615749001502991e-02 -6.248283013701438904e-02 -6.157363951206207275e-02 -3.394564986228942871e-01 4.940254986286163330e-02 -3.385072350502014160e-01 4.381829500198364258e-02 7.468777149915695190e-02 -3.255471959710121155e-02 -6.702682375907897949e-02 -4.500105977058410645e-02 1.353537142276763916e-01 -1.089483201503753662e-01 -5.792579054832458496e-02 -5.012788623571395874e-02 8.099434524774551392e-02 -1.123786717653274536e-01 -4.818465095013380051e-03 -1.327655464410781860e-01 -1.051505282521247864e-01
5.886648222804069519e-02 6.387416273355484009e-02 -2.646515965461730957e-01 -1.422411054372787476e-01 1.507836282253265381e-01 2.061754018068313599e-01 1.467801183462142944e-01 1.286752223968505859e-01 4.112927243113517761e-03 -6.867953389883041382e-02 8.861772716045379639e-02 1.904726400971412659e-02 -1.847941800951957703e-02 -2.787276403978466988e-03 -1.139574218541383743e-02 -7.946294546127319336e-02 -1.218857988715171814e-01 2.238783240318298340e-02 2.932007610797882080e-01 9.929352439939975739e-03 7.391993701457977295e-02 3.211244940757751465e-02 -6.496969610452651978e-02 5.459330510348081589e-03 -1.008006781339645386e-01 1.521702017635107040e-02 -6.355781108140945435e-02 -4.389324784278869629e-02 -1.018652096390724182e-01 5.570447444915771484e-02 -2.274405807256698608e-01 1.325937081128358841e-02 1.683388799428939819e-01 -9.160700254142284393e-03 1.443333178758621216e-01 -8.058377355337142944e-02 1.869996078312397003e-02 3.066889196634292603e-02 7.905306667089462280e-02 -4.543866589665412903e-02 6.252589821815490723e-02 2.098883874714374542e-02 1.422660052776336670e-02 -3.066007047891616821e-02 -2.549411058425903320e-01 1.608062684535980225e-01 1.580659896135330200e-01 -1.885184496641159058e-01 2.087493836879730225e-01 -1.226788312196731567e-01 2.361341565847396851e-02 7.521771639585494995e-02 -4.186404868960380554e-02 3.477883711457252502e-02 4.488554969429969788e-02 4.987890366464853287e-03 4.233199730515480042e-02 -8.071914315223693848e-03 -6.225045770406723022e-02 -5.465463176369667053e-02 1.016271933913230896e-01 -2.046987414360046387e-02 7.070309668779373169e-02 4.527476057410240173e-02 1.599927619099617004e-02 -4.239834845066070557e-02 -2.520169503986835480e-02 -2.378676831722259521e-02 -1.800277084112167358e-02 2.012292854487895966e-02
6.644225865602493286e-02 -3.195976316928863525e-01 -5.369430407881736755e-02 4.071874916553497314e-01 -2.116562724113464355e-01 1.326455771923065186e-01 -1.128788962960243225e-01 7.107620686292648315e-02 -4.028534144163131714e-02 -7.764032483100891113e-02 -3.660599887371063232e-02 1.210989579558372498e-01 -4.621664807200431824e-02 8.602170646190643311e-02 1.027509756386280060e-02 -2.070541679859161377e-01 1.578558236360549927e-02 2.442764341831207275e-01 -2.218227088451385498e-01 1.868248172104358673e-02 -9.228484332561492920e-02 -6.294915825128555298e-02 4.290150105953216553e-02 -2.963208965957164764e-02 4.350323602557182312e-02 -5.656247586011886597e-02 1.850776933133602142e-02 5.503504723310470581e-02 5.288469046354293823e-02 -2.209690771996974945e-02 -4.823673889040946960e-02 3.421880677342414856e-02 -3.166315853595733643e-01 -3.225766494870185852e-02 -1.132814493030309677e-02 7.362466305494308472e-02 6.787878274917602539e-02 6.964412331581115723e-02 7.959590852260589600e-02 2.127082459628582001e-02 9.897505864500999451e-03 -9.357267618179321289e-02 -8.721107244491577148e-02 2.243631929159164429e-01 -9.395425021648406982e-02 -3.297038376331329346e-01 -2.092447131872177124e-01 -1.317257434129714966e-01 -4.355086013674736023e-02 -2.822820842266082764e-02 2.920021675527095795e-02 1.041742190718650818e-01 -5.816867575049400330e-02 -1.107700285501778126e-03 2.320685051381587982e-02 -1.202464923262596130e-01 -4.589311778545379639e-02 3.505202531814575195e-01 -4.704209417104721069e-02 -3.991149365901947021e-01 -8.574850857257843018e-02 -2.837483771145343781e-03 -7.106138020753860474e-02 -4.498530924320220947e-02 -1.057655289769172668e-01 -6.877008080482482910e-02 -2.461727708578109741e-02 -8.943708240985870361e-02 -1.855958625674247742e-02 6.988991796970367432e-02
6.634964048862457275e-02 -6.577172875404357910e-02 2.367878705263137817e-01 1.856170445680618286e-01 -5.011991597712039948e-03 6.589406728744506836e-02 8.178022503852844238e-02 1.217865347862243652e-01 3.962378948926925659e-02 -1.009440720081329346e-01 -6.662998348474502563e-02 2.566068619489669800e-02 -5.340047180652618408e-02 6.745931692421436310e-03 -3.255396336317062378e-02 8.001775294542312622e-02 1.940292119979858398e-01 5.343648418784141541e-02 -4.279875010251998901e-02 -2.769606001675128937e-02 1.819821596145629883e-01 5.883660539984703064e-02 -3.307041944935917854e-03 8.271899074316024780e-02 4.921016748994588852e-03 -1.365346834063529968e-02 -7.422363758087158203e-02 9.786336123943328857e-02 -8.349119871854782104e-02 8.281324408017098904e-04 1.388136297464370728e-01 1.173031143844127655e-02 1.571558043360710144e-02 -7.602134346961975098e-02 1.441542059183120728e-01 -8.943548798561096191e-02 6.746117770671844482e-02 -2.697525732219219208e-02 4.214550554752349854e-02 -4.611849784851074219e-02 1.082715317606925964e-01 -5.141933634877204895e-02 5.019855871796607971e-02 -2.096430212259292603e-02 2.230550050735473633e-01 -2.447057068347930908e-01 -3.370166942477226257e-02 -3.148865327239036560e-02 1.403579115867614746e-01 -1.653418987989425659e-01 -8.532270044088363647e-02 -1.812176592648029327e-02 6.693498045206069946e-02 -1.096618827432394028e-02 1.911195344291627407e-03 -5.451032519340515137e-02 -1.455999212339520454e-03 6.031861063092947006e-03 -3.320973739027976990e-02 -9.545627981424331665e-03 5.913612619042396545e-02 7.206155359745025635e-02 8.228008449077606201e-02 7.275190204381942749e-02 -1.991265453398227692e-02 6.306364387273788452e-02 -3.654519468545913696e-02 4.296423867344856262e-02 1.281233504414558411e-02 9.282731334678828716e-04
-3.122250735759735107e-02 -4.095425084233283997e-02 -1.370136290788650513e-01 -2.525865435600280762e-01 -3.582251071929931641e-02 -3.444584459066390991e-02 2.216273099184036255e-01 2.064704596996307373e-01 2.196952328085899353e-02 -5.322750657796859741e-03 1.773312874138355255e-02 1.018461361527442932e-01 4.844217747449874878e-02 7.939276099205017090e-02 3.304630145430564880e-02 1.090072095394134521e-02 -2.011652439832687378e-01 -1.587200313806533813e-01 -6.746810395270586014e-03 7.329144328832626343e-02 1.892230808734893799e-01 2.125147730112075806e-01 7.727339118719100952e-02 -7.894345559179782867e-03 1.376846153289079666e-02 -2.862253040075302124e-02 5.049401149153709412e-02 -6.388174369931221008e-03 8.050071448087692261e-02 -7.771305739879608154e-02 -2.107288688421249390e-01 4.787220060825347900e-02 8.235040307044982910e-02 2.587252482771873474e-02 9.134483337402343750e-02 -1.110339090228080750e-01 4.549993202090263367e-02 1.211300771683454514e-02 3.419384360313415527e-02 -5.043743550777435303e-02 -2.194089628756046295e-02 -4.674939066171646118e-02 -2.134459465742111206e-02 4.132268205285072327e-02 -2.206488549709320068e-01 2.954211831092834473e-01 4.541854187846183777e-02 -4.622796922922134399e-02 1.504727154970169067e-01 -2.896218895912170410e-01 -7.799547165632247925e-02 2.820013836026191711e-02 -1.883848011493682861e-02 -1.396229416131973267e-01 -7.008896023035049438e-02 -6.144883483648300171e-02 -6.216865405440330505e-02 6.952761858701705933e-02 2.789965271949768066e-02 7.195631414651870728e-02 3.257296979427337646e-02 -1.801835931837558746e-02 5.001048091799020767e-03 -2.471701614558696747e-02 -6.683183461427688599e-02 -2.743936516344547272e-02 -4.552312567830085754e-02 1.183711811900138855e-01 -9.330525062978267670e-03 3.561255335807800293e-02
-2.869932353496551514e-02 -1.065677125006914139e-02 -1.016613189131021500e-02 -1.029394194483757019e-01 4.528483748435974121e-02 -1.127815693616867065e-01 -4.135879874229431152e-02 1.395581513643264771e-01 6.591554731130599976e-02 1.109602972865104675e-01 -1.395577285438776016e-02 -2.753701508045196533e-01 4.991770163178443909e-02 3.292070925235748291e-01 -1.147281378507614136e-02 -7.697634398937225342e-02 -1.018531098961830139e-01 -4.983898252248764038e-02 5.936199799180030823e-02 -3.758983453735709190e-03 -9.961547702550888062e-02 -2.636626362800598145e-03 -1.074389927089214325e-02 3.962112218141555786e-02 1.772135123610496521e-02 -2.616105787456035614e-02 -7.368658483028411865e-02 1.081297919154167175e-01 -9.526479244232177734e-02 8.824484050273895264e-02 -1.954582631587982178e-01 1.593796312808990479e-01 7.441016286611557007e-02 7.589679211378097534e-02 -1.349201053380966187e-01 -1.075453683733940125e-01 3.874292597174644470e-02 -6.379803270101547241e-02 -9.347079321742057800e-03 2.212785333395004272e-01 -5.160507559776306152e-02 -1.771656274795532227e-01 4.325318336486816406e-02 1.485730893909931183e-02 -1.296072360128164291e-02 1.795383840799331665e-01 -7.000781595706939697e-02 4.781055077910423279e-02 -6.434912234544754028e-02 -2.440847158432006836e-01 2.700641378760337830e-02 -1.321019977331161499e-01 3.495587408542633057e-02 3.737833797931671143e-01 5.402622744441032410e-02 -3.238315284252166748e-01 9.078376740217208862e-02 2.821253426373004913e-02 -1.441073790192604065e-02 1.465670168399810791e-01 -5.609132815152406693e-03 1.475885659456253052e-01 7.771997479721903801e-04 -9.915152192115783691e-02 -2.066544443368911743e-02 -6.503713130950927734e-02 -1.225690916180610657e-01 2.423144131898880005e-01 2.354700863361358643e-02 -1.273883730173110962e-01
1.477251481264829636e-02 -1.019427329301834106e-01 -2.724556922912597656e-01 2.312307059764862061e-01 5.093374475836753845e-02 9.604968875646591187e-02 -1.475501060485839844e-01 1.085202023386955261e-02 -1.806006650440394878e-03 -2.621548622846603394e-02 -7.914037257432937622e-02 6.796264648437500000e-02 -9.170975536108016968e-02 4.311087727546691895e-02 1.431809179484844208e-02 -1.010450273752212524e-01 -4.129558503627777100e-01 5.433279275894165039e-02 -9.591463953256607056e-02 6.681678444147109985e-02 -7.553852349519729614e-02 -5.706256628036499023e-02 -2.509173192083835602e-02 -6.976249068975448608e-02 -9.508075565099716187e-02 -5.198314040899276733e-02 1.155911311507225037e-01 -2.384995110332965851e-02 -1.010518893599510193e-01 2.430395036935806274e-02 -3.214525580406188965e-01 -1.195123046636581421e-01 4.289686679840087891e-02 6.311061233282089233e-02 -5.637975782155990601e-02 -7.383724302053451538e-02 6.218583509325981140e-02 6.733190268278121948e-02 7.561934739351272583e-02 -9.228830784559249878e-02 -9.432934969663619995e-02 -2.032274752855300903e-02 1.004031896591186523e-01 2.967656357213854790e-03 -4.439353942871093750e-01 -2.914675176143646240e-01 -9.020169079303741455e-02 -1.264911592006683350e-01 -1.636012345552444458e-01 -4.430389031767845154e-02 -4.044183716177940369e-02 6.030660495162010193e-02 1.240396872162818909e-01 1.021030708216130733e-03 7.874496281147003174e-02 3.394655138254165649e-02 -2.714495733380317688e-02 1.872736960649490356e-01 -3.079650104045867920e-01 1.130333393812179565e-01 -3.310776264697778970e-06 -1.069480851292610168e-01 5.846856907010078430e-02 1.742629557847976685e-01 4.762652795761823654e-03 -2.990143373608589172e-02 -1.755524985492229462e-02 7.065615057945251465e-02 -8.941876702010631561e-03 -2.960814535617828369e-02
-5.512793362140655518e-02 -1.490247435867786407e-02 -2.864892780780792236e-02 -1.713265106081962585e-02 6.638815253973007202e-02 -1.075908020138740540e-01 -1.477974802255630493e-01 2.380183637142181396e-01 3.065812401473522186e-02 2.109434083104133606e-02 5.661555752158164978e-02 -1.263493746519088745e-01 6.557581573724746704e-02 -3.112307190895080566e-02 -5.277350172400474548e-02 -5.952230468392372131e-02 -1.249098256230354309e-01 1.461849361658096313e-02 9.244313091039657593e-02 4.596145078539848328e-02 -1.440214216709136963e-01 9.584985673427581787e-02 -9.739726665429770947e-04 2.823634073138237000e-02 2.306817099452018738e-03 2.656345255672931671e-02 8.305787295103073120e-02 -9.097749367356300354e-03 6.837443262338638306e-02 5.452759191393852234e-02 -1.983250491321086884e-02 -4.882454406470060349e-03 2.607443602755665779e-04 -6.810339540243148804e-02 -2.449939548969268799e-01 -1.346362680196762085e-01 1.018112432211637497e-02 3.087095171213150024e-02 -4.102953895926475525e-02 5.122023075819015503e-02 -5.960372090339660645e-02 -1.038540992885828018e-02 -2.643141895532608032e-02 9.297246485948562622e-02 2.905992045998573303e-02 4.448527935892343521e-03 -1.292030811309814453e-01 6.109382025897502899e-03 -2.810381650924682617e-01 -2.947348058223724365e-01 -2.796868793666362762e-02 -1.602680236101150513e-01 5.168553441762924194e-02 7.920697331428527832e-02 -1.064159907400608063e-03 5.422677099704742432e-02 6.376040726900100708e-02 -7.566621899604797363e-02 -5.770086124539375305e-02 2.421693410724401474e-03 -7.381311617791652679e-03 1.305546909570693970e-01 -1.874522715806961060e-01 8.598091453313827515e-02 -9.190320968627929688e-03 7.776321470737457275e-02 -7.893257588148117065e-02 -3.849002718925476074e-02 -8.686153590679168701e-02 -3.752844640985131264e-03
7.280047982931137085e-02 3.652561455965042114e-02 -1.831653118133544922e-01 5.091555044054985046e-02 8.714416623115539551e-02 5.013537593185901642e-03 2.208143770694732666e-01 -4.116258933208882809e-04 -6.960813701152801514e-02 -3.464075038209557533e-03 1.844480261206626892e-02 -9.733169525861740112e-02 -7.623343914747238159e-02 -3.388099372386932373e-02 -1.425284147262573242e-01 5.124749150127172470e-03 -3.630411028861999512e-01 1.472164690494537354e-02 1.852478981018066406e-01 8.234801143407821655e-02 2.985625267028808594e-01 -1.249976176768541336e-02 -6.258367747068405151e-02 6.366744637489318848e-02 -7.068485766649246216e-02 -7.332197576761245728e-02 -7.575007528066635132e-02 -6.601022928953170776e-02 -5.939593538641929626e-02 9.199277497828006744e-03 -2.224484682083129883e-01 5.087376572191715240e-03 1.155061498284339905e-01 -7.535439729690551758e-02 1.442947685718536377e-01 4.002521932125091553e-02 1.036640182137489319e-01 -4.936913400888442993e-02 3.154720738530158997e-02 -1.036795694380998611e-02 5.128154158592224121e-02 1.310630235821008682e-02 8.265292644500732422e-02 3.876247676089406013e-03 -1.609026789665222168e-01 5.928523093461990356e-02 5.716767907142639160e-02 -6.652981787919998169e-02 2.898667454719543457e-01 -8.800102770328521729e-02 7.189922034740447998e-02 -4.526543617248535156e-02 7.389064133167266846e-02 1.122907027602195740e-01 7.347632944583892822e-02 2.549742534756660461e-02 4.250591993331909180e-02 -5.721224099397659302e-02 -1.545690298080444336e-01 -1.326614767313003540e-01 5.584119632840156555e-02 5.639627948403358459e-02 1.296467036008834839e-01 6.485986709594726562e-02 -3.957717120647430420e-02 3.313731402158737183e-02 -3.708639740943908691e-02 6.971886754035949707e-02 2.644510008394718170e-02 6.106819957494735718e-02
5.463828518986701965e-02 2.208812832832336426e-01 3.287785053253173828e-01 1.749619096517562866e-01 -2.669720649719238281e-01 3.739039972424507141e-02 3.844067454338073730e-01 2.351730912923812866e-01 7.706316653639078140e-03 3.318626061081886292e-02 -1.014697775244712830e-01 7.642912864685058594e-02 6.927485764026641846e-02 1.144503504037857056e-01 1.117580221034586430e-03 8.349175751209259033e-02 3.490959405899047852e-01 5.453054606914520264e-02 -3.009303808212280273e-01 2.972843684256076813e-02 2.519673705101013184e-01 7.745323330163955688e-02 -4.999576881527900696e-02 -1.263848692178726196e-01 -3.569885389879345894e-03 6.449291110038757324e-02 4.098457098007202148e-02 2.401668205857276917e-02 4.405089840292930603e-02 7.265676558017730713e-02 4.189541637897491455e-01 8.776151388883590698e-02 -3.548526763916015625e-01 3.201521467417478561e-03 4.011002480983734131e-01 -9.587312117218971252e-03 -3.995880857110023499e-02 5.734890326857566833e-02 1.597659476101398468e-02 -4.627226293087005615e-02 -3.798881173133850098e-02 -5.381205677986145020e-02 -6.329756230115890503e-02 -7.309652864933013916e-02 4.433541595935821533e-01 -1.661486029624938965e-01 -3.251538276672363281e-01 4.376445710659027100e-02 4.502953588962554932e-01 -2.354466170072555542e-01 2.779212221503257751e-02 3.226321190595626831e-02 4.599104449152946472e-02 -9.994164109230041504e-02 -1.112198382616043091e-01 -3.160788491368293762e-02 -3.943954780697822571e-02 -3.195715546607971191e-01 2.749496698379516602e-01 -1.641391962766647339e-01 -3.166570365428924561e-01 -1.230590492486953735e-01 2.848463952541351318e-01 -7.020279765129089355e-02 4.958644136786460876e-02 3.801932558417320251e-03 1.853212714195251465e-02 9.474587626755237579e-03 4.197145253419876099e-02 -5.105376616120338440e-02
1.399843301624059677e-02 -3.020639717578887939e-02 -3.825495019555091858e-02 -7.414717227220535278e-02 -1.379060931503772736e-02 -9.569058567285537720e-02 -9.682625532150268555e-02 2.226489186286926270e-01 -3.547743335366249084e-02 -4.680350050330162048e-02 5.070048198103904724e-02 -3.752444684505462646e-01 3.287134692072868347e-02 -2.788163721561431885e-01 2.762296982109546661e-02 8.021155744791030884e-02 7.532901316881179810e-02 9.384079277515411377e-02 -8.012971282005310059e-02 -6.603075563907623291e-02 -1.527774035930633545e-01 1.223950088024139404e-01 -8.089331910014152527e-03 -1.922151539474725723e-03 8.049950748682022095e-02 -2.039778381586074829e-01 -7.368468493223190308e-02 -7.075601816177368164e-02 -5.057959933765232563e-04 -1.993825286626815796e-02 -2.436199784278869629e-02 -8.468320220708847046e-02 6.259721517562866211e-02 5.059365648776292801e-03 -1.468432545661926270e-01 -1.590626686811447144e-02 -1.396917998790740967e-01 7.940311729907989502e-02 4.294186830520629883e-03 9.019048511981964111e-02 9.071989357471466064e-02 9.388282895088195801e-02 -8.550141751766204834e-02 -1.413892805576324463e-01 -7.974875159561634064e-03 -8.168220520019531250e-02 3.386976942420005798e-02 1.625330150127410889e-01 -6.589499115943908691e-02 -2.026049941778182983e-01 8.596456795930862427e-02 8.448428660631179810e-02 1.692496240139007568e-01 2.960778772830963135e-01 6.984114181250333786e-03 2.695046365261077881e-01 5.154130235314369202e-02 9.428944438695907593e-02 3.588150953873991966e-03 1.356260329484939575e-01 5.576877668499946594e-02 -3.193608671426773071e-02 -8.332811295986175537e-02 -1.279551237821578979e-01 -3.480970859527587891e-02 -1.113866716623306274e-01 6.238349154591560364e-02 1.860013604164123535e-01 -6.706039607524871826e-02 -4.149573389440774918e-03
