1.684067696332931519e-01
4.274274706840515137e-01
-8.546049147844314575e-02
8.621313422918319702e-02
-1.878151297569274902e-02
-4.154678583145141602e-01
1.749755591154098511e-01
4.266797304153442383e-01
-4.405733048915863037e-01
2.001435160636901855e-01
-8.235190063714981079e-02
7.788614928722381592e-02
7.041230797767639160e-02
-1.838007569313049316e-01
-5.280682444572448730e-01
-2.467372268438339233e-02
2.086955681443214417e-02
4.813356325030326843e-02
2.990034595131874084e-02
-5.445750951766967773e-01
1.164421439170837402e-02
-1.769356131553649902e-01
3.142089769244194031e-02
1.655598580837249756e-01
-2.717539668083190918e-01
-4.329712986946105957e-01
-1.142646595835685730e-01
8.396903425455093384e-02
1.947493851184844971e-01
-1.536223292350769043e-01
-4.067621529102325439e-01
2.399823255836963654e-02
3.012481927871704102e-01
-6.602702736854553223e-01
-6.160005554556846619e-02
-8.897831439971923828e-01
5.611969158053398132e-02
-2.274771593511104584e-02
1.534547507762908936e-01
2.490354180335998535e-01
2.326919697225093842e-02
3.479397157207131386e-03
2.855339944362640381e-01
1.036757081747055054e-01
-4.659077152609825134e-02
-1.346373111009597778e-01
3.474558889865875244e-01
-5.678357481956481934e-01
4.314829409122467041e-01
4.949136376380920410e-01
-1.063829734921455383e-01
-5.263814330101013184e-01
-5.263322591781616211e-01
4.566560685634613037e-01
-4.810220003128051758e-01
-4.698894917964935303e-01
-1.920893229544162750e-02
2.828027494251728058e-02
9.469705633819103241e-03
1.041224896907806396e-01
-4.665397405624389648e-01
-1.590143591165542603e-01
-8.960805088281631470e-02
-3.316782414913177490e-01
-1.361304521560668945e-01
-1.422651708126068115e-01
4.795476049184799194e-02
-1.314069181680679321e-01
-3.584783077239990234e-01
2.432104200124740601e-01
7.686642557382583618e-02
-3.571054339408874512e-01
-1.077859625220298767e-01
-4.889018535614013672e-01
-7.796526700258255005e-02
-3.118473887443542480e-01
-2.769899368286132812e-02
-4.640354812145233154e-01
-2.092390060424804688e-01
-1.123100519180297852e-01
-2.306410809978842735e-03
1.622514128684997559e-01
2.973057143390178680e-02
7.410968095064163208e-02
6.506747752428054810e-02
1.054479181766510010e-01
-1.983020603656768799e-01
-4.269396960735321045e-01
-2.681547999382019043e-01
-7.546107470989227295e-02
-2.345414757728576660e-01
-5.182964727282524109e-02
-9.088317751884460449e-01
5.145386233925819397e-02
-1.180118322372436523e-02
-2.904241979122161865e-01
-1.121074110269546509e-01
3.583758771419525146e-01
-3.238567411899566650e-01
-5.628503859043121338e-02
