-2.702832520008087158e-01
-5.834726989269256592e-02
4.086497798562049866e-02
9.471686184406280518e-02
-2.149634994566440582e-02
1.563272327184677124e-01
9.961187094449996948e-02
1.171604543924331665e-01
-2.751316502690315247e-02
-5.290798842906951904e-02
-1.053349971771240234e-01
4.714279994368553162e-02
2.683282494544982910e-01
5.244098603725433350e-02
3.894152492284774780e-02
2.715738713741302490e-01
1.099403798580169678e-01
4.543833434581756592e-02
1.664299368858337402e-01
1.380932927131652832e-01
-1.561834709718823433e-03
-1.168958004564046860e-02
-3.059242665767669678e-02
-1.725485175848007202e-01
1.414427459239959717e-01
-1.554178446531295776e-01
-6.071706414222717285e-01
-1.449020206928253174e-01
-4.145110845565795898e-01
-4.319774359464645386e-02
-1.423169374465942383e-01
-1.219829469919204712e-01
1.356218308210372925e-01
2.349798530340194702e-01
2.639861963689327240e-02
1.987862400710582733e-02
1.743567287921905518e-01
-6.584197282791137695e-02
-4.458130151033401489e-02
6.073749065399169922e-02
8.199420757591724396e-03
1.140294373035430908e-01
7.025898993015289307e-02
-9.742943942546844482e-02
-4.336879402399063110e-02
-6.557694822549819946e-02
-6.020075455307960510e-02
-4.428658634424209595e-02
-8.409058302640914917e-02
5.065006762742996216e-02
8.364895731210708618e-02
3.391084447503089905e-02
6.661810725927352905e-02
-6.798088550567626953e-02
-9.958799928426742554e-02
-4.714988470077514648e-01
-2.486621886491775513e-01
1.268468499183654785e-01
5.047515779733657837e-02
2.830417081713676453e-02
-2.347264997661113739e-02
-1.068327762186527252e-02
6.842435151338577271e-02
1.632868126034736633e-02
-1.329505592584609985e-01
1.977944746613502502e-02
1.961444914340972900e-01
-1.715406179428100586e-01
1.588160097599029541e-01
-1.352106407284736633e-02
4.364852607250213623e-02
-4.184798002243041992e-01
9.373947232961654663e-02
3.130834922194480896e-02
7.900930196046829224e-02
6.250286847352981567e-02
-1.757237762212753296e-01
1.100750267505645752e-01
5.390688404440879822e-02
4.907767847180366516e-02
3.028063476085662842e-02
-6.906497478485107422e-02
8.454964309930801392e-02
4.655514284968376160e-02
8.565841615200042725e-02
1.249190494418144226e-01
-5.706051737070083618e-02
-4.794261977076530457e-02
-9.201551973819732666e-02
1.719080843031406403e-02
-3.984975814819335938e-01
2.514570057392120361e-01
-1.659883558750152588e-01
4.879347234964370728e-02
-8.757575415074825287e-03
-2.817140519618988037e-01
-1.117521077394485474e-01
1.135925650596618652e-01
8.296172320842742920e-02
-2.381526492536067963e-02
