-3.066387260332703590e-03 3.924367949366569519e-02 -3.782985359430313110e-02 -2.841630391776561737e-02 9.020098485052585602e-03 -6.510433275252580643e-03 1.964014954864978790e-03 -5.032201483845710754e-02 1.306025981903076172e-01 1.336589083075523376e-02 2.795662172138690948e-02 -3.228386864066123962e-02 -2.119794022291898727e-03 -6.368247326463460922e-03 4.856145754456520081e-02 -7.126291893655434251e-05 -1.449934579432010651e-02 -7.831842452287673950e-02 -5.125659331679344177e-02 2.100542932748794556e-02 1.900103315711021423e-02 -1.141870277933776379e-03 7.367522269487380981e-02 2.163927070796489716e-02 -1.321407407522201538e-02 1.410094462335109711e-02 -5.307352985255420208e-04 1.081207185052335262e-03 1.562958001159131527e-03 5.174987018108367920e-02 4.250929877161979675e-02 6.254358682781457901e-03 1.121989917010068893e-03 -1.808556960895657539e-03 5.036740098148584366e-03 -3.108301386237144470e-02 3.041720192413777113e-04 1.064102980308234692e-03 -5.842970311641693115e-02 -8.634246885776519775e-03 3.040473209694027901e-03 -4.602865010383538902e-05 -7.045131176710128784e-03 6.601365283131599426e-03 -1.097275744541548193e-04 1.310248300433158875e-02 4.232785105705261230e-02 -7.163075357675552368e-02 -1.474697375670075417e-03 2.652349323034286499e-02 -1.503753446741029620e-04 2.045484632253646851e-02 -1.284639164805412292e-02 2.407441660761833191e-02 -4.755571018904447556e-03 3.544831124600023031e-04 3.191527677699923515e-03 3.618587215896695852e-04 -4.354001139290630817e-04 -9.641484916210174561e-02 3.733001649379730225e-02 7.142816670238971710e-03 -3.944944124668836594e-03 -1.375877531245350838e-03 3.167420625686645508e-03 -4.812783747911453247e-02 3.754324279725551605e-03 -2.217979636043310165e-03 -4.580648383125662804e-04 7.698813918977975845e-03 -9.329076111316680908e-02 3.694619052112102509e-03 -9.746394935064017773e-04 9.226184338331222534e-04 3.059449605643749237e-02 3.476057201623916626e-02 3.869142674375325441e-04 -1.848610700108110905e-03 -2.101643383502960205e-02 -4.306009504944086075e-03 3.098352579399943352e-03 -2.680192235857248306e-03 -8.418782055377960205e-02 -2.340256422758102417e-02 -2.106448169797658920e-03 1.486647594720125198e-02 1.996510196477174759e-03 3.018480783794075251e-04 1.583072356879711151e-02 2.978521212935447693e-02 -1.724640605971217155e-03 -2.449500933289527893e-02 -2.550543285906314850e-03 1.733546704053878784e-02 -2.087959088385105133e-03 -5.360202630981802940e-04 -2.677464217413216829e-04 -1.730088028125464916e-03 -1.036222020047716796e-04 2.052824199199676514e-02
-2.063893154263496399e-02 3.364457190036773682e-02 -5.208004266023635864e-02 4.246242810040712357e-03 7.681398838758468628e-02 3.502114210277795792e-03 2.624639496207237244e-02 -8.247768133878707886e-02 1.088444590568542480e-01 -2.289570681750774384e-02 -1.800300329923629761e-01 -9.826365113258361816e-02 -1.132797002792358398e-01 -8.746696263551712036e-02 4.247745871543884277e-02 8.317491412162780762e-02 9.880643337965011597e-03 -1.211905702948570251e-01 -9.270086884498596191e-02 -1.858681738376617432e-01 -4.284233599901199341e-02 -2.059828024357557297e-03 -7.869105786085128784e-02 2.571132592856884003e-02 4.164075255393981934e-01 -6.793746352195739746e-02 -9.159490466117858887e-02 2.328262664377689362e-02 -5.545295029878616333e-02 1.983706280589103699e-02 -3.681288063526153564e-01 2.512093633413314819e-02 -1.036584600806236267e-01 -8.532579243183135986e-02 6.488370895385742188e-02 -9.379763901233673096e-02 1.012082397937774658e-01 6.788458675146102905e-02 -1.592262065969407558e-03 -3.833211213350296021e-02 -7.126797921955585480e-03 8.123458921909332275e-02 -8.724805712699890137e-02 7.909850031137466431e-02 8.043371140956878662e-03 1.942500588484108448e-03 5.335693061351776123e-02 1.141232475638389587e-01 8.087114989757537842e-02 -7.185622304677963257e-02 -8.872433751821517944e-02 1.208700146526098251e-02 -2.644574828445911407e-02 5.869495496153831482e-02 5.713260173797607422e-02 -1.051175594329833984e-01 -8.804618567228317261e-02 7.003738544881343842e-03 -1.086876168847084045e-02 1.028107032179832458e-01 -5.027069244533777237e-03 -6.543353945016860962e-02 4.664461885113269091e-04 7.089512795209884644e-02 -9.587854146957397461e-02 5.110250785946846008e-02 -3.016144782304763794e-02 3.565045073628425598e-02 -4.993024468421936035e-02 1.256263703107833862e-01 -1.790366321802139282e-02 -6.715046614408493042e-02 -1.114554121159017086e-03 4.576599225401878357e-03 -1.147550567984580994e-01 -8.728024363517761230e-02 2.640979131683707237e-03 7.252158969640731812e-02 -9.544440545141696930e-03 3.995817899703979492e-02 8.211821317672729492e-02 1.330510620027780533e-02 1.475836634635925293e-01 -4.343935102224349976e-02 -7.835255563259124756e-02 -6.169416382908821106e-02 1.046834364533424377e-01 7.846958190202713013e-02 1.020942702889442444e-01 1.222848519682884216e-02 -1.004292294383049011e-01 -1.695806831121444702e-01 8.588650822639465332e-02 -2.869954518973827362e-02 4.073267802596092224e-03 -9.017509222030639648e-02 -7.338386774063110352e-02 -3.084091655910015106e-02 9.341781958937644958e-03 7.799468189477920532e-02
5.544582009315490723e-02 -3.542909026145935059e-02 7.504761964082717896e-02 -1.093470677733421326e-02 1.575848646461963654e-02 3.067819029092788696e-02 1.909916754812002182e-04 6.559263169765472412e-02 6.977276504039764404e-02 2.009392157196998596e-02 3.470382466912269592e-02 1.127038244158029556e-02 -2.111073955893516541e-02 4.247840121388435364e-02 -2.241116762161254883e-02 3.674633800983428955e-02 2.798743732273578644e-02 -1.554360333830118179e-02 1.405765861272811890e-02 -9.086383879184722900e-02 -3.044823743402957916e-02 -2.516710432246327400e-03 9.962892532348632812e-02 7.035138085484504700e-03 1.116103678941726685e-02 -2.398425526916980743e-02 3.653851104900240898e-03 5.849867686629295349e-02 3.751980140805244446e-02 -7.996056228876113892e-02 1.780620813369750977e-01 -1.149082928895950317e-01 6.410368252545595169e-03 1.018043756484985352e-01 -3.243716491851955652e-04 6.006290391087532043e-02 -2.524255029857158661e-02 -2.636330761015415192e-02 -2.663713321089744568e-02 -5.822901148349046707e-03 -2.310962416231632233e-03 1.235740724951028824e-02 -4.664472769945859909e-03 7.621496170759201050e-02 -4.800172988325357437e-03 6.357569992542266846e-02 4.287901520729064941e-02 -8.887571841478347778e-02 -2.718921564519405365e-02 4.418540745973587036e-02 1.049225800670683384e-03 -1.348896510899066925e-02 3.313671424984931946e-02 -6.828327476978302002e-02 5.794347450137138367e-02 -3.827376663684844971e-02 -4.898645356297492981e-02 1.066513545811176300e-02 -3.376777982339262962e-03 -1.311579793691635132e-01 -3.531474620103836060e-02 -3.246128186583518982e-02 6.370499730110168457e-03 6.292343884706497192e-02 -2.739014290273189545e-02 6.290723383426666260e-02 -3.367286920547485352e-02 -6.276013702154159546e-02 3.271144255995750427e-02 8.102444559335708618e-02 -1.346837356686592102e-02 -9.097101539373397827e-02 -5.369361024349927902e-04 2.368035260587930679e-03 -3.977597877383232117e-02 2.549601346254348755e-02 1.121966750361025333e-03 3.189411386847496033e-02 -4.691649973392486572e-02 3.361288458108901978e-03 -2.322675287723541260e-02 -5.603653937578201294e-02 1.154561191797256470e-01 -1.028352323919534683e-02 -7.249643653631210327e-02 -5.237933993339538574e-02 -2.260671369731426239e-02 8.142878301441669464e-03 -3.733530268073081970e-02 2.397579140961170197e-02 -5.318227410316467285e-02 -8.606501668691635132e-02 -4.158918932080268860e-02 -8.692949078977108002e-03 -5.674033309333026409e-04 8.539253845810890198e-03 3.293673321604728699e-02 1.187248341739177704e-02 -3.524242201820015907e-03 -5.898055061697959900e-02
3.262306749820709229e-02 -6.780134886503219604e-02 -1.021621283143758774e-02 7.537717372179031372e-02 -2.963090501725673676e-02 5.127140507102012634e-02 8.327817171812057495e-02 -4.865414276719093323e-02 1.031155660748481750e-01 -5.149073898792266846e-02 6.299649178981781006e-02 -7.729809731245040894e-02 -2.821141481399536133e-02 -3.506134077906608582e-02 1.028681024909019470e-01 -8.087623119354248047e-02 3.959684818983078003e-02 9.483042359352111816e-02 1.601128280162811279e-01 -3.745325282216072083e-02 -3.484646230936050415e-02 1.500508841127157211e-02 6.015300378203392029e-02 -2.393659949302673340e-02 -1.565092206001281738e-01 7.782375067472457886e-02 9.134279936552047729e-02 3.202700987458229065e-02 -7.370559871196746826e-02 -8.249609172344207764e-02 1.116791218519210815e-01 5.923875048756599426e-02 -3.831992158666253090e-03 8.746164292097091675e-02 -3.004767186939716339e-02 -9.112001955509185791e-02 -8.877637237310409546e-02 5.645319446921348572e-02 -1.291445922106504440e-02 3.722632303833961487e-02 8.647928014397621155e-03 -6.085215881466865540e-02 2.120124362409114838e-02 -1.680419743061065674e-01 -1.051412057131528854e-02 1.000913977622985840e-01 -4.982848651707172394e-03 -2.974391728639602661e-02 -1.853021420538425446e-02 2.915750257670879364e-02 2.943857200443744659e-02 -1.043894514441490173e-02 -5.724939703941345215e-02 3.730105236172676086e-02 2.587006613612174988e-02 8.310018479824066162e-02 -8.851788938045501709e-02 8.252239972352981567e-02 -5.922243371605873108e-02 -7.966260612010955811e-02 -1.239659264683723450e-01 -6.948667764663696289e-02 1.152548100799322128e-02 1.811818592250347137e-02 -3.351445868611335754e-02 -5.169206112623214722e-02 7.747245579957962036e-02 3.100822493433952332e-02 -6.996446847915649414e-02 -6.087070330977439880e-02 -4.189557954668998718e-02 1.034014374017715454e-01 3.427384421229362488e-03 -2.199091482907533646e-03 -9.905352490022778511e-04 -2.266452088952064514e-02 -3.662431146949529648e-03 -6.728780269622802734e-02 -1.198844052851200104e-02 -2.799727767705917358e-02 -4.179126396775245667e-02 -4.372563213109970093e-02 9.044793993234634399e-02 -6.235335022211074829e-03 -2.846805611625313759e-03 9.931324422359466553e-02 -2.531836368143558502e-02 -9.827882982790470123e-03 3.040855191648006439e-02 -1.935114897787570953e-02 -1.056791245937347412e-01 4.925511404871940613e-02 -9.007330238819122314e-02 4.174934327602386475e-02 -7.615404576063156128e-02 -1.042928844690322876e-01 -1.072171330451965332e-01 1.679157372564077377e-03 -1.454115100204944611e-02 9.921506047248840332e-02
5.776697769761085510e-03 2.509912475943565369e-02 3.538539633154869080e-03 5.780700594186782837e-03 -2.120971679687500000e-03 4.533037915825843811e-02 -7.502773776650428772e-03 -2.206155359745025635e-01 -1.117914393544197083e-01 -4.978794604539871216e-03 -1.525018177926540375e-02 1.420966684818267822e-01 2.222604962298646569e-04 -2.712020576000213623e-01 1.485646367073059082e-01 -1.441286527551710606e-03 2.478943020105361938e-01 6.305139511823654175e-02 -6.136616319417953491e-02 3.702140972018241882e-02 -1.281053721904754639e-01 1.669584661722183228e-01 9.850250929594039917e-02 -4.568607546389102936e-03 -9.467098861932754517e-03 3.452835604548454285e-02 2.326044952496886253e-03 2.940677804872393608e-03 2.536911284551024437e-03 -1.890147179365158081e-01 -7.726154755800962448e-03 1.089851371943950653e-02 -1.112815574742853642e-03 -5.024469923228025436e-03 -1.681687543168663979e-03 1.827937215566635132e-01 -1.187763293273746967e-03 -4.801891744136810303e-03 6.777762901037931442e-03 1.096356287598609924e-02 -1.181398034095764160e-01 -1.926049590110778809e-03 1.245404127985239029e-03 8.499810099601745605e-02 -5.223037442192435265e-04 -2.234010212123394012e-02 -2.779933623969554901e-03 3.066448122262954712e-02 -1.357516855932772160e-03 -3.704722598195075989e-02 8.435414638370275497e-04 -1.714989095926284790e-01 8.537621051073074341e-02 3.571858704090118408e-01 -5.720799323171377182e-03 1.176321064122021198e-03 5.403392715379595757e-04 -3.979431465268135071e-03 -4.272937029600143433e-02 -1.291365027427673340e-01 1.697190999984741211e-01 -1.611581537872552872e-03 3.234028518199920654e-01 1.229106797836720943e-03 -2.222452312707901001e-03 -1.461565345525741577e-01 3.535018768161535263e-03 4.000367596745491028e-03 8.289950201287865639e-04 -7.449312508106231689e-02 1.192793063819408417e-02 3.308396320790052414e-03 1.083583012223243713e-01 -1.095490455627441406e-01 2.114292234182357788e-02 -3.780279681086540222e-02 -9.187775105237960815e-02 -5.704944953322410583e-03 1.928683184087276459e-02 -2.138226525858044624e-03 5.935925990343093872e-03 8.217228576540946960e-03 3.900169208645820618e-02 3.082491690292954445e-03 -7.802161853760480881e-03 -1.200341880321502686e-01 4.871839191764593124e-03 1.069084857590496540e-03 -1.603602617979049683e-02 -1.049515418708324432e-02 -1.798136043362319469e-03 1.376104075461626053e-02 2.558453474193811417e-03 -2.804036624729633331e-02 9.126169607043266296e-04 -1.370926387608051300e-03 -7.469015661627054214e-03 1.208612993359565735e-01 1.135171353816986084e-01 -2.231133729219436646e-01
9.544271975755691528e-03 -4.798705503344535828e-02 2.868735790252685547e-02 1.535466779023408890e-02 -3.740984247997403145e-04 1.866758465766906738e-01 3.369975136592984200e-03 7.544143497943878174e-02 -6.293618679046630859e-02 1.146563142538070679e-02 2.047578431665897369e-02 1.231745779514312744e-01 1.760686933994293213e-02 1.856387220323085785e-02 3.074492812156677246e-01 -1.555121038109064102e-02 6.404162943363189697e-02 4.023522604256868362e-03 -1.848585456609725952e-01 -7.014118880033493042e-02 4.473630711436271667e-02 3.102056384086608887e-01 -8.851265162229537964e-02 -2.972907386720180511e-03 -3.607859089970588684e-02 2.030539885163307190e-02 1.587527245283126831e-02 1.129116397351026535e-02 5.052493885159492493e-03 -1.992054134607315063e-01 2.561689168214797974e-02 1.083937380462884903e-02 7.434301543980836868e-03 4.037633538246154785e-03 4.764234181493520737e-03 2.895623147487640381e-01 -4.628989379853010178e-03 -2.533044898882508278e-03 5.835676565766334534e-04 9.426634758710861206e-03 -3.278250992298126221e-01 -7.022926583886146545e-03 1.425530877895653248e-03 6.728195399045944214e-02 1.778457164764404297e-01 -2.745303697884082794e-02 -1.548275817185640335e-02 -1.235287450253963470e-02 1.781910844147205353e-02 -5.970815196633338928e-03 1.213706098496913910e-02 4.873482286930084229e-01 -1.282791793346405029e-01 1.441745758056640625e-01 -2.101909555494785309e-02 -3.965418272855458781e-06 -1.097908802330493927e-02 4.609056282788515091e-03 -1.891352683305740356e-01 1.159905046224594116e-01 7.314831763505935669e-02 -8.169751614332199097e-03 -5.628546476364135742e-01 1.212633121758699417e-02 -1.164234057068824768e-02 -2.796043753623962402e-01 -5.013414658606052399e-03 4.915685392916202545e-03 -3.871405730023980141e-03 -9.401799738407135010e-02 3.715334460139274597e-04 -2.268490847200155258e-03 -2.196927219629287720e-01 -2.172816097736358643e-01 -9.478294849395751953e-02 8.380377292633056641e-02 1.180463135242462158e-01 4.113313276320695877e-03 1.450700336135923862e-03 1.051845727488398552e-03 6.913893856108188629e-03 -4.596965387463569641e-03 2.370195835828781128e-01 -4.547578748315572739e-03 -1.027435623109340668e-02 3.601967915892601013e-02 -1.638944819569587708e-02 -1.662171212956309319e-03 -2.184579372406005859e-01 1.449232338927686214e-03 -5.618058610707521439e-03 9.332004003226757050e-03 -4.611583892256021500e-03 4.066314920783042908e-02 -1.558790728449821472e-02 -8.878189139068126678e-03 -6.578829605132341385e-03 -4.195114076137542725e-01 1.576547771692276001e-01 -1.763642206788063049e-02
-2.886712318286299706e-04 -4.772203974425792694e-03 -8.173363283276557922e-03 7.824061322025954723e-04 -4.450301174074411392e-03 2.090852707624435425e-01 -5.271411966532468796e-03 1.476089954376220703e-01 -5.691616609692573547e-02 -3.278750926256179810e-03 -6.160629913210868835e-03 -1.283510401844978333e-02 2.686452120542526245e-03 -1.627138704061508179e-01 -5.199121660552918911e-04 3.926522913388907909e-04 -4.110471606254577637e-01 2.097785919904708862e-01 -1.909150481224060059e-01 1.861756294965744019e-01 -3.280108571052551270e-01 -2.855898579582571983e-03 -1.245140470564365387e-02 -1.547908526845276356e-03 -1.084529887884855270e-02 -2.578459121286869049e-02 1.286610611714422703e-03 -5.696873413398861885e-04 -9.641505894251167774e-04 -1.489339023828506470e-01 -1.067016460001468658e-02 -5.101728718727827072e-03 -1.673971128184348345e-04 -1.661717542447149754e-04 -1.021163305267691612e-03 -1.146939545869827271e-01 -4.749728541355580091e-04 -2.111495123244822025e-04 3.056599758565425873e-03 1.734411343932151794e-03 2.513974905014038086e-01 -1.081573864212259650e-04 -3.373338549863547087e-04 -2.777322567999362946e-02 -1.490323222242295742e-03 3.158758580684661865e-02 -3.473659977316856384e-03 -1.785302758216857910e-01 1.064676092937588692e-03 -1.248029642738401890e-03 1.625928911380469799e-03 2.897707223892211914e-01 4.364152997732162476e-02 -8.368255198001861572e-02 -3.980043743467831519e-07 2.031649928539991379e-03 -9.408387995790690184e-05 -2.618355792947113514e-04 -6.609433796256780624e-03 1.664686203002929688e-02 1.640087962150573730e-01 -6.602794019272550941e-05 -5.406200885772705078e-02 -2.632827730849385262e-03 -3.950370009988546371e-03 -6.393916904926300049e-02 3.568201791495084763e-04 6.137917516753077507e-04 6.979276076890528202e-04 7.106309384107589722e-02 1.214865036308765411e-02 -3.263460239395499229e-04 -1.118769054301083088e-03 2.561452332884073257e-03 8.626990765333175659e-02 6.483055651187896729e-02 6.675301701761782169e-04 1.649945625104010105e-04 7.366368081420660019e-03 -5.494363140314817429e-04 1.573000772623345256e-04 6.609466508962213993e-04 1.624932885169982910e-01 6.328196614049375057e-04 -1.972463680431246758e-03 -2.395071834325790405e-01 1.289709936827421188e-03 -1.317833084613084793e-04 2.947087287902832031e-01 -3.641301998868584633e-03 1.195992343127727509e-03 6.788342725485563278e-03 9.136718581430613995e-04 3.624706005211919546e-04 -4.233489744365215302e-04 1.724657340673729777e-04 -1.262362464331090450e-03 1.740498244762420654e-01 -1.622234471142292023e-03 -5.326175689697265625e-02
