-1.059352725860662758e-04 -1.053146831691265106e-02 3.511004615575075150e-04 6.085158325731754303e-03 4.823065537493675947e-04 -2.358942729188129306e-04 3.737132623791694641e-02 -3.540738252922892570e-03 2.010089717805385590e-02 1.714433729648590088e-02 -1.684082299470901489e-02 -1.475045643746852875e-02 -5.698366439901292324e-04 -6.108997855335474014e-03 -3.318783268332481384e-02 -1.726397685706615448e-02 1.027948930859565735e-01 3.974752966314554214e-03 9.411834180355072021e-03 -1.321808900684118271e-02 1.070744730532169342e-02 5.286200903356075287e-04 1.432106364518404007e-03 1.759120146743953228e-03 -1.001623924821615219e-02 6.983014289289712906e-03 -1.097753774956800044e-04 1.914989948272705078e-02 2.450824948027729988e-03 -1.113122701644897461e-02 1.838971395045518875e-03 5.009281449019908905e-04 1.435097365174442530e-04 5.768158007413148880e-03 -5.663679330609738827e-04 -3.544194896676344797e-06 -4.306142218410968781e-04 1.120403315871953964e-02 -8.799927309155464172e-03 -4.080254957079887390e-02 -1.501976745203137398e-03 -7.984967902302742004e-03 -8.323061279952526093e-03 9.007547982037067413e-03 5.174470716156065464e-04 2.979784971103072166e-03 -4.852071404457092285e-03 -1.193160132970660925e-04 -4.399911314249038696e-02 -1.616546767763793468e-03 -2.365317009389400482e-02 1.381400041282176971e-03 3.766646841540932655e-04 -9.546121000312268734e-04 4.044616071041673422e-04 1.116689090849831700e-04 1.334181404672563076e-03 -1.070767734199762344e-02 2.038943395018577576e-02 -1.146723749116063118e-03 -1.134045608341693878e-02 -1.443076692521572113e-02 1.293129636906087399e-03 8.684163913130760193e-03 -1.530716690467670560e-04 2.412895858287811279e-02 2.722394187003374100e-03 -2.038552192971110344e-03 4.403731145430356264e-04 -8.178125135600566864e-04 -5.733957886695861816e-02 1.320774480700492859e-02 4.508054407779127359e-04 2.877107763197273016e-04 -2.710494212806224823e-02 -4.400877282023429871e-03 2.289352938532829285e-03 -2.578265778720378876e-02 4.281529108993709087e-04 -8.238550275564193726e-03 -1.051163580268621445e-02 5.177833512425422668e-02 -1.723727770149707794e-02 -2.659126184880733490e-04 5.022356286644935608e-03 1.309069804847240448e-02 6.700312369503080845e-04 5.046537145972251892e-02 9.213195298798382282e-04 -5.359252914786338806e-02 1.266897004097700119e-02 -8.070727810263633728e-03 -9.440005524083971977e-04 1.363746542483568192e-02 5.285627557896077633e-04 6.801847484894096851e-05 1.274178270250558853e-03 5.829065339639782906e-04 2.105752239003777504e-03 8.798053488135337830e-03 4.898929968476295471e-03 2.244658098788931966e-04 2.838684013113379478e-03 -3.715880680829286575e-03 2.618245221674442291e-02 1.529250293970108032e-04 -9.254266507923603058e-03 -9.887873195111751556e-03 1.740283914841711521e-03 3.248643362894654274e-03 -6.416256539523601532e-03 9.703820571303367615e-03 -2.766951918601989746e-02 6.605621892958879471e-03 1.978696556761860847e-03 9.223319590091705322e-03 -2.167743397876620293e-03 8.686061017215251923e-03 -1.012612716294825077e-03 1.295602996833622456e-03 -1.403503469191491604e-03 1.237064599990844727e-03 -1.289053121581673622e-03 1.604304835200309753e-02 -6.953664589673280716e-03 -6.690849550068378448e-03 -8.057820610702037811e-03 -1.296455040574073792e-02 -1.243226509541273117e-02 -3.121915459632873535e-02 -2.931695664301514626e-03 -5.955408141016960144e-02 -6.705291569232940674e-03 3.550893743522465229e-04 -6.637255847454071045e-02 3.691785410046577454e-02 -8.368873968720436096e-04 9.032480418682098389e-03 2.521860915294382721e-05 4.695452284067869186e-03 -1.412185747176408768e-02 1.058688620105385780e-03 -3.924447228200733662e-04 5.565699562430381775e-02 -4.439608310349285603e-04 3.412295482121407986e-04 3.785919770598411560e-02 1.260887802345678210e-04 -3.066732315346598625e-04 2.627139911055564880e-03 8.729670662432909012e-04 1.704823970794677734e-02 1.657430664636194706e-03 1.583575829863548279e-02 -8.423984050750732422e-03 8.839894435368478298e-04 8.406332344748079777e-04 4.334101080894470215e-02 5.299363285303115845e-03 -7.650242187082767487e-04 3.091265214607119560e-03 -1.098907832056283951e-02 -8.604980539530515671e-04 -7.741787703707814217e-04 -1.353894639760255814e-02 -1.470236945897340775e-02 3.912867512553930283e-03 -3.337175352498888969e-03 -1.360725844278931618e-03 1.224864739924669266e-02 -5.038580298423767090e-02 -1.669644960202276707e-03 1.002973760478198528e-03 -4.103576764464378357e-02 -1.511248853057622910e-02 1.583002135157585144e-02 2.209834383393172175e-05 -1.663935254327952862e-04 -3.604284720495343208e-04 1.276627648621797562e-02 -7.594401389360427856e-02 -3.342269686982035637e-03 2.495303191244602203e-02 4.909626441076397896e-04 1.328054908663034439e-02 -7.367955520749092102e-03 -1.362606976181268692e-02 4.027410596609115601e-02 1.512375194579362869e-03 1.440946105867624283e-02 1.646967255510389805e-03 1.218408904969692230e-02 -2.991533838212490082e-02 -3.538406745065003633e-04 3.493088297545909882e-04 1.033973880112171173e-03 -2.290288917720317841e-02 -4.293449164833873510e-04 -9.057223796844482422e-04 -1.405614311806857586e-03
2.969866618514060974e-02 1.096778921782970428e-02 2.591767814010381699e-03 2.654337882995605469e-02 6.660471856594085693e-02 2.545470930635929108e-02 1.711842487566173077e-03 -1.643460430204868317e-02 4.577980376780033112e-03 1.693305559456348419e-02 -9.411029517650604248e-03 -1.219376828521490097e-02 5.686869379132986069e-03 -1.404184289276599884e-02 1.536711771041154861e-02 -1.568637788295745850e-02 -3.555061668157577515e-02 3.679759055376052856e-02 4.413048271089792252e-03 1.648843660950660706e-02 -1.475995755754411221e-03 3.312515094876289368e-02 -5.958455614745616913e-03 -1.372333709150552750e-02 2.660813741385936737e-03 -1.662614941596984863e-02 3.373830812051892281e-03 -7.486977428197860718e-02 4.684895742684602737e-03 -2.706721052527427673e-02 3.262029215693473816e-02 -6.219200440682470798e-04 1.407741219736635685e-03 1.477998122572898865e-02 -3.829262033104896545e-02 2.530211815610527992e-03 -1.607326441444456577e-03 6.946523673832416534e-03 8.915898390114307404e-03 -5.837004259228706360e-02 -3.853008523583412170e-02 -6.505304481834173203e-03 -6.507251411676406860e-03 3.960102796554565430e-03 -2.037251181900501251e-02 -4.458449780941009521e-03 -4.067514557391405106e-03 3.587120398879051208e-02 2.270445972681045532e-02 -1.755765452980995178e-02 -1.326814889907836914e-01 1.571146957576274872e-02 -3.177547454833984375e-02 2.681267075240612030e-02 -3.206698969006538391e-02 -5.285167321562767029e-02 -2.835927344858646393e-02 1.454405579715967178e-02 6.064178049564361572e-02 3.881551697850227356e-02 -4.382070619612932205e-03 -1.435849256813526154e-02 -2.921383269131183624e-02 -4.739235155284404755e-03 -3.730288892984390259e-02 3.341047093272209167e-03 1.280694734305143356e-02 2.555820159614086151e-02 3.388337045907974243e-02 -6.023641210049390793e-03 4.454432055354118347e-03 -1.548859011381864548e-02 -1.577247306704521179e-02 -2.235445007681846619e-02 2.859495580196380615e-03 -2.302561886608600616e-02 3.653204813599586487e-02 -4.157495498657226562e-02 3.774224314838647842e-03 6.781626492738723755e-03 2.484780969098210335e-03 1.567197144031524658e-01 1.683137938380241394e-02 4.824352264404296875e-02 -3.806580230593681335e-02 2.331865020096302032e-03 1.438976323697715998e-04 -8.432863652706146240e-02 -4.458405822515487671e-02 1.866622082889080048e-02 9.161250665783882141e-03 -2.600205596536397934e-03 2.262012101709842682e-03 1.929135434329509735e-02 -2.843812573701143265e-03 -3.919281810522079468e-02 -1.666986383497714996e-02 -3.902739286422729492e-02 3.584151342511177063e-02 -1.983295381069183350e-02 -1.680571027100086212e-02 1.967241801321506500e-02 3.876610100269317627e-02 1.601119339466094971e-02 3.874090313911437988e-02 1.058375462889671326e-02 6.154867820441722870e-03 -5.003439262509346008e-03 3.599648177623748779e-02 3.104534931480884552e-03 -7.159628439694643021e-03 5.849184002727270126e-03 2.893141657114028931e-02 -1.616814732551574707e-02 -6.430475506931543350e-03 -4.880554974079132080e-03 -3.027718700468540192e-02 -2.101242542266845703e-02 3.490166564006358385e-04 -1.578420773148536682e-02 2.724470570683479309e-02 -2.949410304427146912e-02 -3.161862865090370178e-02 -2.298480831086635590e-02 -2.413216605782508850e-02 2.094040438532829285e-02 1.040468644350767136e-02 1.903138938359916210e-03 -3.103791270405054092e-03 -2.488882839679718018e-02 -3.711912408471107483e-02 9.976965934038162231e-02 1.482440251857042313e-02 -2.404883503913879395e-03 -8.714502304792404175e-02 -5.848370119929313660e-02 3.729994874447584152e-03 -8.882378228008747101e-03 -6.464716047048568726e-02 -2.702915295958518982e-02 4.827441181987524033e-03 -2.691327966749668121e-02 -6.561841815710067749e-02 3.664330020546913147e-02 -2.261664718389511108e-02 -4.312729090452194214e-02 4.136105999350547791e-02 1.677555032074451447e-02 4.103005677461624146e-02 2.383695356547832489e-02 -4.075785167515277863e-03 -1.307614264078438282e-03 4.846655204892158508e-02 2.240419574081897736e-02 -8.136633783578872681e-03 2.151164691895246506e-03 -1.846396550536155701e-02 2.707411907613277435e-02 1.206111814826726913e-02 2.701693959534168243e-02 -2.877719886600971222e-02 -8.453839458525180817e-03 2.067323587834835052e-02 -4.441488999873399734e-03 1.399395521730184555e-02 4.088509595021605492e-04 -1.213834900408983231e-02 3.015982452780008316e-03 2.900666184723377228e-02 4.712270945310592651e-02 -1.527309715747833252e-01 3.290391713380813599e-02 4.979586228728294373e-02 -2.308635041117668152e-02 -5.144213140010833740e-02 3.634117310866713524e-03 -1.561180251883342862e-04 3.819241188466548920e-03 -4.629616159945726395e-03 1.217945013195276260e-03 8.546066284179687500e-02 3.523510321974754333e-02 1.390257775783538818e-01 -4.176747798919677734e-02 5.092313978821039200e-03 -1.232958305627107620e-02 5.137148872017860413e-02 -7.944010943174362183e-02 -5.034733563661575317e-03 -3.111850819550454617e-04 3.627035021781921387e-02 -1.181691070087254047e-03 -7.621058076620101929e-02 1.438683085143566132e-02 -3.408236196264624596e-03 -2.409520931541919708e-02 -9.185465984046459198e-03 -2.422888390719890594e-02 5.802589282393455505e-02 4.467557370662689209e-02
2.477558329701423645e-02 1.193772186525166035e-03 3.056499408558011055e-03 -2.168132178485393524e-02 -2.516324259340763092e-02 -2.174789272248744965e-02 -2.949153073132038116e-02 -1.018541748635470867e-03 -7.790698437020182610e-04 2.614909783005714417e-02 -1.490612979978322983e-02 -1.319153141230344772e-02 1.856618933379650116e-02 -7.368804072029888630e-04 -1.353465253487229347e-03 -1.760109513998031616e-02 -5.134216323494911194e-02 -4.668424371629953384e-03 5.170755088329315186e-03 1.507308147847652435e-02 8.841480128467082977e-03 -4.916132427752017975e-03 -1.336086657829582691e-03 1.347680110484361649e-03 -7.229203823953866959e-03 5.145480390638113022e-03 -1.706827548332512379e-03 5.312564596533775330e-02 6.751096807420253754e-03 9.857475757598876953e-03 6.665688473731279373e-03 1.297602546401321888e-03 4.532173043116927147e-04 5.867709871381521225e-03 -1.755186542868614197e-02 -1.165465946542099118e-04 7.559606456197798252e-04 7.392825093120336533e-03 -4.869700409471988678e-03 3.029297478497028351e-02 1.640558429062366486e-02 -6.398006808012723923e-03 -4.857980646193027496e-03 6.635351572185754776e-03 2.418678998947143555e-02 2.190490812063217163e-02 -9.903938509523868561e-03 1.179644558578729630e-02 -3.633086383342742920e-02 -1.523074577562510967e-03 -7.979452610015869141e-02 -1.522806938737630844e-02 3.400392364710569382e-03 -9.401847608387470245e-03 -1.900007762014865875e-02 -2.180831972509622574e-03 -1.245592068880796432e-02 -5.438713356852531433e-03 6.183673441410064697e-02 6.704802159219980240e-03 -8.731236681342124939e-03 -1.077303476631641388e-02 -8.684821426868438721e-03 2.538082888349890709e-03 -4.172620922327041626e-02 2.363657206296920776e-02 1.985847763717174530e-02 1.572872884571552277e-02 -4.699749406427145004e-03 2.554799616336822510e-02 -2.527319127693772316e-03 1.195612363517284393e-02 -2.801267197355628014e-03 -3.110759891569614410e-02 -2.047065272927284241e-02 -1.578481867909431458e-02 -1.109327003359794617e-02 -3.604656457901000977e-02 1.214351621456444263e-03 -3.665423952043056488e-03 -4.158459603786468506e-03 -3.098254092037677765e-02 -1.656013913452625275e-02 3.882810845971107483e-02 3.403566312044858932e-03 9.825200773775577545e-03 -1.829553366405889392e-04 6.612363457679748535e-02 1.319237053394317627e-03 2.681309357285499573e-02 9.079632349312305450e-03 -5.475884303450584412e-03 -1.722525991499423981e-02 8.949763141572475433e-03 4.324597248341888189e-04 2.121142111718654633e-02 5.395688582211732864e-03 -2.374823577702045441e-02 5.180915351957082748e-03 7.048392668366432190e-03 -1.310546882450580597e-03 -2.152793854475021362e-02 -6.941600237041711807e-03 -6.429804489016532898e-03 5.953800678253173828e-02 2.788997080642729998e-04 -7.465481758117675781e-03 -4.102450795471668243e-03 4.478425835259258747e-04 -2.175581641495227814e-03 -5.173690151423215866e-03 -9.644163772463798523e-03 -3.061481192708015442e-02 8.340430445969104767e-03 -2.266721799969673157e-02 6.698960904031991959e-03 1.470023486763238907e-02 -1.286886911839246750e-02 7.137876673368737102e-05 3.343513817526400089e-04 -2.875993400812149048e-02 8.213323540985584259e-03 2.778474939987063408e-03 1.126205455511808395e-02 -8.807341146166436374e-06 -5.002501234412193298e-02 -6.922003813087940216e-03 6.204016972333192825e-04 -3.768861759454011917e-03 2.790055237710475922e-02 1.011656969785690308e-02 -7.787785679101943970e-02 -1.023182831704616547e-02 -1.429027470294386148e-04 1.243604114279150963e-03 2.849913202226161957e-02 -8.110686321742832661e-04 6.762282922863960266e-03 -1.847761566750705242e-03 6.551132537424564362e-03 -9.005926549434661865e-03 6.835834123194217682e-03 2.261576475575566292e-03 6.336137652397155762e-02 5.320957675576210022e-02 3.831538371741771698e-03 -8.511069416999816895e-02 -2.046237327158451080e-02 3.023120760917663574e-02 3.151269920635968447e-04 -5.232914118096232414e-04 1.945937238633632660e-02 -6.512683350592851639e-03 1.212847232818603516e-02 -1.134550105780363083e-02 -8.207233622670173645e-04 -1.798111386597156525e-02 7.328735664486885071e-03 8.686711662448942661e-04 1.910412311553955078e-02 -1.848714798688888550e-02 3.110774978995323181e-02 5.862640682607889175e-03 2.882822183892130852e-03 -1.219266280531883240e-02 2.057976089417934418e-03 1.930913329124450684e-02 -2.475977502763271332e-02 2.871248498558998108e-02 -2.025019563734531403e-02 3.033454716205596924e-02 -7.173650083132088184e-04 -5.535295698791742325e-03 4.031832516193389893e-02 -2.061214670538902283e-02 1.549326907843351364e-02 -7.900485070422291756e-04 2.781950461212545633e-04 -6.983312778174877167e-03 -3.063308773562312126e-03 8.514071255922317505e-02 5.396645516157150269e-03 8.396705985069274902e-02 -1.755502074956893921e-03 2.363099018111824989e-03 -5.300435703247785568e-03 -1.024443283677101135e-02 -5.076829716563224792e-02 -5.418919026851654053e-03 5.185739137232303619e-03 1.179508217319380492e-05 6.149522028863430023e-03 -9.977123700082302094e-03 2.894463483244180679e-03 -9.325610590167343616e-04 -8.546140976250171661e-03 -1.753386296331882477e-02 2.010408416390419006e-02 -2.072773687541484833e-02 1.084003876894712448e-02
8.002505637705326080e-03 -1.203020475804805756e-02 -9.738072403706610203e-04 -4.998296871781349182e-02 -5.033994838595390320e-02 4.711315501481294632e-03 1.790459081530570984e-02 7.833672687411308289e-03 -7.423509657382965088e-02 -7.730304449796676636e-02 2.110554603859782219e-03 8.251227700384333730e-05 -3.795869648456573486e-02 -2.805038914084434509e-02 7.810319960117340088e-02 4.144665785133838654e-03 -1.910071074962615967e-02 2.174768783152103424e-02 -7.336678449064493179e-03 -2.185028605163097382e-02 3.738839412108063698e-03 3.564383462071418762e-02 4.409749992191791534e-03 5.754029843956232071e-03 -3.873388515785336494e-03 8.426509797573089600e-03 1.730278320610523224e-02 7.585348933935165405e-02 1.153036393225193024e-02 -1.371829025447368622e-02 2.726791426539421082e-02 -3.457646816968917847e-04 -4.034199519082903862e-04 1.178751816041767597e-03 -5.376921221613883972e-02 -4.669818561524152756e-03 -1.079320136341266334e-04 1.160320825874805450e-03 -6.139564793556928635e-03 4.737208411097526550e-02 -3.921347856521606445e-02 1.276245922781527042e-03 6.454389076679944992e-04 5.599754877039231360e-05 2.298989333212375641e-02 1.089135557413101196e-02 -5.453040357679128647e-04 -2.800989709794521332e-02 -8.428241126239299774e-03 8.239165879786014557e-03 7.668647170066833496e-02 -1.945568248629570007e-02 -4.194595664739608765e-02 -2.831443957984447479e-02 -3.888808563351631165e-02 4.663329455070197582e-04 2.671753615140914917e-02 -7.391763851046562195e-03 4.006749019026756287e-02 1.568274945020675659e-02 2.969851018860936165e-03 7.228846661746501923e-03 3.975820913910865784e-02 6.139835808426141739e-03 -2.452724426984786987e-02 2.444992400705814362e-02 1.052418444305658340e-02 7.282354403287172318e-03 -3.238702192902565002e-02 1.317628193646669388e-02 -5.380286276340484619e-02 2.189285820350050926e-03 -4.361641476862132549e-04 1.227798219770193100e-02 7.062818040139973164e-04 5.525807384401559830e-03 -6.076931022107601166e-03 -4.195854812860488892e-02 -5.353651940822601318e-03 -4.992261994630098343e-03 -4.533110652118921280e-03 1.095375567674636841e-01 -1.853898749686777592e-03 3.199060633778572083e-02 1.490528974682092667e-02 -8.260366506874561310e-03 -6.376230739988386631e-04 -6.334795802831649780e-02 -4.207271710038185120e-02 1.004530116915702820e-02 -1.360518799629062414e-04 1.121419598348438740e-03 3.522676229476928711e-02 -8.952574804425239563e-03 -1.240661367774009705e-03 -4.037374630570411682e-02 -3.745424374938011169e-02 4.214202240109443665e-02 -2.066971734166145325e-02 4.973969887942075729e-03 1.225519645959138870e-02 2.174123562872409821e-02 5.070936866104602814e-03 1.246212865225970745e-03 2.798728458583354950e-02 -2.813830273225903511e-03 1.487213768996298313e-03 5.889980588108301163e-03 -2.012213319540023804e-02 -1.514242962002754211e-02 8.751422166824340820e-03 5.059740971773862839e-03 4.401324782520532608e-03 5.808672867715358734e-03 -2.136667445302009583e-02 -1.154435332864522934e-03 -4.327098280191421509e-02 -1.618112996220588684e-02 1.460453844629228115e-03 -5.348957143723964691e-03 3.404734656214714050e-02 -4.474672302603721619e-02 1.197169534862041473e-02 -3.167699556797742844e-03 -8.573905564844608307e-03 -5.336293205618858337e-02 -3.463469911366701126e-03 8.439748547971248627e-03 1.468592905439436436e-03 8.004092425107955933e-02 4.672844428569078445e-03 7.491157948970794678e-02 -6.565344054251909256e-03 6.692029535770416260e-03 6.630221754312515259e-02 3.782484307885169983e-02 -2.738150767982006073e-02 2.637618454173207283e-03 -9.364685975015163422e-03 1.733601093292236328e-02 -4.453865345567464828e-03 4.524927213788032532e-02 -8.958274498581886292e-03 3.305339068174362183e-02 2.811183780431747437e-02 -7.848755456507205963e-03 -3.810297325253486633e-02 2.307081595063209534e-02 2.704609744250774384e-02 -1.448307838290929794e-02 1.954821636900305748e-03 -6.625116802752017975e-04 -5.070120468735694885e-02 -4.426765954121947289e-04 4.719134594779461622e-04 -1.610040664672851562e-03 2.804722450673580170e-02 2.447452582418918610e-02 2.396981418132781982e-02 -1.437814440578222275e-02 -4.230001568794250488e-02 4.657173994928598404e-03 -1.655408553779125214e-02 1.447933609597384930e-03 -5.365835037082433701e-03 1.464036293327808380e-02 6.223203614354133606e-03 3.626355528831481934e-02 2.218545787036418915e-02 -5.599803477525711060e-02 -1.068365797400474548e-01 -3.968954458832740784e-02 -3.115200437605381012e-02 -2.762376703321933746e-02 6.949485093355178833e-02 -4.231409693602472544e-04 4.510895232670009136e-04 -1.446648617275059223e-03 -3.314223513007164001e-02 -2.710331231355667114e-03 4.031911119818687439e-02 -1.861958950757980347e-02 -8.045827597379684448e-02 -2.964647114276885986e-02 5.666452925652265549e-03 6.751844193786382675e-03 1.559646241366863251e-02 5.112370848655700684e-02 -3.331417590379714966e-02 -7.940063253045082092e-03 -4.194693639874458313e-02 -6.534744054079055786e-03 -6.601414829492568970e-02 -1.064553670585155487e-02 3.740173997357487679e-03 -2.814755216240882874e-02 6.626362912356853485e-03 4.810523241758346558e-02 -4.300442337989807129e-02 -4.442273825407028198e-02
-2.498565241694450378e-03 9.194199810735881329e-04 -6.968346238136291504e-02 4.599598050117492676e-02 -2.402493730187416077e-03 1.375287421979010105e-03 -5.819281097501516342e-03 7.142666727304458618e-04 -1.527576427906751633e-02 2.807602472603321075e-02 9.511568932794034481e-04 1.340849674306809902e-03 9.806099114939570427e-04 2.404201626777648926e-01 -3.759509127121418715e-04 7.685463060624897480e-04 7.694558054208755493e-02 2.139045624062418938e-03 -1.488255336880683899e-03 6.932715326547622681e-02 -1.287002000026404858e-03 1.766309514641761780e-02 6.445135455578565598e-03 6.881845183670520782e-05 -2.654635172802954912e-04 -3.283021505922079086e-04 4.449230432510375977e-02 1.479541063308715820e-01 3.266608715057373047e-01 1.582559314556419849e-03 -2.067708846880123019e-04 4.904886707663536072e-02 4.201089218258857727e-02 -6.358325481414794922e-04 -6.195575697347521782e-04 -5.307476385496556759e-04 5.162734165787696838e-02 -1.718580839224159718e-03 1.277683302760124207e-03 -3.139287233352661133e-02 3.672463062684983015e-04 1.430466771125793457e-03 3.559124597813934088e-04 -4.445357189979404211e-04 6.964968051761388779e-04 -7.959601934999227524e-04 -8.307522162795066833e-03 7.096712361089885235e-04 8.391694165766239166e-03 -3.941106551792472601e-04 -1.378101110458374023e-01 3.070338570978492498e-04 1.617986825294792652e-03 1.540248631499707699e-03 -1.781614497303962708e-03 -1.675547449849545956e-03 -7.199737592600286007e-04 -6.568687967956066132e-05 4.661997035145759583e-02 -1.856092712841928005e-04 4.575643688440322876e-04 1.554563937133934814e-06 1.040457282215356827e-03 2.658911107573658228e-04 4.099426150787621737e-04 -1.367705059237778187e-03 -1.132611650973558426e-03 -5.972434300929307938e-04 3.033350221812725067e-04 8.392389281652867794e-04 5.632170289754867554e-02 -8.207607315853238106e-04 1.858725771307945251e-02 -4.317546728998422623e-03 -2.134896931238472462e-04 8.940515108406543732e-04 -2.991231158375740051e-03 7.601149845868349075e-03 5.459172651171684265e-03 2.101243590004742146e-04 7.640835829079151154e-04 -5.334659945219755173e-03 1.515087787993252277e-03 -1.415894512319937348e-04 1.911037019453942776e-03 -1.070092781446874142e-03 -6.022673100233078003e-02 -8.198440074920654297e-03 1.880025723949074745e-03 -4.026587679982185364e-02 1.479101716540753841e-03 2.779625356197357178e-03 -1.512589806225150824e-04 -9.463488822802901268e-05 -2.445722930133342743e-02 -6.076500867493450642e-04 1.372301718220114708e-03 -9.592261048965156078e-04 -1.839460572227835655e-03 -8.592439698986709118e-04 -4.012275312561541796e-04 -3.467607311904430389e-04 -8.028956945054233074e-04 4.314756661187857389e-04 9.228239953517913818e-02 1.812860369682312012e-02 1.734269317239522934e-03 1.184189808554947376e-03 1.561834505992010236e-04 -1.658930778503417969e-01 1.462898566387593746e-03 1.183015177957713604e-03 1.378341671079397202e-02 -2.365508116781711578e-04 3.638067981228232384e-03 -9.253367898054420948e-04 -1.197955316456500441e-05 -1.835087081417441368e-03 -3.533223643898963928e-02 1.662329137325286865e-01 -4.954831092618405819e-04 -4.855230799876153469e-04 -1.077133114449679852e-03 1.980088272830471396e-04 2.078444929793477058e-03 6.282080709934234619e-02 2.954589435830712318e-04 1.026524114422500134e-04 8.236326975747942924e-04 4.112028330564498901e-02 -9.058964205905795097e-04 9.687007404863834381e-03 4.008933319710195065e-04 1.594629585742950439e-01 -1.970050483942031860e-02 -2.919550240039825439e-02 -2.604437470436096191e-01 -2.696286421269178391e-03 -1.701241126284003258e-03 4.551399033516645432e-04 1.797172706574201584e-03 -7.465358794433996081e-05 -3.485249762888997793e-04 -1.390549540519714355e-01 -2.452731132507324219e-04 2.715560840442776680e-03 1.988405734300613403e-01 -1.585137448273599148e-03 1.181728322990238667e-03 -1.330217695794999599e-03 -3.499851748347282410e-02 -1.659226487390697002e-03 9.463435271754860878e-04 8.564533200114965439e-04 2.570892684161663055e-03 5.934019386768341064e-02 4.416699812281876802e-04 -1.101901289075613022e-02 -2.048300951719284058e-01 -1.038604183122515678e-03 -1.126529881730675697e-03 -1.292057335376739502e-03 1.187254325486719608e-03 4.154124483466148376e-02 1.707647577859461308e-03 1.496154465712606907e-03 -2.306376351043581963e-03 -1.164956577122211456e-02 4.825093201361596584e-04 -2.742432951927185059e-01 5.287257023155689240e-03 2.033447846770286560e-03 -1.013509230688214302e-03 -3.259740769863128662e-02 4.290951881557703018e-03 -8.019487722776830196e-04 -5.982890725135803223e-02 -3.283666074275970459e-02 1.973276492208242416e-03 -4.195780784357339144e-04 -1.396184414625167847e-01 7.163519621826708317e-04 1.448458433151245117e-01 -1.194913988001644611e-03 -2.826366398949176073e-04 6.543222698383033276e-04 2.817004919052124023e-03 -1.331052482128143311e-01 5.676732212305068970e-02 -2.067708643153309822e-03 -4.012150224298238754e-03 -1.866006874479353428e-03 -6.913374643772840500e-03 5.186994676478207111e-04 -3.685452789068222046e-02 -5.145745817571878433e-04 1.228657551109790802e-03 -2.076306380331516266e-03 6.728544249199330807e-04 1.580445532454177737e-04
1.441752770915627480e-03 -1.896552974358201027e-03 1.255843192338943481e-01 2.198533155024051666e-02 -1.700396183878183365e-03 6.371126510202884674e-04 -9.940447658300399780e-02 2.653389703482389450e-03 -5.235229432582855225e-02 -4.307382926344871521e-02 9.420840069651603699e-04 1.009009778499603271e-03 -2.265040297061204910e-03 1.965126693248748779e-01 -4.820831120014190674e-02 -3.431945515330880880e-05 -1.460989844053983688e-02 -8.541174465790390968e-04 2.048471244052052498e-03 -8.403439074754714966e-03 9.516671998426318169e-04 2.505619078874588013e-02 7.560868561267852783e-02 3.564012004062533379e-04 -7.905879174359142780e-04 9.845877066254615784e-04 -8.924192190170288086e-02 -6.124256551265716553e-02 -5.397131294012069702e-02 1.008559134788811207e-03 6.797799374908208847e-03 -8.052699267864227295e-02 7.117818295955657959e-02 7.432088023051619530e-04 -6.692600902169942856e-03 8.349229395389556885e-02 -7.703428715467453003e-02 1.033616717904806137e-03 5.070816841907799244e-04 -4.098466783761978149e-02 1.128866337239742279e-03 1.133483950980007648e-03 1.418941101292148232e-04 -6.531167309731245041e-05 -3.051863750442862511e-03 4.345294553786516190e-03 7.912558503448963165e-03 -2.923329360783100128e-03 -8.290901780128479004e-03 1.989590935409069061e-03 8.811601251363754272e-02 -1.400235691107809544e-03 3.525454958435148001e-04 -1.743447035551071167e-03 1.625129370950162411e-03 2.283415960846468806e-04 -6.271804886637255549e-05 -1.468452159315347672e-03 3.809408470988273621e-02 2.052045660093426704e-03 1.625267555937170982e-03 1.338806934654712677e-03 -1.220401900354772806e-04 1.376942964270710945e-03 -2.224988769739866257e-03 4.290249664336442947e-03 -5.680239759385585785e-03 -4.117337986826896667e-03 -4.543301649391651154e-03 -5.014742782805114985e-05 3.016587719321250916e-02 2.273468766361474991e-03 4.665349051356315613e-02 1.912017003633081913e-03 2.996783005073666573e-03 1.214500167407095432e-03 -2.114647999405860901e-03 -3.463842719793319702e-02 -1.085680127143859863e-01 7.757756975479424000e-06 -1.379596214974299073e-04 1.109214425086975098e-01 6.637804908677935600e-04 2.714727772399783134e-03 1.057837740518152714e-03 3.537487646099179983e-04 -9.490165114402770996e-02 1.218939349055290222e-01 -7.023648824542760849e-03 7.275294978171586990e-03 -8.776893955655395985e-04 -1.168258604593575001e-03 -3.566071856766939163e-03 -2.072642091661691666e-03 -5.125809833407402039e-02 7.415375148411840200e-05 1.106040668673813343e-03 2.835972467437386513e-03 -2.412110625300556421e-04 1.725025242194533348e-03 4.847136442549526691e-04 1.025997218675911427e-03 3.147266572341322899e-03 3.959808382205665112e-04 -2.127963490784168243e-02 -2.117815054953098297e-02 2.214333042502403259e-03 9.421962313354015350e-04 -3.711975645273923874e-03 -5.503869056701660156e-01 1.931299106217920780e-03 7.929519051685929298e-04 2.845757873728871346e-03 7.005768711678683758e-04 -1.272984500974416733e-02 -6.471055676229298115e-04 -3.574762726202607155e-03 1.332230283878743649e-03 3.303666710853576660e-01 -2.272979915142059326e-01 2.076434793707448989e-05 5.531582515686750412e-03 -2.714159199967980385e-03 -1.397424377501010895e-03 8.279012981802225113e-04 -8.283202350139617920e-02 -5.583253805525600910e-04 3.327124286442995071e-03 -1.036484900396317244e-05 -1.362982839345932007e-01 2.614077238831669092e-04 -1.437935829162597656e-01 -7.791236857883632183e-04 1.800237447023391724e-01 2.962825000286102295e-01 -1.692392677068710327e-02 2.108471989631652832e-01 1.542146434076130390e-03 1.245794410351663828e-04 1.887793885543942451e-03 -1.622013980522751808e-03 4.345474299043416977e-03 4.536517662927508354e-04 5.457431450486183167e-02 -9.175355546176433563e-03 3.169353120028972626e-03 6.898257881402969360e-02 1.252569025382399559e-03 4.689922556281089783e-03 -4.321595188230276108e-03 5.426423251628875732e-02 2.988405758515000343e-03 -4.085429012775421143e-03 5.006734281778335571e-04 -5.151404766365885735e-04 9.351266920566558838e-02 -3.004164318554103374e-04 3.394066588953137398e-04 -1.668161004781723022e-01 -7.446167059242725372e-03 -1.158747472800314426e-03 -2.357451448915526271e-04 -3.204675158485770226e-03 4.301461949944496155e-02 -1.880054594948887825e-03 2.004891401156783104e-03 1.932654413394629955e-03 -1.656834967434406281e-02 -1.525799511000514030e-03 2.615003585815429688e-01 -1.079881936311721802e-01 4.446258826646953821e-04 -3.096550935879349709e-03 6.074398756027221680e-03 4.128476604819297791e-02 -1.258859760127961636e-03 -1.022058203816413879e-01 5.807397514581680298e-02 -1.627489808015525341e-03 -1.766813220456242561e-04 -1.956672966480255127e-02 6.215066969161853194e-05 -9.269464015960693359e-02 -2.396260155364871025e-03 2.012636978179216385e-03 2.117383992299437523e-03 1.104298606514930725e-02 -3.610534965991973877e-02 9.286029636859893799e-02 -4.135530907660722733e-04 6.140759796835482121e-04 2.965915715321898460e-03 8.878765255212783813e-02 -7.614690111950039864e-04 4.025939106941223145e-02 2.685867715626955032e-03 1.541919773444533348e-04 -4.875768441706895828e-03 -5.907284095883369446e-03 -6.629999261349439621e-04
-3.654276079032570124e-04 8.601169975008815527e-05 -8.375819306820631027e-04 8.334618993103504181e-03 -2.120651042787358165e-04 3.040754527319222689e-04 4.943037778139114380e-02 1.102860842365771532e-04 -1.415990144014358521e-01 4.772903770208358765e-02 1.111519406549632549e-03 9.549393435008823872e-04 3.660943766590207815e-04 -1.388912200927734375e-01 5.436559394001960754e-02 1.351745566353201866e-03 5.235405266284942627e-02 -1.351910614175722003e-04 -5.186812486499547958e-04 -2.458319216966629028e-01 -1.092483173124492168e-03 9.332688059657812119e-04 7.048547267913818359e-02 1.108024662244133651e-04 5.865437560714781284e-04 5.460959437186829746e-05 1.720371693372726440e-01 -6.609129905700683594e-02 9.430715441703796387e-02 2.545129973441362381e-04 -8.938385144574567676e-05 1.257308904314413667e-04 1.522244201623834670e-05 -4.006556409876793623e-04 -6.327790470095351338e-05 -1.240999699803069234e-04 3.076122957281768322e-04 -7.113931933417916298e-04 9.136510780081152916e-04 1.093828212469816208e-02 -1.632100465940311551e-04 2.395132323727011681e-04 1.486601286160293967e-05 -6.264171679504215717e-04 1.260548015125095844e-04 -7.661583949811756611e-04 -1.611079205758869648e-04 1.520346995675936341e-04 1.788641675375401974e-03 -9.247676644008606672e-05 -4.447179287672042847e-02 1.969256845768541098e-05 5.031940236221998930e-05 -4.454635200090706348e-04 5.627047357847914100e-05 -6.275111809372901917e-05 -2.649003581609576941e-04 4.577622748911380768e-04 6.502481549978256226e-02 -1.870944834081456065e-05 5.383708412409760058e-05 6.021876470185816288e-04 3.607964899856597185e-04 -3.601088246796280146e-04 -5.614010660792700946e-05 -1.171960611827671528e-03 -2.864713314920663834e-04 -4.483017983147874475e-05 -1.400584878865629435e-04 3.356828819960355759e-04 -1.773189567029476166e-02 -5.591919762082397938e-04 -1.052216626703739166e-03 1.414550060871988535e-04 1.053539337590336800e-03 1.519636425655335188e-04 1.667402393650263548e-04 -5.838618613779544830e-03 -9.425282769370824099e-05 2.006779977818951011e-04 5.151186487637460232e-04 -1.787832677364349365e-01 1.314069260843098164e-03 -1.637563400436192751e-06 -1.559229276608675718e-04 -6.316244252957403660e-04 -3.393762744963169098e-04 -3.558688610792160034e-02 -8.094981603790074587e-05 -2.740394324064254761e-02 1.581748801982030272e-04 1.205726875923573971e-03 -3.646225086413323879e-04 -4.669229674618691206e-04 -3.877228009514510632e-04 2.207044017268344760e-04 -7.137723150663077831e-05 -4.846540832659229636e-05 1.572704786667600274e-04 -5.191552336327731609e-04 -2.969070046674460173e-04 -1.303375902352854609e-04 1.365360276395222172e-05 3.377946268301457167e-04 -8.409614674746990204e-03 2.508647448848932981e-04 7.251927745528519154e-04 7.593127083964645863e-04 2.999949501827359200e-04 -9.838093072175979614e-02 4.411595000419765711e-04 -1.764507323969155550e-04 -4.304259642958641052e-02 -5.510956907528452575e-05 5.995343672111630440e-04 -3.887516795657575130e-04 1.736597623676061630e-04 -5.905743455514311790e-04 3.816397860646247864e-02 -9.991722553968429565e-02 -1.002505377982743084e-04 -7.413874118356034160e-05 -1.722165907267481089e-04 -5.107923643663525581e-04 6.915138219483196735e-04 1.182736158370971680e-01 1.720678665151353925e-05 2.087010652758181095e-04 3.620509523898363113e-04 1.735159903764724731e-01 -1.339392329100519419e-04 4.208074882626533508e-02 3.409933706279844046e-04 2.369758933782577515e-01 -2.021288275718688965e-01 -1.583451032638549805e-01 -2.023663520812988281e-01 -1.301278709433972836e-03 -1.786166540114209056e-04 -1.923864474520087242e-04 1.459010411053895950e-03 -7.462764915544539690e-05 -1.570085004232169013e-07 1.246525272727012634e-01 -2.087098982883617282e-04 1.828398380894213915e-04 -2.264832705259323120e-01 -9.014321403810754418e-05 1.477909681852906942e-04 -5.310144042596220970e-04 2.610380470287054777e-04 -1.099573448300361633e-03 1.174920907942578197e-04 9.098185546463355422e-05 1.390875549986958504e-03 3.629356069723144174e-05 6.055407357052899897e-05 -6.834090501070022583e-02 1.184254884719848633e-01 7.961570372572168708e-05 -4.125098348595201969e-04 -6.152219430077821016e-05 2.229033125331625342e-04 5.951561033725738525e-04 1.063098548911511898e-03 9.714047773741185665e-04 -1.370704849250614643e-04 5.216620862483978271e-02 1.387633674312382936e-04 2.370047122240066528e-01 1.743784248828887939e-01 -2.506653072487097234e-05 -4.139916854910552502e-04 1.235900126630440354e-04 5.742175504565238953e-02 -6.497360882349312305e-04 5.717867315979674459e-05 1.359274319838732481e-04 1.649003388592973351e-04 3.226780681870877743e-04 -2.781752729788422585e-03 1.563502592034637928e-04 4.671509563922882080e-02 -1.598635572008788586e-04 -8.128817717079073191e-05 3.116008301731199026e-04 2.717173844575881958e-02 1.581981629133224487e-01 2.303372919559478760e-01 -1.177105121314525604e-03 -3.034614492207765579e-04 -5.172413075342774391e-04 4.471320286393165588e-02 8.464289712719619274e-04 -4.161457763984799385e-05 2.469849423505365849e-04 7.603752892464399338e-04 9.149391553364694118e-05 2.983179874718189240e-04 1.481363724451512098e-04
