-4.756346344947814941e-02
-3.299614489078521729e-01
-4.152337014675140381e-01
2.727460861206054688e-01
-7.180011272430419922e-01
-6.222472786903381348e-01
-3.014369904994964600e-01
-2.005486637353897095e-01
-7.331063151359558105e-01
4.846311360597610474e-02
-3.354983925819396973e-01
2.232763916254043579e-01
-4.763818979263305664e-01
-1.866578161716461182e-01
5.008000880479812622e-02
-3.224852681159973145e-01
-5.650759115815162659e-02
-4.640746414661407471e-01
4.855694472789764404e-01
-5.255466103553771973e-01
1.350514143705368042e-01
1.134234219789505005e-01
-8.860987424850463867e-01
9.144192188978195190e-02
4.272300601005554199e-01
2.550661265850067139e-01
-2.449418604373931885e-01
1.912111788988113403e-02
5.236290395259857178e-02
-4.029299616813659668e-01
5.212179422378540039e-01
3.446968197822570801e-01
-5.315772071480751038e-02
-9.310910850763320923e-02
1.452509313821792603e-01
-5.364744737744331360e-02
-5.468790605664253235e-02
3.378785550594329834e-01
-9.449800848960876465e-01
-6.832981854677200317e-02
-2.096411585807800293e-01
4.746714532375335693e-01
4.339371919631958008e-01
-1.425549387931823730e-01
2.035702317953109741e-01
-1.605626791715621948e-01
4.508244097232818604e-01
1.500646173954010010e-01
-5.570679903030395508e-01
-6.884704530239105225e-02
-2.321988493204116821e-01
-2.244967222213745117e-01
9.077268838882446289e-02
-6.981016397476196289e-01
8.852473646402359009e-02
6.894018733873963356e-04
1.704408824443817139e-01
4.862799495458602905e-02
2.167188376188278198e-01
-2.100725769996643066e-01
-4.280030131340026855e-01
-4.914646968245506287e-02
5.316824093461036682e-02
-1.104625836014747620e-01
-1.177286982536315918e+00
1.160317212343215942e-01
-2.266494929790496826e-01
-4.438190534710884094e-02
2.620146870613098145e-01
-3.284187316894531250e-01
-2.007507979869842529e-01
5.552533268928527832e-02
3.404621183872222900e-01
-1.064161676913499832e-02
-6.357905268669128418e-01
-1.180255413055419922e-01
-1.293542534112930298e-01
-9.266655445098876953e-01
-8.033940196037292480e-02
-6.643877625465393066e-01
-2.856467068195343018e-01
3.798567354679107666e-01
-9.369474649429321289e-01
-1.506074070930480957e-01
5.066344738006591797e-01
2.584702894091606140e-02
5.709069222211837769e-02
1.311651058495044708e-02
-1.558134257793426514e-01
7.965333759784698486e-02
3.888552188873291016e-01
-1.814474910497665405e-02
-1.465121507644653320e-01
-2.879521250724792480e-01
1.071333140134811401e-01
8.296288549900054932e-02
-2.230554074048995972e-02
-2.887735366821289062e-01
-1.847114115953445435e-01
1.037528812885284424e-01
