1.599879413843154907e-01 -1.217855438590049744e-01 9.807842969894409180e-02 2.978843264281749725e-02 3.705681487917900085e-02 -2.834376692771911621e-02 2.070239186286926270e-01 -5.380694568157196045e-02 4.665483161807060242e-02 -6.825430691242218018e-02 -2.798909246921539307e-01 -2.388781309127807617e-02 3.088647313416004181e-02 4.777253791689872742e-02 -5.121883377432823181e-02 1.028520427644252777e-02 1.761345565319061279e-02 -5.717418342828750610e-02 9.301949292421340942e-02 8.354744315147399902e-02 2.959315180778503418e-01 -1.126829013228416443e-01 -8.730491995811462402e-02 6.410699337720870972e-02 -9.485272318124771118e-02 -8.444128185510635376e-02 3.803228214383125305e-02 -1.078042760491371155e-01 -7.468402385711669922e-03 3.974534943699836731e-02 6.146226450800895691e-02 7.382395118474960327e-02 -1.022788658738136292e-01 7.584794610738754272e-02 1.500444561243057251e-01 4.632505401968955994e-02 -2.316603809595108032e-02 -2.775420621037483215e-02 -1.807718276977539062e-01 -6.415129452943801880e-02 8.751528710126876831e-02 -2.494930848479270935e-02 -4.647638183087110519e-03 1.935747638344764709e-02 -1.389793772250413895e-02 7.818941026926040649e-03 -1.378641743212938309e-02 -4.261227324604988098e-02 2.204138487577438354e-01 1.108894273638725281e-01 6.477136164903640747e-02 1.244191732257604599e-02 -9.710533916950225830e-02 4.032777156680822372e-03 5.708722770214080811e-02 1.004891246557235718e-01 3.982150554656982422e-02 5.268680676817893982e-02 1.666022092103958130e-01 -1.201618313789367676e-01 -1.057380158454179764e-02 -1.026914343237876892e-01 2.601702213287353516e-01 6.331320852041244507e-03 -6.641133874654769897e-02 6.462868303060531616e-02 -8.865965157747268677e-02 1.151056885719299316e-01 1.311012059450149536e-01 -4.043597355484962463e-02
1.140336878597736359e-02 -2.665572240948677063e-02 2.678270041942596436e-01 -4.406228289008140564e-02 -6.284601986408233643e-02 5.106336250901222229e-02 1.999250203371047974e-01 1.372424513101577759e-02 7.804227620363235474e-02 -5.613353475928306580e-02 -1.144198924303054810e-01 1.061270311474800110e-01 -2.017703652381896973e-02 1.246632356196641922e-02 -6.616625189781188965e-02 1.812409050762653351e-02 2.960972785949707031e-01 4.636143147945404053e-02 -1.900625042617321014e-02 -2.814786508679389954e-02 1.548175662755966187e-01 1.352274268865585327e-01 -7.900296151638031006e-02 6.096481531858444214e-02 9.910392016172409058e-02 -5.204930156469345093e-02 5.527637153863906860e-02 2.569917589426040649e-02 8.255971968173980713e-02 1.380673199892044067e-01 2.394222021102905273e-01 5.539894849061965942e-02 -8.883737958967685699e-03 -2.521928399801254272e-02 1.814053207635879517e-01 1.901680417358875275e-02 5.225742980837821960e-02 3.625604324042797089e-03 -7.718858867883682251e-02 -1.027092039585113525e-01 -2.132655680179595947e-02 -2.658631652593612671e-02 2.896523289382457733e-02 3.271225839853286743e-02 1.753118783235549927e-01 2.350294440984725952e-01 -1.364875398576259613e-02 -3.709157183766365051e-02 2.529780864715576172e-01 4.129117354750633240e-02 -8.766599744558334351e-02 4.176885262131690979e-02 2.859560213983058929e-02 7.133075594902038574e-02 2.281240187585353851e-02 -4.635982587933540344e-02 -5.613742023706436157e-02 -1.629768162965774536e-01 2.361007630825042725e-01 -2.920695245265960693e-01 9.150631725788116455e-02 3.852191939949989319e-02 2.689330279827117920e-01 -2.095270454883575439e-01 3.445748612284660339e-02 -5.040515959262847900e-02 7.711456716060638428e-02 -2.122964709997177124e-02 -3.593185916543006897e-02 3.485879302024841309e-02
3.540553525090217590e-02 -2.992465496063232422e-01 -1.059894338250160217e-01 3.688686788082122803e-01 7.425417751073837280e-02 6.291363835334777832e-01 1.536049842834472656e-01 -4.483780264854431152e-01 7.007297873497009277e-02 -8.362938463687896729e-02 -4.706702008843421936e-02 8.804097771644592285e-02 6.137275323271751404e-02 -1.498212963342666626e-01 -2.225675247609615326e-02 -1.693416088819503784e-01 -4.503417015075683594e-02 1.186606585979461670e-01 -4.436863213777542114e-02 3.388511240482330322e-01 2.962697148323059082e-01 -2.606558501720428467e-01 3.198903426527976990e-02 6.940405070781707764e-02 -5.045412480831146240e-02 5.107661336660385132e-02 4.167422652244567871e-02 9.685642272233963013e-02 -9.429030120372772217e-03 -1.610680967569351196e-01 -1.685247570276260376e-01 2.658530138432979584e-02 -5.337929353117942810e-02 -9.551662020385265350e-03 1.258065104484558105e-01 1.206399947404861450e-01 -6.618720293045043945e-02 5.309449508786201477e-03 7.308038324117660522e-02 -3.860506042838096619e-02 6.287594139575958252e-02 6.421668082475662231e-02 -8.667505532503128052e-02 1.464731842279434204e-01 -1.293830424547195435e-01 -8.707132935523986816e-02 2.781793102622032166e-02 -3.233445286750793457e-01 3.487875163555145264e-01 1.816574037075042725e-01 5.861657485365867615e-02 6.501573324203491211e-02 -1.642484962940216064e-02 -1.242190971970558167e-02 -1.273943930864334106e-01 -6.971386726945638657e-03 7.807037234306335449e-02 4.780802130699157715e-01 -1.674555838108062744e-01 -4.308251738548278809e-01 1.450483594089746475e-02 -6.609120965003967285e-01 2.646090388298034668e-01 3.913188576698303223e-01 -8.903840184211730957e-02 -5.415281653404235840e-02 5.304913222789764404e-02 -8.764375001192092896e-02 -2.517783455550670624e-02 -3.291367553174495697e-03
8.187609165906906128e-02 2.462005056440830231e-02 -1.153964325785636902e-01 -1.042797490954399109e-01 4.405556991696357727e-02 9.408003091812133789e-02 8.789238519966602325e-03 5.840628966689109802e-02 -2.756128646433353424e-02 6.227260082960128784e-02 5.464438349008560181e-03 1.816035620868206024e-02 -9.298469871282577515e-02 3.717574849724769592e-02 -5.434296559542417526e-03 9.931821376085281372e-02 1.007579416036605835e-01 -9.108386188745498657e-02 -9.549318999052047729e-02 -4.401613026857376099e-02 8.386791497468948364e-02 -9.308672696352005005e-02 -3.531473129987716675e-02 9.016752243041992188e-02 -5.489398539066314697e-02 1.928924029925838113e-05 1.395241618156433105e-01 1.409951131790876389e-02 -4.260669648647308350e-02 -3.108569793403148651e-02 -8.796688169240951538e-02 -8.191081881523132324e-02 -3.009801916778087616e-02 -3.592052310705184937e-02 5.935705453157424927e-02 2.273012651130557060e-03 8.906266838312149048e-02 -6.742922216653823853e-02 2.966713719069957733e-02 -7.321651279926300049e-02 -9.049243479967117310e-02 2.761504054069519043e-02 -9.515863843262195587e-03 -6.919376552104949951e-02 9.129807353019714355e-02 -5.262185633182525635e-02 9.257689118385314941e-02 -8.783632516860961914e-02 9.023654460906982422e-02 1.660272292792797089e-02 -1.894054561853408813e-02 -5.158914998173713684e-02 5.737254768610000610e-02 -4.488683491945266724e-02 4.510172456502914429e-02 -3.872744739055633545e-02 -3.178623691201210022e-02 -7.527353614568710327e-02 -2.150144241750240326e-02 9.416814148426055908e-02 -4.482625052332878113e-02 9.717814624309539795e-02 -1.282782256603240967e-01 -1.155738066881895065e-02 1.300039608031511307e-02 -5.885367095470428467e-02 -4.316725954413414001e-02 1.330548375844955444e-01 -1.414328906685113907e-02 5.170594900846481323e-03
-4.551492258906364441e-02 -3.973518684506416321e-02 7.704696059226989746e-02 5.602386593818664551e-02 1.160255968570709229e-01 -8.993399888277053833e-02 3.517376026138663292e-03 -3.751202300190925598e-02 2.258853763341903687e-01 -5.399644374847412109e-02 -9.166522324085235596e-02 1.707221418619155884e-01 3.043451160192489624e-02 9.381283819675445557e-02 4.141113534569740295e-02 -1.131130829453468323e-01 5.923056229948997498e-02 -7.086809724569320679e-02 1.581776589155197144e-01 -1.126166712492704391e-02 -2.085964009165763855e-02 -6.377036124467849731e-02 2.486524581909179688e-01 4.765135049819946289e-02 -1.194228008389472961e-01 2.167194150388240814e-02 -1.042631734162569046e-02 1.661776565015316010e-02 -4.427690431475639343e-02 1.404163986444473267e-02 3.432525694370269775e-02 6.781377596780657768e-04 -5.159131810069084167e-02 -3.485191240906715393e-02 -6.385851651430130005e-02 9.652028791606426239e-03 8.532882481813430786e-02 -1.788614876568317413e-02 -1.437024474143981934e-01 -1.355206314474344254e-02 8.617489039897918701e-02 -3.144824132323265076e-02 7.326351106166839600e-02 -4.474680125713348389e-02 1.341173946857452393e-01 -8.539065718650817871e-02 1.540082041174173355e-02 1.233371347188949585e-01 4.826675355434417725e-02 -3.355038911104202271e-02 1.302648931741714478e-01 1.883979141712188721e-02 -1.608665436506271362e-01 -4.848377034068107605e-02 4.500274732708930969e-02 9.623043239116668701e-03 -3.296187520027160645e-02 1.888962537050247192e-01 1.050514578819274902e-01 9.941930323839187622e-02 1.382121890783309937e-01 1.174174528568983078e-02 -7.396471220999956131e-03 1.159695982933044434e-01 1.004137247800827026e-01 -4.148516338318586349e-03 -2.249972373247146606e-01 -1.206136569380760193e-01 -1.291023045778274536e-01 -1.112454161047935486e-01
-4.772864282131195068e-03 -7.717004418373107910e-02 -7.044045627117156982e-02 9.492909908294677734e-02 -3.184882551431655884e-02 -9.741658717393875122e-02 1.127051413059234619e-01 1.546740829944610596e-01 -6.719601154327392578e-02 4.040618240833282471e-02 -1.352393180131912231e-01 -6.049246527254581451e-03 6.491985917091369629e-02 4.424525797367095947e-02 2.978335600346326828e-03 -6.229273974895477295e-02 1.169446781277656555e-01 -1.429595891386270523e-02 1.662283092737197876e-01 -4.019587114453315735e-02 1.020307317376136780e-01 -6.192372646182775497e-03 2.251217700541019440e-02 -1.356810331344604492e-01 -2.067836672067642212e-01 -1.002592146396636963e-01 9.296908229589462280e-02 -1.300605479627847672e-02 -1.928287371993064880e-02 -8.790773898363113403e-02 -8.611985296010971069e-02 1.390723884105682373e-01 3.108602575957775116e-02 1.125388070940971375e-01 6.056424230337142944e-02 -3.305674297735095024e-03 4.515885189175605774e-02 3.272283449769020081e-02 -2.833082675933837891e-01 1.007698997855186462e-01 6.237995252013206482e-02 1.418632455170154572e-02 3.230296133551746607e-04 1.158861815929412842e-01 4.986361041665077209e-02 -1.007642075419425964e-01 -7.412382867187261581e-03 -4.637472331523895264e-02 -4.111918061971664429e-02 -8.830393850803375244e-02 6.690923869609832764e-02 5.825923383235931396e-02 -1.353379935026168823e-01 -7.414614316076040268e-03 1.249379515647888184e-01 -2.800119481980800629e-02 7.960431277751922607e-02 1.053666248917579651e-01 4.380299896001815796e-02 -7.608001679182052612e-02 5.253374576568603516e-02 6.488567590713500977e-02 8.741213381290435791e-02 -3.947510570287704468e-02 -4.864683747291564941e-02 7.568427361547946930e-03 -1.359953731298446655e-01 1.269821524620056152e-01 1.623981595039367676e-01 -6.202528253197669983e-02
1.186763271689414978e-01 -5.267475172877311707e-02 1.262941807508468628e-01 -1.606893688440322876e-01 1.546675618737936020e-02 9.302177280187606812e-02 -6.356429308652877808e-02 1.090815886855125427e-01 -1.004886999726295471e-01 1.415114551782608032e-01 -1.408364027738571167e-01 2.664657868444919586e-02 4.710791409015655518e-01 -1.355064213275909424e-01 -6.457275897264480591e-02 -8.782627433538436890e-02 1.268368661403656006e-01 -5.382904782891273499e-02 1.314209550619125366e-01 -1.885309442877769470e-02 5.759742856025695801e-02 6.409922987222671509e-02 9.727340191602706909e-02 1.154224276542663574e-01 -1.505478173494338989e-01 -8.904339373111724854e-02 4.530403614044189453e-01 -7.009181380271911621e-02 7.020099461078643799e-02 -8.848318457603454590e-02 2.415885776281356812e-01 1.519595831632614136e-01 1.769977807998657227e-01 -1.037700176239013672e-01 -9.126638621091842651e-02 5.438685789704322815e-02 -8.805396966636180878e-03 -1.409827321767807007e-01 -1.562895625829696655e-01 1.105100940912961960e-02 4.454352259635925293e-01 7.959152758121490479e-02 8.637704700231552124e-02 -2.271726727485656738e-02 4.004391655325889587e-02 4.253727570176124573e-02 1.387442648410797119e-01 -6.584709882736206055e-02 1.274118293076753616e-02 -1.058673560619354248e-01 -7.784769684076309204e-02 -6.134285591542720795e-03 -7.724480330944061279e-02 5.797606706619262695e-02 3.657091557979583740e-01 6.344148516654968262e-02 1.234001964330673218e-01 1.235930994153022766e-01 2.659105658531188965e-01 2.613300681114196777e-01 1.821073442697525024e-01 -6.006072089076042175e-02 9.044975787401199341e-02 -1.182341799139976501e-01 4.379338398575782776e-02 -3.043461963534355164e-02 -2.419317811727523804e-01 5.998827517032623291e-02 3.529145419597625732e-01 5.985998734831809998e-02
-2.009931765496730804e-02 -1.806831546127796173e-02 -6.895052641630172729e-02 4.790192097425460815e-02 8.681747317314147949e-02 1.418067961931228638e-01 -5.789248272776603699e-02 -4.242199063301086426e-01 -6.424220744520425797e-03 1.650183647871017456e-01 -1.095347851514816284e-01 -9.031559526920318604e-02 -6.191905215382575989e-02 2.890521893277764320e-03 -1.568111591041088104e-02 6.344328075647354126e-02 -1.937241852283477783e-02 3.508960083127021790e-02 -3.815520927309989929e-02 1.703467518091201782e-01 -1.100761219859123230e-01 -2.364062219858169556e-01 -8.131062984466552734e-02 2.339889407157897949e-01 3.992768749594688416e-02 -1.259459368884563446e-02 -7.671767473220825195e-02 -4.414284229278564453e-02 -1.695424900390207767e-03 -3.586240857839584351e-02 8.341177552938461304e-02 -3.249921277165412903e-02 -8.177027851343154907e-02 5.408464744687080383e-02 -1.449756883084774017e-02 -5.446483567357063293e-02 -7.558536529541015625e-02 9.081088751554489136e-02 -1.089428886771202087e-01 6.186455488204956055e-02 1.019702553749084473e-01 8.454613387584686279e-02 9.805971384048461914e-02 6.858719140291213989e-02 1.018922850489616394e-01 2.032305151224136353e-01 -3.076168894767761230e-02 -1.187318116426467896e-01 8.083835244178771973e-02 1.315748691558837891e-01 4.341240599751472473e-02 -1.830782145261764526e-01 5.662126466631889343e-02 -3.655905276536941528e-02 -6.152995303273200989e-02 -1.563738333061337471e-03 -4.025283083319664001e-02 -1.391604542732238770e-01 6.368092447519302368e-02 -3.393880277872085571e-02 1.676444336771965027e-02 -2.945927679538726807e-01 -1.078191921114921570e-01 4.104362726211547852e-01 8.301612734794616699e-02 -3.159917593002319336e-01 1.021984666585922241e-01 6.355781853199005127e-02 6.257620453834533691e-02 6.952614057809114456e-04
1.571592390537261963e-01 3.479972481727600098e-02 1.883151754736900330e-02 -3.830733522772789001e-02 1.682713441550731659e-02 1.836074516177177429e-02 2.154343575239181519e-01 -1.513491198420524597e-02 -4.129127599298954010e-03 -1.096519976854324341e-01 -1.025782078504562378e-01 2.592213265597820282e-02 1.594674736261367798e-01 4.252190515398979187e-02 -4.073108360171318054e-02 2.937981300055980682e-02 -7.842430472373962402e-02 -1.529753506183624268e-01 7.879146933555603027e-02 -5.110578611493110657e-02 1.635010093450546265e-01 -6.826248764991760254e-02 -3.449777141213417053e-02 7.271217554807662964e-02 -1.297492682933807373e-01 2.047993056476116180e-02 1.548526734113693237e-01 -7.399251312017440796e-02 -2.321306616067886353e-02 -5.510289967060089111e-02 3.407517448067665100e-02 -1.772912777960300446e-02 -1.505336537957191467e-02 5.935081467032432556e-02 9.027934819459915161e-02 -5.531489476561546326e-02 4.954433813691139221e-02 -8.393014967441558838e-02 -3.631597757339477539e-02 -5.980173498392105103e-02 3.144213259220123291e-01 -1.023400276899337769e-01 -3.122726222500205040e-03 2.442834712564945221e-02 2.474720031023025513e-02 -1.368397939950227737e-02 1.240308210253715515e-01 -4.812844842672348022e-02 1.214071288704872131e-01 7.261645048856735229e-02 -1.560284644365310669e-01 6.651764363050460815e-02 -9.368150494992733002e-03 -1.968068629503250122e-02 2.845405936241149902e-01 -6.872718781232833862e-02 1.161677390336990356e-01 -2.482569962739944458e-02 1.306374073028564453e-01 1.144543439149856567e-01 1.428026705980300903e-01 8.414404094219207764e-02 1.604563295841217041e-01 1.389431208372116089e-01 -4.232155904173851013e-02 1.026101261377334595e-01 7.845257967710494995e-02 -1.493531614542007446e-01 2.376828938722610474e-01 1.301573663949966431e-01
-8.781908452510833740e-02 -5.743877217173576355e-02 -2.849194705486297607e-01 -2.605436742305755615e-02 3.484162390232086182e-01 5.293236300349235535e-02 -1.492821723222732544e-01 3.188041597604751587e-02 1.226220093667507172e-02 1.760101504623889923e-02 3.465117141604423523e-02 3.843000531196594238e-02 -2.577837556600570679e-02 3.543584421277046204e-02 6.638725101947784424e-02 -5.229141935706138611e-02 -2.872038185596466064e-01 1.311286445707082748e-02 3.695931732654571533e-01 -2.847556583583354950e-02 3.830162063241004944e-02 -8.651661127805709839e-02 -5.796849727630615234e-02 9.819610044360160828e-03 -1.167717576026916504e-02 -2.134166657924652100e-02 4.615946672856807709e-03 -6.529359519481658936e-02 -6.853388994932174683e-02 1.399702429771423340e-01 -2.892261445522308350e-01 -1.798732876777648926e-01 3.700838088989257812e-01 1.111560091376304626e-01 -1.296511590480804443e-01 -9.913294762372970581e-02 4.075060784816741943e-02 -1.956870779395103455e-02 4.679880291223526001e-02 -1.053871307522058487e-02 4.029408469796180725e-02 -6.468116492033004761e-02 2.542727999389171600e-02 3.790690004825592041e-02 -2.669756114482879639e-01 -3.325130417943000793e-02 3.086785972118377686e-01 3.961142525076866150e-02 -1.050354689359664917e-01 1.694328151643276215e-02 8.566395938396453857e-02 -6.844007968902587891e-02 1.136247441172599792e-02 -5.500464700162410736e-03 5.781942978501319885e-02 1.380515843629837036e-01 6.535520404577255249e-02 -7.001853734254837036e-02 -2.539926469326019287e-01 2.282081097364425659e-01 2.366671115159988403e-01 -1.746449470520019531e-01 -6.792970001697540283e-03 1.368612200021743774e-01 -8.920093625783920288e-02 6.090470030903816223e-02 -8.743094652891159058e-02 -7.605599239468574524e-04 -7.458447664976119995e-02 -4.331127926707267761e-02
3.727059066295623779e-02 -6.702110171318054199e-02 1.031901910901069641e-01 -1.058097183704376221e-02 6.582707166671752930e-02 -1.528513878583908081e-01 -2.937479875981807709e-02 -1.514022350311279297e-01 -1.300758719444274902e-01 -6.352090835571289062e-02 2.887506484985351562e-01 -2.332355380058288574e-01 4.524404704570770264e-01 -1.811825186014175415e-01 -1.507947742938995361e-01 -8.692141622304916382e-02 9.079840034246444702e-02 9.471847442910075188e-04 3.007931262254714966e-02 -1.913551986217498779e-02 -7.135298103094100952e-02 -2.292402833700180054e-01 -7.100038230419158936e-02 -6.917655467987060547e-02 2.004683017730712891e-01 -6.153430044651031494e-02 4.681110382080078125e-01 -2.687844261527061462e-02 7.260622456669807434e-03 -6.441199779510498047e-02 6.487942487001419067e-02 5.942633748054504395e-02 7.534476369619369507e-02 3.556032851338386536e-02 8.231431245803833008e-02 -8.721185848116874695e-03 -6.123315915465354919e-02 4.556920845061540604e-03 3.231504261493682861e-01 9.404794126749038696e-02 3.905448317527770996e-01 -7.270461414009332657e-03 -1.223409250378608704e-01 1.497184485197067261e-01 1.077426038682460785e-02 9.145265445113182068e-03 -3.434053063392639160e-02 1.044669970870018005e-01 1.400769948959350586e-01 1.507647484540939331e-01 -1.236112937331199646e-01 1.175024732947349548e-01 2.864476144313812256e-01 -3.687430545687675476e-02 3.353804945945739746e-01 5.719515308737754822e-02 -4.773390293121337891e-02 2.487582564353942871e-01 -6.582122761756181717e-03 -5.541123449802398682e-02 -6.717853993177413940e-02 1.561836153268814087e-01 -5.115430802106857300e-02 1.994031071662902832e-01 -4.783989861607551575e-02 1.209487244486808777e-01 3.279566168785095215e-01 2.370016276836395264e-01 4.845707118511199951e-01 6.514649093151092529e-02
-1.250388175249099731e-01 1.070609688758850098e-01 9.922759979963302612e-02 1.133367791771888733e-01 -4.504792019724845886e-02 1.097860410809516907e-01 1.010001823306083679e-02 -1.114771738648414612e-01 -8.902356028556823730e-02 1.429769396781921387e-02 -1.567264795303344727e-01 2.373028695583343506e-01 -1.456744316965341568e-02 1.083341017365455627e-01 -5.302280187606811523e-02 -4.197336360812187195e-02 -2.172365039587020874e-02 -1.357829384505748749e-02 1.318628489971160889e-01 -2.756110951304435730e-02 -2.064113877713680267e-02 1.108241640031337738e-02 -6.715760380029678345e-02 -1.518665067851543427e-02 -1.037722900509834290e-01 8.030585199594497681e-02 -3.145830333232879639e-02 -1.249134447425603867e-02 8.553247153759002686e-02 2.437810972332954407e-02 1.623544991016387939e-01 -2.086246386170387268e-02 -6.911390274763107300e-02 9.312456846237182617e-02 -4.229831323027610779e-02 3.184774518013000488e-02 -1.428542435169219971e-01 3.576793894171714783e-02 -1.848536431789398193e-01 -7.289160974323749542e-03 3.967319056391716003e-02 8.774294704198837280e-02 1.173017825931310654e-02 -8.700197935104370117e-02 -1.979164034128189087e-02 -8.481496945023536682e-03 2.894091792404651642e-02 -1.013657823204994202e-01 4.335978627204895020e-02 -3.830970823764801025e-02 -2.121651768684387207e-01 -5.202794820070266724e-02 -2.102174162864685059e-01 -2.400007694959640503e-01 -2.320754155516624451e-02 -5.758508667349815369e-02 7.250961661338806152e-02 9.442063979804515839e-03 3.758902475237846375e-02 -8.695117384195327759e-02 -5.582912638783454895e-02 -6.512682884931564331e-02 -6.386145949363708496e-02 1.063369363546371460e-01 -2.046707719564437866e-01 9.119074791669845581e-03 -9.351494163274765015e-02 -9.112079441547393799e-02 2.516978234052658081e-02 -1.430863142013549805e-01
-2.582214074209332466e-03 -9.337085485458374023e-02 -7.825911045074462891e-02 8.746813237667083740e-02 2.624891325831413269e-02 5.820836406201124191e-03 -7.786409556865692139e-02 3.713648766279220581e-02 -3.908608853816986084e-02 -4.159149248152971268e-03 -2.716050855815410614e-02 -3.181660547852516174e-02 -3.262521233409643173e-03 7.500016689300537109e-02 4.315460845828056335e-02 1.730636809952557087e-03 -8.059880137443542480e-02 -5.398608744144439697e-02 -4.024742916226387024e-02 -2.157552167773246765e-02 -9.938589483499526978e-02 -5.347184091806411743e-02 7.478839159011840820e-02 -3.850168362259864807e-02 -4.729874432086944580e-02 -2.836575265973806381e-03 -9.843130828812718391e-04 -3.831754252314567566e-02 9.843565523624420166e-03 -1.157075911760330200e-01 7.134138792753219604e-02 2.809031866490840912e-02 -1.571333408355712891e-02 8.673720806837081909e-02 -2.572741732001304626e-02 -5.839791521430015564e-02 -1.043363511562347412e-01 4.559305682778358459e-02 -1.865359023213386536e-02 3.684024140238761902e-02 8.380250632762908936e-02 -7.958402484655380249e-02 2.973558381199836731e-02 -2.358472347259521484e-01 -1.583289355039596558e-01 6.007856130599975586e-02 1.759766414761543274e-02 2.137513607740402222e-01 5.281274393200874329e-02 -1.840824186801910400e-01 9.850021451711654663e-02 5.024281144142150879e-02 1.276255678385496140e-02 5.737032368779182434e-02 1.650734990835189819e-02 -7.838090509176254272e-02 -7.575720548629760742e-02 -3.568015992641448975e-01 -8.918411284685134888e-02 2.455245852470397949e-01 -3.117146901786327362e-02 1.929003894329071045e-01 2.477961219847202301e-02 -2.208699136972427368e-01 -3.618739545345306396e-02 -6.314941495656967163e-02 7.165794074535369873e-02 -1.073829233646392822e-01 -9.337984025478363037e-02 -7.934617251157760620e-02
8.424817770719528198e-02 -4.510963335633277893e-02 -3.172829747200012207e-01 1.062592342495918274e-01 -2.231986820697784424e-02 -1.968268901109695435e-01 1.380892246961593628e-01 -1.394755989313125610e-01 -9.749373793601989746e-02 -3.445045650005340576e-02 9.651910513639450073e-02 5.360409244894981384e-02 3.089054860174655914e-02 -3.471359610557556152e-02 7.165639847517013550e-02 1.524035725742578506e-02 -3.004167675971984863e-01 3.942093625664710999e-02 1.026133727282285690e-02 -5.958139523863792419e-02 2.737993933260440826e-02 -1.475740130990743637e-02 -1.357396785169839859e-02 -1.858086436986923218e-01 4.721863567829132080e-02 -9.811317175626754761e-02 -4.669139161705970764e-02 4.592882841825485229e-02 -8.556871861219406128e-02 9.911411255598068237e-02 -3.008452057838439941e-01 -4.094738885760307312e-02 1.367247663438320160e-02 -1.276941150426864624e-01 1.214822009205818176e-01 8.038473874330520630e-02 2.985301613807678223e-02 3.755083307623863220e-02 -5.779019370675086975e-02 -1.042277924716472626e-02 -2.294725738465785980e-02 9.918092936277389526e-02 -8.550252765417098999e-02 7.116305083036422729e-02 -2.786907255649566650e-01 -1.394431889057159424e-01 1.176346167922019958e-01 1.587974280118942261e-01 9.517658501863479614e-02 2.949373051524162292e-02 2.183983288705348969e-02 4.269227758049964905e-02 6.062375754117965698e-02 -4.906142130494117737e-02 6.438743323087692261e-02 -3.905717981979250908e-03 1.691653393208980560e-02 6.290377676486968994e-02 -3.531621694564819336e-01 -6.002267450094223022e-02 -2.741461433470249176e-02 1.601750254631042480e-01 6.783755868673324585e-02 6.107603386044502258e-02 9.868324548006057739e-02 1.286143064498901367e-01 -3.401738405227661133e-02 8.255586028099060059e-02 -8.960466086864471436e-02 -1.021359041333198547e-01
-2.835980243980884552e-02 9.187805466353893280e-03 -2.498168498277664185e-01 9.599430114030838013e-02 2.783397734165191650e-01 9.295740723609924316e-02 4.061335325241088867e-02 1.072344370186328888e-02 -5.263746902346611023e-02 6.343613378703594208e-03 6.016879901289939880e-02 1.526912441477179527e-03 6.910888105630874634e-02 -3.747813031077384949e-02 9.827941656112670898e-03 1.068742945790290833e-01 -2.389991730451583862e-01 -7.595498859882354736e-02 2.905977666378021240e-01 9.979685768485069275e-03 -1.191155165433883667e-01 -9.360841661691665649e-02 6.493924558162689209e-02 -4.030074179172515869e-02 3.243534266948699951e-02 -5.192447081208229065e-02 5.436221510171890259e-02 5.104992538690567017e-02 -2.850276790559291840e-02 -5.213990062475204468e-02 -2.223205715417861938e-01 -3.725742921233177185e-02 2.426766604185104370e-01 5.852746963500976562e-02 -8.315092325210571289e-02 -6.568001210689544678e-02 6.289245188236236572e-02 4.088541865348815918e-02 -6.424649804830551147e-02 -1.346336863934993744e-02 -3.508235141634941101e-02 -4.151798784732818604e-02 -7.998362183570861816e-02 1.371872574090957642e-01 -2.826285362243652344e-01 -2.125115245580673218e-01 3.811396956443786621e-01 -1.377737522125244141e-02 -1.436641067266464233e-01 7.034462690353393555e-02 -6.127842888236045837e-02 -6.129854544997215271e-02 5.343580991029739380e-02 6.618286669254302979e-02 -9.356351941823959351e-02 2.397422306239604950e-02 1.279857605695724487e-01 -2.014056742191314697e-01 -2.859222292900085449e-01 2.281725406646728516e-01 2.975404858589172363e-01 -1.474575549364089966e-01 -6.709509342908859253e-02 7.860109955072402954e-02 -1.785525493323802948e-02 5.510778352618217468e-02 -7.952304929494857788e-02 -3.320882795378565788e-03 3.797349287196993828e-03 3.609712934121489525e-03
1.127592995762825012e-01 3.866348788142204285e-02 3.410879373550415039e-01 7.146541029214859009e-02 -2.275106459856033325e-01 1.101534515619277954e-01 -2.569586932659149170e-01 -1.412791460752487183e-01 8.897577226161956787e-02 9.176942519843578339e-03 5.468735471367835999e-03 2.694610506296157837e-02 3.143174573779106140e-02 2.059947140514850616e-02 -5.556105449795722961e-02 -4.903531167656183243e-03 3.696466684341430664e-01 1.966629549860954285e-02 -9.754455834627151489e-02 1.020279154181480408e-01 -8.713023364543914795e-02 4.372097924351692200e-02 -9.563307464122772217e-02 5.227220803499221802e-02 -3.796369954943656921e-02 -9.942331165075302124e-02 -6.998122483491897583e-02 -7.968104444444179535e-03 3.566446527838706970e-02 2.586927963420748711e-03 1.824324578046798706e-01 3.005677834153175354e-02 -1.949368417263031006e-01 4.698126390576362610e-02 -1.645447313785552979e-01 1.577765308320522308e-02 7.459019124507904053e-02 -8.379938453435897827e-02 -2.373337745666503906e-02 7.176570594310760498e-02 1.226939409971237183e-01 8.613768965005874634e-02 -1.006007287651300430e-02 6.696592271327972412e-02 3.866780400276184082e-01 -5.691176280379295349e-02 -1.428821384906768799e-01 2.133143506944179535e-02 -1.310682892799377441e-01 1.013642549514770508e-01 -1.174396574497222900e-01 -4.132984951138496399e-02 -3.468083217740058899e-02 2.490328438580036163e-02 -3.646355122327804565e-03 -9.499257057905197144e-02 -8.157540112733840942e-02 -1.035594716668128967e-01 2.897685766220092773e-01 -6.588836759328842163e-02 -5.304076895117759705e-02 -2.816264629364013672e-01 -1.197484359145164490e-01 -1.513294130563735962e-02 4.986575990915298462e-02 6.304292380809783936e-02 6.277189403772354126e-02 -2.420510165393352509e-02 -8.154239505529403687e-02 -2.856949577108025551e-03
9.692063555121421814e-03 -1.787282973527908325e-01 3.743509203195571899e-02 -5.222100615501403809e-01 -5.828597024083137512e-02 4.439409077167510986e-02 4.349554181098937988e-01 -4.703370388597249985e-03 6.296651065349578857e-02 -1.045048385858535767e-01 -3.173672594130039215e-03 1.528569757938385010e-01 -1.001375541090965271e-02 9.514249861240386963e-02 -7.190186530351638794e-02 -1.388498693704605103e-01 1.278470009565353394e-01 -3.405418097972869873e-01 -3.439467027783393860e-02 -6.672506034374237061e-02 5.333296060562133789e-01 8.135306090116500854e-02 -1.084551587700843811e-01 4.426688700914382935e-02 -5.433278158307075500e-02 -8.434495329856872559e-02 1.300621777772903442e-02 -1.658482104539871216e-02 3.859997540712356567e-02 8.033444732427597046e-02 9.762447327375411987e-02 -1.614228338003158569e-01 -1.186538785696029663e-01 9.905593842267990112e-02 3.739153742790222168e-01 9.880718588829040527e-02 1.866833679378032684e-02 1.292161177843809128e-02 -4.338169097900390625e-02 -5.674994736909866333e-02 8.365519344806671143e-02 -1.027556415647268295e-02 -1.244943682104349136e-02 8.281227946281433105e-02 1.005927771329879761e-01 2.148220390081405640e-01 2.121479623019695282e-02 -9.064785391092300415e-02 4.676089584827423096e-01 -4.808084294199943542e-02 2.506451122462749481e-02 -2.404948323965072632e-02 3.686346113681793213e-03 2.117718756198883057e-02 -9.288873523473739624e-02 5.693714320659637451e-02 3.124570660293102264e-02 1.679740101099014282e-01 1.620055288076400757e-01 8.446677923202514648e-01 2.258391864597797394e-02 1.502402964979410172e-02 4.401539564132690430e-01 -1.373525410890579224e-01 -1.125770341604948044e-02 6.952109187841415405e-02 8.731522411108016968e-02 -2.491416409611701965e-02 1.101118978112936020e-02 -1.323119997978210449e-01
1.354105025529861450e-02 9.553029201924800873e-03 3.822461888194084167e-02 -3.677388131618499756e-01 -1.142817270010709763e-02 1.688202321529388428e-01 6.535903364419937134e-02 -9.202595055103302002e-02 -4.776474088430404663e-02 1.300891041755676270e-01 -1.362162977457046509e-01 -1.181618198752403259e-01 1.790619939565658569e-01 4.615145176649093628e-02 1.029236614704132080e-01 6.454305350780487061e-02 1.647412627935409546e-01 -1.767460554838180542e-01 -1.318992972373962402e-01 1.073594316840171814e-01 1.154958903789520264e-01 6.339238584041595459e-02 -3.978680074214935303e-02 -1.704607717692852020e-02 -1.803651154041290283e-01 -6.430584937334060669e-02 2.918474078178405762e-01 3.083873912692070007e-02 -8.236324787139892578e-02 -1.756862923502922058e-02 3.343338519334793091e-02 -4.764328151941299438e-02 -8.492327481508255005e-02 -3.115393966436386108e-02 3.562657162547111511e-02 4.312756285071372986e-02 -1.229277104139328003e-01 -6.373411417007446289e-02 -8.837162703275680542e-02 1.162673681974411011e-01 2.973220050334930420e-01 -2.336294576525688171e-02 -8.825658261775970459e-02 -1.062246561050415039e-01 3.026141598820686340e-02 1.591181159019470215e-01 9.447192400693893433e-02 -7.869099080562591553e-02 6.305478513240814209e-02 -4.310463368892669678e-02 -8.481667190790176392e-02 -5.344073846936225891e-02 -2.301945984363555908e-01 7.506079226732254028e-02 3.596216142177581787e-01 -9.643077105283737183e-02 -6.544782221317291260e-02 -1.720997691154479980e-01 1.218824535608291626e-01 3.713823258876800537e-01 -8.841935545206069946e-02 -2.534442543983459473e-01 -5.470642354339361191e-03 3.942504152655601501e-02 -1.363134384155273438e-01 -3.675282001495361328e-02 -7.301673293113708496e-02 3.164195120334625244e-01 3.539374470710754395e-01 -4.945629090070724487e-02
-1.859093084931373596e-02 -4.494385048747062683e-02 1.291145831346511841e-01 1.478714961558580399e-02 3.303115665912628174e-01 8.077125996351242065e-02 7.587108761072158813e-02 4.193508625030517578e-02 9.070497006177902222e-02 -5.079241842031478882e-02 5.809940770268440247e-02 -4.945174604654312134e-02 -6.504002958536148071e-03 3.504025563597679138e-02 1.185901686549186707e-01 6.126662250608205795e-03 2.129993587732315063e-01 -8.954123593866825104e-03 4.116176664829254150e-01 5.058514699339866638e-02 -9.539333730936050415e-02 -4.538508504629135132e-02 9.542288631200790405e-02 4.738113656640052795e-02 7.688502222299575806e-02 6.581287086009979248e-02 -8.566540479660034180e-02 1.148816943168640137e-02 -5.156671255826950073e-02 -9.603139758110046387e-02 2.848709523677825928e-01 4.291243851184844971e-02 2.187291234731674194e-01 1.117921844124794006e-01 -2.370108477771282196e-02 6.164281070232391357e-02 -1.051955372095108032e-01 1.686832681298255920e-02 -2.569609694182872772e-02 5.169423762708902359e-03 2.474919892847537994e-02 -4.415499791502952576e-02 1.411280973115935922e-04 4.363165423274040222e-02 1.691858917474746704e-01 -1.598955504596233368e-02 2.602875828742980957e-01 5.160785838961601257e-02 5.846389383077621460e-02 -7.538349926471710205e-02 -1.063238680362701416e-01 3.088771738111972809e-02 -6.019309163093566895e-02 2.827809937298297882e-02 4.749257117509841919e-02 -4.967790562659502029e-03 -4.775986447930335999e-02 8.961370587348937988e-02 3.183232545852661133e-01 -3.146901354193687439e-02 4.091061949729919434e-01 -2.957525849342346191e-01 -7.731106877326965332e-02 1.393128372728824615e-02 9.711566381156444550e-03 -4.434465616941452026e-02 -1.768299937248229980e-02 -4.603192955255508423e-02 9.859311394393444061e-03 2.243512542918324471e-03
-2.245062496513128281e-03 -6.828542053699493408e-02 -3.623009845614433289e-02 1.816655509173870087e-02 3.033838421106338501e-02 -8.067798614501953125e-02 7.208175957202911377e-02 -8.770328760147094727e-02 4.413951933383941650e-02 1.097882725298404694e-02 -1.224385350942611694e-01 1.823383755981922150e-02 9.568852931261062622e-02 3.363148495554924011e-02 -1.391015294939279556e-02 -3.488663956522941589e-02 -6.678646057844161987e-02 7.486242800951004028e-02 2.510039508342742920e-02 3.073464380577206612e-03 3.142134286463260651e-03 1.473725214600563049e-02 6.078692898154258728e-02 -3.162380307912826538e-02 3.929865732789039612e-02 -1.007774546742439270e-01 -9.272708743810653687e-02 1.543656922876834869e-02 -3.747788444161415100e-02 -7.455160468816757202e-02 -3.161923727020621300e-03 -4.905705899000167847e-02 -8.952949196100234985e-02 -2.309176698327064514e-02 -6.072715297341346741e-02 -1.579899154603481293e-02 2.300396375358104706e-02 -1.864260062575340271e-03 -1.357750147581100464e-01 5.883320048451423645e-02 -1.205503046512603760e-01 -9.285723417997360229e-02 4.744662716984748840e-02 4.586774390190839767e-03 2.846659533679485321e-02 8.523926883935928345e-02 5.377572402358055115e-02 -7.116086781024932861e-02 1.033248938620090485e-02 4.476464912295341492e-02 1.829267293214797974e-01 4.181436449289321899e-02 1.160719059407711029e-02 5.511220544576644897e-02 5.075329542160034180e-02 -4.812994971871376038e-02 5.769504234194755554e-03 1.755857914686203003e-01 7.322946935892105103e-02 -1.274982541799545288e-01 3.267857059836387634e-02 1.725104153156280518e-01 2.860287204384803772e-02 4.254226759076118469e-02 2.676815912127494812e-02 -1.632275618612766266e-02 -1.490897685289382935e-01 -2.238911762833595276e-02 6.692332029342651367e-02 9.178789705038070679e-02
3.267643600702285767e-02 2.938809432089328766e-02 4.135402292013168335e-02 -7.099770009517669678e-02 -1.686534658074378967e-02 -3.191447630524635315e-02 -3.723899647593498230e-02 -1.719442903995513916e-01 3.101070597767829895e-02 1.337903290987014771e-01 -3.221257030963897705e-01 -7.038767635822296143e-02 -1.672738492488861084e-01 -1.282428950071334839e-01 -1.198510900139808655e-01 -4.590358957648277283e-02 -5.443391203880310059e-02 9.581354260444641113e-02 7.538662105798721313e-02 -6.143651902675628662e-02 -1.950079016387462616e-02 3.764929249882698059e-03 6.107059121131896973e-02 -6.666598469018936157e-02 -1.688955724239349365e-01 -3.148205578327178955e-02 1.877825707197189331e-02 -6.936649233102798462e-02 -1.301460713148117065e-01 -2.833862090483307838e-03 -6.575788557529449463e-02 -3.452684730291366577e-02 -1.086689904332160950e-01 -1.016873046755790710e-01 1.345165371894836426e-01 -6.696737557649612427e-02 -1.359723275527358055e-03 -5.929215624928474426e-02 -3.749327957630157471e-01 3.696739207953214645e-03 -1.520316302776336670e-01 5.082118883728981018e-02 7.233731448650360107e-02 -4.132701829075813293e-02 -1.215833574533462524e-01 -3.178531304001808167e-02 -3.721340000629425049e-02 1.341197043657302856e-01 6.936680525541305542e-02 8.271618187427520752e-02 -4.331915825605392456e-02 2.265433035790920258e-02 -1.794156283140182495e-01 6.339388340711593628e-02 -7.034683972597122192e-02 5.309943109750747681e-02 5.583105608820915222e-02 4.911796748638153076e-02 3.456287458539009094e-02 3.770551830530166626e-02 -4.618950933218002319e-02 6.135282292962074280e-02 1.004024669528007507e-01 2.201442271471023560e-01 1.155674308538436890e-01 -4.710288718342781067e-02 -1.680472493171691895e-01 8.031290769577026367e-02 2.745562233030796051e-02 1.748576611280441284e-01
-3.298999369144439697e-02 -2.284641563892364502e-02 1.360643357038497925e-01 -5.391460284590721130e-02 -1.604560576379299164e-02 4.683938249945640564e-02 2.136177942156791687e-02 5.529036000370979309e-02 -6.289647519588470459e-02 -1.012801826000213623e-01 1.965286582708358765e-01 2.875447832047939301e-02 -1.249508485198020935e-01 -8.329495042562484741e-02 3.581178933382034302e-02 -1.020834222435951233e-01 5.244218744337558746e-03 3.543631872162222862e-03 1.136375293135643005e-01 1.822729967534542084e-02 1.242667809128761292e-01 -1.187731400132179260e-01 4.675719887018203735e-02 7.774645090103149414e-02 1.869271844625473022e-01 1.304270327091217041e-01 -1.591400951147079468e-01 1.291522085666656494e-01 -1.248297169804573059e-01 8.215237408876419067e-02 -9.661516174674034119e-03 1.867497116327285767e-01 1.038788184523582458e-01 -6.963140517473220825e-02 1.030372306704521179e-01 1.289177685976028442e-02 7.993295043706893921e-02 -2.739360556006431580e-02 1.472974866628646851e-01 -9.433603286743164062e-02 -1.569807380437850952e-01 -4.352917149662971497e-02 -1.701850742101669312e-01 2.782486379146575928e-03 6.728775799274444580e-02 8.810811489820480347e-02 3.593444451689720154e-02 2.574710361659526825e-02 1.478494703769683838e-01 -8.157955482602119446e-03 9.992612153291702271e-02 -5.209755524992942810e-02 1.518160402774810791e-01 -1.809518933296203613e-01 -3.117648959159851074e-01 2.460748655721545219e-03 -1.270222216844558716e-01 8.407782018184661865e-02 -5.179066956043243408e-02 1.878882050514221191e-01 1.725935190916061401e-01 -2.133359014987945557e-01 4.124042764306068420e-02 9.597630053758621216e-02 -2.095386851578950882e-03 1.533138155937194824e-01 1.696777530014514923e-02 -6.013069674372673035e-02 -1.358031034469604492e-01 -3.830397501587867737e-02
-2.122264727950096130e-02 1.387794017791748047e-01 2.129740826785564423e-02 4.591881483793258667e-02 -2.633959949016571045e-01 -1.700193732976913452e-01 3.056776523590087891e-01 -1.211850252002477646e-02 -9.055636078119277954e-02 -2.617786079645156860e-02 -8.332928270101547241e-02 -1.407702267169952393e-02 6.501281261444091797e-02 -6.046507880091667175e-02 -2.182868123054504395e-02 2.457745671272277832e-01 -3.064436092972755432e-02 1.423456668853759766e-01 -2.773963510990142822e-01 -1.160236820578575134e-01 3.766263127326965332e-01 3.749741986393928528e-02 2.599531225860118866e-02 5.415305122733116150e-02 -8.439677953720092773e-02 1.420493796467781067e-02 -4.994873329997062683e-02 3.920312225818634033e-02 -1.755711855366826057e-05 1.146657764911651611e-01 -1.498223468661308289e-02 -2.578885480761528015e-02 -4.187447130680084229e-01 2.970108203589916229e-02 3.741342723369598389e-01 1.140081286430358887e-01 8.536446839570999146e-02 -4.134065657854080200e-02 -3.503259643912315369e-02 -6.117616593837738037e-02 2.222103811800479889e-02 9.232275187969207764e-02 6.957362592220306396e-02 -7.088400423526763916e-02 4.352976009249687195e-02 1.277810633182525635e-01 -1.961104571819305420e-01 2.297352105379104614e-01 3.956415057182312012e-01 -8.315075188875198364e-02 -7.472833245992660522e-02 3.926734998822212219e-02 1.311013549566268921e-01 5.535829439759254456e-02 -5.076720938086509705e-02 -3.926086798310279846e-02 -2.700452692806720734e-02 -4.344052970409393311e-01 -1.134924963116645813e-01 -2.909554839134216309e-01 -3.235732018947601318e-01 2.772923745214939117e-02 2.777338624000549316e-01 -5.445636436343193054e-02 5.629453063011169434e-02 -2.631575427949428558e-02 8.029246330261230469e-02 5.034590605646371841e-03 1.049234252423048019e-02 -3.332827612757682800e-02
4.618482664227485657e-02 5.557724460959434509e-02 -3.542320430278778076e-01 -2.920486405491828918e-02 6.626141071319580078e-02 1.033655852079391479e-01 1.559813469648361206e-01 4.053184390068054199e-02 -9.553924202919006348e-02 3.499561920762062073e-02 -5.832371860742568970e-02 6.002856418490409851e-02 2.684207074344158173e-02 -6.073891371488571167e-02 1.250222474336624146e-01 -1.978344656527042389e-02 -1.222741827368736267e-01 -2.487262524664402008e-02 2.499445341527462006e-02 -5.542157962918281555e-02 2.208813130855560303e-01 9.640530333854258060e-04 5.040852352976799011e-02 -7.052519172430038452e-02 9.342239797115325928e-02 -6.381306052207946777e-02 8.750698715448379517e-02 6.615885347127914429e-02 -5.220849998295307159e-03 3.495623543858528137e-02 -2.805396020412445068e-01 -2.260068804025650024e-01 4.904062673449516296e-02 -1.231736969202756882e-02 2.911522090435028076e-01 1.720468886196613312e-02 6.049316748976707458e-02 -7.257911376655101776e-03 -3.849841281771659851e-02 3.115485981106758118e-02 -7.597371935844421387e-02 1.197334378957748413e-02 -7.507966458797454834e-02 -6.197647377848625183e-02 -2.606182694435119629e-01 -9.973042458295822144e-02 1.970927417278289795e-01 8.770371973514556885e-02 2.819724380970001221e-01 1.716618686914443970e-01 3.178229555487632751e-02 9.361163526773452759e-02 9.264482557773590088e-02 -3.802520036697387695e-02 -1.270575523376464844e-01 2.367702312767505646e-02 -9.196392446756362915e-02 -9.476094506680965424e-03 -2.477780431509017944e-01 3.795685768127441406e-01 9.159690886735916138e-02 -1.236005425453186035e-01 3.006598353385925293e-01 -2.302484512329101562e-01 -4.795538634061813354e-02 -5.097204446792602539e-02 -9.068747609853744507e-02 1.142368745058774948e-02 8.971893042325973511e-02 -4.063869640231132507e-02
1.613761857151985168e-02 -1.436197459697723389e-01 9.580177068710327148e-02 -2.397446706891059875e-02 3.113176114857196808e-02 -2.554420754313468933e-02 9.862575680017471313e-02 -1.439070552587509155e-01 2.355883270502090454e-02 -3.594898805022239685e-02 -8.263306319713592529e-02 -5.074218660593032837e-02 5.139840766787528992e-02 -6.921641528606414795e-02 6.326585076749324799e-03 4.340432211756706238e-02 -2.567536011338233948e-02 -1.057574059814214706e-02 7.192879915237426758e-02 -2.776471897959709167e-02 2.206737697124481201e-01 -2.592879906296730042e-02 8.701702207326889038e-02 -4.955531656742095947e-02 -2.969598211348056793e-02 1.093496084213256836e-01 1.472900062799453735e-01 -3.970244154334068298e-02 8.042930066585540771e-02 5.067042633891105652e-02 -6.717345863580703735e-02 -1.158260181546211243e-01 -6.284254044294357300e-02 3.360458090901374817e-02 2.184877544641494751e-01 -1.015729829668998718e-02 2.607224276289343834e-03 7.857004553079605103e-02 -1.750742346048355103e-01 4.820798337459564209e-02 1.810601563192903996e-03 -5.558167025446891785e-02 2.500338945537805557e-03 1.086594350636005402e-02 1.409697439521551132e-02 1.113355010747909546e-01 9.683001041412353516e-02 2.977149002254009247e-02 2.280185371637344360e-01 6.146929785609245300e-02 5.390882492065429688e-03 -7.176598906517028809e-02 -6.454840302467346191e-02 -4.761956632137298584e-02 -1.382060442119836807e-02 7.004451751708984375e-02 -4.225637018680572510e-02 4.815394431352615356e-02 -3.472610609605908394e-03 4.593472182750701904e-02 -7.768030464649200439e-02 -2.530207298696041107e-02 8.748507499694824219e-02 1.257422864437103271e-01 7.586242258548736572e-02 7.045624405145645142e-02 -1.176237985491752625e-01 -5.456691235303878784e-02 1.393204927444458008e-01 5.966260284185409546e-02
-9.534269571304321289e-02 3.199614286422729492e-01 -2.490191161632537842e-01 -2.292085066437721252e-02 1.650009304285049438e-01 -9.630230255424976349e-03 7.471875101327896118e-02 6.824842840433120728e-02 -1.230261940509080887e-02 6.120626628398895264e-02 8.925102651119232178e-02 -6.005266308784484863e-02 -1.746010594069957733e-02 -2.303824871778488159e-01 9.301298111677169800e-02 8.700158447027206421e-02 -2.430704981088638306e-01 4.024995490908622742e-02 1.432198733091354370e-01 -5.287770181894302368e-02 -4.705265164375305176e-02 5.364833027124404907e-02 -3.881749138236045837e-02 8.238071575760841370e-03 -5.834154039621353149e-02 -7.257063686847686768e-02 9.070345200598239899e-03 1.361008454114198685e-02 9.189373999834060669e-02 3.730146959424018860e-02 -2.478615641593933105e-01 2.686960436403751373e-02 1.664096117019653320e-02 -6.363308429718017578e-02 -1.502646785229444504e-02 6.625299900770187378e-02 -3.714862465858459473e-02 -5.405714735388755798e-02 6.433828175067901611e-02 3.358474001288414001e-02 -4.640216380357742310e-02 -6.786222755908966064e-02 3.951713442802429199e-03 -1.084159240126609802e-01 -1.279390007257461548e-01 -2.393923327326774597e-02 5.239585041999816895e-02 -4.457974061369895935e-02 6.377913057804107666e-02 -1.362908035516738892e-01 7.753944396972656250e-02 6.969370692968368530e-02 5.507325381040573120e-02 2.821469912305474281e-03 1.056078076362609863e-02 1.875121295452117920e-01 -6.363613903522491455e-02 -2.647360563278198242e-01 -7.104934006929397583e-02 1.876485943794250488e-01 5.614872649312019348e-02 5.048906430602073669e-02 3.896380588412284851e-02 -1.141013279557228088e-01 -1.782611757516860962e-02 -9.833743423223495483e-02 -1.179733350872993469e-01 1.161639764904975891e-01 -2.208330202847719193e-03 1.058432608842849731e-01
-7.478517014533281326e-03 2.943229489028453827e-02 1.014312356710433960e-01 3.024797514081001282e-02 -6.270018219947814941e-02 3.782611340284347534e-02 1.037160754203796387e-01 -7.115466892719268799e-02 -6.428995984606444836e-04 -1.766821928322315216e-02 9.488381445407867432e-02 -1.361537910997867584e-02 -8.201100677251815796e-02 5.490626767277717590e-02 5.132776126265525818e-02 5.499232187867164612e-02 9.132167696952819824e-02 4.390691965818405151e-02 5.954821035265922546e-02 8.075138181447982788e-02 6.942676752805709839e-02 -2.166055701673030853e-02 -4.944994300603866577e-02 2.932139486074447632e-02 -2.136957086622714996e-02 -9.244836121797561646e-02 -3.674625977873802185e-02 -6.037565693259239197e-02 -1.870496757328510284e-02 -3.920806571841239929e-02 -9.253818541765213013e-02 -8.456769585609436035e-02 1.127281859517097473e-01 1.027201265096664429e-01 1.161699518561363220e-01 -7.323496788740158081e-02 8.465640991926193237e-02 -4.833003133535385132e-02 7.981052622199058533e-03 1.447990089654922485e-01 9.603373706340789795e-02 7.136684842407703400e-03 -1.350617734715342522e-03 -5.864498391747474670e-02 1.107316762208938599e-01 -1.073898598551750183e-01 6.813982035964727402e-03 -2.249798364937305450e-02 -2.366893365979194641e-02 -3.196485042572021484e-01 9.403439611196517944e-02 1.186878308653831482e-01 -5.050409585237503052e-02 2.336291968822479248e-01 6.381641328334808350e-02 2.161990106105804443e-02 -2.618374489247798920e-02 -1.123048514127731323e-01 6.562413275241851807e-02 -2.712160050868988037e-01 -2.500916644930839539e-02 1.567912101745605469e-01 -8.435604721307754517e-02 -5.530368089675903320e-01 -4.746739193797111511e-02 1.801442354917526245e-01 -7.598464190959930420e-02 2.147327810525894165e-01 -4.159679263830184937e-02 1.020944565534591675e-01
1.235668063163757324e-01 4.842855781316757202e-02 3.703509271144866943e-01 1.117023155093193054e-01 3.930940851569175720e-02 -2.626987360417842865e-02 -1.329835951328277588e-01 -1.201323568820953369e-01 -6.821751128882169724e-03 6.219492107629776001e-02 4.936230555176734924e-02 9.520787745714187622e-03 4.618127271533012390e-02 -2.727309428155422211e-02 -4.787531122565269470e-02 -5.924557521939277649e-02 3.766759037971496582e-01 -5.762077495455741882e-02 2.229208685457706451e-02 1.162774488329887390e-02 5.769858136773109436e-02 3.066727705299854279e-02 3.595997765660285950e-02 -1.035967171192169189e-01 4.757390543818473816e-02 2.421151287853717804e-02 7.584222126752138138e-03 4.344693943858146667e-02 -7.711625099182128906e-02 -1.672312058508396149e-02 3.693348169326782227e-01 2.191616035997867584e-02 -4.545965790748596191e-02 2.826925134286284447e-03 -1.279333326965570450e-02 7.048213481903076172e-02 -1.881754584610462189e-02 1.415611244738101959e-02 -6.861981004476547241e-02 7.400950789451599121e-02 6.798766553401947021e-02 2.356909774243831635e-02 -2.773099392652511597e-02 1.223369091749191284e-01 4.268139004707336426e-01 -2.412957251071929932e-01 1.639966815710067749e-01 1.259519904851913452e-01 -1.187220439314842224e-01 -1.065990980714559555e-02 8.528368920087814331e-02 -1.254001259803771973e-01 -5.299839004874229431e-02 5.196767300367355347e-02 -6.132664158940315247e-02 2.134043574333190918e-01 2.352716028690338135e-02 3.349520564079284668e-01 4.049201905727386475e-01 -5.457570552825927734e-01 -4.749033227562904358e-02 2.731138765811920166e-01 -1.157668009400367737e-01 2.921289801597595215e-01 -4.811839759349822998e-02 -1.308540254831314087e-01 -3.670101240277290344e-02 9.620358794927597046e-02 -5.077754706144332886e-02 1.332695633172988892e-01
-4.406258463859558105e-02 -2.573017030954360962e-03 2.451078742742538452e-01 5.884497426450252533e-03 -2.480031251907348633e-01 -1.908354312181472778e-01 2.743976376950740814e-02 -8.985748142004013062e-02 4.669003561139106750e-02 -1.098907366394996643e-02 -4.091815277934074402e-02 -3.217322751879692078e-02 -3.218773752450942993e-02 2.613220736384391785e-02 4.685435444116592407e-02 5.094873160123825073e-02 2.088945358991622925e-01 1.485721766948699951e-02 -4.081489741802215576e-01 -1.581325894221663475e-03 3.076774999499320984e-02 -6.812507659196853638e-02 1.187657355330884457e-03 3.353641834110021591e-03 7.969350367784500122e-02 -3.502233326435089111e-02 -1.349693909287452698e-02 -9.066930413246154785e-02 -4.234097152948379517e-02 8.343060314655303955e-02 2.705764174461364746e-01 8.485732227563858032e-02 -3.873547613620758057e-01 1.141289174556732178e-01 1.294035697355866432e-03 9.394235163927078247e-02 3.062286600470542908e-02 6.577065214514732361e-03 -1.070306003093719482e-01 1.208261549472808838e-01 2.375402487814426422e-02 2.121533080935478210e-02 -4.500309377908706665e-02 -1.331287343055009842e-02 3.693742454051971436e-01 -3.863817453384399414e-02 -2.971138656139373779e-01 5.624705925583839417e-02 6.829120218753814697e-02 9.436964243650436401e-02 -1.448175462428480387e-04 7.721614558249711990e-03 1.023950725793838501e-01 -4.109208285808563232e-02 -2.818178199231624603e-02 3.960973024368286133e-02 8.455809950828552246e-02 -1.201052069664001465e-01 3.457388281822204590e-01 -6.628758460283279419e-02 -3.037641346454620361e-01 2.064858563244342804e-02 5.795898661017417908e-02 -2.664634399116039276e-02 -7.295867800712585449e-02 -6.027288734912872314e-03 -3.788414597511291504e-02 -1.236095279455184937e-02 5.513201653957366943e-02 2.398477634415030479e-03
-7.317891716957092285e-02 -2.527176439762115479e-01 1.760601699352264404e-01 -3.086464703083038330e-01 -1.282290369272232056e-01 3.032529950141906738e-01 -1.897166669368743896e-01 -2.492598025128245354e-03 -6.336607038974761963e-02 -5.265507847070693970e-02 -5.731370300054550171e-02 -1.001846268773078918e-01 -3.743096068501472473e-02 2.607983723282814026e-02 8.749538660049438477e-02 -1.035459563136100769e-01 1.085847318172454834e-01 1.350674871355295181e-02 -1.734605133533477783e-01 6.738086789846420288e-02 2.254156954586505890e-02 3.519529849290847778e-02 4.593639448285102844e-02 -9.855909645557403564e-02 2.114346250891685486e-02 -2.214459888637065887e-02 1.397079043090343475e-02 6.483089923858642578e-02 5.658207088708877563e-02 -1.381463855504989624e-01 2.109147012233734131e-01 -3.348042443394660950e-02 -1.941269040107727051e-01 -1.068832650780677795e-01 -1.236198991537094116e-01 4.565542936325073242e-02 -4.932605847716331482e-02 1.631156168878078461e-02 -7.605935633182525635e-02 -1.339371204376220703e-01 5.867635458707809448e-02 -2.578554488718509674e-02 -1.045484170317649841e-01 3.928822278976440430e-02 -6.964128930121660233e-03 1.044010072946548462e-01 -1.296082586050033569e-01 -1.533128470182418823e-01 -1.194513440132141113e-01 -3.446534648537635803e-02 2.044091932475566864e-02 3.812647983431816101e-02 1.210191249847412109e-01 7.248424738645553589e-02 -3.182129561901092529e-02 5.515477806329727173e-02 1.178437564522027969e-02 4.512802064418792725e-01 1.994365900754928589e-01 3.849249482154846191e-01 -5.050782859325408936e-02 -2.398358136415481567e-01 -2.349437586963176727e-02 -8.034183830022811890e-02 3.570633241906762123e-03 1.110484376549720764e-01 -4.348801076412200928e-02 1.837578117847442627e-01 -1.070289500057697296e-02 -9.049856662750244141e-02
5.556585639715194702e-02 2.605600282549858093e-03 -2.035462856292724609e-02 7.749731093645095825e-02 -1.036551371216773987e-01 -5.874221399426460266e-02 5.478250607848167419e-02 9.695252776145935059e-02 -4.226665571331977844e-02 -1.079403758049011230e-01 -1.052340641617774963e-01 1.991065032780170441e-02 -1.006025541573762894e-02 -1.837101764976978302e-02 -4.375189542770385742e-02 4.342514649033546448e-02 -2.039859630167484283e-02 7.698892056941986084e-02 8.555600792169570923e-02 -1.353374123573303223e-01 -3.332503139972686768e-02 1.329130381345748901e-01 -8.144922554492950439e-02 -7.996711134910583496e-02 1.787072978913784027e-02 4.084122180938720703e-02 -7.094004750251770020e-02 -4.721306264400482178e-02 -4.202420637011528015e-02 -6.980150938034057617e-02 -1.057061366736888885e-02 7.544672489166259766e-02 -9.854970872402191162e-02 4.268400371074676514e-02 -1.721490025520324707e-01 -6.796847283840179443e-02 -1.260973326861858368e-02 1.076827347278594971e-01 4.127375781536102295e-02 -7.605677843093872070e-02 -3.299421863630414009e-03 -5.377542600035667419e-02 3.706720471382141113e-02 7.734969258308410645e-02 -4.086438566446304321e-02 4.007470235228538513e-02 5.351716279983520508e-02 2.042774809524416924e-03 3.742209821939468384e-02 -1.070172116160392761e-01 7.331831008195877075e-02 -3.025061823427677155e-02 6.828399747610092163e-02 -7.830940932035446167e-02 3.894044458866119385e-02 1.204959675669670105e-01 -6.667792052030563354e-02 -7.359261065721511841e-02 -3.600792959332466125e-02 -2.321739941835403442e-01 8.765456080436706543e-02 1.588715016841888428e-01 -1.414209902286529541e-01 -1.170082092285156250e-01 1.114949956536293030e-01 6.100732088088989258e-02 -2.847109921276569366e-03 -2.049999237060546875e-01 6.192902848124504089e-02 1.302189528942108154e-01
6.948278099298477173e-02 3.968197107315063477e-02 3.831664025783538818e-01 3.503483254462480545e-03 -3.162420690059661865e-01 4.288734402507543564e-03 1.309829950332641602e-02 -5.430648475885391235e-02 1.605454459786415100e-02 -7.108009606599807739e-02 7.095040380954742432e-02 3.435584018006920815e-03 8.093223720788955688e-02 4.318789578974246979e-03 -1.015661358833312988e-01 -1.366897765547037125e-02 3.477956950664520264e-01 -1.196445375680923462e-01 -3.611114621162414551e-01 4.800589010119438171e-02 4.037959128618240356e-02 2.094799280166625977e-02 -4.045374318957328796e-02 7.919370383024215698e-02 6.199669837951660156e-02 5.256114900112152100e-02 2.061633393168449402e-02 1.954507268965244293e-02 4.657694697380065918e-02 -3.006209246814250946e-02 2.912820875644683838e-01 5.188770964741706848e-02 -3.367172777652740479e-01 5.347670242190361023e-02 1.876780688762664795e-01 3.052530623972415924e-02 -2.629594504833221436e-02 -3.680938156321644783e-03 -3.709618374705314636e-02 -3.525777161121368408e-02 1.033594012260437012e-01 1.575214788317680359e-02 -6.134806573390960693e-02 2.055482566356658936e-02 3.592387437820434570e-01 5.687814578413963318e-02 -4.070832729339599609e-01 1.087189093232154846e-01 -1.517577562481164932e-02 -1.854578778147697449e-02 5.662437900900840759e-02 6.850343197584152222e-02 -6.095658987760543823e-02 -1.069649588316679001e-02 -1.007151901721954346e-01 -1.732416264712810516e-02 4.732559621334075928e-02 -1.546092238277196884e-02 3.246349692344665527e-01 7.827278226613998413e-03 -3.530057370662689209e-01 -2.158040255308151245e-01 1.470288783311843872e-01 1.983409002423286438e-02 -9.174866136163473129e-04 -7.277359813451766968e-02 -5.075982585549354553e-02 -1.165593508630990982e-02 -1.063829660415649414e-01 -2.314297482371330261e-02
-7.305243052542209625e-03 3.869054019451141357e-01 3.391536474227905273e-01 4.176502674818038940e-02 1.409512311220169067e-01 -3.536105751991271973e-01 2.432722896337509155e-01 -2.996612787246704102e-01 6.186428945511579514e-03 9.650663286447525024e-02 -5.688638240098953247e-02 7.646142970770597458e-03 8.650945127010345459e-02 -1.717241406440734863e-01 -3.104778937995433807e-02 2.349050641059875488e-01 1.955341398715972900e-01 1.546616014093160629e-02 7.192399352788925171e-02 -5.154358968138694763e-02 3.810039162635803223e-01 -2.823953926563262939e-01 1.123680844902992249e-01 -1.854683086276054382e-02 2.161026000976562500e-02 5.195833742618560791e-02 -5.483564361929893494e-02 5.070709064602851868e-02 -8.041678369045257568e-02 9.971873462200164795e-02 3.323226571083068848e-01 7.449159026145935059e-02 1.135835796594619751e-01 -7.480237167328596115e-03 3.318601250648498535e-01 -7.930950820446014404e-02 -5.497905611991882324e-02 -6.559839099645614624e-02 9.650006890296936035e-02 7.469785958528518677e-02 9.228643029928207397e-02 -5.467638839036226273e-03 -1.934179337695240974e-03 -1.591569334268569946e-01 2.385130077600479126e-01 -1.136272698640823364e-01 1.440128087997436523e-01 2.114306241273880005e-01 4.111339449882507324e-01 1.938627660274505615e-01 -1.564394310116767883e-02 -4.378017783164978027e-02 -1.144403889775276184e-01 5.155065096914768219e-03 -1.429352760314941406e-01 -5.872301757335662842e-02 1.134430468082427979e-01 -5.833825469017028809e-01 3.771908879280090332e-01 -2.398970350623130798e-02 5.725669115781784058e-02 2.031981348991394043e-01 3.692212104797363281e-01 4.764248132705688477e-01 -4.883496090769767761e-02 2.998474985361099243e-02 7.326602190732955933e-02 -1.373782306909561157e-01 1.712650246918201447e-02 1.895007789134979248e-01
-4.378910362720489502e-02 9.076346457004547119e-02 3.184053301811218262e-02 2.420269139111042023e-02 -6.981460750102996826e-02 -1.997935324907302856e-01 4.186292365193367004e-02 -1.066977083683013916e-01 -7.264027744531631470e-02 1.997532248497009277e-01 -4.270669817924499512e-02 8.857104927301406860e-02 -9.858481585979461670e-02 -1.215892434120178223e-01 4.879236966371536255e-02 -7.016994059085845947e-02 -2.501526847481727600e-02 -4.270116239786148071e-02 4.136094450950622559e-02 -1.321595907211303711e-01 7.731633633375167847e-02 9.630917757749557495e-02 5.122279003262519836e-02 6.176633760333061218e-02 5.573417991399765015e-02 -9.006814658641815186e-02 2.108317613601684570e-02 -3.645135462284088135e-02 2.181203290820121765e-02 4.133837297558784485e-02 -1.258297115564346313e-01 7.839726656675338745e-02 -7.330077886581420898e-02 2.799410559237003326e-02 6.466965377330780029e-02 -4.939943179488182068e-02 6.407043337821960449e-02 -5.567681416869163513e-02 5.250895395874977112e-02 -2.486257255077362061e-02 -1.036085039377212524e-01 2.371069043874740601e-02 8.450292050838470459e-02 4.392730444669723511e-02 -4.174320492893457413e-03 -4.539025947451591492e-02 3.321989625692367554e-02 1.420983672142028809e-01 8.074878901243209839e-02 7.841290533542633057e-02 5.816299468278884888e-02 -1.372538357973098755e-01 1.206792220473289490e-01 -1.511288881301879883e-01 4.222368821501731873e-02 1.738975942134857178e-01 -5.608593113720417023e-03 -5.126208066940307617e-02 -5.937768518924713135e-02 1.076071858406066895e-01 4.775281623005867004e-02 1.047907397150993347e-01 1.132204383611679077e-01 -1.432576333172619343e-03 -4.057789966464042664e-02 -8.723750710487365723e-02 9.983503818511962891e-02 -3.899439424276351929e-02 3.702735900878906250e-02 4.633301869034767151e-02
-3.844549506902694702e-02 2.226385101675987244e-02 7.519435882568359375e-02 -3.019084967672824860e-02 -5.488494038581848145e-02 2.693356946110725403e-03 -1.694162636995315552e-01 -9.561147540807723999e-03 -7.847350090742111206e-02 2.225999347865581512e-02 -2.558941766619682312e-02 -8.047839999198913574e-02 -1.077367290854454041e-01 5.461658909916877747e-02 -2.696313150227069855e-02 -1.427757460623979568e-02 7.376766204833984375e-02 3.540468961000442505e-02 -7.035278528928756714e-02 -1.198302581906318665e-01 -5.891462787985801697e-03 1.307587791234254837e-02 1.319444626569747925e-01 -6.452871859073638916e-02 8.686949312686920166e-02 3.116248920559883118e-02 4.746881127357482910e-02 -7.642221450805664062e-02 -6.665333360433578491e-02 5.744051933288574219e-02 1.476639658212661743e-01 8.707192540168762207e-02 -1.544168293476104736e-01 -7.217007875442504883e-02 8.476877585053443909e-03 -5.055442079901695251e-02 4.519113525748252869e-02 9.230677038431167603e-02 -3.698495775461196899e-02 2.135705500841140747e-01 5.080614984035491943e-02 -8.116179704666137695e-02 5.882547050714492798e-02 1.057925820350646973e-01 -9.624936617910861969e-03 1.297381371259689331e-01 -1.181114166975021362e-01 -2.249181419610977173e-01 -1.240299418568611145e-01 1.307941973209381104e-01 6.623118650168180466e-03 5.431766435503959656e-02 -8.968387544155120850e-02 1.208621785044670105e-01 8.649448305368423462e-02 -6.293881684541702271e-02 7.168708741664886475e-02 -5.516247823834419250e-02 6.576863676309585571e-02 3.935474157333374023e-02 -6.590892374515533447e-02 -4.291664958000183105e-01 -1.487637311220169067e-01 3.254685401916503906e-01 -6.144076213240623474e-02 1.930136978626251221e-02 6.680895388126373291e-02 2.158503532409667969e-01 -7.383304089307785034e-02 -1.286138743162155151e-01
-9.840841591358184814e-02 -1.061471700668334961e-01 9.457467123866081238e-03 -2.367888689041137695e-01 6.520204991102218628e-02 -5.942831560969352722e-02 -1.558095067739486694e-01 -3.003613650798797607e-01 3.869911655783653259e-02 -1.382180303335189819e-01 -8.214844018220901489e-02 -1.570805311203002930e-01 8.060467243194580078e-02 1.935412287712097168e-01 -5.977810919284820557e-02 -3.776347264647483826e-02 -1.028800159692764282e-01 -1.368512660264968872e-01 9.750634431838989258e-03 9.035541117191314697e-02 -1.481531858444213867e-01 -2.653713524341583252e-02 -1.052256450057029724e-01 1.512177847325801849e-02 -1.098216772079467773e-01 -1.495564877986907959e-01 -6.864893436431884766e-02 4.834349080920219421e-02 7.577355951070785522e-02 4.412867501378059387e-02 9.535807371139526367e-02 6.375744007527828217e-03 -3.227574378252029419e-02 -3.977107629179954529e-02 -6.406527012586593628e-02 -3.696437552571296692e-02 -3.294273978099226952e-03 -3.037707507610321045e-02 -1.232441700994968414e-02 2.829770185053348541e-02 4.279156401753425598e-02 -6.066135689616203308e-02 2.976812655106186867e-03 1.670812368392944336e-01 -4.679059609770774841e-02 1.402360498905181885e-01 1.912673115730285645e-01 5.566116049885749817e-02 -1.020312756299972534e-01 8.541435748338699341e-02 9.541464596986770630e-02 1.741008087992668152e-02 6.990919355303049088e-03 1.044995635747909546e-01 2.763726050034165382e-03 -6.715815514326095581e-03 2.271948941051959991e-02 8.514031767845153809e-02 -6.363745033740997314e-02 1.363987624645233154e-01 1.693994253873825073e-01 1.349362730979919434e-01 -6.637809425592422485e-02 2.388155013322830200e-01 1.403972133994102478e-02 1.212507113814353943e-01 1.006359234452247620e-01 1.810449808835983276e-01 -7.034648954868316650e-02 -1.793332248926162720e-01
8.294843137264251709e-02 -4.881835728883743286e-02 -9.751131437951698899e-05 -1.339484006166458130e-01 -5.124798417091369629e-02 -5.869218613952398300e-03 2.942108176648616791e-02 1.933594979345798492e-02 -5.746029317378997803e-03 -2.646397985517978668e-02 1.741606369614601135e-02 6.597290933132171631e-02 -1.521517429500818253e-02 2.140309475362300873e-02 -6.020462885499000549e-02 -2.238122187554836273e-02 -2.276479080319404602e-02 -8.308216184377670288e-02 7.907717674970626831e-02 1.558010429143905640e-01 7.285449653863906860e-02 7.601433992385864258e-02 8.772323280572891235e-02 -7.223131507635116577e-02 -1.630358994007110596e-01 9.155666828155517578e-02 1.065572872757911682e-01 1.590712927281856537e-02 -7.790238410234451294e-02 1.019815541803836823e-02 7.025966793298721313e-02 -1.177306938916444778e-02 6.350225955247879028e-02 -7.664250582456588745e-02 1.231555566191673279e-01 1.091967672109603882e-01 6.462145131081342697e-03 -2.542141266167163849e-02 3.898313269019126892e-02 -9.351126104593276978e-02 -2.910879999399185181e-02 -7.130476087331771851e-02 1.022939831018447876e-01 1.210927292704582214e-01 -3.316359221935272217e-02 9.090438485145568848e-03 -5.737626180052757263e-02 -7.576312124729156494e-02 2.277317456901073456e-02 -1.136317998170852661e-01 -5.900282785296440125e-02 6.677530705928802490e-02 -7.310776412487030029e-02 8.341017365455627441e-02 -1.943128556013107300e-02 6.966806203126907349e-02 -6.265597045421600342e-02 -5.826894938945770264e-02 6.902999710291624069e-03 2.405602633953094482e-01 -3.861324489116668701e-02 -5.028808955103158951e-03 5.887392908334732056e-02 -9.165912121534347534e-02 -6.548591703176498413e-02 5.886826291680335999e-02 -8.300162851810455322e-02 -1.586666405200958252e-01 1.723408140242099762e-02 -3.318467736244201660e-02
2.227682853117585182e-03 1.406667008996009827e-02 -2.136523425579071045e-01 -1.178823783993721008e-01 3.933571651577949524e-02 -1.211132556200027466e-01 2.726620733737945557e-01 1.681709140539169312e-01 -4.249203205108642578e-02 2.123330486938357353e-03 4.948592558503150940e-02 -1.229862309992313385e-02 -1.536061912775039673e-01 -4.902421310544013977e-02 4.914080724120140076e-03 3.240394219756126404e-02 -1.555750370025634766e-01 -1.312022805213928223e-01 -1.350053548812866211e-01 6.477643735706806183e-03 2.237861156463623047e-01 1.607098728418350220e-01 1.058193966746330261e-01 -9.912995621562004089e-03 3.509267047047615051e-02 -2.592302858829498291e-02 6.587236374616622925e-02 1.074957400560379028e-01 -3.774772211909294128e-02 -5.658528953790664673e-02 -2.360368371009826660e-01 -4.459181427955627441e-02 8.400902152061462402e-03 3.165184333920478821e-02 1.736808568239212036e-01 8.724279468879103661e-04 -7.861568033695220947e-02 -2.178728953003883362e-02 -4.391209036111831665e-02 9.972346574068069458e-02 3.939436376094818115e-02 -3.171431273221969604e-02 7.170278113335371017e-03 -1.267223991453647614e-02 -2.060178518295288086e-01 -2.521446645259857178e-01 -1.647869497537612915e-01 -2.507977187633514404e-02 2.181301414966583252e-01 -3.740232065320014954e-02 -4.043196886777877808e-02 4.117166623473167419e-02 -4.733678651973605156e-04 1.004095841199159622e-02 5.010077357292175293e-02 -1.052323654294013977e-01 2.503226511180400848e-02 2.207398600876331329e-02 -2.190647423267364502e-01 5.465249419212341309e-01 -9.841469675302505493e-02 1.079722940921783447e-01 1.575346887111663818e-01 -2.931872606277465820e-01 5.620554834604263306e-02 -1.103840302675962448e-02 -3.376276046037673950e-02 -7.169103622436523438e-02 -1.077774912118911743e-03 7.832475006580352783e-02
-6.570198573172092438e-03 -4.436250776052474976e-02 3.294539824128150940e-02 6.978566199541091919e-02 2.671042829751968384e-02 -8.925631642341613770e-02 1.247396245598793030e-01 -7.790933549404144287e-02 5.255387723445892334e-02 -2.754619717597961426e-02 2.404866181313991547e-02 -1.544283423572778702e-02 -4.087079316377639771e-02 -2.079237625002861023e-02 5.476690456271171570e-02 -3.224669769406318665e-02 2.475910931825637817e-01 -9.293900430202484131e-02 -1.250265538692474365e-02 -9.814228862524032593e-02 5.843551456928253174e-02 -3.663717955350875854e-02 -1.804472133517265320e-02 8.550204336643218994e-03 5.990920960903167725e-02 2.847409248352050781e-02 -6.306640058755874634e-02 6.329625099897384644e-02 -4.425044357776641846e-02 -1.825330257415771484e-01 1.194687113165855408e-01 -5.284865200519561768e-02 5.603398382663726807e-02 -1.393488645553588867e-01 -5.455894768238067627e-02 -1.535467356443405151e-01 -3.816391900181770325e-02 7.531292270869016647e-03 -6.015966087579727173e-02 -4.502491280436515808e-02 -3.315034508705139160e-02 -3.666748851537704468e-02 -1.581462100148200989e-02 -1.503654122352600098e-01 9.884885698556900024e-02 -1.820584237575531006e-01 -9.715094417333602905e-02 -1.701956391334533691e-01 1.100877672433853149e-02 -1.359558552503585815e-01 -1.738951355218887329e-02 5.081671476364135742e-02 -5.269780009984970093e-02 7.842155173420906067e-03 6.233321502804756165e-02 5.995023250579833984e-02 1.046392880380153656e-02 -4.782884716987609863e-01 2.619159519672393799e-01 -2.674960792064666748e-01 -4.749838262796401978e-02 -4.169961214065551758e-01 1.636857688426971436e-01 -2.365850806236267090e-01 -9.155677631497383118e-03 -7.150521129369735718e-02 -7.544050458818674088e-03 9.623482078313827515e-02 7.827485352754592896e-02 -9.616874903440475464e-02
-6.802269816398620605e-02 -1.668188124895095825e-01 1.399646252393722534e-01 -1.137525886297225952e-01 -1.679291278123855591e-01 4.055308550596237183e-02 7.422468066215515137e-02 -2.072696238756179810e-01 -7.102068513631820679e-02 1.675700396299362183e-01 -2.860159426927566528e-02 2.225651741027832031e-01 -2.116992138326168060e-02 6.003201007843017578e-02 5.496474914252758026e-03 5.699062347412109375e-02 1.794624328613281250e-01 -1.608232855796813965e-01 -6.939683854579925537e-02 -1.908494625240564346e-03 2.742974162101745605e-01 -8.238941431045532227e-02 2.535696141421794891e-02 1.375961862504482269e-02 6.196414679288864136e-02 8.361133188009262085e-02 3.202483803033828735e-02 4.496811330318450928e-02 2.063202857971191406e-02 -7.284433394670486450e-02 1.418581306934356689e-01 -3.200617060065269470e-02 -1.390922814607620239e-01 5.906284973025321960e-02 1.648526638746261597e-01 -2.166111208498477936e-02 5.113356560468673706e-02 7.149588316679000854e-02 -9.111707657575607300e-02 -5.693048611283302307e-02 -1.466812044382095337e-01 -2.553804311901330948e-03 -2.482809871435165405e-02 -1.130030723288655281e-03 6.007183715701103210e-02 1.024290621280670166e-01 -1.183965504169464111e-01 6.374665349721908569e-02 2.745191156864166260e-01 6.629950553178787231e-02 -7.220499217510223389e-02 -4.241663031280040741e-03 8.606319874525070190e-02 -1.372318118810653687e-01 -6.921861320734024048e-02 -8.063597232103347778e-02 6.142600998282432556e-02 -4.777766391634941101e-02 1.432624608278274536e-01 -1.655401661992073059e-02 -2.396932430565357208e-02 -2.065054774284362793e-01 1.234615445137023926e-01 1.755147874355316162e-01 1.016848757863044739e-01 -2.432246357202529907e-01 -9.991406649351119995e-02 -1.349920779466629028e-01 5.303713493049144745e-03 -1.131056342273950577e-02
6.473889201879501343e-02 2.379458956420421600e-02 -7.273852825164794922e-02 7.521659135818481445e-02 2.499703615903854370e-01 7.236800342798233032e-02 1.886112540960311890e-01 -4.229593649506568909e-02 -7.218113541603088379e-02 9.853286901488900185e-04 -6.255262345075607300e-02 5.244652554392814636e-02 -7.330176979303359985e-02 6.835391372442245483e-02 -2.596133202314376831e-02 -1.518740952014923096e-01 -4.831216763705015182e-03 7.683190517127513885e-03 4.422956109046936035e-01 -2.044081687927246094e-02 1.787609010934829712e-01 -1.746552884578704834e-01 -4.664594307541847229e-02 -1.021999027580022812e-02 -4.184342920780181885e-02 -7.586712390184402466e-02 -8.090344816446304321e-02 4.461516067385673523e-02 -1.335253380239009857e-02 -1.543111503124237061e-01 -2.401173114776611328e-02 -2.204257063567638397e-02 3.868007659912109375e-01 -9.059041738510131836e-02 6.322269141674041748e-02 -1.099374368786811829e-01 7.275681197643280029e-02 4.951440170407295227e-02 1.176905781030654907e-01 6.621132791042327881e-02 1.020802706480026245e-01 -1.090582534670829773e-01 -3.504832275211811066e-03 -5.721505358815193176e-02 1.629911735653877258e-02 8.805456757545471191e-02 2.887569963932037354e-01 1.380781084299087524e-02 2.509441971778869629e-01 7.937119156122207642e-02 -6.200641766190528870e-02 -1.028760224580764771e-01 -3.087442182004451752e-02 -1.201783772557973862e-02 1.555575756356120110e-03 -4.703031852841377258e-02 -2.383316121995449066e-02 3.420619964599609375e-01 3.599520027637481689e-02 -1.529392898082733154e-01 4.546578824520111084e-01 2.297165431082248688e-02 1.578710377216339111e-01 2.505273222923278809e-01 1.085127368569374084e-01 6.241657957434654236e-02 2.651344111654907465e-04 -3.365659341216087341e-02 4.972687736153602600e-02 4.361946880817413330e-02
4.365694150328636169e-02 -7.551058381795883179e-02 1.842897385358810425e-01 -4.910290241241455078e-02 3.366290628910064697e-01 -7.950515300035476685e-02 -1.455460190773010254e-01 -1.156228482723236084e-01 4.777101054787635803e-02 -5.164524540305137634e-02 6.452048569917678833e-02 -1.279822736978530884e-02 -7.239897549152374268e-02 -5.865804632776416838e-05 5.994804203510284424e-02 -4.586131870746612549e-02 3.580696582794189453e-01 -1.009541824460029602e-01 3.281106948852539062e-01 4.155914485454559326e-02 -4.659109935164451599e-02 3.737085312604904175e-02 -5.285035818815231323e-02 1.025125533342361450e-01 -9.342303127050399780e-02 6.442598998546600342e-02 4.742801189422607422e-02 6.688355654478073120e-02 -4.937989264726638794e-02 9.093677252531051636e-02 3.325638175010681152e-01 8.162348717451095581e-02 2.816692292690277100e-01 -2.380038984119892120e-02 -1.307932138442993164e-01 5.609451234340667725e-02 1.051803352311253548e-03 -8.046779036521911621e-02 -5.101607646793127060e-03 -6.417791545391082764e-02 -1.234180293977260590e-02 -7.514890283346176147e-02 -9.486123919486999512e-02 5.527089536190032959e-02 1.940747499465942383e-01 -1.077629476785659790e-01 2.811514437198638916e-01 -1.471457909792661667e-02 -2.258832603693008423e-01 4.635183513164520264e-02 -2.934675477445125580e-02 -2.933832816779613495e-02 -6.650561094284057617e-02 6.532119214534759521e-02 -9.311917820014059544e-04 5.601204000413417816e-03 3.874431923031806946e-02 -2.360103279352188110e-02 2.286830991506576538e-01 1.750496327877044678e-01 1.000256612896919250e-01 7.736159861087799072e-02 -1.891658455133438110e-01 -2.542402409017086029e-02 2.509305253624916077e-02 5.867622792720794678e-02 9.915239363908767700e-02 -5.365498736500740051e-02 4.284336045384407043e-02 2.269841730594635010e-03
-5.334217846393585205e-02 -4.763123020529747009e-02 -1.318539530038833618e-01 1.273332834243774414e-01 3.604577109217643738e-02 -9.361339360475540161e-02 9.400491416454315186e-02 -3.050418198108673096e-01 -3.781607374548912048e-02 3.970178589224815369e-02 1.178837195038795471e-01 -6.008941680192947388e-02 -1.005606800317764282e-01 1.037782505154609680e-01 4.590943455696105957e-02 -8.510553091764450073e-02 -9.468826651573181152e-02 -1.187696401029825211e-02 1.069969236850738525e-01 1.977022923529148102e-02 4.042892158031463623e-02 -1.243939250707626343e-01 1.579299010336399078e-02 -3.998330608010292053e-02 1.160956472158432007e-01 -1.496987417340278625e-02 -9.256131947040557861e-02 -1.224168315529823303e-01 4.831860773265361786e-03 -4.796103388071060181e-02 -6.158694252371788025e-02 -9.041934390552341938e-04 1.096410900354385376e-01 -9.265010058879852295e-02 1.920439898967742920e-01 6.003265827894210815e-02 2.452251268550753593e-03 4.536035656929016113e-02 -1.018667872995138168e-02 -2.121819183230400085e-02 9.625130146741867065e-02 5.324386060237884521e-02 3.241550875827670097e-03 5.497568473219871521e-02 -8.335384726524353027e-02 -2.341767847537994385e-01 7.693421840667724609e-02 4.937947168946266174e-02 5.294487625360488892e-02 2.314586490392684937e-01 -2.861901931464672089e-02 4.584510251879692078e-02 -1.001836359500885010e-01 -1.640816032886505127e-02 1.322599053382873535e-01 -4.516745358705520630e-02 1.354374177753925323e-02 -5.571615416556596756e-03 -1.301313787698745728e-01 -1.892065405845642090e-01 1.458743661642074585e-01 1.246606111526489258e-01 2.043466418981552124e-01 1.734964847564697266e-01 5.231536552309989929e-02 -8.931390196084976196e-02 1.153279934078454971e-02 9.735718369483947754e-02 -5.329768732190132141e-02 1.504576212028041482e-04
1.163890063762664795e-01 1.397101432085037231e-01 -1.211971417069435120e-01 -2.261179983615875244e-01 6.143353879451751709e-02 -4.069562256336212158e-02 9.290801733732223511e-02 1.510797291994094849e-01 -1.891212910413742065e-02 -2.393047139048576355e-02 -8.801880478858947754e-02 -1.044760271906852722e-01 5.426368489861488342e-02 2.692980468273162842e-01 -1.116671934723854065e-01 1.055129170417785645e-01 -1.156807690858840942e-01 -1.298978477716445923e-01 -4.124694690108299255e-02 -4.713606834411621094e-02 8.960281312465667725e-02 1.387353390455245972e-01 -1.858219355344772339e-01 7.896210998296737671e-02 -4.480346664786338806e-02 -5.250722542405128479e-02 1.704611815512180328e-02 2.212992310523986816e-01 -9.719711728394031525e-03 8.433170616626739502e-02 -4.579334706068038940e-02 -1.199184060096740723e-01 -7.876467704772949219e-02 6.999982893466949463e-02 2.147397994995117188e-01 -7.451845705509185791e-02 -1.940456330776214600e-01 -6.201798096299171448e-03 -1.702339351177215576e-01 -1.328984834253787994e-02 -1.369281858205795288e-01 -1.039694398641586304e-01 3.634249791502952576e-02 -5.548880994319915771e-02 -1.268631815910339355e-01 1.258635520935058594e-01 2.231048792600631714e-02 7.343651354312896729e-02 2.278641313314437866e-01 -5.405913665890693665e-02 -8.795156329870223999e-02 5.354110896587371826e-02 -3.809755668044090271e-02 3.299240767955780029e-02 8.641118556261062622e-02 -2.225901335477828979e-01 -2.584929391741752625e-02 -2.741305828094482422e-01 -1.797434836626052856e-01 3.534102141857147217e-01 -1.110480204224586487e-01 -5.215904116630554199e-02 9.164090454578399658e-02 -1.731277853250503540e-01 -2.335769683122634888e-02 -9.284089505672454834e-02 -1.793371737003326416e-01 1.327105462551116943e-01 -4.396978020668029785e-02 -1.683013141155242920e-01
6.247321143746376038e-02 -3.400745335966348648e-04 2.579688727855682373e-01 -7.773145288228988647e-02 -1.398187741870060563e-04 1.577219069004058838e-01 2.565483748912811279e-01 -2.345154732465744019e-01 7.578306645154953003e-02 1.594600528478622437e-01 -7.007307410240173340e-01 -4.636937007308006287e-02 -7.269836962223052979e-02 2.901164591312408447e-01 2.010727766901254654e-03 7.347822189331054688e-02 2.299417108297348022e-01 -8.784486353397369385e-02 -1.806914806365966797e-02 -7.877087593078613281e-02 2.158618718385696411e-01 -2.307756245136260986e-01 -1.061632260680198669e-01 -7.503624260425567627e-02 -6.842820048332214355e-01 -2.307710051536560059e-02 -1.343045383691787720e-01 1.610320806503295898e-01 -2.970982342958450317e-02 7.567363977432250977e-02 2.386660575866699219e-01 5.166649073362350464e-02 -2.109843306243419647e-02 -1.205663383007049561e-01 2.799875140190124512e-01 8.822907507419586182e-02 9.598150104284286499e-02 -4.556784033775329590e-02 -6.704277992248535156e-01 4.724156856536865234e-02 -6.498980522155761719e-02 -8.935198187828063965e-03 -1.215417124330997467e-02 8.062822371721267700e-02 2.979439198970794678e-01 -3.114946931600570679e-02 6.088352575898170471e-02 2.551705762743949890e-02 1.860445737838745117e-01 1.705512702465057373e-01 -8.850070089101791382e-02 -1.220827549695968628e-01 -5.951616168022155762e-01 2.005789279937744141e-01 -7.104194164276123047e-02 -1.086305379867553711e-01 -5.867776647210121155e-02 -1.435083989053964615e-02 3.054564595222473145e-01 -1.951464451849460602e-02 -3.812692686915397644e-02 1.213706191629171371e-02 2.885412871837615967e-01 3.464421629905700684e-01 -3.206795826554298401e-02 -1.051748543977737427e-02 -4.985061883926391602e-01 2.098391652107238770e-01 -2.440219223499298096e-01 -1.070792600512504578e-01
1.073370054364204407e-01 -2.237286120653152466e-01 1.778807789087295532e-01 2.268244028091430664e-01 -1.963958591222763062e-01 2.753164805471897125e-02 1.566984951496124268e-01 -3.086657263338565826e-02 -3.039191290736198425e-02 7.879213988780975342e-02 3.824672847986221313e-02 -2.267764657735824585e-01 4.599668458104133606e-02 -8.825917541980743408e-02 -6.915969401597976685e-02 -3.085131943225860596e-02 5.918486788868904114e-02 2.975355982780456543e-01 -8.159422874450683594e-02 -7.230205833911895752e-02 1.820192039012908936e-01 5.842195823788642883e-02 -1.809385046362876892e-02 -2.364713326096534729e-02 2.065029554069042206e-02 5.233015865087509155e-02 1.524409931153059006e-02 -6.239384412765502930e-02 -4.534930363297462463e-02 6.967879831790924072e-02 2.178591638803482056e-01 -1.575551182031631470e-02 -1.311504095792770386e-01 -5.775957182049751282e-02 1.657256186008453369e-01 4.134027287364006042e-02 9.982442855834960938e-02 -8.558153361082077026e-02 6.884040776640176773e-03 -1.598876900970935822e-02 -9.400942921638488770e-02 1.593698165379464626e-03 6.351552903652191162e-02 9.759059548377990723e-02 1.189709901809692383e-01 1.524731330573558807e-02 -2.150805480778217316e-02 8.563800156116485596e-02 2.564886771142482758e-02 -9.149679541587829590e-02 -5.725376307964324951e-03 2.583741955459117889e-02 -1.011075899004936218e-01 4.846165329217910767e-02 8.723308891057968140e-02 7.107908278703689575e-02 -8.089858293533325195e-02 3.285471796989440918e-01 5.195557326078414917e-02 -3.723851144313812256e-01 -2.335167676210403442e-01 1.502238679677248001e-02 9.262041747570037842e-02 9.913319349288940430e-02 2.339845814276486635e-04 1.938593573868274689e-03 1.703245565295219421e-02 1.373585015535354614e-01 2.392210997641086578e-02 9.185178577899932861e-02
3.283961117267608643e-02 -5.164172872900962830e-02 1.326924413442611694e-01 -4.771644249558448792e-02 5.912406742572784424e-02 -1.197940707206726074e-01 9.621825069189071655e-02 -1.936530470848083496e-01 -2.689000964164733887e-02 -5.717672780156135559e-02 -6.070276722311973572e-02 -4.722078330814838409e-03 2.495865710079669952e-02 -8.808184415102005005e-02 -2.356539852917194366e-02 -1.259719207882881165e-02 7.386420667171478271e-02 -1.946129798889160156e-01 -6.591922789812088013e-02 -1.582589000463485718e-02 -3.569800034165382385e-02 -1.637516468763351440e-01 -9.422630816698074341e-02 5.442628636956214905e-02 5.342897772789001465e-02 1.297048665583133698e-02 -6.663646548986434937e-02 1.080101579427719116e-01 2.219183556735515594e-02 -9.512899816036224365e-02 3.722804831340909004e-03 4.726038873195648193e-02 9.730368107557296753e-02 1.132879685610532761e-02 -2.782523259520530701e-02 2.194831147789955139e-02 -2.641721814870834351e-02 4.913108423352241516e-02 1.359171816147863865e-03 -5.248640477657318115e-02 -3.168863430619239807e-02 -7.871688902378082275e-02 -1.062625087797641754e-02 5.849178507924079895e-02 -2.395484410226345062e-02 1.594382822513580322e-01 -6.576742976903915405e-02 4.015932232141494751e-02 -4.135956242680549622e-02 1.632981449365615845e-01 6.705646216869354248e-02 -1.273528635501861572e-01 -4.108128696680068970e-02 1.837166957557201385e-02 2.304847165942192078e-02 4.032783210277557373e-02 -5.517744272947311401e-02 1.186397373676300049e-01 -3.997283056378364563e-02 2.515149712562561035e-01 1.220123246312141418e-01 1.398051232099533081e-01 -1.114649605005979538e-02 2.649555206298828125e-01 3.240077570080757141e-02 6.683236360549926758e-02 5.305366590619087219e-02 3.374371305108070374e-02 2.882077544927597046e-02 1.914548687636852264e-02
-1.706934571266174316e-01 -9.158875793218612671e-02 2.446879148483276367e-01 2.434610947966575623e-02 2.143293470144271851e-01 1.433063000440597534e-01 5.356637388467788696e-02 -1.391187310218811035e-01 -2.006120234727859497e-01 8.602897822856903076e-02 -5.392602682113647461e-01 8.310834318399429321e-02 3.822037875652313232e-01 -1.329994499683380127e-01 -2.081810235977172852e-01 -4.327798727899789810e-03 1.512723118066787720e-01 9.418794512748718262e-02 2.299433052539825439e-01 1.321473121643066406e-01 1.338071078062057495e-01 -8.999304473400115967e-02 -1.269596219062805176e-01 1.216462403535842896e-01 -3.561643958091735840e-01 1.359674483537673950e-01 4.311287105083465576e-01 -9.530443698167800903e-02 -3.619865328073501587e-02 2.263297699391841888e-02 1.844146549701690674e-01 9.923450648784637451e-02 1.989634484052658081e-01 -1.593885272741317749e-01 1.418463289737701416e-01 2.329587005078792572e-02 -1.554610580205917358e-01 2.305259369313716888e-02 -5.044766664505004883e-01 1.351910531520843506e-01 5.257766842842102051e-01 -1.821286678314208984e-01 -8.839917927980422974e-02 -6.393862515687942505e-02 2.509362399578094482e-01 -5.714361369609832764e-02 3.402001410722732544e-02 -1.397488415241241455e-01 2.603015601634979248e-01 2.094423212110996246e-02 -2.108252495527267456e-01 -1.529896557331085205e-01 -4.209025204181671143e-01 4.895855113863945007e-02 3.908544480800628662e-01 -1.460257917642593384e-01 -2.112009227275848389e-01 2.050511538982391357e-02 2.277802377939224243e-01 1.529250591993331909e-01 7.439359277486801147e-02 -2.008666694164276123e-01 2.613601982593536377e-01 -2.992165088653564453e-02 -1.821491420269012451e-01 -6.003114953637123108e-02 -4.082146883010864258e-01 -9.220381826162338257e-02 5.577269792556762695e-01 3.041264228522777557e-02
-7.413798943161964417e-03 -2.377756871283054352e-02 -2.120212614536285400e-01 -9.563032537698745728e-02 1.369637399911880493e-01 7.939954102039337158e-02 -1.566621661186218262e-01 1.414809972047805786e-01 -3.357662260532379150e-02 -3.134310245513916016e-02 4.683202132582664490e-02 -4.755183309316635132e-02 8.948083221912384033e-02 -2.310651540756225586e-02 -4.683826118707656860e-02 -2.171760238707065582e-02 -1.533372700214385986e-01 4.583094269037246704e-02 1.554965041577816010e-02 9.990715235471725464e-02 -2.364099472761154175e-01 9.047886729240417480e-02 1.213908419013023376e-01 3.616679832339286804e-02 3.465022891759872437e-02 6.969525665044784546e-02 -9.619295597076416016e-02 1.186455413699150085e-01 1.100338026881217957e-01 6.221854314208030701e-02 -1.852494180202484131e-01 9.584237635135650635e-02 6.900757551193237305e-02 5.543853715062141418e-02 -2.121745049953460693e-01 -1.550573017448186874e-02 -2.961441688239574432e-02 2.433565072715282440e-02 6.544616073369979858e-03 6.507992744445800781e-02 -2.910998649895191193e-02 -5.441120266914367676e-02 -2.603556588292121887e-02 -1.947954646311700344e-03 -2.053645849227905273e-01 -1.286256825551390648e-03 -6.536505650728940964e-03 8.799548260867595673e-03 -2.214048355817794800e-01 -1.861437782645225525e-02 -6.788208149373531342e-03 -6.912353448569774628e-03 -1.522179227322340012e-02 -3.105179406702518463e-02 8.848553895950317383e-02 -1.132846996188163757e-01 -3.135955333709716797e-02 -1.402002479881048203e-02 -1.628699302673339844e-01 -4.831568896770477295e-02 4.268826171755790710e-02 -2.406438440084457397e-01 -2.309675216674804688e-01 -2.001439630985260010e-01 -5.253703892230987549e-02 -2.343676984310150146e-02 -9.513755142688751221e-02 -5.657101050019264221e-02 -4.766397178173065186e-02 7.001699507236480713e-02
-6.104285642504692078e-02 8.850964158773422241e-02 -1.465571820735931396e-01 8.362617343664169312e-02 -7.706993818283081055e-02 4.537563398480415344e-02 5.856116488575935364e-02 -1.858000159263610840e-01 7.002790272235870361e-02 -9.347891807556152344e-02 -4.389359150081872940e-03 -1.034579500555992126e-01 7.570177316665649414e-02 -3.189428523182868958e-02 4.675396904349327087e-02 2.822259813547134399e-02 -2.320870943367481232e-02 6.240183487534523010e-02 1.418687254190444946e-01 7.992076873779296875e-02 -1.082190424203872681e-01 -3.587307780981063843e-02 -2.479803003370761871e-02 -1.153527423739433289e-01 -6.524910684674978256e-03 -4.787139967083930969e-02 8.143381029367446899e-02 3.536591306328773499e-02 -7.000950723886489868e-02 5.263572558760643005e-02 -2.353244461119174957e-02 1.990383304655551910e-02 -4.439591988921165466e-02 1.023107767105102539e-02 -1.906688138842582703e-02 -7.903227582573890686e-03 1.017315834760665894e-01 2.923807874321937561e-02 -2.512842416763305664e-02 7.769013196229934692e-02 -3.903588652610778809e-02 -1.115322187542915344e-01 1.167023032903671265e-01 -3.373662382364273071e-02 -9.484840184450149536e-02 4.056237637996673584e-02 1.433547679334878922e-02 -5.035541951656341553e-02 6.944062560796737671e-02 5.708338692784309387e-02 -1.384601835161447525e-02 1.244983375072479248e-01 -6.166125647723674774e-03 -3.287706524133682251e-02 8.996863663196563721e-02 8.097960799932479858e-02 9.025127626955509186e-03 -6.785236764699220657e-04 5.842975527048110962e-02 1.082533132284879684e-02 -6.974428892135620117e-02 -6.396391987800598145e-02 1.024293228983879089e-01 5.402592942118644714e-02 -7.621266692876815796e-02 9.618481248617172241e-02 -4.276940599083900452e-02 1.508615072816610336e-02 -6.521637737751007080e-02 4.890320077538490295e-02
5.838207155466079712e-02 2.893291227519512177e-02 9.545107930898666382e-02 8.591774851083755493e-02 -3.013478592038154602e-02 1.355442553758621216e-01 -2.884253300726413727e-02 -9.032414853572845459e-02 5.877334158867597580e-03 -2.325126202777028084e-03 -4.521570727229118347e-02 -1.597744971513748169e-02 -2.562374062836170197e-02 6.708665192127227783e-02 7.306975312530994415e-03 7.050210610032081604e-03 -4.980564117431640625e-02 -2.639145031571388245e-02 9.283351898193359375e-02 -5.848316941410303116e-03 -3.137524053454399109e-02 -9.483654983341693878e-03 -6.566666066646575928e-02 4.271329566836357117e-02 -2.031245268881320953e-02 8.752188086509704590e-02 1.364480890333652496e-02 1.000086590647697449e-01 -2.435623295605182648e-02 -3.476762678474187851e-03 -6.951954960823059082e-02 6.118711829185485840e-02 -1.284894626587629318e-02 -7.923810184001922607e-02 -1.400661747902631760e-02 -2.962914668023586273e-02 1.109343767166137695e-01 -4.606544971466064453e-02 -2.108386531472206116e-02 -3.137052431702613831e-02 9.395734965801239014e-02 -7.298279553651809692e-02 -1.670413278043270111e-02 1.138799078762531281e-02 -7.137818634510040283e-02 -6.644973158836364746e-02 -6.952138245105743408e-02 -2.347092330455780029e-02 1.033729761838912964e-01 9.038239717483520508e-02 -4.457406327128410339e-02 1.990993134677410126e-02 6.884533911943435669e-03 -2.670496329665184021e-02 -7.827775925397872925e-02 3.795543685555458069e-03 8.527173660695552826e-03 -3.922558948397636414e-02 8.373981714248657227e-02 -5.036137253046035767e-02 -1.280229352414608002e-02 -2.630899287760257721e-02 6.905844062566757202e-02 4.273331910371780396e-02 -2.696517854928970337e-02 -1.307121478021144867e-02 -8.259534090757369995e-02 -2.314167330041527748e-03 1.735109090805053711e-02 -9.652169793844223022e-02
-5.913272034376859665e-03 -3.981251716613769531e-01 -1.394182741641998291e-01 -1.230802834033966064e-01 5.871659889817237854e-02 -1.198296621441841125e-01 3.460655510425567627e-01 1.051574386656284332e-02 -4.990697279572486877e-02 6.421415507793426514e-02 -1.011463161557912827e-02 2.073422670364379883e-01 1.364026516675949097e-01 -1.552236676216125488e-01 2.705867700569797307e-05 -2.174100577831268311e-01 -5.388381704688072205e-02 -9.495113044977188110e-03 -6.661025434732437134e-02 -9.681283682584762573e-02 3.899845778942108154e-01 1.088361144065856934e-01 -8.369310945272445679e-02 -2.711970731616020203e-02 -1.534669753164052963e-02 8.173120021820068359e-02 -1.991348527371883392e-02 -1.983857899904251099e-02 -6.945934146642684937e-02 -7.122426480054855347e-02 -1.289491355419158936e-01 1.313858292996883392e-02 -8.714891225099563599e-02 4.195962473750114441e-02 2.781699001789093018e-01 7.523370534181594849e-02 1.689654029905796051e-02 4.119189083576202393e-02 -4.117165692150592804e-03 5.430600419640541077e-02 -4.429093003273010254e-02 -4.867888987064361572e-03 9.725799411535263062e-02 3.065360486507415771e-01 -1.386246234178543091e-01 -6.364237517118453979e-02 5.480942502617835999e-02 1.480226218700408936e-01 2.429018467664718628e-01 -2.698664739727973938e-02 -3.848291002213954926e-03 -7.106953859329223633e-02 2.934105321764945984e-02 -7.937335222959518433e-02 2.840772084891796112e-02 2.979566529393196106e-02 -7.969758659601211548e-02 5.635542869567871094e-01 -5.842356756329536438e-02 -1.169608067721128464e-02 -4.428751021623611450e-02 1.125892251729965210e-01 2.519260644912719727e-01 -2.429323643445968628e-02 1.015689894556999207e-01 -4.527757875621318817e-03 -7.838847488164901733e-02 -2.714021205902099609e-01 2.709678560495376587e-02 1.595843732357025146e-01
-6.274387706071138382e-03 1.685195416212081909e-01 -1.800190210342407227e-01 -1.812002994120121002e-02 -1.995374681428074837e-03 -1.129070818424224854e-01 8.152553439140319824e-02 -1.496490985155105591e-01 2.909126691520214081e-02 2.042739465832710266e-02 9.375891089439392090e-02 1.002939790487289429e-01 7.243266701698303223e-02 1.078018844127655029e-01 -7.335153222084045410e-02 -3.149401396512985229e-02 -1.277448236942291260e-01 1.062984764575958252e-01 1.349547039717435837e-02 -5.549149587750434875e-02 -9.948109276592731476e-03 6.258946657180786133e-02 -3.829396143555641174e-02 -6.443272531032562256e-02 4.928562045097351074e-02 -4.136199504137039185e-02 1.083957403898239136e-01 -7.090426981449127197e-02 6.120152398943901062e-02 -9.292046725749969482e-02 -1.315429806709289551e-01 5.066294968128204346e-02 -8.965007960796356201e-02 7.663530856370925903e-02 9.443008154630661011e-02 -6.388466805219650269e-02 7.669408340007066727e-03 3.579230234026908875e-02 -6.320561468601226807e-02 9.414588101208209991e-03 -7.779865711927413940e-02 1.707737706601619720e-02 -8.483577519655227661e-02 -1.474891752004623413e-01 8.731081150472164154e-03 1.827102452516555786e-01 4.879213497042655945e-02 2.118705809116363525e-01 6.873324513435363770e-02 5.629159882664680481e-02 -3.482618927955627441e-02 1.020561754703521729e-01 -4.127070680260658264e-02 -5.301513150334358215e-02 4.816433880478143692e-03 -1.799906045198440552e-01 8.981937170028686523e-02 -1.749162524938583374e-01 -9.662088006734848022e-02 4.841824471950531006e-01 9.706773608922958374e-02 3.310537040233612061e-01 -1.052521169185638428e-02 4.470037296414375305e-02 -8.040011860430240631e-03 -3.937964886426925659e-02 -4.634692519903182983e-02 -3.336223587393760681e-02 -9.536289423704147339e-02 9.549965150654315948e-03
-7.309038937091827393e-02 -1.105481311678886414e-01 5.810293927788734436e-02 4.218810424208641052e-02 6.761529296636581421e-02 -9.169361740350723267e-02 9.095050394535064697e-03 -1.864744722843170166e-01 1.304275393486022949e-01 8.106000721454620361e-02 1.414703428745269775e-01 5.943351890891790390e-03 8.735958486795425415e-02 5.187055468559265137e-02 -8.633946627378463745e-02 -7.432080060243606567e-02 -5.770964175462722778e-02 -1.099184388294816017e-03 -8.584288880228996277e-03 -4.111371934413909912e-02 -1.620792225003242493e-02 -9.611617028713226318e-02 4.386387765407562256e-02 -1.004241853952407837e-01 1.108112707734107971e-01 -1.019628643989562988e-01 -9.333927184343338013e-02 4.392748326063156128e-02 7.376510649919509888e-02 -8.913901634514331818e-03 -6.471741478890180588e-03 6.265603005886077881e-02 5.939741432666778564e-02 3.824170678853988647e-02 2.458364702761173248e-02 -1.602038182318210602e-02 1.991838514804840088e-01 4.952751472592353821e-02 8.160082995891571045e-02 -2.638632617890834808e-02 7.322655618190765381e-02 -9.004922956228256226e-02 4.356990009546279907e-02 7.284819334745407104e-02 1.278307139873504639e-01 1.613362319767475128e-02 -1.114982962608337402e-01 2.816124260425567627e-02 -1.009994074702262878e-01 -1.548585202544927597e-02 1.462340354919433594e-01 -2.182402089238166809e-02 1.527858376502990723e-01 4.680915921926498413e-02 -5.966105312108993530e-02 6.864933669567108154e-02 4.599173367023468018e-02 1.227483600378036499e-01 -1.004001274704933167e-01 -1.274551749229431152e-01 3.379914269316941500e-04 6.901787221431732178e-02 -5.561920255422592163e-02 3.131288886070251465e-01 4.236111044883728027e-02 -1.591335050761699677e-02 9.095700085163116455e-02 6.796593219041824341e-02 -1.067657675594091415e-02 -5.841728672385215759e-02
7.765086367726325989e-03 -5.922434478998184204e-02 1.595501303672790527e-01 -8.758243918418884277e-01 -2.304310649633407593e-01 3.744038939476013184e-01 2.122061699628829956e-01 -6.934034824371337891e-01 -1.926921121776103973e-02 -2.498178742825984955e-02 2.929273247718811035e-02 -2.732908166944980621e-02 -3.183783218264579773e-02 5.027648434042930603e-02 -5.343379452824592590e-02 -9.730364382266998291e-02 1.247409032657742500e-03 -3.793214857578277588e-01 -4.448968172073364258e-02 1.204366087913513184e-01 1.286801844835281372e-01 -3.104055523872375488e-01 -9.299458004534244537e-03 9.706057608127593994e-03 2.662734873592853546e-02 -4.453942179679870605e-02 6.685579568147659302e-02 -4.263556748628616333e-02 3.458074480295181274e-02 3.263949975371360779e-02 1.168419793248176575e-02 -1.138826012611389160e-01 -1.258398890495300293e-01 -3.312332928180694580e-02 1.234823092818260193e-02 -7.780306041240692139e-02 2.860930189490318298e-02 3.908705711364746094e-02 -7.067993283271789551e-02 -2.506552031263709068e-03 3.151203691959381104e-02 1.021283306181430817e-02 5.933208763599395752e-02 -5.797040835022926331e-02 1.113201007246971130e-01 3.866759538650512695e-01 -1.216086074709892273e-01 -1.783195585012435913e-01 -1.348608825355768204e-02 3.257620632648468018e-01 -7.405174523591995239e-02 4.164215549826622009e-02 -2.262114547193050385e-02 5.709555372595787048e-02 -7.824910432100296021e-02 -6.530556827783584595e-02 -4.638941958546638489e-02 1.473765820264816284e-01 -1.091674994677305222e-02 1.034442305564880371e+00 -4.596525803208351135e-02 -3.364189863204956055e-01 7.089689839631319046e-03 8.107903003692626953e-01 8.148796111345291138e-02 -6.601442396640777588e-02 2.253673784434795380e-02 1.676749624311923981e-02 8.632767014205455780e-03 5.229637771844863892e-02
-5.948032811284065247e-02 8.660056442022323608e-02 -6.374696493148803711e-01 -2.005201131105422974e-01 6.577494088560342789e-03 -4.074653238058090210e-02 6.482272148132324219e-01 4.226227849721908569e-02 -8.489656448364257812e-02 -2.305334247648715973e-02 -2.099140547215938568e-02 3.919606283307075500e-02 -2.854556031525135040e-02 -5.031760409474372864e-02 9.430326521396636963e-03 4.187641292810440063e-02 -7.075591087341308594e-01 1.570862531661987305e-01 2.923833578824996948e-02 1.016534194350242615e-01 6.746607422828674316e-01 -1.300151050090789795e-01 -2.513042278587818146e-02 1.072393581271171570e-01 -7.592747360467910767e-02 3.092732513323426247e-03 -7.371675968170166016e-02 -8.026534318923950195e-02 7.274544984102249146e-02 -2.412209101021289825e-02 -6.740829348564147949e-01 1.533650904893875122e-01 2.283680289983749390e-01 2.070393413305282593e-02 5.371012687683105469e-01 -1.502553652971982956e-02 -4.780682735145092010e-03 -4.164376296103000641e-03 9.740841388702392578e-02 -5.383058264851570129e-02 -8.886849135160446167e-02 -7.121185213327407837e-02 6.704605370759963989e-02 -6.259873509407043457e-02 -5.766140222549438477e-01 2.033702135086059570e-01 4.269935563206672668e-02 -1.260795742273330688e-01 7.090413570404052734e-01 -7.557292282581329346e-02 2.144906669855117798e-02 -5.554405041038990021e-03 -2.503815107047557831e-02 -9.166035801172256470e-02 1.024001836776733398e-01 -1.381982583552598953e-02 -1.006262451410293579e-01 -5.360422655940055847e-02 -6.742257475852966309e-01 -3.195186555385589600e-01 1.339380145072937012e-01 3.921202942728996277e-02 5.601576566696166992e-01 1.862878203392028809e-01 9.269545227289199829e-02 -7.159500569105148315e-02 3.115087933838367462e-02 8.820752799510955811e-02 1.013510152697563171e-01 2.205282449722290039e-01
