-2.753790616989135742e-01
-1.867748647928237915e-01
9.809734672307968140e-02
2.539462596178054810e-02
-2.628155611455440521e-02
1.372715681791305542e-01
6.399127840995788574e-02
-6.896496750414371490e-03
-8.579411357641220093e-02
-1.128885895013809204e-03
-1.907228976488113403e-01
-2.696514688432216644e-02
-2.044479846954345703e-01
-5.354649573564529419e-02
-9.573861956596374512e-02
5.297305807471275330e-02
6.345326453447341919e-02
-2.803778052330017090e-01
-2.067718282341957092e-02
-7.327986508607864380e-02
2.690016478300094604e-02
-6.262274086475372314e-02
9.191726334393024445e-03
2.679397352039813995e-02
-4.801621660590171814e-02
7.770168036222457886e-02
8.993872255086898804e-02
1.154574081301689148e-01
-3.691738471388816833e-02
-4.114999771118164062e-01
-1.087960898876190186e-01
-9.062292426824569702e-02
6.224906817078590393e-02
-2.376770377159118652e-01
-9.614757299423217773e-01
-5.644399207085371017e-03
-1.044636592268943787e-01
-1.519780009984970093e-01
-1.421223133802413940e-01
-8.871076256036758423e-02
-3.109375238418579102e-01
-1.828168481588363647e-01
-5.323034897446632385e-02
-1.587839238345623016e-02
1.993052065372467041e-01
-1.500715464353561401e-01
7.789294421672821045e-02
-3.518022000789642334e-01
1.048043090850114822e-02
1.375451534986495972e-01
7.891932874917984009e-02
-3.900387138128280640e-02
-1.358212530612945557e-01
-3.829734325408935547e-01
-4.492095112800598145e-01
-7.039620876312255859e-01
-1.745000928640365601e-01
-1.042736470699310303e-01
-5.452676862478256226e-02
-3.413862884044647217e-01
-4.343950003385543823e-02
-2.961970865726470947e-01
2.128108143806457520e-01
-1.416535824537277222e-01
-8.113781213760375977e-01
1.546136918477714062e-03
-2.449339628219604492e-02
-2.786133587360382080e-01
-5.311560630798339844e-01
-2.872092723846435547e-01
-2.356237173080444336e-02
-3.318346440792083740e-01
1.933097094297409058e-02
2.496626079082489014e-01
-1.531825494021177292e-02
1.001355126500129700e-01
-1.233507916331291199e-01
3.403323935344815254e-03
5.153833702206611633e-02
-5.440972000360488892e-02
5.417608190327882767e-03
4.897208511829376221e-02
-1.411726623773574829e-01
-1.254996210336685181e-01
-1.653269827365875244e-01
-1.273728907108306885e-01
-6.346167623996734619e-02
1.526607200503349304e-02
-7.017995119094848633e-01
-1.102373898029327393e-01
-2.460653632879257202e-01
6.375311315059661865e-02
-2.179311364889144897e-01
3.973951935768127441e-02
-7.018015533685684204e-02
-5.213516354560852051e-01
-3.866320848464965820e-01
2.845382988452911377e-01
-1.558419317007064819e-01
-2.849234342575073242e-01
1.618666807189583778e-03
-1.601163595914840698e-01
-5.775808915495872498e-02
-7.208516448736190796e-02
-5.476737022399902344e-02
4.548348113894462585e-02
4.019333422183990479e-02
-8.639480918645858765e-03
-2.899846136569976807e-01
2.320217341184616089e-02
4.350014403462409973e-02
-1.868761032819747925e-01
-1.033884808421134949e-01
-1.879964023828506470e-02
6.853603571653366089e-02
-1.803866326808929443e-01
5.712029337882995605e-02
3.307051956653594971e-02
1.249819770455360413e-01
4.034357890486717224e-02
-6.666433811187744141e-02
-3.439408242702484131e-01
-3.278713524341583252e-01
-3.284055888652801514e-01
8.203572034835815430e-02
-2.978473342955112457e-02
-8.685623109340667725e-02
-1.169201508164405823e-01
3.839372470974922180e-02
1.353703439235687256e-01
2.900675833225250244e-01
-9.777878411114215851e-03
2.658724039793014526e-02
-3.130294755101203918e-02
1.384546011686325073e-01
1.043778732419013977e-01
-2.133461274206638336e-02
-2.895355783402919769e-02
3.407003283500671387e-01
-5.686212331056594849e-02
-2.881025969982147217e-01
2.766687870025634766e-01
3.175247311592102051e-01
3.591281548142433167e-02
-7.487702369689941406e-01
2.167462557554244995e-01
4.838477075099945068e-02
3.419177234172821045e-02
-1.711804121732711792e-01
4.523247852921485901e-02
4.250542819499969482e-02
-2.486321926116943359e-01
-2.739861607551574707e-02
-1.524303853511810303e-01
1.810351610183715820e-01
-3.656481802463531494e-01
-6.009820103645324707e-01
-1.006118282675743103e-01
6.132191419601440430e-02
-1.335220932960510254e-01
-2.785047590732574463e-01
-2.604867331683635712e-02
-1.137009263038635254e-01
-9.481421858072280884e-02
-6.694225221872329712e-02
-1.114867702126502991e-01
1.106420308351516724e-01
-3.059156052768230438e-02
2.974205277860164642e-02
-7.432951778173446655e-02
-4.582268744707107544e-02
-2.695007622241973877e-01
1.781735867261886597e-01
-2.986346557736396790e-02
-8.800197392702102661e-02
1.055558025836944580e-02
4.877482727169990540e-02
-1.730482876300811768e-01
-3.576066717505455017e-02
-4.680569469928741455e-01
-2.476755715906620026e-02
-8.108570240437984467e-03
-8.329227566719055176e-02
1.654666662216186523e-02
-3.487937152385711670e-01
-4.716080799698829651e-02
-8.776309341192245483e-02
1.417632251977920532e-01
-9.974680095911026001e-02
-1.977160871028900146e-01
-5.885548144578933716e-02
-1.560357864946126938e-02
-7.325389236211776733e-02
-1.473132520914077759e-01
1.640212838537991047e-03
-7.307205349206924438e-02
-9.119649231433868408e-02
-7.080373167991638184e-01
-4.037505984306335449e-01
4.784652963280677795e-02
