-6.999061256647109985e-02
7.763126492500305176e-02
8.972491137683391571e-03
1.055036578327417374e-02
9.683965146541595459e-02
-5.848442316055297852e-01
-3.025820553302764893e-01
1.472604721784591675e-01
-6.511733680963516235e-02
2.096821814775466919e-01
-7.012274581938982010e-03
1.081361547112464905e-01
-2.216289285570383072e-03
-3.411950916051864624e-02
7.180824130773544312e-02
-2.618725299835205078e-01
1.937800645828247070e-02
-1.659180596470832825e-02
2.061783522367477417e-02
3.789754956960678101e-02
-1.089102551341056824e-01
-1.010345965623855591e-01
7.117544114589691162e-02
1.123593524098396301e-01
-6.203443929553031921e-02
-2.737173251807689667e-02
5.124149844050407410e-02
-1.003848835825920105e-01
1.272053737193346024e-02
2.494688518345355988e-02
1.232983991503715515e-01
6.081299111247062683e-02
8.658658713102340698e-02
-1.025840863585472107e-01
1.229842901229858398e-01
1.310835964977741241e-02
1.165247038006782532e-01
2.274315357208251953e-01
8.490858972072601318e-02
-2.769671380519866943e-01
-1.975065283477306366e-02
2.016769908368587494e-02
-2.783223614096641541e-02
-1.495022624731063843e-01
-1.505184620618820190e-01
-1.981153488159179688e-01
2.196803390979766846e-01
5.794576182961463928e-02
6.302461773157119751e-02
1.122171953320503235e-01
8.182634413242340088e-02
6.040036678314208984e-03
-3.805328533053398132e-02
-4.943417012691497803e-02
-1.220095455646514893e-01
1.128532085567712784e-02
-4.321810603141784668e-02
-2.467485703527927399e-02
-3.078864142298698425e-02
6.795642524957656860e-02
-4.057930037379264832e-02
2.837803587317466736e-02
5.927656963467597961e-02
-5.762821435928344727e-02
5.648675933480262756e-02
9.135899692773818970e-02
3.390751080587506294e-04
-3.905155509710311890e-02
7.446932792663574219e-02
1.370333880186080933e-01
2.670846879482269287e-01
-5.709947645664215088e-02
7.370185106992721558e-02
-2.208517342805862427e-01
7.674538344144821167e-02
-7.172913104295730591e-02
2.529252469539642334e-01
3.229104876518249512e-01
1.230503898113965988e-02
4.350946750491857529e-03
-3.034659475088119507e-02
-3.214903473854064941e-01
1.829709112644195557e-01
1.948990859091281891e-02
5.860326066613197327e-02
5.618835240602493286e-02
-1.267264187335968018e-01
1.218289434909820557e-01
1.312268991023302078e-02
4.678924381732940674e-02
5.700724944472312927e-02
4.816208407282829285e-02
-4.370716586709022522e-02
3.169962167739868164e-01
-7.632206380367279053e-02
1.368575096130371094e-01
2.614507451653480530e-02
2.047925954684615135e-03
-2.776524238288402557e-02
2.505124919116497040e-02
