2.033459255471825600e-03 2.103372290730476379e-02 -9.490287862718105316e-03 -3.064686991274356842e-02 5.444502830505371094e-02 4.579598607961088419e-04 -2.839745953679084778e-03 7.597513962537050247e-03 -4.407851397991180420e-02 -1.171903964132070541e-02 -1.445016562938690186e-01 -3.706454113125801086e-02 2.431809902191162109e-02 -3.635748103260993958e-02 -5.273836851119995117e-02 -1.722828857600688934e-02 1.783058792352676392e-02 4.954303801059722900e-02 5.636942759156227112e-02 -5.578636750578880310e-02 1.024680212140083313e-03 -2.804110199213027954e-02 -7.598516996949911118e-03 2.352564595639705658e-02 -3.201232850551605225e-02 1.535829454660415649e-01 -7.018152624368667603e-02 -2.637391480675432831e-05 4.461519047617912292e-02 -1.439765095710754395e-02 2.750873938202857971e-02 6.513801962137222290e-02 -3.786230925470590591e-03 -6.650294177234172821e-03 8.536273241043090820e-02 -5.169010907411575317e-02 -3.306283056735992432e-02 2.945304382592439651e-03 1.681156642735004425e-02 5.629997234791517258e-03 -1.703215297311544418e-03 -1.629017591476440430e-01 -6.113172043114900589e-03 4.724998027086257935e-03 6.706269085407257080e-02 6.312514189630746841e-03 6.057055201381444931e-03 -1.083484888076782227e-01 5.265402048826217651e-02 -1.289287138206418604e-05 -3.084925748407840729e-02 3.063318133354187012e-02 8.691776543855667114e-02 5.699301254935562611e-04 2.094382606446743011e-02 1.726589724421501160e-02 1.153824664652347565e-02 -2.316295914351940155e-02 -2.258935570716857910e-02 1.369938403367996216e-01 3.342431504279375076e-03 4.266159981489181519e-02 -1.076857931911945343e-02 -7.213497301563620567e-04 -9.473017416894435883e-03 5.514174699783325195e-02 -2.889751829206943512e-02 -6.793135777115821838e-03 -4.564360529184341431e-02 -5.419354885816574097e-03 4.496093839406967163e-03 2.297752536833286285e-03 -5.376235395669937134e-02 -4.771506355609744787e-04 2.858224557712674141e-03 -1.050063744187355042e-01 1.294443942606449127e-02 8.598573505878448486e-03 -5.359734222292900085e-02 1.335979253053665161e-01 6.997185992076992989e-04 5.146076902747154236e-03 3.002728335559368134e-03 4.914117977023124695e-03 6.351131945848464966e-02 -5.886217206716537476e-02 -2.205027034506201744e-03 -5.311701074242591858e-02 -4.219453036785125732e-02 1.187482755631208420e-02 2.688253484666347504e-02 -9.922396391630172729e-02 -4.433573037385940552e-02 -1.411311794072389603e-02 1.361079979687929153e-03 1.507562818005681038e-03 -1.054991707205772400e-01 5.582518503069877625e-02 -2.440304728224873543e-03 -5.915623530745506287e-02
6.137488409876823425e-02 -1.120962724089622498e-01 -2.230454050004482269e-02 6.749271880835294724e-03 -5.591133609414100647e-02 -1.365320831537246704e-01 5.105018988251686096e-02 9.682209044694900513e-02 2.867732942104339600e-02 -1.043105348944664001e-01 -1.694624274969100952e-01 -7.354312110692262650e-03 -7.669015973806381226e-02 1.257181316614151001e-01 5.893545970320701599e-02 3.377249836921691895e-02 1.091531217098236084e-01 6.569998711347579956e-02 1.322890073060989380e-01 1.413626521825790405e-01 9.535514563322067261e-02 1.124538406729698181e-01 -3.613507002592086792e-02 -1.415661275386810303e-01 5.975654721260070801e-02 -1.943480968475341797e-02 2.987606823444366455e-02 -8.114714291878044605e-04 -5.529512837529182434e-02 -9.235218167304992676e-02 -2.101425267755985260e-02 -3.544117882847785950e-02 -5.424022674560546875e-03 1.142277047038078308e-01 -1.987258642911911011e-01 -9.119026362895965576e-02 -7.448418438434600830e-02 -1.399460583925247192e-01 -1.118182018399238586e-01 1.067720279097557068e-01 1.904581789858639240e-03 4.473020508885383606e-02 -1.975298160687088966e-03 6.360633671283721924e-02 2.513800002634525299e-02 1.881618238985538483e-02 -5.447981879115104675e-02 -4.046354442834854126e-02 -6.484046578407287598e-02 7.514645904302597046e-02 6.073692813515663147e-02 5.388812720775604248e-02 9.209492802619934082e-02 5.560330580919981003e-03 5.023474618792533875e-02 -3.445944562554359436e-02 -1.674404367804527283e-02 1.313558667898178101e-01 2.055630087852478027e-02 -1.100433291867375374e-03 4.913889244198799133e-02 -1.383243650197982788e-01 -6.269501149654388428e-02 -1.375017454847693443e-03 1.511293947696685791e-01 -1.038767769932746887e-01 1.594706326723098755e-01 1.180892139673233032e-01 -3.041059710085391998e-02 1.443407982587814331e-01 -8.092994242906570435e-02 9.371484816074371338e-02 2.790605463087558746e-02 1.944828662090003490e-03 -1.514639239758253098e-02 -8.883091062307357788e-02 -1.856031119823455811e-01 -1.714639514684677124e-01 1.244930326938629150e-01 1.566859185695648193e-01 4.149146843701601028e-03 -9.309042245149612427e-02 5.687968432903289795e-02 5.792242661118507385e-02 -4.181858524680137634e-02 -6.255725771188735962e-02 9.352418780326843262e-02 1.611823290586471558e-01 -6.474952399730682373e-02 -5.540788918733596802e-02 3.587685897946357727e-02 -3.646754473447799683e-02 -3.300986811518669128e-02 -1.264017820358276367e-01 1.183307264000177383e-03 1.883211545646190643e-03 -9.846888482570648193e-02 -1.447264105081558228e-03 -7.012519985437393188e-02 -8.015654981136322021e-02
3.499415470287203789e-03 -7.547926157712936401e-03 4.771452024579048157e-02 -4.550348967313766479e-02 3.867563605308532715e-02 -6.433663517236709595e-02 1.551687810570001602e-02 -4.321362823247909546e-02 -6.536435801535844803e-03 1.738601326942443848e-01 1.033772714436054230e-02 -5.326499789953231812e-02 -5.180764943361282349e-02 -1.488386094570159912e-01 -9.395654499530792236e-02 -2.909341827034950256e-02 1.067697107791900635e-01 -1.091992780566215515e-01 -5.259194876998662949e-03 -6.251079589128494263e-02 -9.065744280815124512e-02 -6.199603527784347534e-02 6.259498745203018188e-02 -1.302626682445406914e-03 -2.788965962827205658e-02 -7.681679725646972656e-02 -1.312137246131896973e-01 -1.303846598602831364e-03 5.372887477278709412e-02 1.305522322654724121e-01 1.570631749927997589e-02 -1.261125355958938599e-01 6.981502473354339600e-02 -6.812622305005788803e-03 -1.137224608100950718e-03 -3.620207309722900391e-02 -1.242825984954833984e-01 -3.037181124091148376e-02 -1.106066927313804626e-01 7.917533814907073975e-02 -2.648294204846024513e-03 7.774677593261003494e-03 -5.747653543949127197e-02 -6.425405852496623993e-03 -2.875448763370513916e-02 1.649712771177291870e-02 -1.089844554662704468e-01 -2.946269884705543518e-02 1.822319775819778442e-01 -6.080716103315353394e-02 -3.777181357145309448e-02 5.482704844325780869e-03 -3.723498433828353882e-02 -2.143482211977243423e-03 1.380683761090040207e-02 7.373103499412536621e-02 3.194102644920349121e-02 6.972236186265945435e-02 1.044946387410163879e-01 -6.877785176038742065e-02 3.358806669712066650e-02 2.067482285201549530e-02 2.369936555624008179e-02 3.094101557508111000e-03 2.562757022678852081e-02 2.789905108511447906e-02 7.406110316514968872e-02 4.432780202478170395e-03 -4.394114762544631958e-02 -2.794483117759227753e-02 -6.322406232357025146e-02 -5.664331465959548950e-02 1.046982780098915100e-01 4.505103919655084610e-03 4.743300843983888626e-03 7.736869156360626221e-02 -3.134490922093391418e-02 -6.732213776558637619e-03 -1.449444051831960678e-02 -9.713502600789070129e-03 5.184988258406519890e-04 -3.952850028872489929e-02 6.140358373522758484e-02 2.032178640365600586e-02 7.521622627973556519e-02 -5.484582856297492981e-02 -3.422481566667556763e-02 8.790574222803115845e-02 -2.907866425812244415e-02 2.070629782974720001e-02 8.136864751577377319e-02 -4.060564190149307251e-02 -2.450699917972087860e-02 1.583993881940841675e-01 -8.395388722419738770e-03 5.575094837695360184e-04 3.001001104712486267e-02 1.285082995891571045e-01 -5.558207631111145020e-03 6.004257127642631531e-02
-3.348774835467338562e-02 -3.336632624268531799e-02 -4.548107832670211792e-02 5.460169538855552673e-02 -1.727407798171043396e-03 5.345540866255760193e-02 9.551098942756652832e-02 -1.366574615240097046e-01 4.475462809205055237e-02 6.112387403845787048e-02 -9.744406491518020630e-02 -2.862170338630676270e-02 -1.047535166144371033e-01 -2.927402406930923462e-02 7.932195067405700684e-02 -5.354249477386474609e-02 4.054197669029235840e-02 -4.414042457938194275e-02 -8.472210727632045746e-03 -4.838062077760696411e-02 6.976938247680664062e-02 -6.273629516363143921e-02 5.855102837085723877e-02 1.018224656581878662e-01 -4.858091473579406738e-02 1.178896869532763958e-03 1.120336726307868958e-01 -5.288248416036367416e-03 -2.899223566055297852e-02 6.196368020027875900e-03 1.094220653176307678e-01 1.809605769813060760e-02 1.404622346162796021e-01 -5.784004181623458862e-02 9.855963289737701416e-02 -1.185491904616355896e-01 1.212310716509819031e-01 -1.696354150772094727e-01 -1.721984893083572388e-02 -1.120536252856254578e-01 -6.679599639028310776e-03 -2.184777520596981049e-02 -3.971983864903450012e-02 7.533407211303710938e-02 5.876095965504646301e-02 1.117927506566047668e-01 5.472160503268241882e-02 4.658300429582595825e-02 6.881896406412124634e-02 5.678564310073852539e-03 7.349483668804168701e-02 -7.499083876609802246e-02 -7.133537530899047852e-02 -1.049963757395744324e-03 -2.023727074265480042e-02 3.346113115549087524e-02 -6.520736217498779297e-02 -1.135779395699501038e-01 -1.283801794052124023e-01 -5.524297803640365601e-02 -7.408802211284637451e-02 -4.544988274574279785e-02 7.065854966640472412e-02 -2.511053753551095724e-04 2.820834703743457794e-02 2.960463240742683411e-02 -3.372525796294212341e-02 -2.908379770815372467e-02 -1.771109364926815033e-02 -1.385274678468704224e-01 1.510121226310729980e-01 -5.374712496995925903e-02 9.823009371757507324e-02 2.115179318934679031e-03 4.882104229182004929e-03 9.714012965559959412e-03 -2.860684506595134735e-02 -2.681050635874271393e-02 -1.475710049271583557e-02 9.020206332206726074e-02 -5.127589218318462372e-03 -7.174137979745864868e-02 4.447377473115921021e-02 -3.593538329005241394e-02 8.490912616252899170e-02 2.542169019579887390e-02 -1.670691370964050293e-02 1.654006689786911011e-01 -5.520911887288093567e-02 -5.127729848027229309e-02 1.675782259553670883e-03 -4.304284974932670593e-02 -8.375266566872596741e-03 1.038676202297210693e-01 1.140302163548767567e-03 -5.133788101375102997e-03 -7.626961916685104370e-02 -1.332125067710876465e-01 6.575602572411298752e-03 3.046868741512298584e-02
-2.071392349898815155e-02 2.727226587012410164e-03 -2.161811105906963348e-03 -5.507767945528030396e-02 -5.595971364527940750e-03 -6.773749366402626038e-03 -1.420628163032233715e-03 -2.789856167510151863e-03 6.312045734375715256e-03 -1.625056611374020576e-03 -4.872812703251838684e-02 3.897491376847028732e-03 -8.739390410482883453e-03 -1.751597411930561066e-02 7.008835673332214355e-02 1.000793650746345520e-02 -8.587557822465896606e-02 -3.753368044272065163e-03 5.559056252241134644e-02 4.437156487256288528e-03 3.635955275967717171e-03 1.064299698919057846e-02 -9.630268439650535583e-03 -3.736872691661119461e-03 7.071239873766899109e-03 1.300430446863174438e-01 -1.319338232278823853e-01 -6.259994208812713623e-02 -3.242532955482602119e-03 7.476793974637985229e-02 -2.494123019278049469e-02 -1.438849270343780518e-01 -3.930820897221565247e-02 7.805675268173217773e-02 -7.891614735126495361e-02 -4.456499218940734863e-02 9.073353558778762817e-02 4.228394944220781326e-03 4.514231160283088684e-02 -1.919019850902259350e-03 1.896785758435726166e-02 8.134824037551879883e-02 5.767687410116195679e-02 1.673742430284619331e-03 -7.724105380475521088e-03 -3.990710247308015823e-03 -1.253917813301086426e-03 4.190038144588470459e-02 -8.814077824354171753e-02 3.225471125915646553e-03 -3.571554645895957947e-02 -8.825410157442092896e-03 -8.516325056552886963e-02 -7.331997621804475784e-03 -2.367898821830749512e-03 5.022273212671279907e-02 -6.617696955800056458e-03 8.883588016033172607e-02 1.231696605682373047e-01 1.095243170857429504e-02 6.588014308363199234e-03 2.922656945884227753e-02 1.022291253320872784e-03 8.837672322988510132e-02 4.400922916829586029e-03 2.595737949013710022e-02 -5.049047246575355530e-02 -1.306389691308140755e-03 1.515542715787887573e-02 -1.983405090868473053e-03 3.569915425032377243e-03 3.672590013593435287e-03 3.966136276721954346e-02 -6.415124237537384033e-02 -4.789051134139299393e-03 3.801080863922834396e-03 -2.677116310223937035e-03 4.239095840603113174e-03 -1.073359418660402298e-02 4.527678713202476501e-02 -1.499292789958417416e-03 9.095399291254580021e-04 -1.796304481104016304e-03 5.451767705380916595e-03 5.977950245141983032e-02 1.193212624639272690e-02 7.291416404768824577e-04 -7.882588542997837067e-03 9.433238953351974487e-02 2.161815762519836426e-03 -5.306142568588256836e-02 -6.327643990516662598e-02 5.917747039347887039e-03 -2.647272311151027679e-03 -5.107209458947181702e-02 5.312484875321388245e-02 -9.902146458625793457e-02 -1.075247302651405334e-01 -5.638943985104560852e-03 -9.009873028844594955e-04
-4.375080578029155731e-03 -1.735539548099040985e-02 2.713810536079108715e-04 -3.697481751441955566e-02 8.138235658407211304e-03 6.476431619375944138e-03 -2.171992789953947067e-03 -6.856911815702915192e-03 4.859313368797302246e-03 1.071681827306747437e-02 -1.827112734317779541e-01 5.786696448922157288e-03 1.069652512669563293e-01 5.749024078249931335e-02 -5.175094306468963623e-02 1.580527314217761159e-04 1.205023564398288727e-02 1.175731234252452850e-02 -1.127732619643211365e-01 -2.416533650830388069e-03 8.080864325165748596e-03 1.055815666913986206e-01 -2.734229154884815216e-02 2.296851389110088348e-02 9.236434474587440491e-03 -3.050643764436244965e-02 -7.510750740766525269e-02 -1.025448590517044067e-01 -1.363079529255628586e-02 7.593055069446563721e-02 -9.893278777599334717e-02 6.553566455841064453e-02 1.123761013150215149e-01 4.316731914877891541e-02 2.984103374183177948e-02 -9.417019039392471313e-02 1.010997220873832703e-01 -5.773141980171203613e-03 -7.988641411066055298e-02 -2.059520035982131958e-02 -7.563126832246780396e-02 -6.746475398540496826e-02 1.498847920447587967e-02 1.198566984385251999e-02 6.229287944734096527e-03 7.902964949607849121e-03 1.155333127826452255e-03 7.040984183549880981e-02 4.334460827521979809e-04 -1.188610680401325226e-02 6.427982356399297714e-03 5.064652860164642334e-02 -9.396515041589736938e-02 5.724121630191802979e-02 -4.280997440218925476e-03 6.377018988132476807e-02 4.758958239108324051e-04 -7.721764501184225082e-03 -3.106811642646789551e-02 -9.485175460577011108e-02 -2.919111633673310280e-03 4.340282082557678223e-02 1.010185107588768005e-02 -1.178511828184127808e-01 1.884941384196281433e-02 -3.899019956588745117e-02 -1.142011303454637527e-02 -2.019935986027121544e-03 -6.812784820795059204e-03 -1.095688156783580780e-02 1.322897849604487419e-03 8.983527077361941338e-04 -3.749496117234230042e-02 9.684026241302490234e-02 4.688201099634170532e-02 -1.940891146659851074e-02 -1.534845447167754173e-03 1.164047326892614365e-02 5.313836783170700073e-02 1.691717356443405151e-01 6.789325922727584839e-02 -3.078372217714786530e-03 5.955068045295774937e-04 -1.188267488032579422e-02 -7.622084231115877628e-04 -2.113937214016914368e-02 1.124769728630781174e-02 -7.379288226366043091e-02 8.192102611064910889e-02 3.793861949816346169e-03 -4.521184042096138000e-02 8.251313865184783936e-02 -3.159728134050965309e-03 -8.114742115139961243e-03 1.394878327846527100e-02 7.897753268480300903e-02 8.277164399623870850e-02 9.906152635812759399e-02 -1.518969330936670303e-02 -8.365199901163578033e-03
2.258655428886413574e-02 -4.266740381717681885e-02 -2.009739109780639410e-04 2.702759392559528351e-02 -3.528066212311387062e-03 4.800122405868023634e-04 -2.277280436828732491e-04 -5.495878212968818843e-05 3.089559264481067657e-03 2.796592889353632927e-04 2.013861835002899170e-01 3.477931255474686623e-03 3.716029971837997437e-02 8.756084740161895752e-02 -1.542302314192056656e-02 1.263589481823146343e-03 -4.841090738773345947e-02 -1.031028805300593376e-03 2.055406384170055389e-02 5.013366229832172394e-03 1.474769669584929943e-03 1.017646118998527527e-02 -1.557081099599599838e-02 1.023146789520978928e-03 2.672612899914383888e-03 1.003520190715789795e-01 2.513272128999233246e-02 -4.450186388567090034e-04 9.580694022588431835e-04 -3.737491741776466370e-02 -4.207471385598182678e-03 -4.030322656035423279e-03 9.623029828071594238e-02 1.166245620697736740e-02 -1.225922722369432449e-03 -1.016761884093284607e-01 -1.908968202769756317e-02 5.176159320399165154e-04 -3.020639158785343170e-02 5.802777013741433620e-04 -8.571901707910001278e-04 -8.948364853858947754e-02 -1.290893275290727615e-02 2.590205695014446974e-04 -2.308430382981896400e-03 -1.178027712740004063e-03 -3.377733228262513876e-04 3.512363182380795479e-03 -6.199805811047554016e-02 2.683773345779627562e-04 -9.633584879338741302e-03 -1.171192387118935585e-03 -3.235086053609848022e-02 -3.897263668477535248e-04 -7.944657700136303902e-04 2.275283448398113251e-02 -8.207936189137399197e-04 -3.986105695366859436e-02 -8.767594583332538605e-03 -9.588941931724548340e-02 2.772560401353985071e-04 1.352623949060216546e-04 7.210069452412426472e-04 2.689737011678516865e-04 6.324340356513857841e-04 7.631100248545408249e-03 6.740275025367736816e-02 5.144455935806035995e-04 3.865058766677975655e-03 -3.571435227058827877e-04 1.330490485997870564e-04 -2.906090812757611275e-04 8.473020046949386597e-03 2.204446936957538128e-04 -1.224241103045642376e-03 2.056170254945755005e-02 -9.182624635286629200e-04 1.082820352166891098e-03 1.515065412968397141e-02 -1.864413917064666748e-01 1.301345619140192866e-04 -8.226310601457953453e-04 -3.817740362137556076e-04 3.421297587919980288e-04 6.800717115402221680e-02 4.458297975361347198e-03 5.796432960778474808e-04 1.063219737261533737e-02 3.579234331846237183e-02 2.473576751071959734e-04 -1.086894422769546509e-02 -2.278403192758560181e-02 1.889743842184543610e-03 4.838026652578264475e-04 -6.961677572689950466e-04 1.051592626026831567e-04 -2.877119369804859161e-02 7.127795368432998657e-02 3.712499892571941018e-05 -3.224072977900505066e-03
