4.920931532979011536e-03 2.180235460400581360e-02 -4.709440097212791443e-02 -6.385767459869384766e-02 -5.528603121638298035e-02 3.736407682299613953e-02 -2.845069952309131622e-02 6.060126051306724548e-02 3.720416128635406494e-02 1.964942552149295807e-02 4.269936308264732361e-02 3.162026032805442810e-02 5.825896933674812317e-02 -6.313464045524597168e-02 -1.601768285036087036e-02 1.424292940646409988e-02 -2.723328769207000732e-02 -6.272395607084035873e-03 2.455623820424079895e-02 -1.455538067966699600e-02 6.900749355554580688e-02 1.073118671774864197e-02 -3.874205984175205231e-03 1.817254163324832916e-02 3.697543218731880188e-02 4.273665137588977814e-03 -5.779222398996353149e-02 -4.910412430763244629e-02 -6.523441523313522339e-02 4.070745781064033508e-02 -3.862873464822769165e-02 2.721309103071689606e-02 4.304672777652740479e-02 -6.047417223453521729e-02 -7.720696274191141129e-03 -2.381012961268424988e-02 -4.743628203868865967e-03 5.083489418029785156e-02 -4.149091243743896484e-02 2.785584889352321625e-02 -2.949213236570358276e-02 -4.038554057478904724e-02 4.660732671618461609e-02 1.170405372977256775e-02 -6.269322335720062256e-02 -2.549414895474910736e-02 5.767634510993957520e-02 4.320802167057991028e-03 -3.242466831579804420e-03 -4.998651891946792603e-02 4.279490187764167786e-02 5.768656358122825623e-02 2.920818887650966644e-02 5.758319422602653503e-02 -5.638877861201763153e-03 5.680927634239196777e-02 -1.952515169978141785e-02 1.879607141017913818e-02 -1.309098862111568451e-02 -2.721255272626876831e-02 2.720580808818340302e-02 -7.027731090784072876e-02 2.823451161384582520e-02 -3.156801685690879822e-02 1.427009794861078262e-02 1.067293994128704071e-02 -5.843308568000793457e-02 2.139429748058319092e-02 -2.249266207218170166e-02 1.066778902895748615e-03 2.571431547403335571e-02 2.126435004174709320e-02 -1.253035943955183029e-02 -2.213167399168014526e-02 5.114922299981117249e-02 -3.789457026869058609e-03 -1.141842454671859741e-03 -5.737828463315963745e-02 5.218003317713737488e-02 -1.210589054971933365e-02 -2.488597854971885681e-02 -4.208255186676979065e-02 1.273891888558864594e-02 -3.075717762112617493e-02 -5.753039196133613586e-02 -4.654984921216964722e-03 5.150835588574409485e-02 2.268808707594871521e-02 -3.600323200225830078e-02 -7.767260074615478516e-03 -3.244401142001152039e-02 6.147680431604385376e-02 -3.737055137753486633e-02 -7.181208115071058273e-03 2.090268023312091827e-02 -2.051031775772571564e-02 6.878767162561416626e-02 -5.110706761479377747e-02 -5.250694975256919861e-02 -6.542164087295532227e-02 2.862332575023174286e-02 4.243643209338188171e-02 4.668857157230377197e-02 1.775802671909332275e-02 -2.263985574245452881e-03 1.755945757031440735e-02 6.952585279941558838e-02 -3.462754935026168823e-02 6.385406851768493652e-02 -8.746103383600711823e-03 -5.231884866952896118e-02 -3.643090277910232544e-02 2.453976683318614960e-02 -2.295474335551261902e-02 -6.793268769979476929e-02 1.021701190620660782e-02 -5.158440768718719482e-02 6.620580703020095825e-02 4.124143347144126892e-02 -4.478488862514495850e-02 1.717710122466087341e-02 -3.725871071219444275e-02 9.907147847115993500e-03 3.335122391581535339e-02 2.141168713569641113e-02 -3.374592959880828857e-02 3.579493239521980286e-02 6.623598188161849976e-02 -5.524413660168647766e-02 3.486066311597824097e-02 5.572002381086349487e-02 -5.897280946373939514e-02 4.522513970732688904e-02 4.077734798192977905e-02 -3.091766498982906342e-03 -4.630465433001518250e-02 -2.341330796480178833e-02 -6.932210922241210938e-02 2.096552867442369461e-03 1.323404349386692047e-02 4.747143015265464783e-02 -3.249264135956764221e-02 5.771105736494064331e-02 5.389046296477317810e-02 -2.601742744445800781e-02 5.289269611239433289e-03 4.199658706784248352e-02 6.878373771905899048e-02 5.069232732057571411e-02 -6.886324286460876465e-02 5.738302133977413177e-03 3.766348585486412048e-02 4.553253203630447388e-02 6.396298855543136597e-02 -1.246885024011135101e-02 -4.092222452163696289e-02 -4.179887101054191589e-02 2.133126370608806610e-02 3.472055122256278992e-02 3.096495289355516434e-03 -5.336294323205947876e-02 4.643533378839492798e-02 -3.318680077791213989e-02 2.884851582348346710e-02 -2.379643172025680542e-02 -2.521323226392269135e-02 5.656379461288452148e-02 -4.131742566823959351e-02 1.595947891473770142e-02 -1.109552942216396332e-02 6.987350434064865112e-02 -2.115630358457565308e-02 -1.269995886832475662e-02 -4.430712759494781494e-02 -6.104569137096405029e-02 4.361955448985099792e-02 1.345665473490953445e-02 2.350018173456192017e-02 -3.614035248756408691e-02 -8.623877540230751038e-03 3.171740844845771790e-02 5.489719286561012268e-02 3.680179640650749207e-02 -6.147452071309089661e-02 9.750884957611560822e-03 5.934648960828781128e-02 2.669205516576766968e-02 2.002916112542152405e-02 4.703934863209724426e-02 -2.378630079329013824e-02 -5.830461159348487854e-02 -1.233673747628927231e-02 2.572941221296787262e-02 5.849239230155944824e-02 6.939344108104705811e-02 -2.983452565968036652e-02 -4.994302242994308472e-02 5.241133645176887512e-02 -9.539787657558917999e-03 4.788725171238183975e-03
3.880772506818175316e-03 -5.477296933531761169e-02 9.965724311769008636e-03 2.982174605131149292e-02 6.117708981037139893e-02 -6.922077387571334839e-02 4.423880949616432190e-02 6.858915090560913086e-02 -4.388179257512092590e-02 3.143438603729009628e-03 6.376121193170547485e-02 -5.787799600511789322e-03 5.961870774626731873e-02 2.472381480038166046e-02 -3.489066287875175476e-02 6.985031813383102417e-02 -4.883881658315658569e-02 2.738167159259319305e-02 -1.939173229038715363e-02 2.185081504285335541e-02 -1.788564026355743408e-02 -6.011949107050895691e-02 -2.558945911005139351e-03 6.265287101268768311e-02 5.519997328519821167e-02 1.439175009727478027e-02 -6.622311472892761230e-02 -3.760466724634170532e-02 -4.571121186017990112e-03 -2.258541807532310486e-02 -6.649245321750640869e-02 2.914797700941562653e-02 -2.860119007527828217e-02 1.161053031682968140e-02 -6.348855048418045044e-02 6.742431223392486572e-02 -4.473231360316276550e-02 -3.468135371804237366e-02 -6.639633327722549438e-02 5.410806089639663696e-02 6.335868686437606812e-02 1.497576199471950531e-02 2.399888075888156891e-02 1.949131675064563751e-02 4.396767821162939072e-03 -3.095195628702640533e-02 1.921434514224529266e-02 2.060410380363464355e-02 5.850435420870780945e-02 -6.833481043577194214e-02 6.180839985609054565e-02 -4.578419774770736694e-02 2.997591905295848846e-02 6.097963079810142517e-02 3.566466330084949732e-05 1.751773059368133545e-02 3.885716199874877930e-02 -1.052251737564802170e-02 6.273220479488372803e-02 6.560653448104858398e-02 -6.145780533552169800e-02 4.840270057320594788e-02 -8.411659859120845795e-03 -5.688420310616493225e-02 -8.894131518900394440e-03 4.909777641296386719e-02 4.974260553717613220e-02 6.290675699710845947e-02 4.515412077307701111e-02 -4.983458667993545532e-02 3.378301113843917847e-02 -6.100119277834892273e-02 -2.207921817898750305e-02 5.354147776961326599e-02 -2.173927798867225647e-02 -2.626980282366275787e-02 4.385973140597343445e-02 -7.492715492844581604e-03 3.479357436299324036e-02 7.034224923700094223e-03 7.715234067291021347e-03 1.737293973565101624e-02 -1.066951733082532883e-02 6.453637778759002686e-02 -1.805917546153068542e-02 -3.701845556497573853e-02 -2.011775411665439606e-02 2.899654395878314972e-02 2.499945461750030518e-02 -5.855435878038406372e-02 -3.511498449370265007e-03 -5.241469293832778931e-02 -4.400281235575675964e-02 -6.686954200267791748e-02 6.581943482160568237e-02 2.759803645312786102e-02 3.064806014299392700e-02 2.673360332846641541e-02 -5.071770027279853821e-02 -3.009016998112201691e-02 -1.833221130073070526e-02 5.620855838060379028e-02 -3.684410126879811287e-03 6.404068320989608765e-02 4.758666083216667175e-02 1.438779663294553757e-02 4.458314925432205200e-02 -3.295025601983070374e-02 5.088584870100021362e-02 -2.160013467073440552e-02 3.912026807665824890e-02 6.132610514760017395e-02 4.255540668964385986e-02 -3.822845593094825745e-02 -6.991939991712570190e-02 -1.073146518319845200e-02 5.659026280045509338e-02 -3.197065368294715881e-02 -3.491375222802162170e-02 1.043065451085567474e-02 6.693179160356521606e-02 1.820143684744834900e-02 -3.318795561790466309e-02 2.521939389407634735e-02 -5.402466654777526855e-02 3.652090206742286682e-02 4.730087146162986755e-02 -1.095249969512224197e-02 -3.152539581060409546e-02 -4.586631059646606445e-02 -2.695838920772075653e-03 6.502386927604675293e-02 3.448410704731941223e-02 2.645900845527648926e-02 6.342595443129539490e-04 -3.117025084793567657e-02 3.980229794979095459e-02 -1.471835421398282051e-03 -4.469222575426101685e-02 -3.271415084600448608e-02 -5.992039665579795837e-02 -3.605884686112403870e-02 -4.221770912408828735e-02 -5.713724717497825623e-02 -3.137273341417312622e-02 4.554032161831855774e-02 -3.498857095837593079e-02 1.023366022855043411e-02 4.866782948374748230e-02 2.790817804634571075e-02 -1.684904657304286957e-02 6.456616520881652832e-02 4.987622052431106567e-02 -2.885456010699272156e-02 6.469720602035522461e-02 -4.846905544400215149e-02 4.868106171488761902e-02 4.055167734622955322e-02 -4.651960358023643494e-02 -5.625116825103759766e-02 5.673351138830184937e-02 2.460931800305843353e-02 3.401099005714058876e-03 -6.400915235280990601e-02 6.131252273917198181e-02 1.260526292026042938e-02 1.613503694534301758e-02 2.714965306222438812e-02 1.976635865867137909e-02 3.873004019260406494e-02 -3.562899306416511536e-02 4.806752130389213562e-02 -4.007290676236152649e-02 5.954910814762115479e-02 3.089397028088569641e-02 3.548687323927879333e-02 -5.920399352908134460e-02 -2.186120115220546722e-02 -7.032279670238494873e-02 -2.288937196135520935e-02 -1.584712229669094086e-02 -5.754514411091804504e-02 9.171407436951994896e-04 1.822138205170631409e-02 1.835625059902667999e-02 1.292620319873094559e-02 1.733270660042762756e-02 3.606769815087318420e-02 3.030377998948097229e-02 4.868734255433082581e-02 4.098775237798690796e-02 6.142886821180582047e-03 -3.096306510269641876e-02 2.178079262375831604e-02 5.618082359433174133e-03 3.653440624475479126e-02 -6.267798691987991333e-02 3.016550466418266296e-02 3.006950952112674713e-02 -1.510254014283418655e-02
-4.260588064789772034e-02 -9.566964581608772278e-03 -6.714330520480871201e-04 1.826165802776813507e-02 4.099096357822418213e-02 2.196919731795787811e-02 -8.575189858675003052e-03 -6.919369101524353027e-02 -6.810180842876434326e-02 5.663811787962913513e-02 -5.897654220461845398e-02 4.722467809915542603e-02 2.810710296034812927e-02 -5.086337402462959290e-02 4.450925812125205994e-02 3.967121988534927368e-02 -5.187364295125007629e-02 -1.565860025584697723e-02 3.342285752296447754e-02 -4.787757620215415955e-02 -7.002092152833938599e-02 -1.336828991770744324e-02 -5.013426765799522400e-02 -6.294725090265274048e-02 -2.363773249089717865e-02 -1.806972920894622803e-02 3.207012778148055077e-03 -4.919672757387161255e-02 6.130975671112537384e-03 6.521912664175033569e-02 -1.680338382720947266e-02 -5.766502395272254944e-02 6.961633265018463135e-02 5.362258478999137878e-02 3.736137971282005310e-02 3.062568046152591705e-02 -3.671263903379440308e-02 6.840058416128158569e-02 5.642697215080261230e-02 2.747035585343837738e-02 8.111650124192237854e-03 5.280508100986480713e-02 -3.225928544998168945e-02 4.250630363821983337e-02 -4.005199298262596130e-02 9.911733679473400116e-03 -5.619901418685913086e-02 -5.499658361077308655e-02 -2.508827485144138336e-02 -5.319569632411003113e-02 4.540840163826942444e-02 6.145837903022766113e-02 -5.454045906662940979e-02 -6.062640622258186340e-02 1.693123340373858809e-04 -2.147546410560607910e-02 4.823179170489311218e-02 -2.774601429700851440e-02 -4.349757451564073563e-03 -3.823488950729370117e-02 3.785874694585800171e-02 -6.031080335378646851e-02 4.309178330004215240e-04 4.284057766199111938e-02 -5.537953600287437439e-02 3.908901289105415344e-02 4.012534394860267639e-02 4.815544188022613525e-02 -3.215665742754936218e-02 -5.665969848632812500e-02 -9.967316873371601105e-03 4.286637157201766968e-02 -3.824741393327713013e-02 -6.148339435458183289e-02 -4.152672737836837769e-02 2.249876409769058228e-02 -2.905675582587718964e-02 -3.120615147054195404e-02 -1.651791483163833618e-02 -6.125713512301445007e-02 -3.926206752657890320e-02 3.813436999917030334e-02 2.360613085329532623e-02 5.191231891512870789e-02 3.867368027567863464e-02 -3.523679822683334351e-02 4.546310007572174072e-02 -1.842295378446578979e-02 -5.243166908621788025e-02 -1.151763834059238434e-02 6.067179888486862183e-02 2.937965095043182373e-02 2.884779870510101318e-02 -2.176804654300212860e-02 -2.163077471777796745e-03 -3.863798081874847412e-02 -6.295372545719146729e-02 4.914079979062080383e-02 3.265485540032386780e-02 3.237062692642211914e-02 -1.744560152292251587e-02 1.188021060079336166e-02 6.160538643598556519e-02 9.789449395611882210e-04 5.221612006425857544e-02 1.878233067691326141e-02 -6.746223568916320801e-02 -7.054899632930755615e-02 4.858928173780441284e-02 5.718712136149406433e-02 -5.176591500639915466e-02 -1.690345816314220428e-02 2.049560844898223877e-02 -1.813555322587490082e-02 4.809032380580902100e-02 -2.137982472777366638e-02 -2.641141600906848907e-02 3.493257332593202591e-03 6.795370485633611679e-03 4.138384759426116943e-02 -5.604288727045059204e-02 2.931927889585494995e-02 5.868965759873390198e-02 -2.834217250347137451e-02 -2.526647225022315979e-02 9.870168752968311310e-03 3.027534671127796173e-02 4.113608598709106445e-02 -3.878771141171455383e-02 -4.852520301938056946e-02 -3.542675450444221497e-02 -1.204942166805267334e-02 -6.996194273233413696e-02 -4.336405254434794188e-04 2.059070952236652374e-02 -5.686439573764801025e-02 -4.353210702538490295e-02 1.716820709407329559e-02 -2.269379422068595886e-02 -5.236979573965072632e-02 2.872254699468612671e-02 5.983101949095726013e-02 5.390995368361473083e-02 6.797480583190917969e-02 3.293053805828094482e-02 -6.227264553308486938e-02 -1.075244508683681488e-02 -4.578037932515144348e-02 -6.654625292867422104e-03 5.968939885497093201e-02 4.502091184258460999e-02 3.445770591497421265e-02 1.855812594294548035e-02 4.628353193402290344e-02 1.671042479574680328e-02 2.971381694078445435e-02 1.685396954417228699e-02 -1.353012491017580032e-02 5.924840644001960754e-02 2.378988265991210938e-02 -6.976387649774551392e-02 4.603671655058860779e-02 4.611687362194061279e-02 -4.866024106740951538e-02 8.592157624661922455e-03 7.477896288037300110e-03 -6.218418106436729431e-02 1.400541514158248901e-02 -3.579999879002571106e-02 6.530747562646865845e-02 -1.095059514045715332e-02 2.251469530165195465e-02 3.590394929051399231e-02 -1.439879741519689560e-02 -1.200711540877819061e-02 -6.980518251657485962e-02 6.882461160421371460e-02 5.203829612582921982e-03 2.225746586918830872e-02 2.640991657972335815e-02 3.522651642560958862e-02 6.301863491535186768e-02 -8.710776455700397491e-03 -3.714907541871070862e-02 1.048411359079182148e-03 3.111097589135169983e-02 -4.549095779657363892e-02 -4.255187511444091797e-02 -4.788739606738090515e-02 -7.015305012464523315e-02 -4.419527947902679443e-02 3.575108945369720459e-02 5.303219333291053772e-02 -3.772868076339364052e-03 -5.564122647047042847e-02 3.714075684547424316e-02 5.657141655683517456e-02 -2.949630469083786011e-02 -2.423175796866416931e-02 -6.019326299428939819e-02
-1.881907507777214050e-02 -2.672265470027923584e-02 -3.199724853038787842e-02 6.016957759857177734e-02 -7.967415265738964081e-03 4.071771726012229919e-02 3.188823908567428589e-02 5.690370127558708191e-02 4.870051518082618713e-03 2.917972207069396973e-02 -1.759961433708667755e-02 2.696282416582107544e-02 1.769895479083061218e-02 -4.628061316907405853e-03 -6.225562840700149536e-02 -3.094847500324249268e-02 3.915166109800338745e-02 3.173253266140818596e-03 -4.041579365730285645e-02 1.875566877424716949e-02 -7.009007036685943604e-02 -1.641718484461307526e-02 1.239539682865142822e-02 -5.457722768187522888e-02 -6.238553300499916077e-02 3.345299884676933289e-02 1.036160904914140701e-02 -5.589064210653305054e-02 6.288051605224609375e-02 -6.076167151331901550e-02 4.542972892522811890e-02 4.750823229551315308e-02 2.768407389521598816e-02 1.810282282531261444e-02 -5.148069933056831360e-02 5.103545263409614563e-02 -1.382650155574083328e-02 1.288671139627695084e-02 -4.509485512971878052e-02 1.248694863170385361e-02 8.438356220722198486e-03 6.152654439210891724e-02 -4.863238334655761719e-02 -3.145200386643409729e-02 5.330636724829673767e-02 5.864439904689788818e-02 4.947540536522865295e-02 -8.434671908617019653e-03 -6.562592834234237671e-02 -5.190442129969596863e-02 -9.514694102108478546e-03 -4.526913166046142578e-02 6.270614266395568848e-02 -9.599248878657817841e-03 -4.954861104488372803e-02 6.863782554864883423e-02 -5.610527098178863525e-02 3.671803325414657593e-02 1.438522594980895519e-03 -5.445319041609764099e-02 -6.775896996259689331e-02 -2.149736322462558746e-02 1.918811164796352386e-02 5.797450989484786987e-02 6.122637540102005005e-02 -5.610327236354351044e-03 -9.502328000962734222e-03 2.722821431234478951e-03 -3.175074979662895203e-02 -2.403054013848304749e-02 -5.654885992407798767e-02 6.220015510916709900e-02 5.302906781435012817e-02 2.925707958638668060e-02 1.416489016264677048e-02 -1.344345416873693466e-02 1.115945726633071899e-02 -5.549222696572542191e-04 -5.462502315640449524e-02 5.240171030163764954e-02 3.083032928407192230e-02 1.314460765570402145e-02 5.069092661142349243e-02 -2.664661221206188202e-02 -3.385433182120323181e-02 1.875927671790122986e-02 -5.144758895039558411e-02 -4.996813461184501648e-02 -9.669751860201358795e-03 6.545533984899520874e-02 -1.286403648555278778e-02 1.258499082177877426e-02 -5.731701850891113281e-03 -4.411362484097480774e-02 -3.418618813157081604e-02 -3.612707555294036865e-02 -5.520520731806755066e-02 6.689006835222244263e-02 -3.250725194811820984e-02 -1.542103569954633713e-02 -1.617965288460254669e-02 -4.261463880538940430e-02 -2.064029872417449951e-02 2.707227133214473724e-03 4.647915810346603394e-02 -2.204678952693939209e-02 6.867013871669769287e-02 5.338937044143676758e-02 -6.711395829916000366e-02 4.648036509752273560e-02 3.608049452304840088e-02 -5.719268694519996643e-03 -2.931929565966129303e-02 -5.482999980449676514e-02 9.771198965609073639e-03 2.309207431972026825e-02 4.410122334957122803e-02 2.164909243583679199e-02 -5.052308365702629089e-02 -7.049728184938430786e-02 -2.822352945804595947e-02 5.654982849955558777e-02 -6.723897159099578857e-02 -5.716599896550178528e-02 -5.380041152238845825e-02 3.828121721744537354e-02 -2.666638046503067017e-02 8.146842941641807556e-03 1.476260833442211151e-02 -1.021657325327396393e-02 9.782114997506141663e-03 1.714269258081912994e-02 1.623831316828727722e-02 -2.020359784364700317e-02 3.402259945869445801e-02 -4.799612611532211304e-02 -4.894407466053962708e-02 -5.375743284821510315e-02 -5.686062946915626526e-02 -5.892235785722732544e-02 4.720276966691017151e-02 -7.346533238887786865e-03 -2.314661256968975067e-02 5.918715149164199829e-02 -5.947339534759521484e-02 4.513886198401451111e-02 3.153887763619422913e-02 5.527832731604576111e-02 7.751471828669309616e-03 -1.070122886449098587e-02 6.945222616195678711e-02 1.362909469753503799e-02 -2.687432430684566498e-02 3.706294670701026917e-02 -1.191116310656070709e-02 -5.514108017086982727e-02 3.273377195000648499e-03 -5.355259031057357788e-02 -4.682788252830505371e-02 1.897852495312690735e-02 2.957139350473880768e-02 7.018826901912689209e-02 -3.366774646565318108e-03 1.548721455037593842e-02 -3.405072540044784546e-02 1.714075356721878052e-02 2.856034040451049805e-02 3.858029097318649292e-02 -1.512623485177755356e-02 1.267326250672340393e-02 7.056522369384765625e-02 -1.172904740087687969e-03 6.084651499986648560e-02 -6.782525777816772461e-02 2.744340710341930389e-02 -5.272528156638145447e-02 -2.114094421267509460e-02 -4.980066791176795959e-02 2.789496816694736481e-02 -8.359642699360847473e-03 3.098948393017053604e-03 -4.823113605380058289e-02 -4.490645602345466614e-02 2.214850625023245811e-03 -3.162571415305137634e-02 3.972258791327476501e-02 5.566633865237236023e-02 -1.703791506588459015e-02 1.596795022487640381e-02 3.994600847363471985e-02 -5.029458552598953247e-02 -1.556699816137552261e-02 -4.536318778991699219e-02 5.160161107778549194e-02 -8.193128742277622223e-03 6.401832401752471924e-02 -3.868939355015754700e-02 -5.363734439015388489e-03 -2.472958900034427643e-02 -7.977589964866638184e-03
-3.108035959303379059e-02 -4.998755455017089844e-02 -6.427498906850814819e-02 1.215725904330611229e-03 -2.470451034605503082e-02 6.410821527242660522e-02 1.833019591867923737e-02 3.487692400813102722e-02 3.214803338050842285e-02 -2.681284770369529724e-02 5.060821026563644409e-02 -6.061597913503646851e-02 3.204629942774772644e-02 5.715326219797134399e-02 2.235442772507667542e-02 1.989669352769851685e-02 -2.942361868917942047e-02 -3.715662285685539246e-02 6.444728374481201172e-02 6.686243694275617599e-03 -3.158013895153999329e-02 -3.286549821496009827e-02 4.079876840114593506e-02 -3.419416025280952454e-02 -4.079424962401390076e-02 7.008714228868484497e-02 -4.066923260688781738e-02 -5.688260495662689209e-02 7.030989229679107666e-02 3.983330726623535156e-02 3.814327716827392578e-02 1.822820864617824554e-02 -2.355432324111461639e-02 4.955087974667549133e-02 4.700145870447158813e-02 3.168975189328193665e-02 -3.826880827546119690e-02 3.271371871232986450e-02 9.827743284404277802e-03 -3.739721328020095825e-02 -5.908347666263580322e-02 3.547273576259613037e-02 3.302341327071189880e-02 2.117433398962020874e-02 -3.340167552232742310e-02 -1.675739325582981110e-02 4.749612882733345032e-03 -3.243779391050338745e-02 3.253534436225891113e-02 -1.167521718889474869e-02 -2.257470414042472839e-02 6.642120331525802612e-02 -5.594161525368690491e-02 -3.543724864721298218e-02 1.767813414335250854e-02 4.161554854363203049e-03 -6.913898885250091553e-02 4.399659112095832825e-02 5.534055083990097046e-02 1.044097170233726501e-02 6.990080233663320541e-03 4.299961775541305542e-02 -6.892518699169158936e-02 -5.410468578338623047e-02 -5.942047759890556335e-02 -1.814707741141319275e-02 -3.664201498031616211e-02 5.810932815074920654e-02 3.155983984470367432e-02 -3.321057185530662537e-02 6.628385186195373535e-02 6.887492537498474121e-02 6.607480347156524658e-02 4.066816344857215881e-02 -2.416584081947803497e-02 -2.150931581854820251e-02 3.789150342345237732e-02 -1.746143959462642670e-02 6.914541125297546387e-02 3.856046497821807861e-02 1.007592119276523590e-02 3.229727596044540405e-02 -6.281902641057968140e-02 -1.528997533023357391e-02 1.452248170971870422e-02 -5.260982364416122437e-02 2.818922884762287140e-02 6.255471706390380859e-02 3.659943118691444397e-02 -1.580150239169597626e-02 4.304350912570953369e-02 2.770346123725175858e-03 1.431453693658113480e-02 1.130140852183103561e-02 2.918277494609355927e-02 2.529149875044822693e-02 2.602825872600078583e-02 6.256758421659469604e-02 -4.644582048058509827e-02 5.774849280714988708e-02 -3.190646320581436157e-02 1.246473751962184906e-02 -4.996079951524734497e-02 1.052948832511901855e-02 -2.072190307080745697e-02 5.499528348445892334e-02 -5.269731953740119934e-02 -3.412912786006927490e-02 6.529435515403747559e-02 6.845239549875259399e-02 -4.385126754641532898e-03 4.360523447394371033e-02 3.980232402682304382e-02 6.092277541756629944e-02 -4.474113136529922485e-02 -4.214714467525482178e-02 -2.126548066735267639e-02 -2.216592244803905487e-02 -2.023888379335403442e-02 6.448065489530563354e-02 2.611412107944488525e-02 -2.737277001142501831e-02 -6.674457341432571411e-02 2.061365358531475067e-02 3.241834416985511780e-02 2.418446168303489685e-02 -7.841312326490879059e-03 -3.624393045902252197e-02 -5.268135294318199158e-02 4.201417323201894760e-03 -3.258678317070007324e-02 -1.639524288475513458e-02 4.933947324752807617e-02 3.448697179555892944e-02 6.792583316564559937e-02 -3.916921839118003845e-02 -3.186575695872306824e-02 -1.327421795576810837e-02 -4.959724098443984985e-02 -1.616412587463855743e-02 -3.168307617306709290e-02 5.718556419014930725e-02 1.411222387105226517e-02 4.166045039892196655e-02 -1.839711703360080719e-02 4.598555341362953186e-02 2.039189450442790985e-02 -6.640300154685974121e-02 6.126702204346656799e-02 4.474614933133125305e-02 4.895137622952461243e-03 -4.794619977474212646e-02 5.055522173643112183e-02 1.939244009554386139e-02 -2.077200822532176971e-02 5.685774609446525574e-02 1.084547210484743118e-02 4.304987192153930664e-02 2.951635792851448059e-02 -1.038531307131052017e-02 -6.436805427074432373e-02 -4.528961330652236938e-02 -5.730655044317245483e-02 -2.883672341704368591e-02 5.625217780470848083e-02 6.420534849166870117e-02 2.397468872368335724e-02 6.321720778942108154e-02 1.034942921251058578e-02 -3.687926009297370911e-02 -3.900393471121788025e-02 -3.258368745446205139e-02 3.876464813947677612e-02 -3.141512349247932434e-02 -3.389558568596839905e-02 -4.672184959053993225e-02 -2.114169485867023468e-02 3.656298387795686722e-03 2.512955293059349060e-02 4.828680306673049927e-02 6.285102665424346924e-02 -5.625342577695846558e-02 -2.920154668390750885e-02 -3.028962574899196625e-02 -3.948650881648063660e-02 -3.645213693380355835e-02 5.586421862244606018e-02 -3.072655387222766876e-02 5.972454696893692017e-02 5.959227308630943298e-02 4.879369586706161499e-02 -3.323394805192947388e-02 -6.471858918666839600e-02 -2.474265359342098236e-02 -5.271728150546550751e-04 -3.920717537403106689e-02 -1.449543144553899765e-02 -3.434530645608901978e-02 2.708119712769985199e-02 1.121120527386665344e-02
-1.331557240337133408e-02 -5.647297948598861694e-02 -6.027106568217277527e-02 1.234987005591392517e-02 1.426114584319293499e-03 2.597854286432266235e-02 -1.901945658028125763e-02 3.515489771962165833e-02 -1.747310720384120941e-02 3.468989208340644836e-02 5.620929971337318420e-02 -8.803119882941246033e-03 4.421294108033180237e-02 5.893217772245407104e-02 -1.458781771361827850e-02 -5.286332964897155762e-02 -3.945806622505187988e-02 -6.316332519054412842e-02 1.893715374171733856e-02 -2.306837961077690125e-02 -1.575785689055919647e-02 -8.460390381515026093e-04 -3.567809984087944031e-02 -6.830679625272750854e-02 -5.762894824147224426e-02 -2.159326523542404175e-02 -6.267150491476058960e-02 -3.688893094658851624e-02 4.499580711126327515e-02 -3.543186932802200317e-02 -6.717441231012344360e-02 4.807168617844581604e-03 -5.418313294649124146e-02 3.974160552024841309e-02 -3.097552433609962463e-02 5.943220853805541992e-02 -3.841301798820495605e-02 3.899155929684638977e-02 6.452628970146179199e-02 5.562241375446319580e-02 6.036195904016494751e-02 2.576934359967708588e-02 6.200160831212997437e-02 4.781014844775199890e-02 7.012171298265457153e-02 3.371324762701988220e-02 -4.001390933990478516e-02 -4.575613886117935181e-03 -6.495981663465499878e-02 -3.797167539596557617e-02 -1.310539431869983673e-02 5.790823698043823242e-02 -5.781262367963790894e-02 6.826024502515792847e-02 4.282573610544204712e-02 1.902153156697750092e-02 -2.008616924285888672e-02 -3.098877519369125366e-02 -5.960274487733840942e-02 -5.407358333468437195e-02 3.021187381818890572e-03 -2.661177515983581543e-02 -4.958049207925796509e-02 -6.266783922910690308e-02 -6.723383814096450806e-02 -9.968202561140060425e-03 -2.531687170267105103e-02 -2.923235669732093811e-02 -4.871835187077522278e-02 -3.296945989131927490e-02 3.563769161701202393e-02 1.083715260028839111e-02 -6.318999826908111572e-02 -4.841877520084381104e-02 5.291658639907836914e-02 6.365599110722541809e-03 -4.220620170235633850e-02 6.053156778216362000e-02 -3.998914361000061035e-02 -3.954255580902099609e-02 -2.962821535766124725e-02 -2.734206058084964752e-02 -3.727343678474426270e-02 3.481563180685043335e-02 2.476098015904426575e-02 1.763485744595527649e-02 4.175634309649467468e-02 -3.447261825203895569e-02 8.055729791522026062e-03 5.201149731874465942e-02 6.702861189842224121e-02 -6.966390460729598999e-02 -5.302247405052185059e-02 -2.004108950495719910e-02 2.928803116083145142e-02 5.782277137041091919e-02 -5.339968204498291016e-02 1.987669989466667175e-02 5.641638487577438354e-02 -1.123517053201794624e-03 2.508918568491935730e-02 6.930328160524368286e-02 -1.749497279524803162e-02 6.014832481741905212e-02 -6.293471902608871460e-02 1.140787918120622635e-02 -3.002545051276683807e-02 -2.951844036579132080e-02 -3.123104386031627655e-02 -4.239888861775398254e-03 6.504928227514028549e-03 -2.791222371160984039e-02 -5.395942553877830505e-02 6.095953658223152161e-02 -1.098582986742258072e-03 -4.124725982546806335e-02 -5.405889824032783508e-03 3.446992859244346619e-02 -4.360235854983329773e-02 -6.760911643505096436e-02 1.933158026076853275e-03 6.272224336862564087e-02 5.305986851453781128e-02 4.598666355013847351e-02 6.866688281297683716e-02 2.841365337371826172e-02 -2.268655411899089813e-02 -3.977629914879798889e-02 -2.872977964580059052e-02 2.204845100641250610e-02 -6.178821995854377747e-02 1.968827657401561737e-02 4.130160436034202576e-02 6.157857924699783325e-02 3.079200908541679382e-02 2.560481056571006775e-02 -4.718340933322906494e-02 -3.476791456341743469e-02 5.705405771732330322e-02 -5.382785946130752563e-02 5.054926499724388123e-02 4.929603636264801025e-02 -2.357741259038448334e-02 -1.873139292001724243e-02 -3.797454014420509338e-02 -1.877918653190135956e-02 2.364498935639858246e-02 -1.445217151194810867e-02 4.493427276611328125e-02 -5.157311260700225830e-02 -3.096838481724262238e-02 5.593456700444221497e-02 -4.264270886778831482e-02 -5.159869417548179626e-02 -5.400237068533897400e-02 -5.523943901062011719e-02 -8.009325712919235229e-03 6.805913150310516357e-02 -7.069779932498931885e-02 1.103898510336875916e-02 -4.566374421119689941e-02 -5.707919970154762268e-02 3.807038068771362305e-02 2.977947331964969635e-02 -3.670687228441238403e-02 1.570551772601902485e-03 2.670608274638652802e-02 -4.326592385768890381e-02 -5.669762194156646729e-02 -6.817205995321273804e-02 -5.400818958878517151e-02 -4.603793099522590637e-02 -5.818112939596176147e-02 1.999332755804061890e-02 -2.786252414807677269e-03 6.519648432731628418e-02 -2.235545590519905090e-02 -4.099038988351821899e-02 2.915129065513610840e-03 4.470516461879014969e-03 4.249496757984161377e-02 -4.581446945667266846e-02 5.214484035968780518e-02 4.672430083155632019e-02 -2.620252035558223724e-02 -4.235451668500900269e-02 -4.233578592538833618e-02 -3.817984461784362793e-02 -5.322902649641036987e-02 3.412548825144767761e-02 -5.577125772833824158e-02 2.350443787872791290e-02 -1.853565312922000885e-02 -3.304430982097983360e-03 -3.944762423634529114e-02 -5.601200833916664124e-02 -2.384635061025619507e-02 4.282617475837469101e-03 2.952318638563156128e-02 -5.486355721950531006e-02
-9.760561399161815643e-03 2.062318660318851471e-02 5.709937959909439087e-02 -2.121553570032119751e-02 1.409514620900154114e-02 -3.889372199773788452e-02 9.518883191049098969e-03 -6.339776515960693359e-02 -3.522978350520133972e-02 4.351275414228439331e-02 -7.055757939815521240e-02 1.162869576364755630e-02 -5.376130715012550354e-02 -3.664996474981307983e-02 -5.902127921581268311e-02 2.744939178228378296e-02 -2.997779054567217827e-03 -4.968708381056785583e-02 2.419006638228893280e-02 -6.838174909353256226e-02 -1.641919091343879700e-02 1.157168764621019363e-02 -7.067858241498470306e-03 3.271101275458931923e-03 2.456251904368400574e-02 -4.810703918337821960e-02 5.703152343630790710e-02 -4.962883517146110535e-02 -1.478531770408153534e-02 -6.818427890539169312e-02 -5.938286334276199341e-02 -5.953381583094596863e-02 4.963376745581626892e-02 -2.795041725039482117e-02 -2.446599304676055908e-02 -7.022563368082046509e-02 -5.976784229278564453e-02 -3.037846274673938751e-02 2.037701569497585297e-02 -4.561309888958930969e-02 -3.708851337432861328e-02 -8.557580877095460892e-04 9.731623576954007149e-04 2.553960122168064117e-02 6.946659833192825317e-02 5.231926217675209045e-02 3.485880792140960693e-02 -6.519632041454315186e-02 6.037771329283714294e-02 4.793656524270772934e-03 -4.462405666708946228e-02 -3.682488342747092247e-03 2.211669459939002991e-02 -3.269127383828163147e-02 6.845507770776748657e-02 -3.584228083491325378e-02 -2.840951457619667053e-02 -3.711282974109053612e-03 2.764000557363033295e-02 3.816980496048927307e-02 -1.579825021326541901e-02 -3.416062891483306885e-02 -1.454535871744155884e-02 -4.604762420058250427e-03 5.301064625382423401e-02 1.541672740131616592e-03 6.661412864923477173e-02 3.245434025302529335e-03 4.812838882207870483e-02 1.833986490964889526e-03 -5.968514084815979004e-02 -7.871927693486213684e-03 2.203302457928657532e-03 -2.787660062313079834e-02 4.794758930802345276e-02 1.739764586091041565e-02 -5.273659899830818176e-02 -1.999786309897899628e-02 2.485129982233047485e-03 -5.038445349782705307e-03 -5.515582859516143799e-02 -4.353267326951026917e-02 -1.334807649254798889e-02 1.592973945662379265e-03 5.953777208924293518e-02 5.327919125556945801e-02 1.332337781786918640e-02 6.273815035820007324e-02 -6.662620604038238525e-02 -3.141202405095100403e-02 -1.406033243983983994e-02 6.073216348886489868e-02 5.397857725620269775e-02 2.310899086296558380e-02 -4.269867017865180969e-02 -6.874056160449981689e-02 -1.732253283262252808e-02 -9.638647316023707390e-04 1.046719588339328766e-02 4.589631687849760056e-03 6.988121569156646729e-02 6.158993393182754517e-02 -2.960265055298805237e-02 5.147413536906242371e-02 -2.331394329667091370e-02 -5.015910044312477112e-02 4.159952327609062195e-02 -1.298761088401079178e-02 -2.784674428403377533e-02 6.295145303010940552e-02 -1.635167934000492096e-02 1.099218521267175674e-02 6.421578675508499146e-02 3.676298633217811584e-02 -4.524009302258491516e-02 6.045459886081516743e-04 -3.420742973685264587e-02 -3.867892315611243248e-03 -6.588749587535858154e-02 1.803528703749179840e-02 1.271221507340669632e-02 -5.489595234394073486e-02 9.805195033550262451e-03 -2.568656578660011292e-02 3.444240792305208743e-05 -1.393009070307016373e-02 4.681934416294097900e-02 -6.207068637013435364e-02 -3.255667164921760559e-02 -7.595848757773637772e-03 2.856186777353286743e-02 2.065126597881317139e-02 -1.152893411926925182e-03 4.139124229550361633e-02 -3.948227688670158386e-02 -5.538138374686241150e-02 -2.168720960617065430e-02 -1.979983178898692131e-03 3.160349652171134949e-02 -4.165440797805786133e-02 -4.800610616803169250e-02 4.752052202820777893e-02 -4.310015216469764709e-02 -2.696808369364589453e-04 -6.329637765884399414e-02 6.391850858926773071e-02 -4.207132384181022644e-03 -8.420755155384540558e-03 2.888104412704706192e-03 3.420722787268459797e-04 1.330660306848585606e-03 -6.740806251764297485e-02 1.421240717172622681e-02 -4.005248844623565674e-02 -6.721841171383857727e-03 -2.153562381863594055e-02 8.987015113234519958e-03 2.585708349943161011e-02 4.944786429405212402e-02 5.922930780798196793e-03 2.217865921556949615e-02 -6.922826915979385376e-02 -1.119911763817071915e-02 2.184063196182250977e-02 -7.805285044014453888e-03 4.886299371719360352e-02 4.274446889758110046e-02 7.717644795775413513e-03 7.050500810146331787e-02 2.597989141941070557e-02 -5.311428010463714600e-02 6.059595197439193726e-02 5.280117690563201904e-02 -2.247424237430095673e-02 9.612853638827800751e-03 4.637534171342849731e-02 2.588898129761219025e-02 1.400062721222639084e-02 -1.660361699759960175e-02 -4.852009564638137817e-02 -2.098080329596996307e-02 6.664776057004928589e-02 -4.533989354968070984e-03 5.862446501851081848e-02 5.204647034406661987e-02 3.127497062087059021e-02 2.210153825581073761e-02 6.290253996849060059e-02 2.630282007157802582e-02 5.056249722838401794e-02 -8.336487226188182831e-03 -4.035294428467750549e-02 5.593481287360191345e-02 -4.672104865312576294e-02 8.460272103548049927e-03 -9.635107126086950302e-04 -1.421875413507223129e-02 -5.777153186500072479e-03 -3.396614640951156616e-02 2.332574501633644104e-02
-3.068698756396770477e-02 -2.685769274830818176e-02 5.004064366221427917e-02 3.104385361075401306e-02 4.499153420329093933e-02 -1.688588224351406097e-02 1.878688298165798187e-02 -5.585570354014635086e-03 -6.243131309747695923e-02 -1.832747366279363632e-03 -2.296716673299670219e-03 -6.828202307224273682e-02 9.933051653206348419e-03 -2.570365369319915771e-02 5.487032607197761536e-02 -3.422167524695396423e-02 3.489649668335914612e-02 6.916116923093795776e-02 2.183465659618377686e-02 -5.724874138832092285e-02 6.659127026796340942e-02 3.992667421698570251e-02 -5.434090271592140198e-02 -3.489155694842338562e-02 -1.732746325433254242e-02 -3.511979058384895325e-02 -2.674712426960468292e-02 -6.572186201810836792e-02 3.306718915700912476e-02 -4.379108548164367676e-03 4.640893265604972839e-02 1.615058816969394684e-02 5.802888795733451843e-02 4.868761077523231506e-02 -1.499743387103080750e-02 -6.238910555839538574e-02 2.556421421468257904e-02 -5.396522209048271179e-02 -3.343169018626213074e-02 3.744331374764442444e-02 -3.568160813301801682e-03 -6.839229911565780640e-02 1.525682304054498672e-02 7.279013749212026596e-03 1.570242457091808319e-02 2.388105541467666626e-02 -7.205686997622251511e-03 -3.907338529825210571e-02 2.972019650042057037e-02 -3.761938586831092834e-02 4.503127187490463257e-02 7.564213126897811890e-03 -1.797274872660636902e-02 -5.564268678426742554e-02 -1.682047918438911438e-02 -2.665351703763008118e-02 -6.358660012483596802e-02 4.437994211912155151e-02 -5.246239155530929565e-02 4.722578078508377075e-02 6.946573406457901001e-02 -5.812257900834083557e-02 -5.564938485622406006e-02 -5.313180387020111084e-02 -6.576923187822103500e-03 1.733334735035896301e-02 1.560117956250905991e-02 6.045856047421693802e-03 3.084051981568336487e-02 -5.820406600832939148e-02 3.324634581804275513e-02 5.718014389276504517e-02 2.426635287702083588e-02 4.613039270043373108e-02 -1.449697371572256088e-02 -6.990426778793334961e-02 2.112929522991180420e-02 2.970734238624572754e-02 2.263093739748001099e-02 6.831296533346176147e-02 -1.244306564331054688e-02 -1.623178087174892426e-02 -5.820243060588836670e-02 5.954609066247940063e-02 1.617837138473987579e-02 5.100135505199432373e-02 -4.672804474830627441e-02 -2.690218202769756317e-02 -4.252767190337181091e-02 5.908915027976036072e-02 1.929617673158645630e-02 7.052621990442276001e-02 2.806012518703937531e-02 1.766007021069526672e-02 6.380258500576019287e-02 3.422212228178977966e-02 3.883393108844757080e-02 4.830618947744369507e-02 -5.870543792843818665e-02 3.557394072413444519e-02 4.052846133708953857e-02 -2.000774256885051727e-02 4.767701402306556702e-02 -5.951613187789916992e-02 -3.064339049160480499e-02 5.251697450876235962e-02 2.035084366798400879e-02 5.216830968856811523e-02 -6.525518745183944702e-02 3.063669800758361816e-02 3.472457081079483032e-02 6.186459586024284363e-02 -5.926869809627532959e-02 -3.759933263063430786e-02 4.990032687783241272e-02 3.866765275597572327e-02 -1.731465198099613190e-02 -2.998944744467735291e-02 -4.466419667005538940e-02 -5.225922167301177979e-02 5.103176087141036987e-02 5.684033036231994629e-02 4.542364925146102905e-02 -4.127430915832519531e-02 4.699634388089179993e-02 -6.859234720468521118e-02 -3.977033123373985291e-02 -1.616773381829261780e-02 -1.762614212930202484e-02 6.960875540971755981e-02 6.233483925461769104e-02 6.348904967308044434e-02 -4.566987231373786926e-02 2.460202760994434357e-02 -9.780016727745532990e-03 -4.938681796193122864e-02 -2.506936900317668915e-03 4.282406531274318695e-03 3.416651394218206406e-03 -6.177744641900062561e-02 2.624194324016571045e-02 -5.367738660424947739e-03 -5.764195322990417480e-02 -1.770300976932048798e-02 -3.211810812354087830e-02 -2.210473269224166870e-02 -6.616313941776752472e-03 -4.902750253677368164e-02 7.047992944717407227e-02 6.525792181491851807e-02 -6.536775082349777222e-02 -1.569160958752036095e-03 6.437295675277709961e-02 5.411621648818254471e-03 6.481987237930297852e-02 -1.070422958582639694e-02 -5.031346902251243591e-02 -2.521120011806488037e-02 4.728306084871292114e-02 -6.363213807344436646e-02 -3.606734424829483032e-02 6.544698774814605713e-02 8.944666013121604919e-03 2.634795941412448883e-02 2.478631772100925446e-02 3.190713003277778625e-02 9.590128436684608459e-03 -4.029342532157897949e-02 2.752323448657989502e-02 -3.039463050663471222e-02 5.319482088088989258e-02 -6.202381104230880737e-02 -2.919143997132778168e-02 6.116653606295585632e-02 -1.606363989412784576e-02 2.133683487772941589e-02 3.843599557876586914e-02 -6.459236145019531250e-02 -4.262385889887809753e-02 -2.208257280290126801e-02 -4.625736549496650696e-02 -6.494347006082534790e-02 -6.950455904006958008e-02 -1.919483952224254608e-02 -1.689844205975532532e-02 5.691392719745635986e-02 7.065784651786088943e-03 -5.052828416228294373e-02 -4.827415943145751953e-02 4.842023923993110657e-02 -2.147754654288291931e-02 -1.180919352918863297e-02 3.858670592308044434e-03 2.514774352312088013e-02 8.145022206008434296e-03 1.180717907845973969e-02 6.284422427415847778e-02 -2.091296389698982239e-02 -7.060608826577663422e-03 1.691266335546970367e-02
2.484749071300029755e-02 -3.273331001400947571e-02 2.459165826439857483e-02 -6.989061087369918823e-02 6.929977238178253174e-02 5.835690721869468689e-02 -2.929856069386005402e-02 -5.190362036228179932e-02 2.747380360960960388e-02 -5.742929643020033836e-04 -2.839760296046733856e-02 6.477685272693634033e-02 6.791796186007559299e-04 5.537680536508560181e-02 -5.330881103873252869e-02 4.729003179818391800e-03 -3.440448269248008728e-02 1.284803729504346848e-02 -6.185002252459526062e-02 3.234387189149856567e-02 -1.408667396754026413e-02 3.511283546686172485e-02 -6.926146894693374634e-02 6.503795832395553589e-02 -3.111065551638603210e-02 5.995781347155570984e-02 4.931538179516792297e-02 3.690900746732950211e-03 6.500033289194107056e-02 -6.825111806392669678e-02 -5.401731655001640320e-02 4.200048372149467468e-02 -1.366871222853660583e-02 -2.236640639603137970e-02 -1.557729858905076981e-02 -4.418102651834487915e-02 1.241641957312822342e-02 -6.942224502563476562e-02 3.773324936628341675e-02 6.158388219773769379e-03 -5.044633150100708008e-02 -5.743017420172691345e-02 3.569827228784561157e-02 2.492081746459007263e-02 -5.804945528507232666e-02 1.212714891880750656e-02 3.251871466636657715e-02 -3.881336376070976257e-02 -1.024450827389955521e-02 -6.297546625137329102e-02 6.123337149620056152e-02 -6.635197252035140991e-02 -5.489559844136238098e-02 6.450685206800699234e-03 -3.709635138511657715e-02 -5.798019841313362122e-02 6.653063744306564331e-02 -3.692874312400817871e-02 3.824031725525856018e-02 7.042910903692245483e-02 -1.971323601901531219e-02 2.337379939854145050e-02 -2.857952564954757690e-02 5.165643617510795593e-02 5.683824792504310608e-02 6.426378339529037476e-02 -4.153583198785781860e-02 4.977763071656227112e-02 5.637777596712112427e-02 2.975657023489475250e-02 -1.697586663067340851e-02 -1.856964896433055401e-03 -2.881413325667381287e-02 -3.071567974984645844e-02 4.456470534205436707e-02 -4.744845256209373474e-02 3.699025884270668030e-02 1.038692239671945572e-02 -6.117929890751838684e-02 2.979656681418418884e-02 6.373572349548339844e-02 1.661877334117889404e-02 -2.750607207417488098e-02 3.830489516258239746e-02 5.301049724221229553e-02 -2.464531175792217255e-02 -7.069823890924453735e-02 5.193799361586570740e-02 4.266848415136337280e-02 3.331685811281204224e-02 3.523403406143188477e-02 4.709022119641304016e-02 2.670128643512725830e-02 3.734593465924263000e-02 -6.766767799854278564e-02 6.684810668230056763e-02 -2.050645649433135986e-02 -3.544205427169799805e-02 7.053370028734207153e-02 -1.553054153919219971e-02 -5.311211943626403809e-02 1.999920234084129333e-02 1.442352030426263809e-02 4.365246370434761047e-02 -4.867307096719741821e-02 5.556261632591485977e-03 5.203048884868621826e-02 5.242887139320373535e-02 5.102751031517982483e-02 -4.122025892138481140e-02 -2.481236495077610016e-02 -2.302856743335723877e-02 2.028012089431285858e-02 -1.576692610979080200e-02 -4.467974230647087097e-02 -1.576380804181098938e-02 2.822967432439327240e-02 -5.466389283537864685e-02 3.244543820619583130e-02 -1.268712058663368225e-02 5.259220674633979797e-02 4.318260774016380310e-02 -5.723407492041587830e-02 5.933032184839248657e-02 4.108700156211853027e-02 -1.414633728563785553e-02 -6.008857116103172302e-02 -3.591227903962135315e-02 1.978802960366010666e-03 1.211364567279815674e-02 -1.799891330301761627e-02 -3.409481421113014221e-02 -8.613872341811656952e-03 4.719329625368118286e-02 -3.551251487806439400e-03 3.868959471583366394e-02 -9.098788723349571228e-03 -2.397782355546951294e-02 -1.861476339399814606e-02 -4.002592712640762329e-02 -5.849349126219749451e-02 5.503853410482406616e-02 2.161863632500171661e-02 -6.040052324533462524e-02 5.054106935858726501e-03 -5.448615923523902893e-02 -5.531436763703823090e-03 -6.588064879179000854e-02 1.114058401435613632e-02 -6.802140176296234131e-02 -6.514328718185424805e-02 -3.583443909883499146e-02 -4.700591042637825012e-02 -6.104613095521926880e-02 -3.868031501770019531e-02 -4.304822906851768494e-02 5.835375562310218811e-02 -3.591611282899975777e-03 -3.661871701478958130e-02 -3.956565260887145996e-02 -6.733072549104690552e-02 -6.142400950193405151e-02 -1.911175996065139771e-02 -3.881090134382247925e-02 -5.399491265416145325e-02 2.861029282212257385e-02 5.272082053124904633e-03 -2.445344254374504089e-02 -4.030999913811683655e-02 -6.817144155502319336e-02 9.161789901554584503e-03 9.846988134086132050e-03 4.045553877949714661e-02 4.148871824145317078e-02 -1.403683144599199295e-02 3.864276222884654999e-04 6.831697374582290649e-02 -4.862659052014350891e-02 2.139556221663951874e-02 -6.499239802360534668e-02 -3.336716443300247192e-02 4.787120223045349121e-02 -4.611244890838861465e-03 6.326967477798461914e-02 3.401890769600868225e-02 3.249284625053405762e-02 -6.165903806686401367e-02 3.685269877314567566e-02 5.649338662624359131e-02 -4.905221611261367798e-02 -4.076806828379631042e-02 -5.096607841551303864e-03 -7.042548805475234985e-02 -9.486337192356586456e-03 3.192425891757011414e-02 3.086373396217823029e-02 -5.374814197421073914e-02 4.629894718527793884e-02 1.047096331603825092e-03 -6.282392889261245728e-03
-6.918714195489883423e-02 -5.913371569477021694e-04 -2.126217633485794067e-02 -4.317005723714828491e-02 -1.250584702938795090e-02 3.820548951625823975e-02 1.766450330615043640e-02 -5.361125618219375610e-02 2.438300661742687225e-02 -1.748335664160549641e-03 2.612451463937759399e-02 -1.886530965566635132e-02 3.475486487150192261e-02 3.426393866539001465e-02 -1.629279181361198425e-02 -6.086549907922744751e-02 4.627617076039314270e-02 -6.618980318307876587e-02 -3.793489560484886169e-02 2.863411419093608856e-02 -6.648565828800201416e-02 2.830227650701999664e-02 -3.818504628725349903e-04 1.616584631847217679e-04 4.058229178190231323e-02 -5.308081582188606262e-02 5.837709829211235046e-02 6.225612387061119080e-02 -4.595393314957618713e-02 -3.336048126220703125e-02 -3.304304555058479309e-03 -4.868200793862342834e-02 -2.712604217231273651e-02 -5.137506499886512756e-02 -8.835362270474433899e-03 4.298495873808860779e-02 6.171097233891487122e-02 1.707893237471580505e-02 -4.306278657168149948e-03 -7.671603467315435410e-03 6.586081534624099731e-02 3.209790214896202087e-02 3.496140986680984497e-02 3.681698441505432129e-02 -6.785786151885986328e-02 1.359307579696178436e-02 6.034483388066291809e-02 6.480636447668075562e-02 3.155454620718955994e-02 5.167835857719182968e-03 -5.424029752612113953e-02 -1.490650605410337448e-02 -6.568688154220581055e-02 1.644111610949039459e-02 5.162739753723144531e-02 2.545353583991527557e-02 3.360431641340255737e-02 -9.605520404875278473e-03 -4.453708976507186890e-02 5.563797429203987122e-02 -5.728948861360549927e-02 -2.350494451820850372e-02 6.100888922810554504e-02 5.848330631852149963e-02 3.477631881833076477e-02 -4.006949067115783691e-02 -1.409269310534000397e-02 5.234979465603828430e-02 6.469318270683288574e-02 -3.938559070229530334e-02 3.783975541591644287e-02 5.727696418762207031e-02 9.224968031048774719e-03 2.796021988615393639e-03 -5.530341062694787979e-03 -4.766519740223884583e-02 3.610749170184135437e-02 1.189867127686738968e-02 -3.025646554306149483e-03 2.592409029603004456e-02 -1.740889064967632294e-02 -1.020800974220037460e-02 5.838311463594436646e-02 6.386029720306396484e-02 3.360537067055702209e-02 2.447324339300394058e-03 5.040955543518066406e-02 -4.042642563581466675e-02 -7.587883155792951584e-03 2.974715456366539001e-02 4.872363805770874023e-02 6.009938567876815796e-02 -2.193240262567996979e-02 -3.152426704764366150e-02 -6.413012742996215820e-02 -4.988491907715797424e-02 7.008451223373413086e-02 -1.651903614401817322e-02 -5.923823919147253036e-03 7.011918723583221436e-02 -4.945802316069602966e-02 4.269571974873542786e-02 -9.847409091889858246e-03 1.244976650923490524e-02 -6.503724306821823120e-02 2.922788076102733612e-02 -6.235403195023536682e-02 -4.091739282011985779e-02 -3.504321724176406860e-02 1.277976785786449909e-03 -4.996736720204353333e-02 -2.544510737061500549e-02 -6.544280052185058594e-02 -3.450628370046615601e-02 5.101823061704635620e-02 -3.047695197165012360e-02 -3.890084475278854370e-02 1.019678171724081039e-02 -1.172157004475593567e-02 6.648755073547363281e-02 -3.166325017809867859e-02 5.509179085493087769e-02 5.899696052074432373e-02 -4.397543519735336304e-02 5.111696664243936539e-03 -2.362898178398609161e-02 1.547558978199958801e-02 3.532706759870052338e-03 -5.321051552891731262e-02 2.491983119398355484e-03 4.276629909873008728e-02 7.788367103785276413e-03 6.010762974619865417e-02 4.029736388474702835e-03 -2.459133742377161980e-03 3.435296937823295593e-02 -7.918921299278736115e-03 3.421764448285102844e-02 -2.208642475306987762e-02 -6.002205610275268555e-02 3.501148149371147156e-02 5.076941475272178650e-02 -5.138255655765533447e-02 3.274051472544670105e-02 -5.842588469386100769e-02 2.684037946164608002e-02 2.359572798013687134e-02 4.997807368636131287e-02 3.470950946211814880e-02 -5.107242241501808167e-02 4.706601053476333618e-02 -4.859507456421852112e-02 -3.658289462327957153e-02 -3.717347979545593262e-02 1.381724607199430466e-02 5.025699362158775330e-02 2.056014351546764374e-02 -2.629502303898334503e-02 3.769654780626296997e-02 -5.794192105531692505e-02 -5.379505828022956848e-02 -3.160260245203971863e-02 -2.643537335097789764e-02 1.636561378836631775e-02 3.992065414786338806e-02 -3.744322806596755981e-02 -4.510710015892982483e-02 4.096647724509239197e-02 1.400645170360803604e-02 4.966073110699653625e-02 -2.169180288910865784e-02 -3.296702355146408081e-02 6.079254299402236938e-02 1.317426282912492752e-02 -2.158392407000064850e-02 -2.295681647956371307e-02 2.803804911673069000e-02 2.717993967235088348e-02 7.027977705001831055e-02 1.855703070759773254e-02 -1.571436971426010132e-02 1.369112636893987656e-02 6.492176651954650879e-02 5.683930218219757080e-02 -6.679762154817581177e-02 6.074492260813713074e-02 6.983131915330886841e-02 -4.596056789159774780e-02 -1.750572025775909424e-02 4.311091825366020203e-02 4.075817763805389404e-02 -4.016754031181335449e-02 -4.483837261795997620e-02 1.762075553415343165e-04 5.401524156332015991e-02 -5.947462469339370728e-02 -5.206542834639549255e-02 4.906210303306579590e-02 -4.767747968435287476e-02 1.893314905464649200e-02
2.676711976528167725e-02 -4.637003317475318909e-02 -1.563166081905364990e-02 2.906775567680597305e-03 -5.072439089417457581e-02 -4.987251013517379761e-02 -2.283352799713611603e-02 4.594622924923896790e-02 -4.918331652879714966e-02 6.172348931431770325e-02 -1.609739963896572590e-03 5.106012523174285889e-02 1.266365312039852142e-02 -4.927775822579860687e-03 6.999483704566955566e-02 1.832539960741996765e-02 -4.071138054132461548e-02 4.308142140507698059e-02 -6.123269721865653992e-02 3.157803788781166077e-02 -4.065561108291149139e-03 1.341020036488771439e-02 5.330526456236839294e-02 5.404752120375633240e-02 -5.813112854957580566e-02 -3.197260084562003613e-04 6.479759514331817627e-02 4.704755917191505432e-02 -2.578004077076911926e-02 -5.981740728020668030e-02 -3.992908447980880737e-02 1.503920182585716248e-02 -5.325230211019515991e-02 -5.517611280083656311e-02 4.667208343744277954e-02 1.975150592625141144e-02 -3.991198912262916565e-02 1.107596512883901596e-02 -3.617590665817260742e-02 -3.233484551310539246e-02 1.995309442281723022e-02 -3.284594416618347168e-02 7.053737342357635498e-02 3.440675092861056328e-03 -3.470205515623092651e-02 -1.402920298278331757e-02 -5.365470051765441895e-02 4.950498417019844055e-02 2.993252361193299294e-03 -4.677173495292663574e-02 -4.206963628530502319e-02 -3.919285535812377930e-02 -5.771782621741294861e-02 -3.006687946617603302e-02 -6.639572232961654663e-02 5.950884893536567688e-02 -1.965834386646747589e-02 6.026161834597587585e-02 -1.949197426438331604e-02 -5.174993351101875305e-02 5.334176868200302124e-02 5.973363667726516724e-02 6.230442598462104797e-02 4.430380836129188538e-02 -5.846112966537475586e-02 -2.395503968000411987e-02 2.135578356683254242e-02 -3.726998716592788696e-02 1.723791100084781647e-02 -4.470627009868621826e-02 -2.454148791730403900e-02 -5.648170411586761475e-02 3.116721659898757935e-02 -8.547061122953891754e-03 -3.262000158429145813e-02 -6.274469941854476929e-02 -3.704298660159111023e-02 6.351114809513092041e-02 5.125172436237335205e-02 3.407918289303779602e-02 2.194204740226268768e-02 6.943162530660629272e-03 4.642590135335922241e-02 -4.284796491265296936e-02 -6.482074409723281860e-02 5.151767283678054810e-02 1.424040086567401886e-02 -4.789965972304344177e-02 -3.084432147443294525e-02 6.976942718029022217e-02 3.730577230453491211e-02 1.104338560253381729e-02 5.659420043230056763e-02 -1.165444700745865703e-04 -7.366974372416734695e-03 -6.157592311501502991e-02 2.761846035718917847e-02 3.312219865620136261e-03 -4.168057069182395935e-02 -2.800283953547477722e-02 2.922842837870121002e-02 4.451218247413635254e-02 -5.475000664591789246e-02 -4.022720456123352051e-02 5.588882416486740112e-02 3.610223531723022461e-02 -4.244816675782203674e-02 3.370446711778640747e-02 -4.226790368556976318e-02 2.449475415050983429e-02 7.006998360157012939e-02 5.269112437963485718e-02 1.956494711339473724e-02 -6.606980413198471069e-02 -3.813672810792922974e-02 2.068848162889480591e-02 -6.598939001560211182e-02 1.484659034758806229e-02 2.946594171226024628e-02 -3.385337069630622864e-02 2.275845594704151154e-02 -6.845765560865402222e-02 -9.149322286248207092e-03 2.840225584805011749e-03 -4.918373748660087585e-02 -3.244684636592864990e-02 3.659794107079505920e-02 4.409138113260269165e-02 6.471955776214599609e-02 -8.552852086722850800e-03 -2.461982145905494690e-02 4.153190925717353821e-02 -6.016993895173072815e-02 -5.416460335254669189e-04 -6.597574055194854736e-02 -5.867251381278038025e-02 5.211465805768966675e-02 1.888355053961277008e-02 -3.864880651235580444e-02 -6.565273739397525787e-03 4.713803902268409729e-02 1.377527660224586725e-04 -1.479263417422771454e-02 5.561005324125289917e-02 -2.471079118549823761e-02 -6.130390986800193787e-02 4.095373302698135376e-02 2.339173853397369385e-02 -2.097668126225471497e-02 1.740782987326383591e-03 1.960666477680206299e-02 -4.576249420642852783e-02 -4.801242798566818237e-02 -6.061901524662971497e-02 5.804589018225669861e-02 2.520082332193851471e-02 3.164496645331382751e-02 -6.640356779098510742e-02 -3.426561877131462097e-02 6.390152126550674438e-02 2.585577778518199921e-02 5.527902394533157349e-02 4.987969994544982910e-02 -9.287985973060131073e-03 -2.885732427239418030e-02 -2.446966059505939484e-02 9.835220873355865479e-03 5.543535575270652771e-02 -4.374379292130470276e-03 -4.953387752175331116e-02 -5.560180172324180603e-02 2.684311009943485260e-02 -1.021736580878496170e-02 -5.111189186573028564e-02 6.436099857091903687e-02 1.675041392445564270e-02 2.006426081061363220e-02 -5.408525839447975159e-02 -6.899496167898178101e-02 -1.778859272599220276e-02 -4.310403764247894287e-02 -4.478294029831886292e-02 -6.167647987604141235e-02 5.761418864130973816e-02 3.324845433235168457e-02 5.604208633303642273e-02 7.942236959934234619e-03 -1.304267998784780502e-02 5.776413902640342712e-02 -4.962421581149101257e-02 -5.536215379834175110e-02 -1.372831687331199646e-02 -6.903592497110366821e-02 -3.251382708549499512e-02 -4.469081759452819824e-02 -1.473689917474985123e-03 1.559439394623041153e-02 5.704215541481971741e-02 2.128807082772254944e-02 4.672012105584144592e-02
-5.625300481915473938e-02 6.777045200578868389e-04 5.572052299976348877e-02 2.770287171006202698e-02 5.125252529978752136e-02 -6.151858717203140259e-02 -6.883931905031204224e-02 -7.013767957687377930e-02 6.299238651990890503e-02 4.494599066674709320e-03 -5.648541823029518127e-02 4.750340431928634644e-02 -1.348938606679439545e-02 4.961689189076423645e-02 -4.724935069680213928e-02 -4.860578104853630066e-02 4.733619838953018188e-02 -4.709942638874053955e-02 -5.771591514348983765e-02 -3.529638517647981644e-03 -1.932947337627410889e-02 -7.737959269434213638e-03 1.920611783862113953e-02 1.425130013376474380e-02 1.913000829517841339e-02 5.430430173873901367e-02 -1.226159743964672089e-02 1.738857664167881012e-02 2.675725705921649933e-02 6.642858032137155533e-03 4.780263081192970276e-02 2.509204298257827759e-02 3.243969008326530457e-02 9.422409348189830780e-03 -6.981734186410903931e-02 -3.784138010814785957e-03 -3.199615329504013062e-02 -6.952971965074539185e-02 -7.022424787282943726e-02 -2.980845235288143158e-02 -1.518546789884567261e-02 -2.703133784234523773e-02 -5.306914821267127991e-02 -3.142136335372924805e-02 1.412697508931159973e-02 -5.254748836159706116e-02 6.426159292459487915e-02 3.340081498026847839e-02 -5.924431979656219482e-02 -4.056834056973457336e-02 5.946606025099754333e-02 -1.438100263476371765e-02 6.224968284368515015e-02 -6.383392214775085449e-02 6.385934352874755859e-02 2.144240401685237885e-02 -7.124579511582851410e-03 -3.819232806563377380e-02 -3.741928935050964355e-02 -5.185043811798095703e-02 -2.722691558301448822e-02 3.764364495873451233e-02 -1.444041263312101364e-02 1.129796076565980911e-02 -1.378854457288980484e-02 1.369760837405920029e-02 -5.534147098660469055e-02 1.498501747846603394e-02 -5.760589148849248886e-03 1.334681175649166107e-02 4.376271739602088928e-02 -4.972514882683753967e-02 4.294121637940406799e-02 8.887657895684242249e-03 2.238825522363185883e-02 3.934997692704200745e-02 6.172954291105270386e-02 1.915329881012439728e-02 -4.270360246300697327e-02 4.979142174124717712e-02 6.443106383085250854e-02 3.858101740479469299e-02 -2.784165367484092712e-02 6.439298391342163086e-02 5.382585898041725159e-02 3.565379977226257324e-02 2.129871770739555359e-02 -8.335804159287363291e-05 3.695091232657432556e-02 -6.215948238968849182e-02 6.438881158828735352e-02 -5.515304952859878540e-02 5.031222850084304810e-02 1.219471078366041183e-02 -5.605300888419151306e-02 3.457139059901237488e-02 6.547677516937255859e-02 -4.326864704489707947e-02 5.161847174167633057e-02 -4.138883948326110840e-02 5.643897503614425659e-02 -4.187444597482681274e-02 2.654605917632579803e-02 -2.796917222440242767e-02 3.556758537888526917e-02 -5.573757365345954895e-02 1.454546814784407616e-03 5.049791187047958374e-03 1.774124428629875183e-02 -2.814566716551780701e-03 5.814447253942489624e-02 4.084327444434165955e-02 5.992526933550834656e-02 -6.149452179670333862e-02 -5.314191803336143494e-02 -5.571664497256278992e-02 -1.741280313581228256e-03 5.678978562355041504e-02 -6.012604758143424988e-02 6.989734712988138199e-03 -4.905186221003532410e-02 6.931518763303756714e-02 2.070579491555690765e-02 2.534055709838867188e-02 -4.198694601655006409e-02 -3.070571646094322205e-02 3.426783485338091850e-03 2.150212600827217102e-02 -3.891405090689659119e-02 3.216318041086196899e-02 -6.580617278814315796e-02 7.893068715929985046e-03 5.951054394245147705e-02 -2.945302054286003113e-02 2.054223977029323578e-02 -1.252478826791048050e-02 -3.798827156424522400e-02 -5.641242116689682007e-02 1.410657633095979691e-02 2.173287235200405121e-02 6.584952026605606079e-02 5.762260779738426208e-02 -3.982465341687202454e-02 -1.108965370804071426e-02 -2.648290619254112244e-02 -1.545121241360902786e-02 -3.317141905426979065e-02 3.759056702256202698e-02 2.418034709990024567e-02 -6.074329838156700134e-02 -6.472070235759019852e-04 -5.736009404063224792e-02 -5.206881090998649597e-02 -2.703112736344337463e-02 6.286374479532241821e-02 -5.567573476582765579e-03 -2.732071839272975922e-02 -5.805065110325813293e-02 -4.766019061207771301e-02 6.239108741283416748e-02 3.431491926312446594e-02 -5.427106469869613647e-02 -2.823355048894882202e-02 -2.982080169022083282e-02 5.741206929087638855e-02 6.384422630071640015e-02 5.607916507869958878e-03 -5.220736190676689148e-02 4.623243957757949829e-02 5.450818222016096115e-03 -4.263499379158020020e-02 -1.589087955653667450e-02 -3.774944320321083069e-02 5.793657619506120682e-03 -5.347314104437828064e-02 2.331673400476574898e-03 1.106106955558061600e-02 -3.175343619659543037e-03 4.719212278723716736e-02 -2.681878209114074707e-02 6.378944963216781616e-02 -2.154112793505191803e-02 -4.206864163279533386e-02 5.368690192699432373e-02 2.738828770816326141e-03 -2.827538549900054932e-02 -4.967512190341949463e-02 -6.644091755151748657e-02 -4.687812924385070801e-02 -3.615455329418182373e-02 -6.962814927101135254e-02 -5.945831537246704102e-02 -3.173900768160820007e-02 -1.164382603019475937e-02 2.995017543435096741e-02 1.396020036190748215e-02 -3.605109080672264099e-02 5.281792581081390381e-02 -3.722733631730079651e-02 5.190746113657951355e-02
-2.289281971752643585e-02 -6.602198630571365356e-02 5.241882055997848511e-02 -2.708753570914268494e-02 -8.723470964469015598e-04 4.629195854067802429e-02 2.607130073010921478e-02 5.331963673233985901e-02 6.510648876428604126e-02 5.513793602585792542e-02 -4.522797837853431702e-02 -5.589937791228294373e-02 6.840779632329940796e-02 -5.734890699386596680e-02 -4.566737636923789978e-02 4.371086135506629944e-02 3.792285174131393433e-02 -5.402415990829467773e-02 -4.358801245689392090e-02 -4.246896132826805115e-02 -3.279203549027442932e-02 4.383951053023338318e-02 5.111165344715118408e-03 -1.529605314135551453e-02 -5.826213583350181580e-02 -1.043578796088695526e-02 5.715972743928432465e-03 5.202998220920562744e-02 4.840945824980735779e-02 -4.495254904031753540e-02 4.214845225214958191e-02 -6.187570746988058090e-03 -3.930846229195594788e-02 -5.452141910791397095e-02 1.913880929350852966e-02 3.710082545876502991e-02 -4.943714290857315063e-02 2.226152829825878143e-02 1.788257993757724762e-02 1.186566986143589020e-02 3.721094923093914986e-03 -1.130468677729368210e-02 -5.677075311541557312e-02 -4.617136716842651367e-02 1.461788453161716461e-02 -3.334804624319076538e-02 -6.530182436108589172e-03 -5.274661350995302200e-03 -5.807101726531982422e-02 -6.935044378042221069e-02 6.715223938226699829e-02 2.382376044988632202e-02 5.408163368701934814e-02 -3.773061186075210571e-02 -3.853521868586540222e-02 4.591272026300430298e-02 4.586521536111831665e-02 -2.906852215528488159e-02 -1.257594558410346508e-03 4.022668302059173584e-02 5.001598596572875977e-02 1.009391737170517445e-03 4.577023163437843323e-02 6.396743655204772949e-02 1.199885457754135132e-02 -4.205286502838134766e-03 4.542997106909751892e-02 -6.676936149597167969e-02 -2.217959426343441010e-02 -2.221246995031833649e-02 -1.036658231168985367e-02 -3.928879648447036743e-02 6.623781472444534302e-02 9.890146553516387939e-03 -3.450993448495864868e-02 6.790624558925628662e-02 -5.340772867202758789e-02 5.186621844768524170e-02 -2.769798273220658302e-03 -5.382372811436653137e-02 -4.976143687963485718e-02 -2.270285598933696747e-02 1.812669448554515839e-02 -3.430389612913131714e-02 7.061445713043212891e-02 1.402259431779384613e-02 3.174981102347373962e-02 -2.007796801626682281e-02 2.270087599754333496e-02 5.555164813995361328e-02 2.496781013906002045e-02 5.055656284093856812e-02 6.419810652732849121e-02 -9.486497379839420319e-03 4.452222213149070740e-02 2.363622374832630157e-02 -4.565388895571231842e-03 4.044682532548904419e-02 1.086723618209362030e-02 6.161640211939811707e-02 4.483818635344505310e-02 8.514742366969585419e-03 -2.107423357665538788e-02 -4.277357459068298340e-02 2.624234929680824280e-02 -1.308601535856723785e-02 1.609304174780845642e-02 -2.788258716464042664e-03 -4.122565686702728271e-02 -8.313466096296906471e-04 -4.348303377628326416e-02 6.638047844171524048e-02 1.115483790636062622e-02 4.387224093079566956e-02 -8.660874329507350922e-03 2.200885862112045288e-02 5.979087203741073608e-02 -1.559675391763448715e-02 6.595911085605621338e-02 -2.546758763492107391e-02 8.827640675008296967e-03 -6.260109692811965942e-02 3.087813965976238251e-02 3.362507745623588562e-02 -1.818821206688880920e-02 -2.668081084266304970e-03 -6.197870522737503052e-02 1.590410619974136353e-02 1.593343168497085571e-02 5.926489457488059998e-02 -6.415174156427383423e-02 4.390772804617881775e-02 3.425190225243568420e-03 6.573113054037094116e-02 -3.427051380276679993e-02 3.565845265984535217e-02 -4.590544849634170532e-02 6.349983811378479004e-02 -5.742325633764266968e-02 -2.526454254984855652e-02 -5.926749203354120255e-03 4.765183478593826294e-02 5.345314741134643555e-02 -5.287335813045501709e-02 -2.626110427081584930e-02 -6.752893328666687012e-02 4.719053208827972412e-02 6.914495676755905151e-02 2.141896262764930725e-02 3.529110178351402283e-02 2.863546460866928101e-02 -4.549803212285041809e-02 -1.576073840260505676e-02 -4.510294646024703979e-03 2.660519909113645554e-03 3.994372487068176270e-02 -5.206145718693733215e-02 1.780684292316436768e-02 5.351101607084274292e-02 -6.066592410206794739e-03 -2.606997638940811157e-02 -2.635393664240837097e-02 1.493961736559867859e-02 5.051786452531814575e-02 -1.193795166909694672e-02 4.989520460367202759e-02 -5.716405808925628662e-02 -6.733894813805818558e-03 4.069538787007331848e-02 3.401237353682518005e-02 -1.879617199301719666e-02 5.700445617549121380e-04 -5.478579923510551453e-02 -3.688001073896884918e-03 -4.137054085731506348e-02 3.690959140658378601e-02 -2.675124630331993103e-02 -4.797519370913505554e-02 5.263871978968381882e-03 5.764062330126762390e-02 3.084239922463893890e-02 -4.637106135487556458e-02 3.129280731081962585e-02 -6.306558847427368164e-02 -1.604421809315681458e-02 2.365583926439285278e-02 3.344891220331192017e-02 2.142681740224361420e-02 6.754726171493530273e-02 -4.093938693404197693e-02 6.129294261336326599e-02 5.542239174246788025e-02 -3.528155013918876648e-02 3.823713213205337524e-02 -4.220004007220268250e-02 3.216950967907905579e-02 -2.317421883344650269e-02 -6.667859107255935669e-02 -1.960142143070697784e-02 -1.638986542820930481e-02
-2.200749143958091736e-02 -6.084658205509185791e-02 3.617839142680168152e-02 3.406328707933425903e-02 -2.139452472329139709e-02 1.905444823205471039e-02 5.779741704463958740e-02 4.599237814545631409e-02 -5.790957808494567871e-02 -2.907302416861057281e-02 -5.675617977976799011e-02 -7.770218420773744583e-03 -4.739137738943099976e-02 -1.030855439603328705e-02 -1.941046305000782013e-02 -7.591119967401027679e-03 6.379263848066329956e-02 -6.854434963315725327e-03 -5.982630699872970581e-02 -6.279975920915603638e-02 6.943607330322265625e-02 -4.617785289883613586e-02 -2.911885455250740051e-02 -5.755904316902160645e-02 -5.319680273532867432e-02 -3.561625629663467407e-02 -1.996922865509986877e-02 -5.971772223711013794e-02 -5.078939720988273621e-03 -5.672644078731536865e-02 -3.074940666556358337e-02 -4.391600843518972397e-03 -2.090736670652404428e-04 6.555956602096557617e-02 -4.478217661380767822e-02 -6.484410911798477173e-02 -2.551674842834472656e-02 9.250643663108348846e-03 -5.762486159801483154e-02 2.146609872579574585e-02 -1.652483642101287842e-02 -6.680438667535781860e-02 6.012352555990219116e-02 -3.452026098966598511e-02 6.262613832950592041e-02 1.574294408783316612e-03 3.403460234403610229e-02 5.396584793925285339e-02 -8.443548344075679779e-03 -3.822177276015281677e-02 2.854495681822299957e-02 -5.496216565370559692e-02 -2.830197289586067200e-02 -3.842461854219436646e-02 8.490314357914030552e-04 -3.907195851206779480e-02 2.709722146391868591e-03 2.032694593071937561e-02 1.041437685489654541e-02 2.192912437021732330e-02 6.436040997505187988e-02 3.199955075979232788e-02 -4.760922491550445557e-02 3.781647235155105591e-02 2.453510649502277374e-02 3.284889459609985352e-02 -2.074959501624107361e-02 -4.015834629535675049e-02 5.063329637050628662e-02 -5.507072806358337402e-02 -3.566125780344009399e-02 1.707895658910274506e-02 9.654916357249021530e-04 -2.389422990381717682e-02 -6.870676577091217041e-02 -2.441621012985706329e-02 -3.362532332539558411e-02 6.100076436996459961e-02 -3.523856773972511292e-02 7.035467028617858887e-02 -2.190040610730648041e-02 5.204122886061668396e-02 3.033747198060154915e-03 -6.633380055427551270e-02 -4.781399294734001160e-02 4.426861554384231567e-02 6.128726154565811157e-02 -5.092505365610122681e-02 -3.631246276199817657e-03 3.107435815036296844e-02 2.896681427955627441e-02 -2.541338838636875153e-02 2.298588166013360023e-03 3.010710515081882477e-02 5.471387133002281189e-02 -4.948066547513008118e-02 -4.731146618723869324e-02 6.423640996217727661e-02 1.652070507407188416e-02 4.189818352460861206e-02 -4.725521802902221680e-02 -3.258685022592544556e-02 -4.106084257364273071e-02 3.099820762872695923e-02 -4.277691990137100220e-02 2.164835110306739807e-02 -7.038404047489166260e-02 -1.192367263138294220e-02 1.028888858854770660e-03 -2.059598639607429504e-02 2.145585790276527405e-02 5.193078517913818359e-02 4.678300465457141399e-04 3.926124051213264465e-02 -4.969891533255577087e-02 -3.877731785178184509e-02 -3.032157383859157562e-02 -3.371850028634071350e-02 3.887035418301820755e-04 1.646784506738185883e-02 5.076206102967262268e-02 -1.259727217257022858e-02 -1.572490483522415161e-02 4.280440136790275574e-02 6.267899274826049805e-02 -9.903464466333389282e-03 -1.773208193480968475e-02 2.658104151487350464e-02 2.904835902154445648e-02 9.897446259856224060e-03 -6.566932052373886108e-02 6.853729486465454102e-02 -4.997912794351577759e-02 -6.446002423763275146e-02 -2.435490302741527557e-02 -2.853971533477306366e-02 -6.748545914888381958e-02 4.877430945634841919e-02 -5.166343227028846741e-02 -3.358608484268188477e-02 -2.517884969711303711e-02 -6.679139286279678345e-02 3.621135279536247253e-02 -5.563072394579648972e-03 1.304268022067844868e-03 5.083211138844490051e-02 1.915618963539600372e-02 6.547191739082336426e-02 -1.119233202189207077e-02 -2.073630876839160919e-02 8.618963882327079773e-03 5.813348572701215744e-03 -5.715967714786529541e-02 -4.462494328618049622e-02 1.356015913188457489e-02 4.710644856095314026e-02 -1.072166115045547485e-02 -6.930343061685562134e-02 7.323875091969966888e-03 -6.770516186952590942e-02 -4.630397260189056396e-02 3.912466019392013550e-02 -5.354433506727218628e-02 1.125344540923833847e-02 -4.639331251382827759e-03 -5.506176501512527466e-02 4.873159527778625488e-02 4.958728700876235962e-02 5.056065320968627930e-02 5.177204310894012451e-02 1.016540732234716415e-02 2.051256038248538971e-02 3.225510194897651672e-02 6.112956255674362183e-02 -2.087713964283466339e-02 3.037321148440241814e-03 -1.874987781047821045e-02 1.200730912387371063e-02 -5.616261810064315796e-02 5.963688343763351440e-02 -3.471561893820762634e-02 1.916554756462574005e-02 -1.282247155904769897e-02 2.864156616851687431e-03 -4.749003425240516663e-02 -4.336641356348991394e-02 -5.981975793838500977e-02 4.624192416667938232e-02 -5.188275501132011414e-02 -3.077023429796099663e-03 -4.658894240856170654e-02 -1.658876426517963409e-02 4.790447279810905457e-02 3.964355587959289551e-02 -3.174671903252601624e-02 -6.181428954005241394e-02 1.028150506317615509e-02 -4.677777644246816635e-03 -5.388275906443595886e-02 -9.344032965600490570e-03
