8.438837714493274689e-03
8.948092162609100342e-02
5.650557950139045715e-02
-1.250208318233489990e-01
-1.343467738479375839e-02
5.905893445014953613e-02
6.229465827345848083e-02
6.586378067731857300e-02
-1.171890553086996078e-02
4.854911565780639648e-02
-6.806648336350917816e-03
-6.559311877936124802e-03
-4.659876972436904907e-02
6.776671856641769409e-02
1.588150858879089355e-02
6.375921517610549927e-02
3.124078735709190369e-02
-6.513707376143429428e-06
-1.311126165091991425e-02
9.089024364948272705e-02
5.068803951144218445e-02
-2.690011169761419296e-04
3.101117908954620361e-02
-3.156447410583496094e-02
-1.596439443528652191e-02
1.812034659087657928e-02
2.013518533203750849e-04
4.770329967141151428e-02
1.693675853312015533e-02
5.235440656542778015e-02
1.907777227461338043e-02
9.042984992265701294e-02
2.910625748336315155e-02
3.839574381709098816e-02
-2.048028632998466492e-02
-2.238577790558338165e-02
3.429146483540534973e-02
4.371311143040657043e-02
-3.613690659403800964e-02
4.485868662595748901e-02
9.334806352853775024e-02
3.478576894849538803e-03
1.188483554869890213e-02
4.428703337907791138e-03
4.803711548447608948e-03
8.838332444429397583e-02
2.772374451160430908e-02
2.477174252271652222e-02
6.345968693494796753e-02
-3.243644314352422953e-04
-1.025840640068054199e-02
9.733490645885467529e-03
3.002481162548065186e-02
2.634688653051853180e-02
8.679661899805068970e-02
1.114042997360229492e-01
3.589611873030662537e-02
2.389847673475742340e-02
5.421423539519309998e-02
6.636523455381393433e-02
4.747544974088668823e-02
-4.807657003402709961e-02
9.420446306467056274e-02
6.644683331251144409e-02
4.406238719820976257e-02
2.440255135297775269e-02
1.086096931248903275e-02
2.742584794759750366e-02
6.925331056118011475e-02
-3.291819011792540550e-04
7.876566052436828613e-02
-2.316747559234499931e-03
-1.544011291116476059e-02
4.348216578364372253e-02
-2.304308675229549408e-02
8.670487999916076660e-02
1.309016644954681396e-01
1.904560625553131104e-02
-9.665740653872489929e-03
1.382477879524230957e-01
2.245228551328182220e-02
-1.206699907779693604e-01
6.255161762237548828e-02
-8.782844990491867065e-03
-9.349805302917957306e-03
1.764021813869476318e-02
7.793758530169725418e-03
1.506857424974441528e-01
-4.389966838061809540e-03
8.274715393781661987e-02
1.275004260241985321e-02
7.999134249985218048e-03
1.962238363921642303e-02
2.867233008146286011e-02
-2.434755209833383560e-03
4.011660069227218628e-02
4.561457037925720215e-02
8.681384846568107605e-03
4.085703566670417786e-02
3.300919011235237122e-02
