-2.500832267105579376e-02
-1.034467443823814392e-01
1.121391728520393372e-01
-3.166221780702471733e-03
1.221388280391693115e-01
5.307677388191223145e-02
-2.847321145236492157e-02
-9.615823626518249512e-02
-9.044502675533294678e-02
6.197723560035228729e-03
1.128036156296730042e-01
8.792699314653873444e-03
3.812088072299957275e-02
6.848952919244766235e-02
3.082656301558017731e-03
3.672680631279945374e-02
6.280463188886642456e-02
2.127636782824993134e-02
2.911961264908313751e-02
-1.056524887681007385e-01
-5.920728668570518494e-02
-1.090020406991243362e-02
-1.416726317256689072e-02
1.136433556675910950e-01
-4.454848542809486389e-02
-1.675008796155452728e-02
-8.358561433851718903e-03
-4.085131362080574036e-02
1.200447008013725281e-01
2.703672274947166443e-02
-1.291710045188665390e-02
-1.195518746972084045e-01
-5.196580663323402405e-02
-9.027256071567535400e-02
1.115371063351631165e-01
1.985456794500350952e-02
8.174805343151092529e-02
-1.131865978240966797e-01
-2.220303751528263092e-02
5.492367222905158997e-02
8.504504710435867310e-02
8.716740459203720093e-02
-1.202536746859550476e-01
1.081047356128692627e-01
-9.572730958461761475e-02
-1.111896187067031860e-01
4.085607361048460007e-04
5.116945505142211914e-02
1.069012060761451721e-01
-1.079261451959609985e-01
-8.743337541818618774e-02
3.592932969331741333e-02
2.979558706283569336e-02
-6.584183871746063232e-02
-9.895158559083938599e-02
7.990093529224395752e-02
-1.081951931118965149e-01
-1.172123402357101440e-01
-1.226355209946632385e-01
9.573181718587875366e-02
-6.229414790868759155e-02
9.016909450292587280e-02
-5.493232235312461853e-02
-2.551815658807754517e-02
1.307143550366163254e-02
1.209797114133834839e-01
3.101691231131553650e-02
1.062018945813179016e-01
2.630728296935558319e-02
-8.825290133245289326e-04
-4.250162467360496521e-02
-3.473547101020812988e-02
-7.011377066373825073e-02
-3.244020044803619385e-02
2.944411337375640869e-02
2.569979615509510040e-02
-1.054679006338119507e-01
-1.080985069274902344e-01
-7.173329591751098633e-02
-1.026692986488342285e-02
-7.368832826614379883e-02
-2.269127406179904938e-02
-1.160636544227600098e-01
5.724612623453140259e-02
-1.120536252856254578e-01
6.798780709505081177e-02
4.308961704373359680e-02
-9.539519995450973511e-02
8.770103007555007935e-02
-7.148011773824691772e-02
-6.995368003845214844e-02
-9.701739251613616943e-02
3.441148251295089722e-02
-7.340844720602035522e-02
-5.330202728509902954e-02
4.969089850783348083e-02
3.897862881422042847e-02
6.279058754444122314e-02
-9.563682600855827332e-03
-7.508947700262069702e-02
1.753032393753528595e-02
4.257038235664367676e-02
-4.593136906623840332e-02
-5.176064744591712952e-02
-3.108646534383296967e-02
3.603582829236984253e-02
-3.863136097788810730e-02
-3.958636894822120667e-03
3.100145794451236725e-02
5.564740300178527832e-02
-1.214395314455032349e-01
7.325965911149978638e-02
-5.217966064810752869e-02
-7.310070842504501343e-02
1.100591197609901428e-01
1.221104860305786133e-01
7.684280723333358765e-02
6.229189783334732056e-02
1.094710677862167358e-01
-1.254209280014038086e-01
1.383797265589237213e-02
-5.261866748332977295e-02
4.533822461962699890e-02
-5.740433558821678162e-02
-8.113654702901840210e-02
1.085992529988288879e-01
1.194178238511085510e-01
-1.181868836283683777e-02
-4.960451275110244751e-02
-4.687033966183662415e-02
-1.461087819188833237e-02
-1.211433671414852142e-02
-1.194453090429306030e-01
-6.417928636074066162e-02
-5.855552479624748230e-02
-3.515247255563735962e-03
-3.776665776968002319e-02
8.300009369850158691e-02
1.191476359963417053e-01
8.323323726654052734e-02
-7.579310238361358643e-02
-6.138269230723381042e-02
1.982167549431324005e-02
-6.815438158810138702e-03
-8.238112181425094604e-02
-8.810345083475112915e-02
3.083127923309803009e-02
-1.118348613381385803e-01
-6.169205531477928162e-02
-7.855410687625408173e-03
6.579778343439102173e-02
-8.969911932945251465e-02
-3.398539498448371887e-02
3.764577209949493408e-02
-2.829154208302497864e-02
1.091078817844390869e-01
-7.900974154472351074e-02
2.621930092573165894e-02
7.017707824707031250e-02
2.970978245139122009e-02
-6.084199622273445129e-02
1.251672953367233276e-01
-8.678550273180007935e-02
8.578648790717124939e-03
4.584494978189468384e-02
6.959049496799707413e-03
-1.929204724729061127e-02
1.247444078326225281e-01
9.635830670595169067e-02
7.007440179586410522e-02
1.082073748111724854e-01
4.577413573861122131e-02
1.128090620040893555e-01
3.618442639708518982e-02
7.432041689753532410e-03
-3.611060604453086853e-02
1.211225539445877075e-01
6.219445168972015381e-02
-1.048225089907646179e-01
-1.221865266561508179e-01
-5.758197978138923645e-02
-1.793634705245494843e-02
-1.082495674490928650e-01
4.306856170296669006e-02
2.191881835460662842e-02
3.845171630382537842e-02
-8.271572738885879517e-02
-2.849375829100608826e-02
1.147000864148139954e-02
7.948130369186401367e-02
3.003264591097831726e-02
-1.033017784357070923e-01
-3.221865370869636536e-02
6.421301513910293579e-02
-1.118176500312983990e-03
-8.363986015319824219e-02
-4.457186907529830933e-02
-7.262104749679565430e-02
-4.046602919697761536e-02
1.018480630591511726e-03
