-5.549067258834838867e-01
-8.614571392536163330e-02
5.765446275472640991e-02
4.536605998873710632e-02
3.156818076968193054e-02
-2.504444867372512817e-02
-6.856989860534667969e-02
7.356251776218414307e-02
-1.151553541421890259e-01
-9.172663092613220215e-02
-1.304721087217330933e-01
1.182316616177558899e-01
-3.065079217776656151e-03
-2.827144861221313477e-01
3.796713054180145264e-02
-1.480901800096035004e-02
-3.006162308156490326e-02
4.774983227252960205e-02
1.482298672199249268e-01
-1.118154153227806091e-01
3.204774484038352966e-02
-5.774244666099548340e-02
-6.809899955987930298e-02
8.326753973960876465e-02
-9.304726123809814453e-02
-2.987090125679969788e-02
-4.907118901610374451e-02
-1.112655475735664368e-01
-4.497902840375900269e-02
1.987320743501186371e-02
4.181338474154472351e-02
-3.613985329866409302e-02
-6.935672834515571594e-03
-8.498963713645935059e-02
9.838677011430263519e-03
8.323234505951404572e-03
-1.939207017421722412e-01
-3.009706549346446991e-02
1.490820292383432388e-02
-4.102956131100654602e-02
-4.306719172745943069e-03
-3.723060712218284607e-02
-3.916580602526664734e-02
-2.833703160285949707e-02
4.228777438402175903e-02
1.085573807358741760e-01
-3.408546745777130127e-02
-7.721927762031555176e-02
5.479471758008003235e-02
-8.740570046938955784e-04
-7.077843695878982544e-02
9.904515743255615234e-02
-1.053078472614288330e-01
5.237752199172973633e-02
-1.436249166727066040e-01
7.405766844749450684e-02
9.073912352323532104e-02
3.566980734467506409e-02
-7.477808743715286255e-02
-1.719939261674880981e-01
-7.564302533864974976e-02
7.462653517723083496e-02
2.365755150094628334e-03
4.286437630653381348e-01
2.926694788038730621e-02
1.490582153201103210e-02
-9.267123043537139893e-02
1.101236790418624878e-01
5.418382119387388229e-03
-4.732152074575424194e-02
-8.164156973361968994e-02
-9.808103740215301514e-02
-2.375082522630691528e-01
-2.345384098589420319e-03
1.072556301951408386e-01
1.367409992963075638e-02
4.030817747116088867e-02
-1.288147084414958954e-02
-5.000640079379081726e-02
2.122152596712112427e-02
6.650547683238983154e-02
-3.330027684569358826e-02
-8.225128799676895142e-02
2.656654268503189087e-02
-4.108916521072387695e-01
-3.452770784497261047e-02
1.822994090616703033e-02
-7.173310965299606323e-02
2.636362425982952118e-02
-2.125683985650539398e-02
-1.883024424314498901e-01
8.209328353404998779e-02
-2.547162771224975586e-01
7.992141763679683208e-04
1.988074555993080139e-02
-6.701073050498962402e-02
-1.126064285635948181e-01
-2.084964886307716370e-02
-3.495130687952041626e-02
-7.468500640243291855e-03
