-2.420018240809440613e-02 -6.248452886939048767e-02 1.214447095990180969e-01 1.198371686041355133e-02 -4.293318092823028564e-02 1.148377060890197754e-01 1.535322051495313644e-02 1.943166367709636688e-02 9.901556372642517090e-02 -1.175748649984598160e-02 7.509458065032958984e-02 4.811626672744750977e-02 9.874604642391204834e-02 -6.693455576896667480e-02 -1.094174683094024658e-01 4.804883152246475220e-02 2.424807846546173096e-02 -1.152129694819450378e-01 -1.132046207785606384e-01 2.880571596324443817e-02 -1.084844619035720825e-01 9.837026149034500122e-02 4.692802578210830688e-02 -2.911938726902008057e-02 -9.634926170110702515e-02 -7.262527197599411011e-02 -8.660896867513656616e-02 -8.523553609848022461e-02 -5.668614432215690613e-02 -3.178421780467033386e-02 -6.007250025868415833e-02 3.846156969666481018e-02 -1.078843474388122559e-01 5.096982419490814209e-02 1.054344419389963150e-02 1.109852939844131470e-01 1.774626597762107849e-02 3.151443228125572205e-02 1.150915697216987610e-01 -4.375094547867774963e-02 -9.248806536197662354e-02 9.347095340490341187e-02 -1.226951275020837784e-02 8.442706614732742310e-02 -6.614015996456146240e-02 -7.352615147829055786e-02 -2.487896569073200226e-02 8.845486491918563843e-02 1.121476143598556519e-01 5.570899695158004761e-02 -9.090541303157806396e-02 1.047252416610717773e-01 -7.617165334522724152e-03 -6.859435886144638062e-02 1.060521695762872696e-02 9.271111339330673218e-02 -7.177980616688728333e-03 5.957650020718574524e-02 -8.553927391767501831e-02 1.671697199344635010e-02 7.282695919275283813e-02 8.254870190285146236e-04 2.983104623854160309e-02
7.207057625055313110e-02 1.236794739961624146e-01 1.100672632455825806e-01 3.348131431266665459e-03 4.436432197690010071e-02 2.584950439631938934e-02 -9.979498386383056641e-02 -8.701650798320770264e-02 8.545085787773132324e-02 1.236215010285377502e-01 1.073887199163436890e-01 -4.637113958597183228e-02 -1.216025725007057190e-01 -4.877224937081336975e-02 7.421738468110561371e-03 4.030268266797065735e-02 1.003061607480049133e-01 -7.386329770088195801e-02 2.000445686280727386e-02 4.746231250464916229e-03 1.175970062613487244e-01 6.663512438535690308e-02 -4.373106360435485840e-02 1.147408038377761841e-01 -9.723575413227081299e-02 7.173399906605482101e-03 -9.291689097881317139e-02 -1.706078648567199707e-03 -9.601708501577377319e-02 -1.064085364341735840e-01 6.771954149007797241e-02 -6.902045011520385742e-02 5.575577914714813232e-02 8.483473956584930420e-02 4.116439819335937500e-02 -5.773738399147987366e-02 1.157482117414474487e-01 8.060275763273239136e-02 -1.163630038499832153e-01 3.669044375419616699e-02 1.227877959609031677e-01 -4.906843882054090500e-03 5.072151497006416321e-02 -6.855076551437377930e-02 5.383424088358879089e-02 4.052846506237983704e-02 9.934610128402709961e-02 5.964977666735649109e-02 -6.263212114572525024e-02 -5.024029314517974854e-02 -1.204096972942352295e-01 -1.156700700521469116e-01 -4.281540215015411377e-02 6.420736759901046753e-02 -7.227057963609695435e-02 4.306441545486450195e-02 7.288300991058349609e-02 -3.008991293609142303e-02 -2.900943346321582794e-02 5.836123973131179810e-02 -7.781607657670974731e-02 9.673131257295608521e-02 8.716513961553573608e-02
4.838303476572036743e-02 -1.297035720199346542e-02 1.957384869456291199e-02 -1.042887344956398010e-01 -1.022640863084234297e-04 -9.492477402091026306e-03 2.032580226659774780e-02 -5.100486427545547485e-02 -8.160172402858734131e-02 1.024976968765258789e-01 1.160940825939178467e-01 1.140717267990112305e-01 1.233850121498107910e-01 1.995828934013843536e-02 -7.334696501493453979e-02 3.070445731282234192e-03 -4.773612320423126221e-02 -1.897980272769927979e-02 -6.148560345172882080e-02 -1.700901612639427185e-02 4.122546315193176270e-02 -9.549351036548614502e-02 -1.255896836519241333e-01 2.588953077793121338e-02 1.148550957441329956e-01 -6.633902341127395630e-02 1.048281416296958923e-01 -1.142366304993629456e-01 -5.188290029764175415e-02 -7.978503406047821045e-02 -6.793381273746490479e-02 1.066627800464630127e-01 -2.325526438653469086e-02 7.619416713714599609e-02 -8.301418274641036987e-02 6.078663468360900879e-02 1.457337569445371628e-02 1.057883501052856445e-01 6.665641814470291138e-02 8.683041483163833618e-02 -4.314841702580451965e-02 6.599937379360198975e-02 -1.258047372102737427e-01 1.163963600993156433e-01 1.123056858777999878e-01 -8.767919242382049561e-02 -5.463717039674520493e-03 8.735075592994689941e-02 -1.377839245833456516e-03 3.031124733388423920e-02 -1.008444931358098984e-02 1.162941530346870422e-01 4.368557035923004150e-02 -1.234495937824249268e-01 4.414133355021476746e-02 -5.072283744812011719e-02 -9.582064300775527954e-02 1.028785109519958496e-02 1.136426329612731934e-01 8.025798201560974121e-02 6.260985136032104492e-02 1.057516559958457947e-01 -3.403626382350921631e-03
8.291622996330261230e-02 -7.334227859973907471e-02 6.047299504280090332e-02 -1.020661368966102600e-02 -1.120630130171775818e-01 -9.263116866350173950e-02 4.376309737563133240e-02 -1.219885349273681641e-01 -1.131148189306259155e-01 3.866310790181159973e-02 -8.873926103115081787e-02 -4.549127072095870972e-02 -1.159402206540107727e-01 -8.622505515813827515e-02 -1.971872150897979736e-02 -3.235179930925369263e-02 -1.236531585454940796e-01 -1.076890379190444946e-01 -6.146672368049621582e-02 2.026377432048320770e-02 3.233691304922103882e-02 4.091720096766948700e-03 -5.468112975358963013e-02 -1.119964048266410828e-01 1.880420185625553131e-02 -3.707727417349815369e-02 -1.023614108562469482e-01 -9.329182654619216919e-02 1.048481315374374390e-01 1.846647076308727264e-02 7.422426342964172363e-02 2.806334383785724640e-02 6.850932538509368896e-02 3.316097334027290344e-02 -6.757911294698715210e-02 -1.092385966330766678e-02 -7.560109347105026245e-02 1.247479915618896484e-01 8.751825243234634399e-02 7.391294836997985840e-02 1.128205806016921997e-01 9.484977275133132935e-02 1.484150998294353485e-02 3.911384195089340210e-02 -3.399410471320152283e-02 -8.309493958950042725e-02 -5.313241854310035706e-02 9.476575255393981934e-02 -1.479217200540006161e-03 1.057860325090587139e-03 -2.364165708422660828e-02 -7.949854433536529541e-02 -1.071710810065269470e-01 7.390870153903961182e-02 -7.344458252191543579e-02 3.522817045450210571e-02 5.949222669005393982e-02 -5.342922359704971313e-02 5.342431366443634033e-02 6.702623516321182251e-02 -1.149083822965621948e-01 -8.225329220294952393e-02 -5.739825591444969177e-02
-4.477438330650329590e-02 -3.066348657011985779e-02 -9.467424452304840088e-02 8.758715540170669556e-02 1.295910868793725967e-02 1.150579601526260376e-01 -4.635547474026679993e-02 9.693994373083114624e-02 3.508930280804634094e-02 3.358491510152816772e-02 -2.703352365642786026e-03 2.207991108298301697e-02 -1.232147812843322754e-01 -7.031924277544021606e-02 -1.189607977867126465e-01 6.992765516042709351e-02 -1.178929954767227173e-01 8.816442638635635376e-02 2.152398414909839630e-02 9.258459508419036865e-02 6.078229472041130066e-02 1.019840165972709656e-01 -7.781802862882614136e-02 3.531347727403044701e-03 -1.811568811535835266e-02 -1.226436421275138855e-01 1.158581823110580444e-01 4.411213845014572144e-02 -1.066172420978546143e-01 -7.396344095468521118e-02 -1.204574853181838989e-01 -8.233544975519180298e-02 -5.706708505749702454e-02 -2.874111942946910858e-02 -2.200745977461338043e-02 1.012287437915802002e-01 2.051236853003501892e-02 3.014447726309299469e-02 7.678866386413574219e-02 1.046468317508697510e-01 2.062506973743438721e-02 9.439703822135925293e-02 -7.710877805948257446e-02 -9.637995809316635132e-02 -2.263254858553409576e-02 -1.169070154428482056e-01 -3.852540254592895508e-02 5.054890364408493042e-02 4.478157963603734970e-03 3.366709873080253601e-02 -4.502365365624427795e-02 1.135497838258743286e-01 -3.321459144353866577e-02 -7.972207665443420410e-02 -6.452029198408126831e-02 -5.956466495990753174e-02 7.644742727279663086e-02 1.182751581072807312e-01 7.558592408895492554e-02 -8.803192526102066040e-02 -6.237475574016571045e-02 7.440471649169921875e-02 -4.266827553510665894e-02
7.732234150171279907e-02 -5.107314139604568481e-02 -3.586045280098915100e-02 8.254598081111907959e-02 -9.250085055828094482e-02 -8.356037549674510956e-03 -2.905313856899738312e-02 3.473179042339324951e-02 -1.933771930634975433e-02 6.248032301664352417e-02 3.066194057464599609e-02 -1.107450574636459351e-01 -1.819659397006034851e-02 3.765793517231941223e-02 -1.736900582909584045e-02 -1.957993023097515106e-02 9.913001954555511475e-02 -1.210495457053184509e-01 6.917771697044372559e-02 -1.144892796874046326e-01 -5.651000142097473145e-02 1.536992192268371582e-02 -4.477711766958236694e-02 -5.409561470150947571e-02 3.833153517916798592e-03 1.142735499888658524e-02 -3.633356466889381409e-02 8.127314038574695587e-03 -1.580942049622535706e-02 -7.500953227281570435e-02 9.035920351743698120e-02 -3.520771116018295288e-02 -1.223258115351200104e-02 -9.061266481876373291e-02 -3.349876403808593750e-02 -1.284114923328161240e-02 3.760663047432899475e-02 -8.762469142675399780e-02 -1.230650488287210464e-02 -1.444637589156627655e-02 7.709473371505737305e-02 6.576998531818389893e-02 -1.121008321642875671e-01 -4.959920793771743774e-02 -1.000363528728485107e-01 3.833550214767456055e-02 6.783135235309600830e-02 1.095164474099874496e-02 3.486081957817077637e-02 -8.207602798938751221e-02 5.589676275849342346e-02 -4.478854686021804810e-02 6.861274689435958862e-02 3.713842853903770447e-02 -7.939341664314270020e-02 -4.487179592251777649e-02 5.340426415205001831e-02 3.970146179199218750e-02 9.125342220067977905e-02 -7.007399946451187134e-02 8.628150075674057007e-02 9.174670279026031494e-02 -1.175357103347778320e-01
-4.344529658555984497e-02 4.204850271344184875e-02 1.227097287774085999e-01 -5.528631806373596191e-02 -2.063894830644130707e-02 -2.716904133558273315e-02 1.246442422270774841e-01 -6.317076086997985840e-02 1.178635433316230774e-01 -6.594236195087432861e-02 -2.772544743493199348e-03 -8.176553994417190552e-02 5.571930110454559326e-02 1.022069528698921204e-01 4.095470160245895386e-02 -4.933889955282211304e-02 9.203616529703140259e-02 -1.016208752989768982e-01 -7.780730724334716797e-02 -5.634212121367454529e-02 -3.313855081796646118e-02 -2.335770986974239349e-02 7.750646024942398071e-02 6.241683848202228546e-03 1.235376447439193726e-01 2.075047791004180908e-02 5.134846549481153488e-03 -5.300297215580940247e-02 2.982705133035778999e-03 5.474362149834632874e-02 2.012424729764461517e-02 -1.145590320229530334e-01 -3.997036069631576538e-02 -1.021424829959869385e-01 2.087238803505897522e-02 -5.226025357842445374e-02 4.729222133755683899e-02 8.953003585338592529e-02 -8.363404870033264160e-02 -5.124701559543609619e-02 5.695416033267974854e-02 -6.741199642419815063e-03 -2.817574702203273773e-02 -1.031131818890571594e-01 -6.246021389961242676e-02 -9.118422865867614746e-02 -7.048202306032180786e-02 1.055359691381454468e-01 6.126889586448669434e-02 -7.654219865798950195e-02 6.798735260963439941e-02 -6.455621123313903809e-02 -2.336350642144680023e-02 7.981890439987182617e-02 -9.798188693821430206e-03 5.796051770448684692e-02 5.817685276269912720e-02 2.212923392653465271e-02 -5.024231970310211182e-02 4.340223595499992371e-02 2.318269386887550354e-02 -6.923905108124017715e-03 -4.788461327552795410e-02
-8.677129447460174561e-02 -3.270373865962028503e-02 9.699228405952453613e-02 -1.185253113508224487e-01 -8.977330476045608521e-02 -3.890476375818252563e-02 -1.011060103774070740e-01 1.134425774216651917e-01 5.176757276058197021e-02 -5.845219269394874573e-02 9.595762821845710278e-04 -4.258104413747787476e-02 7.708089798688888550e-02 -1.039394363760948181e-01 1.117739900946617126e-01 -1.415047235786914825e-02 6.596592068672180176e-02 1.092014387249946594e-01 -1.254737824201583862e-01 4.825457558035850525e-02 1.017522290349006653e-01 9.553664363920688629e-03 -3.654750809073448181e-02 1.259248405694961548e-01 -1.036702692508697510e-01 -1.801656186580657959e-02 3.112381696701049805e-02 -5.978656932711601257e-03 -1.117045432329177856e-01 6.451049447059631348e-02 3.890198469161987305e-02 -2.443677745759487152e-02 -8.795645833015441895e-02 -8.437557518482208252e-02 3.744690492749214172e-02 -3.586800768971443176e-02 1.237324252724647522e-01 -1.220862567424774170e-01 9.542376548051834106e-02 1.032956093549728394e-01 1.170485094189643860e-01 8.307706564664840698e-02 1.121280267834663391e-01 1.099811717867851257e-01 8.379065245389938354e-02 -2.068681409582495689e-03 -7.156293094158172607e-02 -5.072830617427825928e-02 -5.380836129188537598e-02 9.276686608791351318e-02 9.111153334379196167e-02 2.901484072208404541e-02 -1.162133663892745972e-01 -6.580063700675964355e-02 1.072110906243324280e-01 2.752003446221351624e-02 -2.985141240060329437e-02 1.369260437786579132e-02 1.184734031558036804e-01 5.584521964192390442e-02 2.381499111652374268e-02 -3.911450505256652832e-02 -3.542607277631759644e-02
1.183032095432281494e-01 -7.636626809835433960e-02 -7.341808825731277466e-02 -3.230321034789085388e-02 -1.092500537633895874e-01 -8.518335968255996704e-02 7.448502350598573685e-03 -1.084787100553512573e-01 -1.702071540057659149e-02 -9.423407912254333496e-02 -7.057118415832519531e-02 8.630332350730895996e-02 3.281522169709205627e-02 -7.949931174516677856e-02 5.238078162074089050e-02 4.638512060046195984e-02 -7.560333237051963806e-03 -7.138509303331375122e-02 4.838279262185096741e-02 7.921256870031356812e-02 1.175058856606483459e-01 -9.855246543884277344e-02 5.368544906377792358e-02 1.257512718439102173e-01 4.590661823749542236e-02 -7.576376944780349731e-02 -3.102960437536239624e-02 1.115847006440162659e-01 7.591567188501358032e-02 -1.137409135699272156e-01 8.216729760169982910e-02 -1.246282905340194702e-01 6.561967730522155762e-02 -1.868996769189834595e-02 -3.720539808273315430e-02 1.161308512091636658e-01 -7.825651019811630249e-02 -2.157790213823318481e-02 -5.921191349625587463e-02 -2.829218842089176178e-02 1.140484139323234558e-01 -9.966791421175003052e-02 -8.795507252216339111e-03 -8.526104688644409180e-02 9.535047411918640137e-02 7.241845875978469849e-02 -6.114773824810981750e-02 1.194661408662796021e-01 -1.162738353013992310e-01 5.623024329543113708e-02 2.684472128748893738e-02 1.725676842033863068e-02 2.974922209978103638e-02 -5.584190040826797485e-02 -1.135766506195068359e-01 3.226650506258010864e-02 -9.161285310983657837e-02 -5.283158738166093826e-03 -1.798428595066070557e-02 -2.305507846176624298e-02 -1.238293871283531189e-01 -5.399000365287065506e-03 9.517385065555572510e-02
-2.357015199959278107e-02 -1.192769631743431091e-01 -2.786797843873500824e-02 -3.345238789916038513e-02 8.371124416589736938e-02 -5.494436621665954590e-02 9.253985434770584106e-02 4.772906377911567688e-02 -2.914489060640335083e-02 4.619505628943443298e-02 8.311159908771514893e-02 -1.169812232255935669e-01 1.076493635773658752e-01 6.851173937320709229e-02 1.154887154698371887e-01 -4.993988573551177979e-02 -4.888179898262023926e-02 -6.293857097625732422e-02 1.451580878347158432e-02 4.328205436468124390e-02 1.195734366774559021e-02 -1.051926165819168091e-01 6.310398876667022705e-02 4.637454822659492493e-02 -9.958136081695556641e-02 8.287642896175384521e-02 -1.105208396911621094e-01 -1.812232658267021179e-02 -5.551822483539581299e-02 5.640105530619621277e-02 4.380405321717262268e-02 5.184112116694450378e-02 -4.280288890004158020e-02 -2.931232191622257233e-02 -1.117813587188720703e-01 -1.170049831271171570e-01 4.428659752011299133e-02 1.026796773076057434e-01 -4.181667044758796692e-02 1.114598959684371948e-01 -1.252722591161727905e-01 -8.902742527425289154e-03 2.081400901079177856e-02 1.098150834441184998e-01 -7.761051505804061890e-02 1.176332011818885803e-01 -1.167065128684043884e-01 -3.685437515377998352e-02 -7.423699647188186646e-02 -1.549288164824247360e-02 -3.070327267050743103e-02 -1.041672937572002411e-02 -2.583610825240612030e-02 -4.552576690912246704e-02 4.975301772356033325e-02 1.162127330899238586e-01 8.784668147563934326e-02 5.942178890109062195e-02 1.567588746547698975e-02 2.101497724652290344e-03 -4.939781874418258667e-02 -6.515426933765411377e-02 -2.774782665073871613e-02
-1.610843348316848278e-03 8.016005903482437134e-02 -2.017400600016117096e-02 8.593273162841796875e-02 3.309842199087142944e-02 1.043580323457717896e-01 -5.581693723797798157e-02 2.483214996755123138e-02 -6.099164485931396484e-02 -3.188895806670188904e-02 -2.304636687040328979e-02 -5.753831937909126282e-02 8.040869235992431641e-02 1.859573833644390106e-02 9.864173829555511475e-02 1.140159443020820618e-01 3.096722997725009918e-02 -1.171163842082023621e-01 -7.027671090327203274e-04 -1.185088381171226501e-01 9.141206741333007812e-02 -2.357650548219680786e-02 -2.880786359310150146e-02 6.668892502784729004e-02 1.210526823997497559e-01 9.998241066932678223e-02 3.468244150280952454e-02 -1.116383261978626251e-02 -1.184841245412826538e-01 -1.123736519366502762e-02 -1.220216453075408936e-01 -8.937375247478485107e-02 5.454770103096961975e-02 -2.786546945571899414e-02 -2.190244756639003754e-02 -9.532722085714340210e-02 7.121533900499343872e-02 8.757515996694564819e-02 9.064331650733947754e-03 -5.895121395587921143e-02 5.378042906522750854e-02 5.124198272824287415e-03 -6.634962558746337891e-02 -3.899128735065460205e-02 -3.491832688450813293e-02 7.173551619052886963e-02 -1.139733493328094482e-01 -9.012265503406524658e-02 7.003239542245864868e-02 -1.146305352449417114e-01 -5.994673073291778564e-02 -4.120810329914093018e-02 1.096344888210296631e-01 -9.120337665081024170e-02 -6.966408807784318924e-03 2.821948193013668060e-02 -6.731404364109039307e-02 1.206001788377761841e-01 5.818634480237960815e-02 -1.037958711385726929e-01 7.470753043889999390e-02 1.187373623251914978e-01 3.319045528769493103e-02
-1.095349341630935669e-01 -1.121904142200946808e-02 6.208841875195503235e-02 8.034826070070266724e-02 -5.734656006097793579e-02 -3.726013004779815674e-02 3.055233135819435120e-02 1.152355130761861801e-02 -2.702310122549533844e-02 9.272681176662445068e-02 -1.986867003142833710e-02 8.340443670749664307e-02 -1.618243195116519928e-02 -8.651319891214370728e-02 1.045692861080169678e-01 1.152380630373954773e-01 1.252790987491607666e-01 -3.851358219981193542e-02 -5.171079933643341064e-02 1.144369691610336304e-01 -1.248364299535751343e-01 6.676205247640609741e-02 8.083257824182510376e-02 -7.605235278606414795e-02 -9.555394947528839111e-02 1.041596755385398865e-01 -1.244184672832489014e-01 2.154119685292243958e-02 -6.987266987562179565e-02 -2.185034751892089844e-02 -6.393190473318099976e-02 1.031933575868606567e-01 3.355223312973976135e-02 1.010855212807655334e-01 3.139516711235046387e-02 -7.460197806358337402e-02 1.097340807318687439e-01 8.281907439231872559e-02 9.428766556084156036e-03 7.118577510118484497e-02 4.570037871599197388e-02 -5.557774752378463745e-02 -8.394561707973480225e-02 5.366544239223003387e-03 -3.165087848901748657e-02 8.730980008840560913e-02 2.512698806822299957e-02 -4.770052805542945862e-02 1.538020931184291840e-02 4.363339394330978394e-02 -4.120966419577598572e-02 7.145977020263671875e-02 6.588710099458694458e-02 -5.310961976647377014e-02 9.873989224433898926e-02 1.080574393272399902e-01 -4.060581326484680176e-02 1.202326491475105286e-01 5.973573029041290283e-02 6.650881469249725342e-02 4.188778623938560486e-02 4.835958778858184814e-02 -6.837047636508941650e-02
-4.618735052645206451e-03 -9.549088031053543091e-02 2.262717299163341522e-02 5.945869162678718567e-02 -1.144556999206542969e-01 -5.276888608932495117e-02 1.239609420299530029e-01 -1.216862574219703674e-01 -4.365538060665130615e-02 -8.511997759342193604e-02 -9.352536499500274658e-02 6.450441479682922363e-02 3.816921263933181763e-02 4.521370306611061096e-02 -1.071644760668277740e-02 -8.245118707418441772e-02 9.462122619152069092e-02 6.164438277482986450e-02 -5.260112509131431580e-02 -2.205514535307884216e-02 9.521920233964920044e-02 -2.364948205649852753e-02 3.511357307434082031e-02 -3.090987354516983032e-02 -8.492071926593780518e-02 -9.300273656845092773e-02 -3.117760084569454193e-02 -1.039825454354286194e-01 5.551481619477272034e-02 4.844581335783004761e-02 1.001095101237297058e-01 7.360234111547470093e-02 1.172548159956932068e-02 -8.874561637639999390e-02 6.267441436648368835e-03 -1.187227815389633179e-01 1.054133698344230652e-01 1.093405857682228088e-01 4.019487649202346802e-02 -2.992527559399604797e-02 1.127457469701766968e-01 3.842382878065109253e-02 -9.816434979438781738e-02 7.315436005592346191e-02 4.626404121518135071e-02 -1.252342294901609421e-02 -3.292777389287948608e-02 8.847173303365707397e-03 1.098183840513229370e-01 -2.912291698157787323e-02 5.803949013352394104e-02 2.761358767747879028e-02 -6.219916790723800659e-02 -8.075933903455734253e-03 -6.711837649345397949e-02 -3.295832499861717224e-02 -1.215922385454177856e-01 -1.109391916543245316e-02 1.298091560602188110e-02 -2.292092889547348022e-02 -3.666943311691284180e-02 -1.183182746171951294e-01 -8.785518258810043335e-02
-1.944716274738311768e-02 -1.097449287772178650e-01 -5.457227304577827454e-02 8.092500269412994385e-02 1.569698937237262726e-02 1.180204600095748901e-01 2.523084357380867004e-02 1.119660064578056335e-01 8.877646178007125854e-03 -2.725194580852985382e-02 -9.760322421789169312e-02 1.152433529496192932e-01 4.118982329964637756e-02 4.071399569511413574e-03 -1.140192896127700806e-01 9.337178617715835571e-02 1.091666370630264282e-01 5.598922073841094971e-02 -5.383161082863807678e-02 -2.206740155816078186e-02 -3.500640019774436951e-02 1.037342939525842667e-02 -7.166165113449096680e-02 6.535802036523818970e-02 1.009013578295707703e-01 7.066531479358673096e-02 -6.982662528753280640e-02 -9.082712233066558838e-02 1.179791800677776337e-02 3.337876498699188232e-02 1.343477424234151840e-02 9.083368629217147827e-02 8.936272561550140381e-02 1.645606197416782379e-02 -4.119090735912322998e-02 9.052190929651260376e-02 5.880583077669143677e-02 9.473307430744171143e-02 1.200024262070655823e-01 -5.377042293548583984e-02 -5.021141096949577332e-02 -3.321906924247741699e-02 -1.169535443186759949e-01 5.441664531826972961e-02 -9.698192006908357143e-04 -8.708145469427108765e-02 -6.739149242639541626e-02 5.608935374766588211e-03 4.679596424102783203e-02 -8.702948689460754395e-02 4.368944466114044189e-02 1.242224201560020447e-01 -2.084418199956417084e-02 -3.255936130881309509e-02 1.247057169675827026e-01 2.384379738941788673e-03 -6.215337663888931274e-02 3.861967474222183228e-02 -2.431030198931694031e-02 1.121296659111976624e-01 3.941530361771583557e-03 5.428473278880119324e-02 6.514029949903488159e-02
-6.366574019193649292e-02 -9.874783456325531006e-02 4.742199927568435669e-02 -3.687998279929161072e-02 4.801914095878601074e-02 -2.665210328996181488e-02 8.271727710962295532e-02 9.367308020591735840e-02 -2.688904292881488800e-02 3.210201859474182129e-02 -7.393132150173187256e-02 -1.058796346187591553e-01 4.439700394868850708e-02 -4.130550101399421692e-02 5.295816808938980103e-02 -7.440958172082901001e-02 2.742320671677589417e-02 9.111661463975906372e-02 -1.092211976647377014e-01 -1.128722801804542542e-01 -6.194562092423439026e-02 5.547156184911727905e-02 -7.967913150787353516e-02 2.071250975131988525e-02 -1.125081926584243774e-01 1.396417710930109024e-02 -5.818080157041549683e-02 3.166517615318298340e-02 -4.357127472758293152e-02 -7.786168903112411499e-02 -2.911007590591907501e-02 9.091059863567352295e-02 9.888680279254913330e-02 7.593759894371032715e-02 -1.244006976485252380e-01 1.162038147449493408e-01 -1.118674352765083313e-01 8.093378692865371704e-02 1.233981847763061523e-01 -5.681011360138654709e-03 8.638056367635726929e-02 8.005752414464950562e-02 5.033558979630470276e-02 -5.248269811272621155e-02 -1.235023811459541321e-01 -1.201537717133760452e-02 5.993219092488288879e-02 1.262451615184545517e-02 3.735486790537834167e-02 4.004734754562377930e-02 6.569041311740875244e-02 1.861182413995265961e-02 -5.325588956475257874e-02 -5.072701349854469299e-02 1.023539602756500244e-01 -1.208788529038429260e-01 -1.318608969449996948e-02 -4.052868857979774475e-02 6.739760935306549072e-02 -3.195340558886528015e-02 -2.145650424063205719e-02 -6.064931675791740417e-02 1.743131875991821289e-02
-1.413225382566452026e-02 4.747207276523113251e-03 4.065480455756187439e-02 6.188919395208358765e-02 3.089446388185024261e-02 1.100460737943649292e-01 -9.628797322511672974e-02 6.775714457035064697e-02 1.038641631603240967e-01 -1.128360703587532043e-01 2.085136063396930695e-02 6.304341554641723633e-02 -7.290954887866973877e-02 -7.836217060685157776e-03 9.497661888599395752e-02 -3.363862261176109314e-02 9.379075467586517334e-02 -1.649967744015157223e-03 -3.156074881553649902e-02 -8.867128193378448486e-02 8.913816511631011963e-02 7.899276912212371826e-02 9.045436978340148926e-02 1.104385182261466980e-01 3.549086675047874451e-02 -4.943401739001274109e-02 -3.740748018026351929e-02 4.596221819519996643e-02 -2.875831723213195801e-02 -7.020990550518035889e-02 -6.175978854298591614e-02 -1.198121830821037292e-01 8.357177674770355225e-02 -1.123628094792366028e-01 7.367079704999923706e-02 -1.915596053004264832e-02 -1.336802914738655090e-02 1.134724691510200500e-01 9.599996358156204224e-02 4.806066863238811493e-04 -7.325821369886398315e-02 -1.611598767340183258e-02 1.092319563031196594e-01 -9.587212651968002319e-02 2.172971516847610474e-02 6.745883822441101074e-02 8.334533870220184326e-02 5.546321161091327667e-03 -5.025634914636611938e-02 1.171417310833930969e-01 -3.122753836214542389e-02 1.169381216168403625e-01 4.133789613842964172e-02 -9.274490922689437866e-02 -9.002523124217987061e-02 -5.238282494246959686e-03 -6.547951698303222656e-02 3.963782638311386108e-02 3.899920359253883362e-02 -1.222065165638923645e-01 -8.994992077350616455e-02 1.167688295245170593e-01 -3.295219503343105316e-03
8.289455622434616089e-02 -5.628740787506103516e-02 1.103435978293418884e-01 7.137437164783477783e-02 9.857672452926635742e-02 4.478241875767707825e-02 -9.823849797248840332e-02 1.149231791496276855e-01 -3.518414869904518127e-02 9.394053369760513306e-02 -6.499979645013809204e-02 5.555062368512153625e-02 9.855051338672637939e-02 -1.097609475255012512e-02 -6.869686394929885864e-02 3.470250591635704041e-02 3.317907080054283142e-02 8.768799155950546265e-02 -2.157979458570480347e-02 4.491619393229484558e-02 6.284217815846204758e-03 -9.639576077461242676e-02 -3.148185461759567261e-02 9.399053454399108887e-02 -1.153050810098648071e-01 2.262260764837265015e-03 1.028949618339538574e-01 -1.092075780034065247e-01 5.903543904423713684e-02 3.099319711327552795e-02 3.731529414653778076e-02 -9.622231870889663696e-02 -6.658802181482315063e-02 -3.078586014453321695e-04 -1.480385661125183105e-02 -7.676384877413511276e-03 -1.207996159791946411e-01 1.115784272551536560e-01 -6.229572743177413940e-02 1.754624396562576294e-02 -8.774834126234054565e-02 -5.689781974069774151e-04 3.038054518401622772e-02 -7.028955221176147461e-02 -2.269190363585948944e-02 6.357254832983016968e-02 3.981808200478553772e-02 -2.615476492792367935e-03 -1.179566606879234314e-01 1.044780761003494263e-01 1.231110319495201111e-01 9.928514063358306885e-02 -5.404611304402351379e-02 1.005817428231239319e-01 -1.090082898736000061e-01 -6.600851565599441528e-02 -5.477698147296905518e-02 1.111420840024948120e-01 1.182578951120376587e-01 -5.148199945688247681e-02 5.923638120293617249e-02 -1.196494325995445251e-02 -7.875407487154006958e-02
-1.181727275252342224e-01 4.006054997444152832e-02 1.159206181764602661e-01 1.029578130692243576e-02 -6.092834100127220154e-02 6.231854110956192017e-02 5.560056120157241821e-02 -6.629180908203125000e-02 1.233237013220787048e-01 -1.258468329906463623e-01 -9.110718220472335815e-02 2.708933502435684204e-02 1.174598336219787598e-01 1.016303971409797668e-01 -1.099215224385261536e-01 -8.113421499729156494e-03 -9.173129685223102570e-03 1.952404505573213100e-03 1.075794920325279236e-01 5.601503700017929077e-02 -7.819071412086486816e-02 -1.218061447143554688e-01 -1.201802194118499756e-01 1.078467592597007751e-01 7.134023308753967285e-02 1.123336553573608398e-01 9.235508739948272705e-02 2.696228958666324615e-02 6.449795514345169067e-02 -1.895635947585105896e-02 1.248191073536872864e-01 -1.508262380957603455e-02 -9.777460992336273193e-02 4.868329316377639771e-02 -8.567602187395095825e-02 -8.145978301763534546e-02 -6.287626922130584717e-02 -6.923510134220123291e-02 -7.449667900800704956e-02 -9.359989315271377563e-02 -1.191457882523536682e-01 -1.146302521228790283e-01 7.953495532274246216e-02 2.187571488320827484e-03 -5.126577243208885193e-02 -5.759512260556221008e-02 2.597345598042011261e-02 -1.132966727018356323e-01 -1.082126647233963013e-01 8.588549494743347168e-02 -7.495995610952377319e-02 -1.663426309823989868e-02 -4.459232464432716370e-02 -4.331931844353675842e-02 -6.587489694356918335e-02 -5.954782664775848389e-02 3.213921934366226196e-02 1.164172217249870300e-01 3.972188755869865417e-02 5.850171297788619995e-02 2.698217518627643585e-02 -6.771028786897659302e-02 -2.577193314209580421e-03
1.234135776758193970e-01 -7.062800228595733643e-03 9.853498637676239014e-02 4.591070115566253662e-03 -2.030642703175544739e-02 -7.563945651054382324e-02 -6.862274557352066040e-02 7.061749231070280075e-03 -1.204447150230407715e-01 -1.139370799064636230e-01 -1.829689182341098785e-02 -7.631448097527027130e-03 -9.433925896883010864e-02 4.592829197645187378e-02 1.321186218410730362e-02 -8.063447475433349609e-02 1.074264645576477051e-01 6.685165315866470337e-02 6.090465560555458069e-02 -6.239019706845283508e-02 -2.026716805994510651e-02 5.914773792028427124e-02 -4.688468179665505886e-04 9.729045629501342773e-02 1.168277338147163391e-01 -5.314772203564643860e-02 5.803666636347770691e-02 -3.703786432743072510e-02 -6.983239203691482544e-02 -3.698992356657981873e-02 -2.344105020165443420e-02 -1.069230288267135620e-01 -1.010696589946746826e-01 7.054919749498367310e-02 3.481924906373023987e-02 -6.089450418949127197e-02 1.466631307266652584e-03 3.133920580148696899e-02 -1.070924550294876099e-01 7.357643544673919678e-02 2.597467228770256042e-02 -4.432787001132965088e-02 -1.477294834330677986e-03 8.472487330436706543e-02 1.107299793511629105e-02 5.265256389975547791e-03 3.128106519579887390e-02 1.086300835013389587e-01 6.349979341030120850e-02 -1.030520275235176086e-01 2.923354692757129669e-02 1.830417476594448090e-02 7.770439982414245605e-02 1.172266826033592224e-01 -8.164139091968536377e-02 -5.126180872321128845e-02 -1.119899153709411621e-01 -7.227052003145217896e-02 7.948158681392669678e-02 2.015212364494800568e-02 -9.092167764902114868e-02 7.830242067575454712e-02 -9.637974947690963745e-02
4.396254941821098328e-02 -5.710260570049285889e-02 7.171022891998291016e-02 9.018851816654205322e-02 1.105659529566764832e-01 7.820562273263931274e-02 -1.359284855425357819e-02 6.020696461200714111e-02 1.103819236159324646e-01 -1.637479476630687714e-02 1.037662848830223083e-01 -1.052375733852386475e-01 -3.151533380150794983e-02 -1.233712956309318542e-01 -1.951976493000984192e-02 4.825133457779884338e-02 2.899498492479324341e-02 1.258517503738403320e-01 7.270152121782302856e-02 -3.035956248641014099e-02 9.432320296764373779e-02 -5.849302932620048523e-02 -1.093796342611312866e-01 8.122264593839645386e-02 1.168701797723770142e-02 8.448115736246109009e-02 -2.951432578265666962e-02 -6.068553030490875244e-02 3.643524274230003357e-02 -7.779048383235931396e-02 6.100540235638618469e-02 -1.183256804943084717e-01 1.001053079962730408e-01 -1.420305389910936356e-02 5.283567309379577637e-02 -2.850329503417015076e-02 -7.631583604961633682e-03 -1.718398556113243103e-02 -3.281148150563240051e-02 -1.339411735534667969e-02 1.107347682118415833e-01 3.129667043685913086e-02 -2.537341974675655365e-02 -4.476711526513099670e-02 -1.168089583516120911e-01 2.645149454474449158e-02 -3.074579127132892609e-02 -1.073652952909469604e-01 -4.894460737705230713e-02 -9.120728075504302979e-02 -5.313630774617195129e-02 1.218456402420997620e-01 -7.780607789754867554e-02 -4.709915444254875183e-02 -3.933315165340900421e-03 -6.002194434404373169e-02 -4.708216711878776550e-02 2.592553012073040009e-02 -2.112273871898651123e-02 -6.175249069929122925e-02 1.664237305521965027e-02 9.967540949583053589e-02 -9.931932389736175537e-02
-5.890285130590200424e-03 1.315916073508560658e-03 -6.254442781209945679e-02 5.871980264782905579e-02 -4.949353635311126709e-02 -3.073560819029808044e-02 3.989769890904426575e-02 4.585828632116317749e-02 -8.904210478067398071e-02 -5.196864530444145203e-02 4.206404834985733032e-02 -1.730385236442089081e-02 -1.659297570586204529e-02 -4.654995352029800415e-02 -2.732759527862071991e-02 -1.154334619641304016e-01 -1.238534823060035706e-01 6.240075454115867615e-02 1.123431771993637085e-01 -9.877087175846099854e-02 -4.830939695239067078e-02 -9.933306276798248291e-02 9.127474576234817505e-02 2.507593855261802673e-02 5.284398049116134644e-02 1.086389720439910889e-01 5.308030173182487488e-02 -1.160345822572708130e-01 9.196732938289642334e-02 -1.132354214787483215e-01 -5.786107853055000305e-02 -1.019625663757324219e-01 1.150389462709426880e-01 5.407945439219474792e-02 1.197462305426597595e-01 1.116160955280065536e-02 -3.930949419736862183e-02 -7.401589304208755493e-02 -5.543703213334083557e-02 -2.257685922086238861e-02 2.477694116532802582e-02 -5.777939036488533020e-02 8.482788503170013428e-02 -8.674120157957077026e-02 2.087001502513885498e-02 -8.898214995861053467e-02 3.062753193080425262e-02 -7.495963573455810547e-02 2.787203295156359673e-03 4.536928609013557434e-02 -1.084095016121864319e-01 1.104963421821594238e-01 6.667304784059524536e-02 1.284048892557621002e-02 6.531061977148056030e-02 -2.484751632437109947e-03 -5.995403043925762177e-03 -8.851720392704010010e-02 1.256295889616012573e-01 -1.273774355649948120e-02 -7.060111965984106064e-03 -9.125369251705706120e-04 -6.634500622749328613e-02
1.329595316201448441e-02 1.085613854229450226e-02 -1.115878894925117493e-01 7.407386600971221924e-02 3.046118095517158508e-02 -7.523141801357269287e-02 -3.661667229607701302e-03 1.173259988427162170e-01 6.618481129407882690e-02 4.189518839120864868e-02 1.149176955223083496e-01 1.515216194093227386e-02 -5.646287463605403900e-03 -1.178594157099723816e-01 6.582108139991760254e-02 -5.291737616062164307e-02 -2.595020644366741180e-02 6.563156843185424805e-02 -1.118820011615753174e-01 4.491734784096479416e-03 1.097331941127777100e-01 3.100474737584590912e-02 -4.588347300887107849e-02 1.215945407748222351e-01 1.113101840019226074e-01 8.749336004257202148e-02 3.980330377817153931e-02 -1.391643192619085312e-02 -6.149796396493911743e-02 9.105610102415084839e-02 8.471937477588653564e-02 -3.224896267056465149e-02 8.454842865467071533e-02 7.308701425790786743e-02 -1.785993017256259918e-02 -1.061584129929542542e-01 2.884811535477638245e-02 5.263835564255714417e-02 8.319196291267871857e-03 4.857806954532861710e-03 -2.563172951340675354e-02 1.981916837394237518e-02 9.856424480676651001e-02 3.163868188858032227e-02 1.085215881466865540e-01 6.916502118110656738e-02 1.165586262941360474e-01 -6.775495409965515137e-02 1.138050332665443420e-01 1.386990305036306381e-02 -9.608374536037445068e-02 1.245099604129791260e-01 -5.158345401287078857e-02 -3.599030524492263794e-02 1.162691190838813782e-01 -4.144932318013161421e-04 -4.910073243081569672e-03 4.626699909567832947e-02 -3.173037245869636536e-02 -6.495320796966552734e-02 -9.531181305646896362e-02 1.024198085069656372e-01 2.152848988771438599e-02
2.091436460614204407e-02 6.487948447465896606e-02 8.743307739496231079e-02 9.659697115421295166e-02 7.936133444309234619e-02 9.170768409967422485e-02 -6.286742538213729858e-02 -1.134897544980049133e-01 3.925634175539016724e-02 -8.872747421264648438e-02 -8.360722661018371582e-02 8.378130942583084106e-02 1.151536107063293457e-01 3.920254483819007874e-02 5.883788317441940308e-02 5.850486457347869873e-02 -8.494311571121215820e-02 -9.065674990415573120e-02 7.502483576536178589e-02 -7.669527083635330200e-02 4.361199215054512024e-02 -9.480211138725280762e-02 1.705994457006454468e-02 1.014416217803955078e-01 -6.630844622850418091e-02 6.069796532392501831e-02 -5.457814410328865051e-02 6.569511443376541138e-02 5.625675246119499207e-02 1.140305697917938232e-01 -9.677219390869140625e-02 -1.172896400094032288e-01 -1.069343239068984985e-01 -5.500636622309684753e-02 4.342871531844139099e-02 -6.616687774658203125e-02 8.721449226140975952e-02 -1.238838657736778259e-01 -9.305161423981189728e-03 -5.314072594046592712e-02 4.598916321992874146e-02 8.303423225879669189e-02 3.804461285471916199e-02 -7.443706691265106201e-02 1.622663252055644989e-02 -1.170232146978378296e-02 -1.366552524268627167e-02 -4.516950249671936035e-02 -1.206982955336570740e-01 -1.880944333970546722e-02 -9.320292621850967407e-02 -2.655156701803207397e-02 -4.122687503695487976e-02 9.959115087985992432e-02 -1.156312301754951477e-01 1.176807209849357605e-01 7.357037067413330078e-02 3.156094625592231750e-02 -1.080237552523612976e-01 6.306217610836029053e-02 1.704255305230617523e-02 1.027455478906631470e-01 -8.181352168321609497e-02
7.835511118173599243e-02 7.614108920097351074e-02 -2.943468093872070312e-02 9.695637226104736328e-02 -5.235826596617698669e-02 1.093917414546012878e-01 1.068786159157752991e-01 1.022310461848974228e-03 -4.289177432656288147e-02 1.819298975169658661e-02 -1.211876943707466125e-01 -1.042738184332847595e-01 -7.513780891895294189e-02 -4.515826702117919922e-02 -5.357562913559377193e-04 4.181040823459625244e-02 9.671066701412200928e-02 -4.029305651783943176e-02 -4.610465839505195618e-02 -4.985667765140533447e-02 -1.184366550296545029e-02 -1.158754676580429077e-01 2.139606885612010956e-02 1.195103004574775696e-01 6.582826375961303711e-02 4.756881296634674072e-02 -3.575503453612327576e-02 -5.912524089217185974e-02 -1.504222303628921509e-02 1.170010939240455627e-01 -4.362463578581809998e-02 -7.586113363504409790e-02 4.481687396764755249e-02 9.426018595695495605e-02 6.923536956310272217e-02 5.158288404345512390e-02 3.424499928951263428e-02 2.521046251058578491e-02 5.952618643641471863e-02 -5.561745725572109222e-03 5.835520103573799133e-02 8.310184814035892487e-03 4.462143033742904663e-02 6.837955862283706665e-02 5.141830537468194962e-03 -8.983487635850906372e-02 -4.637438431382179260e-02 -4.568648710846900940e-02 2.104142494499683380e-02 1.182105392217636108e-01 -4.413968324661254883e-02 -9.854486584663391113e-02 9.486627578735351562e-02 -4.259256646037101746e-03 -1.225406900048255920e-01 6.994489580392837524e-02 1.236979439854621887e-01 9.352367371320724487e-02 -8.217912912368774414e-02 -9.822936356067657471e-02 9.841752052307128906e-02 1.010987721383571625e-02 -3.328540548682212830e-02
1.065860018134117126e-01 4.234937950968742371e-02 8.511593937873840332e-02 3.927235305309295654e-02 -8.745200186967849731e-02 -1.218722388148307800e-02 -8.433454483747482300e-02 3.435160219669342041e-02 9.970152378082275391e-02 -1.249535158276557922e-01 3.234990686178207397e-02 6.124683097004890442e-02 1.182173788547515869e-01 -8.251866092905402184e-04 -5.648950114846229553e-02 -7.394728064537048340e-02 9.377097338438034058e-02 6.446338444948196411e-02 -5.404031369835138321e-03 -7.394777983427047729e-02 2.555420249700546265e-02 -3.312016651034355164e-02 -1.125566437840461731e-01 6.907407939434051514e-02 1.645735464990139008e-02 1.010412424802780151e-01 1.025308221578598022e-01 9.932426363229751587e-02 -1.060408875346183777e-01 2.086465246975421906e-02 -1.367630902677774429e-02 -2.141391113400459290e-02 -4.958091676235198975e-02 6.771132349967956543e-02 -2.961426228284835815e-02 -1.127678994089365005e-02 -2.960298210382461548e-02 -9.900994598865509033e-02 8.129544556140899658e-02 1.642003282904624939e-02 -6.870228797197341919e-02 6.012050062417984009e-02 -1.080393716692924500e-01 -3.478462994098663330e-02 6.439268589019775391e-02 2.405741252005100250e-02 -6.499096751213073730e-02 8.918957412242889404e-02 -6.595892459154129028e-02 -8.512672036886215210e-02 -8.879182487726211548e-02 -9.718044102191925049e-02 -2.043054439127445221e-02 2.329189702868461609e-02 9.894799441099166870e-02 4.504745826125144958e-02 1.038390100002288818e-01 -5.220710299909114838e-03 -1.003506705164909363e-01 -2.057553827762603760e-02 5.973664671182632446e-02 -2.348564192652702332e-02 -1.130200624465942383e-01
-1.250822395086288452e-01 -6.965138018131256104e-02 7.531489431858062744e-02 -6.702297180891036987e-02 -7.848847657442092896e-02 -9.044051915407180786e-02 -1.206389442086219788e-01 -3.428331017494201660e-02 -1.060402169823646545e-01 9.923045337200164795e-02 7.404388487339019775e-02 3.022367134690284729e-02 7.330304384231567383e-02 6.859064102172851562e-02 -6.070496141910552979e-02 -1.001764535903930664e-01 5.803462117910385132e-02 9.140062332153320312e-02 1.155455037951469421e-02 6.858662702143192291e-03 1.093519255518913269e-01 1.586548797786235809e-02 7.685373723506927490e-02 -1.004500240087509155e-01 -8.492700010538101196e-02 5.634279549121856689e-02 1.032810956239700317e-01 -8.169262111186981201e-02 -8.441700041294097900e-02 -9.460552781820297241e-02 1.095288321375846863e-01 -5.024903640151023865e-02 -3.872883319854736328e-02 -4.639473557472229004e-02 9.133916348218917847e-02 -2.793018706142902374e-02 1.017436850816011429e-02 1.017252076417207718e-02 -1.250135749578475952e-01 8.266071230173110962e-02 3.941939026117324829e-02 1.149347871541976929e-01 9.982027858495712280e-02 8.741743117570877075e-02 -4.740229621529579163e-02 5.112783983349800110e-03 -3.405354917049407959e-02 -2.850885130465030670e-02 5.120056122541427612e-02 -8.985973894596099854e-02 3.292854130268096924e-02 6.886428594589233398e-02 8.797109872102737427e-02 5.670500919222831726e-02 4.579280503094196320e-04 1.001579836010932922e-01 -1.167712435126304626e-01 1.167192533612251282e-01 1.467793807387351990e-02 -9.537394344806671143e-02 -1.044716835021972656e-01 -6.415783613920211792e-02 2.125017344951629639e-03
3.404435887932777405e-02 -3.221593797206878662e-02 1.214995458722114563e-01 -1.162161603569984436e-01 -4.098373465240001678e-04 1.230735629796981812e-01 1.023172587156295776e-02 -6.675478070974349976e-02 -6.403241306543350220e-02 -6.358598917722702026e-02 1.125409007072448730e-01 9.490670263767242432e-02 -1.193180978298187256e-01 -3.503787796944379807e-03 3.912934102118015289e-03 6.959889084100723267e-02 -1.023583784699440002e-01 -6.680154800415039062e-02 6.203601881861686707e-02 -8.744512498378753662e-02 -6.199324503540992737e-02 6.628102064132690430e-02 -6.109868362545967102e-02 1.778264157474040985e-02 1.552264951169490814e-02 -9.277817606925964355e-02 1.088289320468902588e-01 5.018020421266555786e-02 6.401404738426208496e-02 -3.707069437950849533e-03 -7.951343059539794922e-02 6.198864802718162537e-02 8.884281665086746216e-02 -2.987605705857276917e-02 -1.243077889084815979e-01 -1.020878404378890991e-01 3.225388750433921814e-02 -1.594833214767277241e-03 4.263236373662948608e-02 8.025362342596054077e-02 -5.649153143167495728e-02 2.575539611279964447e-02 -2.496092393994331360e-02 -7.611980289220809937e-02 7.640270143747329712e-02 1.770470850169658661e-02 3.676427900791168213e-02 9.300072491168975830e-02 2.935916557908058167e-02 -8.294080197811126709e-02 -7.262548059225082397e-02 1.118809804320335388e-01 1.123484149575233459e-01 -5.591481551527976990e-02 -4.813559725880622864e-02 4.328720644116401672e-02 1.070671482011675835e-03 7.310542464256286621e-02 -6.035784631967544556e-02 1.162682622671127319e-01 -5.328101664781570435e-02 6.789503246545791626e-02 1.205413043498992920e-01
-4.344007000327110291e-02 -1.001064926385879517e-01 4.872198030352592468e-02 1.978466846048831940e-02 -3.989170491695404053e-02 -7.025568629615008831e-04 -1.182105615735054016e-01 4.313266277313232422e-02 8.463512361049652100e-02 -1.168109253048896790e-01 6.850080937147140503e-02 3.721654415130615234e-02 6.688545644283294678e-02 -2.893939986824989319e-02 1.223352476954460144e-01 -4.938558116555213928e-02 1.136511657387018204e-02 -1.002114638686180115e-01 -8.522781729698181152e-02 -3.992190957069396973e-02 2.798375859856605530e-02 1.040945947170257568e-02 -2.834513084962964058e-03 1.114094331860542297e-01 6.619291752576828003e-02 -9.257356822490692139e-02 6.651106476783752441e-02 -5.514987185597419739e-02 -1.497397664934396744e-02 4.831481724977493286e-02 -9.358695894479751587e-02 -2.276364900171756744e-02 -5.100475996732711792e-02 -1.320690661668777466e-02 4.785435274243354797e-02 3.494764491915702820e-02 5.906059592962265015e-02 -1.013225018978118896e-01 -3.719688206911087036e-02 -2.868391200900077820e-02 1.146888807415962219e-01 1.138348411768674850e-02 6.457354873418807983e-02 -9.535494446754455566e-02 -2.976125292479991913e-02 7.146923243999481201e-02 6.360889412462711334e-03 8.290170878171920776e-02 -1.097864806652069092e-01 -7.348853349685668945e-02 -8.894512429833412170e-03 -1.003151983022689819e-01 2.069845236837863922e-02 5.218742880970239639e-03 1.012482792139053345e-01 2.385268919169902802e-02 1.282408833503723145e-03 -1.463972963392734528e-02 -7.070764899253845215e-02 -1.225515007972717285e-01 1.956318505108356476e-02 -6.702966988086700439e-02 7.869228720664978027e-02
3.583947196602821350e-02 -8.775847963988780975e-03 -3.390321135520935059e-02 1.035647280514240265e-02 3.234910964965820312e-02 7.080582901835441589e-03 6.476132571697235107e-02 -1.225194036960601807e-01 7.677295058965682983e-02 -2.970849163830280304e-02 -5.281538516283035278e-02 -1.819705963134765625e-02 6.200626492500305176e-02 -1.212137192487716675e-01 4.455740377306938171e-02 -6.471517682075500488e-02 -9.634092450141906738e-02 9.771933406591415405e-02 1.185889169573783875e-01 1.320980489253997803e-02 -8.328290283679962158e-02 -4.100525751709938049e-02 -1.811630278825759888e-02 1.160707771778106689e-01 4.111331701278686523e-02 6.522233784198760986e-02 2.158907614648342133e-02 6.403182633221149445e-03 -4.680598154664039612e-03 -1.035651937127113342e-01 -2.654263004660606384e-02 -8.047144114971160889e-02 6.505242735147476196e-02 -1.707054761936888099e-04 1.699647493660449982e-02 7.610076107084751129e-03 8.065737783908843994e-02 -1.100253313779830933e-01 -8.776897937059402466e-02 -7.169127464294433594e-02 -3.906037658452987671e-02 8.879519253969192505e-02 1.315672788769006729e-02 -5.118968710303306580e-02 -1.195200607180595398e-01 6.098763644695281982e-02 -7.843607664108276367e-02 -1.717189699411392212e-02 1.205858681350946426e-02 -8.137165009975433350e-02 4.408430680632591248e-02 -7.872846722602844238e-02 -5.417376011610031128e-02 -4.253549128770828247e-02 1.571013033390045166e-02 7.181201130151748657e-02 -6.545004993677139282e-02 5.198746547102928162e-02 -6.324974447488784790e-02 -1.473685726523399353e-02 -1.668576267547905445e-03 1.189176216721534729e-01 6.532806903123855591e-02
1.253651529550552368e-01 -1.811519265174865723e-02 -3.525859862565994263e-02 3.366817906498908997e-02 9.405653178691864014e-02 -5.580915883183479309e-02 9.161549806594848633e-02 5.948934331536293030e-02 -2.751338109374046326e-02 2.752727270126342773e-02 -7.044696807861328125e-02 1.051648929715156555e-01 -1.031072214245796204e-01 3.202969953417778015e-02 -9.460069239139556885e-02 -7.079789787530899048e-02 -1.253950297832489014e-01 5.667398124933242798e-02 -7.805117219686508179e-02 4.915104433894157410e-02 6.606194190680980682e-03 -2.067325077950954437e-02 3.143383935093879700e-02 -9.361992776393890381e-02 -4.026775062084197998e-02 2.683222480118274689e-02 6.825457513332366943e-02 3.564634174108505249e-02 -3.999398555606603622e-03 -1.087008714675903320e-01 -4.742401465773582458e-02 1.089092865586280823e-01 2.048198506236076355e-02 -9.500876069068908691e-02 -4.878692328929901123e-02 -3.514128550887107849e-02 -7.874377071857452393e-02 5.515592545270919800e-02 1.084847748279571533e-01 7.918179780244827271e-02 -5.315371602773666382e-02 7.733394205570220947e-02 5.824216827750205994e-02 1.061122938990592957e-01 -8.081842958927154541e-02 -1.022465750575065613e-01 -7.556730508804321289e-02 4.262296482920646667e-02 1.133464425802230835e-01 -1.019069403409957886e-01 -1.326249167323112488e-02 7.399047911167144775e-02 5.938285961747169495e-02 1.038771420717239380e-01 -8.258064836263656616e-02 3.149864450097084045e-02 -1.209227740764617920e-01 -1.803347468376159668e-02 -9.941191226243972778e-02 -1.212585624307394028e-02 4.880533739924430847e-02 1.139103472232818604e-01 5.152883008122444153e-02
4.988284409046173096e-02 -5.750598385930061340e-02 1.038729175925254822e-01 -1.028299406170845032e-01 -2.672496065497398376e-02 -1.166353225708007812e-01 6.726198643445968628e-02 7.786040008068084717e-02 -5.747620388865470886e-02 5.810294300317764282e-03 8.648463338613510132e-02 -1.172752380371093750e-01 6.353008747100830078e-02 -1.171058863401412964e-01 1.030932739377021790e-01 -9.164104610681533813e-02 -5.088283494114875793e-02 5.485101044178009033e-02 -1.101505458354949951e-01 4.025483503937721252e-02 -1.255522072315216064e-01 -1.155419573187828064e-01 -8.160543441772460938e-02 -6.446242332458496094e-02 7.666110247373580933e-02 4.355441033840179443e-02 1.219314113259315491e-01 -2.413683384656906128e-02 1.233810633420944214e-01 -6.252497434616088867e-02 -7.054924219846725464e-02 1.140362322330474854e-01 1.068217400461435318e-02 1.984313875436782837e-02 -1.042113453149795532e-01 7.154648751020431519e-02 -6.225601583719253540e-02 1.162584200501441956e-01 -7.358869072049856186e-03 9.397356212139129639e-02 -6.084851548075675964e-02 6.228010728955268860e-02 -2.403817325830459595e-02 1.227202080190181732e-02 -2.995247393846511841e-02 3.895302116870880127e-02 -6.187205761671066284e-02 -6.365424953401088715e-03 6.971303373575210571e-02 -1.063200905919075012e-01 -9.995996952056884766e-02 5.576348677277565002e-02 6.398575007915496826e-02 5.177036672830581665e-02 -4.236290976405143738e-02 1.798350550234317780e-02 -8.450416848063468933e-03 -5.323975905776023865e-02 5.684554204344749451e-02 -7.354035973548889160e-02 3.746871277689933777e-02 -6.972151994705200195e-02 1.266344543546438217e-02
-2.564819157123565674e-02 1.088970452547073364e-01 6.395252887159585953e-03 3.679829463362693787e-02 8.170283399522304535e-03 -5.642942711710929871e-02 2.842067508026957512e-03 -8.675746619701385498e-02 3.794048726558685303e-02 -1.574031892232596874e-03 4.987242072820663452e-02 1.974024251103401184e-02 5.337703227996826172e-02 -5.690195411443710327e-02 -1.133642569184303284e-01 1.674145273864269257e-02 8.709646016359329224e-02 8.221152238547801971e-03 2.945965714752674103e-02 8.158782124519348145e-02 -1.284613553434610367e-02 8.631490170955657959e-02 7.386990636587142944e-02 -5.967675149440765381e-02 1.424473128281533718e-03 7.646204531192779541e-02 -9.668873250484466553e-02 8.068273216485977173e-02 1.047249287366867065e-01 -2.160082198679447174e-02 -1.021846979856491089e-01 -7.771681994199752808e-02 -1.063958480954170227e-01 9.849466383457183838e-02 -6.918241083621978760e-02 -1.210610792040824890e-01 -1.195112019777297974e-01 -5.616560205817222595e-02 -6.138170138001441956e-02 8.822065591812133789e-02 1.913672126829624176e-02 7.294500619173049927e-02 -7.554771751165390015e-02 -6.328839063644409180e-02 1.983803138136863708e-02 6.446553021669387817e-02 -3.373453393578529358e-03 -1.943328604102134705e-02 1.171214729547500610e-01 -1.699585840106010437e-02 -8.221507072448730469e-02 -5.290004611015319824e-02 1.118524745106697083e-01 1.060532629489898682e-01 2.965117804706096649e-02 -1.215719357132911682e-01 6.849930435419082642e-02 1.675273291766643524e-02 -3.185525536537170410e-02 -1.086455658078193665e-01 -1.144685223698616028e-01 -1.564738154411315918e-02 5.363104864954948425e-02
1.108604595065116882e-01 5.280460044741630554e-02 7.965903729200363159e-02 -1.185522973537445068e-01 -9.325633198022842407e-02 4.901802167296409607e-02 7.824880629777908325e-02 -6.843224912881851196e-02 1.035538539290428162e-01 -6.671454757452011108e-02 1.016755402088165283e-01 3.419710323214530945e-02 2.458420209586620331e-02 1.614384911954402924e-02 -2.480293810367584229e-02 7.988998293876647949e-02 -3.234669193625450134e-02 6.714460998773574829e-02 1.505763269960880280e-02 -1.210667714476585388e-01 5.087221506983041763e-04 3.238976746797561646e-02 6.649549305438995361e-02 9.452436864376068115e-02 1.193954795598983765e-01 3.993000462651252747e-02 -8.618282526731491089e-02 9.937103092670440674e-02 -2.519509941339492798e-02 -1.175125688314437866e-01 -5.604985356330871582e-02 1.191405653953552246e-01 -5.448265373706817627e-02 -5.958611145615577698e-02 2.661799453198909760e-02 -1.119765453040599823e-02 -3.896751254796981812e-02 -6.901226472109556198e-03 -9.733129292726516724e-02 -8.858444541692733765e-02 9.354519098997116089e-02 -1.257210075855255127e-01 -8.355558663606643677e-02 -1.176888421177864075e-01 1.950001460500061512e-03 9.662203490734100342e-02 4.931601136922836304e-02 -8.054635673761367798e-02 -6.693581491708755493e-02 -1.044199056923389435e-02 4.151134938001632690e-02 -1.236414723098278046e-02 -8.514753729104995728e-02 -3.978145122528076172e-02 4.441014304757118225e-02 5.674387793987989426e-03 -9.729793667793273926e-02 -7.575152814388275146e-02 -9.169149398803710938e-02 1.092160791158676147e-01 -9.286893159151077271e-02 3.855171427130699158e-02 4.730405658483505249e-02
-1.057459320873022079e-02 5.794725567102432251e-02 -6.838143616914749146e-02 -9.799481183290481567e-02 -2.198544144630432129e-02 1.136662289500236511e-01 8.160862326622009277e-02 -1.764795184135437012e-02 8.075551688671112061e-02 1.204575449228286743e-01 2.307244017720222473e-02 2.456960454583168030e-02 -1.661215536296367645e-02 5.407257750630378723e-02 5.049581080675125122e-02 -7.342998683452606201e-02 1.148765310645103455e-01 -1.084032952785491943e-01 8.197513967752456665e-02 -4.424300044775009155e-03 6.233732774853706360e-02 9.216879308223724365e-02 -7.230389118194580078e-02 -1.001124903559684753e-01 -2.815894037485122681e-02 -5.645570904016494751e-02 1.256902664899826050e-01 6.407073885202407837e-02 -9.974826127290725708e-03 -1.044058352708816528e-01 2.009951137006282806e-02 6.533056497573852539e-02 -7.173204421997070312e-02 6.024020165205001831e-02 -5.512231215834617615e-02 1.100165471434593201e-01 1.069296076893806458e-01 1.043105423450469971e-01 -1.186578050255775452e-01 -2.550068893469870090e-04 -6.974093616008758545e-02 2.811299636960029602e-02 5.485817417502403259e-02 3.310755267739295959e-02 1.253118366003036499e-01 -4.999426752328872681e-02 2.683236077427864075e-02 1.304174307733774185e-02 -5.081149563193321228e-02 1.516821701079607010e-02 1.235707625746726990e-01 3.836421668529510498e-02 1.119334325194358826e-01 -6.523448228836059570e-02 9.637732058763504028e-02 5.233656265772879124e-04 5.799114331603050232e-02 1.119130197912454605e-02 1.144577413797378540e-01 9.236305207014083862e-02 9.927594661712646484e-02 -1.001128181815147400e-01 1.245906278491020203e-01
7.205518335103988647e-02 -8.588711731135845184e-03 -5.165064707398414612e-02 7.983974367380142212e-02 1.126991584897041321e-01 -2.699216268956661224e-02 -7.766417413949966431e-02 1.157198771834373474e-01 1.784268766641616821e-02 9.722330421209335327e-02 9.733259677886962891e-02 -3.287104889750480652e-02 4.258827120065689087e-02 1.788887195289134979e-02 5.628087371587753296e-02 -9.127572178840637207e-02 -8.408428728580474854e-02 -8.250693231821060181e-02 1.041716784238815308e-01 1.144037917256355286e-01 4.086328204721212387e-03 1.780840009450912476e-02 4.623751714825630188e-02 6.316987425088882446e-02 7.792361080646514893e-02 2.497501112520694733e-02 6.274036318063735962e-02 -4.104350879788398743e-02 1.146013066172599792e-01 1.665326207876205444e-02 -4.576093330979347229e-02 -1.769736409187316895e-02 8.299818634986877441e-02 8.401070535182952881e-02 -3.739168122410774231e-02 -4.889139533042907715e-02 -1.727636717259883881e-02 1.803191192448139191e-02 1.661643572151660919e-02 1.227160021662712097e-01 1.165620461106300354e-01 9.412794560194015503e-02 9.704567492008209229e-02 8.899886161088943481e-02 -1.187003701925277710e-01 5.936507508158683777e-02 -5.705762188881635666e-03 -6.862717680633068085e-03 -8.734736591577529907e-02 -2.133036032319068909e-02 -5.940217524766921997e-02 -8.895382285118103027e-02 -5.907998606562614441e-02 1.924580335617065430e-02 -1.562670059502124786e-02 -4.640638828277587891e-02 7.815013080835342407e-02 -8.484654128551483154e-02 5.484127439558506012e-03 -1.688218116760253906e-02 7.710527628660202026e-02 -1.214043572545051575e-01 2.092445828020572662e-02
1.238575652241706848e-01 -1.093267202377319336e-01 2.835588343441486359e-02 6.395319104194641113e-02 -4.480230435729026794e-02 1.934036426246166229e-02 -1.958230324089527130e-02 7.253279536962509155e-02 4.903703555464744568e-02 7.437428832054138184e-02 -5.728732421994209290e-02 1.156440600752830505e-01 7.433878630399703979e-02 8.453225716948509216e-03 -8.312919735908508301e-02 -2.756120078265666962e-02 -9.468293935060501099e-02 -6.858984380960464478e-02 6.017449498176574707e-02 -4.553336650133132935e-02 -1.049373149871826172e-01 2.725789323449134827e-02 -3.921085223555564880e-02 1.074935868382453918e-01 3.762689232826232910e-02 -3.280753269791603088e-02 -1.052858158946037292e-01 -1.158241033554077148e-01 4.739475622773170471e-02 8.369122445583343506e-02 4.434602800756692886e-03 3.835061099380254745e-03 6.634640041738748550e-03 -8.251553773880004883e-02 3.420868306420743465e-04 -5.341659486293792725e-02 9.199391305446624756e-02 -5.228468775749206543e-02 9.567459672689437866e-02 -5.393450707197189331e-02 9.324353933334350586e-02 2.604337036609649658e-02 -6.999741494655609131e-02 9.189139306545257568e-02 1.519992202520370483e-02 1.019551511853933334e-02 5.058987438678741455e-02 -9.438538551330566406e-02 -2.730012685060501099e-02 8.195698261260986328e-02 9.679089486598968506e-02 8.262152969837188721e-02 -2.324409084394574165e-03 1.242151111364364624e-01 1.209827885031700134e-01 -9.910881519317626953e-02 -1.154049560427665710e-01 -8.719217032194137573e-02 5.920683499425649643e-03 8.793139457702636719e-02 -8.790767937898635864e-02 4.945053532719612122e-02 -9.517874568700790405e-02
-1.021106094121932983e-01 7.331228256225585938e-02 -1.090226024389266968e-01 -9.664036333560943604e-02 -7.712969928979873657e-02 7.777405530214309692e-02 5.775129050016403198e-02 -1.162158176302909851e-01 -8.188577741384506226e-02 7.565725129097700119e-03 2.165377885103225708e-02 5.439375713467597961e-02 1.042582467198371887e-01 9.175778925418853760e-02 -7.277886848896741867e-03 1.178419291973114014e-01 -3.281687386333942413e-03 -1.246299445629119873e-01 5.688470974564552307e-02 -1.115964204072952271e-01 4.844217747449874878e-02 1.136625930666923523e-01 4.717851430177688599e-02 -8.400148712098598480e-03 1.092330366373062134e-01 -4.297574236989021301e-02 -2.544884383678436279e-02 1.043097004294395447e-01 1.062478348612785339e-01 -2.226503565907478333e-02 9.169153869152069092e-02 -3.866081312298774719e-02 -3.006450086832046509e-02 -7.815691828727722168e-02 -8.131351321935653687e-02 -3.298103064298629761e-02 -7.028377056121826172e-02 1.214490085840225220e-02 -1.013766303658485413e-01 5.860382691025733948e-02 -6.292794644832611084e-02 -5.389741063117980957e-02 2.329315803945064545e-02 -5.161030963063240051e-02 2.985750883817672729e-02 -8.064806461334228516e-02 2.766188792884349823e-02 9.616026282310485840e-02 1.193727105855941772e-01 1.216372102499008179e-01 4.409100487828254700e-02 -2.874968014657497406e-02 9.347478300333023071e-02 1.099906787276268005e-01 6.481561064720153809e-02 6.608325242996215820e-02 -1.158029735088348389e-01 9.239903837442398071e-02 1.229861378669738770e-01 -9.566625952720642090e-02 -3.807265311479568481e-02 -9.855321794748306274e-02 -4.513341188430786133e-02
-3.258148208260536194e-02 8.293779939413070679e-02 -3.695156425237655640e-02 4.558450728654861450e-02 3.802639618515968323e-02 -1.080106869339942932e-01 2.395944483578205109e-02 -7.140678167343139648e-02 8.684293925762176514e-02 6.161345914006233215e-02 -7.399100065231323242e-02 -3.621201589703559875e-02 -8.728504925966262817e-02 8.628541603684425354e-03 -5.592514947056770325e-02 -1.165967285633087158e-01 1.169040724635124207e-01 2.747177705168724060e-02 7.363678514957427979e-02 1.148457378149032593e-01 6.146217510104179382e-02 6.514681875705718994e-02 -1.130206361413002014e-01 -9.404196403920650482e-03 3.279246762394905090e-02 1.210995167493820190e-01 -2.069525420665740967e-02 1.181912571191787720e-01 1.474681543186306953e-03 -9.743032604455947876e-02 1.159481331706047058e-01 1.317063532769680023e-02 4.897535219788551331e-02 8.735965192317962646e-02 1.130840629339218140e-01 4.405143111944198608e-02 9.876614063978195190e-02 -2.423908188939094543e-02 -2.020912058651447296e-02 -6.378230452537536621e-02 -1.222870647907257080e-01 9.708666056394577026e-02 -7.343804929405450821e-03 9.608899801969528198e-02 2.251693233847618103e-02 -4.568600654602050781e-02 -5.752567574381828308e-02 4.187538102269172668e-02 -4.256275296211242676e-02 -2.960416860878467560e-02 -1.693711988627910614e-02 4.671885818243026733e-02 1.582666300237178802e-02 1.476534828543663025e-02 -2.546479459851980209e-03 9.215202182531356812e-02 -6.281874608248472214e-03 -7.373908907175064087e-02 1.237682346254587173e-02 -1.169230267405509949e-01 8.061154186725616455e-02 -4.495719447731971741e-02 -6.361116468906402588e-02
6.684112548828125000e-02 -8.180630207061767578e-02 -1.139482408761978149e-01 -2.022909559309482574e-02 2.605768293142318726e-02 1.208998039364814758e-01 -7.347965240478515625e-02 8.794824033975601196e-02 2.993589267134666443e-02 -1.195723842829465866e-02 8.762875944375991821e-02 7.524259388446807861e-02 7.688298076391220093e-02 4.736616089940071106e-02 2.015252783894538879e-02 -4.269634559750556946e-02 -6.351116299629211426e-02 -5.200458690524101257e-02 -2.104168012738227844e-02 -9.444206207990646362e-02 -1.602492877282202244e-03 1.015812680125236511e-01 -5.561577528715133667e-02 4.419762641191482544e-02 -1.038359701633453369e-01 -2.948927460238337517e-03 -1.167719513177871704e-01 2.900506369769573212e-03 1.358147896826267242e-02 -4.737539589405059814e-02 -4.426593333482742310e-02 -5.551663413643836975e-02 -1.993334107100963593e-02 -8.820240944623947144e-02 -8.105128258466720581e-02 9.953606128692626953e-02 1.139093376696109772e-02 9.951219707727432251e-02 3.834530711174011230e-02 1.529934722930192947e-02 6.638696789741516113e-02 -1.227605044841766357e-01 8.029363304376602173e-02 5.821543559432029724e-02 1.085563227534294128e-01 1.207655519247055054e-01 4.732804372906684875e-03 9.174560755491256714e-02 9.055068343877792358e-02 -3.635368868708610535e-02 4.752028733491897583e-03 7.489249855279922485e-02 -1.444490347057580948e-02 7.971645891666412354e-02 7.201593369245529175e-02 -1.234908327460289001e-01 -4.974050819873809814e-02 1.736762374639511108e-02 4.542889446020126343e-02 -3.064258024096488953e-03 9.589777886867523193e-02 3.942804038524627686e-02 9.710772335529327393e-02
1.434154342859983444e-02 1.253189891576766968e-01 1.113134473562240601e-01 -1.890425756573677063e-02 -6.764350831508636475e-02 7.169876247644424438e-02 9.523326531052589417e-03 -4.228888137731701136e-04 -6.586477160453796387e-02 3.256907686591148376e-02 7.299919426441192627e-02 -1.269130501896142960e-02 5.010443180799484253e-02 3.304023668169975281e-02 -2.927568927407264709e-02 7.497262954711914062e-02 7.951501011848449707e-02 4.725228622555732727e-02 -5.209065973758697510e-02 -4.941596463322639465e-02 3.490817546844482422e-02 4.450212046504020691e-02 -3.255236148834228516e-02 7.956825196743011475e-02 3.858924657106399536e-02 -3.604565048590302467e-03 8.901344984769821167e-02 5.919123068451881409e-02 -1.063613072037696838e-01 -2.669205330312252045e-02 5.237771570682525635e-02 -1.091600731015205383e-01 -9.296589344739913940e-02 -9.561369195580482483e-03 7.306963950395584106e-02 1.253255754709243774e-01 7.933991402387619019e-02 8.310831151902675629e-03 -1.059115305542945862e-01 -1.132444217801094055e-01 3.413334488868713379e-02 4.825077578425407410e-02 8.220864087343215942e-02 -1.240665838122367859e-01 -7.226117700338363647e-02 4.705942794680595398e-02 7.822729647159576416e-03 -5.766272172331809998e-02 -9.489963203668594360e-02 -3.742563724517822266e-02 1.085720360279083252e-01 -9.605852514505386353e-02 4.269609227776527405e-02 -2.289449423551559448e-02 -9.374853223562240601e-02 -8.191955834627151489e-02 7.802341133356094360e-02 -5.279094725847244263e-02 -7.887554168701171875e-02 -1.477311365306377411e-02 2.519251592457294464e-02 9.196162223815917969e-02 -1.049631610512733459e-01
-4.845671728253364563e-02 -1.032324507832527161e-01 2.421222813427448273e-02 2.593593858182430267e-02 -1.250230967998504639e-01 5.046433210372924805e-02 8.714840747416019440e-03 -6.024978309869766235e-02 -9.533049911260604858e-02 7.636959850788116455e-02 -6.130063161253929138e-02 -1.031123027205467224e-01 5.171871557831764221e-02 -2.256634645164012909e-02 2.268808893859386444e-03 5.612604320049285889e-02 8.992440998554229736e-02 7.041969336569309235e-03 4.369507730007171631e-02 -7.887108623981475830e-02 -7.813648879528045654e-02 4.042783752083778381e-02 2.229414181783795357e-03 -6.620371714234352112e-03 -2.825633808970451355e-02 -4.665052145719528198e-02 -9.346327744424343109e-03 -1.249672397971153259e-01 -4.318701394367963076e-04 -1.153441146016120911e-01 1.073962002992630005e-01 9.669265896081924438e-02 1.163890436291694641e-01 1.215948536992073059e-01 1.192820891737937927e-01 4.131307080388069153e-02 -5.976166576147079468e-02 9.537741541862487793e-02 8.439920097589492798e-02 2.230180241167545319e-02 -6.206113100051879883e-02 -2.388720214366912842e-02 -1.206287741661071777e-01 2.249330841004848480e-02 5.422480776906013489e-02 1.174002215266227722e-01 -6.840465962886810303e-02 7.515392452478408813e-02 6.188291683793067932e-02 1.093357615172863007e-02 -7.277948409318923950e-02 1.023312509059906006e-01 -1.227625608444213867e-01 1.231835335493087769e-01 -5.746581032872200012e-02 -1.251863092184066772e-01 -8.992272615432739258e-02 4.849171265959739685e-02 -3.392420709133148193e-02 -5.461680144071578979e-02 1.004516929388046265e-01 4.603519663214683533e-02 -3.524634242057800293e-02
2.999521791934967041e-02 4.591188952326774597e-02 -1.172630563378334045e-01 5.862545222043991089e-02 -9.401039034128189087e-02 -1.216111332178115845e-01 -8.938957005739212036e-02 -1.042909547686576843e-01 -1.011866405606269836e-01 -5.962146446108818054e-02 -9.792555868625640869e-02 4.160140454769134521e-02 9.316141158342361450e-02 -1.479050517082214355e-02 -1.010903418064117432e-01 1.437820494174957275e-02 -2.519296668469905853e-02 4.951300099492073059e-03 5.572580173611640930e-02 1.239807233214378357e-01 -5.726950988173484802e-02 -3.991420567035675049e-02 2.173955179750919342e-02 -4.620807711035013199e-03 -1.100361123681068420e-01 9.230830520391464233e-02 -1.257518380880355835e-01 -1.291507296264171600e-02 -8.832750469446182251e-02 1.215390861034393311e-01 -4.228903353214263916e-02 1.101574972271919250e-01 -1.226586773991584778e-01 -1.026313900947570801e-01 -1.664599217474460602e-02 5.592523887753486633e-02 -9.808686375617980957e-02 -1.162360757589340210e-01 -9.224944561719894409e-02 4.357276111841201782e-02 -9.047363698482513428e-02 -3.078556060791015625e-02 -2.172306180000305176e-02 6.813024729490280151e-02 -6.967131048440933228e-02 -2.091251872479915619e-02 3.037860617041587830e-02 -8.671775460243225098e-02 -8.572834730148315430e-02 -1.036358177661895752e-01 -4.270831495523452759e-02 1.025580987334251404e-01 -8.310484141111373901e-02 1.039397567510604858e-01 -4.478367976844310760e-03 -3.017481416463851929e-02 3.592655062675476074e-03 3.176299389451742172e-03 7.609080523252487183e-02 -9.987652301788330078e-02 -6.745935231447219849e-02 -1.001175642013549805e-01 1.070013567805290222e-01
2.098983526229858398e-02 -1.212605759501457214e-01 5.707983672618865967e-02 -1.500692870467901230e-02 -7.759549468755722046e-02 5.785375088453292847e-02 -2.304420433938503265e-02 -1.079816222190856934e-01 -2.422913908958435059e-02 1.065810620784759521e-01 -1.169397458434104919e-01 1.096548885107040405e-01 2.146830968558788300e-02 9.366507083177566528e-02 7.480774819850921631e-02 -7.866798341274261475e-02 -8.503438532352447510e-02 4.341898486018180847e-02 -1.034612059593200684e-01 -6.101473048329353333e-02 3.775576874613761902e-02 -4.774679988622665405e-02 -2.592404372990131378e-02 1.149683222174644470e-01 1.950719393789768219e-02 -2.634941041469573975e-02 -8.967643231153488159e-02 6.426038593053817749e-02 -3.173987939953804016e-02 2.680786512792110443e-02 -1.026767343282699585e-01 7.527869939804077148e-02 1.069106534123420715e-02 7.581938058137893677e-02 2.903456054627895355e-02 -7.822925108484923840e-04 -5.440581589937210083e-02 3.252977132797241211e-02 -8.661563694477081299e-02 -1.171806901693344116e-01 -1.214273497462272644e-01 1.882976479828357697e-02 -4.625903815031051636e-02 -9.075827151536941528e-02 -9.219530224800109863e-02 1.238676607608795166e-01 -1.026457175612449646e-02 1.046164184808731079e-01 8.903671056032180786e-02 1.189034283161163330e-01 -6.656952202320098877e-02 -3.533950448036193848e-02 6.789828091859817505e-02 -5.385915562510490417e-02 -1.225602626800537109e-02 -9.058041870594024658e-02 9.207180142402648926e-02 -1.197220683097839355e-01 9.562698751688003540e-02 -1.007570698857307434e-01 -5.736776627600193024e-03 -2.222678251564502716e-02 5.390765145421028137e-02
-4.521817900240421295e-03 -9.830719232559204102e-02 6.569465249776840210e-02 -5.096163973212242126e-02 -1.216925680637359619e-01 -2.839446812868118286e-02 -2.251474000513553619e-02 4.787045344710350037e-02 3.667245060205459595e-02 -1.092633903026580811e-01 9.291858971118927002e-02 8.538971841335296631e-02 -7.625678181648254395e-02 5.365623533725738525e-02 -1.985160866752266884e-03 3.429263830184936523e-02 5.057964846491813660e-02 -1.101411283016204834e-01 -7.100236415863037109e-02 -5.572398751974105835e-02 -1.105974912643432617e-01 9.999194741249084473e-02 -2.143275924026966095e-02 -5.294176936149597168e-02 4.796912521123886108e-02 -2.766738459467887878e-02 1.417999994009733200e-02 9.509634971618652344e-02 -1.016853451728820801e-01 -2.483339793980121613e-02 -5.339566990733146667e-02 -1.236719638109207153e-02 -9.277214854955673218e-02 -2.734115719795227051e-02 -7.516641914844512939e-02 4.642286524176597595e-02 -1.024791300296783447e-01 -9.035287052392959595e-02 -8.873909711837768555e-02 -3.219838067889213562e-02 -8.036772161722183228e-02 4.148644953966140747e-02 6.431058049201965332e-02 -1.144935935735702515e-01 1.542308833450078964e-02 -8.589914441108703613e-02 1.216830015182495117e-01 6.036720238626003265e-03 8.005657792091369629e-02 -8.664845675230026245e-02 1.285924762487411499e-02 -6.600297242403030396e-02 -8.726594597101211548e-02 -1.088925227522850037e-01 -9.231658279895782471e-02 4.347182065248489380e-02 -4.162918776273727417e-02 -4.699487611651420593e-02 4.612872004508972168e-02 5.428383126854896545e-02 7.106604427099227905e-02 3.404415026307106018e-02 1.258992552757263184e-01
4.070232436060905457e-02 7.391110062599182129e-02 1.193746924400329590e-01 -1.016346737742424011e-01 4.802544787526130676e-02 -1.149047464132308960e-01 1.248830482363700867e-01 4.714605957269668579e-02 7.835521548986434937e-02 7.445048075169324875e-03 6.464614719152450562e-02 9.158493578433990479e-02 -7.385853677988052368e-02 -3.808552399277687073e-02 -3.253253549337387085e-02 -6.918086856603622437e-02 1.000544987618923187e-02 -4.325240850448608398e-02 -3.433494642376899719e-02 8.294019848108291626e-02 -3.517356142401695251e-02 -1.156751811504364014e-01 -6.958598643541336060e-02 -1.889399997889995575e-02 1.098820045590400696e-01 -2.515190467238426208e-02 -1.167125850915908813e-01 1.150259822607040405e-01 5.285578593611717224e-02 -9.144270420074462891e-02 -1.128295660018920898e-01 1.253224611282348633e-01 -6.355839967727661133e-02 9.810132533311843872e-02 -1.178256198763847351e-01 -8.334829658269882202e-02 -1.171068474650382996e-01 -1.031238660216331482e-01 2.324326522648334503e-02 7.230339944362640381e-02 3.862696001306176186e-03 -9.486980736255645752e-02 -8.730999380350112915e-02 -5.635194480419158936e-02 8.538489788770675659e-02 6.456977874040603638e-02 2.601723745465278625e-02 -1.250104010105133057e-01 7.431428879499435425e-02 -1.244155988097190857e-01 -1.083453521132469177e-01 8.476025611162185669e-02 -1.035811454057693481e-01 1.169995665550231934e-01 -5.472070351243019104e-02 1.829200983047485352e-02 -6.694556772708892822e-02 7.179234921932220459e-02 -1.118782833218574524e-01 4.335943143814802170e-03 -5.251833796501159668e-02 -2.562686428427696228e-02 8.867000788450241089e-02
-6.012575700879096985e-02 -4.939468204975128174e-02 -1.252583116292953491e-01 1.031369790434837341e-01 -7.195825129747390747e-02 -8.061067014932632446e-02 1.011974141001701355e-01 8.937953412532806396e-02 -1.860849006334319711e-04 3.287065774202346802e-02 -5.996018648147583008e-03 2.194020524621009827e-02 1.000583320856094360e-01 1.019206047058105469e-01 1.194950118660926819e-01 6.173823773860931396e-02 8.700126409530639648e-02 4.546710476279258728e-02 -7.803779095411300659e-02 1.038858368992805481e-01 6.154591962695121765e-02 -9.923270344734191895e-02 8.385165780782699585e-02 3.080811910331249237e-02 -5.735986679792404175e-02 1.097341701388359070e-01 -9.917362034320831299e-02 1.003634110093116760e-01 -1.064967587590217590e-01 5.193781107664108276e-03 -5.465856939554214478e-02 -6.712362915277481079e-02 6.455273181200027466e-02 1.162067577242851257e-01 5.426546558737754822e-02 -1.496085058897733688e-02 6.096061691641807556e-02 1.175491213798522949e-01 1.117925941944122314e-01 -3.716004267334938049e-02 -8.470297604799270630e-02 9.727528691291809082e-02 1.911662518978118896e-02 -4.853305965662002563e-02 1.436772104352712631e-02 -7.292162626981735229e-02 5.832375213503837585e-02 -8.067065477371215820e-02 6.226971372961997986e-02 2.174500375986099243e-02 9.117429703474044800e-02 1.232136562466621399e-01 9.305297583341598511e-02 7.662926614284515381e-02 8.359002321958541870e-02 1.232459768652915955e-01 4.181067924946546555e-03 7.310085743665695190e-02 5.277181416749954224e-02 -2.068950235843658447e-02 5.614287778735160828e-02 1.191532984375953674e-01 -4.154452681541442871e-02
-3.302193060517311096e-02 -1.185702905058860779e-01 4.191587120294570923e-02 9.865115582942962646e-02 8.037892729043960571e-02 3.457095474004745483e-02 1.005962789058685303e-01 9.135290235280990601e-02 -8.124331384897232056e-02 1.098178401589393616e-01 -2.315363287925720215e-02 -6.458012759685516357e-02 -1.132382899522781372e-01 -1.185077354311943054e-01 -3.666707500815391541e-02 1.850009709596633911e-02 2.776075713336467743e-02 -9.267628937959671021e-02 6.529387086629867554e-02 5.036849528551101685e-02 5.022404342889785767e-02 8.813635259866714478e-02 -5.436075851321220398e-02 -2.826564945280551910e-02 -1.229120045900344849e-02 -2.597770653665065765e-02 1.026210263371467590e-01 6.361310184001922607e-02 -1.010317951440811157e-01 -1.108627393841743469e-02 -8.196746930480003357e-04 -1.027338802814483643e-01 -4.264798481017351151e-03 2.500743791460990906e-02 3.185937181115150452e-02 -1.141246929764747620e-01 -9.156407415866851807e-02 1.600951887667179108e-02 2.188063971698284149e-02 -5.453128367662429810e-03 5.085818842053413391e-02 5.967137217521667480e-02 9.078402072191238403e-02 -7.003740221261978149e-02 -6.824941933155059814e-02 -3.403712064027786255e-02 2.817897498607635498e-02 5.937455222010612488e-02 -7.548046112060546875e-02 -3.742698952555656433e-02 4.871385544538497925e-02 -2.305752597749233246e-02 9.122245013713836670e-03 -7.760662585496902466e-02 2.413795888423919678e-02 -7.632777094841003418e-02 4.060450475662946701e-03 -9.765026625245809555e-04 -5.953890737146139145e-03 -6.772124767303466797e-02 9.833302348852157593e-03 1.164050549268722534e-01 4.103005304932594299e-02
9.867361187934875488e-02 -1.137050390243530273e-01 4.834550246596336365e-02 -9.133994579315185547e-02 1.563945226371288300e-02 8.806276135146617889e-03 -6.647793203592300415e-02 -4.533446952700614929e-02 1.095726154744625092e-02 2.896003611385822296e-02 4.854439944028854370e-02 -2.026766352355480194e-02 -1.165305972099304199e-01 -2.115149982273578644e-03 -4.597917571663856506e-02 3.470510244369506836e-02 -8.208888024091720581e-02 -8.597933501005172729e-02 1.103145331144332886e-01 -8.324534446001052856e-02 -5.041416734457015991e-02 2.371322363615036011e-02 -5.609100311994552612e-02 9.292600303888320923e-02 7.631134241819381714e-02 -1.025483384728431702e-01 4.364872723817825317e-02 -5.597610957920551300e-03 -6.262208521366119385e-02 3.751805052161216736e-02 3.476761281490325928e-02 -3.370333835482597351e-02 1.240533664822578430e-01 5.297545716166496277e-02 -8.266769349575042725e-02 -4.548763483762741089e-02 -1.211770698428153992e-01 -6.084474548697471619e-02 7.450632005929946899e-02 -4.686215426772832870e-03 -1.972375251352787018e-02 9.535145945847034454e-03 4.701626300811767578e-02 -3.436723724007606506e-02 3.039101324975490570e-02 -1.232508718967437744e-01 -7.284320890903472900e-02 -3.893253579735755920e-02 -5.501639842987060547e-02 -1.170536205172538757e-01 -3.255700320005416870e-02 -4.833222553133964539e-02 8.067499846220016479e-02 -9.590090066194534302e-02 -1.251168847084045410e-01 1.479418482631444931e-02 -3.603979200124740601e-02 -2.372547797858715057e-02 1.744811050593852997e-02 9.645936638116836548e-02 8.598262071609497070e-02 6.687677651643753052e-02 9.114977717399597168e-02
4.047010093927383423e-02 -1.030791644006967545e-02 1.119941025972366333e-01 7.607890665531158447e-02 4.782599583268165588e-02 1.135477870702743530e-01 -2.816207893192768097e-02 1.640017703175544739e-02 5.580414086580276489e-02 1.914621330797672272e-02 8.690761029720306396e-02 -6.112896371632814407e-03 -4.433441907167434692e-02 1.838221400976181030e-02 -1.093625873327255249e-01 6.687912344932556152e-02 -1.030195131897926331e-01 1.136435009539127350e-02 4.326981306076049805e-02 -5.989293381571769714e-02 6.834892183542251587e-02 3.386519849300384521e-03 -9.734883159399032593e-02 -7.896606624126434326e-02 1.243380382657051086e-01 7.791160047054290771e-02 1.007788628339767456e-02 -1.255611628293991089e-01 -8.119323849678039551e-02 1.055798530578613281e-01 -3.645844757556915283e-02 1.735916733741760254e-02 7.262971252202987671e-02 4.723988100886344910e-02 4.378334432840347290e-02 5.073764827102422714e-03 3.597286716103553772e-02 -2.902765199542045593e-02 -8.401215076446533203e-02 1.143882945179939270e-01 -1.079299300909042358e-01 -1.233332883566617966e-02 -4.683090001344680786e-02 4.748509451746940613e-02 3.262180835008621216e-02 1.395522616803646088e-02 -3.659369423985481262e-02 -5.527556315064430237e-02 -7.258081436157226562e-02 1.074542775750160217e-01 9.136092849075794220e-03 1.308146771043539047e-02 9.779186546802520752e-02 5.125447735190391541e-02 -1.004027277231216431e-01 -1.539336610585451126e-02 5.896051228046417236e-02 -5.886287242174148560e-02 1.226079463958740234e-01 5.579344928264617920e-02 -1.072558015584945679e-01 -7.903937250375747681e-02 -8.681596070528030396e-02
6.881202012300491333e-02 5.926713719964027405e-02 -2.028571628034114838e-02 7.038503885269165039e-02 3.209254145622253418e-02 -5.389994755387306213e-02 -1.121629923582077026e-01 3.612239845097064972e-03 5.718566104769706726e-02 1.133576035499572754e-01 -9.284361451864242554e-02 -1.596516743302345276e-02 -8.686771988868713379e-02 1.223087236285209656e-01 4.570288583636283875e-02 -1.206445768475532532e-01 9.974432736635208130e-02 -3.810246661305427551e-02 1.051686629652976990e-01 7.586262375116348267e-02 1.743303053081035614e-02 -9.780443459749221802e-02 5.949281156063079834e-02 -3.441304340958595276e-02 -7.856052368879318237e-02 -3.375728800892829895e-02 -1.145638618618249893e-02 -1.028687506914138794e-02 -5.102336779236793518e-02 6.867846846580505371e-02 -3.136686980724334717e-02 2.841261029243469238e-02 -1.177531434223055840e-03 1.258569508790969849e-01 9.715820103883743286e-02 3.761322423815727234e-02 -8.567341417074203491e-02 7.588806748390197754e-02 1.879894547164440155e-02 7.325555384159088135e-02 -3.036849945783615112e-02 -1.017775014042854309e-01 -2.154525183141231537e-02 9.337450563907623291e-02 -3.437720984220504761e-02 1.043157503008842468e-01 -7.796284556388854980e-02 -1.180325374007225037e-01 -3.792240470647811890e-02 9.284185618162155151e-02 -1.172838136553764343e-01 -1.279424503445625305e-02 7.472094148397445679e-02 -9.614504873752593994e-02 8.196596754714846611e-04 6.141067296266555786e-02 -1.749423332512378693e-03 -8.797739446163177490e-02 9.728875756263732910e-02 -4.957046359777450562e-02 9.394706785678863525e-02 1.165682226419448853e-01 -2.342051826417446136e-02
-7.944546639919281006e-02 -7.016735523939132690e-02 1.065629050135612488e-01 -3.576590865850448608e-02 -1.126041915267705917e-02 8.466837555170059204e-02 -5.928098410367965698e-02 7.083834707736968994e-02 1.967863552272319794e-02 -9.708350896835327148e-02 -3.359664604067802429e-02 5.008719116449356079e-02 -4.209938645362854004e-02 1.975942216813564301e-02 1.907320693135261536e-02 -4.847444128245115280e-03 7.989650592207908630e-03 -1.135211735963821411e-01 6.542501598596572876e-02 1.035991534590721130e-01 -1.192959770560264587e-01 -2.081774920225143433e-02 -7.429842650890350342e-02 -7.388908416032791138e-02 1.293980889022350311e-02 -1.209124550223350525e-01 2.186389453709125519e-02 2.308954717591404915e-03 5.730774998664855957e-02 6.867945939302444458e-02 -1.057770196348428726e-02 -6.410962343215942383e-02 -4.897167161107063293e-02 -1.056865006685256958e-01 -6.047795340418815613e-02 6.412614602595567703e-03 -9.760709851980209351e-02 8.571080863475799561e-02 1.154972761869430542e-01 1.109798904508352280e-02 -6.750171631574630737e-02 -8.910875767469406128e-02 9.488662704825401306e-03 -2.961638011038303375e-02 -5.866478756070137024e-02 -9.548272937536239624e-03 1.598512870259582996e-03 9.593962132930755615e-02 -7.323198765516281128e-02 6.251946091651916504e-02 6.804535537958145142e-02 4.498012736439704895e-02 -1.144891157746315002e-01 2.460359223186969757e-02 -3.693288192152976990e-02 -7.047191262245178223e-02 -1.284536998718976974e-02 -8.026900142431259155e-02 6.822663545608520508e-02 9.402881562709808350e-02 -3.666346892714500427e-02 -2.011532709002494812e-02 -1.169794052839279175e-01
8.987496793270111084e-02 5.734628997743129730e-03 8.514073491096496582e-02 9.410065412521362305e-02 7.910144329071044922e-02 4.456846043467521667e-03 3.859858959913253784e-02 7.742202281951904297e-02 -1.035584509372711182e-01 4.283807799220085144e-02 9.247518330812454224e-02 -1.068043336272239685e-01 1.171903684735298157e-01 -9.811961092054843903e-03 7.225447893142700195e-02 -2.151836827397346497e-02 -1.236091554164886475e-01 9.467113763093948364e-02 -1.021616160869598389e-01 -1.766481809318065643e-02 -4.226833581924438477e-02 -9.823767095804214478e-02 6.156410649418830872e-02 -7.093607634305953979e-02 -1.289290469139814377e-02 -1.714263926260173321e-04 6.324239820241928101e-02 3.424433618783950806e-02 -6.054104492068290710e-02 -1.019585132598876953e-01 4.656251147389411926e-02 7.076239585876464844e-02 1.084674596786499023e-01 -4.994173347949981689e-02 -2.814228460192680359e-02 -1.005627289414405823e-01 8.763254433870315552e-02 -1.223945692181587219e-01 7.667839527130126953e-02 -1.251938287168741226e-02 2.161822840571403503e-02 -4.571883752942085266e-02 -6.743287201970815659e-03 7.192433625459671021e-02 -1.459106802940368652e-03 4.362617153674364090e-03 1.004046648740768433e-01 8.334410376846790314e-03 1.003215685486793518e-01 -1.100098788738250732e-01 1.200314387679100037e-01 2.489643171429634094e-02 -9.544854611158370972e-02 1.092997044324874878e-01 1.249783709645271301e-01 -1.151171606034040451e-02 -1.320704165846109390e-02 -9.802912920713424683e-02 9.650041349232196808e-03 2.177604846656322479e-02 -9.366694837808609009e-02 3.153530880808830261e-02 1.097726970911026001e-01
-3.226943314075469971e-02 -3.368477523326873779e-02 -5.137082934379577637e-02 1.918343082070350647e-02 4.227830842137336731e-02 6.345687061548233032e-02 -1.211497411131858826e-01 7.638680189847946167e-02 1.713774353265762329e-02 7.038220018148422241e-02 2.703824080526828766e-02 -1.119683310389518738e-01 6.160551682114601135e-02 4.133986309170722961e-02 9.421413391828536987e-02 4.203295707702636719e-02 2.177230827510356903e-02 6.520602852106094360e-02 1.222435086965560913e-01 -4.357450641691684723e-03 1.435432489961385727e-02 -4.822730273008346558e-02 5.471242964267730713e-02 4.166709550190716982e-04 -2.949098683893680573e-02 -5.987259745597839355e-02 -7.367049902677536011e-02 -8.808662742376327515e-02 1.249715089797973633e-01 6.606169790029525757e-02 -5.965910479426383972e-02 7.448384910821914673e-02 9.186469018459320068e-02 5.875637382268905640e-02 -2.055026032030582428e-02 2.553482726216316223e-02 -6.638890132308006287e-03 -9.622908383607864380e-02 -1.084475405514240265e-02 -5.570055544376373291e-02 -3.756983578205108643e-02 7.847447693347930908e-02 1.550764497369527817e-02 1.181049719452857971e-01 5.623774137347936630e-03 -1.212787777185440063e-01 2.102688699960708618e-02 -1.060939058661460876e-01 -7.642296701669692993e-02 8.946868777275085449e-02 6.133718788623809814e-02 -9.077033400535583496e-02 8.744633942842483521e-02 -1.146122142672538757e-01 4.195347800850868225e-02 9.704815596342086792e-02 9.116397053003311157e-02 -1.171529069542884827e-01 -1.133969649672508240e-01 1.771531254053115845e-02 -9.238161146640777588e-05 -3.601604700088500977e-02 8.216065913438796997e-02
-4.689429327845573425e-02 -1.109711527824401855e-01 -6.886642891913652420e-03 8.238230645656585693e-02 1.228543296456336975e-01 7.654182612895965576e-02 6.144068017601966858e-02 1.058652922511100769e-01 1.153290495276451111e-01 1.371646951884031296e-02 -6.098737940192222595e-02 1.245715934783220291e-02 -4.727889969944953918e-02 1.027441099286079407e-01 -1.074828766286373138e-02 4.266780801117420197e-03 7.560957968235015869e-02 2.457504160702228546e-02 7.632541656494140625e-02 -2.050032280385494232e-02 -2.931690216064453125e-02 5.287724547088146210e-03 1.190275475382804871e-01 -4.020462557673454285e-02 -6.181580945849418640e-02 -7.939763367176055908e-02 9.020701795816421509e-02 -6.899745762348175049e-02 1.205889284610748291e-01 -3.139082342386245728e-02 9.378784149885177612e-02 1.227238625288009644e-01 -1.114991977810859680e-01 9.036318957805633545e-02 1.053162738680839539e-01 -1.122031360864639282e-01 6.266921758651733398e-02 8.753589540719985962e-02 -6.766118854284286499e-02 4.182260110974311829e-02 -8.090158551931381226e-02 4.336272180080413818e-02 6.807987391948699951e-02 9.741370379924774170e-02 -1.122135892510414124e-01 -1.235083416104316711e-01 -2.775578526780009270e-03 6.331118941307067871e-02 -1.072032377123832703e-01 -1.030836403369903564e-01 4.113825038075447083e-02 -1.007941830903291702e-02 -8.860842883586883545e-02 -8.101225830614566803e-03 -1.318694557994604111e-02 -8.302606642246246338e-02 -8.705479651689529419e-02 -1.131882146000862122e-01 1.049532964825630188e-01 6.691246293485164642e-03 3.072803840041160583e-02 -5.389431491494178772e-02 -6.164705753326416016e-02
6.311571598052978516e-02 7.023901492357254028e-02 6.178715452551841736e-02 1.851236884249374270e-04 3.626673016697168350e-03 8.491051942110061646e-02 1.647808030247688293e-02 1.172199249267578125e-01 -4.482205584645271301e-02 -3.634705021977424622e-02 9.489355236291885376e-02 -3.547041118144989014e-02 1.016879603266716003e-01 5.677367746829986572e-02 -5.919329077005386353e-02 6.290989369153976440e-02 5.354091897606849670e-02 2.634513005614280701e-02 -1.090222746133804321e-01 1.026677861809730530e-01 8.045375347137451172e-02 -1.247788891196250916e-01 2.850446663796901703e-02 9.424405544996261597e-02 1.396312582073733211e-04 7.092058658599853516e-02 6.670904904603958130e-02 -1.200754195451736450e-01 9.411062300205230713e-02 -8.102310448884963989e-02 -4.080448299646377563e-02 1.178117766976356506e-01 -3.754266351461410522e-02 3.983359783887863159e-02 1.247895210981369019e-01 6.397188454866409302e-02 -6.601794809103012085e-02 -4.138457402586936951e-02 8.054712414741516113e-02 5.581808090209960938e-02 -2.362151816487312317e-02 1.087186187505722046e-01 -5.770654976367950439e-02 -3.591755405068397522e-02 1.967348344624042511e-02 -1.070919036865234375e-01 -3.735620528459548950e-03 -1.131794303655624390e-01 -1.078466624021530151e-01 7.548950612545013428e-02 -7.972877472639083862e-02 -4.772944003343582153e-02 1.171547099947929382e-01 6.125678867101669312e-02 -1.124355290085077286e-02 1.104950308799743652e-01 -6.671066582202911377e-02 9.347259253263473511e-02 -1.213337182998657227e-01 1.253374665975570679e-01 -6.280463188886642456e-02 -8.577938377857208252e-02 6.921485811471939087e-02
2.429496729746460915e-03 -1.448522973805665970e-02 -8.114435523748397827e-02 -5.359609797596931458e-02 -1.125148758292198181e-01 -7.218532264232635498e-02 6.726821511983871460e-02 6.172641878947615623e-04 2.518916688859462738e-02 -1.067798212170600891e-01 7.585861533880233765e-02 -1.950385980308055878e-02 -7.514230906963348389e-02 9.892838075757026672e-03 -6.985080242156982422e-02 -1.009471938014030457e-01 2.473822236061096191e-02 7.230427116155624390e-02 -4.808676987886428833e-02 1.160553395748138428e-01 -5.979555100202560425e-02 2.650177851319313049e-02 -9.467735141515731812e-02 -1.282413303852081299e-02 -5.932976678013801575e-02 -7.122666109353303909e-03 -8.789662271738052368e-02 3.390789777040481567e-02 -2.855568192899227142e-02 -1.163425892591476440e-01 3.954718634486198425e-02 -8.148302882909774780e-02 5.170476064085960388e-02 -1.004099249839782715e-01 -5.192073434591293335e-02 1.047029718756675720e-01 -8.562178909778594971e-02 2.386073954403400421e-02 1.134886592626571655e-02 3.382389619946479797e-02 -6.756072491407394409e-02 1.065550222992897034e-01 -2.564332447946071625e-02 2.208091877400875092e-02 1.033350899815559387e-01 7.142789661884307861e-02 -7.091858983039855957e-02 -5.213080439716577530e-03 -8.519805036485195160e-03 -1.102410331368446350e-01 1.193905100226402283e-01 -2.328528836369514465e-02 -9.329114854335784912e-02 -3.372927755117416382e-02 -4.450294747948646545e-02 -3.295180574059486389e-02 -1.095947399735450745e-01 9.922903031110763550e-02 2.385950833559036255e-02 9.373770654201507568e-02 2.867035008966922760e-02 7.772476226091384888e-02 3.070047870278358459e-02
-7.890191674232482910e-02 -6.058990210294723511e-02 -7.717371731996536255e-02 -6.498844176530838013e-02 2.939482033252716064e-02 9.668125957250595093e-02 -1.940889470279216766e-02 -2.232793485745787621e-03 -6.370786577463150024e-02 8.971534669399261475e-02 4.746472835540771484e-02 9.545536339282989502e-02 -5.868620425462722778e-02 8.817558735609054565e-02 -4.298892989754676819e-02 -1.154066249728202820e-01 -1.040435507893562317e-01 5.949192866683006287e-02 4.630495328456163406e-03 6.792783737182617188e-02 7.346194982528686523e-02 1.113316938281059265e-01 3.099145554006099701e-02 1.010278016328811646e-01 -5.754252523183822632e-02 3.394600003957748413e-02 7.505300641059875488e-02 6.089451909065246582e-02 -7.124242931604385376e-02 -1.958614960312843323e-02 -4.033566452562808990e-03 -1.021688356995582581e-01 8.880063146352767944e-02 4.485230147838592529e-02 -3.722681477665901184e-02 -2.533988095819950104e-02 -4.778536967933177948e-03 8.308646827936172485e-02 -1.526942942291498184e-02 -1.011252030730247498e-02 -1.047426089644432068e-01 -4.978322237730026245e-02 -1.149760112166404724e-01 1.118654385209083557e-01 -6.050450354814529419e-02 -9.681954979896545410e-02 1.144782081246376038e-01 -6.057309731841087341e-02 6.466916948556900024e-02 -6.998833268880844116e-02 -4.110920056700706482e-02 -3.050269372761249542e-02 -7.589277625083923340e-02 8.512148261070251465e-02 3.305334970355033875e-02 1.070169918239116669e-02 1.817305944859981537e-02 5.642154067754745483e-02 -7.728002220392227173e-02 2.169369906187057495e-02 -7.589172571897506714e-02 -1.132234232500195503e-03 7.851911359466612339e-04
-1.140064075589179993e-01 6.065325438976287842e-02 5.951301380991935730e-02 -1.206482127308845520e-01 -1.143852472305297852e-01 4.662851989269256592e-02 8.434467017650604248e-03 -6.107657775282859802e-02 -1.044738292694091797e-01 1.569066569209098816e-02 -1.697983359917998314e-03 4.415100812911987305e-02 5.078636854887008667e-02 4.412521794438362122e-02 -4.350887145847082138e-03 2.598988637328147888e-02 -5.377282854169607162e-03 -3.930446505546569824e-02 2.351899817585945129e-02 8.063753694295883179e-02 -4.203104972839355469e-02 -5.184691771864891052e-02 -2.791147306561470032e-02 -1.049425378441810608e-01 3.272562101483345032e-02 -1.085237935185432434e-01 7.368811964988708496e-02 -6.146274507045745850e-02 -7.174602895975112915e-02 -9.843784570693969727e-02 -7.120954990386962891e-02 1.239052936434745789e-01 -1.393864513374865055e-03 -4.534297063946723938e-02 -6.114656478166580200e-02 6.062055751681327820e-02 1.002843827009201050e-01 7.397377863526344299e-03 -8.426696062088012695e-02 -2.518338337540626526e-02 2.081121504306793213e-02 2.473721653223037720e-02 7.697661966085433960e-02 2.325772866606712341e-02 -9.152332693338394165e-02 3.619831800460815430e-02 -6.962837278842926025e-02 -6.585455685853958130e-02 5.282026529312133789e-02 2.178044803440570831e-02 3.651793673634529114e-02 -9.470520913600921631e-02 1.073537096381187439e-01 -1.146904006600379944e-01 -7.517784833908081055e-03 4.867414757609367371e-02 -1.159771010279655457e-01 8.902289718389511108e-02 4.948282614350318909e-02 4.040610417723655701e-02 -1.254412084817886353e-01 -1.135614514350891113e-01 8.454293757677078247e-02
-1.086920201778411865e-01 8.313626050949096680e-02 -7.583031803369522095e-02 -7.528311759233474731e-02 8.796738833189010620e-02 -1.120026037096977234e-01 9.537789970636367798e-02 1.102740615606307983e-01 1.015762984752655029e-01 -7.977806776762008667e-02 -1.056450232863426208e-01 4.097418114542961121e-02 -9.082586318254470825e-02 1.035010069608688354e-01 5.825735256075859070e-02 -1.863744668662548065e-02 -9.805519133806228638e-02 -6.608113646507263184e-02 5.579603090882301331e-02 -2.062185667455196381e-02 8.653345704078674316e-02 -1.584213227033615112e-02 -1.047286391258239746e-01 1.066518202424049377e-01 -9.180361032485961914e-02 1.688025891780853271e-02 5.838525667786598206e-02 1.079230979084968567e-01 8.355054259300231934e-02 -8.303061872720718384e-02 -1.254111081361770630e-01 -1.801989623345434666e-03 3.082126006484031677e-02 -2.083928510546684265e-02 -1.982586644589900970e-02 -3.629388287663459778e-02 -2.867126651108264923e-02 1.115267872810363770e-01 -2.327094413340091705e-02 -1.100749671459197998e-01 -1.314080785959959030e-02 -9.439083188772201538e-02 1.679214090108871460e-02 -8.825492858886718750e-02 -5.307450518012046814e-02 -3.926702216267585754e-02 8.067445456981658936e-02 1.234025228768587112e-02 3.992387652397155762e-02 -8.564466238021850586e-02 7.252377271652221680e-02 -1.028826609253883362e-01 1.266473671421408653e-03 1.108986213803291321e-01 -7.296450436115264893e-03 3.912660852074623108e-02 1.481711864471435547e-02 1.662615314126014709e-02 -4.343638941645622253e-02 1.117291226983070374e-01 4.281454603187739849e-04 -5.051817372441291809e-02 7.421768456697463989e-02
5.402380973100662231e-02 5.947447568178176880e-02 -1.015550717711448669e-01 3.443164005875587463e-02 2.846392989158630371e-02 1.415811665356159210e-02 -5.256174504756927490e-02 3.862039744853973389e-02 4.758863523602485657e-02 2.667096629738807678e-02 1.162082776427268982e-01 8.293686807155609131e-02 8.087318390607833862e-03 -1.108349859714508057e-01 -7.880498468875885010e-02 2.261299453675746918e-02 4.653649777173995972e-02 1.657151244580745697e-02 -1.238377243280410767e-01 -2.449279651045799255e-02 -8.586724847555160522e-02 -1.742247305810451508e-02 -1.100209876894950867e-01 -8.134200423955917358e-02 1.198269873857498169e-01 1.921864971518516541e-02 -5.440275371074676514e-02 -2.620216459035873413e-02 -5.952313542366027832e-02 -6.970497220754623413e-02 1.554304547607898712e-02 -7.636314257979393005e-03 -7.109671831130981445e-02 -8.615557849407196045e-02 -3.478984162211418152e-02 4.845423996448516846e-02 9.024714678525924683e-02 6.257551163434982300e-02 -1.141040921211242676e-01 -1.101609244942665100e-01 8.442337065935134888e-02 -1.136296093463897705e-01 -1.210724189877510071e-01 2.426446415483951569e-02 5.729312077164649963e-03 -4.186675697565078735e-02 9.299371391534805298e-02 9.414817392826080322e-02 4.207157343626022339e-02 1.204379424452781677e-01 -1.926918886601924896e-02 6.628974527120590210e-02 -7.251603528857231140e-03 -8.634456247091293335e-02 -5.013278871774673462e-02 5.711604841053485870e-03 1.029078736901283264e-01 -1.165100634098052979e-01 1.885008439421653748e-02 3.379148617386817932e-02 4.828129708766937256e-02 -7.383201271295547485e-02 -1.217317953705787659e-01
-8.850859850645065308e-02 -7.886133342981338501e-02 9.415751695632934570e-02 5.098903551697731018e-02 -4.511525481939315796e-02 8.974012732505798340e-02 1.253750920295715332e-01 -5.540014803409576416e-02 -1.331405155360698700e-02 3.505217656493186951e-02 -4.175411537289619446e-02 -1.971404999494552612e-02 6.869553029537200928e-02 6.259814649820327759e-02 -7.928312756121158600e-03 -9.315160661935806274e-02 1.682709157466888428e-02 -7.588104903697967529e-02 7.230733335018157959e-02 6.416699616238474846e-04 9.759254753589630127e-02 -1.069847568869590759e-01 -5.607811734080314636e-02 -1.053290218114852905e-01 9.059375524520874023e-02 7.480867952108383179e-02 -6.581019610166549683e-02 -2.337061055004596710e-02 1.713505387306213379e-02 5.181690794415771961e-04 8.663367480039596558e-02 5.076923221349716187e-02 -1.121563091874122620e-01 4.786094650626182556e-02 -1.706372946500778198e-02 8.830343931913375854e-02 -1.204268336296081543e-01 -6.288002245128154755e-03 -1.097003817558288574e-01 -5.598010495305061340e-02 1.259854584932327271e-01 9.629860520362854004e-02 9.615888446569442749e-02 3.069289401173591614e-02 -5.155953019857406616e-02 6.728386878967285156e-02 -6.414448469877243042e-02 7.371287047863006592e-02 -2.617798373103141785e-02 9.554160386323928833e-02 -3.492829948663711548e-02 7.536271214485168457e-02 -9.759089350700378418e-02 -1.056208536028862000e-01 6.693436205387115479e-02 -8.937317878007888794e-02 3.511479124426841736e-02 -1.466134190559387207e-02 -1.197398006916046143e-01 -7.884296774864196777e-02 2.184387296438217163e-02 -2.720744349062442780e-02 1.914571737870573997e-03
5.088002420961856842e-03 -7.559402287006378174e-02 -6.727100908756256104e-02 -2.189058344811201096e-03 1.015272140502929688e-01 9.404189884662628174e-02 -7.941799610853195190e-02 9.378333389759063721e-02 -9.414548426866531372e-02 7.967977970838546753e-02 3.959508240222930908e-02 1.178638935089111328e-01 1.031997427344322205e-01 1.435166574083268642e-03 3.665106371045112610e-02 2.756663784384727478e-02 8.221304416656494141e-02 2.441277727484703064e-02 5.435607582330703735e-02 -1.022058427333831787e-01 -1.123648211359977722e-01 5.111929401755332947e-02 2.203350327908992767e-02 2.529458515346050262e-02 2.928561717271804810e-02 -8.990615606307983398e-02 1.505063381046056747e-02 1.110894531011581421e-01 -2.947290427982807159e-03 -1.062965765595436096e-01 1.161972954869270325e-01 2.068684250116348267e-02 -4.087989404797554016e-02 -4.452732205390930176e-02 2.205603197216987610e-02 5.279934406280517578e-02 7.028321176767349243e-02 -1.122846156358718872e-01 4.329711943864822388e-02 -2.262102998793125153e-02 1.204238981008529663e-01 -6.913327425718307495e-02 4.167624190449714661e-02 6.932751089334487915e-02 -1.173318773508071899e-01 2.726365998387336731e-02 1.070176213979721069e-01 1.199467629194259644e-01 -7.290900498628616333e-02 7.903955131769180298e-02 -1.177321001887321472e-01 -2.074055001139640808e-02 -1.284721679985523224e-02 -9.342665970325469971e-02 6.413692981004714966e-02 8.050762861967086792e-02 8.148478716611862183e-02 7.671629637479782104e-02 -8.645944297313690186e-02 3.656538203358650208e-02 -1.185834035277366638e-01 -2.650186792016029358e-02 1.190524920821189880e-01
