-2.589704841375350952e-02
2.777122519910335541e-02
1.972022466361522675e-02
6.371189653873443604e-02
-5.684528499841690063e-02
4.126051813364028931e-02
-3.653289005160331726e-02
-2.441632002592086792e-02
-8.919049054384231567e-03
-2.797214873135089874e-02
-5.476890597492456436e-03
2.664144523441791534e-02
-6.393399089574813843e-03
-2.435228088870644569e-03
3.648887202143669128e-02
-2.140052616596221924e-02
6.221141666173934937e-02
6.802774965763092041e-02
5.889304354786872864e-02
2.627388387918472290e-02
-2.786937728524208069e-02
1.818510121665894985e-03
6.868138164281845093e-02
1.432163454592227936e-02
1.302334293723106384e-02
-6.836534291505813599e-02
-6.729730218648910522e-02
4.080611839890480042e-02
-6.612188369035720825e-02
-2.538571320474147797e-02
9.195549413561820984e-03
6.750576663762331009e-03
-2.291961759328842163e-02
-1.387847773730754852e-02
5.882633849978446960e-02
-6.709992140531539917e-02
1.090734358876943588e-02
2.205751277506351471e-02
-5.565811879932880402e-03
2.424333244562149048e-02
-3.811986371874809265e-02
-4.149736836552619934e-03
-6.805577874183654785e-02
-2.141330577433109283e-02
-7.049022614955902100e-02
5.759713426232337952e-02
4.340071231126785278e-02
2.717896178364753723e-02
6.887164711952209473e-02
5.001083016395568848e-02
5.450551211833953857e-02
4.205689206719398499e-02
2.532616816461086273e-02
-3.579346463084220886e-03
5.578774586319923401e-02
2.930977195501327515e-02
4.058512300252914429e-02
1.250328496098518372e-02
-4.768326180055737495e-04
1.661412790417671204e-02
3.099348768591880798e-02
6.664071977138519287e-02
2.872809395194053650e-02
6.116141751408576965e-02
2.844006195664405823e-02
7.030693348497152328e-03
6.356621626764535904e-03
-6.949082762002944946e-02
-5.654620379209518433e-02
2.477019280195236206e-02
2.507118135690689087e-02
3.961158916354179382e-02
2.612695097923278809e-02
1.409584539942443371e-03
-2.984458953142166138e-02
-2.592668496072292328e-02
6.778882350772619247e-03
6.675246357917785645e-02
2.543999068439006805e-02
-7.018657028675079346e-02
1.612780429422855377e-02
-2.823813632130622864e-02
3.260986879467964172e-02
-1.616158895194530487e-02
-6.098607927560806274e-02
-4.199415072798728943e-02
1.686025783419609070e-02
-6.902913004159927368e-02
2.660401863977313042e-03
-5.684623960405588150e-03
-5.930600315332412720e-02
5.352270789444446564e-03
6.087164208292961121e-02
2.190887741744518280e-02
-5.756761506199836731e-02
-7.622198667377233505e-03
5.769814550876617432e-02
4.370163008570671082e-02
6.046345829963684082e-02
-5.676734820008277893e-02
5.940321087837219238e-02
9.301008656620979309e-03
4.303662106394767761e-02
-1.290384028106927872e-02
6.911244243383407593e-02
-1.608500070869922638e-02
-2.677871845662593842e-02
6.899587064981460571e-02
1.982427760958671570e-02
8.396841585636138916e-03
4.103859141469001770e-02
4.102536663413047791e-02
-6.712292134761810303e-02
-4.710813984274864197e-02
-1.253201160579919815e-02
-1.107226405292749405e-02
4.673192277550697327e-02
4.989603906869888306e-02
-5.013159662485122681e-02
3.228310495615005493e-02
1.797572523355484009e-02
6.982009112834930420e-02
-2.187660150229930878e-02
-2.764127776026725769e-02
5.921175703406333923e-02
-3.521056473255157471e-02
-2.326883003115653992e-02
-6.079971417784690857e-02
-2.077830396592617035e-02
-6.213362142443656921e-02
7.754051126539707184e-03
-3.004016820341348648e-03
6.374363601207733154e-02
4.414900392293930054e-02
-1.421110890805721283e-02
6.554561853408813477e-02
-4.469698667526245117e-02
-2.096214145421981812e-02
-2.356552705168724060e-02
8.335534483194351196e-03
6.465832889080047607e-02
5.091828294098377228e-03
1.544686313718557358e-02
-6.647999584674835205e-02
6.014810875058174133e-02
-4.669775068759918213e-02
6.986691616475582123e-03
8.695451542735099792e-03
-6.669460795819759369e-03
-1.150380540639162064e-02
3.627341613173484802e-02
-6.958536803722381592e-02
3.183573484420776367e-02
-3.628802672028541565e-02
-7.070465385913848877e-02
5.034716054797172546e-02
6.545852124691009521e-02
-3.902177140116691589e-02
-3.914785105735063553e-03
1.063392031937837601e-02
-6.770426779985427856e-02
-4.178733751177787781e-02
4.293344542384147644e-02
3.025385318323969841e-03
-5.372839048504829407e-02
6.064794212579727173e-02
-2.175517566502094269e-02
-3.799610957503318787e-02
1.729669608175754547e-02
-3.066021576523780823e-02
-2.126514352858066559e-02
4.702652990818023682e-02
3.927052021026611328e-02
5.980969220399856567e-02
-2.647541277110576630e-02
6.745771970599889755e-04
2.414110861718654633e-02
5.815142393112182617e-02
6.828516721725463867e-02
2.036773599684238434e-02
3.029394149780273438e-02
-5.722416937351226807e-02
-4.774711281061172485e-02
6.643066555261611938e-02
-1.373312994837760925e-02
-5.045271292328834534e-02
-4.434234648942947388e-02
4.371166229248046875e-02
-3.240469098091125488e-02
5.818403139710426331e-02
-1.964763924479484558e-02
3.925457224249839783e-02
2.323662862181663513e-02
-3.992453217506408691e-02
5.590018630027770996e-02
6.940966099500656128e-02
6.487911194562911987e-02
-4.503669217228889465e-03
-2.918375283479690552e-02
4.250259697437286377e-02
