-1.969203352928161621e-01 4.022115841507911682e-03 -1.174384430050849915e-01 2.621393799781799316e-01 8.554082363843917847e-02 8.840448409318923950e-02 6.205950677394866943e-02 -1.083520650863647461e-01 -1.085698753595352173e-01 6.537298113107681274e-02 3.456744598224759102e-03 -1.498920619487762451e-01 9.677431732416152954e-02 1.808284968137741089e-01 -4.409931134432554245e-03 2.219975367188453674e-02 -2.706046402454376221e-02 -2.842874964699149132e-03 2.997711598873138428e-01 -7.889753580093383789e-02 -1.211544349789619446e-01 -4.403125345706939697e-01 1.116100605577230453e-02 7.137833535671234131e-02 2.277386337518692017e-01 -4.490652680397033691e-02 -3.828386962413787842e-02 6.159985810518264771e-02 2.280947715044021606e-01 8.112303912639617920e-03 -1.937921717762947083e-02 -5.051091685891151428e-02 1.354802586138248444e-02 8.600776642560958862e-02 2.285036742687225342e-01 -1.983201801776885986e-01 -4.521517083048820496e-02 -1.006528660655021667e-01 2.227120250463485718e-01 2.320263907313346863e-02 1.351604312658309937e-01 -5.660822987556457520e-02 -1.413175314664840698e-01 -9.027093648910522461e-02 -1.826026663184165955e-02 6.877711415290832520e-02 8.978208899497985840e-02 -7.788027077913284302e-02 5.065979436039924622e-02 5.370768159627914429e-02 -1.371325254440307617e-01 1.661560535430908203e-01 -1.157936230301856995e-01 2.214174717664718628e-02 -3.569755330681800842e-02 -5.893856287002563477e-02 1.704640984535217285e-01 -3.450360894203186035e-01 -2.745481394231319427e-02 3.173991143703460693e-01 9.016685932874679565e-02 -1.097981259226799011e-01 9.976615011692047119e-02 -6.787277013063430786e-02 1.503215432167053223e-01 -3.073683679103851318e-01 -3.080515265464782715e-01 1.726714223623275757e-01 1.819363608956336975e-02 -1.885133422911167145e-02 -1.307794265449047089e-02 -6.130809336900711060e-02 1.275500953197479248e-01 2.030716463923454285e-02 -5.085680633783340454e-02 -1.708326935768127441e-01 6.812871247529983521e-02 8.935984969139099121e-02 -2.853137673810124397e-03 2.151343971490859985e-01 1.389149762690067291e-02 6.191769614815711975e-02 -3.663195073604583740e-01 1.989377737045288086e-01 2.538436353206634521e-01 -1.235669404268264771e-01 -2.547197937965393066e-01 2.008562237024307251e-01 -2.010447531938552856e-01 -2.806355804204940796e-02 2.277601212263107300e-01 -7.034504669718444347e-04 -2.583859264850616455e-01 8.556208014488220215e-02 -5.754637345671653748e-02 -1.525041311979293823e-01 3.406208455562591553e-01 -4.489358887076377869e-02 -3.462513536214828491e-02 1.055148765444755554e-01
-5.585258081555366516e-02 7.690262049436569214e-02 1.088085100054740906e-01 2.266139239072799683e-01 -7.904020696878433228e-02 1.733987219631671906e-02 -7.804516702890396118e-02 1.251072809100151062e-02 3.033840060234069824e-01 4.939311183989048004e-04 4.695937968790531158e-03 -7.886791601777076721e-03 -3.198466449975967407e-02 3.963210433721542358e-02 -5.690646171569824219e-02 -3.475363552570343018e-02 -2.465791627764701843e-02 8.399085700511932373e-02 4.732500761747360229e-02 1.014650613069534302e-01 1.647856645286083221e-02 1.815801113843917847e-01 9.823281317949295044e-02 2.818856947124004364e-02 -1.146179512143135071e-01 6.059569865465164185e-02 -3.942638263106346130e-02 5.212111398577690125e-02 4.543920047581195831e-03 -1.098793279379606247e-02 8.256144938059151173e-04 -1.610435545444488525e-01 1.342058368027210236e-02 1.916974037885665894e-02 -5.741270259022712708e-02 -7.473947852849960327e-02 1.106686815619468689e-01 1.368774622678756714e-01 -8.951037377119064331e-02 -3.247039392590522766e-02 2.565764635801315308e-02 3.549261018633842468e-02 -3.388541191816329956e-02 2.510862424969673157e-03 -7.079309225082397461e-02 -8.079838007688522339e-02 1.179931219667196274e-02 9.218033403158187866e-02 2.277446538209915161e-02 3.054720349609851837e-02 -1.808723434805870056e-02 7.551068440079689026e-03 -4.602753743529319763e-02 2.928803861141204834e-02 2.610650472342967987e-02 -5.742199253290891647e-03 1.312070488929748535e-01 4.940789565443992615e-02 -9.237992763519287109e-02 2.441262453794479370e-02 7.408155500888824463e-02 -4.834235459566116333e-02 -4.970340989530086517e-03 -6.407029181718826294e-02 5.526560917496681213e-02 1.121116578578948975e-01 2.498524077236652374e-02 9.267339482903480530e-03 6.361450999975204468e-02 -6.744150072336196899e-02 8.327674120664596558e-02 3.687662631273269653e-02 1.937868632376194000e-02 7.786272559314966202e-03 -7.408847659826278687e-02 -1.199497375637292862e-02 -1.605790480971336365e-02 4.449123516678810120e-03 -6.825800240039825439e-02 -1.024056598544120789e-01 -1.968194544315338135e-02 -4.138890653848648071e-02 2.302136868238449097e-01 2.600157856941223145e-01 1.920867711305618286e-02 3.584209084510803223e-02 1.172486990690231323e-01 2.573722898960113525e-01 -1.231889650225639343e-01 -1.411441899836063385e-02 -1.994455046951770782e-02 2.738822437822818756e-02 1.020830720663070679e-01 3.223719447851181030e-02 -4.328029975295066833e-02 1.285316236317157745e-02 2.597208321094512939e-01 1.845322363078594208e-02 6.415672600269317627e-02 3.388915956020355225e-02
5.987769924104213715e-03 4.428744316101074219e-02 -6.796104460954666138e-02 8.919672667980194092e-02 1.348566822707653046e-02 -1.297519207000732422e-01 2.416366711258888245e-02 2.645758092403411865e-01 6.958179175853729248e-03 8.637988008558750153e-03 -7.569921016693115234e-02 2.105044759809970856e-02 -1.999706402420997620e-02 2.015485800802707672e-02 1.755235344171524048e-02 -6.852301955223083496e-02 6.575661152601242065e-02 1.190809607505798340e-01 -5.859324336051940918e-02 -4.752846434712409973e-02 -1.181221008300781250e-01 -1.784492284059524536e-01 1.513435039669275284e-02 1.516418308019638062e-01 -1.118759904056787491e-02 -7.088740915060043335e-02 4.676525294780731201e-02 -3.513423725962638855e-02 -2.773893438279628754e-02 -2.664276361465454102e-01 -2.160335192456841469e-03 -3.604174777865409851e-02 1.223063096404075623e-01 -3.647938370704650879e-02 -3.374822437763214111e-01 6.312593817710876465e-02 -3.071014070883393288e-03 1.441912502050399780e-01 -7.444607466459274292e-02 -1.189301460981369019e-01 1.599998474121093750e-01 -1.536856056191027164e-03 -3.042668476700782776e-02 -2.906962484121322632e-02 8.684618026018142700e-02 4.439007863402366638e-02 7.349717617034912109e-02 2.513895370066165924e-02 -5.699827149510383606e-02 -3.352071344852447510e-01 3.320216760039329529e-02 -1.221448183059692383e-01 -1.411312445998191833e-02 2.650929093360900879e-01 6.229368597269058228e-02 -6.847795099020004272e-02 -8.529353141784667969e-02 2.481603249907493591e-02 -1.087424904108047485e-01 1.583247631788253784e-01 2.213683351874351501e-02 1.098432391881942749e-01 6.046593189239501953e-02 1.146117672324180603e-01 2.535972930490970612e-02 6.523828208446502686e-02 -1.565461419522762299e-02 -2.689862623810768127e-02 5.975917447358369827e-03 -9.521050006151199341e-02 -2.491701766848564148e-02 -2.082646824419498444e-02 -2.354277223348617554e-01 6.585632264614105225e-02 3.274900615215301514e-01 7.246647030115127563e-02 -3.712172061204910278e-02 1.657551079988479614e-01 -1.484332233667373657e-01 -4.841471090912818909e-02 2.665985934436321259e-02 -4.958492144942283630e-02 4.689083993434906006e-02 -4.214845225214958191e-02 2.732872962951660156e-02 -1.562533229589462280e-01 6.121378391981124878e-02 -5.679506808519363403e-02 -9.582792967557907104e-02 -2.995579242706298828e-01 6.812632549554109573e-03 -6.835717678070068359e+00 -4.820181522518396378e-03 -1.469843089580535889e-01 -6.790232844650745392e-03 4.797601699829101562e-02 -8.201488107442855835e-02 5.676062777638435364e-02 -7.176266610622406006e-02 -5.928421020507812500e-01
-1.196310594677925110e-01 -5.070339143276214600e-02 4.631079360842704773e-02 -3.542743995785713196e-02 -5.879264324903488159e-02 -1.097186580300331116e-01 -9.653599560260772705e-02 -1.055730357766151428e-01 -1.097292266786098480e-02 -1.105248183012008667e-01 -8.488353341817855835e-02 5.847772955894470215e-02 -4.376024473458528519e-03 -1.555113941431045532e-01 -4.708029702305793762e-02 -7.291732728481292725e-02 1.816070638597011566e-02 -2.755155041813850403e-02 -1.114532575011253357e-01 -1.305042356252670288e-01 -7.270389236509799957e-03 -9.909179806709289551e-02 4.352622199803590775e-03 -8.477561175823211670e-02 5.524483509361743927e-03 -1.226051598787307739e-01 5.282746627926826477e-03 -1.019818410277366638e-01 -1.710368543863296509e-01 -3.258243948221206665e-02 -3.531458228826522827e-02 1.411297265440225601e-02 -5.916110798716545105e-02 2.787295728921890259e-03 -1.031204387545585632e-01 -5.809542536735534668e-02 2.371033094823360443e-02 -5.795586109161376953e-02 3.895558044314384460e-02 -1.137370765209197998e-01 5.077724810689687729e-03 8.187636733055114746e-03 -2.884688787162303925e-03 -6.289286166429519653e-02 -1.157750412821769714e-01 -1.260018348693847656e-01 -1.204307749867439270e-01 -1.074190065264701843e-01 -5.931283533573150635e-02 -5.754525214433670044e-02 8.091834373772144318e-03 3.035448305308818817e-02 -7.489469368010759354e-03 -8.991722017526626587e-02 -6.310792639851570129e-03 -3.641894459724426270e-02 2.317253500223159790e-03 -1.080941781401634216e-01 -1.277664676308631897e-02 -2.788583561778068542e-02 -1.440957933664321899e-01 -3.632951155304908752e-02 -6.350510288029909134e-03 -9.395082294940948486e-02 3.519181394949555397e-03 -6.308369804173707962e-03 -6.861510872840881348e-02 1.112566143274307251e-02 2.823276072740554810e-02 -8.849460631608963013e-02 2.320043928921222687e-02 -2.483166195452213287e-02 4.270116239786148071e-02 -5.494543910026550293e-02 1.201791805215179920e-03 1.234386209398508072e-02 -4.024107009172439575e-02 9.359007701277732849e-03 -4.966522008180618286e-02 -1.114884689450263977e-01 -8.130902796983718872e-02 -7.693016529083251953e-02 -1.741907745599746704e-02 -1.119239926338195801e-01 4.381719976663589478e-03 6.136839464306831360e-02 -2.348885871469974518e-02 1.872043684124946594e-02 -9.666270017623901367e-02 -6.963041145354509354e-03 -1.200648173689842224e-01 -7.304762303829193115e-02 -1.065141335129737854e-01 -5.105130374431610107e-02 -3.592050820589065552e-02 -8.148241043090820312e-02 1.498426683247089386e-02 -7.289837300777435303e-02 -1.025994122028350830e-01 -5.036853253841400146e-02
-2.533735148608684540e-02 2.195384502410888672e-01 1.379127427935600281e-02 2.905678451061248779e-01 7.490334659814834595e-02 8.647798001766204834e-02 9.082294255495071411e-02 1.040398404002189636e-01 1.234229188412427902e-02 4.177628085017204285e-02 1.701060868799686432e-02 5.032161250710487366e-02 1.103126257658004761e-02 -3.413760801777243614e-03 1.467589437961578369e-01 -3.205570578575134277e-02 2.809341065585613251e-02 8.491272479295730591e-02 -3.699314966797828674e-02 1.479389816522598267e-01 -6.808473169803619385e-02 1.672230288386344910e-02 2.148009371012449265e-03 -9.305100888013839722e-03 -9.336807765066623688e-03 -5.072504654526710510e-02 1.264948099851608276e-01 2.759229764342308044e-02 -6.564828567206859589e-03 3.538927063345909119e-02 3.760548308491706848e-02 -1.272280514240264893e-01 7.792193442583084106e-03 -2.165922336280345917e-02 1.164763607084751129e-02 -5.296600610017776489e-02 2.686742879450321198e-02 2.673887880519032478e-03 1.039185374975204468e-01 3.139969110488891602e-01 -4.130207002162933350e-02 4.880182072520256042e-02 -3.933866694569587708e-02 1.943719759583473206e-02 -7.719533890485763550e-02 -6.139275804162025452e-02 2.712546661496162415e-02 6.225463375449180603e-02 9.495265781879425049e-03 -1.202166900038719177e-01 6.793719530105590820e-02 2.927779965102672577e-02 4.350271448493003845e-02 2.758702822029590607e-02 -7.245705276727676392e-02 -3.334239870309829712e-02 -6.234429404139518738e-02 5.157517641782760620e-02 2.667688764631748199e-02 2.020962685346603394e-01 -7.859759032726287842e-02 2.750733494758605957e-02 2.286852523684501648e-02 4.197105765342712402e-03 2.660106867551803589e-02 9.636070579290390015e-02 -7.056040316820144653e-02 1.107027903199195862e-01 -2.398262545466423035e-02 -6.660592276602983475e-03 -5.499350279569625854e-02 4.593481309711933136e-03 1.007156297564506531e-01 1.549016591161489487e-02 2.464778348803520203e-02 4.403191618621349335e-03 3.575957939028739929e-02 9.150171279907226562e-02 4.257307201623916626e-02 8.028779923915863037e-02 7.231268566101789474e-03 -4.259138926863670349e-02 9.980598837137222290e-02 1.061669290065765381e-01 8.858415484428405762e-02 7.789623737335205078e-02 2.226958051323890686e-02 2.408637292683124542e-02 -3.731339005753397942e-03 2.129816822707653046e-02 -2.735646069049835205e-02 -3.354512527585029602e-02 -6.830836180597543716e-03 4.874509572982788086e-02 1.763378619216382504e-03 -6.306927651166915894e-02 6.053356081247329712e-02 2.258777618408203125e-02 1.065404787659645081e-01 -5.668908730149269104e-02
6.464092433452606201e-02 -5.379547947086393833e-04 1.738677918910980225e-02 -2.705860324203968048e-02 2.535670064389705658e-02 4.267826303839683533e-02 1.309625059366226196e-01 5.242799222469329834e-02 -2.545733004808425903e-02 6.343269255012273788e-03 -3.380708396434783936e-02 -9.789119474589824677e-03 4.590029269456863403e-02 9.017018601298332214e-03 -1.464418973773717880e-02 1.905934512615203857e-02 -1.965809985995292664e-02 2.438626810908317566e-02 4.238476045429706573e-03 1.647069305181503296e-02 -9.564037621021270752e-02 3.860704973340034485e-02 -3.225303068757057190e-02 6.082984060049057007e-02 -6.616961210966110229e-02 6.601126492023468018e-02 -3.817370161414146423e-02 3.244569897651672363e-02 2.489751018583774567e-02 -5.962531641125679016e-02 -9.730594605207443237e-02 -6.051815301179885864e-02 3.270094841718673706e-02 -9.863870590925216675e-02 -7.549021393060684204e-02 -3.172854706645011902e-02 1.350186616182327271e-01 -2.289971522986888885e-02 2.606004104018211365e-02 -3.485167771577835083e-02 7.135172933340072632e-02 5.167600512504577637e-02 1.977200619876384735e-02 1.720083132386207581e-02 -1.079876869916915894e-01 9.776314720511436462e-03 -5.893761292099952698e-02 5.844360962510108948e-02 -5.301367864012718201e-02 -3.103275895118713379e-01 5.226764827966690063e-02 1.728640794754028320e-01 2.401657961308956146e-02 -7.088296115398406982e-02 -5.210337415337562561e-02 8.358129113912582397e-02 -1.963400281965732574e-02 6.767234951257705688e-02 -6.515311449766159058e-02 -4.181471839547157288e-02 -3.335268795490264893e-02 -7.157050073146820068e-02 -9.583463519811630249e-02 1.746989786624908447e-01 -2.987004444003105164e-02 -6.288650631904602051e-02 -4.948356002569198608e-02 3.962337225675582886e-02 -4.928962886333465576e-02 3.611069172620773315e-02 3.245874075219035149e-03 -2.239205176010727882e-03 -2.550034085288643837e-03 8.669620007276535034e-02 -1.106431409716606140e-01 2.443850971758365631e-03 1.358311325311660767e-01 3.637284412980079651e-02 5.747449398040771484e-02 -7.739603519439697266e-02 3.744231536984443665e-02 1.891946885734796524e-03 7.285209838300943375e-03 3.039742633700370789e-02 3.295700624585151672e-02 -3.007987327873706818e-02 -1.908798329532146454e-02 2.914568223059177399e-02 1.802143268287181854e-02 -1.226630248129367828e-02 3.315254300832748413e-02 6.737469136714935303e-02 -4.903531167656183243e-03 9.122102707624435425e-02 5.343988910317420959e-02 -8.186983317136764526e-02 -5.878586089238524437e-04 -1.332246512174606323e-02 4.907470941543579102e-02 4.478710889816284180e-02
3.199614286422729492e-01 -4.099531844258308411e-02 1.528884619474411011e-01 1.134594678878784180e-01 6.685265153646469116e-02 -9.476109594106674194e-02 1.111669018864631653e-01 3.918146714568138123e-02 1.840164065361022949e-01 2.902019955217838287e-02 2.097665332257747650e-02 -6.257364153861999512e-02 4.408626258373260498e-02 1.680457890033721924e-01 3.119985163211822510e-01 2.098681218922138214e-02 2.299225181341171265e-01 -1.238058954477310181e-01 9.982766956090927124e-02 1.522515267133712769e-01 1.384490430355072021e-01 2.281120792031288147e-02 1.687905639410018921e-01 -3.300741314888000488e-02 -8.383154124021530151e-02 1.227368637919425964e-01 -3.306559100747108459e-02 7.205642759799957275e-02 1.038868427276611328e-01 7.191144675016403198e-02 4.248212277889251709e-02 -3.798187524080276489e-02 -8.925184607505798340e-03 -3.611791506409645081e-02 1.733381859958171844e-02 -2.378346631303429604e-03 3.131553996354341507e-03 -5.683245882391929626e-02 -7.994868792593479156e-03 1.876804530620574951e-01 2.815982699394226074e-02 7.165983319282531738e-02 -2.822665125131607056e-02 -8.231849409639835358e-03 -4.756893031299114227e-03 -9.778733551502227783e-02 -8.375728130340576172e-02 -4.222653061151504517e-02 -5.230468884110450745e-02 -4.792350158095359802e-02 -7.158796489238739014e-02 -3.140318393707275391e-02 3.383554145693778992e-02 -9.162859991192817688e-03 2.676880918443202972e-02 -9.465666115283966064e-02 2.346484921872615814e-03 5.161328241229057312e-02 3.742146492004394531e-02 2.302910387516021729e-02 9.236114472150802612e-02 1.062571331858634949e-01 3.538019061088562012e-01 2.691256254911422729e-02 3.596992045640945435e-02 2.754102051258087158e-01 3.673140704631805420e-02 2.950715646147727966e-02 -2.322400733828544617e-02 9.624083526432514191e-03 3.497954830527305603e-02 6.975576281547546387e-02 5.354367196559906006e-03 3.427317366003990173e-02 1.096283737570047379e-02 2.653927356004714966e-02 2.286384440958499908e-02 1.783441938459873199e-02 2.975562773644924164e-02 -9.431076049804687500e-02 1.253232955932617188e-01 5.575321912765502930e-01 1.026491597294807434e-01 -4.462324082851409912e-02 -1.126832235604524612e-02 1.215526275336742401e-02 -5.193516146391630173e-03 4.245548322796821594e-02 -7.397677004337310791e-02 -4.262541886419057846e-03 -4.412160441279411316e-02 8.475158363580703735e-02 -8.428685367107391357e-02 7.021809462457895279e-03 6.023786216974258423e-02 1.270369254052639008e-02 -7.890175282955169678e-02 -8.025716990232467651e-03 7.256474345922470093e-02 1.129312142729759216e-01
-2.831271663308143616e-02 5.222029238939285278e-02 -1.721042394638061523e-02 -8.397114463150501251e-03 1.310003697872161865e-01 -9.131132066249847412e-02 -1.500981152057647705e-01 -3.472418338060379028e-02 -6.790277548134326935e-03 -8.923271670937538147e-03 -1.458254177123308182e-02 7.479590922594070435e-02 -8.116663433611392975e-03 1.347715780138969421e-02 6.103152781724929810e-02 6.683366000652313232e-02 2.035110890865325928e-01 -7.523911446332931519e-02 9.693838655948638916e-02 -2.268969640135765076e-02 1.822977885603904724e-02 1.589709706604480743e-02 -4.256245121359825134e-02 1.226005796343088150e-02 1.908825337886810303e-02 2.440043687820434570e-01 -5.638176202774047852e-02 7.805207371711730957e-02 2.412139903753995895e-03 -8.243303745985031128e-02 2.173261716961860657e-02 1.253700405359268188e-01 -6.630205363035202026e-02 -2.008715644478797913e-02 7.403969764709472656e-02 9.070287458598613739e-03 1.176317315548658371e-02 -7.989840582013130188e-03 1.359687298536300659e-01 3.987723216414451599e-02 -2.386455982923507690e-02 7.907562702894210815e-02 6.908947136253118515e-03 -1.148047521710395813e-01 -4.215512052178382874e-02 -6.195199489593505859e-02 -3.756114095449447632e-02 1.106442138552665710e-01 -4.509526491165161133e-02 -8.910103142261505127e-02 -6.641563773155212402e-02 -5.788107402622699738e-03 -2.573972940444946289e-02 -4.921216145157814026e-02 -8.868635445833206177e-02 -1.969670690596103668e-02 -7.084921747446060181e-02 -3.249404579401016235e-02 2.801339142024517059e-02 7.024828344583511353e-02 1.959189772605895996e-02 5.793596059083938599e-02 -1.552187185734510422e-02 -2.193561010062694550e-02 3.139890357851982117e-02 -1.025604382157325745e-01 -5.747312679886817932e-03 2.395934611558914185e-02 -8.318465203046798706e-02 -1.348392665386199951e-02 5.876844376325607300e-02 3.719954937696456909e-02 5.675879865884780884e-02 -1.006630137562751770e-01 5.784493684768676758e-02 7.959113270044326782e-02 2.574164047837257385e-02 -4.485641047358512878e-02 2.182069793343544006e-02 1.031785234808921814e-01 1.539442688226699829e-01 1.089833453297615051e-01 9.794217534363269806e-03 2.322077564895153046e-02 -5.432925000786781311e-02 5.924222245812416077e-02 -1.008915528655052185e-01 1.120188087224960327e-01 -3.058804012835025787e-02 -2.194146439433097839e-02 -2.491883188486099243e-02 -6.386166810989379883e-02 1.704439334571361542e-02 6.850790232419967651e-02 5.934286713600158691e-01 -7.245170418173074722e-03 3.839601203799247742e-02 -7.066571712493896484e-02 -1.759219542145729065e-02 4.000413417816162109e-02
-2.181282937526702881e-01 -1.217473447322845459e-01 -1.719397865235805511e-02 -1.502846628427505493e-01 2.317769540240988135e-04 -6.362900137901306152e-02 -7.275799661874771118e-02 9.052201174199581146e-03 -1.070736646652221680e-01 -1.966767311096191406e-01 1.238415166735649109e-01 -2.419301569461822510e-01 -1.418758630752563477e-01 -1.521316468715667725e-01 -1.819960623979568481e-01 -5.500638857483863831e-02 -1.355278640985488892e-01 -1.002714708447456360e-01 -2.632963061332702637e-01 9.210420399904251099e-02 -1.607653796672821045e-01 5.344791710376739502e-02 -9.936423599720001221e-02 -1.002303063869476318e-01 -8.437184616923332214e-03 3.577886149287223816e-02 -9.877912700176239014e-02 1.080381218343973160e-02 6.637199968099594116e-02 -8.485779166221618652e-02 -8.728016167879104614e-02 7.986132055521011353e-02 -1.510141417384147644e-02 4.947637394070625305e-02 -3.092579729855060577e-02 4.527869075536727905e-02 -4.380166530609130859e-02 3.086982294917106628e-02 -5.320182070136070251e-02 -9.226763248443603516e-02 2.307853661477565765e-02 -4.051565378904342651e-02 8.966491371393203735e-02 -1.124014630913734436e-01 -6.316842138767242432e-02 1.932436251081526279e-03 -2.579889297485351562e-01 -1.661526262760162354e-01 -1.219651028513908386e-01 -1.706607341766357422e-01 -7.578085060231387615e-04 -9.379766136407852173e-02 -9.080721437931060791e-02 -1.414091885089874268e-01 -1.286832839250564575e-01 -1.055055335164070129e-01 1.648929342627525330e-02 -3.701069205999374390e-02 -1.940181478857994080e-02 -1.438821703195571899e-01 -5.865903198719024658e-02 -1.144688855856657028e-02 -8.369651436805725098e-02 -1.907777339220046997e-01 -1.706967502832412720e-02 4.398664459586143494e-02 5.403169989585876465e-02 -1.528320312500000000e-01 -1.026232540607452393e-01 -2.629663050174713135e-02 -5.809291824698448181e-02 -9.063129872083663940e-02 -1.054184883832931519e-01 -7.586350440979003906e-01 1.070922836661338806e-01 -5.276273936033248901e-03 6.930745393037796021e-02 4.863769933581352234e-02 -3.190375166013836861e-03 -1.054191738367080688e-01 -6.917372345924377441e-02 8.512144535779953003e-02 8.574528328608721495e-05 -1.020701304078102112e-01 -4.749362468719482422e-01 -1.239958181977272034e-01 -2.654191851615905762e-01 -2.389981299638748169e-01 -1.348883211612701416e-01 2.362329363822937012e-01 1.139827538281679153e-02 -7.054338604211807251e-02 -2.582120895385742188e-01 -1.981113255023956299e-01 -7.589471340179443359e-02 -1.113908961415290833e-01 -1.455187201499938965e-01 2.734664827585220337e-03 5.447182059288024902e-02 1.120115518569946289e-01
4.595453664660453796e-02 -1.518889702856540680e-02 -8.945269882678985596e-02 -1.572350412607192993e-01 1.891557686030864716e-02 -1.314933449029922485e-01 7.353701628744602203e-03 7.781561464071273804e-02 7.989194244146347046e-03 4.799901694059371948e-02 -1.814774610102176666e-02 -3.319107927381992340e-03 4.057836532592773438e-02 3.155231848359107971e-02 -4.063831269741058350e-02 -2.819277346134185791e-03 2.018290944397449493e-02 -5.157279968261718750e-02 -1.974630728363990784e-02 -1.075502671301364899e-02 1.401133686304092407e-01 4.521545022726058960e-02 -1.496595442295074463e-01 3.162897005677223206e-02 -3.136688098311424255e-02 -5.331135168671607971e-02 1.201317086815834045e-01 -1.735871285200119019e-01 -7.061069458723068237e-02 5.596137419342994690e-02 -4.381985589861869812e-02 -1.017630919814109802e-01 -3.015219978988170624e-02 1.387589573860168457e-01 -3.438862040638923645e-02 -1.008847169578075409e-02 1.290918234735727310e-02 -3.843636019155383110e-03 -5.491835530847311020e-03 6.630557775497436523e-02 8.879994601011276245e-02 4.971020296216011047e-02 1.560283154249191284e-01 -2.839201129972934723e-02 -8.834790438413619995e-02 -3.737553209066390991e-02 6.425242125988006592e-02 6.868589669466018677e-02 3.403669968247413635e-02 1.027704030275344849e-01 2.329356782138347626e-02 1.492268890142440796e-01 -4.517612233757972717e-02 -3.752354159951210022e-02 1.011107414960861206e-01 -3.989113960415124893e-03 3.419410204514861107e-03 5.901315063238143921e-02 7.306460291147232056e-02 9.563819319009780884e-02 9.853062219917774200e-03 4.771122336387634277e-02 4.130349680781364441e-02 -9.538789838552474976e-02 -4.446438327431678772e-02 -1.013045534491539001e-01 -3.495161980390548706e-02 -4.539373889565467834e-02 -2.344116568565368652e-02 6.419422477483749390e-02 -3.173651872202754021e-03 2.768789976835250854e-02 1.735704541206359863e-01 3.950095176696777344e-01 -8.127405494451522827e-02 -1.093317195773124695e-01 -3.884459659457206726e-02 5.935535300523042679e-03 -1.961724646389484406e-02 1.223751455545425415e-01 2.223182283341884613e-02 -5.221097171306610107e-02 6.089184433221817017e-02 2.477775327861309052e-02 1.366188973188400269e-01 1.210117861628532410e-01 -1.401447923853993416e-03 7.946404628455638885e-03 8.592344075441360474e-02 -8.704777806997299194e-02 9.717153757810592651e-02 -1.635882072150707245e-02 7.036133855581283569e-02 1.530692130327224731e-01 2.186704240739345551e-02 1.141897216439247131e-01 4.034959152340888977e-02 -5.976120755076408386e-02 1.172207519412040710e-01 1.309372112154960632e-02
6.153982132673263550e-02 -6.276552379131317139e-02 1.232142932713031769e-02 -1.264933682978153229e-02 -7.155010011047124863e-03 -7.808598130941390991e-02 5.340123176574707031e-02 -6.702534854412078857e-02 -1.514444779604673386e-02 4.839546233415603638e-02 8.918215520679950714e-03 -4.652458056807518005e-02 7.423362880945205688e-02 -7.635006308555603027e-02 1.497731916606426239e-02 5.043197050690650940e-02 2.614749968051910400e-01 -3.995424602180719376e-03 5.764213949441909790e-02 4.264998435974121094e-02 1.557580232620239258e-01 7.612111512571573257e-03 1.237808391451835632e-01 5.306807160377502441e-02 -1.200987864285707474e-02 1.633796244859695435e-01 -9.021317958831787109e-02 7.436516135931015015e-02 -2.085736393928527832e-02 4.650773108005523682e-02 1.632276177406311035e-01 6.118399649858474731e-02 6.855960935354232788e-02 -6.605720520019531250e-02 -5.743534117937088013e-02 6.936451885849237442e-03 5.198607593774795532e-02 -4.827534779906272888e-03 -2.927715517580509186e-02 -7.607013452798128128e-03 5.835665389895439148e-02 -1.187539324164390564e-01 -3.924806788563728333e-02 -7.981739938259124756e-02 3.085825964808464050e-02 1.266927570104598999e-01 1.085649430751800537e-01 6.597138196229934692e-02 -8.990576118230819702e-02 -9.727665036916732788e-02 8.473458699882030487e-03 -3.010218776762485504e-02 -3.444499149918556213e-02 -7.962136715650558472e-02 -4.358075559139251709e-02 -3.064445918425917625e-03 -3.719652444124221802e-02 -7.066959515213966370e-03 -6.217978149652481079e-02 1.876070536673069000e-02 7.532419264316558838e-02 7.515586167573928833e-02 -2.605567872524261475e-02 -4.561427235603332520e-02 1.417613588273525238e-02 1.055656298995018005e-01 1.441277116537094116e-01 -1.950428634881973267e-02 -4.172770678997039795e-02 6.060580164194107056e-02 -1.011229306459426880e-02 -4.879822209477424622e-02 3.084381483495235443e-02 9.262613952159881592e-02 5.694153904914855957e-02 2.009849995374679565e-02 -8.691637963056564331e-02 7.198873907327651978e-02 1.389335561543703079e-02 8.048119395971298218e-02 3.769259750843048096e-01 4.379075020551681519e-02 2.501436881721019745e-02 -1.783565618097782135e-02 4.861179739236831665e-02 -3.246453031897544861e-02 -4.657560959458351135e-02 1.641609966754913330e-01 2.835785038769245148e-03 1.050201281905174255e-01 1.227552071213722229e-02 2.443998493254184723e-02 5.320895090699195862e-02 3.907272964715957642e-02 4.305484592914581299e-01 -2.509200386703014374e-02 5.115963891148567200e-02 -6.931917369365692139e-02 1.528890728950500488e-01 -4.297696426510810852e-02
4.333546012639999390e-02 2.150969766080379486e-02 8.800906944088637829e-04 -2.892322838306427002e-02 -5.757272988557815552e-02 7.572877407073974609e-02 1.613735854625701904e-01 6.744540482759475708e-02 5.956387892365455627e-02 4.336597770452499390e-02 2.838542461395263672e-01 7.506388425827026367e-02 7.488000392913818359e-02 -4.714597947895526886e-03 5.712961312383413315e-03 -5.698006972670555115e-02 1.002428531646728516e-01 7.666081655770540237e-03 4.001156240701675415e-02 1.039916500449180603e-01 1.557713467627763748e-02 -1.809396222233772278e-02 -9.439929388463497162e-03 3.953971434384584427e-03 -8.922653272747993469e-03 4.586293920874595642e-02 -6.936997175216674805e-02 -6.050091609358787537e-02 -7.235293835401535034e-02 -1.015645787119865417e-01 6.229143217206001282e-02 -4.126082360744476318e-02 1.071694418787956238e-01 5.953470990061759949e-02 1.676579192280769348e-02 -1.874493062496185303e-02 -3.267383575439453125e-02 4.638780653476715088e-02 1.824064180254936218e-02 1.916266679763793945e-01 -1.016415935009717941e-02 -3.349223732948303223e-02 -2.907162532210350037e-02 5.454709753394126892e-03 1.111831888556480408e-01 1.117607764899730682e-02 1.245154812932014465e-01 7.235289085656404495e-03 -3.942045196890830994e-02 -2.282442897558212280e-02 3.175645694136619568e-02 -1.727305166423320770e-02 1.224199961870908737e-02 -1.639626547694206238e-02 -1.021051034331321716e-01 6.172094866633415222e-02 3.863497823476791382e-02 3.481683321297168732e-03 -5.946693196892738342e-02 5.461758002638816833e-02 6.957727670669555664e-02 -7.274649292230606079e-02 -4.004582390189170837e-02 -5.205197632312774658e-02 1.588451117277145386e-02 5.446018651127815247e-02 2.155071310698986053e-02 2.322234399616718292e-02 -3.647605329751968384e-02 1.346825622022151947e-02 -5.300290882587432861e-02 -1.175373140722513199e-02 1.052133962512016296e-01 -5.987364333122968674e-03 -1.009421795606613159e-02 1.383634358644485474e-01 5.158304423093795776e-02 -7.482676208019256592e-02 4.586994275450706482e-02 7.164884358644485474e-02 -6.803139299154281616e-02 2.800401300191879272e-02 1.424795016646385193e-02 2.280852198600769043e-01 -2.115389145910739899e-02 9.315821528434753418e-02 6.988643109798431396e-02 -3.616830706596374512e-02 2.517211996018886566e-02 -6.204128637909889221e-02 3.547639772295951843e-02 -1.244706809520721436e-01 1.961965113878250122e-01 1.530433446168899536e-02 -6.521584093570709229e-02 7.372693717479705811e-02 5.542406439781188965e-02 9.689293801784515381e-02 -4.179442673921585083e-02 6.367330253124237061e-02
3.823160380125045776e-02 -2.421798706054687500e-01 -6.432488560676574707e-02 9.591161459684371948e-02 1.552308094687759876e-03 3.456798940896987915e-02 1.149091497063636780e-02 -4.564243927597999573e-02 2.020062357187271118e-01 3.524024784564971924e-02 3.112768568098545074e-02 1.253459416329860687e-02 -8.209572732448577881e-02 -2.449149340391159058e-01 1.268401890993118286e-01 1.581573188304901123e-01 -9.933897107839584351e-02 1.925222426652908325e-01 -3.200026750564575195e-01 -1.228233724832534790e-01 2.367813885211944580e-01 -1.102869436144828796e-01 -1.731891334056854248e-01 1.747128516435623169e-01 -8.028376847505569458e-02 -1.224574074149131775e-01 1.863862127065658569e-01 -1.449787616729736328e-01 1.459129303693771362e-01 -2.415077388286590576e-01 -2.215459942817687988e-02 3.997006639838218689e-02 2.549471706151962280e-02 -2.273953706026077271e-02 -1.683049052953720093e-01 -1.578028686344623566e-02 4.343635961413383484e-02 -1.490225642919540405e-01 -2.294915467500686646e-01 -2.142821103334426880e-01 2.092524617910385132e-01 2.594801783561706543e-01 2.598875947296619415e-02 -3.871336579322814941e-02 1.619498431682586670e-02 -6.022429466247558594e-02 -2.332390993833541870e-01 -1.574523895978927612e-01 -1.313387304544448853e-01 -1.044414788484573364e-01 -1.320828050374984741e-01 1.311580464243888855e-02 -4.162965416908264160e-01 4.618890583515167236e-03 -6.447827816009521484e-02 -1.427525579929351807e-01 2.962245643138885498e-01 1.477937400341033936e-01 -2.398445606231689453e-01 -9.117727726697921753e-02 3.305445015430450439e-01 -1.946796104311943054e-02 6.261145323514938354e-02 -7.992564886808395386e-02 -1.728449016809463501e-01 -1.846761256456375122e-01 -8.468613028526306152e-02 -9.484245628118515015e-02 -6.840652972459793091e-02 -2.595320940017700195e-01 -2.407050579786300659e-01 -1.331283748149871826e-01 2.344126403331756592e-01 -1.030713915824890137e-01 2.738058753311634064e-02 -3.287997543811798096e-01 -1.252936571836471558e-01 -2.623297572135925293e-01 6.718473136425018311e-02 1.936591863632202148e-01 -1.446509268134832382e-02 -2.640950679779052734e-02 -1.896121054887771606e-01 -2.920183353126049042e-02 5.687480047345161438e-02 1.933986246585845947e-01 2.380353808403015137e-01 3.200855106115341187e-02 3.043187409639358521e-02 -7.340580224990844727e-02 -2.805608808994293213e-01 6.424652785062789917e-02 -8.521039038896560669e-02 -1.109113469719886780e-01 -1.294089388102293015e-02 1.458488404750823975e-02 6.563425064086914062e-02 -2.754658758640289307e-01 2.300212532281875610e-02 -4.950857907533645630e-02
-7.273182272911071777e-02 2.656714022159576416e-01 -1.771287433803081512e-02 -1.059733554720878601e-01 -8.992103487253189087e-02 8.813871443271636963e-02 -8.154238760471343994e-02 -7.651322335004806519e-02 -6.454408168792724609e-02 -3.408147022128105164e-02 -1.406363099813461304e-01 7.978085428476333618e-02 -6.277041044086217880e-03 5.171828344464302063e-02 -1.364852115511894226e-02 -1.001766026020050049e-01 3.517368808388710022e-02 9.581428766250610352e-02 -1.143118962645530701e-01 -6.704637408256530762e-02 2.030851542949676514e-01 2.020112797617912292e-02 5.535997152328491211e-01 -2.815155498683452606e-02 -4.699021112173795700e-03 4.579138476401567459e-03 -5.554078146815299988e-02 -4.109670221805572510e-02 1.004821285605430603e-01 5.512595176696777344e-02 -4.018533974885940552e-02 9.313561022281646729e-02 1.575492136180400848e-02 6.325402110815048218e-02 -1.412082761526107788e-01 5.196231417357921600e-03 -8.063567429780960083e-02 1.893729120492935181e-01 -9.055393189191818237e-02 -8.100595325231552124e-02 1.390246748924255371e-01 5.510978773236274719e-02 -7.986210286617279053e-02 2.717003412544727325e-02 4.855532571673393250e-02 9.786313027143478394e-02 -3.001714870333671570e-02 -6.697137653827667236e-02 6.015684083104133606e-02 4.447661340236663818e-02 2.920930646359920502e-02 4.259250685572624207e-02 7.495079189538955688e-04 -7.861772179603576660e-02 2.280741371214389801e-02 4.969588667154312134e-02 -1.067970395088195801e-01 2.432263456284999847e-02 -3.217526897788047791e-02 3.144284710288047791e-02 -3.368118032813072205e-02 -7.282669842243194580e-02 1.939284056425094604e-02 6.606710702180862427e-02 5.992360785603523254e-02 9.081107378005981445e-02 -9.482000023126602173e-02 4.791530594229698181e-02 -9.246163070201873779e-02 6.034669280052185059e-02 4.730704799294471741e-02 -1.706667989492416382e-02 2.228682637214660645e-01 9.315710514783859253e-03 2.040326595306396484e-01 5.510474555194377899e-03 -1.156867295503616333e-01 -4.478085041046142578e-02 -5.239085853099822998e-02 1.200619861483573914e-01 9.288444183766841888e-03 1.096235066652297974e-01 -7.307245582342147827e-02 4.171590786427259445e-03 1.064358130097389221e-01 2.046037167310714722e-01 1.288976818323135376e-01 2.067676000297069550e-02 1.601966917514801025e-01 -6.417756527662277222e-02 1.648756116628646851e-02 5.978629738092422485e-02 -3.645468503236770630e-02 -6.234149262309074402e-02 8.329449594020843506e-02 1.369144916534423828e-01 5.678072571754455566e-02 1.962270028889179230e-02 4.813492298126220703e-02 4.878162220120429993e-02
3.637997433543205261e-02 -5.318344011902809143e-02 1.035248190164566040e-01 -3.249934688210487366e-02 -5.679833889007568359e-02 5.758949369192123413e-02 1.885705888271331787e-01 8.771871030330657959e-02 -1.025589372147805989e-04 4.172795638442039490e-02 3.829752281308174133e-02 5.184213072061538696e-02 5.858261510729789734e-02 1.079280227422714233e-01 -1.528777182102203369e-02 4.746037349104881287e-02 5.236682668328285217e-02 4.890202730894088745e-02 1.030615530908107758e-02 2.523983716964721680e-01 -5.018265917897224426e-02 -4.618737846612930298e-02 -5.709215253591537476e-02 7.104681432247161865e-02 4.198361188173294067e-02 -7.928789593279361725e-03 1.045851735398173332e-03 2.855683304369449615e-02 2.950925938785076141e-02 7.762862741947174072e-02 -2.731092646718025208e-02 -2.231489121913909912e-02 4.818183556199073792e-02 6.221131607890129089e-02 9.581258893013000488e-02 -3.042575530707836151e-02 -5.279379710555076599e-02 5.210031569004058838e-02 -5.872538685798645020e-02 -3.123612329363822937e-02 8.210664987564086914e-02 1.142371967434883118e-01 2.467770725488662720e-01 1.173159331083297729e-01 1.019446849822998047e-01 -6.840076297521591187e-02 -3.469940274953842163e-03 9.700085967779159546e-03 -3.758071362972259521e-02 6.918063759803771973e-02 6.008171662688255310e-02 -3.908228874206542969e-02 6.065128371119499207e-02 -7.177527993917465210e-03 4.819220397621393204e-03 -1.889312267303466797e-02 1.955876126885414124e-02 -4.273587837815284729e-02 -2.515448816120624542e-02 2.765047736465930939e-02 -6.367113441228866577e-02 -2.186016365885734558e-02 8.915771543979644775e-02 1.600476056337356567e-01 -3.543329983949661255e-02 -4.325066134333610535e-02 1.234492659568786621e-01 2.815721090883016586e-03 5.120735242962837219e-02 -3.089049458503723145e-02 -1.749663986265659332e-02 2.728831022977828979e-02 -6.785333156585693359e-03 1.092239916324615479e-01 -1.100360825657844543e-01 -1.859395019710063934e-02 1.533607542514801025e-01 -1.520487759262323380e-02 9.752329438924789429e-03 -5.017608404159545898e-02 -2.604097500443458557e-02 -7.193189859390258789e-02 -6.590684503316879272e-02 3.223979473114013672e-02 4.797746241092681885e-01 -1.969146076589822769e-03 -5.036959890276193619e-03 -4.329554364085197449e-02 4.205248504877090454e-02 1.069457381963729858e-01 1.802573166787624359e-02 2.030428312718868256e-02 -2.637306042015552521e-02 4.225459694862365723e-02 2.728659845888614655e-02 6.032550707459449768e-02 7.033947110176086426e-02 -2.053713239729404449e-02 1.027581617236137390e-01 3.195861726999282837e-02
3.283685445785522461e-02 5.685820803046226501e-02 6.364253163337707520e-02 -2.344550192356109619e-02 4.195725079625844955e-03 4.146759398281574249e-03 -4.325986374169588089e-03 1.381866354495286942e-02 -6.862667948007583618e-02 9.591331332921981812e-02 1.099880710244178772e-01 7.106926292181015015e-02 9.660434722900390625e-02 3.952631354331970215e-02 2.761689759790897369e-02 -3.819186612963676453e-02 4.880678653717041016e-02 -1.255962997674942017e-01 5.992444604635238647e-02 -3.098705969750881195e-02 9.967461228370666504e-02 1.128396987915039062e-01 1.285024434328079224e-01 6.106040254235267639e-02 -2.691539376974105835e-02 -1.143591571599245071e-02 2.703318372368812561e-02 2.176332175731658936e-01 -4.252311214804649353e-02 -8.494552969932556152e-02 1.348437654087319970e-04 -4.630749672651290894e-02 -1.409719511866569519e-02 1.559031158685684204e-01 -1.261781156063079834e-01 1.680528372526168823e-01 -3.752353414893150330e-02 4.963275417685508728e-02 -5.474114045500755310e-02 1.212036684155464172e-01 1.755845099687576294e-01 4.150570034980773926e-01 -4.921146854758262634e-02 -8.056200295686721802e-02 1.540361903607845306e-02 6.517367362976074219e-01 -7.460627704858779907e-02 7.982595264911651611e-02 3.358348831534385681e-02 -3.114547953009605408e-02 2.145306318998336792e-01 2.243913523852825165e-02 -7.722923904657363892e-02 3.034309018403291702e-03 3.090540319681167603e-02 -1.120978221297264099e-01 1.290241330862045288e-01 1.744661852717399597e-02 -6.691180914640426636e-02 -3.955389559268951416e-02 2.080784440040588379e-01 2.657186053693294525e-02 1.181325390934944153e-01 -8.228982798755168915e-03 1.065322533249855042e-01 -9.457651525735855103e-02 5.044659972190856934e-02 -4.107129946351051331e-02 3.839190602302551270e-01 5.621463526040315628e-03 -6.594426929950714111e-02 5.407973192632198334e-03 4.927439987659454346e-02 -7.909012585878372192e-02 -7.593309134244918823e-02 -1.480665653944015503e-01 5.875088647007942200e-02 2.292165905237197876e-01 1.353632658720016479e-01 6.689570099115371704e-02 -8.592238277196884155e-02 -9.956219792366027832e-02 -2.434648573398590088e-02 -8.409449458122253418e-02 -2.867656387388706207e-02 -5.642635375261306763e-02 -2.278784289956092834e-02 -1.202223524451255798e-01 1.774952001869678497e-02 -1.967646554112434387e-02 -6.165987998247146606e-02 -7.107937335968017578e-02 4.790699109435081482e-03 8.686981350183486938e-02 1.974534243345260620e-01 1.145061757415533066e-02 2.523843944072723389e-02 8.551323413848876953e-02 1.824023015797138214e-02 -4.847655538469552994e-03
7.687943987548351288e-03 -7.281351834535598755e-03 5.816693883389234543e-03 4.963116347789764404e-02 2.602095948532223701e-03 7.401503622531890869e-02 -7.771009951829910278e-02 -2.905109710991382599e-02 -4.247510805726051331e-02 2.418545819818973541e-02 1.383712291717529297e-01 1.603665016591548920e-02 -1.503282785415649414e-01 7.727226614952087402e-02 -5.511536449193954468e-02 5.331083387136459351e-02 -1.475764345377683640e-02 2.635566890239715576e-02 2.898767343140207231e-05 -3.001049160957336426e-02 -3.679374977946281433e-02 -3.550178185105323792e-02 9.479597955942153931e-02 1.507953088730573654e-02 3.972709178924560547e-02 1.981152594089508057e-01 -2.322459220886230469e-02 -2.084975689649581909e-02 -3.070418164134025574e-02 3.863378986716270447e-02 6.701331585645675659e-02 3.414048999547958374e-02 5.437829717993736267e-02 4.668443650007247925e-02 -2.409229800105094910e-02 6.011389940977096558e-02 1.762441918253898621e-02 -1.157050058245658875e-01 8.458167314529418945e-02 1.646535471081733704e-02 -3.937063366174697876e-02 7.660423964262008667e-02 9.586610645055770874e-02 5.093170329928398132e-02 9.774814546108245850e-02 1.743560470640659332e-02 -9.608707390725612640e-03 2.908715419471263885e-02 9.870800375938415527e-02 -2.113579399883747101e-02 4.547707736492156982e-02 -7.365873549133539200e-03 7.661195844411849976e-02 -2.938900142908096313e-02 -7.141213864088058472e-02 -1.115642711520195007e-01 1.747912168502807617e-02 2.141666226089000702e-02 -2.908321470022201538e-02 4.901009052991867065e-02 -6.651342660188674927e-02 2.819863259792327881e-01 1.250186711549758911e-01 -3.778045251965522766e-02 -1.534557994455099106e-02 -5.350961536169052124e-02 3.154529631137847900e-02 7.438670098781585693e-02 1.430991291999816895e-01 1.725994609296321869e-02 5.167930573225021362e-02 -9.309524670243263245e-03 5.458456277847290039e-02 -9.657266549766063690e-03 -2.219893224537372589e-02 -5.452686548233032227e-02 -1.601503789424896240e-02 5.278929602354764938e-03 1.544489432126283646e-02 -5.703417211771011353e-02 1.247426681220531464e-02 6.148747727274894714e-02 4.693230986595153809e-02 -2.361427433788776398e-02 1.904913596808910370e-02 -1.970174163579940796e-02 2.138730883598327637e-02 -2.935740165412425995e-02 5.345082655549049377e-02 5.656114313751459122e-03 -5.319104343652725220e-02 9.853066504001617432e-02 5.829961597919464111e-02 -1.203940995037555695e-02 -1.482356190681457520e-01 -4.796383902430534363e-02 -4.068442806601524353e-02 -4.859439283609390259e-02 5.387993901968002319e-02 4.932578653097152710e-02
-7.139738649129867554e-02 2.625580644235014915e-03 -1.693332800641655922e-03 -1.846851408481597900e-01 -1.142636463046073914e-01 -2.675085887312889099e-02 4.547759890556335449e-03 -4.858665051870048046e-04 -7.611772889504209161e-05 7.579861581325531006e-02 -4.152745823375880718e-04 2.999578719027340412e-04 3.198705380782485008e-04 7.649531471543014050e-04 -4.728739708662033081e-02 -1.639686077833175659e-01 2.454444766044616699e-03 -1.848738044500350952e-01 2.114911973476409912e-01 9.169454569928348064e-04 8.101474493741989136e-02 -2.086412906646728516e-01 -2.202907111495733261e-03 2.330124676227569580e-01 -6.760446727275848389e-02 -2.216696441173553467e-01 2.089659869670867920e-01 3.235908225178718567e-04 -2.045111544430255890e-02 -9.255738556385040283e-02 -9.181682951748371124e-03 1.222109422087669373e-03 3.281331062316894531e-02 3.050098195672035217e-02 6.805163621902465820e-02 5.159719288349151611e-02 -1.050159168243408203e+01 1.553888781927525997e-03 1.009985283017158508e-01 1.878801584243774414e-01 7.072425633668899536e-02 -1.175535246729850769e-01 3.099612891674041748e-01 3.742570430040359497e-02 5.330617353320121765e-02 7.383330375887453556e-04 1.182087510824203491e-01 5.976312677375972271e-04 6.967408955097198486e-02 -2.266126312315464020e-02 2.592744678258895874e-02 1.416351199150085449e-01 6.562621891498565674e-02 9.248054772615432739e-02 -1.231151982210576534e-04 -1.757338494062423706e-01 -1.703966557979583740e-01 7.623992115259170532e-02 -4.374461993575096130e-02 2.149450480937957764e-01 -7.033587992191314697e-02 2.865960262715816498e-02 1.568274646997451782e-01 -1.451982557773590088e-01 -3.208707869052886963e-01 -1.048225840349914506e-05 -3.333126306533813477e-01 -2.067634777631610632e-04 7.969477027654647827e-02 -1.881379485130310059e-01 4.867957532405853271e-02 -6.088684126734733582e-02 1.476785540580749512e-01 -2.490692713763564825e-04 1.397509244270622730e-03 1.699590831995010376e-01 -6.335591524839401245e-02 -5.507439002394676208e-02 2.390794688835740089e-04 -2.813720144331455231e-02 -8.018562942743301392e-02 -1.823831233195960522e-03 -8.264527469873428345e-02 -4.709058627486228943e-02 3.462756276130676270e-01 5.794795602560043335e-02 -2.080545723438262939e-01 -2.779403328895568848e-02 1.981234103441238403e-01 -3.714745119214057922e-02 3.850343928206712008e-04 1.137533970177173615e-02 2.125373296439647675e-02 4.256271123886108398e-01 -1.951654121512547135e-04 1.152601465582847595e-01 9.643065184354782104e-02 1.728667020797729492e-01 4.765660036355257034e-03 1.243802811950445175e-02
2.930127829313278198e-02 1.194861754775047302e-01 -8.349266834557056427e-03 -1.727258670143783092e-03 5.728734284639358521e-02 2.719767689704895020e-01 -4.544986784458160400e-02 8.383654057979583740e-04 1.572304591536521912e-02 8.341789990663528442e-02 -5.342921242117881775e-03 -6.776938587427139282e-02 9.876820445060729980e-02 -1.218360196799039841e-02 -1.452657580375671387e-02 4.137805104255676270e-02 6.506440788507461548e-02 -9.623274952173233032e-02 -1.250404771417379379e-02 1.361001934856176376e-02 2.747830003499984741e-02 3.918032720685005188e-02 -8.522167801856994629e-03 1.989114657044410706e-02 1.390875428915023804e-01 -5.199127364903688431e-03 5.783245563507080078e-01 1.858197525143623352e-02 -4.321678355336189270e-02 4.711797009804286063e-05 -2.817091159522533417e-02 9.167430549860000610e-02 1.099915727972984314e-01 1.005484014749526978e-01 1.452909503132104874e-02 6.671394407749176025e-02 2.086033113300800323e-03 2.741354517638683319e-02 -1.237460374832153320e-01 7.205159962177276611e-02 -2.725336328148841858e-02 6.643839180469512939e-02 -3.170918300747871399e-02 3.787955641746520996e-02 6.511442363262176514e-02 1.428146958351135254e-01 4.026651084423065186e-01 -2.654255926609039307e-02 4.397264274302870035e-04 2.373782098293304443e-01 -1.644426025450229645e-02 1.468399018049240112e-01 1.613433659076690674e-01 1.589054800570011139e-02 -1.991515979170799255e-03 5.807659775018692017e-02 6.755390763282775879e-02 1.745046675205230713e-01 -2.811844833195209503e-02 -3.026479110121726990e-02 -3.774754330515861511e-02 -7.923086732625961304e-02 1.853207498788833618e-02 -3.827059641480445862e-02 -3.564138431102037430e-03 3.030530922114849091e-02 3.811554610729217529e-02 5.206052679568529129e-03 -1.562850363552570343e-02 -4.954387899488210678e-03 5.742540583014488220e-02 1.417450904846191406e-01 1.657043211162090302e-02 -2.326155226910486817e-04 -1.306418236345052719e-02 -4.226781800389289856e-02 9.116885811090469360e-02 -5.143104121088981628e-02 3.988859802484512329e-02 -3.625157848000526428e-02 9.964848309755325317e-02 2.283638268709182739e-01 -2.447162382304668427e-02 -5.663767084479331970e-02 -1.792205311357975006e-02 1.290882229804992676e-01 -9.265634231269359589e-03 -5.699288100004196167e-03 5.930135026574134827e-02 -1.401312276721000671e-02 4.451586678624153137e-02 -3.932852670550346375e-02 3.438544273376464844e-02 1.801133006811141968e-01 3.876048624515533447e-01 3.226053416728973389e-01 1.795573160052299500e-03 -3.988086432218551636e-02 5.227139592170715332e-02 -8.759147487580776215e-03
-1.002404391765594482e-01 5.476966872811317444e-02 3.853095322847366333e-02 -8.867846429347991943e-02 -6.128261610865592957e-02 3.994868620793567970e-06 3.652583435177803040e-02 -1.276101358234882355e-02 -6.889517605304718018e-02 -3.583336248993873596e-02 -3.218941763043403625e-02 9.934310615062713623e-02 -5.599649250507354736e-02 3.103121183812618256e-02 1.307976990938186646e-01 3.688021004199981689e-01 2.834385959431529045e-03 -1.231636968441307545e-03 2.948754990939050913e-04 4.714170843362808228e-02 1.748445779085159302e-01 1.548742782324552536e-02 2.684385515749454498e-02 -1.088389568030834198e-02 -3.518630191683769226e-02 9.297091513872146606e-02 -5.733250826597213745e-02 7.582666277885437012e-01 -9.181576967239379883e-02 -5.357928946614265442e-02 2.439789101481437683e-02 5.998534336686134338e-02 2.250430174171924591e-02 4.434832185506820679e-02 1.129611730575561523e-01 -4.054207727313041687e-02 3.145094960927963257e-02 -2.035433053970336914e-02 -8.993396535515785217e-03 -4.315141960978507996e-02 -1.354962028563022614e-02 6.547205266542732716e-04 -7.574760820716619492e-03 7.821775972843170166e-03 -2.214543288573622704e-03 1.415823996067047119e-01 8.343284949660301208e-03 2.635590545833110809e-02 2.737865447998046875e-01 2.571669034659862518e-02 -8.429796993732452393e-02 5.994896055199205875e-04 7.171317934989929199e-02 -2.271604165434837341e-02 1.698167771100997925e-01 1.830288171768188477e-01 1.521069556474685669e-02 6.023968383669853210e-02 -1.718029752373695374e-02 -5.755706224590539932e-04 -7.594071328639984131e-02 -6.859539449214935303e-02 -3.518445789813995361e-02 -5.202052369713783264e-02 3.942158445715904236e-02 1.660996116697788239e-02 4.354662820696830750e-02 -8.310074917972087860e-03 4.174374043941497803e-02 6.132634356617927551e-02 -3.995845466852188110e-02 -3.672663588076829910e-03 1.416855603456497192e-01 -9.314781427383422852e-02 1.799263805150985718e-02 -6.252239644527435303e-02 -2.440581843256950378e-02 -6.085623428225517273e-02 1.246112212538719177e-02 1.276295483112335205e-01 1.944754831492900848e-02 -2.531103603541851044e-02 -5.352423712611198425e-02 3.731822595000267029e-02 -7.576203346252441406e-02 1.109543815255165100e-01 -5.075301229953765869e-02 1.814705729484558105e-01 7.892359048128128052e-02 4.965976998209953308e-02 3.036264702677726746e-02 2.329158782958984375e-02 1.112337112426757812e-01 4.704098775982856750e-02 -1.194524168968200684e-01 4.097674041986465454e-02 8.710380643606185913e-02 -1.546710729598999023e-01 3.965498507022857666e-02 -7.560725510120391846e-02
7.764473557472229004e-02 -1.539247762411832809e-02 -5.956787243485450745e-02 5.997626110911369324e-03 6.526415236294269562e-03 2.759850770235061646e-02 4.332390055060386658e-02 8.481521159410476685e-02 1.152802929282188416e-01 7.406663894653320312e-02 1.718651354312896729e-01 1.150735188275575638e-02 -3.059120848774909973e-02 8.353381603956222534e-02 -1.199232712388038635e-01 -3.422231413424015045e-03 5.721092969179153442e-02 -1.965810079127550125e-03 1.556915491819381714e-01 -9.360856376588344574e-03 2.304945886135101318e-02 -5.453217774629592896e-02 -1.097821441362611949e-04 5.522430315613746643e-02 1.117627322673797607e-01 5.766936391592025757e-02 -7.644416391849517822e-02 2.515560481697320938e-03 1.008962020277976990e-01 1.586940884590148926e-01 1.739088818430900574e-02 -1.757871173322200775e-02 4.572916030883789062e-02 -4.473159462213516235e-02 7.782791554927825928e-02 1.514682732522487640e-02 7.772866170853376389e-03 -6.479996442794799805e-02 1.090549752116203308e-01 8.289505727589130402e-03 -9.117340296506881714e-02 1.350513249635696411e-01 -3.820346668362617493e-02 -1.260828599333763123e-02 2.563011460006237030e-02 -1.422024215571582317e-03 5.832822993397712708e-02 -3.877458348870277405e-02 3.586856648325920105e-02 1.188779920339584351e-01 1.149794757366180420e-01 3.289324790239334106e-02 -1.107990816235542297e-01 1.793717592954635620e-02 -1.156708449125289917e-01 1.430839896202087402e-01 7.764993607997894287e-02 8.782411366701126099e-02 -4.413133859634399414e-02 1.865024305880069733e-02 6.168433651328086853e-02 1.369719160720705986e-03 -1.259565353393554688e-01 1.824319921433925629e-02 3.311190754175186157e-02 2.341691851615905762e-01 -4.472116008400917053e-02 3.575469925999641418e-02 1.276254747062921524e-02 1.029269024729728699e-01 1.128235459327697754e-01 1.013677269220352173e-01 -4.858426377177238464e-02 -8.903829753398895264e-02 -1.102496962994337082e-02 -2.793139033019542694e-02 -4.671531543135643005e-02 1.001137122511863708e-01 7.128279656171798706e-02 3.824981302022933960e-02 -4.959457740187644958e-02 -1.179378572851419449e-02 3.006136603653430939e-02 -6.365551147609949112e-03 9.109958261251449585e-02 2.775813452899456024e-02 -1.000404506921768188e-01 -9.325918555259704590e-02 -1.186520699411630630e-02 -7.093392312526702881e-02 2.316155880689620972e-01 7.182209193706512451e-02 3.628442529588937759e-03 2.603536844253540039e-02 -4.207188636064529419e-02 7.228932809084653854e-03 3.909722901880741119e-03 -4.307490959763526917e-02 7.609962671995162964e-02 -3.340185433626174927e-02
-1.863506063818931580e-02 -1.051300857216119766e-02 -9.664586978033185005e-04 -3.526110574603080750e-02 4.124659672379493713e-02 3.392344340682029724e-02 1.175939454697072506e-03 5.001171026378870010e-03 1.450127959251403809e-01 8.280433714389801025e-02 9.172547608613967896e-03 -3.553647175431251526e-02 1.122003886848688126e-02 3.675585612654685974e-03 -1.312513253651559353e-03 1.832001283764839172e-02 2.389762699604034424e-01 -3.398973867297172546e-02 -4.031102359294891357e-02 -4.383229184895753860e-03 7.187736034393310547e-02 2.402157932519912720e-01 4.600060731172561646e-02 -8.472654223442077637e-02 2.683099545538425446e-02 -3.344837948679924011e-02 2.690241672098636627e-02 1.257944107055664062e-01 1.794523373246192932e-02 -7.923796772956848145e-03 -3.691732883453369141e-02 1.059541571885347366e-02 -4.091825708746910095e-02 -2.960950694978237152e-02 -1.420315653085708618e-01 2.073855325579643250e-02 9.752313606441020966e-03 2.680488489568233490e-02 1.993105560541152954e-02 6.172491703182458878e-03 9.392613917589187622e-02 3.922963514924049377e-02 2.293858490884304047e-02 -4.281349852681159973e-02 -3.369396552443504333e-03 3.293510153889656067e-02 -3.440269455313682556e-02 -4.635651130229234695e-03 2.840277738869190216e-02 5.955368652939796448e-02 2.177693881094455719e-02 -3.606583457440137863e-03 5.802458524703979492e-02 -1.056195721030235291e-01 -2.311708591878414154e-02 -3.452996164560317993e-02 -2.059113606810569763e-02 -4.890997707843780518e-02 1.385018322616815567e-02 -3.827632591128349304e-02 -5.128755047917366028e-02 -5.741178989410400391e-02 2.787966653704643250e-02 6.830316036939620972e-03 -3.814385458827018738e-02 -1.525344909168779850e-03 1.246299780905246735e-02 1.087995059788227081e-02 -9.771721437573432922e-03 6.434519588947296143e-02 3.163795769214630127e-01 -5.060928687453269958e-02 -3.209424030501395464e-04 4.232293739914894104e-02 -3.949190676212310791e-02 5.076973140239715576e-02 2.884875237941741943e-02 5.714858882129192352e-03 9.728563949465751648e-03 6.518641859292984009e-02 3.728952957317233086e-03 -2.353330887854099274e-02 -1.136403307318687439e-01 -2.668480947613716125e-02 -4.773607943207025528e-03 -2.925545535981655121e-02 4.113794118165969849e-02 -2.301497384905815125e-02 4.469002783298492432e-02 3.567280992865562439e-02 9.082666598260402679e-03 -9.225281886756420135e-03 2.131773233413696289e-01 -8.158911019563674927e-02 7.828775048255920410e-02 -1.109992433339357376e-02 1.370811462402343750e-01 3.055110275745391846e-01 2.779942564666271210e-02 -4.865101352334022522e-02
-6.390294432640075684e-02 -3.615744039416313171e-02 4.827728867530822754e-02 8.444745838642120361e-02 -7.917128503322601318e-02 2.808162569999694824e-01 1.865662187337875366e-01 1.278481781482696533e-01 2.932482631877064705e-03 -6.590659916400909424e-02 2.934533357620239258e-02 3.158260509371757507e-02 -1.151844486594200134e-02 4.209288582205772400e-02 -4.381370265036821365e-03 -5.484451353549957275e-02 2.076334804296493530e-01 6.574153155088424683e-02 1.063342485576868057e-02 2.384439669549465179e-02 -1.570541784167289734e-02 -3.077031299471855164e-02 4.779693111777305603e-02 6.043746322393417358e-02 -2.294754981994628906e-02 1.492625288665294647e-02 -9.386351332068443298e-03 3.074495308101177216e-02 -3.361449390649795532e-02 -4.700797423720359802e-02 1.002961248159408569e-01 2.003689482808113098e-02 6.964276731014251709e-02 -1.381597816944122314e-01 -1.860955804586410522e-01 4.845560714602470398e-02 -4.332019947469234467e-03 2.075747959315776825e-02 -8.495952188968658447e-02 -8.755400776863098145e-02 -2.139220573008060455e-02 4.476143047213554382e-02 -2.041082456707954407e-02 3.057483956217765808e-02 -8.372990041971206665e-02 1.685490086674690247e-02 -3.533208370208740234e-02 -5.325127858668565750e-03 7.259566336870193481e-02 -1.074634641408920288e-01 5.041750520467758179e-02 3.006556071341037750e-02 -1.548188831657171249e-02 -4.067430645227432251e-02 -5.893689393997192383e-02 2.317668497562408447e-02 -6.344868987798690796e-02 1.690793037414550781e-02 3.399889974389225245e-04 2.309526316821575165e-02 2.759062312543392181e-02 6.040766090154647827e-02 -3.002081438899040222e-02 -5.617636069655418396e-02 6.017385050654411316e-03 1.489127427339553833e-01 -1.252980623394250870e-02 9.035150520503520966e-03 -3.976671025156974792e-02 -1.142069324851036072e-02 2.539780922234058380e-02 -2.353452704846858978e-02 1.317934542894363403e-01 -5.581406131386756897e-02 -1.377008273266255856e-03 -3.778400132432579994e-03 -6.884430348873138428e-02 -2.125819772481918335e-02 -1.073342859745025635e-01 -5.496846511960029602e-02 2.045085094869136810e-02 2.799929678440093994e-01 -1.279028784483671188e-02 -6.022074818611145020e-02 1.881517097353935242e-02 3.132459893822669983e-02 -4.681493714451789856e-02 -6.470438092947006226e-02 -7.882211357355117798e-02 -3.140152618288993835e-02 -6.254557520151138306e-02 -3.369083255529403687e-02 1.597884856164455414e-02 1.076341047883033752e-02 -3.105545230209827423e-02 6.348572671413421631e-02 6.252954155206680298e-02 2.285453490912914276e-02 -9.196683095069602132e-05 -4.329434037208557129e-02
2.262032330036163330e-01 6.232234835624694824e-02 5.731165781617164612e-02 -1.720511540770530701e-02 -9.205038845539093018e-02 -7.065448164939880371e-02 1.069252565503120422e-01 5.438943579792976379e-02 1.567976772785186768e-01 7.407166063785552979e-02 2.862875722348690033e-02 7.363930344581604004e-02 -2.404363639652729034e-02 4.799489863216876984e-03 -8.423814177513122559e-02 3.162243962287902832e-02 -4.513972997665405273e-02 -1.896134950220584869e-02 3.673870116472244263e-02 2.733858674764633179e-02 8.806989341974258423e-02 3.431640565395355225e-02 3.858208656311035156e-02 3.183809295296669006e-02 5.352732539176940918e-02 -4.028171242680400610e-04 -5.399250891059637070e-03 -5.424877163022756577e-03 -9.255724959075450897e-03 -9.065060876309871674e-03 2.112733125686645508e-01 -5.988450720906257629e-02 -6.709081679582595825e-02 -4.762366414070129395e-02 1.360669080168008804e-02 2.011360786855220795e-02 5.206060782074928284e-02 5.899434909224510193e-02 1.080312356352806091e-01 5.858702212572097778e-02 5.816500261425971985e-02 -7.452275604009628296e-02 4.855331480503082275e-01 2.678869366645812988e-01 1.902418956160545349e-02 3.877793624997138977e-02 3.996988013386726379e-02 1.418264061212539673e-01 3.392344713211059570e-02 -1.148565262556076050e-01 1.358051225543022156e-02 -3.768066177144646645e-03 -6.267331540584564209e-02 -3.788111358880996704e-02 1.588555984199047089e-02 -4.302198067307472229e-02 1.063347421586513519e-02 5.851690843701362610e-02 -1.260014250874519348e-02 -2.676981966942548752e-03 3.969503939151763916e-02 8.707357943058013916e-02 2.108128964900970459e-01 4.494104906916618347e-02 5.041048675775527954e-02 2.309044897556304932e-01 -3.789371252059936523e-02 2.639342844486236572e-02 -4.022650048136711121e-02 -5.962633341550827026e-02 1.367264539003372192e-01 -2.510207705199718475e-02 -1.535321958363056183e-02 2.424427121877670288e-02 -3.790043294429779053e-02 -3.665017336606979370e-02 7.067808508872985840e-02 -5.087436363101005554e-02 -9.093074128031730652e-03 -3.485279530286788940e-02 4.412633553147315979e-02 9.280488826334476471e-03 4.428623616695404053e-02 -7.708352804183959961e-02 5.227994918823242188e-02 4.798398911952972412e-02 -2.376454509794712067e-02 1.726440340280532837e-01 -6.631270982325077057e-03 3.359028324484825134e-02 5.004550889134407043e-02 -7.564975321292877197e-02 2.841384708881378174e-02 -6.191008165478706360e-02 -2.536321617662906647e-02 6.848632544279098511e-02 3.924467042088508606e-02 4.897737503051757812e-02 3.307079896330833435e-02 1.121800914406776428e-01
4.331841133534908295e-03 2.041871286928653717e-02 1.039530523121356964e-02 2.279920969158411026e-03 1.187244504690170288e-01 -6.380153447389602661e-02 -6.416709162294864655e-03 9.649419039487838745e-02 -1.824923045933246613e-02 9.513990581035614014e-02 1.035087183117866516e-01 1.493485365062952042e-02 -1.445073448121547699e-02 3.700427478179335594e-03 5.444567650556564331e-02 -1.681673107668757439e-03 1.245043352246284485e-01 4.895965009927749634e-02 2.264173887670040131e-02 2.150785923004150391e-01 2.147764526307582855e-02 -2.983044274151325226e-02 6.770753767341375351e-03 2.555965259671211243e-02 1.851021312177181244e-02 -5.920284427702426910e-03 4.643403925001621246e-03 -4.862759262323379517e-03 1.864954531192779541e-01 4.748266562819480896e-02 -8.344789966940879822e-03 2.809279859066009521e-01 3.135394304990768433e-02 -3.184059262275695801e-02 9.261209517717361450e-02 -2.963313134387135506e-03 1.186844799667596817e-02 4.066291451454162598e-02 -4.398458823561668396e-02 -6.238507479429244995e-02 -2.014198526740074158e-02 -3.911843895912170410e-02 -2.905452623963356018e-02 4.074890911579132080e-02 -6.208490580320358276e-02 2.232417929917573929e-03 3.186060115694999695e-02 -3.072043508291244507e-02 -1.740022003650665283e-02 -4.372737929224967957e-02 9.004477411508560181e-03 -5.179991200566291809e-02 2.622411819174885750e-03 4.962274804711341858e-03 1.209861366078257561e-03 -2.091932296752929688e-02 3.142140060663223267e-02 -1.326663419604301453e-03 5.533858761191368103e-02 4.229291155934333801e-02 2.415360184386372566e-03 6.685616821050643921e-02 1.598017849028110504e-02 5.436434969305992126e-02 4.819423332810401917e-02 -1.596546918153762817e-02 -1.503475476056337357e-03 2.056432189419865608e-03 2.909731492400169373e-02 -3.368202224373817444e-02 -5.547162145376205444e-02 6.745933741331100464e-02 -2.558203414082527161e-02 3.049459755420684814e-01 -5.986804887652397156e-02 -1.750966161489486694e-02 2.081990800797939301e-02 -2.878373302519321442e-02 2.406544424593448639e-02 2.868900448083877563e-02 -3.255284577608108521e-02 5.334788560867309570e-02 -5.027894396334886551e-03 -2.001746091991662979e-03 -4.487921018153429031e-03 6.328061223030090332e-02 1.661859452724456787e-01 -7.984151132404804230e-03 -4.771746695041656494e-03 1.585175991058349609e-01 4.975200071930885315e-02 2.817111648619174957e-02 3.383114188909530640e-02 -1.092121843248605728e-02 7.216251641511917114e-02 8.018967509269714355e-02 9.747212752699851990e-03 4.657394811511039734e-02 1.800762563943862915e-01 1.968947798013687134e-01
-7.910171896219253540e-02 5.306291952729225159e-02 5.384243559092283249e-03 3.080021403729915619e-02 -2.459325827658176422e-03 5.145443230867385864e-02 1.260741706937551498e-02 5.916302325204014778e-04 -3.569920733571052551e-02 1.952943764626979828e-02 -2.198268286883831024e-02 2.550107426941394806e-03 -2.096665836870670319e-02 -6.056280806660652161e-03 -3.082041256129741669e-02 1.976647973060607910e-02 -2.158762142062187195e-02 2.505816705524921417e-02 -1.948908343911170959e-02 8.472708612680435181e-02 -7.711897790431976318e-02 -7.232205569744110107e-02 3.355781361460685730e-02 1.600347086787223816e-02 -7.890991866588592529e-02 1.664331182837486267e-02 -1.098592765629291534e-02 -4.149739816784858704e-02 -8.048509806394577026e-02 -2.430977672338485718e-02 1.283695101737976074e-01 3.636794537305831909e-02 1.963511109352111816e-03 -1.592195912962779403e-04 7.376696448773145676e-03 9.642481803894042969e-02 2.292262390255928040e-02 4.096296057105064392e-02 -1.646530330181121826e-01 -2.675017900764942169e-02 -1.284512691199779510e-03 3.172216564416885376e-02 -1.857823878526687622e-02 -3.908751159906387329e-02 -5.121587216854095459e-02 -2.751429192721843719e-02 -3.648487105965614319e-02 3.435241058468818665e-02 7.733532786369323730e-02 2.390394546091556549e-02 3.562016040086746216e-02 -1.215705275535583496e-02 -4.724843602161854506e-04 4.587045684456825256e-02 -1.432361453771591187e-02 1.504620909690856934e-01 2.608555601909756660e-03 9.221652895212173462e-02 -1.985841058194637299e-02 7.313015311956405640e-02 2.094652969390153885e-03 -5.758292227983474731e-02 8.551306277513504028e-02 1.145933941006660461e-02 4.524679854512214661e-02 4.466754850000143051e-03 2.603397518396377563e-02 -6.064909044653177261e-03 1.173622012138366699e-01 9.300759062170982361e-03 4.377375170588493347e-02 -2.507173828780651093e-02 -7.984293997287750244e-02 1.074202060699462891e-01 -3.708214685320854187e-02 -4.444987513124942780e-03 3.970131743699312210e-03 -5.095584318041801453e-03 1.365417335182428360e-02 -1.291542872786521912e-02 6.636457890272140503e-02 2.099418640136718750e-02 -6.281811743974685669e-02 -8.075907081365585327e-02 -1.842182315886020660e-02 -5.441900342702865601e-03 1.301319897174835205e-01 -1.373630296438932419e-02 -3.016200847923755646e-03 -1.133118197321891785e-02 -2.697065286338329315e-02 1.409685611724853516e-01 8.261389285326004028e-02 -2.052159421145915985e-02 2.591926157474517822e-01 -7.889610715210437775e-03 6.364513188600540161e-02 -1.765502803027629852e-02 3.793538734316825867e-02 3.351036226376891136e-03
1.491488981992006302e-02 1.526682823896408081e-01 2.847237139940261841e-02 -6.684365123510360718e-02 -9.643173962831497192e-02 -4.721430316567420959e-02 -3.194925561547279358e-02 5.845185834914445877e-03 5.688627436757087708e-02 -2.773369289934635162e-02 -5.314637091942131519e-04 -1.288565224967896938e-03 2.135132998228073120e-02 2.368514193221926689e-03 6.642380729317665100e-03 1.886023581027984619e-02 4.361673817038536072e-02 3.377681225538253784e-02 7.781209796667098999e-02 -1.226926920935511589e-03 -3.059367835521697998e-02 1.576821133494377136e-02 -1.933316141366958618e-02 1.098378077149391174e-01 7.854115217924118042e-02 -3.310260176658630371e-02 1.083055958151817322e-01 1.161141134798526764e-02 6.813517957925796509e-02 2.664697468280792236e-01 2.539573237299919128e-02 -8.072546869516372681e-02 7.325400412082672119e-02 1.528291590511798859e-02 7.857383042573928833e-02 -6.221930310130119324e-02 -1.930100284516811371e-02 -2.462254092097282410e-02 6.289982795715332031e-02 -3.995403647422790527e-02 -1.102185249328613281e-01 8.404840528964996338e-02 -8.293437212705612183e-02 9.245088696479797363e-02 3.908861428499221802e-02 -3.736185282468795776e-02 -1.044675707817077637e-01 -2.202298026531934738e-03 -5.160585045814514160e-02 -1.570973172783851624e-02 1.706240028142929077e-01 -6.869780272245407104e-02 9.174126386642456055e-02 -1.600470393896102905e-02 1.514795124530792236e-01 -2.941250242292881012e-02 6.891707330942153931e-02 2.874330431222915649e-02 1.848844997584819794e-02 1.469126492738723755e-01 2.549824118614196777e-01 8.488833904266357422e-02 3.585515543818473816e-02 6.831303983926773071e-02 1.434878110885620117e-01 -9.382244944572448730e-02 -1.147358212620019913e-02 -4.192811995744705200e-02 -3.669967502355575562e-02 3.388594388961791992e-01 1.157207787036895752e-02 1.208700984716415405e-01 5.291983485221862793e-02 -9.427905082702636719e-02 -5.623710155487060547e-02 6.280409637838602066e-03 6.850858777761459351e-02 -6.803303211927413940e-02 1.150995213538408279e-02 7.409520447254180908e-02 1.250717192888259888e-01 -4.403716011438518763e-04 -2.447976265102624893e-03 5.256633833050727844e-02 -2.078241668641567230e-02 1.750347018241882324e-02 -4.001484066247940063e-02 -4.735206812620162964e-02 4.700014367699623108e-02 -3.914233297109603882e-03 1.425262540578842163e-01 -2.909716591238975525e-02 -3.006564266979694366e-02 -2.738953195512294769e-02 6.994626019150018692e-03 9.027540683746337891e-02 -2.824151329696178436e-02 -1.226168125867843628e-02 4.189106822013854980e-02 3.717588633298873901e-02
2.042919248342514038e-01 -9.532324969768524170e-02 6.780086457729339600e-02 1.042891740798950195e-01 -4.532094579190015793e-03 6.627730559557676315e-03 -6.426607072353363037e-02 4.208746179938316345e-02 -1.498093549162149429e-02 5.052262451499700546e-03 6.710434705018997192e-02 2.304261550307273865e-02 9.272229857742786407e-03 1.823252253234386444e-02 9.761285968124866486e-03 1.636651903390884399e-02 -6.203894689679145813e-02 -5.934488493949174881e-03 -1.517021009931340814e-04 1.430100500583648682e-01 -4.275518655776977539e-02 3.594123944640159607e-02 2.108276933431625366e-01 9.415009617805480957e-02 4.019803833216428757e-03 -4.089297726750373840e-03 2.041133791208267212e-01 -4.109185189008712769e-03 -1.005346048623323441e-02 1.357088536024093628e-01 1.729872971773147583e-01 -8.460542559623718262e-02 -9.733644314110279083e-03 2.189384400844573975e-01 5.676302313804626465e-02 -7.090853899717330933e-02 3.810182679444551468e-03 1.937340758740901947e-02 -7.272938638925552368e-02 2.195344306528568268e-02 8.617698401212692261e-02 -2.157207578420639038e-02 -5.950027331709861755e-02 3.561939671635627747e-02 -9.163524955511093140e-03 -6.498642265796661377e-02 6.183021515607833862e-02 2.060253471136093140e-01 -1.868550293147563934e-02 -3.649906814098358154e-02 1.814880594611167908e-02 3.002555668354034424e-02 6.097725126892328262e-03 3.984382003545761108e-02 -8.469799533486366272e-03 2.856368385255336761e-02 4.081711918115615845e-02 1.112414374947547913e-01 -2.080732211470603943e-02 -4.679645970463752747e-02 -2.415212430059909821e-02 4.721366986632347107e-02 9.493280202150344849e-02 4.235995560884475708e-02 7.561023347079753876e-03 7.819682359695434570e-02 -2.592661604285240173e-02 2.870569229125976562e-01 -5.019458010792732239e-02 1.551668643951416016e-01 -2.374396286904811859e-02 1.367176622152328491e-01 -7.165113836526870728e-02 -7.131846249103546143e-02 -2.755738981068134308e-02 -1.101057380437850952e-01 3.245159983634948730e-02 5.411918833851814270e-02 4.018096625804901123e-02 1.147940382361412048e-02 2.410596460103988647e-01 4.778694361448287964e-02 5.546147748827934265e-02 2.696955204010009766e-01 3.019498195499181747e-03 -3.346698731184005737e-02 -3.354727989062666893e-03 -6.125528737902641296e-02 5.437733978033065796e-02 8.248283714056015015e-02 3.311355412006378174e-02 7.121022045612335205e-02 1.115152016282081604e-01 -7.287029922008514404e-02 -9.703555703163146973e-02 6.615403294563293457e-02 5.334979854524135590e-03 6.039389409124851227e-03 8.561746031045913696e-02 6.614009290933609009e-02
-3.680642321705818176e-02 -4.383365437388420105e-02 5.806009471416473389e-02 -4.984125122427940369e-02 3.583465516567230225e-02 -6.992690265178680420e-02 2.973098158836364746e-01 1.281998902559280396e-01 5.039899796247482300e-02 6.233492400497198105e-03 -2.165524102747440338e-02 4.621219262480735779e-02 -2.018667012453079224e-02 -4.729566164314746857e-03 1.170362718403339386e-02 -2.079002745449542999e-02 1.669572293758392334e-01 -2.306247130036354065e-02 6.444662809371948242e-02 -3.492401167750358582e-02 5.202747881412506104e-02 5.029146745800971985e-02 -4.352988302707672119e-02 -1.596329361200332642e-02 -1.069451496005058289e-01 -6.919392943382263184e-02 8.504980802536010742e-02 -1.932677626609802246e-01 -1.545363850891590118e-02 1.095916777849197388e-01 -1.185050159692764282e-01 1.097799539566040039e-01 4.341399297118186951e-03 -7.973885536193847656e-02 3.775530681014060974e-02 -9.601449221372604370e-02 2.919136919081211090e-02 -5.851139314472675323e-03 4.790746793150901794e-02 -1.293440815061330795e-02 -1.373237464576959610e-02 -7.857792079448699951e-02 -3.745135664939880371e-02 3.376156836748123169e-02 8.203003555536270142e-02 7.855076342821121216e-02 3.016415797173976898e-02 -1.048327609896659851e-02 1.241107583045959473e-01 -8.530832827091217041e-02 -1.557953283190727234e-02 4.067150056362152100e-01 1.540230307728052139e-02 -1.748042553663253784e-02 2.149633169174194336e-01 -3.458115085959434509e-02 1.908954791724681854e-02 8.530108630657196045e-02 8.646124601364135742e-02 -4.754349216818809509e-02 4.756800085306167603e-02 9.003617614507675171e-02 3.355424851179122925e-02 1.077972203493118286e-01 2.927026748657226562e-01 -8.635319024324417114e-02 3.531034290790557861e-01 3.291475474834442139e-01 4.748336598277091980e-02 -2.896768599748611450e-02 9.253867901861667633e-03 -4.676349344663321972e-04 7.469404488801956177e-02 5.319157242774963379e-02 5.012156069278717041e-02 -5.335719883441925049e-02 -7.367831189185380936e-03 -1.706136576831340790e-02 1.803871593438088894e-03 1.197672933340072632e-01 -3.328939527273178101e-02 -1.594798564910888672e-01 3.246128186583518982e-02 6.670901179313659668e-02 1.261653844267129898e-02 1.146332640200853348e-02 -6.699792295694351196e-02 -3.148786351084709167e-02 -4.272060468792915344e-03 1.299444437026977539e-01 -6.707534939050674438e-02 2.248836867511272430e-02 8.056540042161941528e-03 -3.589241206645965576e-02 -3.240527212619781494e-02 -1.995813660323619843e-02 1.080283224582672119e-01 1.426219940185546875e-01 1.013115569949150085e-01 1.322753145359456539e-03
2.574827149510383606e-02 2.496830523014068604e-01 3.050578199326992035e-02 3.029580041766166687e-02 8.745057880878448486e-02 2.056032186374068260e-03 2.348413504660129547e-02 1.153656914830207825e-01 3.882186114788055420e-01 -2.002814225852489471e-02 -6.708475947380065918e-02 -2.957420656457543373e-03 -5.966107547283172607e-02 1.379707921296358109e-02 2.930109389126300812e-03 -3.939648158848285675e-03 1.442041527479887009e-02 2.660743705928325653e-02 3.743147943168878555e-03 2.830729819834232330e-02 4.069760814309120178e-02 2.968116402626037598e-01 -4.091620072722434998e-02 3.237039744853973389e-01 3.859032411128282547e-03 -9.196833707392215729e-03 2.655906416475772858e-02 5.652891844511032104e-02 -8.973497897386550903e-02 1.207658722996711731e-01 -4.118079319596290588e-02 1.054385751485824585e-01 -2.145889401435852051e-02 8.880484849214553833e-02 -1.093134507536888123e-01 1.318349689245223999e-01 6.180175393819808960e-02 -4.356839507818222046e-02 -1.161686927080154419e-01 -3.522920608520507812e-02 9.062171727418899536e-02 -1.491390354931354523e-02 -1.771250925958156586e-02 8.864905685186386108e-02 -1.776502118445932865e-03 7.084189355373382568e-02 -4.694989323616027832e-02 7.791228592395782471e-02 -1.759880967438220978e-02 6.800320744514465332e-02 -3.204578533768653870e-02 1.053604632616043091e-01 -2.376521378755569458e-02 -2.906130068004131317e-02 4.739791899919509888e-02 -2.430579066276550293e-02 -3.436469286680221558e-02 -5.720972269773483276e-02 -2.696746960282325745e-02 1.285522133111953735e-01 3.045663237571716309e-02 -3.373262286186218262e-02 2.895691692829132080e-01 2.444215491414070129e-02 -6.731808930635452271e-02 1.305429637432098389e-02 6.690323352813720703e-02 2.091660499572753906e-01 5.425770580768585205e-02 1.010163832688704133e-04 -1.370586454868316650e-02 9.185458719730377197e-02 1.157689839601516724e-02 -6.201286241412162781e-02 1.249117627739906311e-01 5.017055198550224304e-02 -3.404929116368293762e-02 -6.747525185346603394e-03 7.255090773105621338e-02 -1.107553243637084961e-01 -7.946859300136566162e-02 5.938793718814849854e-02 -8.884961903095245361e-02 -8.928417414426803589e-02 -4.622452333569526672e-02 4.974480718374252319e-03 -2.258738316595554352e-02 3.558251261711120605e-02 -1.807348616421222687e-02 1.242402195930480957e-02 6.141776219010353088e-02 -7.162977475672960281e-03 8.041769266128540039e-02 -3.907548636198043823e-02 -1.986218383535742760e-03 -8.000835031270980835e-02 2.058299630880355835e-02 2.592046745121479034e-02 2.924612537026405334e-02 -1.180564519017934799e-02
2.623620033264160156e-01 -6.350881606340408325e-02 -8.585613965988159180e-02 6.823080033063888550e-02 -8.360256254673004150e-02 1.039590612053871155e-01 -6.791970878839492798e-02 -4.241625964641571045e-02 -1.065861657261848450e-01 3.804779052734375000e-02 6.039311289787292480e-01 1.482491791248321533e-01 7.086457312107086182e-02 8.268744684755802155e-03 4.758022725582122803e-03 -1.039777174592018127e-01 -8.557624369859695435e-02 -4.483047127723693848e-02 5.078822374343872070e-02 -1.735794246196746826e-01 6.558055430650711060e-02 6.334130465984344482e-02 -1.762543804943561554e-02 1.179084554314613342e-02 -1.473165582865476608e-02 -2.294203080236911774e-02 -1.254407409578561783e-02 -9.751729667186737061e-02 -1.588704809546470642e-02 9.475649893283843994e-02 1.312096416950225830e-01 -6.678014993667602539e-02 -1.719930022954940796e-02 3.855341346934437752e-03 -1.001353934407234192e-01 -7.259722799062728882e-02 -1.163331698626279831e-02 -7.507407665252685547e-02 -2.698353119194507599e-02 1.087698619812726974e-02 2.055053263902664185e-01 5.401081405580043793e-03 -5.791467614471912384e-03 7.686261087656021118e-02 1.269835829734802246e-01 -3.414615616202354431e-02 1.400151569396257401e-02 4.373935610055923462e-02 -9.602398611605167389e-03 3.931538760662078857e-02 5.843857303261756897e-02 -1.025655269622802734e-01 -9.283701889216899872e-03 4.824568331241607666e-02 -2.029943047091364861e-03 1.177159324288368225e-02 -1.854670047760009766e-01 -2.531971083953976631e-03 -5.093985050916671753e-02 -3.844093997031450272e-03 5.122153460979461670e-02 -1.725624687969684601e-02 -4.427845031023025513e-02 6.929213553667068481e-02 -5.951343569904565811e-03 1.862641721963882446e-01 5.662631243467330933e-02 2.571919858455657959e-01 -5.881418660283088684e-02 1.855264604091644287e-01 -2.928697876632213593e-02 4.367086663842201233e-02 1.798276901245117188e-01 -3.997031599283218384e-02 -6.621875613927841187e-02 1.781350225210189819e-01 -1.599632017314434052e-02 -1.264014989137649536e-01 6.629583425819873810e-03 1.405144631862640381e-01 3.427497744560241699e-01 2.710993587970733643e-02 -5.341025814414024353e-02 1.089035272598266602e-01 -6.073180213570594788e-02 1.345514506101608276e-01 -2.991116419434547424e-02 1.035720668733119965e-02 -2.243219688534736633e-02 -6.643089652061462402e-02 -8.252558112144470215e-02 9.794668853282928467e-02 7.088088989257812500e-02 8.487541228532791138e-02 1.571965962648391724e-02 5.736840888857841492e-02 1.249226480722427368e-01 1.616142839193344116e-01 5.952104926109313965e-03 -5.197415500879287720e-02
-8.497534319758415222e-03 -1.740056648850440979e-02 4.969596862792968750e-02 -6.357044726610183716e-02 -8.444835245609283447e-02 8.629464358091354370e-02 1.822262653149664402e-03 -1.950144022703170776e-02 2.310009300708770752e-02 2.693665027618408203e-02 -3.161840885877609253e-02 -3.297810629010200500e-02 -8.529182523488998413e-02 9.864768385887145996e-02 4.362883418798446655e-02 -2.022052928805351257e-02 -5.311537906527519226e-02 6.623212993144989014e-02 5.522098392248153687e-02 -9.995046257972717285e-02 -5.395652353763580322e-02 -6.765128672122955322e-02 7.715437561273574829e-02 3.831303492188453674e-02 1.518125366419553757e-02 -2.115919440984725952e-02 1.776634454727172852e-01 9.198269993066787720e-02 5.370220541954040527e-02 4.302608221769332886e-02 5.618633702397346497e-03 1.035709828138351440e-01 -3.657488897442817688e-02 -6.210059300065040588e-02 3.177158907055854797e-02 5.496340803802013397e-03 1.074025183916091919e-01 2.002677172422409058e-01 4.097416251897811890e-02 -5.482868850231170654e-02 -2.146216668188571930e-02 1.372431684285402298e-02 9.388632327318191528e-02 1.353910714387893677e-01 -7.939806580543518066e-02 -1.193666756153106689e-01 -7.983536459505558014e-03 -7.407074421644210815e-02 -3.183330222964286804e-02 1.994775235652923584e-02 2.579613029956817627e-01 -3.149942308664321899e-02 7.497679442167282104e-02 8.478296548128128052e-02 6.417293101549148560e-02 -6.338160485029220581e-02 -4.767471551895141602e-02 -1.005900353193283081e-01 8.144811540842056274e-02 7.905507832765579224e-02 1.840826272964477539e-01 -5.307125672698020935e-02 2.842325270175933838e-01 3.580867545679211617e-03 4.154119268059730530e-02 6.461884826421737671e-02 -1.447211764752864838e-02 2.216912247240543365e-02 1.440188474953174591e-02 -6.781761348247528076e-02 -1.796831842511892319e-03 6.237458437681198120e-02 -6.528322119265794754e-03 1.009725406765937805e-02 -7.277992367744445801e-02 5.124458670616149902e-02 -3.539040684700012207e-02 -7.637268304824829102e-02 7.227478176355361938e-02 9.054311551153659821e-03 7.701506465673446655e-02 1.502034962177276611e-01 -3.812953084707260132e-02 2.105519361793994904e-02 2.871527075767517090e-01 2.738641202449798584e-02 -8.900047279894351959e-03 -4.484800994396209717e-02 6.058295071125030518e-02 4.983504116535186768e-02 2.135566025972366333e-01 1.341471076011657715e-02 2.960980869829654694e-02 2.467917501926422119e-01 9.615010768175125122e-02 7.859680056571960449e-02 3.030475415289402008e-02 -3.876657283399254084e-04 6.950882822275161743e-02 -1.287868991494178772e-02
3.384437039494514465e-02 -1.343398354947566986e-02 -1.860094629228115082e-02 -7.263663224875926971e-03 1.701991409063339233e-01 1.576380431652069092e-02 6.929295137524604797e-03 7.885799556970596313e-02 2.219167537987232208e-02 7.408446073532104492e-02 -6.200984586030244827e-03 1.505438797175884247e-02 6.840314716100692749e-02 1.587572880089282990e-02 -1.818422973155975342e-02 2.920015342533588409e-02 -8.639619499444961548e-02 -7.436446612700819969e-04 -1.114209182560443878e-02 1.304556708782911301e-02 3.802864253520965576e-02 6.493116263300180435e-03 2.628537453711032867e-02 -1.754846423864364624e-02 7.638583332300186157e-02 -9.729859419167041779e-03 -8.781544864177703857e-03 2.441490739583969116e-01 5.563196167349815369e-02 -3.236047551035881042e-02 9.896145761013031006e-02 -2.396455034613609314e-03 -6.140998005867004395e-02 5.584258213639259338e-02 4.828816279768943787e-02 -2.162000909447669983e-02 -1.158728823065757751e-02 -1.974126882851123810e-02 9.447598457336425781e-02 -1.933479495346546173e-02 -5.922256968915462494e-03 2.227083966135978699e-02 3.715138137340545654e-02 -2.503961138427257538e-02 -4.516176134347915649e-02 6.149516999721527100e-02 3.241610527038574219e-02 6.006048526614904404e-03 -3.405989333987236023e-02 -5.305993184447288513e-02 2.271712385118007660e-02 9.417201392352581024e-03 2.628409862518310547e-02 -1.090580970048904419e-02 -9.815249592065811157e-03 -1.349127572029829025e-02 -3.171955421566963196e-02 -3.524253517389297485e-02 -1.647825166583061218e-02 1.502528600394725800e-02 -4.509077966213226318e-02 -9.093991480767726898e-03 8.054137229919433594e-03 -1.261099334806203842e-02 -3.396942839026451111e-02 6.160909775644540787e-03 3.847881406545639038e-02 6.314928829669952393e-02 2.073277719318866730e-02 6.418617442250251770e-03 2.969393730163574219e-01 1.046688389033079147e-02 5.202770978212356567e-02 -1.090386509895324707e-02 8.149484544992446899e-02 4.976928606629371643e-02 -6.845775526016950607e-03 1.437217369675636292e-02 2.287214063107967377e-02 -6.302712112665176392e-02 -5.166727118194103241e-03 3.468255326151847839e-02 -1.497319620102643967e-02 6.486335187219083309e-04 -4.633846133947372437e-02 -4.548824578523635864e-02 1.665056496858596802e-02 -3.057552129030227661e-02 -1.381152402609586716e-02 4.001227021217346191e-02 -1.459150295704603195e-02 -6.131966412067413330e-02 -4.969604685902595520e-02 4.320976510643959045e-02 -1.699924282729625702e-02 3.111019358038902283e-02 4.170921072363853455e-02 2.724334001541137695e-01 -1.978565752506256104e-02 2.466996572911739349e-02
-1.374761294573545456e-02 6.128995865583419800e-02 2.478236556053161621e-01 9.196491539478302002e-02 1.261565089225769043e-01 -4.156320542097091675e-02 -1.266837269067764282e-01 5.153245478868484497e-02 -1.483501307666301727e-02 5.283199250698089600e-02 -3.850670903921127319e-02 -1.950018480420112610e-02 9.215694665908813477e-02 2.885407768189907074e-02 1.019422709941864014e-02 1.173075139522552490e-01 -2.850915677845478058e-02 5.192333087325096130e-02 1.209164969623088837e-02 -5.059071630239486694e-02 4.985661432147026062e-02 -1.259884098544716835e-03 1.375923603773117065e-01 1.797924935817718506e-02 1.927135884761810303e-02 -7.319088280200958252e-02 8.676198869943618774e-02 -1.016864776611328125e-01 -5.647674202919006348e-02 -6.852950155735015869e-02 -2.001895569264888763e-02 -3.008102811872959137e-02 4.929007962346076965e-02 -2.002501487731933594e-02 -8.649261295795440674e-02 3.722045570611953735e-02 -2.470866590738296509e-02 1.640461683273315430e-01 -6.008097529411315918e-02 -4.817249253392219543e-02 5.301727727055549622e-02 2.746212482452392578e-01 1.558510065078735352e-01 3.547532483935356140e-02 -1.844721473753452301e-02 -4.681979492306709290e-02 -2.048879861831665039e-02 -8.638820797204971313e-02 5.000216886401176453e-02 1.387642174959182739e-01 1.192958503961563110e-01 4.957548901438713074e-02 1.737945713102817535e-02 6.160777807235717773e-02 1.914920210838317871e-01 -1.124172285199165344e-02 -2.918799966573715210e-02 -4.703909158706665039e-02 -4.569190368056297302e-02 9.962387382984161377e-03 3.440117537975311279e-01 1.202233359217643738e-01 -2.693140413612127304e-03 9.048613160848617554e-02 -8.197173476219177246e-02 8.107136934995651245e-02 1.807526685297489166e-02 2.640716135501861572e-01 -7.735605817288160324e-03 4.201282933354377747e-02 2.017570286989212036e-02 -8.435969799757003784e-02 5.478620901703834534e-02 -6.225379556417465210e-02 3.972746729850769043e-01 2.838397398591041565e-02 7.637646049261093140e-02 3.047306835651397705e-02 -1.016700174659490585e-02 1.024990156292915344e-01 3.009284473955631256e-02 8.613305538892745972e-02 3.392592445015907288e-02 4.496081545948982239e-02 -2.937025018036365509e-02 -5.525419861078262329e-02 -8.986228145658969879e-03 1.982426270842552185e-03 -1.219575852155685425e-01 -6.039284914731979370e-02 -3.073699399828910828e-02 1.008715201169252396e-02 8.874083310365676880e-02 -1.023693457245826721e-01 -1.501560658216476440e-01 -8.393522351980209351e-02 -4.541948810219764709e-02 -6.780335307121276855e-02 1.018199622631072998e-01 1.005142256617546082e-01
6.965117529034614563e-03 8.163125067949295044e-02 -4.010695498436689377e-03 3.088309988379478455e-02 1.707565411925315857e-02 4.761166125535964966e-02 3.971898555755615234e-02 -2.589992247521877289e-02 -3.313143923878669739e-02 -5.287417173385620117e-01 -1.664730608463287354e-01 -8.753901720046997070e-02 4.232034087181091309e-02 1.087626442313194275e-02 -2.268376201391220093e-02 4.915121826343238354e-04 6.713476032018661499e-02 9.737315122038125992e-04 3.705612849444150925e-03 -9.855569154024124146e-02 4.018985852599143982e-02 -3.254805505275726318e-02 7.353229913860559464e-03 -6.790030281990766525e-03 -6.469607353210449219e-02 3.702005743980407715e-02 -4.802592471241950989e-02 1.469948608428239822e-02 -8.341477811336517334e-02 1.166301667690277100e-01 1.019410882145166397e-02 -5.387515947222709656e-02 1.742569729685783386e-02 -1.333235949277877808e-01 1.476836800575256348e-01 4.110091552138328552e-02 1.746718212962150574e-02 1.244131848216056824e-02 1.140944361686706543e-01 -9.440397843718528748e-03 -7.699134200811386108e-02 -1.878362335264682770e-02 -1.955750398337841034e-02 -1.687348932027816772e-01 4.026412367820739746e-01 -1.349494676105678082e-03 3.589009493589401245e-02 -1.223124861717224121e-01 -2.255468256771564484e-02 -1.128956750035285950e-01 -2.240891940891742706e-02 2.778401039540767670e-02 -4.282708838582038879e-02 -5.404445342719554901e-03 3.517010062932968140e-02 -2.944754809141159058e-02 -2.179031632840633392e-02 1.177227497100830078e-01 -1.257541477680206299e-01 3.093215450644493103e-02 3.592572733759880066e-02 -7.590409368276596069e-02 3.131165355443954468e-02 2.121771872043609619e-02 -8.905307203531265259e-02 -4.692045971751213074e-03 -4.578241333365440369e-02 -3.253055736422538757e-02 -3.473302582278847694e-03 -8.449838496744632721e-03 1.487896405160427094e-02 -1.073109433054924011e-01 -7.757115364074707031e-02 -1.684039235115051270e-01 -4.183311387896537781e-02 2.964032813906669617e-02 -9.001528471708297729e-02 -9.891584049910306931e-04 3.299896419048309326e-02 1.526103615760803223e-01 -9.204935282468795776e-03 -4.843821749091148376e-02 -3.157934173941612244e-02 -3.447574749588966370e-02 2.964287996292114258e-02 2.750174328684806824e-02 -4.940924234688282013e-03 5.566080217249691486e-04 -2.621067874133586884e-02 4.277856647968292236e-01 -2.509716153144836426e-02 -2.797618508338928223e-01 6.140438094735145569e-02 -4.255140200257301331e-02 -3.436045488342642784e-03 -4.754581674933433533e-02 -6.978822406381368637e-03 2.548824762925505638e-03 1.436060015112161636e-02 -7.154316455125808716e-02
4.302097111940383911e-02 3.993562981486320496e-02 6.122894212603569031e-02 -1.183922216296195984e-02 7.165028154850006104e-02 1.485061645507812500e-01 -2.249541319906711578e-02 4.780520126223564148e-02 2.752395346760749817e-03 5.699954554438591003e-02 2.349924109876155853e-02 -4.124071449041366577e-02 -8.922309614717960358e-03 3.081007488071918488e-02 2.796227633953094482e-01 2.959533929824829102e-01 1.691310554742813110e-01 2.029906772077083588e-02 2.382142283022403717e-02 2.209083922207355499e-02 3.521332517266273499e-02 -2.157696709036827087e-02 1.158502101898193359e-01 -3.147754445672035217e-02 1.733766309916973114e-02 6.012807600200176239e-03 2.335784882307052612e-01 1.444706171751022339e-01 2.470465600490570068e-01 -9.704241901636123657e-02 1.312348339706659317e-02 1.762643307447433472e-01 4.439354687929153442e-02 2.791411429643630981e-02 4.736341908574104309e-02 2.780853807926177979e-01 -1.012325566262006760e-02 1.488322578370571136e-02 8.555892109870910645e-02 1.831545680761337280e-02 1.617498695850372314e-02 -2.607386931777000427e-02 2.629786916077136993e-02 1.026135683059692383e-02 -3.015036322176456451e-02 -2.795084752142429352e-02 -3.615039959549903870e-02 2.798664569854736328e-01 -1.452883332967758179e-02 8.428204804658889771e-02 2.933901548385620117e-01 -1.198267214931547642e-03 -3.933809697628021240e-02 8.293930441141128540e-03 1.760482043027877808e-02 4.946210235357284546e-02 -1.747559756040573120e-02 1.746392250061035156e-01 2.198907732963562012e-02 -1.287525985389947891e-02 1.424792110919952393e-01 6.142171099781990051e-02 -6.247643008828163147e-02 7.647380977869033813e-02 3.973225504159927368e-02 5.011906474828720093e-02 -1.274166069924831390e-02 4.847980290651321411e-02 5.670456588268280029e-02 2.771886251866817474e-02 4.837160557508468628e-02 8.766581118106842041e-02 -3.488723561167716980e-02 2.185268253087997437e-01 9.088968485593795776e-02 6.691154837608337402e-02 8.261360973119735718e-02 -1.758799143135547638e-02 5.940958857536315918e-02 -3.562076389789581299e-02 3.088686056435108185e-02 2.495248103514313698e-03 3.961483836174011230e-01 -5.164339393377304077e-02 2.209795080125331879e-02 3.983844071626663208e-02 4.215424880385398865e-02 -3.541592881083488464e-02 -2.926282025873661041e-02 9.255471080541610718e-02 2.325470149517059326e-01 1.290751504711806774e-03 3.158409520983695984e-02 -2.456862851977348328e-02 1.332904398441314697e-01 -4.427892342209815979e-02 1.101450696587562561e-01 -2.887502685189247131e-02 -1.421035360544919968e-02 4.359977319836616516e-02
1.549595743417739868e-01 -1.952293328940868378e-02 1.112518273293972015e-02 7.353885471820831299e-02 1.251779794692993164e-01 3.293093666434288025e-02 1.040356010198593140e-01 9.918887168169021606e-02 6.434097141027450562e-02 1.020302027463912964e-01 -8.779803663492202759e-02 -2.345380373299121857e-02 2.505763433873653412e-02 3.887746948748826981e-03 3.336047008633613586e-02 -3.923599794507026672e-02 -5.637952126562595367e-03 8.980154246091842651e-02 6.282608211040496826e-02 -8.649179339408874512e-02 -1.862703938968479633e-03 -3.872570767998695374e-02 3.170575574040412903e-02 -2.471051178872585297e-02 2.955620922148227692e-02 6.944041699171066284e-02 -7.422034442424774170e-02 7.857649773359298706e-02 5.534015223383903503e-02 -8.735319226980209351e-02 -1.980430074036121368e-02 -8.022638410329818726e-02 1.238020136952400208e-01 -3.434636443853378296e-02 5.900808051228523254e-02 -6.640782207250595093e-02 -3.046003915369510651e-02 9.056226350367069244e-03 8.880089223384857178e-02 -1.187479346990585327e-01 1.118333917111158371e-02 -7.405471988022327423e-03 1.439061313867568970e-01 9.182921797037124634e-02 9.352008998394012451e-02 7.942521013319492340e-03 1.164800487458705902e-02 4.188068956136703491e-02 6.554647115990519524e-04 -2.619447559118270874e-02 2.494672313332557678e-02 8.103039860725402832e-02 7.536539342254400253e-04 6.509962677955627441e-02 -4.092902317643165588e-02 5.381351709365844727e-02 -7.909550331532955170e-03 7.026449590921401978e-02 2.653505466878414154e-02 7.069084048271179199e-02 1.059537529945373535e-01 -7.533193100243806839e-03 2.235116660594940186e-01 6.547399610280990601e-02 -2.717274986207485199e-02 -9.361943230032920837e-03 1.631318219006061554e-02 2.416875511407852173e-01 1.501786801964044571e-02 -4.184795171022415161e-02 -4.314611107110977173e-02 -3.941375762224197388e-02 -2.823740243911743164e-02 1.230352595448493958e-01 1.115253195166587830e-01 4.350422322750091553e-02 9.320759028196334839e-02 3.804343193769454956e-02 -5.862169340252876282e-02 6.797989364713430405e-03 2.932550013065338135e-01 -8.075035363435745239e-02 8.785372227430343628e-02 8.348400145769119263e-02 -2.358356432523578405e-04 2.403975836932659149e-02 -6.136634945869445801e-02 -3.662534430623054504e-02 -7.195603847503662109e-02 5.003829300403594971e-02 3.448199108242988586e-02 -7.643514126539230347e-02 3.390470519661903381e-02 -1.314003318548202515e-01 2.630580663681030273e-01 -1.416222564876079559e-02 -1.172026619315147400e-01 1.715194992721080780e-02 3.608584031462669373e-02 -3.382727503776550293e-02
2.270372807979583740e-01 -9.816046804189682007e-02 4.960730206221342087e-03 1.940756440162658691e-01 5.519714951515197754e-02 2.593505755066871643e-02 2.545471489429473877e-02 2.976815449073910713e-03 -3.454713523387908936e-02 7.571131456643342972e-03 2.788148261606693268e-02 -5.502370744943618774e-02 2.040777206420898438e-01 -2.697327919304370880e-02 -2.117737196385860443e-02 2.989998832345008850e-02 3.120593912899494171e-02 -1.461225282400846481e-02 5.486842710524797440e-03 2.707837224006652832e-01 -2.027098275721073151e-02 5.108622461557388306e-02 -3.113568946719169617e-02 -1.405770797282457352e-02 -6.101505458354949951e-02 4.242189601063728333e-02 -4.066256433725357056e-02 -5.949153006076812744e-02 4.175766929984092712e-02 8.866606652736663818e-02 4.760730639100074768e-02 -7.087405771017074585e-02 5.713184177875518799e-02 -4.273144528269767761e-02 1.240926329046487808e-02 1.131903729401528835e-03 2.555376105010509491e-02 1.090312823653221130e-01 -7.980844238772988319e-04 -6.184160010889172554e-04 3.355771675705909729e-02 1.156937181949615479e-01 7.293396443128585815e-02 -1.167296543717384338e-01 -3.240132704377174377e-02 -1.605927711352705956e-03 -4.523024708032608032e-02 5.065893009305000305e-02 -1.779042370617389679e-02 6.098452582955360413e-02 5.701176077127456665e-02 1.501522362232208252e-01 3.836174681782722473e-02 8.164186030626296997e-02 -5.288098007440567017e-02 5.578705668449401855e-02 7.936398498713970184e-03 1.615168340504169464e-02 -4.110879451036453247e-02 -5.737765878438949585e-02 -6.352172046899795532e-02 -9.126843512058258057e-02 -4.575683176517486572e-02 2.071016430854797363e-01 -7.715836167335510254e-02 -1.220510452985763550e-01 -3.909857477992773056e-03 4.014809429645538330e-02 -3.717292845249176025e-02 7.088568061590194702e-02 3.116649575531482697e-02 7.629880309104919434e-02 -1.380506530404090881e-02 1.223265193402767181e-02 -5.450616404414176941e-02 2.436241507530212402e-02 1.006915196776390076e-01 -3.563127014786005020e-03 6.819970905780792236e-02 -3.560952469706535339e-02 1.166613586246967316e-02 3.534441068768501282e-02 -4.370040819048881531e-02 1.450003124773502350e-02 3.160658478736877441e-02 -2.253472432494163513e-02 9.323742240667343140e-03 -4.103656485676765442e-02 -7.199029903858900070e-03 -6.253115087747573853e-02 5.440816655755043030e-02 3.492814674973487854e-02 1.456300616264343262e-01 -2.252218499779701233e-02 -7.364258170127868652e-02 1.531690806150436401e-01 1.914534531533718109e-02 -2.648141235113143921e-02 -1.897158101201057434e-02 -1.154318824410438538e-02
1.643205434083938599e-01 3.023960590362548828e-01 1.224743351340293884e-01 -1.081141978502273560e-01 3.122177720069885254e-02 7.673131674528121948e-02 2.318615019321441650e-01 2.652475237846374512e-02 -2.359491586685180664e-02 -4.704260081052780151e-02 2.414703182876110077e-02 -1.338291564024984837e-03 9.571713954210281372e-02 3.040083684027194977e-02 -5.400855466723442078e-02 4.727265983819961548e-02 5.581561475992202759e-03 2.763210237026214600e-01 -5.003235768526792526e-03 -6.792037189006805420e-02 1.080043166875839233e-01 2.878805994987487793e-02 1.150485826656222343e-03 5.812615156173706055e-02 5.950179323554039001e-02 3.894327208399772644e-02 -4.265024140477180481e-02 5.581147596240043640e-02 1.230612248182296753e-01 9.643395990133285522e-02 8.428113162517547607e-02 4.642839077860116959e-03 -2.508429437875747681e-02 1.175191253423690796e-01 -5.610741302371025085e-02 -5.125705525279045105e-02 2.994364202022552490e-01 -6.082590296864509583e-02 2.941578254103660583e-02 5.467946454882621765e-02 -3.600260475650429726e-03 1.719435453414916992e-01 -2.568712830543518066e-02 5.715544521808624268e-02 -9.767335653305053711e-02 9.453407675027847290e-02 5.604023858904838562e-02 5.951739475131034851e-02 -1.353034377098083496e-01 5.336065217852592468e-02 -1.319852843880653381e-02 -7.050856482237577438e-03 -1.159474719315767288e-02 -2.413715422153472900e-02 2.278834581375122070e-01 5.905693862587213516e-03 1.900744736194610596e-01 -1.009783614426851273e-02 3.925249353051185608e-02 -2.558970451354980469e-02 1.601763069629669189e-01 1.305129379034042358e-01 -5.947257205843925476e-02 4.966600239276885986e-02 4.806128889322280884e-02 -5.019105225801467896e-02 1.779477298259735107e-02 -3.225525468587875366e-02 3.289838880300521851e-02 1.728446036577224731e-01 5.783547461032867432e-02 9.698160924017429352e-03 2.127718552947044373e-02 8.796183764934539795e-02 5.799337476491928101e-02 1.403142325580120087e-02 -3.027069009840488434e-02 2.963112294673919678e-02 -3.718025982379913330e-02 7.347095757722854614e-02 6.662416271865367889e-03 1.891810819506645203e-02 -4.337543249130249023e-02 1.186160668730735779e-01 -1.487996894866228104e-02 -4.781867936253547668e-02 7.445473968982696533e-02 3.987013548612594604e-02 1.012069433927536011e-01 1.462112367153167725e-01 1.368335634469985962e-01 -1.090404167771339417e-01 -2.522468194365501404e-02 2.337120175361633301e-01 4.078961163759231567e-02 8.064332604408264160e-02 -6.354403216391801834e-03 -4.978610202670097351e-02 -4.815658554434776306e-02 -4.018046706914901733e-02
