-4.517490789294242859e-02 -6.512490659952163696e-02 -6.236257031559944153e-02 1.052566990256309509e-02 -5.886684358119964600e-02 5.155235901474952698e-02 5.251482501626014709e-02 4.479985311627388000e-02 -8.369959890842437744e-03 -3.929140791296958923e-02 2.611621096730232239e-02 -5.851905420422554016e-02 -3.329539671540260315e-02 -1.384624373167753220e-02 -3.672997653484344482e-02 2.050805836915969849e-02 -2.564458874985575676e-03 -3.827439795713871717e-04 -1.244209613651037216e-02 1.535974536091089249e-02 -3.020267747342586517e-02 -6.962085515260696411e-02 2.454030700027942657e-02 -3.221992030739784241e-02 -1.688621938228607178e-03 5.365750193595886230e-02 4.534844309091567993e-02 -4.234537109732627869e-02 4.997398331761360168e-02 1.846473664045333862e-02 -4.967908374965190887e-03 2.822055295109748840e-02 4.370774328708648682e-02 2.625866793096065521e-03 3.707966953516006470e-02 -3.372795879840850830e-02 -4.573093354701995850e-02 -1.755524240434169769e-02 -5.128308385610580444e-02 -2.634161384776234627e-03 3.756241127848625183e-02 6.431849300861358643e-02 1.820520497858524323e-02 -1.568306982517242432e-02 -1.735254935920238495e-02 -9.697880595922470093e-03 1.660773903131484985e-02 2.890275977551937103e-02 -4.831873252987861633e-02 3.180464729666709900e-02 1.007705926895141602e-03 -6.394259631633758545e-02 -4.568144679069519043e-02 -1.248027291148900986e-02 6.582613289356231689e-02 4.092166572809219360e-02 2.898654714226722717e-02 -3.953873738646507263e-02 6.774088740348815918e-02 4.041152074933052063e-02 -6.848635617643594742e-03 1.075763814151287079e-02 -2.754642395302653313e-03 4.394410923123359680e-02 2.839914709329605103e-02 3.787685930728912354e-02 -3.869476169347763062e-02 2.612046897411346436e-02 5.934033915400505066e-02 2.954420074820518494e-02 -3.814635425806045532e-02 6.159301847219467163e-02 5.672420561313629150e-02 -8.201262913644313812e-03 3.821543604135513306e-02 6.056410446763038635e-02 1.993072219192981720e-02 5.357700213789939880e-02 3.456479310989379883e-02 -1.360392477363348007e-02 -4.235322773456573486e-02 -6.919120997190475464e-02 7.034733146429061890e-02 3.868931531906127930e-02 5.855862423777580261e-02 4.198989365249872208e-03 3.534645587205886841e-02 -5.302815698087215424e-03 1.190205942839384079e-02 -7.679476402699947357e-03 6.111632287502288818e-02 5.808797106146812439e-02 3.752485848963260651e-03 -1.515545137226581573e-02 -4.137261305004358292e-03 -9.740903973579406738e-03 1.590453612152487040e-04 -4.673699662089347839e-02 4.731976985931396484e-02 1.773162744939327240e-02 3.498562797904014587e-02 6.666389852762222290e-02 -7.069008052349090576e-02 2.620210684835910797e-02 -1.770504936575889587e-02 -1.145415659993886948e-02 -1.928248815238475800e-02 3.138723969459533691e-02 -4.630926623940467834e-02 2.053955942392349243e-02 5.494929384440183640e-03 -1.084854919463396072e-02 5.690143257379531860e-02 -5.774467438459396362e-02 -7.070187479257583618e-02 -5.548051092773675919e-03 6.245782226324081421e-02 -3.431260213255882263e-02 -5.372492596507072449e-03 5.897955223917961121e-02 7.068648189306259155e-02 3.491582348942756653e-02 -6.335940957069396973e-02 -3.795916587114334106e-02 2.777468226850032806e-02 -2.862100675702095032e-02 2.572531625628471375e-02 -3.623073920607566833e-02 -4.557542875409126282e-02 1.232566125690937042e-02 3.161709383130073547e-02 6.283310800790786743e-02 -4.151913151144981384e-02 4.118742793798446655e-02 4.558829218149185181e-02 4.460879787802696228e-02 -8.405270986258983612e-03 1.845906488597393036e-02 -6.937099248170852661e-02 1.201285514980554581e-02 -5.600740015506744385e-02 -6.633402407169342041e-02 6.189391482621431351e-03 -2.108989655971527100e-02 -4.992191493511199951e-02 2.794599160552024841e-02 4.794934391975402832e-02 3.933257982134819031e-02 1.478826813399791718e-02 2.348623052239418030e-02 3.659115359187126160e-02 4.046016559004783630e-02 2.618642756715416908e-03 -3.271416574716567993e-02 1.906179822981357574e-02 -2.070083096623420715e-02 -2.964187879115343094e-03 -4.364619776606559753e-02 3.431975096464157104e-02 -1.871718838810920715e-02 -7.317393086850643158e-03 5.325531214475631714e-02 -3.033291175961494446e-02 -3.159445943310856819e-03 5.265314131975173950e-02 -3.109992481768131256e-02 3.955826535820960999e-02 1.567148044705390930e-02 6.162180751562118530e-02 -6.406915187835693359e-02 5.017292499542236328e-02 -6.292364560067653656e-03 3.520488366484642029e-02 -2.096317708492279053e-02 -3.907824680209159851e-02 6.121477857232093811e-02 2.651037648320198059e-02 5.452270060777664185e-02 2.894198894500732422e-02 -2.201550826430320740e-02 -4.289981350302696228e-02 -2.616111561655998230e-02 2.754916995763778687e-02 -1.968066580593585968e-02 -6.468810141086578369e-02 -4.145198315382003784e-02 3.939912095665931702e-02 3.177795931696891785e-02 5.052153766155242920e-02 -5.157439410686492920e-02 6.989150494337081909e-02 1.234346348792314529e-02 2.956306561827659607e-03 4.430248588323593140e-02 -6.757023185491561890e-02 4.824898764491081238e-02 -1.253496203571557999e-02 -5.858032777905464172e-02 4.195119813084602356e-02 2.356223948299884796e-02
4.338057339191436768e-02 3.020422905683517456e-02 -7.599102333188056946e-03 4.384901747107505798e-02 -4.961478337645530701e-02 -2.594045829027891159e-03 2.109677530825138092e-02 2.682945504784584045e-02 -5.903570726513862610e-02 6.123568862676620483e-02 5.098408460617065430e-02 -6.197924539446830750e-02 -4.150684177875518799e-02 -4.542492330074310303e-02 -1.759138703346252441e-02 4.282440524548292160e-03 6.453322619199752808e-02 6.927328556776046753e-02 -5.632076039910316467e-02 1.877810806035995483e-03 -5.436545982956886292e-02 -6.736171990633010864e-02 -6.744648516178131104e-02 5.645668506622314453e-02 3.032213135156780481e-04 -2.290399000048637390e-02 -6.015814840793609619e-02 -3.821009770035743713e-02 -4.509368911385536194e-02 4.971342533826828003e-02 4.082177951931953430e-02 -4.737116396427154541e-02 1.317579671740531921e-02 5.423070490360260010e-02 -2.238872647285461426e-02 3.967420384287834167e-02 -2.984779328107833862e-02 -6.290825456380844116e-02 5.120079591870307922e-02 -4.006369970738887787e-03 -3.330415487289428711e-02 -3.690036013722419739e-02 4.749758541584014893e-02 -4.571556672453880310e-02 -5.610051006078720093e-02 3.635436296463012695e-02 -3.709942800924181938e-03 -1.981721259653568268e-02 -2.764318324625492096e-02 -4.883871600031852722e-02 -4.822596907615661621e-02 2.456281334161758423e-02 -4.338798299431800842e-02 -5.304595082998275757e-02 -6.591756641864776611e-02 3.796944022178649902e-02 -4.814355447888374329e-02 -2.701668813824653625e-02 -9.310719557106494904e-03 -3.078554384410381317e-02 4.708109050989151001e-02 -3.519896045327186584e-02 -3.425620123744010925e-02 -1.857949420809745789e-02 -5.618874914944171906e-03 -1.016342639923095703e-02 4.884046316146850586e-02 2.975619956851005554e-02 -6.728461384773254395e-02 -5.663494020700454712e-02 4.333547782152891159e-03 -6.240758299827575684e-02 -2.238112315535545349e-02 -3.891361504793167114e-02 -2.989922836422920227e-02 4.726015776395797729e-02 4.346652701497077942e-02 2.866860851645469666e-02 -2.352160029113292694e-02 -3.415150800719857216e-03 6.137411668896675110e-02 2.913475222885608673e-02 -4.281205311417579651e-02 -3.197610750794410706e-02 -5.732425302267074585e-02 6.697584688663482666e-02 6.958107929676771164e-03 2.621539123356342316e-02 3.288378939032554626e-02 3.615129273384809494e-03 -5.021764338016510010e-02 -3.370620310306549072e-02 6.842049211263656616e-02 5.186476930975914001e-02 2.606640197336673737e-02 2.585203619673848152e-03 1.555226370692253113e-02 5.836580321192741394e-02 -6.658551096916198730e-02 -4.402462020516395569e-02 -4.780673235654830933e-02 1.236486621201038361e-02 4.366809129714965820e-02 8.062355220317840576e-03 -3.179161250591278076e-02 -5.468956753611564636e-02 2.929703518748283386e-02 2.494225278496742249e-02 -2.566044405102729797e-02 1.727689616382122040e-02 3.355125337839126587e-02 8.584343828260898590e-03 -5.257503315806388855e-02 -2.326250821352005005e-02 -1.484965067356824875e-02 5.273726582527160645e-02 -3.179030865430831909e-02 3.514035046100616455e-02 -4.731268808245658875e-02 6.249196082353591919e-02 2.063759230077266693e-02 -5.402261018753051758e-02 5.330069363117218018e-02 7.067154347896575928e-02 6.144447624683380127e-02 -7.275473792105913162e-03 5.864809080958366394e-02 -4.593871161341667175e-02 -6.629384309053421021e-02 -5.091769248247146606e-02 5.388633161783218384e-02 -3.605587035417556763e-02 -9.412664920091629028e-03 6.165084615349769592e-02 3.019220754504203796e-02 -2.613651752471923828e-02 5.075373500585556030e-02 -2.148772031068801880e-02 6.048060581088066101e-02 -6.882823258638381958e-02 6.777442246675491333e-02 4.297441989183425903e-02 3.837486729025840759e-02 1.963371410965919495e-02 -1.703988760709762573e-03 -4.408392123878002167e-03 -8.709975518286228180e-03 -4.565205052495002747e-02 -3.757693618535995483e-02 7.037625461816787720e-02 -3.776643425226211548e-02 -3.843260183930397034e-02 -3.667691349983215332e-02 -3.941122442483901978e-02 -3.912054002285003662e-03 -6.375446915626525879e-02 -3.820912912487983704e-02 -3.753627091646194458e-02 6.738406419754028320e-02 4.716767743229866028e-02 -8.707260712981224060e-03 6.937763839960098267e-02 3.842770308256149292e-02 4.430085048079490662e-02 -1.651247031986713409e-02 5.916767194867134094e-02 1.889859698712825775e-02 -3.368123248219490051e-02 -9.496140293776988983e-03 5.992767959833145142e-02 5.313462018966674805e-02 -2.412762120366096497e-02 3.860388323664665222e-02 -1.100058946758508682e-02 1.215683761984109879e-02 -5.369781702756881714e-02 4.853736609220504761e-02 5.284263193607330322e-02 -4.505451023578643799e-02 5.812733620405197144e-02 1.261161919683218002e-02 -1.792948134243488312e-02 3.232869878411293030e-02 -5.217510461807250977e-02 5.109171941876411438e-02 6.162763759493827820e-02 6.304346024990081787e-02 5.554112067329697311e-05 -3.983349539339542389e-03 -2.033059485256671906e-02 -1.753538288176059723e-02 -9.561923332512378693e-03 2.887065149843692780e-02 4.740957543253898621e-02 -6.817910820245742798e-02 -2.461124025285243988e-02 -3.168848156929016113e-02 -1.859768480062484741e-02 3.668143972754478455e-02 -1.421067025512456894e-02
4.769059270620346069e-02 -1.253075618296861649e-02 4.212754592299461365e-02 -3.738821670413017273e-02 -3.103706799447536469e-02 7.040347158908843994e-02 2.059559710323810577e-02 5.453757941722869873e-02 -5.770701169967651367e-02 -5.505654215812683105e-02 -3.447081428021192551e-03 5.126227065920829773e-02 1.170038711279630661e-03 -6.769967824220657349e-02 -5.105248093605041504e-02 -3.496993333101272583e-02 5.988488346338272095e-02 -7.245970773510634899e-04 6.160185486078262329e-02 -4.516046866774559021e-02 -5.993788689374923706e-02 -1.747882179915904999e-02 3.627360332757234573e-03 1.091883238404989243e-02 8.766730315983295441e-03 1.358720008283853531e-02 -2.851143479347229004e-02 -3.697168081998825073e-02 4.032634943723678589e-02 1.174371410161256790e-02 -1.581349788466468453e-04 4.793883860111236572e-02 1.377424784004688263e-02 -3.123754262924194336e-02 2.734976587817072868e-03 -1.998960226774215698e-02 -4.047835618257522583e-02 6.513158977031707764e-02 3.284348174929618835e-02 -2.105631306767463684e-02 -6.165193393826484680e-02 -2.072333730757236481e-02 1.613829098641872406e-02 -6.170665472745895386e-02 4.373961314558982849e-02 1.395074278116226196e-02 -2.902652695775032043e-02 6.189218536019325256e-02 -3.146181628108024597e-02 -8.218711242079734802e-03 4.173751920461654663e-02 3.660447150468826294e-02 -5.176922772079706192e-03 -1.722117699682712555e-02 1.668357849121093750e-02 1.567685045301914215e-02 7.602651137858629227e-03 -4.595578834414482117e-02 1.007729489356279373e-02 1.336483377963304520e-02 -5.116214603185653687e-02 6.506554782390594482e-02 -4.304412379860877991e-02 3.186920657753944397e-02 3.352891653776168823e-02 -1.001498475670814514e-02 4.566325619816780090e-02 -1.229556836187839508e-02 4.334210231900215149e-02 -1.006633695214986801e-02 -4.356428235769271851e-02 4.582073166966438293e-02 -4.474802687764167786e-02 -4.389179870486259460e-02 5.484957247972488403e-03 6.066587194800376892e-02 -2.058662846684455872e-02 -4.951789602637290955e-02 -1.612707972526550293e-02 -4.772552475333213806e-02 -2.647108864039182663e-03 -1.739657670259475708e-02 -6.725812703371047974e-02 5.051183700561523438e-02 4.803683236241340637e-02 -6.843324750661849976e-02 -1.643078052438795567e-03 4.983973130583763123e-02 5.709394440054893494e-02 3.927513211965560913e-02 6.237364560365676880e-02 -6.298425141721963882e-03 6.604114174842834473e-02 1.188575755804777145e-02 -4.002315457910299301e-03 -2.279795706272125244e-02 2.786307968199253082e-02 -2.916115336120128632e-02 -5.502462759613990784e-02 4.505700431764125824e-03 -1.539245992898941040e-02 6.893454492092132568e-02 2.739188633859157562e-02 -5.987372994422912598e-02 2.500338293612003326e-02 4.715834558010101318e-02 3.018607944250106812e-02 -5.713017284870147705e-02 1.399280503392219543e-02 5.725605040788650513e-02 -4.530672729015350342e-02 -2.962932921946048737e-02 1.078462880104780197e-02 -5.901991855353116989e-03 -3.804221749305725098e-02 2.164650522172451019e-02 -4.244533553719520569e-02 5.620048195123672485e-02 -4.028679057955741882e-02 7.029297202825546265e-02 7.327836938202381134e-03 5.158521607518196106e-02 -2.431643195450305939e-02 5.483975261449813843e-02 -6.082630902528762817e-02 -2.880259230732917786e-02 1.277013309299945831e-02 -4.898580908775329590e-02 4.039032012224197388e-02 -1.013110857456922531e-02 -3.303472697734832764e-02 2.582613192498683929e-02 2.006718516349792480e-02 4.824265837669372559e-02 2.288843691349029541e-02 -9.495297446846961975e-03 6.020576506853103638e-02 -4.178323224186897278e-02 5.088594928383827209e-02 -3.448155894875526428e-02 2.434868179261684418e-02 -5.144174024462699890e-02 2.760195545852184296e-02 2.994156070053577423e-02 5.189076438546180725e-02 -3.754916787147521973e-02 1.989603601396083832e-02 -2.268647775053977966e-02 -7.101963274180889130e-03 2.265157178044319153e-03 1.795604266226291656e-02 4.471107199788093567e-02 1.479227188974618912e-02 8.568985387682914734e-03 -4.372797161340713501e-02 -1.988925039768218994e-02 -4.815240576863288879e-02 -5.180579423904418945e-02 -4.522915929555892944e-02 -4.918105155229568481e-02 -1.497508771717548370e-02 -4.859595000743865967e-02 6.662840396165847778e-02 5.841102451086044312e-02 2.892275340855121613e-02 1.066762022674083710e-03 2.348122373223304749e-02 -1.950416341423988342e-02 -5.782204866409301758e-02 3.854818269610404968e-02 1.378924399614334106e-02 -1.827244646847248077e-02 5.873021855950355530e-02 -2.645692601799964905e-02 -2.979574911296367645e-02 -5.029518529772758484e-02 -1.407389529049396515e-02 6.998267024755477905e-02 -3.865838050842285156e-02 -3.620684146881103516e-03 5.600894242525100708e-02 -1.306409947574138641e-02 -6.139883026480674744e-02 -3.483673324808478355e-03 6.946112960577011108e-03 1.454604975879192352e-02 -1.998325437307357788e-02 5.482209473848342896e-02 -2.550027798861265182e-03 -1.718047261238098145e-02 -2.022010274231433868e-02 6.243309751152992249e-02 6.359772384166717529e-02 3.770652785897254944e-02 -1.456460333429276943e-03 -1.556297764182090759e-02 -1.434091292321681976e-02 -7.011097669601440430e-02 1.282466296106576920e-02 -1.109015941619873047e-02
-3.760045394301414490e-02 4.679282382130622864e-02 3.590523079037666321e-02 3.299154341220855713e-02 -3.721486777067184448e-02 -6.312964856624603271e-02 4.625005647540092468e-02 1.811584644019603729e-02 1.510111521929502487e-02 -6.785611063241958618e-02 4.354842752218246460e-02 8.192783221602439880e-03 -4.712774977087974548e-02 -2.406596951186656952e-02 2.632375992834568024e-02 2.244303002953529358e-03 2.214824594557285309e-02 -3.702888265252113342e-02 5.175110418349504471e-03 -5.552112683653831482e-02 6.106362119317054749e-02 5.979662016034126282e-02 -3.824840858578681946e-02 -5.704415962100028992e-02 1.075798366218805313e-02 3.429624019190669060e-03 -3.238349780440330505e-02 -3.819786012172698975e-03 3.802353981882333755e-03 1.551576424390077591e-02 -3.503029420971870422e-02 3.580912575125694275e-02 2.877078950405120850e-03 2.488926611840724945e-02 3.108641318976879120e-02 -5.210721492767333984e-02 3.085184842348098755e-02 -1.792140491306781769e-02 1.540875341743230820e-02 -4.052765294909477234e-02 3.508752211928367615e-02 -5.848641693592071533e-02 -6.491918116807937622e-02 4.936442151665687561e-02 4.067750275135040283e-02 -6.799772381782531738e-02 1.789273694157600403e-02 -6.113886088132858276e-02 -4.727794975042343140e-02 3.320465609431266785e-02 2.821729891002178192e-02 -3.289376152679324150e-03 -2.369360253214836121e-02 8.032574318349361420e-03 5.230526253581047058e-02 6.728670001029968262e-02 -5.825367569923400879e-02 6.084262952208518982e-02 -3.148505464196205139e-02 -6.174624711275100708e-02 5.846349895000457764e-02 3.890546411275863647e-02 -5.754536949098110199e-03 2.781213261187076569e-02 6.869380362331867218e-03 9.754256345331668854e-03 -4.598187748342752457e-03 6.415419280529022217e-02 -7.014838606119155884e-02 4.406950622797012329e-02 -2.796902135014533997e-02 1.362017646897584200e-04 3.586164116859436035e-02 5.625467374920845032e-02 -5.453326180577278137e-02 3.292486816644668579e-02 4.370586946606636047e-02 2.215814962983131409e-02 6.542234867811203003e-02 -5.928683653473854065e-02 -4.557430744171142578e-02 -3.940810635685920715e-02 2.889612503349781036e-02 -3.068661550059914589e-03 -2.207820652984082699e-04 3.808062523603439331e-02 -2.485456317663192749e-02 2.693405374884605408e-02 -2.712754160165786743e-02 -4.201461002230644226e-02 -3.865541517734527588e-02 3.129031881690025330e-02 5.643370561301708221e-03 3.628409653902053833e-02 4.245603922754526138e-03 2.907076478004455566e-02 5.885067582130432129e-02 -9.626247920095920563e-03 -3.740866854786872864e-02 1.961395516991615295e-02 7.935349829494953156e-03 5.922432616353034973e-02 -3.323633223772048950e-03 -1.186589803546667099e-02 -3.239608556032180786e-02 2.253517881035804749e-02 -3.774246200919151306e-02 -4.566337168216705322e-02 -7.269058842211961746e-03 5.708130821585655212e-02 6.680960953235626221e-02 -2.736471965909004211e-02 5.728380754590034485e-02 -3.632632642984390259e-02 -2.437766268849372864e-02 2.664541639387607574e-02 -5.140340328216552734e-02 2.001544646918773651e-02 2.997652627527713776e-02 -3.588640689849853516e-02 2.332927659153938293e-02 -6.786553189158439636e-03 -4.239324107766151428e-02 -6.609649211168289185e-02 -4.606284946203231812e-02 1.161949057132005692e-02 5.135033279657363892e-02 7.225900422781705856e-03 3.064857423305511475e-02 4.635043442249298096e-02 3.102888166904449463e-02 -1.178359333425760269e-02 -1.125322561711072922e-02 -2.138446085155010223e-02 -4.070982709527015686e-02 -6.126138940453529358e-02 3.464952483773231506e-02 -4.473948851227760315e-02 -5.068199336528778076e-02 5.262941122055053711e-02 1.052380725741386414e-02 6.183483451604843140e-02 4.265613481402397156e-02 1.055163214914500713e-03 3.493641689419746399e-02 -5.462278053164482117e-02 -6.889896839857101440e-02 -1.524111069738864899e-02 1.465554721653461456e-02 -6.024476885795593262e-02 -4.101028293371200562e-02 -5.152282118797302246e-02 1.052035950124263763e-02 -3.574176877737045288e-02 -7.711094804108142853e-03 3.728091344237327576e-02 -2.088237367570400238e-02 -6.898158043622970581e-02 -8.292241021990776062e-03 -1.506698504090309143e-02 4.071133583784103394e-02 -6.742838770151138306e-03 -1.348082162439823151e-02 -6.972877681255340576e-02 -6.157300900667905807e-03 6.949830800294876099e-02 6.223513558506965637e-02 5.650790780782699585e-02 5.573464184999465942e-02 2.380454167723655701e-02 1.251389738172292709e-02 -3.694318979978561401e-02 4.207761213183403015e-02 4.370588809251785278e-02 -1.233695633709430695e-02 -4.050189256668090820e-02 5.396026745438575745e-02 -5.853863060474395752e-02 6.910684704780578613e-02 7.685731165111064911e-03 -6.350832432508468628e-02 -5.705164745450019836e-02 4.019863903522491455e-02 8.795887231826782227e-03 7.026936113834381104e-02 -1.579756732098758221e-03 9.610181674361228943e-03 3.026125393807888031e-02 1.339069474488496780e-02 1.079904288053512573e-02 -1.600248506292700768e-03 2.086489088833332062e-02 -5.782646685838699341e-02 1.003970019519329071e-02 1.606386713683605194e-02 6.905677169561386108e-02 4.126597195863723755e-02 5.841217190027236938e-02 -6.746993958950042725e-02 -1.632210984826087952e-02
6.194901838898658752e-02 6.286785751581192017e-02 -4.781791195273399353e-02 -3.584581241011619568e-02 -1.884193532168865204e-02 5.778868496417999268e-02 -1.886201277375221252e-02 -6.807433813810348511e-02 2.684821840375661850e-03 -1.536950655281543732e-02 3.901362791657447815e-02 2.749279513955116272e-02 3.245720639824867249e-02 2.438589744269847870e-02 -4.201399534940719604e-02 4.114128649234771729e-02 -3.622211515903472900e-02 -2.324730157852172852e-02 6.072854623198509216e-02 -5.449250456877052784e-04 2.297832816839218140e-02 5.210566148161888123e-02 3.297542780637741089e-02 -3.787594148889183998e-03 5.726436153054237366e-02 2.841861732304096222e-02 -1.260541472584009171e-02 6.347392499446868896e-02 2.507607825100421906e-02 5.874014273285865784e-02 2.739058993756771088e-02 4.893309995532035828e-02 -9.184017777442932129e-03 3.137066960334777832e-02 3.361467644572257996e-02 6.140721961855888367e-02 5.511403828859329224e-02 -3.104448504745960236e-02 1.107531599700450897e-02 2.129909582436084747e-02 1.575580798089504242e-02 6.232376024127006531e-02 -4.656159877777099609e-02 -2.324310317635536194e-02 1.081387046724557877e-03 2.872061729431152344e-02 4.853633046150207520e-02 -5.301387608051300049e-02 -5.390658974647521973e-02 3.348505869507789612e-02 6.730608642101287842e-02 -1.679752580821514130e-02 2.824927121400833130e-02 1.131143048405647278e-02 1.414748374372720718e-02 -6.961186975240707397e-02 8.992814458906650543e-03 2.341284602880477905e-02 5.648574978113174438e-02 6.655421853065490723e-02 4.626664519309997559e-02 5.614728480577468872e-02 5.788926407694816589e-02 -1.771958172321319580e-02 -2.726715803146362305e-02 6.250460445880889893e-02 6.719024479389190674e-02 5.088069010525941849e-03 -2.973333001136779785e-02 -5.890507996082305908e-02 9.505447000265121460e-03 6.996899098157882690e-02 2.985271625220775604e-02 -3.196924552321434021e-02 -5.642364174127578735e-02 2.211664430797100067e-02 5.261983722448348999e-02 6.971950829029083252e-02 3.675987571477890015e-02 5.344868823885917664e-02 2.083967812359333038e-02 7.005605846643447876e-02 3.422036767005920410e-02 -3.572155535221099854e-02 6.398086249828338623e-02 -4.878088086843490601e-02 2.371703647077083588e-02 -8.008584380149841309e-03 3.159479703754186630e-03 -3.705723956227302551e-02 2.059508301317691803e-02 2.110210247337818146e-02 4.608732834458351135e-02 5.062182433903217316e-03 1.697429083287715912e-02 3.749383904505521059e-05 3.441753238439559937e-02 -3.420852497220039368e-02 2.477054670453071594e-02 -9.353794157505035400e-03 6.531836092472076416e-02 5.437380447983741760e-02 2.321387827396392822e-02 -2.889090683311223984e-03 -6.332848966121673584e-02 3.810543194413185120e-02 -5.427438020706176758e-02 -6.297510117292404175e-02 -1.664330251514911652e-02 1.357968151569366455e-02 -4.715714976191520691e-02 5.489007011055946350e-02 3.204898908734321594e-02 1.563953235745429993e-02 4.224823787808418274e-02 6.113885343074798584e-02 1.324344240128993988e-02 5.623185634613037109e-02 2.158785238862037659e-02 2.839096076786518097e-02 -2.092348411679267883e-02 4.748331382870674133e-03 -5.381605122238397598e-03 3.309756889939308167e-02 6.273785233497619629e-02 -6.140398234128952026e-02 -6.951993703842163086e-02 -2.549638226628303528e-02 5.090436711907386780e-02 6.000137701630592346e-02 1.897944323718547821e-02 3.551152721047401428e-02 5.901676043868064880e-02 8.348498493432998657e-03 3.348027914762496948e-02 -6.810507178306579590e-02 3.288923576474189758e-02 5.220318958163261414e-02 4.731211345642805099e-03 -6.359300017356872559e-02 -2.762286923825740814e-02 -1.718312688171863556e-02 -5.005373433232307434e-02 -2.327348291873931885e-02 4.425475746393203735e-02 6.549238413572311401e-02 -4.903094843029975891e-02 -5.126043409109115601e-02 -5.846949294209480286e-02 -5.354404821991920471e-02 -2.639599144458770752e-02 -5.312568508088588715e-03 3.912202268838882446e-02 1.539060566574335098e-02 -6.867212802171707153e-02 5.673287063837051392e-02 -5.464256554841995239e-02 3.468314884230494499e-03 -3.817242011427879333e-02 -6.807412952184677124e-02 -5.961478222161531448e-03 1.270177122205495834e-02 -6.803987920284271240e-02 4.425083100795745850e-02 9.075826965272426605e-03 1.424179133027791977e-02 -3.971143625676631927e-03 1.680145412683486938e-02 6.632708944380283356e-03 -5.006684362888336182e-02 -3.492334485054016113e-02 -3.905362635850906372e-02 -3.468467295169830322e-02 -1.058679167181253433e-02 -5.072529241442680359e-02 -6.999737769365310669e-02 1.727972738444805145e-02 2.861874736845493317e-02 -7.027944922447204590e-02 -6.410968303680419922e-02 1.373219396919012070e-02 6.452572997659444809e-03 -3.504359722137451172e-02 4.680027440190315247e-02 -4.140220955014228821e-02 -2.737972326576709747e-02 -1.176336314529180527e-02 -4.759227484464645386e-02 -3.255584463477134705e-02 -2.132257260382175446e-02 3.241718932986259460e-02 -3.479188680648803711e-02 -6.261704117059707642e-02 4.181671515107154846e-02 6.118434667587280273e-02 -6.186477467417716980e-02 -8.479153737425804138e-03 -8.499704301357269287e-03 7.054776698350906372e-02 1.423055492341518402e-02
-5.996128916740417480e-02 1.736592687666416168e-02 -1.117363572120666504e-02 2.327279932796955109e-02 1.763541437685489655e-02 6.944328546524047852e-02 1.256184373050928116e-02 -1.665107347071170807e-02 -6.399166584014892578e-02 -4.900179803371429443e-02 4.272178560495376587e-02 3.170610591769218445e-02 1.036895997822284698e-02 -4.229724034667015076e-02 2.214709110558032990e-02 -4.102497547864913940e-02 -9.118538349866867065e-03 -2.810158021748065948e-02 5.127556249499320984e-02 6.751042604446411133e-02 5.612953007221221924e-02 -4.351532459259033203e-02 6.003278493881225586e-02 -1.436829101294279099e-02 1.398708950728178024e-02 5.683239921927452087e-02 -1.386253722012042999e-02 -3.422865271568298340e-02 -4.677417129278182983e-02 -3.654716908931732178e-02 -3.639364615082740784e-02 -5.059774219989776611e-02 4.936311766505241394e-02 4.682634025812149048e-02 3.353316336870193481e-02 5.787292867898941040e-02 -2.742788009345531464e-02 -1.571468077600002289e-02 -2.238343469798564911e-03 -6.883899122476577759e-02 -6.448059529066085815e-02 -1.440652646124362946e-02 4.416144639253616333e-02 -1.972476020455360413e-02 1.628931052982807159e-02 -6.834433972835540771e-02 -6.698796898126602173e-02 6.810943037271499634e-02 5.455609038472175598e-02 6.526051461696624756e-02 -6.774996966123580933e-02 3.827486187219619751e-02 -5.957403406500816345e-02 -5.871450901031494141e-02 -5.356700345873832703e-02 6.786194443702697754e-02 -4.213526844978332520e-02 -5.639477819204330444e-02 -6.169117987155914307e-02 1.849993830546736717e-03 4.163914173841476440e-02 -9.767802432179450989e-03 -1.766426675021648407e-02 -1.290777605026960373e-02 -6.468895077705383301e-02 -3.176814690232276917e-02 2.720296010375022888e-02 4.250841215252876282e-02 4.820576310157775879e-02 4.579722136259078979e-02 -6.860495358705520630e-02 1.362942345440387726e-02 -1.688277162611484528e-02 4.304653406143188477e-02 -1.317225676029920578e-02 -1.294687204062938690e-02 5.774771794676780701e-02 -3.122946806252002716e-02 7.049094140529632568e-02 1.268573850393295288e-02 -5.476489290595054626e-02 2.435725415125489235e-03 3.078135289251804352e-02 4.004716873168945312e-02 -5.016413331031799316e-02 1.642041280865669250e-02 -7.026631385087966919e-02 -3.756527602672576904e-02 -3.521008417010307312e-02 -6.002407893538475037e-02 -1.889150775969028473e-02 5.235821381211280823e-02 -1.551727298647165298e-02 -5.564203485846519470e-02 -4.708223044872283936e-02 4.997201263904571533e-02 1.239456236362457275e-02 -4.987528547644615173e-02 -1.481841132044792175e-02 3.149181604385375977e-02 6.884863972663879395e-02 -3.213144466280937195e-02 5.108746234327554703e-03 -1.502816751599311829e-02 -5.432356521487236023e-02 3.096625208854675293e-02 -5.289572104811668396e-02 3.972013667225837708e-02 -6.561232358217239380e-02 -2.384232915937900543e-02 9.040879085659980774e-03 3.445555642247200012e-02 -3.450715914368629456e-02 -4.549397528171539307e-02 4.226309061050415039e-02 -4.511644318699836731e-02 6.883494555950164795e-02 -5.519672110676765442e-02 -5.862399470061063766e-03 -3.662358969449996948e-02 -4.499473050236701965e-02 -1.650442928075790405e-02 -7.014787942171096802e-02 8.498078212141990662e-03 5.859141424298286438e-02 -2.506722696125507355e-02 -4.310698062181472778e-02 -6.826709955930709839e-02 -6.754065304994583130e-02 5.552006140351295471e-02 -2.681936509907245636e-02 -3.296570852398872375e-02 5.100603401660919189e-02 4.499345086514949799e-03 4.865671694278717041e-02 -1.820917613804340363e-02 -1.554965856485068798e-04 5.517746135592460632e-02 6.120877340435981750e-02 -5.269865039736032486e-03 1.304831914603710175e-02 -9.196181781589984894e-03 -5.713320150971412659e-02 5.037179216742515564e-02 -2.275130897760391235e-02 -6.849764287471771240e-02 -6.010862439870834351e-02 -5.056400597095489502e-02 -4.709029570221900940e-02 2.965379133820533752e-02 -4.391777794808149338e-03 -6.703657656908035278e-02 8.020174689590930939e-03 -4.893082380294799805e-02 1.626094616949558258e-02 3.966580703854560852e-02 6.839778274297714233e-02 3.500499948859214783e-02 4.591117799282073975e-02 6.283751130104064941e-02 3.009472228586673737e-02 4.399498924612998962e-03 5.873491615056991577e-02 -5.325845628976821899e-02 -2.248087711632251740e-02 -4.803390428423881531e-02 6.083977222442626953e-02 5.790154635906219482e-02 -6.228787079453468323e-02 -4.020700976252555847e-02 -5.131497234106063843e-02 1.600554399192333221e-02 -2.181648276746273041e-02 4.131010174751281738e-02 4.659901559352874756e-02 2.079755812883377075e-02 5.039251223206520081e-02 -6.124380603432655334e-02 -2.275706455111503601e-02 -3.795904666185379028e-02 2.220602892339229584e-02 5.119052901864051819e-02 5.860589444637298584e-02 -2.183287777006626129e-02 6.353895366191864014e-02 3.164346888661384583e-02 2.187790721654891968e-02 3.357777372002601624e-02 5.283576250076293945e-02 1.490978524088859558e-03 -6.486096885055303574e-03 -5.569158587604761124e-03 -1.261303480714559555e-02 5.830024555325508118e-02 5.636417120695114136e-02 1.559475623071193695e-02 1.486144308000802994e-02 5.131301656365394592e-02 1.423920411616563797e-02 8.387214504182338715e-03
-4.921505600214004517e-02 3.037860733456909657e-04 -1.565994881093502045e-02 3.093221411108970642e-02 6.956335157155990601e-02 -7.467545103281736374e-03 -3.993485867977142334e-02 -5.169802531599998474e-02 7.003661990165710449e-02 4.766909778118133545e-02 -6.519617885351181030e-02 1.900361850857734680e-02 5.191344767808914185e-02 -5.516044050455093384e-02 -4.251618310809135437e-02 6.824151426553726196e-02 2.840712107717990875e-02 -1.624623686075210571e-02 6.035575643181800842e-02 8.736873278394341469e-04 3.791325911879539490e-02 -3.160086460411548615e-03 1.956332102417945862e-02 -6.319475919008255005e-02 -6.911017745733261108e-02 5.877223238348960876e-02 3.865961916744709015e-03 -6.471473723649978638e-02 -6.010682880878448486e-02 -3.520884737372398376e-02 1.246497314423322678e-02 2.466120943427085876e-02 -5.275988951325416565e-02 4.371083807200193405e-03 6.426537781953811646e-02 1.765965670347213745e-02 -9.348255698569118977e-04 2.297122217714786530e-02 5.815571546554565430e-02 -4.666430130600929260e-02 -5.119130387902259827e-02 6.217006221413612366e-02 5.987071245908737183e-02 -3.722172975540161133e-02 -5.669534578919410706e-02 6.801971793174743652e-02 -2.018534950911998749e-02 -2.267906069755554199e-02 6.493514869362115860e-03 2.733283117413520813e-02 -6.866317242383956909e-02 -1.504123304039239883e-02 2.935377322137355804e-02 4.012254625558853149e-02 -1.980399526655673981e-02 -2.976730931550264359e-03 -5.754641443490982056e-02 2.059665974229574203e-03 -2.338243275880813599e-02 4.327227920293807983e-02 -3.812642768025398254e-02 2.246148884296417236e-03 -4.041052609682083130e-02 -1.047054189257323742e-03 2.463521249592304230e-02 -1.546803768724203110e-02 1.584822684526443481e-02 -8.254983462393283844e-03 2.812832780182361603e-02 4.394618421792984009e-02 5.937550589442253113e-02 -6.725689023733139038e-02 4.469656571745872498e-02 2.438189461827278137e-02 -4.438344016671180725e-02 -2.061630040407180786e-02 2.111116424202919006e-02 -5.137953162193298340e-02 2.825768478214740753e-02 4.410475865006446838e-02 -4.403935372829437256e-02 6.398656219244003296e-02 -1.141125150024890900e-02 6.243956461548805237e-02 -2.284022979438304901e-02 -3.229859098792076111e-02 -1.516534760594367981e-02 -5.760189145803451538e-02 4.889309406280517578e-02 5.134068801999092102e-02 -4.304536059498786926e-02 -9.910047985613346100e-03 -6.969940662384033203e-02 -2.494878508150577545e-02 -1.417873147875070572e-02 -6.558106094598770142e-02 4.982196912169456482e-02 -7.457733619958162308e-03 6.935900449752807617e-02 -6.314795464277267456e-02 -3.233273699879646301e-02 4.606294259428977966e-02 -4.333008825778961182e-02 -2.259197644889354706e-02 -5.288827791810035706e-02 3.195383027195930481e-02 -1.544138416647911072e-02 5.324237793684005737e-02 4.164459556341171265e-02 -4.343539848923683167e-02 4.507672414183616638e-02 2.463828958570957184e-02 8.428880944848060608e-03 2.759894542396068573e-02 -2.803167700767517090e-02 -3.149090334773063660e-02 4.588184505701065063e-02 -6.697794049978256226e-02 6.051508709788322449e-02 -4.089696705341339111e-02 -4.183638840913772583e-02 -6.863707210868597031e-03 -2.307899110019207001e-02 3.485107049345970154e-02 2.153879404067993164e-02 -6.611248850822448730e-02 3.575974842533469200e-03 -1.108289323747158051e-02 -3.131408244371414185e-02 4.743298515677452087e-02 -6.751171499490737915e-02 5.863726884126663208e-02 4.669934138655662537e-02 1.865455880761146545e-02 -2.979920618236064911e-02 5.534954369068145752e-02 2.513146772980690002e-02 1.147498562932014465e-02 3.658669441938400269e-02 6.849707663059234619e-02 -2.407664200291037560e-03 1.137069799005985260e-02 -3.623493015766143799e-02 -5.534002184867858887e-02 -5.075345560908317566e-02 1.991082169115543365e-02 1.090102177113294601e-02 1.717785000801086426e-02 -5.027148127555847168e-02 6.099750101566314697e-02 3.245412930846214294e-02 5.620959401130676270e-02 -1.154815312474966049e-03 -4.757986590266227722e-02 1.197656709700822830e-02 -5.781550705432891846e-02 -3.857761994004249573e-02 1.215771399438381195e-02 -7.016017334535717964e-04 2.332319878041744232e-02 -1.585913449525833130e-02 4.266315698623657227e-02 -3.326983004808425903e-02 3.411143645644187927e-02 4.077913612127304077e-02 -4.222403094172477722e-02 3.049826994538307190e-02 3.732244297862052917e-02 2.262969687581062317e-02 3.141152486205101013e-02 6.238484755158424377e-02 4.622346162796020508e-02 -4.214620217680931091e-02 -9.594713337719440460e-03 4.307331517338752747e-02 3.573504835367202759e-02 -2.347335964441299438e-02 -3.538969904184341431e-02 6.412001699209213257e-02 4.478653147816658020e-02 -6.558056920766830444e-02 1.051244419068098068e-02 -2.229100652039051056e-02 -2.189157158136367798e-02 -8.427785709500312805e-03 -2.847966365516185760e-02 -7.066942006349563599e-02 4.974845796823501587e-02 8.455383591353893280e-03 -3.366804867982864380e-02 -1.967721804976463318e-02 4.213773831725120544e-02 -4.792550578713417053e-02 -2.613528817892074585e-02 -3.635037690401077271e-02 -5.834169220179319382e-03 1.040465012192726135e-02 -1.749124564230442047e-02 5.028817057609558105e-02 4.295418038964271545e-02
-6.787733174860477448e-03 6.017543375492095947e-02 -4.867695644497871399e-02 -5.221467092633247375e-02 -5.762941017746925354e-02 3.079430200159549713e-02 -4.470511525869369507e-02 2.774990722537040710e-02 -5.062738806009292603e-02 -8.793493732810020447e-03 4.768117144703865051e-02 -2.112105116248130798e-02 3.748627007007598877e-02 2.365776896476745605e-02 -2.461333014070987701e-02 2.987579442560672760e-03 -6.191904097795486450e-02 -5.252781510353088379e-02 -3.118083812296390533e-02 -4.403845220804214478e-02 -1.700847968459129333e-02 8.127379231154918671e-03 -1.350521668791770935e-02 -5.191258713603019714e-02 1.719151437282562256e-02 -4.035484045743942261e-02 3.779130987823009491e-03 6.462222337722778320e-02 4.253608360886573792e-02 4.544167220592498779e-02 -4.265433922410011292e-02 7.560892263427376747e-04 6.090539321303367615e-02 -1.363118458539247513e-02 5.585122853517532349e-02 -4.612284898757934570e-02 5.326630175113677979e-02 -5.693916603922843933e-02 -1.068527996540069580e-02 -5.137502029538154602e-02 -1.656013727188110352e-02 -3.057705983519554138e-02 6.773436069488525391e-02 1.779562234878540039e-02 -5.458243936300277710e-02 6.537177413702011108e-02 -5.608852207660675049e-02 -5.910626426339149475e-02 1.766690611839294434e-02 -5.265043582767248154e-03 2.413511648774147034e-02 -1.252779737114906311e-02 4.757927730679512024e-02 6.595653481781482697e-03 -4.002716764807701111e-02 -3.689522668719291687e-02 -4.861414059996604919e-02 -3.789797425270080566e-02 6.089789792895317078e-03 2.922108629718422890e-03 -6.434212625026702881e-02 -4.389920830726623535e-02 3.622469678521156311e-02 4.101481288671493530e-02 6.762431561946868896e-02 6.802585721015930176e-02 -5.137838423252105713e-02 -1.671814732253551483e-02 -3.540758416056632996e-02 4.046619310975074768e-02 6.421272456645965576e-02 3.885647282004356384e-02 -5.659741908311843872e-02 2.447433024644851685e-02 -6.346120685338973999e-02 7.439171895384788513e-03 -5.943075940012931824e-02 -4.046762734651565552e-02 2.076700143516063690e-02 2.194390073418617249e-02 5.709989368915557861e-02 1.957882195711135864e-02 -6.205391138792037964e-02 -6.630294770002365112e-02 -5.848615616559982300e-02 1.940456219017505646e-02 1.569687761366367340e-02 6.473940610885620117e-02 3.070647642016410828e-02 7.806186913512647152e-04 -3.229817748069763184e-02 -5.422484874725341797e-02 4.030827060341835022e-02 3.238495811820030212e-02 -5.573189258575439453e-02 -2.369842305779457092e-02 -5.835915729403495789e-02 -5.046161636710166931e-02 -6.435033679008483887e-02 -3.159420564770698547e-03 -1.472905976697802544e-03 -1.270944997668266296e-02 2.901457436382770538e-02 -6.202313676476478577e-02 -5.850990861654281616e-02 4.041461646556854248e-02 5.673641338944435120e-02 2.889562770724296570e-02 1.942320726811885834e-03 -6.321522593498229980e-02 2.011947333812713623e-03 -9.715355001389980316e-03 -3.454233705997467041e-02 -4.673673585057258606e-02 2.040298655629158020e-02 -2.895438112318515778e-03 -3.123268671333789825e-02 1.478559523820877075e-02 3.291914239525794983e-02 4.331752192229032516e-03 2.082341117784380913e-03 4.532031342387199402e-02 -1.764600165188312531e-02 4.569607973098754883e-02 -1.611784100532531738e-02 -2.680665254592895508e-02 4.591966979205608368e-03 -1.631029136478900909e-02 -2.508306503295898438e-02 3.712088987231254578e-02 6.906012445688247681e-02 -1.571041531860828400e-02 -6.079755723476409912e-02 -4.570623394101858139e-03 -6.926184147596359253e-02 -4.316020384430885315e-02 -1.674963906407356262e-02 -1.600615121424198151e-02 -1.532566547393798828e-02 1.769984886050224304e-02 6.342075765132904053e-02 3.521548956632614136e-02 1.487085036933422089e-02 2.309383638203144073e-02 -3.627237305045127869e-02 -6.460269214585423470e-04 -1.364065147936344147e-02 5.329753458499908447e-02 5.800982937216758728e-02 -2.859679050743579865e-02 -6.503237783908843994e-02 -5.392803996801376343e-02 3.996617160737514496e-04 5.164201185107231140e-02 2.212949097156524658e-02 4.125808179378509521e-02 5.077313166111707687e-03 -4.548251256346702576e-02 2.886089961975812912e-03 5.235346965491771698e-03 -6.266008317470550537e-02 5.569703876972198486e-02 -1.826442196033895016e-03 4.352331534028053284e-02 5.494625773280858994e-03 4.584888741374015808e-02 4.443233832716941833e-02 -8.523062802851200104e-03 -5.904018506407737732e-02 5.394805222749710083e-03 6.699503213167190552e-02 6.150440126657485962e-02 2.001415751874446869e-02 1.914027519524097443e-02 4.907264187932014465e-02 -2.156923152506351471e-02 -3.767153620719909668e-02 -9.045405313372612000e-03 3.183983638882637024e-02 4.820169135928153992e-02 4.370899870991706848e-02 2.011525910347700119e-03 3.765038773417472839e-02 -3.706986457109451294e-02 8.068070746958255768e-03 3.851243481040000916e-02 -3.382328525185585022e-02 4.765018448233604431e-02 3.676114976406097412e-02 -5.186218768358230591e-02 2.905444614589214325e-02 -2.097368799149990082e-02 -6.505005806684494019e-02 -6.335718184709548950e-02 5.331652611494064331e-02 6.084343791007995605e-02 1.504277531057596207e-02 -4.014927521347999573e-02 -1.898968475870788097e-04 -1.315869390964508057e-02
6.607486307621002197e-02 -4.379630088806152344e-02 -4.685853142291307449e-03 -1.354985032230615616e-02 -3.026387467980384827e-02 2.700979262590408325e-02 8.887008763849735260e-03 3.708393499255180359e-02 -5.203146860003471375e-02 -6.478206720203161240e-03 3.920906409621238708e-02 4.860277101397514343e-02 -2.960159629583358765e-02 -9.295200929045677185e-03 5.542351305484771729e-02 1.016916707158088684e-02 -6.047644838690757751e-02 -2.695259824395179749e-02 -5.404249578714370728e-02 6.595746427774429321e-02 3.975525125861167908e-02 -6.555704027414321899e-02 1.747998525388538837e-03 -1.381057035177946091e-02 -3.264207765460014343e-02 -4.707674309611320496e-02 1.645750162424519658e-04 -4.011929035186767578e-02 -2.009249106049537659e-02 9.437303990125656128e-03 9.261551313102245331e-03 6.281580030918121338e-02 5.869674682617187500e-02 -3.265108168125152588e-02 -3.951720893383026123e-02 -5.311320722103118896e-02 -5.093074217438697815e-02 4.793656244874000549e-02 8.924704976379871368e-03 6.203084066510200500e-02 -7.023124396800994873e-02 -2.702654153108596802e-02 -6.012124195694923401e-02 3.745119273662567139e-02 -2.001598663628101349e-02 -3.951949253678321838e-02 -4.371314495801925659e-02 -6.158885546028614044e-03 3.825692459940910339e-02 3.906930610537528992e-02 -3.530887886881828308e-02 4.366462677717208862e-02 -6.029480323195457458e-02 -7.044272124767303467e-02 -5.188832059502601624e-02 2.765871025621891022e-02 2.887021377682685852e-02 5.006227269768714905e-02 1.547730993479490280e-02 -5.001991614699363708e-02 -4.010672494769096375e-02 -1.873902976512908936e-02 1.325195562094449997e-02 9.278873912990093231e-03 2.860541269183158875e-02 5.623468011617660522e-02 3.823757916688919067e-02 1.739452779293060303e-02 2.332001179456710815e-02 3.684271126985549927e-02 5.549068748950958252e-02 2.127066440880298615e-02 5.354307964444160461e-02 3.891362249851226807e-02 2.247951924800872803e-02 -6.854591518640518188e-02 -6.216550711542367935e-03 -4.568726941943168640e-02 -6.529241055250167847e-02 1.980649121105670929e-02 -1.565060019493103027e-02 -4.564058035612106323e-02 2.518658712506294250e-02 3.103138506412506104e-02 4.647280089557170868e-03 -1.004681456834077835e-02 -6.467835605144500732e-02 1.313070766627788544e-02 4.704156517982482910e-02 4.693389055319130421e-04 4.592723771929740906e-02 -7.156602572649717331e-03 -1.321828924119472504e-02 -5.341278761625289917e-02 -8.225236088037490845e-03 3.520964644849300385e-03 -2.951678819954395294e-02 -3.407701104879379272e-02 3.067447687499225140e-04 -3.023363091051578522e-02 -4.845310747623443604e-02 2.271036617457866669e-02 -1.958698220551013947e-02 -5.312170460820198059e-02 -2.006326615810394287e-02 3.403056412935256958e-02 1.713956519961357117e-02 1.713584735989570618e-02 3.173447772860527039e-02 -5.375953018665313721e-02 5.301355570554733276e-02 3.187505528330802917e-02 -2.372153662145137787e-02 -5.463897436857223511e-02 -5.022110044956207275e-02 -1.075577549636363983e-02 5.896995216608047485e-02 5.057251825928688049e-02 3.410268574953079224e-02 4.013229161500930786e-02 -1.095245778560638428e-02 -2.089644223451614380e-02 -6.884722411632537842e-02 1.315015461295843124e-02 -5.444452539086341858e-02 -6.371481716632843018e-02 -4.367690905928611755e-02 4.489638283848762512e-02 2.914340980350971222e-02 -1.426418870687484741e-02 -3.291562944650650024e-02 3.582940995693206787e-02 -3.260296583175659180e-02 -4.974243044853210449e-02 -4.844643920660018921e-02 5.506449937820434570e-02 5.133279785513877869e-02 5.129502713680267334e-02 -5.395627021789550781e-02 3.726722300052642822e-02 5.329782888293266296e-02 -3.528035432100296021e-02 1.272796094417572021e-02 1.949305273592472076e-02 2.850549109280109406e-02 4.553200304508209229e-02 5.161320045590400696e-02 5.041471216827630997e-03 7.009968161582946777e-02 5.631576105952262878e-02 -1.366411894559860229e-02 4.058315977454185486e-02 -7.528211455792188644e-03 2.044343017041683197e-02 4.182844609022140503e-02 2.706637792289257050e-02 8.408153429627418518e-03 -2.482914738357067108e-02 5.705879256129264832e-02 4.455124214291572571e-02 -8.588095195591449738e-03 6.314606964588165283e-02 -7.011915743350982666e-02 -1.667141355574131012e-02 -1.078489888459444046e-02 5.757008492946624756e-02 -4.329626262187957764e-02 6.271565705537796021e-02 4.550947621464729309e-02 -4.315562546253204346e-02 3.429387137293815613e-02 6.808565557003021240e-02 7.024446967989206314e-04 -1.385071896947920322e-03 5.395027995109558105e-02 -3.427897766232490540e-02 3.506958484649658203e-02 -1.533689349889755249e-02 -4.317875578999519348e-02 -8.107292465865612030e-03 -5.893335863947868347e-02 6.747937202453613281e-02 3.236507251858711243e-02 -3.549367561936378479e-02 4.810854792594909668e-02 1.754936762154102325e-02 -4.479147121310234070e-02 -2.028479799628257751e-02 5.615488067269325256e-02 -3.748948127031326294e-02 -2.584703639149665833e-02 -4.042025282979011536e-02 -3.291321545839309692e-02 6.849803775548934937e-02 3.145944699645042419e-02 5.515481159090995789e-02 -2.229008637368679047e-02 -5.149615928530693054e-02 -4.863980039954185486e-02 4.173265770077705383e-02
-1.593813486397266388e-02 -2.144663594663143158e-02 -2.738390490412712097e-02 -6.346675008535385132e-02 -3.056363202631473541e-03 -2.865466661751270294e-02 -3.659965842962265015e-02 -3.381714969873428345e-02 -2.739454247057437897e-02 -2.275731787085533142e-02 6.098212674260139465e-02 -6.315300613641738892e-02 -2.193431742489337921e-02 5.757746100425720215e-02 -5.769564211368560791e-02 1.741983368992805481e-02 -1.613922603428363800e-02 -6.381876301020383835e-05 -4.141274467110633850e-02 5.583438649773597717e-02 3.114524111151695251e-02 6.065977737307548523e-02 -5.362405255436897278e-02 -8.025485090911388397e-03 3.442584350705146790e-02 -3.104800917208194733e-02 -3.575228899717330933e-02 -1.346566621214151382e-02 3.375167772173881531e-02 1.984197087585926056e-02 -2.049794420599937439e-02 -5.225701257586479187e-02 -3.125800937414169312e-02 6.144370138645172119e-02 1.624984480440616608e-02 -1.498064305633306503e-02 -3.794875368475914001e-02 5.744447931647300720e-02 5.958504974842071533e-02 -4.706224426627159119e-02 -3.814823552966117859e-02 -3.959433734416961670e-02 5.145644024014472961e-02 5.403008684515953064e-02 -2.514560334384441376e-02 -5.806158762425184250e-03 6.766048073768615723e-02 -2.943392843008041382e-03 -6.601312011480331421e-02 -6.107991561293601990e-02 -5.011289194226264954e-02 5.274553596973419189e-02 -1.691711321473121643e-02 8.846952579915523529e-03 -6.387855857610702515e-02 -1.648413948714733124e-02 1.066606957465410233e-02 -4.162648692727088928e-02 3.420950379222631454e-03 -4.201071802526712418e-03 -7.422524038702249527e-03 4.499007773119956255e-04 -4.520066082477569580e-02 5.015028268098831177e-02 -3.227004781365394592e-02 7.697127759456634521e-03 3.168842196464538574e-02 2.528574131429195404e-02 -5.639840289950370789e-02 -5.522104725241661072e-02 3.175167366862297058e-02 -2.257966902107000351e-03 -6.402844935655593872e-02 -2.285556169226765633e-03 7.041488587856292725e-02 -6.667786836624145508e-02 -4.601060226559638977e-02 2.781082689762115479e-02 6.844019889831542969e-02 -1.080974005162715912e-03 -8.637440390884876251e-03 -5.787330865859985352e-02 -5.038472265005111694e-02 5.279002711176872253e-03 4.905910417437553406e-02 -3.627182543277740479e-02 -1.369233988225460052e-02 2.353379875421524048e-02 2.915703132748603821e-02 -6.572706997394561768e-02 1.937623135745525360e-02 -4.268144071102142334e-02 5.665984004735946655e-02 -2.342522703111171722e-02 -5.160866677761077881e-02 -8.022981695830821991e-03 -8.963497355580329895e-03 -2.745511569082736969e-02 -6.728048622608184814e-02 2.383014932274818420e-02 -2.979431673884391785e-02 3.859286755323410034e-02 -6.835561990737915039e-02 -4.031679034233093262e-02 1.769222877919673920e-02 2.517287246882915497e-02 -5.135670304298400879e-02 -5.691155046224594116e-02 -2.687145769596099854e-02 2.819003909826278687e-02 2.536097355186939240e-02 -8.792726323008537292e-03 2.921034768223762512e-02 -1.202601380646228790e-02 -6.091802939772605896e-02 1.327516161836683750e-03 3.631124645471572876e-02 6.166775524616241455e-02 2.688941173255443573e-02 -6.855328567326068878e-03 2.763192169368267059e-02 -5.758770182728767395e-02 -2.406234480440616608e-02 -1.685553789138793945e-02 -4.927601665258407593e-02 -3.981209918856620789e-02 -6.161893904209136963e-02 -3.337355330586433411e-02 3.347167978063225746e-03 5.576249957084655762e-02 -6.905503571033477783e-02 6.517755240201950073e-02 -4.173628985881805420e-02 -6.261902302503585815e-02 4.968398809432983398e-02 -2.537269145250320435e-02 4.540874809026718140e-02 -2.140418440103530884e-02 3.393296897411346436e-02 2.482221089303493500e-02 5.411031097173690796e-02 -5.933492630720138550e-02 -4.295160062611103058e-03 3.162544593214988708e-02 -4.575570672750473022e-02 4.543854296207427979e-02 -2.541119605302810669e-02 -7.038614153861999512e-02 -4.731866344809532166e-02 -3.356109187006950378e-02 -3.346424549818038940e-02 -1.353640481829643250e-02 5.874126404523849487e-02 -3.266288340091705322e-02 5.059610679745674133e-02 -4.635893180966377258e-02 -2.170363068580627441e-02 -4.967416822910308838e-02 2.916252613067626953e-02 5.293607339262962341e-02 2.558823861181735992e-02 -3.547095134854316711e-02 -5.351840704679489136e-02 -5.251322314143180847e-02 6.066368892788887024e-02 3.712622448801994324e-02 -5.746053904294967651e-02 -5.000273510813713074e-02 -5.017131567001342773e-02 2.081674337387084961e-02 -3.958991914987564087e-02 1.771383173763751984e-02 1.725189387798309326e-02 -7.646669168025255203e-03 2.375597134232521057e-02 6.665861583314836025e-04 -2.390887215733528137e-02 5.282463878393173218e-02 1.246188767254352570e-02 3.247321397066116333e-02 -1.738011278212070465e-02 -8.181580342352390289e-03 -4.511761292815208435e-02 -2.901832573115825653e-02 3.292378783226013184e-02 3.865093691274523735e-03 3.703071922063827515e-02 -3.478087857365608215e-02 -1.322741806507110596e-02 -1.202443707734346390e-02 6.196674332022666931e-02 -1.857081241905689240e-02 -5.103025212883949280e-02 1.043529901653528214e-02 6.850574165582656860e-03 4.173927381634712219e-02 -2.137145400047302246e-02 9.816397912800312042e-03 -2.211371995508670807e-02 -5.447991937398910522e-02
-6.120564043521881104e-02 -1.182236894965171814e-02 -3.747811913490295410e-02 -1.341808214783668518e-02 4.710972774773836136e-03 -3.139900043606758118e-02 -4.907160252332687378e-02 -4.122595116496086121e-02 1.312134321779012680e-02 -2.230994589626789093e-02 -7.062318176031112671e-02 3.380093025043606758e-03 -4.556888714432716370e-02 -2.586108818650245667e-02 7.472223602235317230e-03 5.849891901016235352e-02 -4.157999157905578613e-02 -5.496978387236595154e-02 4.596737679094076157e-03 1.954765059053897858e-02 -9.586832486093044281e-03 -5.247920006513595581e-02 -2.481574565172195435e-02 6.375724822282791138e-02 5.311496183276176453e-02 -9.247356210835278034e-04 -3.688952699303627014e-02 5.243915319442749023e-02 -1.392239425331354141e-02 4.402466118335723877e-02 2.384849265217781067e-02 -4.723345115780830383e-02 2.266945876181125641e-02 4.635163769125938416e-02 4.876351729035377502e-02 -2.655327552929520607e-03 4.248596355319023132e-02 1.497181691229343414e-02 4.357884079217910767e-02 -7.069368660449981689e-02 -3.389368951320648193e-02 -4.841307550668716431e-02 -3.625514218583703041e-03 4.239458963274955750e-02 -5.058913305401802063e-02 3.629463538527488708e-02 1.393488701432943344e-02 -1.995764672756195068e-02 -5.555221438407897949e-02 6.063444167375564575e-02 8.473986759781837463e-03 1.098899915814399719e-02 4.394165053963661194e-02 -1.958079449832439423e-02 -5.006841942667961121e-02 6.382326781749725342e-02 4.722891002893447876e-02 -4.033393785357475281e-02 -3.246403299272060394e-03 6.446967832744121552e-03 -2.883716113865375519e-02 4.477057605981826782e-03 4.847979545593261719e-02 2.421077713370323181e-02 3.033152036368846893e-02 -4.497111216187477112e-02 5.004851520061492920e-02 -6.903493404388427734e-02 -6.047632917761802673e-02 1.203195657581090927e-02 -2.379248617216944695e-03 -5.809676274657249451e-02 6.569412350654602051e-02 -5.519644357264041901e-03 7.493305485695600510e-03 -3.485290706157684326e-02 -4.521793872117996216e-02 -5.729825422167778015e-02 6.846581399440765381e-02 -4.838226735591888428e-02 -1.614254713058471680e-02 -4.996794834733009338e-02 -4.912594798952341080e-03 -7.307926425710320473e-04 1.543330866843461990e-02 3.139181761071085930e-03 -5.440823733806610107e-02 -1.181504316627979279e-02 7.447879295796155930e-03 -4.213661700487136841e-02 -4.563650861382484436e-02 4.168451577425003052e-02 6.680043041706085205e-02 -1.550746150314807892e-02 -1.897517777979373932e-02 3.670183941721916199e-02 -1.758042909204959869e-02 1.873772218823432922e-02 9.139190427958965302e-03 1.503212098032236099e-02 -6.982304155826568604e-02 1.753673888742923737e-02 -3.723081573843955994e-02 3.723067231476306915e-03 -5.990827456116676331e-02 2.120087668299674988e-02 -4.118333011865615845e-02 2.061965502798557281e-02 3.353170678019523621e-02 2.378522977232933044e-02 3.111428767442703247e-02 6.181358359754085541e-03 2.752161584794521332e-02 6.507695466279983521e-02 -2.592135779559612274e-02 -3.636085614562034607e-02 4.284982755780220032e-02 3.775031119585037231e-02 -3.891736641526222229e-02 -2.157500572502613068e-02 6.658047437667846680e-02 -6.901754438877105713e-02 -4.883435741066932678e-02 -5.316146463155746460e-02 -2.325156517326831818e-02 -1.272657886147499084e-02 4.094701260328292847e-02 -4.032163880765438080e-03 -2.988343127071857452e-02 -2.365149743854999542e-02 -6.973879039287567139e-02 -5.378711223602294922e-02 -3.738723322749137878e-02 -4.239689186215400696e-02 6.321528553962707520e-02 6.520593166351318359e-02 -1.849156059324741364e-02 5.514718964695930481e-02 6.984035670757293701e-02 6.240477785468101501e-02 -1.107452344149351120e-02 -3.556941228453069925e-04 6.520444154739379883e-02 -3.202845528721809387e-02 2.464646659791469574e-02 -3.865966945886611938e-02 4.280783236026763916e-02 -2.189970575273036957e-02 -3.783615306019783020e-02 -6.146270036697387695e-02 5.412637442350387573e-02 2.552362717688083649e-02 -2.132449485361576080e-02 -2.821057289838790894e-02 4.573643207550048828e-02 -9.201854467391967773e-03 1.935025118291378021e-02 -4.661994799971580505e-02 -4.124780744314193726e-02 6.287278234958648682e-02 -4.254925251007080078e-02 -3.518048208206892014e-03 5.474360659718513489e-02 -4.521678388118743896e-02 -9.600883931852877140e-04 5.369519814848899841e-02 -1.791055663488805294e-03 3.960549831390380859e-02 3.903898224234580994e-02 1.789302332326769829e-04 4.744707047939300537e-02 6.268399208784103394e-02 -1.525946985930204391e-02 -3.814482316374778748e-02 -2.427897974848747253e-02 6.783715635538101196e-02 1.873998157680034637e-02 4.763396456837654114e-02 3.449382632970809937e-02 -7.138294167816638947e-03 -6.408077478408813477e-02 -4.911423102021217346e-02 -4.857554286718368530e-02 -4.211891442537307739e-02 -1.651391200721263885e-02 -9.157541207969188690e-03 -6.397825479507446289e-02 -1.921882852911949158e-02 2.807603217661380768e-02 2.679601497948169708e-02 2.262636832892894745e-02 -2.226682193577289581e-02 6.639716029167175293e-02 -2.100379904732108116e-03 3.046205674763768911e-04 6.227520108222961426e-02 -2.040788345038890839e-02 -1.928269863128662109e-02 6.716030091047286987e-02 2.929946221411228180e-02
-1.806533709168434143e-02 6.000586226582527161e-02 -5.344197154045104980e-02 2.809659950435161591e-02 -5.840024352073669434e-02 4.328586161136627197e-02 -9.907038183882832527e-04 1.969677396118640900e-02 -6.266477983444929123e-03 2.930615469813346863e-02 -5.079736560583114624e-02 -4.087668657302856445e-02 -1.237477920949459076e-02 5.847766622900962830e-02 2.814549766480922699e-02 -6.009334325790405273e-02 -2.323894761502742767e-02 4.084117338061332703e-02 -6.812102627009153366e-03 -1.455211918801069260e-02 -1.678379438817501068e-02 -2.033019065856933594e-02 -2.099499851465225220e-02 7.858280092477798462e-03 2.161655575037002563e-02 6.998509913682937622e-02 -1.105613075196743011e-03 2.951307967305183411e-02 1.781205087900161743e-02 1.393525768071413040e-02 -4.244946315884590149e-02 -6.205284222960472107e-02 -1.668504439294338226e-02 2.016214281320571899e-02 3.804269805550575256e-02 -6.975788623094558716e-02 3.381978720426559448e-02 6.970491260290145874e-02 -9.599762968719005585e-03 2.386963181197643280e-02 1.592434477061033249e-03 -3.864686563611030579e-02 -3.705822676420211792e-02 -5.097517371177673340e-02 5.639796610921621323e-03 -3.776987642049789429e-02 -5.313183739781379700e-02 3.157687559723854065e-02 -2.536791190505027771e-02 -6.493067741394042969e-02 1.508338842540979385e-02 5.807663127779960632e-02 4.022910073399543762e-02 -2.177047543227672577e-02 -5.164198949933052063e-02 3.653779625892639160e-02 2.612130343914031982e-02 3.091887943446636200e-02 -5.055261775851249695e-02 -2.776304073631763458e-02 -3.526042774319648743e-02 -1.503062061965465546e-02 -1.364410761743783951e-02 -7.612952031195163727e-03 3.640779852867126465e-02 9.391692467033863068e-03 -7.270887959748506546e-03 5.242918059229850769e-02 -4.015393555164337158e-02 1.335761789232492447e-02 -5.976812914013862610e-02 -7.052790373563766479e-02 3.891776129603385925e-02 1.925163529813289642e-02 -5.846321955323219299e-02 -4.820147156715393066e-02 -3.035297244787216187e-02 -3.173967078328132629e-02 -6.145974248647689819e-02 4.713297635316848755e-02 3.619643300771713257e-02 1.620466262102127075e-02 5.867633223533630371e-02 3.514705225825309753e-02 4.924925044178962708e-02 3.531594946980476379e-02 3.370470926165580750e-02 -4.396007582545280457e-02 3.046964295208454132e-03 -4.805593937635421753e-02 5.155815929174423218e-02 5.807925388216972351e-02 -5.945328995585441589e-02 -6.131100654602050781e-02 3.161180764436721802e-02 -6.415972113609313965e-02 -8.170343935489654541e-03 -1.128454972058534622e-02 -6.970628350973129272e-02 -2.329508773982524872e-02 6.759681552648544312e-02 -1.595118269324302673e-02 3.399872779846191406e-02 2.820500917732715607e-02 -2.051213942468166351e-02 3.960937261581420898e-02 -6.186007708311080933e-02 -1.932605914771556854e-02 -4.291842505335807800e-02 1.102774031460285187e-02 7.182126864790916443e-03 -4.311298206448554993e-02 3.040386177599430084e-02 3.008578717708587646e-02 3.842612728476524353e-02 5.196147039532661438e-02 2.355627156794071198e-02 -5.670826882123947144e-02 -8.124724030494689941e-03 -5.459373444318771362e-02 -3.531588241457939148e-02 5.382844060659408569e-02 -2.664658706635236740e-03 5.675017833709716797e-02 -2.838523872196674347e-02 -2.389099262654781342e-02 -5.113147944211959839e-02 -5.973026528954505920e-02 -2.617050521075725555e-02 -3.254546085372567177e-03 6.945476680994033813e-02 -2.164315804839134216e-02 9.858164936304092407e-03 -4.907558113336563110e-02 -3.854047134518623352e-02 6.837365776300430298e-02 -2.147264778614044189e-02 -5.938067287206649780e-02 3.555124625563621521e-02 -4.874494671821594238e-02 -2.931642159819602966e-02 2.280418574810028076e-02 -7.412475999444723129e-03 -2.478609047830104828e-02 1.622395031154155731e-02 -2.328606694936752319e-02 2.072249352931976318e-02 -4.778055101633071899e-02 1.826932840049266815e-02 -6.840158253908157349e-02 6.300215423107147217e-02 -4.510473459959030151e-02 1.363043487071990967e-02 1.840789802372455597e-02 7.223641499876976013e-03 -6.876994669437408447e-02 7.504289038479328156e-03 -5.441473796963691711e-02 -1.695021614432334900e-02 4.345889762043952942e-02 5.071004480123519897e-02 4.807230085134506226e-02 -6.112741306424140930e-02 -5.230174586176872253e-02 -1.650705002248287201e-02 4.048059880733489990e-02 5.595474969595670700e-03 -2.559510804712772369e-02 3.764303773641586304e-02 -2.399162203073501587e-02 4.174175113439559937e-02 5.345738679170608521e-02 1.249657478183507919e-02 -6.674513220787048340e-02 3.420455381274223328e-02 5.218532681465148926e-02 9.420605376362800598e-03 1.530175097286701202e-02 5.913354083895683289e-02 -6.898383796215057373e-02 -1.417445763945579529e-02 4.554777219891548157e-02 -3.893778845667839050e-02 6.313385814428329468e-02 -1.412661280483007431e-03 -3.396144136786460876e-02 -3.884031251072883606e-02 -2.016083709895610809e-02 -6.925310939550399780e-02 1.891542226076126099e-03 4.777564480900764465e-02 -9.663682430982589722e-03 1.118027791380882263e-02 1.576494425535202026e-02 -5.251596868038177490e-02 3.496479988098144531e-02 5.348763987421989441e-02 -1.471270690672099590e-03 -3.479468822479248047e-02 4.532174766063690186e-02
-3.881173580884933472e-02 3.351192921400070190e-02 -5.944670177996158600e-03 -5.642971023917198181e-02 5.110185965895652771e-02 1.324844080954790115e-02 1.402628608047962189e-02 6.062461063265800476e-02 3.775338828563690186e-02 -8.797202259302139282e-03 5.205580964684486389e-02 -3.751336038112640381e-02 1.819268800318241119e-03 2.289534173905849457e-02 -7.063503563404083252e-02 -5.635530501604080200e-02 -4.237955063581466675e-02 3.874905407428741455e-02 6.631512194871902466e-02 -4.869394178967922926e-04 -1.519126724451780319e-02 3.571970760822296143e-02 -5.296961218118667603e-02 -6.720657646656036377e-02 3.101949207484722137e-02 -2.494367025792598724e-02 -2.456134743988513947e-02 5.109821632504463196e-02 6.191372405737638474e-03 2.534387819468975067e-02 -4.173722490668296814e-02 6.207516416907310486e-02 -6.212376803159713745e-02 2.839943207800388336e-02 -2.882284857332706451e-02 -2.727235108613967896e-02 -6.372547894716262817e-02 6.878760457038879395e-02 2.136128721758723259e-03 -7.048732787370681763e-02 1.440274249762296677e-02 -4.365210980176925659e-02 3.259432688355445862e-02 -1.181081216782331467e-02 -1.618191227316856384e-02 -1.416897028684616089e-02 -3.959021344780921936e-02 1.874354784376919270e-04 -4.102317988872528076e-02 1.680755615234375000e-02 -9.938378818333148956e-03 -6.703545898199081421e-02 2.209104411303997040e-02 -2.731434628367424011e-02 -1.547342352569103241e-02 5.264410376548767090e-02 -4.058127105236053467e-02 -4.171508923172950745e-02 -4.483118280768394470e-02 -6.255925446748733521e-02 5.278887972235679626e-02 1.012055436149239540e-03 3.799023479223251343e-02 -6.294193118810653687e-02 9.779282845556735992e-03 -5.536574497818946838e-02 1.265509799122810364e-02 6.878341734409332275e-02 -1.713851094245910645e-02 5.556955933570861816e-02 -1.108386274427175522e-02 4.580186679959297180e-02 -5.250427126884460449e-02 6.206484511494636536e-02 -6.273341923952102661e-02 -4.025974869728088379e-02 2.376024425029754639e-02 3.348847851157188416e-02 -1.320994365960359573e-02 6.602632254362106323e-02 -1.038273330777883530e-02 -1.489596092142164707e-03 6.758520752191543579e-02 -5.958858132362365723e-02 -3.116928273811936378e-04 -5.847998708486557007e-02 3.988567274063825607e-03 -1.579605787992477417e-02 3.596661239862442017e-02 8.628227747976779938e-03 -3.863177821040153503e-02 6.643486768007278442e-02 2.434990368783473969e-02 -3.876062855124473572e-02 -1.215619686990976334e-02 -1.971612870693206787e-02 -4.338295757770538330e-02 -3.854554519057273865e-02 -4.001925885677337646e-02 -5.729775130748748779e-02 6.716982275247573853e-02 -3.312190994620323181e-02 -7.122455164790153503e-03 4.253238439559936523e-02 1.070331875234842300e-02 -2.976554632186889648e-02 -5.486354976892471313e-02 4.858366027474403381e-02 -3.727853670716285706e-02 1.472819969058036804e-02 3.491783887147903442e-02 1.145891938358545303e-02 4.213518276810646057e-02 4.919947683811187744e-02 2.135358378291130066e-02 -1.901492290198802948e-02 -2.221474424004554749e-02 5.890755914151668549e-03 -6.327384710311889648e-02 1.964290253818035126e-02 -5.875498428940773010e-02 -1.032988913357257843e-02 -3.151148930191993713e-02 -6.635101139545440674e-02 9.801628999412059784e-03 -3.608672320842742920e-02 6.710010766983032227e-02 -1.723768189549446106e-02 4.959629848599433899e-02 2.774727717041969299e-02 2.256703376770019531e-02 -2.820292674005031586e-02 -6.482370942831039429e-02 1.298286486417055130e-02 1.163155306130647659e-02 -5.253099277615547180e-02 5.008076876401901245e-02 5.231350660324096680e-02 -4.505033046007156372e-02 8.630284108221530914e-03 -6.689051538705825806e-02 -2.344743162393569946e-02 -2.174297114834189415e-03 -6.509285885840654373e-03 2.957989834249019623e-02 -1.856342889368534088e-02 3.027997538447380066e-02 -3.987650200724601746e-02 2.776079811155796051e-02 2.310707792639732361e-02 4.669560119509696960e-02 -6.771004199981689453e-02 -1.333149522542953491e-02 6.225422024726867676e-02 -8.309715427458286285e-03 1.568788290023803711e-02 -6.241931766271591187e-02 -2.318076789379119873e-03 -4.728267341852188110e-02 -3.436515852808952332e-02 -3.388371691107749939e-02 3.058290109038352966e-02 -2.563348598778247833e-02 6.846285611391067505e-02 5.289313569664955139e-02 2.156747039407491684e-03 -4.443727061152458191e-02 -4.983831197023391724e-03 1.986565627157688141e-02 3.443490341305732727e-02 4.536395147442817688e-02 5.798501148819923401e-02 -3.327089129015803337e-03 -2.296867594122886658e-02 -2.095940150320529938e-02 5.287659540772438049e-02 -1.735469140112400055e-02 1.638877764344215393e-02 5.787832289934158325e-02 -2.832688950002193451e-02 2.572705224156379700e-02 -3.219085559248924255e-02 -6.080092117190361023e-02 1.460152305662631989e-02 -9.118639864027500153e-03 2.453834377229213715e-02 -1.392078399658203125e-02 6.877753138542175293e-02 6.721883080899715424e-03 6.442221999168395996e-02 -2.299976348876953125e-02 -6.489571928977966309e-02 -5.460419505834579468e-02 -5.964596755802631378e-03 5.100216343998908997e-02 -1.256032660603523254e-02 4.673824179917573929e-03 3.345549479126930237e-02 -1.960863731801509857e-02 -3.137819468975067139e-02
-6.846962869167327881e-02 4.382202029228210449e-02 6.447816640138626099e-02 3.324526548385620117e-02 1.067303214222192764e-02 -1.878519728779792786e-02 -6.486321240663528442e-02 1.249028649181127548e-02 -2.303960174322128296e-02 -6.841875612735748291e-02 1.986541971564292908e-02 5.012754350900650024e-02 -5.384867079555988312e-03 3.122274950146675110e-02 -3.728726133704185486e-02 -4.366446658968925476e-02 -2.264627814292907715e-02 -3.577785566449165344e-02 3.691316395998001099e-02 -3.021710924804210663e-02 -4.007422924041748047e-02 -1.661398448050022125e-02 -2.968369051814079285e-02 2.054041996598243713e-02 -5.913380067795515060e-03 -6.876631081104278564e-02 1.849910430610179901e-02 -4.709795117378234863e-02 2.714364975690841675e-02 5.116669088602066040e-02 1.438190508633852005e-02 -1.723687350749969482e-02 1.965503208339214325e-02 -6.173604726791381836e-02 -3.328089788556098938e-02 6.689680367708206177e-02 1.095254998654127121e-02 -3.708659857511520386e-02 -4.946762323379516602e-02 -6.978542357683181763e-02 -4.424599185585975647e-02 2.163313515484333038e-02 6.413560360670089722e-02 -6.580452620983123779e-02 -2.968310005962848663e-02 1.319442596286535263e-02 3.919146209955215454e-02 4.783367365598678589e-02 -6.113231927156448364e-02 -6.301898509263992310e-02 2.491425909101963043e-02 -2.276070602238178253e-02 3.045476600527763367e-02 1.685181073844432831e-02 4.713710397481918335e-02 -5.843981169164180756e-03 1.592249050736427307e-02 -1.509295590221881866e-02 -3.524463623762130737e-02 4.252279922366142273e-02 -4.826686158776283264e-02 -1.848115772008895874e-02 5.039360746741294861e-02 -6.064041703939437866e-02 -6.419813632965087891e-02 -6.552445143461227417e-02 -1.265722978860139847e-02 2.024341933429241180e-02 2.688524872064590454e-02 5.279840528964996338e-02 1.082282233983278275e-02 -4.934304580092430115e-02 3.484360873699188232e-02 3.263402730226516724e-02 5.579550191760063171e-02 3.858581930398941040e-02 -6.701762974262237549e-02 2.173051238059997559e-02 1.708063483238220215e-02 -5.397913977503776550e-02 -5.218639969825744629e-02 -1.387679111212491989e-02 -3.543918579816818237e-02 -6.053465977311134338e-02 5.340770632028579712e-02 3.040680289268493652e-02 -5.053329095244407654e-02 -1.878335885703563690e-02 2.299945987761020660e-02 -2.108058147132396698e-02 -9.441147558391094208e-03 6.507462263107299805e-02 -3.334567695856094360e-02 -5.020740255713462830e-02 -1.793862669728696346e-03 3.029897436499595642e-02 -9.583435021340847015e-04 -3.172965720295906067e-02 3.888794779777526855e-02 -1.601521275006234646e-03 -2.724766917526721954e-02 -5.547391250729560852e-02 5.965515971183776855e-03 5.994209554046392441e-03 -4.765284061431884766e-02 -1.113385800272226334e-02 -4.318067058920860291e-02 3.963727504014968872e-02 3.624864295125007629e-02 9.330056607723236084e-03 5.078586563467979431e-02 2.307838387787342072e-02 4.208093136548995972e-02 -1.845281757414340973e-02 5.908878892660140991e-02 -5.972200073301792145e-03 -2.566915191709995270e-02 -1.187825575470924377e-02 4.499748721718788147e-02 3.188232332468032837e-02 -3.200436383485794067e-02 2.399881370365619659e-02 -4.632922634482383728e-02 3.898033127188682556e-02 -5.696256458759307861e-02 4.703816026449203491e-03 8.831999264657497406e-03 -3.491324558854103088e-02 9.567191824316978455e-03 5.248846486210823059e-02 -6.170132011175155640e-02 6.487319245934486389e-03 -3.263679146766662598e-02 2.994670346379280090e-02 -2.673662081360816956e-02 1.524423807859420776e-02 -6.418325006961822510e-02 -3.633659705519676208e-02 -3.927243407815694809e-03 6.071745231747627258e-02 5.675989016890525818e-02 7.245346903800964355e-03 -4.582765325903892517e-02 3.143969690427184105e-03 -2.738632448017597198e-02 3.945278003811836243e-02 6.551945209503173828e-02 2.771227061748504639e-02 -1.926920376718044281e-02 -3.141490370035171509e-02 -3.475918201729655266e-03 -6.379575002938508987e-03 2.782485261559486389e-02 -6.540545821189880371e-02 -3.167708218097686768e-02 -3.412102907896041870e-02 3.374639153480529785e-02 6.239708885550498962e-02 -6.830517202615737915e-02 -4.286446794867515564e-02 -5.548352003097534180e-02 -3.198453783988952637e-02 1.278598047792911530e-02 -2.243561204522848129e-03 -2.106397598981857300e-02 -5.055449903011322021e-02 4.976986721158027649e-02 -6.143613904714584351e-02 -2.825953997671604156e-02 2.659753710031509399e-02 3.165758773684501648e-02 -5.657266452908515930e-02 2.594291977584362030e-02 -2.838747203350067139e-02 -6.534647941589355469e-02 2.258814871311187744e-02 6.373687833547592163e-02 -2.038014307618141174e-02 -5.180050060153007507e-02 -6.212943233549594879e-03 1.920299790799617767e-02 5.052941292524337769e-02 5.288040637969970703e-02 6.380803138017654419e-02 -5.338417738676071167e-02 -1.469354704022407532e-02 -6.273706257343292236e-02 -2.664099074900150299e-02 4.782003536820411682e-02 3.682050853967666626e-02 2.223993279039859772e-02 -4.820022732019424438e-02 -6.527203321456909180e-02 6.439454108476638794e-02 6.912625581026077271e-02 6.591861695051193237e-02 -3.384144976735115051e-02 4.191326349973678589e-02 -6.133642792701721191e-02 3.153543546795845032e-02
-4.850792139768600464e-02 -1.474575023166835308e-03 3.962049260735511780e-02 1.972137950360774994e-02 -4.949216172099113464e-02 -1.252159290015697479e-02 -6.654096394777297974e-02 -3.581377863883972168e-02 6.239805743098258972e-02 2.252738177776336670e-02 4.846749454736709595e-02 -3.263452649116516113e-02 3.541835816577076912e-03 -3.869287297129631042e-02 5.102000012993812561e-02 5.803171917796134949e-02 -8.624291047453880310e-03 4.969388619065284729e-02 -5.624032765626907349e-02 5.761137232184410095e-03 6.545946747064590454e-02 -7.888988591730594635e-03 4.630548134446144104e-02 -4.942463338375091553e-02 -3.906364738941192627e-02 1.168758329004049301e-02 6.021244078874588013e-02 -2.166826091706752777e-02 6.903529167175292969e-02 -1.778370328247547150e-02 4.227431863546371460e-02 -2.881849883124232292e-03 3.296710550785064697e-02 2.283971523866057396e-03 6.331343948841094971e-02 -5.030407011508941650e-02 -3.241528570652008057e-02 -2.942796796560287476e-02 -6.999934557825326920e-03 -6.640589237213134766e-02 -6.981341540813446045e-02 8.403500542044639587e-03 -6.414058059453964233e-02 -5.758351460099220276e-02 -7.024000398814678192e-03 -6.597185134887695312e-02 7.733702659606933594e-03 -2.689992450177669525e-02 -6.077307835221290588e-02 4.890238493680953979e-02 -1.745462976396083832e-02 5.982908979058265686e-02 -1.201449893414974213e-02 -6.924702972173690796e-02 5.601956322789192200e-02 -3.046592697501182556e-02 1.555999368429183960e-02 -1.002955157309770584e-02 -1.107695046812295914e-03 2.304680831730365753e-02 6.496538966894149780e-02 8.555524051189422607e-03 2.484418638050556183e-02 3.368354216217994690e-02 -1.963335089385509491e-02 -4.619815573096275330e-02 6.782576441764831543e-02 -4.381479695439338684e-02 -6.673785392194986343e-04 -4.869100078940391541e-02 4.651997238397598267e-02 -1.602476276457309723e-02 -4.577394947409629822e-02 3.546138107776641846e-02 -3.639719262719154358e-02 -5.327199026942253113e-02 -5.156666412949562073e-02 -5.823079496622085571e-02 -1.259931176900863647e-02 1.638364419341087341e-02 3.072783537209033966e-02 4.670893400907516479e-02 -6.388132274150848389e-02 7.728721015155315399e-03 -6.217528507113456726e-02 6.421882659196853638e-02 1.340850628912448883e-02 -8.871591649949550629e-03 4.042676836252212524e-02 -6.367695331573486328e-02 -1.152198761701583862e-02 3.271610662341117859e-02 1.373543124645948410e-02 -6.399545818567276001e-02 -2.813099883496761322e-02 4.366279765963554382e-02 9.039420634508132935e-03 3.610941395163536072e-02 -5.136946588754653931e-02 -2.712804824113845825e-02 6.771633401513099670e-03 3.974715247750282288e-02 -3.002524841576814651e-03 -2.470538765192031860e-02 1.658716239035129547e-02 -1.212959364056587219e-02 5.933615565299987793e-02 -2.209565602242946625e-03 -4.700581729412078857e-02 6.011658348143100739e-03 -6.864070892333984375e-02 4.009075090289115906e-02 4.258768260478973389e-02 5.003307387232780457e-02 -6.108058243989944458e-02 2.257247827947139740e-02 3.027030639350414276e-02 6.776859518140554428e-03 -1.743370783515274525e-03 5.085055530071258545e-02 -6.803406774997711182e-02 3.424715623259544373e-02 4.624261334538459778e-02 5.841207876801490784e-02 1.796298846602439880e-02 4.342585429549217224e-02 2.881770581007003784e-02 3.692786395549774170e-02 3.604935482144355774e-02 1.844940520823001862e-02 3.314164653420448303e-02 5.292750149965286255e-02 2.437040396034717560e-02 -5.403088778257369995e-02 5.849883332848548889e-02 -4.019956663250923157e-02 -7.024925947189331055e-02 -3.567010909318923950e-02 -6.503187865018844604e-02 2.816068753600120544e-02 5.341605842113494873e-02 4.194527864456176758e-02 -3.225012123584747314e-02 -8.802951313555240631e-03 1.131751667708158493e-02 3.054002858698368073e-02 -4.452748224139213562e-02 -1.992455311119556427e-02 1.781812869012355804e-02 -3.733678162097930908e-02 -6.334708631038665771e-02 4.006276279687881470e-02 7.012926787137985229e-02 -2.717564813792705536e-02 4.301913827657699585e-02 2.518174052238464355e-02 5.913306772708892822e-02 -5.626478046178817749e-02 1.579780317842960358e-02 5.618633702397346497e-02 -2.990426123142242432e-02 1.423651445657014847e-02 2.661992609500885010e-02 3.225349262356758118e-02 -3.743411600589752197e-02 5.197863280773162842e-02 4.097046330571174622e-02 3.869933262467384338e-02 -5.067660659551620483e-02 4.443621635437011719e-02 2.460203506052494049e-02 6.199928000569343567e-02 -4.071979224681854248e-02 5.519560072571039200e-03 4.902032669633626938e-03 -1.984996162354946136e-02 -4.931445419788360596e-02 -2.604223601520061493e-02 -6.430605798959732056e-02 -7.609074469655752182e-03 -4.871172830462455750e-02 5.602766200900077820e-02 5.876807495951652527e-02 3.260823339223861694e-02 9.683323442004621029e-04 -1.116864569485187531e-02 4.699483513832092285e-03 -1.620529568754136562e-03 -1.811267621815204620e-02 3.812448307871818542e-02 -2.286148071289062500e-02 1.148248836398124695e-02 -8.944784291088581085e-03 7.410984020680189133e-03 -1.135478261858224869e-02 2.283675596117973328e-02 2.940234169363975525e-02 6.853301078081130981e-02 1.482621673494577408e-02 5.227741226553916931e-02
-4.322039708495140076e-02 5.324812978506088257e-02 1.234357338398694992e-02 -2.614105306565761566e-02 6.878728512674570084e-03 5.341294780373573303e-02 -6.943375617265701294e-02 6.842440366744995117e-02 3.521546348929405212e-02 3.086788207292556763e-02 5.880424007773399353e-02 -6.988830119371414185e-02 3.561543673276901245e-02 4.760524630546569824e-02 4.246106371283531189e-02 2.919675782322883606e-02 -2.629404515027999878e-02 3.758204355835914612e-02 -4.272985085844993591e-02 -3.702971711754798889e-02 4.482392594218254089e-02 3.672943636775016785e-02 4.841567203402519226e-02 -2.859530597925186157e-02 6.374163087457418442e-03 -7.737841457128524780e-03 -3.060747310519218445e-02 5.504488945007324219e-02 -6.334929913282394409e-02 -3.660840168595314026e-02 3.217519074678421021e-02 8.058249950408935547e-03 -6.391524523496627808e-02 1.456871628761291504e-02 -2.621654607355594635e-02 -6.144010275602340698e-02 -3.309846296906471252e-02 -3.904867917299270630e-02 7.013784348964691162e-02 -1.697215810418128967e-02 1.446416694670915604e-02 1.559459604322910309e-02 1.638167910277843475e-02 -3.107167035341262817e-02 -2.455623075366020203e-02 3.091897256672382355e-02 -2.443424798548221588e-02 1.609829254448413849e-02 3.060756623744964600e-02 1.619162224233150482e-02 4.478372633457183838e-02 2.218562178313732147e-02 5.713798105716705322e-03 1.979964599013328552e-02 -6.522701680660247803e-02 5.126025527715682983e-02 -4.250405356287956238e-02 -6.251519173383712769e-02 -6.436906754970550537e-02 -4.095778614282608032e-02 1.187647692859172821e-03 3.861038386821746826e-02 -6.556138396263122559e-02 1.985581032931804657e-02 1.458846591413021088e-02 -2.730239182710647583e-02 -4.917811602354049683e-02 5.626593530178070068e-02 5.705602839589118958e-02 5.734770372509956360e-02 4.128078371286392212e-02 5.577515438199043274e-02 -3.594095259904861450e-02 9.919530712068080902e-03 2.994595281779766083e-02 -3.642452135682106018e-02 -3.379334509372711182e-02 4.956255480647087097e-02 -4.296099394559860229e-02 4.427474364638328552e-02 9.480849839746952057e-03 5.920302495360374451e-02 -2.990156412124633789e-02 5.206851288676261902e-02 5.611763894557952881e-02 -4.187919944524765015e-02 -2.846130542457103729e-02 7.469307165592908859e-03 -1.057013496756553650e-02 -3.775224834680557251e-02 6.196532770991325378e-02 2.744746953248977661e-02 -3.823052346706390381e-02 5.229721218347549438e-02 -1.319668442010879517e-02 3.109132684767246246e-02 3.786526247859001160e-02 3.318320214748382568e-02 5.870183929800987244e-02 -5.480292439460754395e-02 6.581825762987136841e-02 2.188466722145676613e-03 5.344966799020767212e-02 2.234321646392345428e-02 5.720086395740509033e-02 -1.517049781978130341e-02 -9.696793742477893829e-03 1.679171063005924225e-02 2.793006785213947296e-02 -5.004225298762321472e-02 1.805075444281101227e-02 6.780508905649185181e-02 3.384618088603019714e-02 2.746747247874736786e-02 6.627950817346572876e-02 -6.562744826078414917e-02 -3.313146904110908508e-02 -5.814820528030395508e-02 4.698768630623817444e-02 -4.408065602183341980e-02 5.291847139596939087e-02 -4.190978407859802246e-02 4.353274032473564148e-02 3.748936951160430908e-02 3.217101842164993286e-02 5.306754633784294128e-02 -1.831707172095775604e-02 5.322675034403800964e-02 -6.544777750968933105e-02 4.126168414950370789e-02 1.793140359222888947e-02 -6.620272994041442871e-02 6.053564697504043579e-02 -5.856435373425483704e-02 1.984080672264099121e-02 -6.378009915351867676e-02 2.134914137423038483e-02 3.536565974354743958e-02 -1.740947365760803223e-02 -6.633917987346649170e-02 5.788638815283775330e-02 -2.725857682526111603e-02 5.072907730937004089e-02 -2.702927216887474060e-02 -2.591012232005596161e-02 -3.677922114729881287e-02 -3.355833468958735466e-03 -5.701768398284912109e-02 1.201489567756652832e-02 1.551085896790027618e-02 -2.479948475956916809e-02 -6.653685122728347778e-02 -1.470537274144589901e-03 -3.857254516333341599e-03 5.625915154814720154e-02 8.020545355975627899e-03 2.422830276191234589e-02 4.495154693722724915e-02 5.480610206723213196e-02 -2.045270241796970367e-02 5.305187776684761047e-02 -4.166947677731513977e-02 -9.496073238551616669e-03 2.604702301323413849e-02 3.198507707566022873e-03 5.681170523166656494e-02 3.419093415141105652e-02 -8.442957885563373566e-03 -3.736696019768714905e-02 6.114734336733818054e-02 7.172289770096540451e-03 2.399729564785957336e-02 -2.122574485838413239e-03 3.031424805521965027e-02 -6.197548657655715942e-02 -3.654410131275653839e-03 -4.463160037994384766e-02 -6.675007287412881851e-03 -3.536225110292434692e-02 -5.171559378504753113e-02 1.415320765227079391e-02 4.380756244063377380e-02 -3.643950074911117554e-02 -4.500454291701316833e-02 -4.090840928256511688e-03 7.020425051450729370e-02 7.732219062745571136e-03 4.373587202280759811e-03 -3.240213543176651001e-02 -1.100678462535142899e-02 5.765702575445175171e-02 -6.690654158592224121e-02 4.018027801066637039e-03 -2.470455318689346313e-02 -3.589098528027534485e-02 3.003553114831447601e-02 -1.761347241699695587e-02 -4.662857949733734131e-02 -5.292573943734169006e-03 -4.793481901288032532e-02
-2.820695750415325165e-02 2.649947814643383026e-02 -4.893884807825088501e-02 2.412678673863410950e-02 -3.767321584746241570e-03 5.823425203561782837e-02 5.475323647260665894e-02 6.922358646988868713e-03 5.880368873476982117e-02 1.267136633396148682e-02 1.893029175698757172e-02 -3.587603196501731873e-02 -2.070480957627296448e-03 -5.354801937937736511e-02 3.377172350883483887e-02 -2.877828292548656464e-02 3.631439991295337677e-03 -4.869734868407249451e-02 -8.534948341548442841e-03 -2.488017082214355469e-02 -6.419133394956588745e-02 2.460124343633651733e-02 -4.976180940866470337e-02 5.217316374182701111e-02 2.661495283246040344e-02 -3.665941581130027771e-02 -2.686564251780509949e-02 -2.308414131402969360e-02 -1.541413180530071259e-02 -5.878809466958045959e-02 -4.253502469509840012e-03 -2.762125805020332336e-02 1.847101747989654541e-02 1.019034162163734436e-02 4.345286265015602112e-02 7.060950249433517456e-02 -1.167692802846431732e-02 -1.599630527198314667e-02 3.005048446357250214e-02 4.242496192455291748e-02 -6.497012823820114136e-02 -6.542593240737915039e-02 1.345894765108823776e-02 -1.825398579239845276e-02 -1.101245824247598648e-02 4.714764282107353210e-02 -3.200073912739753723e-02 1.454645395278930664e-02 1.967853307723999023e-02 2.911268500611186028e-03 5.377204623073339462e-03 5.767475441098213196e-02 -3.980828914791345596e-03 2.870789729058742523e-02 5.917840823531150818e-02 4.770287498831748962e-02 -1.196641824208199978e-03 -4.960161820054054260e-02 7.530571427196264267e-03 5.328076705336570740e-02 3.787293285131454468e-02 5.484160035848617554e-02 -1.493654027581214905e-02 -4.241939634084701538e-02 6.029859557747840881e-02 -4.712943360209465027e-02 5.836654454469680786e-02 3.127866238355636597e-02 3.976610302925109863e-02 1.243944093585014343e-02 -5.479604750871658325e-02 6.484647095203399658e-02 -2.039979211986064911e-02 7.025952637195587158e-02 3.500794991850852966e-02 3.153212368488311768e-02 -2.707822993397712708e-02 -5.110437795519828796e-02 1.103110332041978836e-02 -9.246015921235084534e-03 2.659335546195507050e-02 8.154235780239105225e-03 -2.505105175077915192e-02 -3.731762245297431946e-02 -9.513783268630504608e-03 -3.746380284428596497e-02 4.300158936530351639e-03 2.856071293354034424e-02 -5.597594007849693298e-02 4.559174180030822754e-02 -5.575020983815193176e-02 -3.344963863492012024e-02 6.079672276973724365e-02 1.041357591748237610e-02 -4.776844009757041931e-02 4.051860794425010681e-02 1.838259398937225342e-02 4.180866479873657227e-02 2.521928399801254272e-02 -7.002571970224380493e-02 -3.082913905382156372e-02 -6.483950465917587280e-02 -6.572992354631423950e-02 -4.746923688799142838e-03 5.943997204303741455e-02 -3.093381598591804504e-02 -6.610251963138580322e-02 1.187671255320310593e-02 3.148236498236656189e-02 3.567175567150115967e-02 2.499944716691970825e-02 -5.029991269111633301e-02 -3.705411031842231750e-02 -4.030494950711727142e-03 -4.329654946923255920e-02 -2.784177102148532867e-02 5.127485468983650208e-02 -3.747802600264549255e-02 -3.362359479069709778e-02 3.882249072194099426e-02 -1.735567674040794373e-02 -3.046694584190845490e-02 1.393800601363182068e-02 6.226354278624057770e-03 -2.517355605959892273e-02 -6.253216415643692017e-02 -1.639638911001384258e-03 1.475729804951697588e-04 -3.922589495778083801e-02 1.061340328305959702e-02 -4.302784428000450134e-02 -2.555047534406185150e-02 -1.118105370551347733e-03 1.676433166721835732e-04 5.867716670036315918e-02 7.589965127408504486e-03 2.364719845354557037e-02 4.900498688220977783e-02 3.888827562332153320e-02 -4.505446925759315491e-02 -1.373271644115447998e-02 3.973985090851783752e-02 -3.387971222400665283e-02 5.109984427690505981e-02 -3.133036661893129349e-03 -6.024320051074028015e-02 2.718234062194824219e-02 4.256173595786094666e-02 -1.447352301329374313e-02 -2.001244574785232544e-02 3.124631755053997040e-02 -5.790795013308525085e-02 -6.523399055004119873e-02 -6.266994774341583252e-02 5.631382390856742859e-02 2.140766568481922150e-02 -2.529326826333999634e-02 2.482253871858119965e-02 6.154853850603103638e-02 2.323170565068721771e-02 -5.775760486721992493e-02 4.113017395138740540e-02 4.211228340864181519e-02 -3.971165418624877930e-02 -2.596983499825000763e-02 -4.609291628003120422e-02 -3.810255602002143860e-02 4.949950426816940308e-02 5.114683881402015686e-02 5.451938882470130920e-02 2.373918890953063965e-02 8.103912114165723324e-04 -4.696602374315261841e-02 5.095705017447471619e-02 -4.159091785550117493e-02 5.806034803390502930e-02 -5.281889811158180237e-02 -3.634938970208168030e-02 4.100824519991874695e-02 3.188377991318702698e-02 -2.241560816764831543e-02 -1.567803788930177689e-03 -2.808307111263275146e-02 4.719995334744453430e-02 -2.775684557855129242e-02 -5.270855501294136047e-02 5.444934591650962830e-03 7.796349469572305679e-03 -6.595790386199951172e-02 -1.431546453386545181e-02 -6.848738342523574829e-02 -7.051599770784378052e-02 -6.440693885087966919e-02 1.402551960200071335e-02 -4.591119661927223206e-02 6.581909954547882080e-02 3.676389530301094055e-02 1.990105956792831421e-02 -4.348685219883918762e-02 -2.457121759653091431e-02
-4.264431074261665344e-02 6.147649139165878296e-03 -8.243510499596595764e-03 -6.517215818166732788e-02 -3.650420531630516052e-02 1.603240845724940300e-03 9.708846919238567352e-03 4.087589681148529053e-02 5.930062034167349339e-04 -1.304862275719642639e-02 4.356952756643295288e-02 5.666229501366615295e-02 -4.966339468955993652e-02 3.862877562642097473e-02 1.471112202852964401e-02 -1.313955895602703094e-02 -2.589598670601844788e-02 6.885631941258907318e-03 6.420922279357910156e-02 -6.249282881617546082e-02 6.467434018850326538e-02 -2.291769534349441528e-02 6.743661314249038696e-02 -6.941942870616912842e-02 -4.411112889647483826e-02 5.103751644492149353e-02 -4.805340245366096497e-02 -3.387251496315002441e-02 4.459034651517868042e-02 -6.374000012874603271e-02 -4.969857260584831238e-02 -2.343957498669624329e-02 -6.859029829502105713e-02 1.830736175179481506e-02 -1.904144184663891792e-03 -7.257569581270217896e-03 -5.025106668472290039e-02 -2.678246982395648956e-02 -2.152726287022233009e-03 -2.520781196653842926e-02 -2.406032197177410126e-02 -4.463252797722816467e-02 -2.213907428085803986e-02 -5.353840067982673645e-02 3.845001384615898132e-02 -3.056047111749649048e-02 -9.821522980928421021e-03 5.657571554183959961e-02 4.862229397986084223e-04 9.491226635873317719e-03 1.500249188393354416e-02 -6.981154531240463257e-02 -1.248204265721142292e-03 1.934977062046527863e-02 4.027287662029266357e-02 4.765657335519790649e-02 8.883131667971611023e-03 4.583891422953456640e-04 1.159550901502370834e-02 -1.030591665767133236e-03 6.211644783616065979e-02 2.219441346824169159e-02 5.952161177992820740e-02 4.485103487968444824e-02 -3.916239738464355469e-02 -6.466241180896759033e-02 -1.553107239305973053e-02 4.492228850722312927e-02 5.469394102692604065e-02 -2.101449482142925262e-02 3.710899502038955688e-02 -7.009811699390411377e-02 -2.714510075747966766e-02 4.807013645768165588e-02 -8.406256325542926788e-03 1.887223869562149048e-02 -6.349274516105651855e-02 3.406191989779472351e-02 -4.161150008440017700e-02 6.341667845845222473e-03 2.014808356761932373e-02 6.981219351291656494e-02 -1.899469271302223206e-02 1.360475923866033554e-02 4.046418145298957825e-02 -3.882122039794921875e-02 -5.508523434400558472e-02 -6.848206371068954468e-02 6.320695579051971436e-02 -3.580519184470176697e-02 -2.820693142712116241e-02 -3.152962028980255127e-02 -6.562019884586334229e-02 5.688417237251996994e-03 -6.286314129829406738e-02 -1.598690636456012726e-02 -1.543464045971632004e-02 -6.556636840105056763e-02 -4.176703840494155884e-02 -1.064601633697748184e-02 -2.000036649405956268e-03 3.580735623836517334e-02 -6.831136066466569901e-03 5.419778823852539062e-02 -1.574988104403018951e-02 2.671488188207149506e-02 4.535068571567535400e-02 3.421337902545928955e-02 5.928477272391319275e-02 -1.905149780213832855e-02 -3.631881624460220337e-02 9.291500784456729889e-03 2.051225677132606506e-02 -3.969043865799903870e-02 7.645817939192056656e-03 -4.105399921536445618e-02 -3.102316707372665405e-02 -3.809797111898660660e-03 -1.628515496850013733e-02 3.207579255104064941e-02 -6.209236755967140198e-02 -2.593941427767276764e-02 -9.794051758944988251e-03 6.234013289213180542e-02 -6.248022615909576416e-02 5.291621200740337372e-03 -4.638505168259143829e-03 2.155658788979053497e-02 -1.526490692049264908e-02 1.582645438611507416e-02 -6.513702124357223511e-02 -1.332962419837713242e-02 5.614209175109863281e-02 -5.163705907762050629e-03 -1.032058382406830788e-03 1.349817775189876556e-02 -3.299926593899726868e-02 -2.079024910926818848e-02 -5.974369123578071594e-02 -2.639832533895969391e-02 6.429628469049930573e-03 -5.566114559769630432e-02 5.244999378919601440e-02 1.233376190066337585e-02 -4.346463829278945923e-02 -5.675888434052467346e-02 3.433794155716896057e-02 -3.789898753166198730e-02 6.001682952046394348e-02 -4.051109775900840759e-02 -1.774239167571067810e-02 -4.504070430994033813e-02 6.830663233995437622e-02 2.692241407930850983e-02 -2.401116117835044861e-02 4.811783507466316223e-02 2.539566950872540474e-03 -1.481106877326965332e-02 6.607978045940399170e-02 5.163918808102607727e-02 1.592544838786125183e-02 -4.445615410804748535e-02 1.245284359902143478e-02 8.138068020343780518e-03 -6.964941322803497314e-02 4.530907794833183289e-02 2.468417957425117493e-02 1.810299046337604523e-02 4.824327304959297180e-02 7.021163403987884521e-02 -2.682688273489475250e-02 -4.063555039465427399e-03 4.986332356929779053e-02 5.249962583184242249e-02 7.624668534845113754e-03 5.075678601861000061e-02 -5.102835595607757568e-02 5.959536135196685791e-02 2.467425912618637085e-02 -1.875027455389499664e-02 3.400589153170585632e-02 -6.573870033025741577e-02 3.976893424987792969e-02 1.179589191451668739e-03 -9.681704454123973846e-03 -5.777595564723014832e-02 5.283233150839805603e-02 3.600500896573066711e-02 6.259604543447494507e-02 -6.798748672008514404e-02 -4.255580902099609375e-02 -4.339981824159622192e-02 2.886643633246421814e-02 -5.911789461970329285e-02 5.166935920715332031e-02 3.563862666487693787e-02 4.738263413310050964e-02 -8.792894892394542694e-03 -6.478989124298095703e-02 6.362461298704147339e-02
4.146130755543708801e-02 2.888153307139873505e-02 -5.778698250651359558e-02 -3.237216919660568237e-02 -3.486986085772514343e-02 2.197304181754589081e-02 5.192332714796066284e-02 3.044467605650424957e-02 -5.468645691871643066e-02 -2.377311699092388153e-02 1.956658251583576202e-02 -2.169027738273143768e-02 -5.481064692139625549e-02 -3.602645359933376312e-03 4.931528866291046143e-02 1.205368712544441223e-02 -4.247795790433883667e-02 3.501935303211212158e-02 -5.319478735327720642e-02 1.581333763897418976e-02 -3.878564760088920593e-02 2.647263929247856140e-02 -3.029736503958702087e-02 3.033910691738128662e-02 -1.223127730190753937e-02 4.920472949743270874e-02 -2.293076179921627045e-02 -3.845900064334273338e-03 -2.277296409010887146e-02 3.832586854696273804e-02 1.571998372673988342e-02 -1.199008803814649582e-02 -2.846419624984264374e-02 6.225106772035360336e-03 6.923633068799972534e-02 4.916262254118919373e-02 -4.286526143550872803e-02 3.631288185715675354e-02 6.703013926744461060e-02 5.068725347518920898e-02 1.565871760249137878e-02 8.774493820965290070e-03 8.911277167499065399e-03 1.104299724102020264e-02 -1.300499215722084045e-02 -5.707439780235290527e-02 1.061865407973527908e-02 6.886117160320281982e-02 -5.956668406724929810e-02 2.610543929040431976e-02 2.747617289423942566e-02 1.953675178810954094e-03 6.945129483938217163e-02 5.009930208325386047e-02 5.231600999832153320e-02 7.042635232210159302e-02 1.927415840327739716e-02 -4.497568681836128235e-02 2.814994007349014282e-02 -6.489510089159011841e-02 3.571717068552970886e-02 -5.994683131575584412e-02 -1.777032576501369476e-02 1.432225015014410019e-02 -4.958581179380416870e-02 4.580241441726684570e-02 -2.565534412860870361e-02 -1.379069406539201736e-02 -3.263229131698608398e-02 4.463696107268333435e-02 -3.159135580062866211e-02 6.628723442554473877e-02 2.580805867910385132e-02 -4.037888348102569580e-02 1.841782033443450928e-02 2.357366867363452911e-02 6.456346064805984497e-02 -4.165092483162879944e-02 2.206909470260143280e-02 4.343523830175399780e-02 -3.895834088325500488e-02 -3.761600330471992493e-02 -4.487289860844612122e-02 1.564352028071880341e-02 2.561619877815246582e-02 -3.235432505607604980e-02 -1.931485719978809357e-02 -6.784763932228088379e-02 -4.600581596605479717e-04 -2.407198026776313782e-02 6.317749619483947754e-02 -5.615015700459480286e-02 7.014239579439163208e-02 4.366533458232879639e-02 1.304151676595211029e-02 5.187797546386718750e-02 -3.164489939808845520e-02 5.325692705810070038e-03 5.445841699838638306e-02 3.547262772917747498e-02 2.574353292584419250e-02 -3.672179300338029861e-03 -4.866530001163482666e-02 4.879850149154663086e-02 5.238304659724235535e-02 4.164980351924896240e-02 6.129679456353187561e-02 -3.803201019763946533e-02 4.471290111541748047e-02 6.630183756351470947e-02 -5.872610583901405334e-02 7.039917260408401489e-02 7.016573101282119751e-02 -5.454129353165626526e-02 1.194762066006660461e-02 -4.942145571112632751e-02 -3.332414105534553528e-02 -3.617170080542564392e-02 -1.809608750045299530e-02 -4.427876323461532593e-02 2.620842121541500092e-02 1.108630749513395131e-04 6.905804574489593506e-02 5.213220790028572083e-02 -1.475859619677066803e-02 -1.477796677500009537e-02 -5.522345006465911865e-02 1.164051331579685211e-02 4.915440455079078674e-02 -2.374281361699104309e-02 -2.774560824036598206e-02 -7.689355872571468353e-03 -2.287007868289947510e-02 -4.681435972452163696e-02 -5.569194629788398743e-02 -2.775262296199798584e-02 1.794371753931045532e-02 4.065331071615219116e-02 -6.130368262529373169e-02 -4.388182610273361206e-02 -2.871079742908477783e-02 -4.872991144657135010e-02 4.715600237250328064e-02 -9.434066596440970898e-04 -2.704785950481891632e-02 -3.808406181633472443e-03 6.160992663353681564e-03 -4.472193773835897446e-03 4.083110950887203217e-03 -3.110794164240360260e-02 -5.046846717596054077e-02 -8.648972027003765106e-03 5.214652791619300842e-02 2.942185662686824799e-02 -4.535043239593505859e-02 8.034428581595420837e-03 7.037124596536159515e-03 2.148477826267480850e-03 -1.637943834066390991e-02 2.532225847244262695e-02 1.363251637667417526e-02 6.650723516941070557e-02 1.714683137834072113e-02 2.675894275307655334e-02 6.975193321704864502e-02 4.215914011001586914e-02 2.096493961289525032e-03 1.970911398530006409e-02 4.052671790122985840e-02 2.804726175963878632e-02 3.317185491323471069e-02 6.689077615737915039e-02 -5.397973954677581787e-02 5.974959209561347961e-02 -6.548503786325454712e-02 -1.820939593017101288e-02 1.714360155165195465e-02 -3.310078755021095276e-03 9.972670115530490875e-03 6.273662298917770386e-02 -1.152077410370111465e-02 -2.911263331770896912e-02 -3.290139138698577881e-02 -6.315448135137557983e-02 -3.068054653704166412e-02 -3.416416049003601074e-02 -2.760028699412941933e-03 -1.768532395362854004e-02 -7.704166229814291000e-03 -1.784899644553661346e-02 -5.911200121045112610e-02 -3.529851883649826050e-02 9.456843137741088867e-03 -5.758750811219215393e-02 -1.952091231942176819e-02 1.567142084240913391e-02 4.944963380694389343e-03 -5.241203680634498596e-02 6.115604937076568604e-02 -4.491370636969804764e-03
