-6.175052747130393982e-02 -2.017330005764961243e-02 -1.739410609006881714e-01 -1.187919601798057556e-01 -1.481287330389022827e-01 -6.183309108018875122e-02 5.532965064048767090e-02 6.115751340985298157e-02 8.754167705774307251e-02 1.338928937911987305e-01 -3.354769945144653320e-02 -7.042920589447021484e-02 2.077826298773288727e-02 7.902215421199798584e-02 -1.003617718815803528e-01 1.874478161334991455e-02 -5.753170326352119446e-02 -3.512540087103843689e-02 -2.198001183569431305e-02 -8.855537325143814087e-02 6.346362829208374023e-02 2.679548971354961395e-02 -2.060799300670623779e-02 -2.749410271644592285e-02 -1.115410700440406799e-01 -7.763333618640899658e-02 -1.061750054359436035e-01 1.276739686727523804e-01 5.190215259790420532e-02 7.207987457513809204e-02 -9.953885525465011597e-02 1.883215457201004028e-01 6.889811158180236816e-02 1.708712726831436157e-01 5.618403851985931396e-02 -1.358658671379089355e-01 -4.737967625260353088e-02 -9.245416522026062012e-02 -1.241132542490959167e-01 -1.278052944689989090e-02 -1.454887837171554565e-01 -2.137848883867263794e-01 -3.706514462828636169e-02 6.344492733478546143e-02 -1.755072027444839478e-01 2.193776965141296387e-01 2.010881714522838593e-02 1.539594233036041260e-01 8.611088246107101440e-02 -2.567589282989501953e-01 -7.545799762010574341e-02 -8.100789785385131836e-02 3.612212836742401123e-02 2.753212302923202515e-02 -1.449951529502868652e-01 -2.743378281593322754e-01 1.086554527282714844e-01 3.411699086427688599e-02 -1.304849088191986084e-01 3.983865305781364441e-02 4.536097124218940735e-02 3.381762281060218811e-02 -1.562010589987039566e-02
-7.751739025115966797e-02 2.140866778790950775e-02 1.365182455629110336e-02 -1.072732545435428619e-02 -1.598896086215972900e-02 -3.930411115288734436e-02 1.571275889873504639e-01 7.605504989624023438e-02 -3.975744545459747314e-02 -1.874973438680171967e-02 9.128341451287269592e-03 9.643494151532649994e-03 -1.366782933473587036e-01 -1.143955811858177185e-01 7.637554407119750977e-02 -1.308118253946304321e-01 -5.895590409636497498e-02 8.288936316967010498e-02 1.941787637770175934e-02 -3.950329124927520752e-02 -7.122993469238281250e-02 3.589482232928276062e-02 -4.989074543118476868e-02 -3.744297847151756287e-02 -3.085246682167053223e-02 -6.242498010396957397e-02 7.805870473384857178e-02 -1.088905856013298035e-01 -4.022466391324996948e-02 3.597615659236907959e-02 -7.365006208419799805e-02 -8.312249183654785156e-02 7.523894775658845901e-03 -1.758497953414916992e-02 1.010595411062240601e-01 4.909524694085121155e-02 -3.729731542989611626e-04 1.083217486739158630e-01 2.024705708026885986e-01 -6.128293648362159729e-02 2.249089069664478302e-02 3.481355309486389160e-02 3.595872968435287476e-02 7.319056242704391479e-02 -6.623056530952453613e-02 7.321976590901613235e-03 1.184061765670776367e-01 5.302983894944190979e-02 1.234315559267997742e-01 -1.647770553827285767e-01 1.474359072744846344e-02 -8.807981014251708984e-02 1.337400376796722412e-01 5.287934839725494385e-02 4.306083172559738159e-02 1.920002102851867676e-01 -2.393177710473537445e-02 -1.408656090497970581e-01 1.439630985260009766e-01 -3.398552164435386658e-02 2.399181276559829712e-01 1.188580691814422607e-02 4.910610988736152649e-02
-3.064479865133762360e-02 -1.296712607145309448e-01 9.272085875272750854e-02 1.040612682700157166e-01 6.335728615522384644e-02 8.536001294851303101e-02 1.265068203210830688e-01 2.073141634464263916e-01 -1.657770574092864990e-02 1.382952779531478882e-01 -1.524612456560134888e-01 1.152354851365089417e-01 3.729325905442237854e-02 -5.156676173210144043e-01 -1.705251261591911316e-02 -6.693836301565170288e-02 8.152034878730773926e-02 1.660856232047080994e-02 -8.674576133489608765e-02 -1.666542142629623413e-01 1.423816531896591187e-01 4.397668316960334778e-02 6.649609189480543137e-03 -7.509495317935943604e-02 -3.875570744276046753e-02 7.413592934608459473e-02 6.047797203063964844e-02 -1.461049169301986694e-01 8.048454672098159790e-02 3.462764248251914978e-02 7.374566793441772461e-02 -1.254359818994998932e-02 6.263144314289093018e-02 6.763429194688796997e-02 1.625717878341674805e-01 -5.026669427752494812e-02 -1.235636323690414429e-01 4.065701737999916077e-02 -1.742358803749084473e-01 4.401639103889465332e-03 1.573353856801986694e-01 1.691875755786895752e-01 4.907529428601264954e-02 8.647958934307098389e-02 7.480273395776748657e-02 -5.255845561623573303e-02 -1.088519021868705750e-01 1.400302201509475708e-01 1.457636952400207520e-01 -3.308747336268424988e-02 -1.588553637266159058e-01 -1.621678620576858521e-01 -6.815868616104125977e-02 -2.834476232528686523e-01 5.249897390604019165e-02 4.666300117969512939e-01 -1.021251752972602844e-01 1.607693880796432495e-01 -1.023483350872993469e-01 4.584310576319694519e-02 -1.379667520523071289e-01 1.234813680639490485e-04 6.399059295654296875e-02
2.015648595988750458e-02 -6.954029202461242676e-02 -1.724354624748229980e-01 1.185396611690521240e-01 5.364372581243515015e-02 -7.353927195072174072e-02 2.067182809114456177e-01 8.370529115200042725e-02 -4.440464824438095093e-02 2.562632411718368530e-02 1.966659575700759888e-01 7.755132019519805908e-02 -5.106106027960777283e-02 1.910179704427719116e-01 4.973900318145751953e-02 -8.255163207650184631e-03 -8.318340778350830078e-02 4.065227694809436798e-03 1.730548739433288574e-01 1.393421553075313568e-02 9.354761987924575806e-02 7.769989315420389175e-04 1.259417533874511719e-01 1.002905443310737610e-01 3.006972000002861023e-02 2.340924367308616638e-02 1.501655019819736481e-02 -1.315884888172149658e-01 1.511659920215606689e-01 2.654315903782844543e-02 -3.248102962970733643e-02 -1.442902833223342896e-01 7.774029672145843506e-02 5.864480882883071899e-02 2.605034112930297852e-01 -9.389018267393112183e-02 1.276157200336456299e-01 -1.462284922599792480e-01 1.330787539482116699e-01 -1.304689943790435791e-01 -4.881986603140830994e-02 2.356735058128833771e-02 1.052711755037307739e-01 9.714895486831665039e-02 -2.792840898036956787e-01 -2.229742556810379028e-01 2.627299129962921143e-01 9.898108989000320435e-02 1.870952546596527100e-01 -1.406920850276947021e-01 -1.125940382480621338e-01 -1.454699784517288208e-01 2.260492742061614990e-01 -3.423956334590911865e-01 -1.588509976863861084e-01 -1.613456457853317261e-01 -5.021072179079055786e-02 1.894615404307842255e-02 1.618454419076442719e-02 -1.223025005310773849e-02 -3.269118070602416992e-02 -2.848734147846698761e-02 -1.092565059661865234e-01
5.729408934712409973e-02 7.043021172285079956e-02 -6.091326102614402771e-02 1.657868772745132446e-01 2.880337461829185486e-02 2.149899750947952271e-01 4.862927645444869995e-02 -2.007619440555572510e-01 5.958198010921478271e-02 1.382140517234802246e-01 6.730152666568756104e-02 -1.255543828010559082e-01 -1.893494627438485622e-04 2.014683336019515991e-01 -2.027039788663387299e-02 -2.951603382825851440e-03 -7.832648605108261108e-02 9.612333029508590698e-02 3.995633870363235474e-02 8.312426507472991943e-02 7.636713236570358276e-02 -2.932540886104106903e-02 2.976133720949292183e-03 5.014801397919654846e-02 1.628245860338211060e-01 3.230213746428489685e-02 5.305249616503715515e-02 2.136451005935668945e-02 2.746213786303997040e-02 -5.330085009336471558e-02 -3.873283276334404945e-04 -1.153869703412055969e-01 -1.204587891697883606e-01 -1.141476854681968689e-01 1.368501335382461548e-01 1.959494948387145996e-01 -1.858244463801383972e-02 -1.436094641685485840e-01 1.203711330890655518e-01 1.692759841680526733e-01 4.808706417679786682e-02 -1.433925777673721313e-01 -2.808273211121559143e-02 -8.175156265497207642e-02 -1.101947724819183350e-01 -2.740375101566314697e-01 -9.748458117246627808e-02 -1.878666281700134277e-01 1.074094474315643311e-01 2.749667465686798096e-01 -4.845650494098663330e-02 -1.287394613027572632e-01 1.533207744359970093e-01 2.050173878669738770e-01 -2.529976889491081238e-02 -2.425000518560409546e-01 -5.474230856634676456e-04 4.395947977900505066e-02 -6.203960254788398743e-02 -6.458222866058349609e-02 1.006748378276824951e-01 2.088444679975509644e-02 -3.108612820506095886e-02
-4.951014369726181030e-02 -1.205962076783180237e-01 -1.355486065149307251e-01 3.770662844181060791e-02 7.284601032733917236e-02 1.455225944519042969e-01 -9.665229916572570801e-02 -5.484348163008689880e-03 -2.176335547119379044e-03 -1.496689766645431519e-01 -9.330020099878311157e-02 1.262700408697128296e-01 2.864072024822235107e-01 -6.861349940299987793e-02 9.883178770542144775e-02 -1.775392144918441772e-02 -1.263157129287719727e-01 4.415426403284072876e-02 1.524368822574615479e-01 3.367536887526512146e-02 -2.219189852476119995e-01 3.587070107460021973e-02 1.127480342984199524e-01 -4.810555651783943176e-02 2.506504766643047333e-02 3.443926945328712463e-02 2.936822474002838135e-01 -3.940103203058242798e-02 2.850244939327239990e-02 1.097074300050735474e-01 -1.972186863422393799e-01 -2.785385958850383759e-02 5.614254157990217209e-03 -4.106529057025909424e-02 -6.890225410461425781e-02 1.984745450317859650e-02 3.398672491312026978e-02 1.113202571868896484e-01 -1.448396146297454834e-01 -1.248901933431625366e-01 8.852727711200714111e-02 1.113149449229240417e-01 8.371152728796005249e-02 1.853884011507034302e-01 -8.853823691606521606e-02 -1.363290846347808838e-01 1.756377369165420532e-01 -2.322362661361694336e-01 -5.084735155105590820e-02 -8.079171180725097656e-02 -6.286732852458953857e-02 1.180033981800079346e-01 -9.238929301500320435e-02 -3.059593737125396729e-01 2.038226723670959473e-01 6.503000855445861816e-02 7.173794507980346680e-02 -4.491312429308891296e-03 3.437490016222000122e-02 -7.461047917604446411e-02 -5.182871967554092407e-02 3.460061177611351013e-02 2.925517223775386810e-02
5.989165976643562317e-02 -2.123658806085586548e-01 -1.886142417788505554e-02 -1.649535596370697021e-01 8.223544806241989136e-02 7.812453806400299072e-02 -7.754019647836685181e-02 -6.946434825658798218e-02 -1.072324160486459732e-02 2.602418065071105957e-01 3.177779540419578552e-02 -2.112856954336166382e-01 1.777758821845054626e-02 3.528715670108795166e-02 -6.799849867820739746e-02 -7.889503240585327148e-02 2.449875697493553162e-02 2.322007529437541962e-02 -6.081559229642152786e-03 -9.163996577262878418e-02 5.528183281421661377e-02 -1.414428502321243286e-01 5.617673508822917938e-03 2.412992715835571289e-01 -1.261482536792755127e-01 -1.271774321794509888e-01 -2.185689657926559448e-02 -2.094793505966663361e-02 6.816128641366958618e-02 1.317439377307891846e-01 4.551426321268081665e-02 1.546816080808639526e-01 -4.150931164622306824e-02 2.865097858011722565e-02 1.180433183908462524e-01 1.499730795621871948e-01 1.172640025615692139e-01 -2.515261769294738770e-01 -1.135352328419685364e-01 1.048336029052734375e-01 2.195621654391288757e-02 -1.186374574899673462e-01 -9.534903615713119507e-02 2.019434869289398193e-01 2.636178582906723022e-02 3.331673890352249146e-02 -8.032144047319889069e-03 -1.088012084364891052e-01 -5.406079068779945374e-02 1.581034660339355469e-01 1.023943945765495300e-01 -2.823830544948577881e-01 -4.382608924061059952e-03 2.958858311176300049e-01 -1.362421642988920212e-02 8.111266791820526123e-02 -7.047429680824279785e-02 2.286841347813606262e-02 3.207063674926757812e-01 -3.042529225349426270e-01 1.830130219459533691e-01 -1.279999315738677979e-01 -4.796640202403068542e-02
4.637078568339347839e-02 -4.035906493663787842e-02 7.141140848398208618e-02 1.819899082183837891e-01 -1.490355096757411957e-02 -5.903929099440574646e-02 2.913038805127143860e-02 -3.306195437908172607e-01 9.715703874826431274e-02 5.011765286326408386e-02 -3.982654586434364319e-02 -3.427344262599945068e-01 -4.297246783971786499e-02 -5.253131985664367676e-01 -8.412178605794906616e-02 -5.229339003562927246e-02 6.146852672100067139e-02 1.194567754864692688e-01 7.597964257001876831e-02 3.838345780968666077e-02 1.590202748775482178e-01 -2.583148479461669922e-01 -6.815116107463836670e-02 2.492949180305004120e-02 -1.062485799193382263e-01 -1.599199771881103516e-01 1.268333494663238525e-01 -8.421646058559417725e-02 9.929040446877479553e-03 2.484510280191898346e-02 -2.515088953077793121e-02 -1.148663610219955444e-01 -2.182783000171184540e-02 7.219255715608596802e-02 1.643154956400394440e-02 2.371262162923812866e-01 -9.128840267658233643e-02 1.139116752892732620e-02 -1.758349388837814331e-01 1.173847913742065430e-01 -7.075082510709762573e-02 2.309882491827011108e-01 3.281045239418745041e-03 8.934398740530014038e-02 2.242915565147995949e-03 -1.866885274648666382e-01 -2.417019568383693695e-02 -6.408443301916122437e-02 4.428785294294357300e-02 3.739539682865142822e-01 4.224756732583045959e-02 -9.243305027484893799e-02 -2.238600887358188629e-02 3.546003997325897217e-01 1.177903190255165100e-01 3.801774680614471436e-01 -1.256812065839767456e-01 6.031297147274017334e-02 4.865440726280212402e-02 -4.534892737865447998e-02 4.261085018515586853e-02 -1.189363072626292706e-03 -2.016756124794483185e-02
-5.075052380561828613e-02 -2.984654903411865234e-02 3.384908661246299744e-02 1.052347421646118164e-01 1.271073520183563232e-01 -4.748804122209548950e-02 -9.200564771890640259e-02 -5.784986168146133423e-02 -3.290466964244842529e-02 -5.829401686787605286e-02 1.574258133769035339e-02 1.339240223169326782e-01 -1.097533255815505981e-01 1.660377830266952515e-01 4.689180478453636169e-02 6.378202140331268311e-02 -6.181863322854042053e-02 6.879661697894334793e-03 -5.121061205863952637e-02 -3.677678480744361877e-02 1.309069097042083740e-01 1.061244681477546692e-02 5.702896788716316223e-02 1.868797279894351959e-02 -6.533926725387573242e-02 -4.152364283800125122e-02 -1.130843982100486755e-01 2.757417596876621246e-02 -8.473332226276397705e-02 -2.880691364407539368e-02 -3.196561709046363831e-02 -1.520652770996093750e-01 1.061222106218338013e-01 6.462869048118591309e-02 9.520363062620162964e-03 8.514086902141571045e-02 -6.179804727435112000e-02 3.048519603908061981e-02 -8.952951431274414062e-02 -6.680799275636672974e-02 4.023813828825950623e-02 -2.490735799074172974e-01 1.269173920154571533e-01 -1.906645484268665314e-02 -1.175392791628837585e-01 -1.498194187879562378e-01 4.035766050219535828e-02 1.915179789066314697e-01 4.994772374629974365e-02 1.393474936485290527e-01 3.183742240071296692e-02 1.745406687259674072e-01 3.527193889021873474e-02 -2.728634774684906006e-01 8.967795222997665405e-02 -2.915634810924530029e-01 7.745917886495590210e-03 -1.069577410817146301e-03 -8.320707827806472778e-03 8.593486621975898743e-03 4.659704398363828659e-03 -2.802218077704310417e-03 -2.134361565113067627e-01
-3.407166898250579834e-02 1.162429079413414001e-01 -5.125507339835166931e-02 -1.432297527790069580e-01 -4.917829483747482300e-02 -1.282791942358016968e-01 -6.744244135916233063e-03 -2.456437349319458008e-01 -7.240732759237289429e-02 -2.993977665901184082e-01 2.832521870732307434e-02 -2.113865762948989868e-01 8.545593172311782837e-02 -2.900981605052947998e-01 -3.418740816414356232e-03 -6.048053130507469177e-02 4.404723644256591797e-02 -1.970120891928672791e-02 7.033080607652664185e-02 -1.301738768815994263e-01 5.606147274374961853e-02 -4.794618487358093262e-02 7.069605588912963867e-02 -1.732159405946731567e-01 6.039047241210937500e-02 5.217166617512702942e-02 -4.021880030632019043e-02 -3.876770287752151489e-02 3.556763753294944763e-02 -8.839707821607589722e-03 -1.924525829963386059e-03 1.548860222101211548e-01 -5.663574859499931335e-02 9.404701739549636841e-02 3.043318726122379303e-02 2.232945710420608521e-01 -5.996335297822952271e-02 1.275177747011184692e-01 4.450896382331848145e-02 6.598746031522750854e-02 -4.260456934571266174e-02 1.037816777825355530e-01 6.266948184929788113e-04 -5.583362653851509094e-02 9.956370107829570770e-03 2.657814882695674896e-03 3.370084613561630249e-02 1.669404655694961548e-01 -8.271276205778121948e-02 7.692235708236694336e-02 7.345399260520935059e-02 3.689915835857391357e-01 1.897482946515083313e-02 5.506774410605430603e-02 -1.412147656083106995e-02 1.779301166534423828e-01 3.182832151651382446e-02 -8.851216174662113190e-03 -2.504644915461540222e-02 -3.324451297521591187e-02 -8.858536928892135620e-02 6.277115643024444580e-02 9.904351085424423218e-02
1.125386729836463928e-01 -1.107121556997299194e-01 9.633040055632591248e-03 -5.089895799756050110e-02 -5.509868636727333069e-02 8.524888195097446442e-03 1.197338402271270752e-01 4.044142365455627441e-02 4.297179728746414185e-02 -1.121155545115470886e-01 -1.641776412725448608e-01 5.059855803847312927e-02 -1.548533439636230469e-01 1.709722727537155151e-01 6.000512838363647461e-02 6.791583728045225143e-04 -3.933981526643037796e-03 7.383722811937332153e-02 1.694654300808906555e-02 3.962586075067520142e-02 7.775804400444030762e-02 5.621594190597534180e-02 7.114391028881072998e-02 -5.823947489261627197e-03 -3.102494776248931885e-02 -7.339999545365571976e-03 -1.316812783479690552e-01 8.396372199058532715e-02 -2.541131526231765747e-02 8.503711968660354614e-02 1.502226591110229492e-01 -2.039784006774425507e-02 -1.807631738483905792e-02 -1.408345550298690796e-01 1.079225465655326843e-01 7.385119050741195679e-02 5.870490893721580505e-02 2.740936167538166046e-02 -1.367591619491577148e-01 -7.101776450872421265e-02 -2.457814477384090424e-02 -7.438651472330093384e-02 -6.146468594670295715e-02 1.755261793732643127e-02 9.087887406349182129e-02 -3.710852935910224915e-02 -1.209702119231224060e-01 -2.511213161051273346e-02 2.879386246204376221e-01 -2.295613847672939301e-02 3.953111544251441956e-02 1.421780586242675781e-01 -2.126381844282150269e-01 -1.765252277255058289e-02 -6.750538479536771774e-03 -7.905615121126174927e-02 -5.040377378463745117e-02 7.397157140076160431e-03 -1.825922913849353790e-02 4.869600385427474976e-02 -2.536491304636001587e-02 -2.389637194573879242e-02 -2.423390373587608337e-02
-2.071961201727390289e-02 9.590543061494827271e-02 -1.626131385564804077e-01 -2.220359072089195251e-02 1.631288230419158936e-01 -3.197591379284858704e-02 -5.146731436252593994e-02 -8.040948957204818726e-02 -2.958358451724052429e-02 1.342724859714508057e-01 -1.320432126522064209e-02 4.941773414611816406e-02 1.245130747556686401e-01 1.209823321551084518e-02 -8.892379701137542725e-02 6.134105846285820007e-02 -1.379662752151489258e-01 4.603391140699386597e-02 -6.963104754686355591e-02 6.762797385454177856e-02 -5.868232809007167816e-03 1.866642385721206665e-02 -1.049871072173118591e-01 5.281869322061538696e-02 1.138367280364036560e-01 1.191673204302787781e-01 2.818203531205654144e-02 2.005955204367637634e-02 -9.177149832248687744e-02 -1.384620070457458496e-01 -1.835692673921585083e-01 -1.477195788174867630e-02 9.150438010692596436e-02 -2.442108467221260071e-02 2.748675271868705750e-02 -4.260962083935737610e-02 5.760941654443740845e-02 -1.303780674934387207e-01 1.245841756463050842e-01 -1.419848501682281494e-01 3.486820310354232788e-02 -5.192782357335090637e-02 -1.661781817674636841e-01 -9.739700704813003540e-02 -7.970626652240753174e-02 5.686217918992042542e-03 1.469410955905914307e-01 -1.532217115163803101e-02 -2.254261635243892670e-02 1.171887591481208801e-01 -7.315851747989654541e-02 -1.673887968063354492e-01 4.732120782136917114e-02 -1.370775103569030762e-01 1.262110769748687744e-01 4.123035445809364319e-02 5.487650632858276367e-02 2.979276329278945923e-02 -2.839673683047294617e-02 5.781939253211021423e-03 8.851573616266250610e-02 -2.808399032801389694e-03 -4.794686287641525269e-02
-9.864515811204910278e-02 -4.056897014379501343e-02 4.169210419058799744e-02 -8.329170942306518555e-02 -8.690383285284042358e-02 -7.019825279712677002e-02 1.617628335952758789e-02 -1.428844332695007324e-01 -4.158058762550354004e-02 1.010373532772064209e-01 1.317904889583587646e-01 3.170767724514007568e-01 8.311304450035095215e-02 6.482317298650741577e-02 2.478596195578575134e-02 -1.117084994912147522e-01 5.050116777420043945e-02 -4.269493743777275085e-02 5.116204731166362762e-03 -2.466779947280883789e-02 2.018413692712783813e-01 -1.633808016777038574e-01 1.564059406518936157e-01 7.905213534832000732e-02 1.798625439405441284e-01 -6.139718927443027496e-03 1.133172586560249329e-01 7.637554407119750977e-02 3.274123743176460266e-02 9.914886951446533203e-02 -7.692610844969749451e-03 -6.133980117738246918e-03 -2.259852550923824310e-02 1.292750984430313110e-01 1.867127716541290283e-01 9.443789720535278320e-02 1.139587312936782837e-01 1.358240470290184021e-02 6.025013700127601624e-02 -1.125778481364250183e-01 1.417706161737442017e-01 -7.402688264846801758e-02 8.002294600009918213e-02 5.037871375679969788e-02 2.338221296668052673e-02 1.393009871244430542e-01 5.864236503839492798e-02 6.356596201658248901e-02 3.142595663666725159e-02 1.317953765392303467e-01 -9.183238260447978973e-03 -1.255763620138168335e-01 -4.666204005479812622e-02 -3.219737112522125244e-01 -3.623782098293304443e-02 8.942733705043792725e-02 -5.667426064610481262e-02 -1.532617583870887756e-02 -2.539607509970664978e-02 -8.627581410109996796e-03 -2.842181324958801270e-01 6.673745345324277878e-03 -1.062484979629516602e-01
1.492073293775320053e-03 -5.665680393576622009e-02 -2.934898622334003448e-02 -1.255279332399368286e-01 8.982158452272415161e-02 -2.096761390566825867e-02 3.513706848025321960e-02 -3.106915764510631561e-02 -1.138404384255409241e-01 -1.008181050419807434e-01 -6.950733065605163574e-02 -9.955104440450668335e-02 -8.860043436288833618e-02 -3.029594011604785919e-02 -7.390274852514266968e-02 2.816939493641257286e-03 -2.000133544206619263e-01 1.078775431960821152e-02 1.052008047699928284e-01 3.112266398966312408e-02 -3.201548010110855103e-02 -1.334697604179382324e-01 9.973112493753433228e-02 6.629888713359832764e-02 -3.132052952423691750e-03 3.943382203578948975e-02 -1.113286614418029785e-01 -1.110159829258918762e-01 -9.672100841999053955e-02 -5.551891028881072998e-02 -1.734613627195358276e-01 1.210642680525779724e-01 1.137201767414808273e-02 2.263496629893779755e-02 -8.814731240272521973e-02 1.107267290353775024e-01 -8.883219212293624878e-03 1.066305264830589294e-01 -1.679858714342117310e-01 1.591547131538391113e-01 -1.582914032042026520e-03 1.519135385751724243e-01 7.157118618488311768e-02 2.063841223716735840e-01 -1.211214214563369751e-01 1.904796063899993896e-01 4.714317992329597473e-02 -9.417137503623962402e-02 2.781167253851890564e-02 1.787271499633789062e-01 5.806673783808946609e-03 2.843417413532733917e-02 2.988756634294986725e-02 7.321505993604660034e-02 -8.606714010238647461e-02 2.110254168510437012e-01 -6.874660612083971500e-04 1.320375315845012665e-02 1.025129389017820358e-02 -6.145490799099206924e-03 1.538765430450439453e-02 1.459412369877099991e-02 5.462882667779922485e-02
-8.706697821617126465e-02 5.930948536843061447e-03 3.097665309906005859e-02 -5.722250044345855713e-02 6.388787925243377686e-02 1.145655885338783264e-01 3.938367962837219238e-02 -7.467832416296005249e-02 -1.438341289758682251e-01 6.133545935153961182e-02 -2.770171128213405609e-02 1.407124195247888565e-02 -1.851559244096279144e-02 1.720271073281764984e-02 -1.767658255994319916e-02 -1.088714227080345154e-01 3.754841908812522888e-02 -1.315812952816486359e-02 1.770304292440414429e-01 3.142861649394035339e-02 -1.648511290550231934e-01 -9.714731574058532715e-02 -2.302627265453338623e-01 4.087693232577294111e-04 -1.097102388739585876e-01 7.862006872892379761e-02 7.021843641996383667e-02 7.533937692642211914e-02 -5.126494541764259338e-02 1.482834070920944214e-01 5.872067064046859741e-02 2.982947416603565216e-02 1.266737934201955795e-02 -1.683847159147262573e-01 5.182852223515510559e-02 1.816535443067550659e-01 -1.919400990009307861e-01 -2.680728957056999207e-02 -9.724224358797073364e-02 -1.602296233177185059e-01 -3.382151573896408081e-02 -1.510604321956634521e-01 -1.475562453269958496e-01 1.397812664508819580e-01 -7.128510624170303345e-02 6.508287787437438965e-02 2.255132794380187988e-01 -1.601661294698715210e-01 1.483968459069728851e-02 2.749012112617492676e-01 -5.642797797918319702e-02 -1.844382584095001221e-01 3.640028089284896851e-02 -8.649584650993347168e-02 -2.224794588983058929e-02 -4.784228280186653137e-02 1.191180292516946793e-02 6.684647407382726669e-03 3.755206242203712463e-02 5.945407226681709290e-02 -3.075692569836974144e-03 -8.552504703402519226e-03 -6.140068918466567993e-02
-5.860389024019241333e-02 -4.683925583958625793e-02 1.742673218250274658e-01 -6.064454466104507446e-02 1.937131434679031372e-01 3.761355206370353699e-02 3.984008729457855225e-02 -6.985607743263244629e-02 -1.222786866128444672e-02 1.119650229811668396e-01 7.207243144512176514e-02 1.646142005920410156e-01 -1.003944799304008484e-01 -1.291901767253875732e-01 -6.690913438796997070e-02 3.933545574545860291e-02 2.776918709278106689e-01 -5.089170485734939575e-02 6.881848722696304321e-02 -2.387150563299655914e-02 7.409906387329101562e-02 -4.333667829632759094e-02 3.254658356308937073e-02 -6.680630147457122803e-02 -1.080353930592536926e-01 -2.862664498388767242e-02 -1.005228981375694275e-02 8.849973790347576141e-03 -1.380455791950225830e-01 -9.803877212107181549e-03 2.820753455162048340e-01 9.082752466201782227e-02 -1.918678171932697296e-02 -3.189913928508758545e-02 9.001730382442474365e-02 1.644742190837860107e-01 -3.156631439924240112e-02 -1.276956796646118164e-01 -1.223914176225662231e-01 -2.165152132511138916e-01 -9.273055195808410645e-02 1.131953001022338867e-01 -4.520741850137710571e-02 9.191686660051345825e-02 3.117424249649047852e-01 1.325923949480056763e-01 3.988927230238914490e-02 -1.897851079702377319e-01 -1.232444588094949722e-02 2.093870341777801514e-01 1.349528580904006958e-01 -1.917124837636947632e-01 1.011427938938140869e-01 -4.150590002536773682e-01 8.174674957990646362e-02 2.900956571102142334e-01 6.799942813813686371e-03 -5.243427306413650513e-02 -5.308993533253669739e-02 -2.379088848829269409e-02 -2.333172038197517395e-02 1.423416659235954285e-02 -6.470256298780441284e-02
-8.926451206207275391e-02 -8.650555461645126343e-02 1.131274551153182983e-02 -5.071620456874370575e-03 -9.217003360390663147e-03 -1.949590444564819336e-02 1.966568231582641602e-01 2.145150750875473022e-01 8.062467724084854126e-02 3.076569922268390656e-02 -9.057510644197463989e-02 4.910463839769363403e-02 3.861504048109054565e-02 7.711633108556270599e-03 -8.364384621381759644e-02 -3.120008623227477074e-03 2.003112621605396271e-02 2.099603787064552307e-02 -5.717471614480018616e-02 7.276036590337753296e-02 1.088886633515357971e-01 1.005498692393302917e-01 -2.306659147143363953e-02 9.954687207937240601e-02 5.069128051400184631e-02 1.107981353998184204e-01 -1.280368957668542862e-02 -4.151180759072303772e-02 -7.172482460737228394e-02 5.419391766190528870e-02 3.888191282749176025e-02 6.270084530115127563e-03 5.531502515077590942e-02 -9.427704662084579468e-02 7.658877223730087280e-02 -1.188928335905075073e-01 1.133722811937332153e-02 -3.663191571831703186e-02 2.811949141323566437e-02 -5.412371084094047546e-02 -1.280277073383331299e-01 1.069249585270881653e-02 6.820996105670928955e-02 9.349102620035409927e-04 1.133444458246231079e-01 -3.773662075400352478e-02 -1.252464763820171356e-02 1.442231517285108566e-02 3.590217232704162598e-02 -2.099108695983886719e-01 -4.079531878232955933e-02 -1.381180286407470703e-01 -1.399818956851959229e-01 -2.450097538530826569e-02 -1.367201507091522217e-01 -1.154216285794973373e-02 3.300305604934692383e-01 3.868482634425163269e-02 2.773862145841121674e-02 6.502319872379302979e-02 1.456132810562849045e-02 -6.858192384243011475e-02 4.764232784509658813e-03
-9.747171774506568909e-03 7.286898791790008545e-03 3.383827209472656250e-02 -5.579105764627456665e-02 -8.826322108507156372e-02 2.674037776887416840e-02 -7.450366765260696411e-02 -1.119190827012062073e-01 1.928117126226425171e-01 -1.043709740042686462e-01 -4.202300682663917542e-02 2.643349580466747284e-02 1.996683031320571899e-01 1.810448616743087769e-01 9.468837827444076538e-02 -3.919109329581260681e-02 3.023294033482670784e-03 -1.960027031600475311e-02 -1.588096618652343750e-01 2.264091046527028084e-03 2.628866024315357208e-02 -8.451662957668304443e-03 1.365066766738891602e-01 1.361174602061510086e-02 -3.407172160223126411e-03 7.342459261417388916e-02 9.224551916122436523e-02 -1.207618415355682373e-02 1.600968688726425171e-01 3.534922376275062561e-02 1.040993183851242065e-01 4.486133530735969543e-02 -3.795578330755233765e-02 -8.669747412204742432e-02 -5.172694567590951920e-03 5.305471271276473999e-02 1.615504026412963867e-01 8.516094833612442017e-02 -1.378139946609735489e-02 -1.395700871944427490e-01 1.065407842397689819e-01 -1.776495575904846191e-01 -7.472574710845947266e-02 -1.134522352367639542e-02 1.169545203447341919e-01 1.702926754951477051e-01 -3.985793888568878174e-02 -9.966252744197845459e-02 -4.853861778974533081e-02 4.124051891267299652e-03 2.003030329942703247e-01 7.231314480304718018e-02 5.201417207717895508e-02 -1.405230313539505005e-01 2.474523782730102539e-01 -2.026514112949371338e-01 3.803470358252525330e-02 -6.464615464210510254e-02 -5.518830567598342896e-02 5.874137952923774719e-02 -3.600214421749114990e-02 6.683392077684402466e-02 -1.327154338359832764e-01
1.518505662679672241e-01 -9.625039994716644287e-02 1.261746138334274292e-01 -1.211140751838684082e-01 2.029505372047424316e-01 6.327200680971145630e-02 2.342910505831241608e-03 1.348528359085321426e-02 -1.419991813600063324e-02 4.197550471872091293e-03 1.261205375194549561e-01 -1.032724231481552124e-01 3.408406674861907959e-02 5.056227371096611023e-02 5.177620798349380493e-02 1.069612428545951843e-02 3.000883758068084717e-02 -7.277286052703857422e-02 1.716556400060653687e-01 1.452742423862218857e-02 1.025436595082283020e-01 1.146283559501171112e-02 5.294349417090415955e-02 -7.265310734510421753e-02 5.989175662398338318e-02 8.448989130556583405e-03 3.656879439949989319e-02 -2.774095535278320312e-02 6.575172394514083862e-02 1.460022479295730591e-01 1.437810361385345459e-01 1.974277794361114502e-01 2.038106024265289307e-01 -7.264509797096252441e-02 -7.282241433858871460e-02 -4.481146484613418579e-02 -3.158837929368019104e-02 1.507975161075592041e-01 1.105204299092292786e-01 1.625327467918395996e-01 3.058919683098793030e-02 -5.426426976919174194e-02 3.201840072870254517e-02 1.452969759702682495e-01 -1.254016812890768051e-02 3.219853341579437256e-01 1.385099291801452637e-01 -2.000335156917572021e-01 9.558247774839401245e-02 -5.208653584122657776e-02 -5.551461130380630493e-02 1.500369310379028320e-01 1.245410367846488953e-01 3.015915453433990479e-01 3.389677032828330994e-02 1.739418655633926392e-01 2.975494414567947388e-02 3.200444206595420837e-02 -6.448713690042495728e-02 4.286333546042442322e-02 4.910521209239959717e-03 4.845627397298812866e-02 1.237711161375045776e-01
-5.489146336913108826e-03 -1.121257524937391281e-02 -1.038301661610603333e-01 -1.343033509328961372e-03 8.691401034593582153e-02 -1.463565230369567871e-01 1.290517449378967285e-01 1.447532922029495239e-01 -3.196401149034500122e-02 -2.464753389358520508e-02 -2.276088446378707886e-01 -8.330235630273818970e-02 -1.420215964317321777e-01 3.135180845856666565e-02 1.092021837830543518e-01 1.462651193141937256e-01 -1.613372266292572021e-01 -1.253339499235153198e-01 -4.720573313534259796e-03 -1.565098017454147339e-01 6.021491810679435730e-02 -2.218012884259223938e-02 -1.201327219605445862e-01 -8.898826688528060913e-02 -1.555183082818984985e-01 -2.744544297456741333e-02 -7.040740549564361572e-02 1.319621950387954712e-01 -9.232351183891296387e-02 -7.416044920682907104e-02 2.940514683723449707e-02 -1.059324294328689575e-02 9.851953387260437012e-02 1.318727880716323853e-01 2.315892577171325684e-01 -3.117533400654792786e-02 8.545275777578353882e-02 5.594749748706817627e-02 -1.413549184799194336e-01 -2.861684001982212067e-02 -5.169464275240898132e-03 -1.104667317122220993e-03 -9.907051920890808105e-02 -1.707209497690200806e-01 5.737014114856719971e-03 8.951440453529357910e-02 4.117209091782569885e-02 2.981677055358886719e-01 6.025791913270950317e-02 -5.517567321658134460e-02 1.466480270028114319e-02 1.188898691907525063e-03 -7.882183045148849487e-02 -2.244080603122711182e-02 3.656089305877685547e-02 -1.013369560241699219e-01 2.352045178413391113e-01 -1.021191105246543884e-01 -2.391164423897862434e-03 -4.355780035257339478e-02 -1.523205935955047607e-01 7.370489090681076050e-02 1.372828036546707153e-01
2.122776582837104797e-02 1.716216951608657837e-01 8.688051253557205200e-02 -2.451529540121555328e-02 -8.858377486467361450e-02 -4.168199002742767334e-02 -9.183431416749954224e-02 -1.279555261135101318e-01 -2.710351720452308655e-02 -2.320464001968502998e-03 2.929866686463356018e-02 -6.446338444948196411e-02 5.389679595828056335e-02 2.219425439834594727e-01 1.317705661058425903e-01 1.734679490327835083e-01 2.581471018493175507e-02 -6.338678300380706787e-02 -4.746410995721817017e-03 4.108837246894836426e-02 -4.781519621610641479e-02 -7.919365912675857544e-02 2.291928231716156006e-02 1.553490012884140015e-02 3.010350093245506287e-02 3.715614601969718933e-02 -5.369413271546363831e-02 -1.157316565513610840e-02 -1.001076325774192810e-01 -2.013587057590484619e-01 7.714704424142837524e-02 3.633217513561248779e-02 7.989510893821716309e-02 3.649412095546722412e-02 -1.402684599161148071e-01 4.707376286387443542e-02 7.616296410560607910e-02 -6.966471672058105469e-02 -7.637164741754531860e-02 8.244819194078445435e-02 -2.008766494691371918e-02 -1.328236907720565796e-01 -7.652573287487030029e-02 -1.462281346321105957e-01 -6.888915598392486572e-02 1.867402903735637665e-02 9.578478522598743439e-03 -1.486638002097606659e-02 -1.279215365648269653e-01 1.593550294637680054e-01 -6.134773418307304382e-02 4.715504124760627747e-02 -1.263825129717588425e-02 -6.185071915388107300e-02 -8.863092213869094849e-02 -7.979607582092285156e-02 2.193784154951572418e-02 6.347973644733428955e-02 -1.004104316234588623e-01 -2.691175416111946106e-02 5.100615322589874268e-02 8.194654248654842377e-03 -2.518909610807895660e-02
1.285579949617385864e-01 7.024690508842468262e-02 7.093916088342666626e-02 -6.020485237240791321e-02 5.225772038102149963e-02 2.295658458024263382e-03 -5.852173641324043274e-02 1.028054505586624146e-01 -3.602594882249832153e-02 -1.008777543902397156e-01 -3.981202095746994019e-02 1.297328770160675049e-01 8.823925256729125977e-02 2.062339782714843750e-01 -5.199223384261131287e-02 4.041580110788345337e-02 -7.169275730848312378e-02 -2.541212551295757294e-02 1.026215255260467529e-01 5.660557001829147339e-02 -6.836285442113876343e-02 6.184294074773788452e-02 9.952629916369915009e-03 4.642581567168235779e-02 -2.207028307020664215e-02 6.464240700006484985e-02 1.204332634806632996e-01 -9.157753735780715942e-02 6.881053745746612549e-02 -1.319069862365722656e-01 1.179847121238708496e-01 9.817366302013397217e-02 1.206986233592033386e-02 4.724259488284587860e-03 3.943482041358947754e-02 -1.386885195970535278e-01 -4.467683658003807068e-02 1.539444029331207275e-01 -1.887554675340652466e-02 -2.885843217372894287e-01 1.530536115169525146e-01 -1.264510750770568848e-01 -5.411668866872787476e-02 -9.231472015380859375e-02 -1.185197103768587112e-02 4.312863573431968689e-02 1.800252683460712433e-02 -1.868316382169723511e-01 -2.006033807992935181e-02 -1.809459477663040161e-01 -1.159568428993225098e-01 1.851810514926910400e-01 -2.583491429686546326e-02 -3.595101535320281982e-01 1.124566867947578430e-01 -3.404134511947631836e-01 -9.164996445178985596e-02 8.421771973371505737e-02 -2.437333017587661743e-02 -3.047803230583667755e-02 5.390139669179916382e-02 -6.407256424427032471e-02 -8.031518757343292236e-02
-2.250696346163749695e-02 2.175696045160293579e-01 -4.413818567991256714e-02 1.333966106176376343e-01 -3.515365347266197205e-02 -1.144786626100540161e-01 1.968133151531219482e-01 -3.350228667259216309e-01 1.309041050262749195e-03 1.171857193112373352e-01 3.818537516053766012e-04 -2.643611729145050049e-01 7.069031707942485809e-03 -3.741773962974548340e-01 1.456570439040660858e-02 -3.095426224172115326e-02 4.194259271025657654e-02 3.305724263191223145e-02 1.243169382214546204e-01 3.805208206176757812e-02 2.059201300144195557e-01 -1.022318750619888306e-01 1.511879544705152512e-02 6.804707460105419159e-03 -1.774061657488346100e-02 -1.681050509214401245e-01 2.652996219694614410e-03 -1.064575538039207458e-01 5.591750890016555786e-02 -1.090155392885208130e-01 1.294322684407234192e-02 -6.954277399927377701e-03 4.514644294977188110e-02 8.129928261041641235e-02 2.399303913116455078e-01 9.323232620954513550e-02 -5.836096778512001038e-02 -9.934778511524200439e-02 1.369110308587551117e-02 9.581457078456878662e-02 -1.777411699295043945e-01 1.063829511404037476e-01 2.054414525628089905e-02 -1.149548515677452087e-01 8.379212021827697754e-02 -9.424843639135360718e-02 3.102993126958608627e-03 -6.029617041349411011e-02 1.961919069290161133e-01 4.370729625225067139e-01 -7.175958901643753052e-02 -1.874779351055622101e-02 -1.207605600357055664e-01 2.325596064329147339e-01 -9.931506961584091187e-02 3.866870403289794922e-01 2.016493305563926697e-02 -8.426439762115478516e-02 3.244599327445030212e-02 -1.693896949291229248e-01 5.200748145580291748e-02 2.933203242719173431e-02 3.224400058388710022e-02
-1.165205892175436020e-02 -2.350929751992225647e-02 -7.558281719684600830e-02 4.470374807715415955e-02 1.288787871599197388e-01 -7.200315594673156738e-02 8.506783097982406616e-02 -9.294749051332473755e-02 -1.594985723495483398e-01 -7.887271046638488770e-02 2.975784055888652802e-02 1.576311141252517700e-01 2.922428399324417114e-02 1.503138989210128784e-01 2.861478179693222046e-02 8.700133860111236572e-02 -5.781244486570358276e-02 1.187912188470363617e-02 1.128332037478685379e-02 -6.954164057970046997e-02 2.232894487679004669e-02 1.294577866792678833e-02 4.224200919270515442e-02 3.724540770053863525e-02 4.109996557235717773e-02 5.430660396814346313e-02 7.593355327844619751e-02 1.969676697626709938e-03 8.711966127157211304e-02 -2.530295774340629578e-02 -5.126601085066795349e-03 -1.318810880184173584e-01 -3.692063689231872559e-02 9.754623472690582275e-02 1.622840762138366699e-01 1.062836498022079468e-01 1.219755411148071289e-02 1.028303131461143494e-01 1.523733139038085938e-01 -1.478435546159744263e-01 5.597221106290817261e-02 -1.252964138984680176e-01 -1.205459982156753540e-01 -3.851981088519096375e-02 6.580595672130584717e-02 -2.089892178773880005e-01 -9.680476784706115723e-02 1.439755260944366455e-01 1.779077388346195221e-02 3.258539736270904541e-01 6.934574246406555176e-02 8.234548568725585938e-02 2.079917937517166138e-01 -2.644397616386413574e-01 3.363766521215438843e-02 -2.037678211927413940e-01 5.916388332843780518e-02 -5.751876533031463623e-02 -5.140154808759689331e-02 3.476858884096145630e-02 -3.673744620755314827e-03 4.373642057180404663e-02 3.487817943096160889e-02
6.512794643640518188e-02 1.017935127019882202e-01 2.948335371911525726e-02 -1.491249799728393555e-01 9.930881857872009277e-02 -6.051930785179138184e-02 1.142622753977775574e-01 1.654016599059104919e-02 6.544347107410430908e-02 1.489761006087064743e-02 1.108844280242919922e-01 -1.986571848392486572e-01 2.412908673286437988e-01 -7.335478812456130981e-02 1.031209900975227356e-01 7.066676020622253418e-02 2.743953466415405273e-02 -1.324999332427978516e-01 -1.059071160852909088e-02 -8.771506696939468384e-02 3.283453732728958130e-02 -4.155196622014045715e-02 -5.476550385355949402e-02 -8.476350456476211548e-02 1.146312057971954346e-01 -6.143654696643352509e-03 2.094101756811141968e-01 -9.537295997142791748e-02 9.909226745367050171e-02 -1.259808391332626343e-01 -1.219960954040288925e-02 1.641021221876144409e-01 -1.743871835060417652e-03 2.823566831648349762e-02 6.516888737678527832e-02 -1.613840274512767792e-02 8.446106314659118652e-02 -8.248733729124069214e-02 9.862638264894485474e-02 1.125608533620834351e-01 1.017634198069572449e-01 1.570140570402145386e-01 -1.199499331414699554e-02 -1.763999760150909424e-01 -4.417420551180839539e-02 2.659338414669036865e-01 -7.062707096338272095e-02 1.329412013292312622e-01 5.672413110733032227e-02 1.262100487947463989e-01 9.455397725105285645e-02 1.025480031967163086e-01 1.232616789638996124e-02 2.865510284900665283e-01 4.490014538168907166e-02 1.643181890249252319e-01 9.227089583873748779e-02 -4.622291773557662964e-03 -2.150682732462882996e-02 -9.511120617389678955e-03 3.099825792014598846e-02 -1.804979518055915833e-02 -1.365425288677215576e-01
-7.786723971366882324e-02 3.044463321566581726e-02 -1.455642282962799072e-01 -1.159296557307243347e-01 9.881879389286041260e-02 1.490183826535940170e-02 8.403761684894561768e-02 -1.204708889126777649e-01 9.220165759325027466e-02 -3.739351779222488403e-02 2.635250240564346313e-02 -9.123610705137252808e-02 -7.209054660052061081e-03 1.212056875228881836e-01 -1.664715409278869629e-01 -5.435821786522865295e-02 -4.223558306694030762e-02 -2.896144986152648926e-02 1.063930764794349670e-01 1.701694168150424957e-02 -3.384897112846374512e-02 5.887350812554359436e-02 8.347401022911071777e-02 2.864971570670604706e-02 2.637555263936519623e-02 -1.268725544214248657e-01 6.273604929447174072e-02 1.304837223142385483e-02 -1.697648912668228149e-01 -1.053813993930816650e-01 -1.835585832595825195e-01 1.617321819067001343e-01 1.169132962822914124e-01 -2.670655772089958191e-02 3.211321681737899780e-02 2.179873585700988770e-01 3.513567149639129639e-02 1.244702842086553574e-02 1.131169050931930542e-01 2.253416925668716431e-01 1.079941317439079285e-01 -1.137340813875198364e-01 -2.134463638067245483e-01 -1.840606480836868286e-01 4.447401687502861023e-02 2.383118420839309692e-01 -3.122778143733739853e-03 -3.005393408238887787e-02 -5.051041021943092346e-02 2.230705320835113525e-01 3.606634959578514099e-02 -1.735210185870528221e-03 -1.208171173930168152e-01 3.512032926082611084e-01 -1.212461218237876892e-01 -2.955935299396514893e-01 -8.346295356750488281e-02 1.606013998389244080e-02 8.347817510366439819e-02 2.560141496360301971e-03 -3.793776407837867737e-02 -4.822661285288631916e-04 -6.880862265825271606e-02
3.991234675049781799e-02 -2.392132580280303955e-02 9.155084937810897827e-02 1.057208478450775146e-01 -8.034551888704299927e-02 -3.787680342793464661e-02 6.233646348118782043e-02 4.142007604241371155e-02 -6.725434213876724243e-02 3.125357255339622498e-02 -9.565650671720504761e-02 1.195402666926383972e-01 -6.257503479719161987e-02 -1.428168863058090210e-01 2.094056606292724609e-01 5.225193500518798828e-02 1.137822419404983521e-01 6.780497729778289795e-02 -1.857426613569259644e-01 1.581963384523987770e-03 -3.379644593223929405e-03 4.258368536829948425e-02 -1.256259977817535400e-01 -3.886935592163354158e-04 -9.551177173852920532e-02 9.100696444511413574e-02 -5.982055887579917908e-02 -3.093959018588066101e-02 1.956591904163360596e-01 9.173732250928878784e-02 1.997715421020984650e-02 -1.905547380447387695e-01 -3.013695403933525085e-02 5.706228315830230713e-02 4.187338799238204956e-02 -1.756637245416641235e-01 6.661774124950170517e-03 -4.893849045038223267e-02 2.384091354906558990e-02 -2.230118215084075928e-01 -6.760469637811183929e-03 1.931693106889724731e-01 2.196179777383804321e-01 2.129109054803848267e-01 1.208040192723274231e-01 -2.534058094024658203e-01 -4.152227938175201416e-02 5.781529471278190613e-03 -1.346054226160049438e-01 -3.100698888301849365e-01 -7.520704716444015503e-02 1.658862642943859100e-02 1.196721419692039490e-01 -3.675556480884552002e-01 8.463309705257415771e-02 2.754848897457122803e-01 8.388888090848922729e-02 -1.713585667312145233e-02 -8.887600898742675781e-02 -2.740779658779501915e-03 3.846402838826179504e-02 3.344569122418761253e-04 6.442944705486297607e-02
1.062733605504035950e-01 -7.846777886152267456e-02 -6.698162108659744263e-02 -7.447816431522369385e-02 -4.814432933926582336e-02 3.437110036611557007e-02 7.016368210315704346e-02 -6.903740018606185913e-02 -2.586848102509975433e-03 -4.897687584161758423e-02 -1.350854486227035522e-01 -1.599899977445602417e-01 5.569618567824363708e-02 -1.194229722023010254e-01 1.012478321790695190e-01 8.880158513784408569e-02 -2.226840555667877197e-01 -8.675862848758697510e-02 -9.114602208137512207e-02 -1.723661273717880249e-02 9.829139709472656250e-02 -8.236002922058105469e-02 -1.750150620937347412e-01 -8.130895346403121948e-02 6.766790896654129028e-02 -4.113813862204551697e-02 1.220640093088150024e-01 -6.201224774122238159e-02 -4.029401391744613647e-02 2.448680810630321503e-02 -2.573548555374145508e-01 1.028093248605728149e-01 -1.172114238142967224e-01 -3.676291927695274353e-02 1.994105428457260132e-01 9.618625789880752563e-02 6.196839734911918640e-02 9.329669177532196045e-02 5.383900180459022522e-02 1.415837109088897705e-01 -1.091726571321487427e-01 1.229771692305803299e-02 6.608626246452331543e-02 -1.254213321954011917e-02 -3.701149672269821167e-02 9.959618002176284790e-02 -4.981937259435653687e-02 1.043728291988372803e-01 8.452577888965606689e-02 5.380506161600351334e-03 1.812483184039592743e-02 7.127381116151809692e-02 -6.164681166410446167e-02 3.200913667678833008e-01 -5.784130096435546875e-02 7.798626273870468140e-02 1.052158698439598083e-01 -3.569684550166130066e-02 -1.226320490241050720e-01 2.297517284750938416e-02 1.596761308610439301e-02 -4.372944235801696777e-01 1.219713315367698669e-01
7.337959855794906616e-02 -1.263979226350784302e-01 -1.091203987598419189e-01 1.002605073153972626e-02 -1.859327107667922974e-01 4.646017774939537048e-02 1.020106151700019836e-01 -1.069733798503875732e-01 1.064725369215011597e-01 -1.690745819360017776e-03 -1.276721507310867310e-01 -1.513081341981887817e-01 -8.996345102787017822e-03 1.217805072665214539e-01 1.274407505989074707e-01 5.554379522800445557e-02 -7.792632281780242920e-02 -1.088972087018191814e-03 -1.123030930757522583e-01 2.914989367127418518e-02 8.213042165152728558e-04 2.305723167955875397e-02 3.363803960382938385e-03 -6.741892546415328979e-03 -3.379055112600326538e-02 -5.217482894659042358e-02 9.637281298637390137e-03 -8.594968914985656738e-02 -6.689607352018356323e-02 1.214658021926879883e-01 -1.627934724092483521e-01 -1.006133407354354858e-01 1.087515149265527725e-02 -1.316227465867996216e-01 -1.106837112456560135e-02 1.378884166479110718e-01 8.146447688341140747e-02 -3.937092795968055725e-02 -1.489241112722083926e-04 2.404567152261734009e-01 -3.578693792223930359e-02 -1.704404503107070923e-01 -6.126813590526580811e-02 2.482647448778152466e-01 -1.642190814018249512e-01 -1.145112887024879456e-01 -2.713058888912200928e-02 -2.503215074539184570e-01 9.006459265947341919e-02 2.385725826025009155e-01 1.191500499844551086e-01 -1.708984933793544769e-02 -5.210945755243301392e-02 3.116138279438018799e-01 1.454406604170799255e-02 -7.331389188766479492e-02 -3.272533044219017029e-02 8.239804301410913467e-04 -2.955746836960315704e-02 1.288368087261915207e-02 -8.333601057529449463e-02 -4.166676476597785950e-02 -4.075707122683525085e-02
9.938992559909820557e-02 7.058743387460708618e-02 8.193664997816085815e-02 -5.224168300628662109e-02 1.495659165084362030e-02 4.619523882865905762e-02 -5.600789934396743774e-02 2.008111029863357544e-01 5.745487287640571594e-02 9.859389066696166992e-02 -1.459725052118301392e-01 -5.618842784315347672e-03 4.534097388386726379e-02 -1.011918950825929642e-02 1.627204567193984985e-02 8.464635163545608521e-02 2.288519963622093201e-02 -4.496563598513603210e-02 5.866534262895584106e-02 3.420458361506462097e-02 -1.297265198081731796e-02 5.294376611709594727e-02 4.409960005432367325e-03 9.308347105979919434e-02 -1.162243261933326721e-01 -4.381040483713150024e-02 -2.750925906002521515e-02 -1.415164489299058914e-02 -1.013675779104232788e-01 -3.936044126749038696e-02 1.135520986281335354e-03 -4.386590793728828430e-02 7.539226859807968140e-02 1.358364708721637726e-02 -8.231839165091514587e-03 -1.339224725961685181e-01 -4.773044958710670471e-02 -5.598136037588119507e-02 3.560161963105201721e-02 5.627301335334777832e-02 -5.471695587038993835e-02 -1.843130961060523987e-02 -1.068148110061883926e-02 -1.444389969110488892e-01 -7.855281978845596313e-02 2.417134046554565430e-01 -1.517900079488754272e-01 -1.296915709972381592e-01 -2.980777993798255920e-02 -2.450869083404541016e-01 -2.991529880091547966e-03 -1.993952095508575439e-01 6.967711448669433594e-02 5.950079113245010376e-02 -3.382842987775802612e-02 1.031721904873847961e-01 9.945810586214065552e-02 2.102864533662796021e-02 2.002084814012050629e-02 -1.089315768331289291e-02 4.783938452601432800e-02 -7.660136092454195023e-03 -6.513911765068769455e-03
-7.453043013811111450e-02 -8.575668185949325562e-02 9.033428877592086792e-02 -2.299059927463531494e-01 -8.201045542955398560e-02 -8.732668310403823853e-02 1.059829443693161011e-01 2.133054733276367188e-01 3.173752874135971069e-02 -9.636834263801574707e-03 -1.513543874025344849e-01 1.170490533113479614e-01 8.631791174411773682e-02 7.248081266880035400e-02 7.070828974246978760e-02 -5.628566816449165344e-02 1.065933257341384888e-01 -9.422579780220985413e-03 6.186150759458541870e-02 -1.508737653493881226e-01 9.748566150665283203e-02 8.074012398719787598e-02 -2.406619489192962646e-02 2.401438541710376740e-02 -2.045960724353790283e-01 -3.898090124130249023e-02 5.911862826906144619e-04 -2.309384942054748535e-02 2.647846750915050507e-02 4.792403057217597961e-02 -6.132754310965538025e-02 8.373581618070602417e-02 3.344365581870079041e-02 1.746421754360198975e-01 1.373358666896820068e-01 -6.964008510112762451e-02 6.818378716707229614e-02 1.181387901306152344e-02 -2.330891788005828857e-02 3.377115353941917419e-02 -2.969524078071117401e-02 -4.451009631156921387e-02 -5.435774475336074829e-02 7.989172637462615967e-02 1.863322854042053223e-01 2.019373625516891479e-01 -5.356186255812644958e-02 1.010625287890434265e-01 6.613295525312423706e-02 -2.249490618705749512e-01 -2.818558923900127411e-02 -5.414238199591636658e-02 -9.619252383708953857e-02 -9.877496957778930664e-02 -8.524504303932189941e-02 -4.460781067609786987e-02 9.345271438360214233e-02 -4.115685075521469116e-02 -1.569621860980987549e-01 5.611747875809669495e-02 -7.155787665396928787e-03 4.265677928924560547e-02 -9.479294531047344208e-03
-1.051361635327339172e-01 -3.092710301280021667e-02 -2.853373438119888306e-02 5.195106565952301025e-02 2.153278328478336334e-02 2.092161923646926880e-01 -3.427905589342117310e-02 -1.077286005020141602e-01 -7.529861479997634888e-02 -7.500099390745162964e-02 -1.534733772277832031e-01 3.671756386756896973e-01 1.494501680135726929e-01 7.754795998334884644e-02 -4.126466065645217896e-02 5.372215062379837036e-02 2.749722637236118317e-02 -3.941893577575683594e-02 -1.395120620727539062e-01 3.873620554804801941e-02 3.089791722595691681e-02 -1.139664202928543091e-01 8.931309729814529419e-02 2.631646580994129181e-03 -1.697934605181217194e-02 1.267100125551223755e-01 1.120544895529747009e-01 -5.657083168625831604e-02 -3.726067719981074333e-03 -8.433544635772705078e-02 -1.137567758560180664e-01 6.146256625652313232e-02 -1.003476232290267944e-01 -6.497924774885177612e-02 4.545495286583900452e-02 -1.871466450393199921e-02 1.431468278169631958e-01 -4.757764190435409546e-02 -1.145067662000656128e-01 -1.774172931909561157e-01 1.368189901113510132e-01 1.046283263713121414e-02 7.158168405294418335e-02 9.001463651657104492e-02 2.933898940682411194e-02 -1.263877600431442261e-01 -1.660697162151336670e-02 -2.313668578863143921e-01 -6.661572307348251343e-02 2.251456677913665771e-01 -8.824089914560317993e-02 1.137379482388496399e-01 -5.999629572033882141e-02 -3.776107430458068848e-01 6.635937094688415527e-02 -4.758810624480247498e-02 6.894438713788986206e-02 1.041514053940773010e-02 5.578899756073951721e-02 -2.614800631999969482e-02 -6.386642903089523315e-02 -7.731263339519500732e-02 -1.344742625951766968e-01
9.349577873945236206e-02 -1.025786399841308594e-01 1.161060035228729248e-01 -2.730878591537475586e-01 -3.640574589371681213e-02 -8.518538437783718109e-03 1.453798115253448486e-01 -2.727750837802886963e-01 8.314638584852218628e-02 -5.474041774868965149e-02 -1.332192569971084595e-01 2.495109438896179199e-01 2.685218118131160736e-02 -3.480148613452911377e-01 -4.750668630003929138e-02 9.900745749473571777e-02 -8.792511373758316040e-02 -1.007079109549522400e-01 7.546177506446838379e-02 -9.010729193687438965e-02 2.560348622500896454e-02 -2.307429164648056030e-02 5.256275180727243423e-03 -4.742069914937019348e-02 -2.677909471094608307e-02 5.564152449369430542e-02 -2.068352419883012772e-03 -1.291720122098922729e-01 8.774556219577789307e-03 -5.985044687986373901e-02 6.240350008010864258e-02 1.267199516296386719e-01 7.023753225803375244e-02 -2.476332150399684906e-02 1.808813810348510742e-01 1.501234620809555054e-01 -2.289297431707382202e-02 5.099344067275524139e-03 -3.772198408842086792e-02 -1.253167837858200073e-01 3.207246959209442139e-02 1.291775554418563843e-01 -1.042295321822166443e-01 2.526064403355121613e-02 -3.247134387493133545e-02 2.456360161304473877e-01 -5.630262568593025208e-02 1.170797869563102722e-01 3.052057884633541107e-02 1.836047619581222534e-01 -8.126342296600341797e-02 9.164164215326309204e-02 -1.526547521352767944e-01 -1.919953227043151855e-01 9.876278042793273926e-02 3.906798660755157471e-01 1.076290756464004517e-01 5.045137181878089905e-02 5.581608414649963379e-02 -7.501804828643798828e-02 5.321553349494934082e-02 -1.444220449775457382e-02 -2.318705804646015167e-02
-3.972341120243072510e-02 5.879674851894378662e-02 3.857897222042083740e-02 -1.450623422861099243e-01 -5.423009395599365234e-02 -1.038038209080696106e-01 1.178291067481040955e-01 1.577159017324447632e-01 1.467783302068710327e-01 5.813788995146751404e-02 -7.513792067766189575e-02 -1.381416767835617065e-01 8.393493294715881348e-02 2.585221081972122192e-02 7.016690820455551147e-02 1.505805402994155884e-01 -4.213998839259147644e-02 -9.061694890260696411e-02 2.208722755312919617e-02 -3.397696465253829956e-02 1.773838102817535400e-01 -3.203333169221878052e-02 -5.980626121163368225e-02 1.731689423322677612e-01 -1.092628315091133118e-01 6.295783817768096924e-02 4.411729425191879272e-02 4.641564935445785522e-02 -4.967324435710906982e-02 -6.034482643008232117e-02 1.397497653961181641e-01 1.380376964807510376e-01 -1.293740794062614441e-02 8.778219670057296753e-02 2.270426368340849876e-03 1.035687476396560669e-01 -8.960533142089843750e-02 -9.126200526952743530e-02 -9.831006079912185669e-02 -4.155723750591278076e-02 -9.369289129972457886e-02 2.008727751672267914e-02 4.232275113463401794e-02 -1.690637469291687012e-01 -5.913511384278535843e-03 7.189229875802993774e-02 6.644368916749954224e-02 4.640856385231018066e-02 9.884519875049591064e-02 -1.706724911928176880e-01 -4.680402949452400208e-02 -1.449116021394729614e-01 -5.687990784645080566e-02 1.384664475917816162e-01 1.483160853385925293e-01 -4.495352134108543396e-02 7.924774289131164551e-02 3.035526536405086517e-02 2.527561970055103302e-02 -8.534396439790725708e-02 -1.677419990301132202e-02 -1.338934712111949921e-02 -1.341603696346282959e-02
-5.481468513607978821e-02 7.145923376083374023e-02 2.143397629261016846e-01 3.351597487926483154e-01 2.049911767244338989e-02 -2.200813591480255127e-01 2.252069413661956787e-01 3.344228491187095642e-02 4.850187897682189941e-02 1.511128097772598267e-01 -4.883574321866035461e-02 6.336863636970520020e-01 1.115281581878662109e-01 1.413457095623016357e-02 -1.292183846235275269e-01 2.137848362326622009e-02 3.902981057763099670e-02 8.769094944000244141e-03 -8.563993126153945923e-02 -7.242964208126068115e-02 3.479325771331787109e-01 4.173657298088073730e-02 3.667108342051506042e-02 6.808129698038101196e-02 -1.257442831993103027e-01 2.186461240053176880e-01 1.828682422637939453e-01 2.866918453946709633e-03 4.153582453727722168e-02 4.613287374377250671e-02 4.871754720807075500e-02 -3.990046307444572449e-02 -5.175166577100753784e-02 6.229146197438240051e-02 1.864565014839172363e-01 -2.279117144644260406e-02 -8.174303174018859863e-02 5.490541458129882812e-03 -1.298540532588958740e-01 -3.243011236190795898e-01 1.204025894403457642e-01 1.515765208750963211e-02 1.668311282992362976e-02 -1.896529793739318848e-01 1.494279038161039352e-02 -2.414911836385726929e-01 1.251474022865295410e-01 2.505204975605010986e-01 1.349326074123382568e-01 3.083230368793010712e-02 5.676175653934478760e-02 -1.724507361650466919e-01 -1.284025162458419800e-01 -6.201230883598327637e-01 1.900151818990707397e-01 9.741866588592529297e-02 -2.843398228287696838e-02 7.945229858160018921e-02 -4.920935630798339844e-02 -1.013894453644752502e-01 3.839475568383932114e-03 3.098360262811183929e-02 -4.364057257771492004e-02
-1.225138902664184570e-01 -5.119489133358001709e-02 -1.726365536451339722e-01 3.690195456147193909e-02 -9.070130437612533569e-02 1.071245893836021423e-01 1.244261860847473145e-01 -2.653094753623008728e-02 -4.367066919803619385e-02 -1.123706251382827759e-01 1.866986751556396484e-01 1.335663348436355591e-01 -8.720204979181289673e-02 -7.143189013004302979e-02 -2.949621714651584625e-02 -2.994216606020927429e-02 -4.723826423287391663e-02 1.166477054357528687e-02 -1.017917245626449585e-01 1.301703043282032013e-02 -7.536981254816055298e-02 -2.532662823796272278e-02 1.216233298182487488e-01 2.874898910522460938e-02 1.798443794250488281e-01 -4.704347252845764160e-02 -8.522529900074005127e-02 3.618991747498512268e-02 -6.468857079744338989e-02 8.935412019491195679e-02 -1.298176944255828857e-01 -4.463620483875274658e-02 -3.977753967046737671e-02 -2.005127072334289551e-01 3.750646486878395081e-02 -3.297337796539068222e-03 -4.106564447283744812e-02 1.365972459316253662e-01 1.167267039418220520e-01 -8.667428046464920044e-02 -1.603439152240753174e-01 -1.694819889962673187e-02 -1.265164166688919067e-01 1.772905737161636353e-01 -1.116590946912765503e-01 -2.682266943156719208e-02 -1.252814941108226776e-02 -2.678288221359252930e-01 4.422791302204132080e-02 2.646479196846485138e-02 -6.945063173770904541e-02 1.987900584936141968e-01 3.819267079234123230e-02 -2.024110108613967896e-01 -5.239782622084021568e-04 5.332973971962928772e-02 4.629182070493698120e-02 1.229806337505578995e-03 3.032333962619304657e-02 -3.528479859232902527e-02 7.854895293712615967e-02 -2.785438112914562225e-02 -1.126014348119497299e-02
-7.304103579372167587e-03 7.838585227727890015e-02 -4.351691156625747681e-02 3.705336246639490128e-03 9.710785746574401855e-02 1.258305013179779053e-01 -6.048511713743209839e-02 1.145316958427429199e-01 3.342624753713607788e-02 1.359125822782516479e-01 -5.449654161930084229e-02 7.937928289175033569e-02 1.397656928747892380e-02 1.241452768445014954e-01 -8.810085244476795197e-03 -6.368071585893630981e-02 5.168889835476875305e-02 -2.761108800768852234e-02 -1.072980165481567383e-01 3.238567616790533066e-03 3.415658324956893921e-02 -1.854900829493999481e-02 9.119267761707305908e-02 -2.966302074491977692e-02 -2.711810730397701263e-02 1.831707358360290527e-02 -3.082548826932907104e-02 -1.573915220797061920e-02 5.137483030557632446e-02 -8.395349979400634766e-02 5.413386598229408264e-02 6.328951101750135422e-03 6.875492632389068604e-02 -1.938330382108688354e-01 1.506168246269226074e-01 -1.055816560983657837e-01 -1.658121868968009949e-02 -2.087243497371673584e-01 2.318743057548999786e-02 -1.197069212794303894e-01 3.118131496012210846e-02 -1.645976603031158447e-01 -9.125480800867080688e-02 -1.431819051504135132e-01 -9.745050966739654541e-02 4.334593936800956726e-02 -1.449584681540727615e-02 -1.812110394239425659e-01 8.003108203411102295e-02 -1.903007328510284424e-01 4.239596799015998840e-02 -1.008579656481742859e-01 -1.106923669576644897e-01 -9.139403700828552246e-02 6.428271066397428513e-03 -2.538824677467346191e-01 -9.330295026302337646e-02 5.594285205006599426e-03 2.143541350960731506e-02 -1.239752955734729767e-02 -7.824874669313430786e-02 -1.529603498056530952e-03 -8.746417611837387085e-02
-7.888059318065643311e-02 5.527895316481590271e-02 -7.491881400346755981e-02 -1.784620732069015503e-01 1.386662125587463379e-01 -4.446259886026382446e-02 -8.472051471471786499e-03 1.554431617259979248e-01 -3.625274077057838440e-02 -4.449325427412986755e-02 -2.341549098491668701e-01 -2.128242552280426025e-01 1.584358066320419312e-01 9.162797033786773682e-02 7.135807722806930542e-02 -9.680175222456455231e-03 -8.324778079986572266e-02 -1.278164237737655640e-02 -5.400183796882629395e-02 7.118707895278930664e-02 -1.171628683805465698e-01 6.542816758155822754e-02 -3.555164486169815063e-02 -5.681395158171653748e-02 -1.120787411928176880e-01 -3.864441066980361938e-02 7.376091182231903076e-02 -2.143500745296478271e-02 -3.352967556565999985e-03 -3.259286656975746155e-02 1.607256243005394936e-03 6.970456987619400024e-02 -4.550039768218994141e-02 1.084347814321517944e-02 -2.561353705823421478e-02 -4.856349155306816101e-02 -7.030545733869075775e-03 2.583359926939010620e-02 -3.101333975791931152e-01 2.405265420675277710e-01 2.378155440092086792e-01 -2.912145853042602539e-02 -2.330422215163707733e-02 -4.499965533614158630e-02 -6.344544142484664917e-02 5.412225425243377686e-02 -8.651230484247207642e-02 -3.484935313463211060e-02 -2.509201690554618835e-02 -8.234047144651412964e-02 -2.736308611929416656e-02 1.511718630790710449e-01 -1.198716461658477783e-01 1.729189455509185791e-01 3.164137154817581177e-02 4.786516074091196060e-03 7.883369177579879761e-02 3.391823545098304749e-02 -3.456148877739906311e-02 9.523809701204299927e-02 -2.387188822031021118e-01 1.502532325685024261e-02 -2.757032811641693115e-01
-2.587630227208137512e-02 6.578337401151657104e-02 3.058964014053344727e-01 -7.725564297288656235e-03 2.764052338898181915e-02 5.102007091045379639e-02 1.941318809986114502e-01 -5.868920311331748962e-02 -2.158717438578605652e-02 -1.263458877801895142e-01 -1.145005822181701660e-01 6.853664517402648926e-01 7.874019443988800049e-02 3.544829785823822021e-01 6.622247397899627686e-02 8.177194744348526001e-02 3.236282169818878174e-01 -1.522336602210998535e-01 -1.043906360864639282e-01 7.150635868310928345e-02 2.181691378355026245e-01 1.585539579391479492e-01 -1.099524721503257751e-01 -1.294920872896909714e-02 9.019568562507629395e-03 1.057265698909759521e-01 1.756874471902847290e-01 2.449988722801208496e-01 -6.575480103492736816e-02 1.569565758109092712e-02 2.562984824180603027e-01 -5.444304645061492920e-02 2.393161412328481674e-03 -5.879840254783630371e-02 2.155842334032058716e-01 6.553929299116134644e-02 1.399491578340530396e-01 2.728212438523769379e-02 -1.042412295937538147e-01 -3.152032196521759033e-01 3.789447993040084839e-02 -1.470160186290740967e-01 1.973386108875274658e-02 -1.177633628249168396e-01 2.483708560466766357e-01 7.800652831792831421e-02 -4.905204474925994873e-02 -9.861551970243453979e-02 1.240292116999626160e-01 3.689607605338096619e-02 -1.033045817166566849e-02 9.130842983722686768e-02 -4.780630394816398621e-02 -6.422219872474670410e-01 6.846565008163452148e-02 -4.652417898178100586e-01 6.038758531212806702e-02 -1.702803187072277069e-02 -1.023224666714668274e-01 -5.683606117963790894e-02 -1.255515515804290771e-01 5.600646883249282837e-02 -9.983038902282714844e-02
-1.149929165840148926e-01 -4.657038301229476929e-02 1.766568794846534729e-02 5.220746248960494995e-02 1.787827312946319580e-01 -8.198788389563560486e-03 2.726035565137863159e-02 6.420263648033142090e-02 -2.055442780256271362e-01 9.522204846143722534e-02 -7.930514961481094360e-02 1.095459517091512680e-02 -8.681736886501312256e-02 -1.731414645910263062e-01 -2.807530947029590607e-02 9.285602718591690063e-02 1.633038185536861420e-02 3.663260489702224731e-02 3.796605393290519714e-02 -3.261656314134597778e-02 3.376531973481178284e-02 4.517141357064247131e-02 -7.910052686929702759e-02 -1.752312295138835907e-02 1.011606752872467041e-01 -1.093144938349723816e-01 -1.603584587574005127e-01 2.394843846559524536e-02 6.053396686911582947e-02 -1.549122110009193420e-02 -2.015784233808517456e-01 -7.088545709848403931e-02 3.228535503149032593e-02 9.890438616275787354e-02 8.644281327724456787e-02 6.336053367704153061e-03 -1.357006579637527466e-01 -5.079001560807228088e-02 3.322912380099296570e-03 1.015536040067672729e-01 -1.584931910037994385e-01 9.199290722608566284e-02 -8.411331474781036377e-02 -2.544552460312843323e-02 -8.476828038692474365e-02 -1.545887291431427002e-01 6.928040087223052979e-02 9.590858221054077148e-02 -4.780777543783187866e-02 -5.385231226682662964e-02 -2.561756670475006104e-01 -9.408431500196456909e-02 -1.810167916119098663e-02 1.729229092597961426e-01 -2.266422063112258911e-01 2.936246395111083984e-01 -2.727615274488925934e-02 6.326752156019210815e-02 5.423456430435180664e-02 -5.772966518998146057e-02 4.276742413640022278e-02 -6.526755541563034058e-02 6.344486773014068604e-02
1.294731348752975464e-01 -2.972054108977317810e-02 -1.510631144046783447e-01 -1.040233150124549866e-01 1.196047738194465637e-01 -8.394765108823776245e-02 -9.052143245935440063e-02 1.453228443861007690e-01 1.281957626342773438e-01 -2.165199816226959229e-01 6.720003485679626465e-02 2.819187939167022705e-01 -1.549013406038284302e-01 8.627571910619735718e-02 -6.389205902814865112e-02 -1.036531943827867508e-02 -8.114787936210632324e-02 -8.188533782958984375e-02 1.104938909411430359e-01 -3.764258697628974915e-02 3.701173886656761169e-02 9.091811627149581909e-02 -2.652235887944698334e-02 -2.950988709926605225e-02 1.486774720251560211e-02 1.411462873220443726e-01 -6.643014401197433472e-02 -5.688713490962982178e-02 -6.725765764713287354e-02 1.398956682533025742e-02 -9.744559973478317261e-02 5.939044803380966187e-02 -1.179407164454460144e-01 4.186296090483665466e-02 -1.597326397895812988e-01 -1.448990851640701294e-01 5.058861337602138519e-03 1.035404428839683533e-01 1.121074631810188293e-01 -1.512649655342102051e-01 -3.966631367802619934e-02 -5.070266500115394592e-02 3.150365874171257019e-02 2.396541275084018707e-02 -3.789891302585601807e-02 2.073614895343780518e-01 -9.174125641584396362e-02 1.037800461053848267e-01 -8.863317966461181641e-02 -9.909801185131072998e-02 -8.802630752325057983e-02 1.724652200937271118e-01 6.278150528669357300e-02 -3.328548669815063477e-01 -6.434593349695205688e-02 -2.801032550632953644e-02 5.022419989109039307e-02 -2.219744920730590820e-01 -2.067667618393898010e-02 2.688574790954589844e-02 -1.215149089694023132e-01 5.455794930458068848e-02 1.764680445194244385e-02
5.097649246454238892e-02 6.922473013401031494e-02 -3.094799350947141647e-03 -1.256859749555587769e-01 -8.910541981458663940e-02 6.336192041635513306e-02 -9.769946336746215820e-02 -1.063815653324127197e-01 1.132956668734550476e-01 7.391057908535003662e-02 -9.620217978954315186e-02 1.084311604499816895e-01 -1.353304684162139893e-01 -9.759456664323806763e-02 7.168277353048324585e-02 2.342458814382553101e-02 -1.072916164994239807e-01 6.263384968042373657e-02 9.090749919414520264e-02 4.183407500386238098e-02 4.895956069231033325e-02 -4.422355443239212036e-02 -2.764037810266017914e-03 -4.155598580837249756e-02 1.199039071798324585e-01 1.392640322446823120e-01 3.844866761937737465e-03 -7.479322701692581177e-02 -6.392595916986465454e-02 -3.022904135286808014e-02 1.095775049179792404e-02 1.648061573505401611e-01 1.385712530463933945e-03 -1.499246954917907715e-01 -2.211001329123973846e-02 7.747881114482879639e-02 -9.323190897703170776e-02 -3.593368455767631531e-02 -4.816414043307304382e-02 -1.416075378656387329e-01 -4.499114677309989929e-02 -3.543207794427871704e-02 9.792821854352951050e-02 -2.504974007606506348e-01 -1.681901514530181885e-01 2.592780292034149170e-01 -7.021956145763397217e-02 2.706280909478664398e-02 -8.019590377807617188e-02 2.267294079065322876e-01 3.880539909005165100e-02 -7.414350658655166626e-02 -3.015126846730709076e-02 -4.018925428390502930e-01 -1.161001697182655334e-01 1.693175882101058960e-01 4.678902216255664825e-03 1.357031520456075668e-02 -5.432192236185073853e-02 -3.871003165841102600e-02 -5.408269539475440979e-02 -9.961555711925029755e-03 2.077890560030937195e-02
-1.600777357816696167e-01 -4.917742684483528137e-02 1.436256766319274902e-01 -7.953018695116043091e-02 -2.700936421751976013e-02 -3.121432662010192871e-02 1.357105970382690430e-01 -1.941771013662219048e-03 1.230279207229614258e-01 -3.972380608320236206e-02 1.121414452791213989e-01 9.974502772092819214e-02 -6.609196215867996216e-02 -7.323320209980010986e-02 6.023837998509407043e-02 -2.387231215834617615e-02 7.419482618570327759e-02 -1.017589122056961060e-02 -1.817605644464492798e-02 5.023784562945365906e-02 9.835558384656906128e-02 -4.638615995645523071e-02 4.836318269371986389e-02 -1.008248776197433472e-01 1.616292446851730347e-01 1.028188243508338928e-01 1.115299910306930542e-01 7.682249695062637329e-02 -1.074465364217758179e-01 9.719678759574890137e-02 7.641457766294479370e-02 1.785420626401901245e-01 -3.663574159145355225e-02 1.585295349359512329e-01 1.851513423025608063e-02 5.181054025888442993e-02 -2.388042770326137543e-02 2.106285989284515381e-01 1.330984085798263550e-01 -2.422231137752532959e-01 6.247450038790702820e-02 3.093680739402770996e-02 -8.427336066961288452e-02 1.588023304939270020e-01 1.882029175758361816e-01 1.709888875484466553e-01 -1.324992626905441284e-01 9.056875109672546387e-02 1.595074236392974854e-01 1.424442678689956665e-01 -3.563851350918412209e-03 1.278469562530517578e-01 1.021279096603393555e-01 -2.321683168411254883e-01 3.242065757513046265e-02 9.632647037506103516e-03 2.299590967595577240e-02 8.857493847608566284e-02 7.021529227495193481e-02 -1.027027983218431473e-02 1.783034950494766235e-02 -3.549271821975708008e-02 3.280632570385932922e-02
1.913495361804962158e-02 -6.537780910730361938e-02 4.359219223260879517e-02 -6.926956027746200562e-02 -4.072138108313083649e-03 -1.248760595917701721e-01 1.063899844884872437e-01 3.751937299966812134e-02 -5.395376309752464294e-02 -5.350477993488311768e-02 -1.791617870330810547e-01 2.041734009981155396e-01 1.348462104797363281e-01 -4.311538115143775940e-02 7.968792319297790527e-02 -1.913422793149948120e-01 -1.344336755573749542e-02 -7.714162766933441162e-02 -8.554348349571228027e-02 -5.433477088809013367e-02 1.832683756947517395e-02 -4.665774852037429810e-02 6.462359428405761719e-02 -1.167152728885412216e-02 -1.348214000463485718e-01 7.343725860118865967e-02 6.763397902250289917e-02 -1.725171320140361786e-02 -2.644477225840091705e-02 1.513965427875518799e-01 1.461199373006820679e-01 3.455007821321487427e-02 -5.553567409515380859e-02 6.326601654291152954e-02 1.547722220420837402e-01 -7.113861851394176483e-03 3.067748062312602997e-02 8.816730976104736328e-02 -2.866315655410289764e-03 -1.867722161114215851e-02 -2.026287466287612915e-02 -5.701982602477073669e-02 -3.503113612532615662e-02 1.197243034839630127e-01 4.125753417611122131e-02 9.997015446424484253e-02 8.094474673271179199e-02 1.219538971781730652e-01 2.002906352281570435e-01 4.213803261518478394e-02 1.044282987713813782e-01 -2.442147023975849152e-02 -5.211296305060386658e-02 -2.416995018720626831e-01 4.536809399724006653e-02 3.737718984484672546e-02 -8.818291127681732178e-02 4.687902331352233887e-02 4.132566973567008972e-03 -7.424998283386230469e-02 7.171241939067840576e-02 1.886077411472797394e-02 1.008829176425933838e-01
-3.365360200405120850e-02 3.221062198281288147e-02 -3.064831160008907318e-02 1.223569810390472412e-01 -3.435108438134193420e-02 4.191089421510696411e-02 -9.945711493492126465e-02 3.046066164970397949e-01 -1.313241198658943176e-02 -1.143562570214271545e-01 5.460553243756294250e-02 -3.518535196781158447e-01 1.062242016196250916e-01 2.520040571689605713e-01 1.824682392179965973e-02 -7.993090897798538208e-02 -3.606534749269485474e-02 -2.541777677834033966e-02 4.094850271940231323e-02 1.699195355176925659e-01 1.200370639562606812e-01 2.095727622509002686e-01 4.633211717009544373e-02 -1.059326715767383575e-02 4.723080247640609741e-02 -2.067517787218093872e-01 1.323711313307285309e-02 -5.294752120971679688e-02 8.886806666851043701e-02 2.888868376612663269e-02 -1.415132358670234680e-02 8.882623165845870972e-02 -5.583252012729644775e-02 -2.423010021448135376e-02 -9.785396605730056763e-02 -1.843688189983367920e-01 -7.711835205554962158e-02 5.353564396500587463e-02 -5.799920111894607544e-02 2.252527624368667603e-01 -4.952648654580116272e-02 2.123931050300598145e-02 -6.621082127094268799e-02 2.676003612577915192e-02 -1.431002747267484665e-02 -1.693861484527587891e-01 3.976966068148612976e-02 -1.957323402166366577e-01 1.131469570100307465e-02 -3.530029356479644775e-01 4.537919536232948303e-02 6.916484981775283813e-02 1.158250495791435242e-02 3.324167430400848389e-01 -1.162742152810096741e-01 -2.440100163221359253e-01 -1.904480904340744019e-02 -6.323180347681045532e-02 2.224199101328849792e-02 3.407886251807212830e-02 1.044559758156538010e-02 -1.118628773838281631e-02 5.016104131937026978e-02
-2.924717776477336884e-02 -7.313308119773864746e-02 1.281669735908508301e-01 6.471118330955505371e-02 2.384936064481735229e-02 2.335520088672637939e-02 1.598163545131683350e-01 -5.527593940496444702e-02 1.525830011814832687e-02 -1.959461122751235962e-01 -1.161535307765007019e-01 -2.535221278667449951e-01 6.664953380823135376e-02 4.403515756130218506e-01 -9.258074313402175903e-02 -6.465296447277069092e-02 2.364745363593101501e-02 3.293118253350257874e-02 -5.109797790646553040e-02 -1.268008649349212646e-01 -4.449405893683433533e-02 -2.067955397069454193e-02 3.052594698965549469e-02 -5.536274611949920654e-02 -6.973241921514272690e-03 -1.261879801750183105e-01 8.915743976831436157e-02 1.068596765398979187e-01 -1.540939658880233765e-01 4.550047963857650757e-02 1.307114064693450928e-01 -1.364300251007080078e-01 1.964625157415866852e-02 4.189249500632286072e-02 5.921240523457527161e-02 2.563990838825702667e-02 1.528830677270889282e-01 1.194275468587875366e-01 -5.285762622952461243e-02 1.216618344187736511e-01 2.052045613527297974e-01 -1.591729521751403809e-01 -6.116733327507972717e-02 1.148218885064125061e-01 9.071701020002365112e-02 -2.982421591877937317e-02 6.955350190401077271e-02 1.340223401784896851e-01 1.749375835061073303e-02 -1.660943590104579926e-02 1.644907593727111816e-01 1.155280545353889465e-01 -4.283993691205978394e-02 2.895578145980834961e-01 1.532880067825317383e-01 -3.853048384189605713e-01 2.109280601143836975e-02 -1.375887915492057800e-02 7.167097926139831543e-02 1.812682673335075378e-02 -2.120081484317779541e-01 6.488431990146636963e-02 -1.838034950196743011e-02
-7.255308330059051514e-02 -8.041694015264511108e-02 5.278562381863594055e-02 1.307654380798339844e-01 -4.722846671938896179e-02 -4.487644881010055542e-02 -6.496640294790267944e-02 1.412545144557952881e-01 -4.823717474937438965e-02 -4.017414897680282593e-02 -1.047044340521097183e-02 -1.333499252796173096e-01 3.938525170087814331e-02 1.477596759796142578e-01 -2.994675189256668091e-02 -6.753497291356325150e-03 -3.639562288299202919e-03 -7.032746076583862305e-02 8.221134543418884277e-02 -6.801745295524597168e-02 1.676560752093791962e-02 2.238297834992408752e-02 -6.321730464696884155e-02 2.103378809988498688e-02 1.416323035955429077e-01 -1.323318481445312500e-01 9.825057536363601685e-02 5.887549370527267456e-03 -7.938525825738906860e-02 3.760080412030220032e-02 3.581945598125457764e-02 -1.643116027116775513e-01 3.224456682801246643e-03 1.583704501390457153e-01 9.350437670946121216e-02 -1.304547339677810669e-01 -5.107245873659849167e-03 -1.858039014041423798e-02 -4.107444733381271362e-02 1.978325843811035156e-01 6.920788437128067017e-02 3.258078545331954956e-02 2.631297521293163300e-02 2.333767563104629517e-01 1.806401461362838745e-01 -2.552869915962219238e-01 2.853786572813987732e-02 -2.795532718300819397e-02 1.045954599976539612e-01 -1.864891797304153442e-01 6.075581163167953491e-02 1.126085668802261353e-01 -3.601233288645744324e-02 3.616324663162231445e-01 8.388037979602813721e-02 -1.529784649610519409e-01 7.944210432469844818e-03 -1.380659826099872589e-02 5.401588976383209229e-02 3.827520832419395447e-02 6.179794669151306152e-02 9.373205713927745819e-03 -9.374989196658134460e-03
-6.970503181219100952e-02 1.311434209346771240e-01 5.790867656469345093e-02 7.787656784057617188e-02 -9.415005892515182495e-02 5.798336118459701538e-02 1.410823762416839600e-01 -2.116983234882354736e-01 -4.867897927761077881e-02 -2.124664187431335449e-02 9.390076249837875366e-02 -1.140520572662353516e-01 3.403633832931518555e-02 -5.110168457031250000e-02 1.079128030687570572e-02 2.169728465378284454e-02 -3.124772571027278900e-02 1.803219765424728394e-01 2.457579970359802246e-02 2.849646471440792084e-02 8.769756555557250977e-02 4.338633641600608826e-02 3.231034800410270691e-02 5.554414168000221252e-02 3.526205196976661682e-02 1.256334222853183746e-02 -9.052591770887374878e-02 -1.681652478873729706e-02 -6.715607643127441406e-02 -1.277221441268920898e-01 -7.832707464694976807e-02 -4.358705133199691772e-02 1.094894111156463623e-01 -7.297416776418685913e-02 7.483480125665664673e-02 8.985335443867370486e-05 -8.400896191596984863e-02 -8.922062069177627563e-02 1.045205891132354736e-01 -4.533534403890371323e-03 7.771552354097366333e-02 1.482725292444229126e-01 5.029497295618057251e-02 -1.157147157937288284e-02 -8.388657122850418091e-03 -2.629555165767669678e-01 6.702637672424316406e-02 -7.985892891883850098e-02 -2.651507034897804260e-03 2.293537408113479614e-01 6.323921680450439453e-02 1.771440729498863220e-02 1.306475549936294556e-01 1.119698584079742432e-02 1.376592516899108887e-01 -7.219046354293823242e-03 -9.385398775339126587e-02 2.875982038676738739e-02 3.642000630497932434e-02 2.686040475964546204e-02 7.162846624851226807e-02 1.432600021362304688e-01 -9.111813455820083618e-02
4.399685561656951904e-02 -1.992832869291305542e-02 1.725265979766845703e-01 9.945470094680786133e-02 -6.545378267765045166e-02 5.984739586710929871e-02 -1.361031234264373779e-01 -7.044965028762817383e-02 -6.553473323583602905e-02 -1.214936077594757080e-01 5.320364981889724731e-02 3.862389922142028809e-02 9.066665917634963989e-02 -8.185880631208419800e-02 4.852445330470800400e-03 1.721546612679958344e-02 8.093251287937164307e-02 6.529287248849868774e-02 1.203988045454025269e-01 1.009856760501861572e-01 -2.591036073863506317e-02 -7.485417276620864868e-02 8.142700791358947754e-02 -1.415606774389743805e-02 -5.191339552402496338e-02 1.071627289056777954e-01 9.752073138952255249e-02 -8.091205358505249023e-02 4.379259049892425537e-02 -2.286418341100215912e-02 1.957778781652450562e-01 -1.744990199804306030e-01 -7.952355593442916870e-02 -1.948456913232803345e-01 -4.910155385732650757e-02 2.504715025424957275e-01 4.784040153026580811e-02 1.307154297828674316e-01 1.277752667665481567e-01 5.496128275990486145e-02 6.515634804964065552e-02 1.459093242883682251e-01 5.736363679170608521e-02 -1.134687811136245728e-01 6.716956198215484619e-02 -2.488762885332107544e-01 1.073656678199768066e-01 -1.443230360746383667e-01 -5.485254898667335510e-02 2.049825489521026611e-01 -6.683267652988433838e-03 7.444547116756439209e-02 1.086199432611465454e-01 -6.589639186859130859e-02 1.302842944860458374e-01 2.880702316761016846e-01 -1.029440164566040039e-01 -3.490715101361274719e-02 1.326949000358581543e-01 -4.096604511141777039e-02 -4.930907115340232849e-02 -3.448676317930221558e-02 5.277977883815765381e-02
-9.530358761548995972e-02 6.078121438622474670e-02 3.952372446656227112e-02 -1.925280243158340454e-01 6.127399951219558716e-02 -2.459226399660110474e-01 5.877171084284782410e-02 -2.007048726081848145e-01 -1.891969889402389526e-02 -1.017968729138374329e-01 -9.342365711927413940e-02 -1.015656739473342896e-01 3.375522047281265259e-02 6.316972523927688599e-02 -2.183219417929649353e-02 1.782259531319141388e-02 -3.208926692605018616e-02 -6.199458613991737366e-02 -2.273049950599670410e-02 -1.032452583312988281e-01 7.833866775035858154e-02 -2.365434765815734863e-01 1.241371594369411469e-02 2.501171827316284180e-02 1.694058813154697418e-02 -1.186385098844766617e-02 -9.424296766519546509e-02 5.317587032914161682e-02 4.672703891992568970e-02 -5.558127909898757935e-02 1.123486459255218506e-02 3.756537660956382751e-02 -8.735471218824386597e-02 1.262424737215042114e-01 3.282487019896507263e-02 1.972434520721435547e-01 6.931289285421371460e-02 4.850538074970245361e-02 4.436820372939109802e-02 9.236173331737518311e-02 4.049336165189743042e-02 -6.536731123924255371e-02 7.633031159639358521e-02 -4.309081658720970154e-02 -5.137268453836441040e-02 2.187233120203018188e-01 5.170022696256637573e-02 2.158847004175186157e-01 -5.161114037036895752e-02 2.177412807941436768e-01 -4.634101316332817078e-02 4.204150289297103882e-02 3.084547072649002075e-02 1.044748127460479736e-01 4.670512676239013672e-02 -4.773070290684700012e-02 8.241495490074157715e-02 1.956828171387314796e-03 3.356033563613891602e-02 8.258718997240066528e-02 -7.704049348831176758e-02 -1.509084254503250122e-01 -3.515202784910798073e-03
1.581757217645645142e-01 -5.858250893652439117e-03 -2.359075248241424561e-01 -7.037910819053649902e-02 -2.088978588581085205e-01 -8.469574153423309326e-02 -1.003800705075263977e-01 6.664638873189687729e-03 -2.062405049800872803e-01 4.873221740126609802e-02 8.918152004480361938e-02 6.440443545579910278e-02 5.120739713311195374e-02 -1.485383063554763794e-01 5.070391669869422913e-02 -2.877928689122200012e-02 -6.047241762280464172e-02 -1.091859564185142517e-01 -2.176980227231979370e-01 2.913201041519641876e-02 8.087372779846191406e-02 -2.016715146601200104e-02 -6.592009216547012329e-02 1.855653896927833557e-02 2.166541852056980133e-02 -3.341905400156974792e-02 1.193171888589859009e-01 1.244875043630599976e-01 4.294925555586814880e-02 9.143241913989186287e-04 -6.482709199190139771e-02 7.422096282243728638e-02 -7.280946522951126099e-02 1.347710378468036652e-02 1.128264665603637695e-01 -3.746288269758224487e-02 -1.899825483560562134e-01 -1.130333244800567627e-01 6.559628248214721680e-02 -8.292545564472675323e-03 2.597125619649887085e-02 1.768770813941955566e-01 4.323705285787582397e-02 -1.310302969068288803e-02 -2.336415946483612061e-01 1.894589811563491821e-01 -1.354099065065383911e-01 -1.619602320715785027e-03 4.617254436016082764e-02 4.219497740268707275e-02 -2.113776057958602905e-01 -1.306912899017333984e-01 -5.798718892037868500e-03 -4.474901407957077026e-02 2.187734395265579224e-01 2.393196076154708862e-01 -3.186244145035743713e-02 2.661571651697158813e-02 2.511245198547840118e-02 6.398462224751710892e-03 -1.092468108981847763e-02 3.108249790966510773e-02 2.550557255744934082e-03
2.097551524639129639e-02 -3.093900345265865326e-02 1.826540976762771606e-01 1.380086541175842285e-01 1.426061522215604782e-02 -2.310833893716335297e-02 8.394469320774078369e-02 -1.058327928185462952e-01 -1.296966075897216797e-01 -1.354748606681823730e-01 -7.189194113016128540e-02 -1.758968830108642578e-01 -7.310798764228820801e-02 5.391030386090278625e-02 5.256797745823860168e-02 -6.390263140201568604e-02 2.289164960384368896e-01 2.257586270570755005e-02 -6.945603340864181519e-02 -1.973458193242549896e-02 -1.261398494243621826e-01 -3.258997946977615356e-02 2.978586219251155853e-02 2.039354108273983002e-02 -9.012246876955032349e-02 -5.150167644023895264e-02 -1.935524940490722656e-01 -9.154155105352401733e-02 1.638554036617279053e-01 -4.352230578660964966e-02 1.234079748392105103e-01 -1.475441008806228638e-01 -4.842042177915573120e-02 7.498320192098617554e-02 -9.283909946680068970e-02 1.020968034863471985e-01 -8.241471648216247559e-02 7.165131717920303345e-02 -7.387276738882064819e-02 1.983284801244735718e-01 -1.071764677762985229e-01 -6.617623381316661835e-03 8.165762573480606079e-02 1.464084982872009277e-01 1.785992532968521118e-01 -2.438240796327590942e-01 7.713481038808822632e-02 1.409805007278919220e-02 -9.406825155019760132e-02 1.298062205314636230e-01 -1.221935078501701355e-01 1.101588308811187744e-01 2.001276426017284393e-02 2.565891444683074951e-01 -3.729630634188652039e-02 -1.312855537980794907e-02 6.600256264209747314e-02 2.706854604184627533e-02 -7.816223800182342529e-02 -1.722583360970020294e-02 -2.860786207020282745e-02 -1.520487572997808456e-02 4.452657699584960938e-02
-2.366526871919631958e-01 8.378341794013977051e-02 -1.145402640104293823e-01 6.270951032638549805e-02 4.638073593378067017e-02 -9.251756966114044189e-02 1.520325802266597748e-02 1.230880394577980042e-01 1.350810527801513672e-01 -3.975377604365348816e-02 3.710477799177169800e-02 -1.010341122746467590e-01 -5.163140967488288879e-02 -1.256163716316223145e-01 -2.762387134134769440e-02 -5.198743747314438224e-05 6.160782277584075928e-02 4.198559001088142395e-02 1.331449151039123535e-01 -2.411054214462637901e-03 3.170041739940643311e-02 -1.096123084425926208e-02 1.130393892526626587e-02 9.216095320880413055e-03 -3.800967335700988770e-02 -1.810655370354652405e-02 -4.842794314026832581e-02 -1.056091114878654480e-01 -2.447533905506134033e-01 -6.507919169962406158e-03 -4.775050282478332520e-02 -2.051615864038467407e-01 5.040995404124259949e-02 1.128563061356544495e-01 8.761405199766159058e-02 -1.204481199383735657e-01 1.171170026063919067e-01 1.177860200405120850e-01 -1.306126713752746582e-01 1.381869167089462280e-01 -2.514073858037590981e-03 1.902682483196258545e-01 -8.674129098653793335e-02 -1.355438977479934692e-01 -3.185919299721717834e-02 -2.898766100406646729e-01 1.188890486955642700e-01 8.301493525505065918e-02 2.230822481215000153e-02 -1.438245624303817749e-01 6.817234214395284653e-03 1.101933494210243225e-01 -1.541693508625030518e-01 1.077408790588378906e-01 -1.572795510292053223e-01 3.377214372158050537e-01 5.739362910389900208e-03 3.852153941988945007e-02 -4.934995993971824646e-02 -2.090686000883579254e-02 -2.867442369461059570e-02 1.182680856436491013e-02 1.253327131271362305e-01
-4.776853695511817932e-02 1.339147984981536865e-01 3.288165852427482605e-02 1.737868636846542358e-01 1.378503721207380295e-02 1.981972157955169678e-01 3.946500644087791443e-02 1.875791326165199280e-02 9.130605496466159821e-03 -3.228772431612014771e-02 -1.090785712003707886e-01 -1.035401746630668640e-01 -2.469217032194137573e-02 -2.627384364604949951e-01 7.609060406684875488e-02 -3.488907963037490845e-02 1.976235769689083099e-02 1.107808947563171387e-01 3.072970546782016754e-02 3.079131990671157837e-02 3.193776682019233704e-02 1.210468262434005737e-01 -2.800535224378108978e-02 7.450656592845916748e-02 -1.116627603769302368e-01 4.989505559206008911e-02 -3.408431634306907654e-02 -6.871622055768966675e-02 2.024455461651086807e-03 8.448664844036102295e-02 -7.154733873903751373e-03 -1.551662534475326538e-01 -3.018996678292751312e-02 -1.341370493173599243e-01 -9.293260984122753143e-03 5.202586203813552856e-02 8.951231092214584351e-02 3.337785229086875916e-02 2.063051611185073853e-02 8.578741922974586487e-03 1.099928319454193115e-01 1.253995597362518311e-01 -3.972297161817550659e-02 -1.854202598333358765e-01 -6.053199525922536850e-03 -1.055612713098526001e-01 -6.883662194013595581e-03 -8.965152502059936523e-02 1.254147589206695557e-01 -1.653364449739456177e-01 -6.737054139375686646e-02 -5.089318379759788513e-02 5.331505089998245239e-02 5.933137983083724976e-02 9.058846160769462585e-03 2.569244205951690674e-01 -1.247176714241504669e-02 -2.361605875194072723e-03 -3.402700275182723999e-02 -2.855789847671985626e-02 -1.284216642379760742e-01 -1.111885183490812778e-03 -9.196728467941284180e-02
1.616535037755966187e-01 -1.546484231948852539e-01 1.407438218593597412e-01 9.389985352754592896e-02 5.774907395243644714e-02 -1.614335179328918457e-02 -3.440684638917446136e-03 5.695012956857681274e-02 -1.051990091800689697e-01 1.131259137764573097e-03 -5.316375195980072021e-02 -1.021658554673194885e-01 2.153863459825515747e-01 -1.090448200702667236e-01 6.558126211166381836e-02 -4.502141103148460388e-02 7.099596410989761353e-02 2.827577665448188782e-02 6.420629471540451050e-02 2.447383850812911987e-02 -1.334528774023056030e-01 1.138562187552452087e-01 6.259753555059432983e-02 5.547483637928962708e-02 -1.016519069671630859e-01 -4.631392657756805420e-02 4.630590230226516724e-02 1.729446649551391602e-02 6.322293728590011597e-02 7.735745608806610107e-02 5.579527840018272400e-02 4.308852553367614746e-02 -6.230159103870391846e-02 -5.375812575221061707e-02 7.081402093172073364e-02 -7.858310639858245850e-02 -1.452309638261795044e-02 2.548067457973957062e-02 -4.619483277201652527e-02 1.014718934893608093e-01 1.163637489080429077e-01 6.691762804985046387e-02 -3.693913668394088745e-02 3.727023303508758545e-02 2.136275619268417358e-01 -8.391039818525314331e-02 -4.930594190955162048e-02 7.549377530813217163e-02 -8.069841563701629639e-02 -7.716508954763412476e-02 2.666547708213329315e-02 -9.443799406290054321e-02 -1.326545029878616333e-01 1.007457524538040161e-01 2.128159254789352417e-01 8.703051507472991943e-02 -1.049360930919647217e-01 -4.092206433415412903e-02 -1.777651533484458923e-02 3.703388944268226624e-02 -7.843494415283203125e-02 -1.966156512498855591e-01 -1.789888888597488403e-01
-4.296670109033584595e-02 -1.371762529015541077e-02 5.799485743045806885e-02 1.414781659841537476e-01 3.786872327327728271e-02 1.009304150938987732e-01 -7.643315941095352173e-02 8.111341297626495361e-02 6.324236094951629639e-02 6.382492929697036743e-02 2.112424969673156738e-01 1.139139831066131592e-01 9.253995120525360107e-02 -1.732145994901657104e-01 -1.154409497976303101e-01 1.792966946959495544e-02 2.214187011122703552e-02 7.366981822997331619e-03 6.110346317291259766e-02 1.950239203870296478e-02 -1.053621470928192139e-01 1.632958091795444489e-02 8.229254931211471558e-02 -4.394229874014854431e-02 6.493502855300903320e-02 3.987210243940353394e-02 1.142303347587585449e-01 1.002685353159904480e-01 -6.082382053136825562e-02 -1.253796368837356567e-02 -1.526865065097808838e-01 -1.500700712203979492e-01 -6.068285554647445679e-03 -1.871444731950759888e-01 1.124370023608207703e-01 -2.093483656644821167e-01 6.925408542156219482e-02 -4.265473410487174988e-02 1.456158310174942017e-01 -1.004435196518898010e-01 -4.804302006959915161e-02 1.799835562705993652e-01 -9.705779701471328735e-02 -1.116318926215171814e-01 8.297892659902572632e-02 -1.961601078510284424e-01 -1.033913791179656982e-01 -8.705123513936996460e-02 3.395892307162284851e-02 -2.257766425609588623e-01 9.611253440380096436e-02 -1.365332007408142090e-01 5.359562113881111145e-02 -1.949310153722763062e-01 8.296003937721252441e-02 1.899270862340927124e-01 -3.075104614254087210e-04 1.107943803071975708e-02 -1.147317420691251755e-02 6.278219074010848999e-02 2.552179992198944092e-02 1.214234996587038040e-02 5.883603170514106750e-02
8.316411077976226807e-02 -5.580334737896919250e-02 -6.703290343284606934e-02 -1.522213313728570938e-02 -7.026776671409606934e-02 1.402823179960250854e-01 -2.438830025494098663e-02 9.168390184640884399e-02 2.012385278940200806e-01 6.120517849922180176e-02 -1.920948475599288940e-01 1.227620542049407959e-01 -1.100706309080123901e-01 1.022882014513015747e-01 1.884377598762512207e-01 -3.354372456669807434e-02 6.559052318334579468e-02 -2.062615938484668732e-02 5.406122654676437378e-02 -5.087239295244216919e-02 7.887372374534606934e-02 -6.095210462808609009e-02 1.035475805401802063e-01 9.538311511278152466e-02 -5.383097380399703979e-02 7.375237345695495605e-02 -1.603758931159973145e-01 -4.493553936481475830e-02 1.607031375169754028e-01 8.102174103260040283e-02 6.495208293199539185e-02 -5.879926960915327072e-03 -5.608708038926124573e-02 -9.619742631912231445e-02 -3.037330880761146545e-02 -3.588477894663810730e-02 2.062915712594985962e-01 -5.614680424332618713e-02 6.847607903182506561e-03 -1.236350759863853455e-01 -2.614379227161407471e-01 -4.892813414335250854e-02 4.397780448198318481e-02 1.722224242985248566e-02 1.003093421459197998e-01 1.295853685587644577e-02 -4.709057137370109558e-02 -8.120842278003692627e-02 2.372054196894168854e-02 -6.493913009762763977e-03 2.607649564743041992e-02 -1.404569894075393677e-01 -1.743031293153762817e-01 -1.644741445779800415e-01 -3.227143287658691406e-01 -7.042293995618820190e-02 5.455544218420982361e-03 1.201971992850303650e-01 1.268723160028457642e-01 -2.641418250277638435e-03 8.136970549821853638e-02 1.530628278851509094e-02 7.770236581563949585e-02
-1.200986057519912720e-01 -1.487916111946105957e-01 -1.432087719440460205e-01 1.306573003530502319e-01 4.790015053004026413e-03 1.095720678567886353e-01 -1.666852682828903198e-01 4.351387033239006996e-04 -1.000343412160873413e-01 6.945049017667770386e-02 -9.153518080711364746e-02 1.456978768110275269e-01 -5.134683474898338318e-02 6.371674686670303345e-02 -7.344443351030349731e-02 -2.233241451904177666e-03 7.714118063449859619e-02 1.057782843708992004e-01 2.795256115496158600e-02 2.232540585100650787e-02 1.065707392990589142e-02 6.537419557571411133e-02 -1.256007105112075806e-01 5.125276278704404831e-03 -1.237089633941650391e-01 1.181409955024719238e-01 -1.188888028264045715e-01 -2.259635739028453827e-02 7.500106841325759888e-02 1.554212570190429688e-01 7.893016189336776733e-02 -1.026400774717330933e-01 -3.000480495393276215e-02 -7.835360616445541382e-02 -9.105998277664184570e-02 -7.498116046190261841e-02 2.868470922112464905e-02 -3.250978142023086548e-02 -1.562112122774124146e-01 -2.186247110366821289e-01 -1.515468508005142212e-01 -2.469854662194848061e-03 -1.102206334471702576e-01 1.118163987994194031e-01 -1.337045338004827499e-02 -2.665427029132843018e-01 -1.685702428221702576e-02 -6.476566940546035767e-02 5.864458158612251282e-03 -6.741773337125778198e-02 2.719271555542945862e-02 -1.323073054663836956e-03 6.988563388586044312e-02 -2.196302413940429688e-01 -2.131743133068084717e-01 -1.204642876982688904e-01 -8.292587101459503174e-02 3.817220916971564293e-03 1.934515684843063354e-02 8.313043043017387390e-03 -1.584310457110404968e-02 1.652673073112964630e-02 -9.490038501098752022e-04
4.444952681660652161e-02 1.021867319941520691e-01 1.739053130149841309e-01 2.337378263473510742e-01 -7.501569390296936035e-02 1.058820113539695740e-01 1.211375296115875244e-01 -2.743408679962158203e-01 2.891340292990207672e-02 2.726933062076568604e-01 -4.313328117132186890e-02 -4.816467463970184326e-01 4.844905063509941101e-02 6.435144692659378052e-02 9.824193269014358521e-02 -1.025193780660629272e-01 1.418330669403076172e-01 1.064847186207771301e-01 -3.693046420812606812e-02 1.535615026950836182e-01 1.569008678197860718e-01 -6.510216742753982544e-02 -1.018368545919656754e-02 1.017386913299560547e-01 -3.916391357779502869e-02 -1.652013212442398071e-01 2.486393749713897705e-01 -7.017333805561065674e-02 -9.508959949016571045e-02 1.706440001726150513e-02 9.487688541412353516e-02 -1.829953789710998535e-01 5.598911084234714508e-04 -1.547297537326812744e-01 1.943108290433883667e-01 1.654526740312576294e-01 -5.289649963378906250e-02 -6.156833469867706299e-02 -2.026853412389755249e-01 1.361761540174484253e-01 1.201695725321769714e-01 -6.624955683946609497e-02 -9.738840162754058838e-02 -1.776520628482103348e-03 2.114031910896301270e-01 -2.938163876533508301e-01 7.717163860797882080e-02 -1.438186317682266235e-01 3.809994086623191833e-02 1.876359432935714722e-01 2.333419863134622574e-03 -3.348520994186401367e-01 -1.489572674036026001e-01 6.129734516143798828e-01 1.332758218050003052e-01 7.586017996072769165e-02 -1.289018392562866211e-01 3.756252825260162354e-01 3.062166459858417511e-02 -4.470328614115715027e-02 9.977772831916809082e-02 -9.157062321901321411e-02 1.509220302104949951e-01
6.277896463871002197e-02 -1.710691861808300018e-02 3.847548738121986389e-02 5.394857376813888550e-02 -8.054952323436737061e-02 -8.606093376874923706e-02 2.971149235963821411e-02 -1.075108870863914490e-01 1.383842080831527710e-01 8.178398013114929199e-02 3.746080037672072649e-04 -1.763312071561813354e-01 -1.963600516319274902e-01 -1.934232115745544434e-01 -1.362158507108688354e-01 -1.183157935738563538e-01 -1.148718968033790588e-01 2.188033983111381531e-02 -1.340850163251161575e-02 5.163451656699180603e-02 1.483969483524560928e-02 -2.350872755050659180e-02 2.142815291881561279e-02 -3.796739503741264343e-02 5.104329809546470642e-02 1.001862436532974243e-02 -1.946007311344146729e-01 -7.694943924434483051e-04 3.147841989994049072e-02 1.278380751609802246e-01 -1.079573929309844971e-01 -6.731176376342773438e-02 -1.514218281954526901e-02 3.371763601899147034e-02 -2.426894009113311768e-02 8.213457465171813965e-02 -7.704352494329214096e-03 -1.180336400866508484e-01 2.953889779746532440e-03 2.834296524524688721e-01 2.471148781478404999e-02 2.349654287099838257e-01 -4.669658839702606201e-02 1.189917922019958496e-01 8.147665858268737793e-02 -6.278961896896362305e-02 -7.066580653190612793e-02 1.204981356859207153e-01 8.402197808027267456e-02 1.992648392915725708e-01 2.959273010492324829e-02 -2.026329636573791504e-01 4.898924008011817932e-02 3.238421082496643066e-01 -9.448988735675811768e-02 3.323682844638824463e-01 8.609808236360549927e-02 -8.188211917877197266e-02 2.365657128393650055e-02 2.938800305128097534e-02 -5.031773075461387634e-02 6.217699497938156128e-02 7.901250384747982025e-03
2.676471173763275146e-01 -9.128478914499282837e-02 1.058726012706756592e-02 -9.341982752084732056e-02 5.048990249633789062e-02 7.389334589242935181e-02 -3.419512882828712463e-02 -8.938027173280715942e-02 -1.062796786427497864e-01 4.849189147353172302e-02 6.722338497638702393e-02 7.307991385459899902e-02 5.265985056757926941e-02 1.723940372467041016e-01 8.205108344554901123e-02 2.036091312766075134e-02 6.161515042185783386e-02 -8.565204218029975891e-03 -9.865564107894897461e-02 -3.977350424975156784e-03 2.770259045064449310e-02 4.809704609215259552e-03 2.586587145924568176e-02 -3.239217400550842285e-02 -2.446508035063743591e-02 -1.321415533311665058e-03 6.854844093322753906e-02 4.420739039778709412e-02 1.294473260641098022e-01 9.414513595402240753e-03 -2.593701519072055817e-02 2.395072430372238159e-01 -1.597586721181869507e-01 -5.906742438673973083e-02 -3.529337793588638306e-02 4.831381514668464661e-02 -1.285107731819152832e-01 -9.416022896766662598e-02 7.748372107744216919e-02 -2.822863869369029999e-02 -4.492644593119621277e-02 -1.873362511396408081e-01 7.775432616472244263e-02 1.152894720435142517e-01 7.759895920753479004e-02 2.274277061223983765e-01 -1.183939427137374878e-01 -1.048940718173980713e-01 -1.048261150717735291e-01 1.788664162158966064e-01 -4.363070055842399597e-02 -1.063117384910583496e-01 1.469087898731231689e-01 -1.618520021438598633e-01 1.667984575033187866e-01 -3.338415920734405518e-01 -1.950785634107887745e-03 -3.616772219538688660e-02 4.604520648717880249e-02 1.945530250668525696e-02 2.620338834822177887e-02 -1.082041766494512558e-02 -5.627101659774780273e-02
-4.057956486940383911e-02 8.201655745506286621e-02 2.563692033290863037e-01 -3.626707196235656738e-02 -1.749441623687744141e-01 -1.704698055982589722e-01 5.733134970068931580e-02 2.890777587890625000e-02 7.221684604883193970e-02 1.382000893354415894e-01 1.020748242735862732e-01 -1.399546861648559570e-01 -1.915548145771026611e-01 1.188236381858587265e-02 5.909720808267593384e-02 7.066974043846130371e-02 3.203089535236358643e-02 -2.769051492214202881e-02 -3.892327472567558289e-02 -1.303967647254467010e-02 1.201456263661384583e-01 -6.413053721189498901e-02 -1.437089592218399048e-01 4.613985866308212280e-02 8.408124744892120361e-02 2.174215950071811676e-02 -1.801899522542953491e-01 6.424677371978759766e-02 -5.414971336722373962e-02 -1.223214864730834961e-01 7.358068972826004028e-02 8.156129159033298492e-03 -3.269352717325091362e-03 1.140447854995727539e-01 8.212061971426010132e-02 -2.660530991852283478e-02 7.514319382607936859e-03 -1.144010499119758606e-01 8.065724745392799377e-03 7.975051552057266235e-02 -1.391943395137786865e-01 2.191482484340667725e-02 -1.116368547081947327e-01 -1.750276684761047363e-01 1.367084681987762451e-01 1.310213953256607056e-01 -1.530869752168655396e-01 1.549549102783203125e-01 1.395334005355834961e-01 8.919384330511093140e-02 -1.028169970959424973e-02 -9.902273118495941162e-02 8.389638364315032959e-02 2.846219241619110107e-01 -2.833268940448760986e-01 -1.767736822366714478e-01 -5.744564905762672424e-02 3.980377689003944397e-03 -3.139354288578033447e-02 6.821700185537338257e-02 4.885069280862808228e-02 -3.242891281843185425e-02 1.031862851232290268e-02
