-5.287095904350280762e-02 8.543030917644500732e-02 2.286551743745803833e-01 6.023810803890228271e-02 -9.243577718734741211e-02 1.460745092481374741e-02 5.624271929264068604e-02 -3.446212410926818848e-02 3.403386473655700684e-02 -7.333302497863769531e-02 8.882843703031539917e-02 4.520202800631523132e-02 -4.706341400742530823e-02 -8.252207934856414795e-02 1.049294248223304749e-01 -4.952908959239721298e-03 1.859634667634963989e-01 -7.689588516950607300e-02 -4.202608019113540649e-02 3.221146389842033386e-02 -6.801902502775192261e-02 -2.264638431370258331e-02 5.424188822507858276e-02 5.448801815509796143e-02 -9.281013160943984985e-02 -2.176346816122531891e-02 -5.067398771643638611e-02 3.627245128154754639e-02 6.630603224039077759e-02 -4.025580361485481262e-02 1.473334729671478271e-01 -5.571526288986206055e-02 -9.889111667871475220e-02 8.151311427354812622e-02 -3.880416229367256165e-02 2.073629014194011688e-02 -7.493306882679462433e-03 8.719683438539505005e-02 -1.893612556159496307e-03 -5.696826055645942688e-02 -3.863453492522239685e-02 -5.201303958892822266e-02 -9.743820875883102417e-02 -4.344924911856651306e-02 1.524026840925216675e-01 -1.827764213085174561e-01 3.821578249335289001e-02 1.778453141450881958e-01 4.380957037210464478e-02 9.416366368532180786e-02 -7.924829423427581787e-02 1.424392126500606537e-02 2.358722500503063202e-02 1.673486642539501190e-02 6.213519349694252014e-02 5.725528672337532043e-02 -2.462119050323963165e-02 -2.094570696353912354e-01 2.190629839897155762e-01 -3.674372434616088867e-01 4.118947684764862061e-02 2.864591479301452637e-01 -1.014573574066162109e-01 1.424088329076766968e-01 1.256693713366985321e-02 2.344145327806472778e-01 6.978028267621994019e-02 -1.694607436656951904e-01 7.716179639101028442e-02 1.129373237490653992e-01
8.660659193992614746e-02 -3.479927405714988708e-02 8.103393018245697021e-02 -3.113063275814056396e-01 -1.019886806607246399e-01 4.454654082655906677e-02 -3.523830175399780273e-01 -2.926947548985481262e-02 4.150660824961960316e-04 4.050171747803688049e-02 5.749176070094108582e-02 1.409340649843215942e-02 4.318115860223770142e-02 5.882098153233528137e-02 -3.922200575470924377e-02 2.617709897458553314e-02 -1.036164835095405579e-01 -1.446602516807615757e-03 1.104439646005630493e-01 -7.657594233751296997e-02 -2.257186472415924072e-01 7.935061119496822357e-03 6.389530003070831299e-02 -4.970580711960792542e-02 3.782582655549049377e-02 -4.673955217003822327e-02 -6.036242097616195679e-02 -3.782087936997413635e-02 3.992277663201093674e-03 -6.065729074180126190e-03 -7.035171240568161011e-02 1.205186620354652405e-01 -2.165137976408004761e-02 -1.828286424279212952e-02 -3.165383636951446533e-01 8.495633304119110107e-02 5.499717593193054199e-02 -2.880153059959411621e-02 2.791515551507472992e-02 -9.166477620601654053e-02 -2.915683761239051819e-02 -2.108705230057239532e-02 1.230581477284431458e-02 1.087269093841314316e-02 -7.984487712383270264e-02 7.381724566221237183e-02 -3.741453588008880615e-02 6.212625280022621155e-02 -3.269128203392028809e-01 1.110987588763237000e-01 -2.803362347185611725e-02 7.021360844373703003e-02 -7.715506106615066528e-02 1.007864773273468018e-01 8.042802661657333374e-02 1.355911698192358017e-02 -6.389967352151870728e-02 2.511835657060146332e-03 1.312707271426916122e-02 1.253693103790283203e-01 1.265118014998733997e-03 -1.421646587550640106e-02 -3.827080726623535156e-01 -1.749309152364730835e-01 -9.347581118345260620e-02 -3.280561789870262146e-02 -5.128807574510574341e-02 2.581234090030193329e-02 -3.863955661654472351e-02 -1.330051105469465256e-02
1.493241079151630402e-02 6.746761798858642578e-01 -1.302076727151870728e-01 -4.796729385852813721e-01 -7.289452850818634033e-02 -1.174616292119026184e-01 1.786253415048122406e-02 -3.184276574756950140e-04 3.239656612277030945e-02 -4.513406008481979370e-02 2.810227312147617340e-02 -3.570771589875221252e-02 -5.790575593709945679e-02 6.465156376361846924e-02 -4.331246390938758850e-02 2.693277895450592041e-01 -1.707013696432113647e-01 -2.323996275663375854e-01 5.744247511029243469e-02 -1.526340991258621216e-01 1.328835189342498779e-01 2.305329963564872742e-02 -9.196615219116210938e-02 9.337130188941955566e-02 3.273988142609596252e-02 1.400656811892986298e-02 2.991733886301517487e-02 -3.688580170273780823e-02 -1.041226163506507874e-01 5.895436927676200867e-02 -7.017565518617630005e-02 -5.019225552678108215e-02 2.564443461596965790e-02 -1.016033515334129333e-01 1.948166489601135254e-01 -1.112137064337730408e-01 -5.628869310021400452e-02 -3.255670145153999329e-02 -2.267492935061454773e-02 9.259602427482604980e-02 -4.831018298864364624e-02 6.585276871919631958e-02 5.142844840884208679e-02 -3.281964063644409180e-01 -1.034729257225990295e-01 1.052890643477439880e-01 -6.986813992261886597e-02 1.397951543331146240e-01 9.507386013865470886e-03 7.632372528314590454e-02 6.394318491220474243e-02 1.962692849338054657e-02 1.646864973008632660e-02 -1.964331790804862976e-02 -6.812732666730880737e-02 -6.618817895650863647e-02 8.324856311082839966e-02 -6.800118088722229004e-01 9.446245618164539337e-03 6.685309410095214844e-01 -1.269846558570861816e-01 2.351458519697189331e-01 5.710730701684951782e-02 1.365346554666757584e-02 5.588844418525695801e-02 -3.674636408686637878e-02 -6.513095647096633911e-02 -5.060670897364616394e-02 1.432629525661468506e-01 -3.127064928412437439e-02
-1.004373505711555481e-01 -6.763086467981338501e-02 3.567795157432556152e-01 2.355744596570730209e-03 -3.631013631820678711e-01 3.615678288042545319e-03 1.573535799980163574e-01 3.698985278606414795e-02 -2.562732435762882233e-02 1.960704103112220764e-02 -1.112939491868019104e-01 3.971956297755241394e-02 6.107189133763313293e-02 2.663895115256309509e-02 5.386311933398246765e-02 2.964853495359420776e-02 3.123225569725036621e-01 -1.786497980356216431e-02 -2.916682958602905273e-01 -8.142095804214477539e-02 2.309898287057876587e-01 -7.465726137161254883e-02 -6.053062155842781067e-02 1.000244449824094772e-02 -6.588625162839889526e-02 -4.920652508735656738e-02 6.004814803600311279e-02 1.295102946460247040e-02 -7.265190035104751587e-02 1.357885170727968216e-02 2.910290062427520752e-01 -5.158985033631324768e-03 -3.578125834465026855e-01 2.420440874993801117e-02 1.104499846696853638e-01 1.108532771468162537e-02 -5.834718421101570129e-02 -1.699097268283367157e-02 9.294296056032180786e-02 1.834576833061873913e-03 -3.979840874671936035e-02 -1.748098060488700867e-02 9.608905762434005737e-02 4.107654467225074768e-02 3.261577785015106201e-01 1.604042015969753265e-02 -2.549245953559875488e-01 4.004738852381706238e-02 2.312193661928176880e-01 -9.941514581441879272e-02 1.117280870676040649e-01 -5.829871445894241333e-02 7.247961312532424927e-02 6.598695367574691772e-02 -1.055082529783248901e-01 -3.985216841101646423e-02 2.316051535308361053e-02 -1.745021343231201172e-02 1.942569017410278320e-01 8.025496266782283783e-03 -3.695255219936370850e-01 1.292872428894042969e-02 1.890277564525604248e-01 1.266724467277526855e-01 3.681487962603569031e-02 4.579005390405654907e-02 8.236523717641830444e-03 -5.781993269920349121e-02 2.312723919749259949e-02 1.873381994664669037e-02
7.235608994960784912e-02 3.853747248649597168e-02 -3.198769986629486084e-01 -1.650497317314147949e-02 -3.249401748180389404e-01 4.662657156586647034e-02 1.691831946372985840e-01 4.181943461298942566e-02 -2.162108942866325378e-02 -4.320368170738220215e-02 9.476241539232432842e-04 2.982118725776672363e-02 -2.731983363628387451e-02 -2.427456527948379517e-02 -4.343859851360321045e-02 1.192587800323963165e-02 -1.923184096813201904e-01 4.090052098035812378e-03 -1.447261720895767212e-01 -5.463241413235664368e-02 1.465829461812973022e-01 2.585223130881786346e-02 -8.565880358219146729e-03 1.045555062592029572e-02 -5.288284271955490112e-03 -4.472924396395683289e-02 -7.648894935846328735e-02 8.348505944013595581e-03 -1.612948253750801086e-02 -7.069510966539382935e-02 -2.517251968383789062e-01 -6.603164225816726685e-02 -2.985795140266418457e-01 -1.095859259366989136e-01 2.827396988868713379e-01 1.079426929354667664e-01 9.524998068809509277e-02 8.168096095323562622e-02 -3.998536616563796997e-02 -1.346221845597028732e-02 9.494422376155853271e-02 -9.128145873546600342e-03 -1.791377179324626923e-02 -7.089818362146615982e-03 -1.102860644459724426e-01 -1.619158983230590820e-01 -1.502493768930435181e-01 -9.381746500730514526e-02 3.159942030906677246e-01 -5.573527887463569641e-02 -4.146918188780546188e-03 -2.979547902941703796e-02 -7.560641318559646606e-02 -3.432715311646461487e-02 -7.611405104398727417e-02 2.255229810543823987e-05 6.277513690292835236e-03 2.667942456901073456e-02 -3.117256164550781250e-01 2.418477535247802734e-01 -1.248700469732284546e-01 2.113460004329681396e-01 2.294511646032333374e-01 -1.222326084971427917e-01 -6.117189303040504456e-02 -1.902011595666408539e-02 1.235014274716377258e-01 6.299971789121627808e-02 8.556886017322540283e-02 2.389677986502647400e-02
2.948356419801712036e-02 -4.058506339788436890e-02 -4.466552138328552246e-01 1.732079386711120605e-01 4.646954312920570374e-02 1.223278641700744629e-01 4.218544661998748779e-01 -8.740487694740295410e-02 -8.055571466684341431e-02 2.046646364033222198e-02 -1.031676009297370911e-01 4.660326987504959106e-02 6.041414290666580200e-02 -1.103284507989883423e-01 2.177627943456172943e-02 -9.448408149182796478e-03 -4.230150580406188965e-01 9.033644199371337891e-02 1.264028903096914291e-02 2.264207415282726288e-02 3.724044859409332275e-01 8.211071044206619263e-02 -2.889362163841724396e-02 3.690070658922195435e-02 -1.938105747103691101e-02 -1.297856122255325317e-02 -1.191436126828193665e-01 2.969916909933090210e-02 -8.354002982378005981e-02 -3.762491419911384583e-02 -4.631589949131011963e-01 -1.490330882370471954e-02 -8.222406357526779175e-02 4.635943844914436340e-02 3.265351057052612305e-01 3.436456993222236633e-02 -4.069102182984352112e-02 -4.058646038174629211e-02 1.088110059499740601e-01 8.890538662672042847e-02 -2.270308695733547211e-02 -8.203640580177307129e-03 5.869848188012838364e-03 9.611064195632934570e-02 -4.200496375560760498e-01 -4.588951915502548218e-02 8.750072121620178223e-02 -3.921303153038024902e-02 4.615204334259033203e-01 2.297694049775600433e-02 6.931818276643753052e-02 -3.400946781039237976e-02 6.526468694210052490e-02 -8.283402770757675171e-02 -1.664376817643642426e-02 4.677534569054841995e-03 2.564070187509059906e-02 -6.625372916460037231e-03 -4.230079054832458496e-01 -2.048555612564086914e-01 -1.245483085513114929e-01 -1.520143300294876099e-01 4.319740533828735352e-01 -5.095477774739265442e-02 7.175623625516891479e-02 1.882716454565525055e-02 -8.775631338357925415e-02 -4.474924132227897644e-02 9.766907989978790283e-02 8.382451534271240234e-02
1.282218098640441895e-01 4.611518085002899170e-01 -4.053968489170074463e-01 -9.998966008424758911e-02 1.072524189949035645e-01 -2.269119024276733398e-01 -1.346754748374223709e-02 2.035946585237979889e-03 7.709607481956481934e-02 2.510800026357173920e-02 -5.093365907669067383e-02 -4.968255385756492615e-02 -2.617745473980903625e-02 4.476823285222053528e-02 -8.209913969039916992e-02 3.269716501235961914e-01 -4.858139753341674805e-01 3.605137020349502563e-02 1.944998279213905334e-02 -1.612600386142730713e-01 1.644996926188468933e-02 -1.179893016815185547e-01 -1.558098383247852325e-02 9.604185819625854492e-03 -6.937021389603614807e-03 8.024650067090988159e-02 4.931702092289924622e-02 -6.822074204683303833e-02 -8.098338544368743896e-02 1.467594802379608154e-01 -4.952285587787628174e-01 1.697514057159423828e-01 -4.297219216823577881e-02 -1.223780587315559387e-01 2.368827350437641144e-02 6.730199605226516724e-02 -9.692401438951492310e-02 -6.359004974365234375e-02 1.145944520831108093e-01 -6.247594486922025681e-03 -9.765379130840301514e-02 -6.763571500778198242e-02 2.130592428147792816e-02 -1.543849110603332520e-01 -3.736773431301116943e-01 7.067921757698059082e-02 -6.473228335380554199e-02 1.834172755479812622e-01 -2.112654782831668854e-02 -7.239121198654174805e-02 6.709109246730804443e-02 -2.746157161891460419e-02 -2.349947951734066010e-02 -7.766342721879482269e-03 1.125005306676030159e-03 -6.448849104344844818e-03 1.422441937029361725e-02 -7.833608984947204590e-01 -4.213671982288360596e-01 -1.806305795907974243e-01 4.927192628383636475e-02 3.331269323825836182e-01 -8.208384364843368530e-02 1.224063709378242493e-01 -3.572142496705055237e-02 5.737637355923652649e-02 -2.720716595649719238e-02 -1.364787202328443527e-02 7.497047632932662964e-02 9.338074177503585815e-02
-3.570763394236564636e-02 4.832008183002471924e-01 8.299642801284790039e-02 1.915789842605590820e-01 9.281366318464279175e-02 1.558765321969985962e-01 1.681249961256980896e-02 2.533438205718994141e-01 4.826376587152481079e-02 -7.323757559061050415e-02 -6.504387408494949341e-02 4.009846970438957214e-02 -3.961673006415367126e-02 -9.820640832185745239e-02 1.759056374430656433e-02 3.977075815200805664e-01 1.589300297200679779e-02 1.865855753421783447e-01 -4.277366027235984802e-02 7.882273197174072266e-02 5.969721451401710510e-02 -1.138452626764774323e-02 -2.372617088258266449e-02 -1.753542572259902954e-02 3.337476029992103577e-02 7.800000905990600586e-02 1.746149174869060516e-02 -4.967012628912925720e-02 -1.130935326218605042e-01 3.997362684458494186e-03 3.485257551074028015e-02 -4.814863670617341995e-03 5.881352815777063370e-03 8.371225744485855103e-02 -1.248547248542308807e-02 6.566350907087326050e-02 -2.502845041453838348e-02 -5.092120915651321411e-02 -2.594825439155101776e-02 3.325418755412101746e-02 6.451531313359737396e-03 -6.865717936307191849e-03 1.656045019626617432e-02 -1.850849837064743042e-01 8.488608151674270630e-02 -1.095957234501838684e-01 -1.124798953533172607e-01 -3.161708265542984009e-02 3.678638860583305359e-02 -1.421547681093215942e-01 4.975054040551185608e-02 3.589571267366409302e-02 -4.864257201552391052e-02 -7.842179387807846069e-02 1.214703638106584549e-02 1.108415946364402771e-01 1.124276593327522278e-01 -6.949099898338317871e-01 -4.642959311604499817e-02 -3.218069970607757568e-01 -1.605258882045745850e-02 -2.714444100856781006e-01 -1.028388887643814087e-01 -1.378984898328781128e-01 -3.488373011350631714e-02 1.085853278636932373e-01 9.796363860368728638e-02 -7.112300395965576172e-02 6.814240477979183197e-03 4.019980877637863159e-02
-5.801404267549514771e-02 -2.060992568731307983e-01 1.042239367961883545e-01 -2.136661857366561890e-02 -5.691414698958396912e-02 -1.587859094142913818e-01 8.457302115857601166e-03 2.004268392920494080e-02 -1.380478292703628540e-01 3.260526955127716064e-01 -9.220793843269348145e-03 -1.721178367733955383e-02 8.184835314750671387e-02 9.573175571858882904e-03 -5.169009417295455933e-02 -1.145984157919883728e-01 -3.325311467051506042e-02 -3.260295838117599487e-02 -1.013366281986236572e-01 -1.955951303243637085e-01 -9.301923215389251709e-02 -1.193244904279708862e-01 9.542418643832206726e-03 1.433177888393402100e-01 -1.252422388643026352e-02 6.159288436174392700e-02 -1.027174293994903564e-01 1.307322457432746887e-02 1.092313602566719055e-02 -3.875632211565971375e-02 -2.001524716615676880e-02 2.339590899646282196e-02 9.044618159532546997e-02 -9.565569460391998291e-02 -7.923383265733718872e-02 -9.930793195962905884e-02 -3.166903927922248840e-02 7.688691467046737671e-02 -1.785974763333797455e-02 9.369282051920890808e-03 8.636016398668289185e-02 3.270941227674484253e-02 -4.495371505618095398e-02 2.084056660532951355e-02 -7.112501561641693115e-02 5.714282020926475525e-02 -4.950037971138954163e-02 5.553932487964630127e-02 -4.173381626605987549e-02 1.193187758326530457e-02 7.483104616403579712e-02 -1.535211354494094849e-01 2.017792128026485443e-02 -4.433244932442903519e-03 -6.617339700460433960e-02 -5.568855255842208862e-02 1.559219211339950562e-01 2.360651493072509766e-01 -9.805683977901935577e-03 -2.213525399565696716e-02 -5.364305898547172546e-02 2.629881203174591064e-01 -5.451368167996406555e-03 1.594616323709487915e-01 8.231892436742782593e-02 -3.885229825973510742e-01 -4.073053598403930664e-03 -4.959455877542495728e-02 -2.203620411455631256e-02 -4.646056331694126129e-04
-4.182061553001403809e-02 -1.154947094619274139e-02 -1.047295853495597839e-01 2.147012948989868164e-01 -1.188455969095230103e-01 -2.441140078008174896e-02 5.349995940923690796e-02 -1.519019007682800293e-01 -5.531118717044591904e-03 -3.261070698499679565e-02 -8.009108155965805054e-02 4.775150865316390991e-02 6.436138600111007690e-02 1.205793842673301697e-01 1.894304342567920685e-02 2.195750921964645386e-02 -1.467785052955150604e-02 9.527174383401870728e-02 -3.675527125597000122e-02 -9.560416452586650848e-03 1.583142280578613281e-01 -9.323543310165405273e-02 2.985581196844577789e-02 -1.929444447159767151e-02 4.196497052907943726e-02 -5.490497127175331116e-02 -8.576143532991409302e-03 -8.002288639545440674e-03 7.264101505279541016e-02 2.737051621079444885e-02 -1.750733703374862671e-01 -8.251681178808212280e-02 -1.973499208688735962e-01 5.851431936025619507e-02 1.705267429351806641e-01 -1.037153676152229309e-01 -2.542203664779663086e-02 3.936015814542770386e-02 1.144637539982795715e-02 4.776918143033981323e-02 -2.886874228715896606e-02 -9.168751537799835205e-02 -9.782971441745758057e-02 -1.097803190350532532e-01 -5.754803773015737534e-03 -1.370448768138885498e-01 -1.503076255321502686e-01 5.861067026853561401e-02 5.389176681637763977e-02 5.380875617265701294e-02 -8.896967768669128418e-02 8.639337867498397827e-02 -1.066261529922485352e-01 -5.651307106018066406e-02 -1.158203482627868652e-01 -5.450833961367607117e-02 4.916951060295104980e-02 7.161390781402587891e-02 -1.248650476336479187e-01 -9.357897192239761353e-02 -1.637783497571945190e-01 -8.141232281923294067e-02 -1.874620653688907623e-02 2.969923913478851318e-01 9.285692870616912842e-02 -7.414977252483367920e-02 1.278762817382812500e-01 1.450522243976593018e-02 8.610622584819793701e-02 3.324602544307708740e-02
-2.415076270699501038e-02 -5.349308624863624573e-02 7.131300866603851318e-02 3.481090366840362549e-01 4.170420020818710327e-02 -4.845522344112396240e-02 2.072207182645797729e-01 8.606734871864318848e-02 1.280865967273712158e-01 -1.024843100458383560e-02 2.156258933246135712e-02 -1.310280151665210724e-02 1.207955833524465561e-02 1.699679344892501831e-02 8.833971619606018066e-02 -1.594863981008529663e-01 3.710193186998367310e-02 2.314454317092895508e-01 3.700208291411399841e-02 -5.695477128028869629e-02 1.850528270006179810e-01 2.788167074322700500e-02 -4.374662041664123535e-02 5.566023290157318115e-02 -5.770567432045936584e-02 9.448160231113433838e-02 3.547861427068710327e-02 -9.488610178232192993e-02 -4.443488642573356628e-02 -6.209171563386917114e-02 -3.757737949490547180e-02 1.130699813365936279e-01 -6.584562361240386963e-02 5.998478271067142487e-03 3.070616424083709717e-01 -1.297856587916612625e-02 3.356067463755607605e-02 -4.066887497901916504e-02 4.698598757386207581e-02 -6.685802340507507324e-02 3.186832368373870850e-02 4.568552970886230469e-02 -1.568155921995639801e-02 -5.743625387549400330e-02 -9.131589531898498535e-02 -5.831510946154594421e-02 -5.767596513032913208e-02 -6.588663160800933838e-02 9.165323525667190552e-02 3.317802771925926208e-02 -5.907651036977767944e-02 1.043732836842536926e-02 1.791446935385465622e-03 -5.773665010929107666e-02 -6.569916009902954102e-02 1.186756566166877747e-01 -5.872964393347501755e-03 3.369191884994506836e-01 1.247593834996223450e-01 -6.430211663246154785e-01 9.311156719923019409e-02 1.638597697019577026e-01 1.177887991070747375e-01 -1.365089267492294312e-01 -5.879991501569747925e-02 -1.584364660084247589e-02 -1.487612165510654449e-02 4.224384576082229614e-02 -1.518616639077663422e-02 -8.796427398920059204e-02
-6.350307166576385498e-02 2.754924260079860687e-02 2.027302682399749756e-01 3.871902450919151306e-02 -2.242929935455322266e-01 -4.380929842591285706e-02 -3.133739531040191650e-01 -2.062241174280643463e-02 7.149433251470327377e-03 8.405041880905628204e-03 -6.512027978897094727e-02 -7.375009357929229736e-03 7.740824669599533081e-02 -6.348674744367599487e-02 3.042697906494140625e-02 -9.713077917695045471e-03 2.517745196819305420e-01 2.687213756144046783e-02 -7.388427853584289551e-02 -2.703690715134143829e-02 -1.786869764328002930e-01 -7.735636085271835327e-02 -1.672405190765857697e-02 3.972442820668220520e-02 -6.707669794559478760e-02 2.279203571379184723e-02 -2.654615417122840881e-02 5.493177846074104309e-02 6.503799557685852051e-02 -1.609059423208236694e-02 9.021112322807312012e-02 -7.419224129989743233e-04 -1.900990158319473267e-01 3.811576962471008301e-02 -2.373943030834197998e-01 1.829155161976814270e-02 1.964871212840080261e-02 -5.148179084062576294e-02 4.701033607125282288e-02 2.004683390259742737e-02 -7.080890983343124390e-02 9.128016233444213867e-02 2.948155440390110016e-02 -6.872222572565078735e-02 2.906223237514495850e-01 -3.595327585935592651e-02 -2.712977826595306396e-01 1.838607154786586761e-02 -1.827720999717712402e-01 1.838195025920867920e-01 -6.421361118555068970e-03 2.404470928013324738e-02 2.808523550629615784e-02 2.526346407830715179e-02 2.274615876376628876e-02 -1.349799241870641708e-02 -6.330750137567520142e-02 6.626406311988830566e-02 3.061244487762451172e-01 -3.066206350922584534e-02 -2.311209142208099365e-01 1.450174674391746521e-02 -3.277880847454071045e-01 -1.099848896265029907e-01 -1.424209098331630230e-03 -2.067995816469192505e-02 5.339450389146804810e-02 -6.093368306756019592e-02 -2.894760109484195709e-03 -6.756164878606796265e-02
-5.747141316533088684e-02 -5.157021880149841309e-01 -9.464763104915618896e-02 -1.628334969282150269e-01 1.084134913980960846e-02 2.724306881427764893e-01 -3.803177550435066223e-02 -1.766546256840229034e-02 -9.292500466108322144e-02 3.938067331910133362e-02 -8.589335530996322632e-02 -2.230237424373626709e-02 8.230552822351455688e-02 3.219775110483169556e-02 3.736772760748863220e-02 -4.068026840686798096e-01 7.097259908914566040e-02 -2.302498668432235718e-01 2.280388399958610535e-02 1.359224468469619751e-01 9.369914978742599487e-02 3.176400810480117798e-02 1.337970942258834839e-01 1.350187789648771286e-02 -6.350667774677276611e-02 -1.886541210114955902e-02 -7.422358542680740356e-02 -4.247403517365455627e-02 -7.631317526102066040e-02 -1.250352412462234497e-01 8.466871082782745361e-02 -1.553487777709960938e-01 -1.317484527826309204e-01 -1.112890169024467468e-01 -1.156823784112930298e-01 5.031905323266983032e-02 1.686619129031896591e-03 -2.546494640409946442e-02 -3.048334084451198578e-02 7.700693607330322266e-02 -3.411708399653434753e-02 5.815476179122924805e-02 3.108344227075576782e-02 3.185643255710601807e-02 -4.802732914686203003e-02 7.803827524185180664e-02 6.869310978800058365e-03 -2.072619497776031494e-01 -4.184219054877758026e-03 1.044861972332000732e-01 3.521995618939399719e-02 -1.306078024208545685e-02 6.268602609634399414e-02 7.648266036994755268e-04 2.096698060631752014e-02 2.160802111029624939e-02 6.781090795993804932e-02 9.879931807518005371e-01 3.479690477252006531e-02 5.065478682518005371e-01 7.566641271114349365e-02 -1.070077791810035706e-01 1.091468427330255508e-02 -1.932200789451599121e-01 -6.800507009029388428e-02 -1.671014353632926941e-02 7.364104688167572021e-02 -1.736215874552726746e-02 8.073633536696434021e-03 -6.942903995513916016e-02
5.183856561779975891e-02 -1.488355696201324463e-01 -1.032073702663183212e-02 -3.891387209296226501e-02 1.400414407253265381e-01 8.270448446273803711e-02 -4.993515461683273315e-02 -7.303940504789352417e-02 -1.991654187440872192e-02 -4.068558663129806519e-02 1.159638836979866028e-01 5.280203744769096375e-02 2.819106914103031158e-02 1.742143332958221436e-01 -3.879669308662414551e-02 -1.064092665910720825e-01 6.622485816478729248e-02 -6.989280879497528076e-02 4.223277792334556580e-02 -7.187323272228240967e-02 3.116359561681747437e-02 9.662263840436935425e-02 1.792087964713573456e-02 2.721160836517810822e-02 6.636915355920791626e-02 -2.759878151118755341e-02 1.036503762006759644e-01 -3.780677169561386108e-02 8.567214012145996094e-03 -1.939278282225131989e-02 4.555899277329444885e-02 1.173472180962562561e-01 -9.303335100412368774e-02 -6.972256302833557129e-02 6.104624643921852112e-02 1.054168939590454102e-01 2.056593634188175201e-02 1.993319392204284668e-02 1.270649880170822144e-01 5.314804613590240479e-03 5.793182572233490646e-05 -7.756216078996658325e-02 -1.459661312401294708e-02 1.024921387434005737e-01 -3.319313377141952515e-02 2.006190270185470581e-02 -1.151257078163325787e-03 -7.838581502437591553e-02 -3.249328583478927612e-02 -2.030729688704013824e-02 -2.162314951419830322e-02 5.711473152041435242e-02 2.001146785914897919e-02 -2.353481054306030273e-01 -4.356281086802482605e-02 -6.670024991035461426e-02 -5.089985672384500504e-03 2.519734799861907959e-01 -1.366100758314132690e-01 -7.341692596673965454e-02 -2.455158717930316925e-02 1.299130022525787354e-01 -1.026408150792121887e-01 1.089997868984937668e-02 -8.210360072553157806e-03 2.879705652594566345e-02 -7.546035340055823326e-04 -2.591628432273864746e-01 -9.215907007455825806e-02 -1.572491824626922607e-01
6.770480424165725708e-02 3.792231902480125427e-02 1.240234300494194031e-01 1.357660591602325439e-01 4.518339410424232483e-03 -5.985483527183532715e-02 -2.702440880239009857e-02 -8.390550315380096436e-02 2.966615557670593262e-02 2.136775292456150055e-02 2.860256098210811615e-02 -1.295680850744247437e-01 6.113075837492942810e-02 4.146060347557067871e-02 5.568926781415939331e-02 -9.451176971197128296e-02 -1.918384805321693420e-02 7.736661285161972046e-02 4.788385331630706787e-02 3.295936435461044312e-02 4.947578161954879761e-02 6.641656160354614258e-02 1.532637625932693481e-01 -8.702307939529418945e-03 -1.412891298532485962e-01 -4.819985106587409973e-02 -7.026889175176620483e-02 -6.007339432835578918e-02 -3.809578716754913330e-02 -8.365309238433837891e-02 1.018924117088317871e-01 -1.715224683284759521e-01 6.989449262619018555e-02 -9.769330918788909912e-02 -3.193599730730056763e-02 -7.712072134017944336e-02 6.577671319246292114e-02 -5.337479710578918457e-02 -8.679795078933238983e-03 1.096176505088806152e-01 -2.008309029042720795e-02 6.004616990685462952e-02 -2.025242149829864502e-02 -3.769187629222869873e-02 5.423301085829734802e-02 1.096089929342269897e-02 -2.500709705054759979e-02 -7.423933595418930054e-02 -2.950554154813289642e-02 1.413129717111587524e-01 1.157635264098644257e-02 1.084046997129917145e-02 -1.340356320142745972e-01 3.241542354226112366e-02 3.375758975744247437e-02 -2.138554491102695465e-02 -6.241238862276077271e-02 1.806754171848297119e-01 6.128578260540962219e-02 -5.063778534531593323e-02 1.521713435649871826e-01 2.007393538951873779e-01 -1.173608843237161636e-02 -4.742391780018806458e-02 1.388443559408187866e-01 2.898507565259933472e-02 -2.023610621690750122e-01 3.751425072550773621e-02 1.223017079610144719e-05 -1.953366585075855255e-02
1.219146884977817535e-02 -3.444731235504150391e-02 -1.522881239652633667e-01 9.912207722663879395e-02 -2.141723036766052246e-01 3.513585403561592102e-02 -2.335880696773529053e-01 -1.086991950869560242e-01 2.200062014162540436e-02 4.982786253094673157e-02 -4.598053917288780212e-02 1.712431013584136963e-02 -5.972063913941383362e-02 1.429342478513717651e-02 -5.753836408257484436e-02 -5.556863173842430115e-02 -3.411157727241516113e-01 4.768056049942970276e-02 -3.329798579216003418e-01 -1.089827120304107666e-01 -6.552772223949432373e-02 -1.140725016593933105e-01 -1.241984516382217407e-01 -6.709281355142593384e-02 7.709661126136779785e-02 -2.649299614131450653e-02 6.821136176586151123e-02 -9.401851147413253784e-02 1.280913352966308594e-01 -3.979630395770072937e-02 -3.506300151348114014e-01 -7.766081392765045166e-02 -4.195770621299743652e-01 -8.213445544242858887e-02 -1.775842346251010895e-02 8.078497648239135742e-02 1.689613424241542816e-02 -3.293282538652420044e-02 -4.552921652793884277e-02 -6.248579546809196472e-02 4.669917374849319458e-02 5.184154212474822998e-02 -3.244359046220779419e-02 -2.098036743700504303e-02 -2.984521389007568359e-01 -2.038784176111221313e-01 -2.951938509941101074e-01 -8.869390003383159637e-03 -1.921723484992980957e-01 7.144884765148162842e-02 2.839305251836776733e-02 4.646990448236465454e-02 1.088586896657943726e-01 1.355597972869873047e-01 -1.350703462958335876e-02 6.930376589298248291e-02 -5.074724555015563965e-02 1.506250798702239990e-01 -2.462950795888900757e-01 1.345640420913696289e-01 -3.550133705139160156e-01 1.637767553329467773e-01 -1.905074268579483032e-01 7.072114199399948120e-02 6.489574164152145386e-02 2.975041279569268227e-03 -1.051875278353691101e-01 -6.399952620267868042e-02 -3.990540653467178345e-02 -4.065479338169097900e-02
-1.183116957545280457e-01 -7.000428438186645508e-02 -8.362364768981933594e-02 -4.577606916427612305e-02 -1.694046892225742340e-02 -5.281108021736145020e-01 -1.402033418416976929e-01 -1.171050742268562317e-01 6.908233463764190674e-02 -9.855335950851440430e-02 -5.650068074464797974e-02 -8.114810287952423096e-02 -7.058038562536239624e-02 -2.627988113090395927e-03 8.503437787294387817e-02 -3.102194517850875854e-02 4.906780645251274109e-02 -9.239108860492706299e-02 -7.675138860940933228e-02 -3.643747866153717041e-01 -1.644566059112548828e-01 1.643073861487209797e-03 -1.302821636199951172e-01 6.649738550186157227e-02 1.739297807216644287e-02 4.008195921778678894e-02 3.572034835815429688e-02 3.672346845269203186e-02 -6.434557028114795685e-03 -2.154839336872100830e-01 9.352102875709533691e-02 -5.477275326848030090e-02 4.658711701631546021e-02 -1.032817587256431580e-01 -8.775246888399124146e-02 -2.659299969673156738e-02 -3.997277095913887024e-02 7.368852943181991577e-02 5.738212168216705322e-02 9.542951732873916626e-02 7.434736192226409912e-02 -4.978862777352333069e-02 7.529540359973907471e-02 -5.627114698290824890e-02 7.146821916103363037e-02 9.127900004386901855e-02 2.091547474265098572e-02 1.767996996641159058e-01 3.801947087049484253e-02 9.134317934513092041e-02 8.847443014383316040e-02 1.172108016908168793e-02 2.901712618768215179e-02 -2.971072867512702942e-02 -5.010914057493209839e-02 5.146350711584091187e-02 -3.597845509648323059e-02 3.789120316505432129e-01 -1.023779436945915222e-01 1.051460430026054382e-01 5.290133133530616760e-02 8.328272104263305664e-01 -1.865788102149963379e-01 4.035248979926109314e-02 1.524099707603454590e-02 -5.364134907722473145e-02 -5.823143571615219116e-02 -2.458167821168899536e-02 9.563685394823551178e-03 -3.332715481519699097e-02
-1.030892729759216309e-01 4.365436732769012451e-01 -1.444865316152572632e-01 -3.840796351432800293e-01 -8.185893297195434570e-02 5.473751947283744812e-02 9.836994856595993042e-02 -2.037606835365295410e-01 -5.921454727649688721e-02 2.214968577027320862e-02 -7.454645633697509766e-02 -3.624276071786880493e-02 4.408869147300720215e-02 7.935424149036407471e-02 1.160321086645126343e-01 1.637695133686065674e-01 -1.078711971640586853e-01 -5.258662998676300049e-02 4.653778299689292908e-02 8.303050696849822998e-02 -5.438108369708061218e-02 3.709155321121215820e-02 1.189585123211145401e-02 1.354366727173328400e-02 6.293203681707382202e-02 -1.200925335288047791e-01 1.597904413938522339e-02 9.395537525415420532e-02 -4.504995420575141907e-02 2.778987586498260498e-02 -9.462516754865646362e-02 -5.534469336271286011e-02 -1.433947086334228516e-01 -3.993478044867515564e-02 1.528238207101821899e-01 -1.068250015377998352e-01 6.614675372838973999e-02 -5.128914862871170044e-02 3.095776028931140900e-02 1.204061973839998245e-02 -4.908277466893196106e-02 -1.710626296699047089e-02 -7.468455284833908081e-02 -1.179104372859001160e-01 -2.751319110393524170e-01 2.065602689981460571e-02 6.196529045701026917e-02 -7.192575931549072266e-02 5.276398733258247375e-02 1.231907531619071960e-01 -9.493695572018623352e-03 -4.237137362360954285e-02 7.907335460186004639e-02 8.983041346073150635e-02 -5.632200092077255249e-02 -3.673239052295684814e-02 1.125798150897026062e-01 -6.179816126823425293e-01 -1.831756979227066040e-01 4.185072779655456543e-01 3.858494758605957031e-02 -1.935578137636184692e-02 5.968570709228515625e-02 1.852645128965377808e-01 -1.013985648751258850e-02 6.020014360547065735e-02 -1.016100347042083740e-01 5.942601710557937622e-02 7.285891473293304443e-02 -1.231530532240867615e-01
6.336129736155271530e-03 6.309615820646286011e-02 -3.479294180870056152e-01 4.344199597835540771e-02 3.535606265068054199e-01 1.532311439514160156e-01 -2.336286306381225586e-01 -1.059038788080215454e-01 -1.225002706050872803e-01 1.241564378142356873e-02 -2.281724661588668823e-02 2.494903281331062317e-02 3.594382479786872864e-02 3.390362858772277832e-02 -1.558802835643291473e-02 1.088969875127077103e-02 -1.800546795129776001e-01 -8.362162113189697266e-02 3.857967257499694824e-01 6.670171022415161133e-02 -1.236267536878585815e-01 9.713486768305301666e-03 5.465410277247428894e-02 1.322853565216064453e-02 -1.977326348423957825e-02 2.837939420714974403e-03 -8.510565757751464844e-02 -7.333304733037948608e-02 5.868601053953170776e-02 2.149606682360172272e-02 -2.139435410499572754e-01 -2.711610496044158936e-02 2.939295470714569092e-01 8.941359072923660278e-02 -1.879647225141525269e-01 -4.370222240686416626e-02 3.723534941673278809e-02 -5.640057101845741272e-02 -7.927419990301132202e-02 -4.391222074627876282e-02 7.291466742753982544e-02 4.900829493999481201e-02 -4.158521443605422974e-02 4.525192081928253174e-02 -3.618005514144897461e-01 -1.012629643082618713e-01 2.465713471174240112e-01 -1.538231503218412399e-02 -6.107572093605995178e-02 -2.062107995152473450e-02 9.879319369792938232e-02 -1.332196500152349472e-02 4.845299944281578064e-02 9.441855549812316895e-02 -2.149528823792934418e-02 -2.017159014940261841e-02 -8.403374813497066498e-03 -1.405410915613174438e-01 -3.648751974105834961e-01 1.643517166376113892e-01 3.813115656375885010e-01 -2.926923036575317383e-01 -2.355673015117645264e-01 1.622685939073562622e-01 -7.304969429969787598e-02 4.393658041954040527e-02 7.408335059881210327e-02 -7.850950211286544800e-02 -2.261760644614696503e-03 1.075308211147785187e-02
1.091880537569522858e-02 -9.480196982622146606e-02 3.204761818051338196e-02 -1.618365794420242310e-01 1.824604906141757965e-02 -1.774287819862365723e-01 2.410487532615661621e-01 -4.405202344059944153e-02 -6.256226450204849243e-02 -3.660226985812187195e-02 -3.735356777906417847e-02 2.325416170060634613e-02 9.744626283645629883e-02 -2.246729843318462372e-02 7.252991199493408203e-02 -3.698834776878356934e-02 -1.086887046694755554e-01 -1.788119524717330933e-01 -1.110019832849502563e-01 5.129884462803602219e-03 1.574311554431915283e-01 -5.130448937416076660e-02 -2.785739488899707794e-02 5.979038402438163757e-02 1.047515198588371277e-01 -5.972786620259284973e-02 -7.341023534536361694e-03 2.909420058131217957e-02 -2.421502396464347839e-02 -1.311609148979187012e-01 -4.255781695246696472e-02 -6.979984790086746216e-02 3.569919615983963013e-02 7.363688200712203979e-02 1.072953045368194580e-01 2.567398920655250549e-02 3.517737984657287598e-02 3.626808524131774902e-02 -1.008937228471040726e-02 5.768710374832153320e-02 -4.279831424355506897e-02 9.229189716279506683e-03 -3.102190233767032623e-02 6.554682552814483643e-02 -1.464187353849411011e-01 5.026191100478172302e-02 5.837699770927429199e-02 6.304313242435455322e-02 1.250495910644531250e-01 2.176419943571090698e-01 -9.210886061191558838e-02 -9.233680367469787598e-02 8.158005774021148682e-02 -4.641217645257711411e-03 -9.975339472293853760e-02 1.549974977970123291e-01 -2.777009457349777222e-02 2.059801518917083740e-01 -8.958246558904647827e-02 7.688196003437042236e-02 -1.301982700824737549e-01 1.850743591785430908e-01 1.559683084487915039e-01 2.195537537336349487e-01 1.260497272014617920e-01 1.050271987915039062e-01 1.125971204601228237e-03 1.854984462261199951e-01 5.118038505315780640e-02 1.493151932954788208e-01
1.292638480663299561e-02 4.295205175876617432e-01 7.658487558364868164e-02 -1.125022396445274353e-01 1.346214115619659424e-01 3.896946609020233154e-01 1.938445419073104858e-01 2.821583114564418793e-02 3.101161681115627289e-02 -6.481819599866867065e-02 -7.439472526311874390e-02 8.857610635459423065e-03 -7.799836248159408569e-02 -2.814607694745063782e-02 -4.378369543701410294e-03 2.538404464721679688e-01 -2.226742357015609741e-02 -4.085143655538558960e-02 -2.103396225720643997e-03 2.390976101160049438e-01 1.474388688802719116e-01 -6.566124502569437027e-03 -4.787503927946090698e-02 5.705825984477996826e-02 4.772307723760604858e-02 2.558686397969722748e-02 1.016231328248977661e-01 7.357626408338546753e-02 -2.032211236655712128e-02 2.214279770851135254e-01 7.153055816888809204e-02 3.944091871380805969e-02 -4.049527272582054138e-02 2.709529548883438110e-02 6.317440420389175415e-02 3.900137171149253845e-02 7.269860804080963135e-02 -9.507064707577228546e-03 3.737822547554969788e-02 -8.650006353855133057e-02 -6.888534873723983765e-02 2.966518700122833252e-02 5.561922118067741394e-02 -7.370618730783462524e-02 -6.216075271368026733e-02 8.150263130664825439e-02 -3.789075464010238647e-02 3.202697262167930603e-02 8.139036595821380615e-02 -3.767849132418632507e-02 -1.213243976235389709e-01 -8.720350451767444611e-04 -6.067134812474250793e-02 1.253935787826776505e-02 6.808555219322443008e-03 -3.725454956293106079e-02 -4.364424943923950195e-02 -8.553113341331481934e-01 -4.854315519332885742e-02 3.118411637842655182e-02 -3.058160096406936646e-02 -7.088755965232849121e-01 1.586943864822387695e-01 -5.880780052393674850e-03 6.005879119038581848e-02 1.786827668547630310e-02 5.515196919441223145e-02 3.980919346213340759e-02 3.471016511321067810e-02 -3.645382076501846313e-02
6.613669544458389282e-02 4.235231876373291016e-01 -1.052096784114837646e-01 -5.599254965782165527e-01 2.155628800392150879e-01 1.081304252147674561e-01 1.179090607911348343e-02 9.045166373252868652e-01 2.407913468778133392e-02 -9.148912504315376282e-03 2.488013170659542084e-02 -2.226844802498817444e-02 -8.703161031007766724e-02 -2.070929668843746185e-02 -3.845646977424621582e-02 2.465057224035263062e-01 -4.661942645907402039e-02 -2.753036320209503174e-01 8.529891073703765869e-02 7.352273911237716675e-02 2.424357831478118896e-02 4.391898512840270996e-01 1.207356527447700500e-01 3.800604492425918579e-02 -2.860198356211185455e-02 -7.522758562117815018e-03 6.496789306402206421e-02 -6.374028511345386505e-03 6.707566976547241211e-02 5.413394421339035034e-02 1.135774105787277222e-01 -1.160351037979125977e-01 2.229218333959579468e-01 5.196654051542282104e-02 -1.822914332151412964e-01 3.603611141443252563e-02 -5.316151678562164307e-02 5.717718973755836487e-02 1.108432114124298096e-01 8.956173807382583618e-02 1.109527871012687683e-01 1.702818833291530609e-02 -3.155831247568130493e-02 -9.295022487640380859e-02 -2.765814401209354401e-02 2.239057272672653198e-01 8.590304106473922729e-02 -6.344445794820785522e-02 -1.494078040122985840e-01 -3.546667993068695068e-01 -8.913700282573699951e-02 -7.669613510370254517e-02 -6.483022868633270264e-02 -3.566079214215278625e-02 -2.602535858750343323e-02 4.000872001051902771e-02 -6.286313384771347046e-02 -6.365342140197753906e-01 -7.943251729011535645e-02 7.720706462860107422e-01 1.217418983578681946e-01 -1.613641381263732910e-01 3.101305104792118073e-02 -1.058556437492370605e+00 -8.896866813302040100e-03 -7.344344630837440491e-03 -3.719690442085266113e-02 -3.149779140949249268e-02 -5.902585387229919434e-02 -2.955836802721023560e-02
8.498547226190567017e-02 -1.117674782872200012e-01 2.066313326358795166e-01 1.590692624449729919e-02 4.799081385135650635e-02 -8.898525498807430267e-03 -1.446618437767028809e-01 -6.901665776968002319e-02 -1.248722001910209656e-01 2.873697876930236816e-02 -9.003604203462600708e-02 -7.185394316911697388e-02 7.404831051826477051e-02 1.200514938682317734e-02 -1.923910342156887054e-02 7.101933658123016357e-02 3.027740120887756348e-01 -1.196658313274383545e-01 -9.374779462814331055e-02 -3.231297433376312256e-02 6.749357283115386963e-02 -8.151765912771224976e-02 3.565278276801109314e-02 -2.435398288071155548e-02 -3.467698767781257629e-02 1.341638341546058655e-02 9.708347916603088379e-02 3.181620314717292786e-02 -5.614572390913963318e-02 4.224918410181999207e-02 2.580040693283081055e-01 -1.731464713811874390e-01 8.464676141738891602e-02 3.936722129583358765e-02 -1.876714266836643219e-02 -2.216837853193283081e-01 -2.838975191116333008e-02 1.601400598883628845e-02 3.578546270728111267e-02 7.946376502513885498e-02 -3.799389302730560303e-02 -1.441456377506256104e-01 2.637282386422157288e-02 -4.159729182720184326e-02 3.099571764469146729e-01 -1.962402909994125366e-01 1.107459440827369690e-01 2.076931484043598175e-02 7.027228921651840210e-02 -3.301774561405181885e-01 3.550349175930023193e-02 3.665556386113166809e-02 -4.453510511666536331e-03 -2.958485484123229980e-02 -3.728007525205612183e-02 -1.073451861739158630e-01 -3.548940271139144897e-02 4.939201474189758301e-02 3.987952172756195068e-01 -4.599866569042205811e-01 1.331780222244560719e-04 -3.153105452656745911e-02 -8.260614238679409027e-03 -3.998014032840728760e-01 5.599357932806015015e-02 4.887560755014419556e-02 3.907399513991549611e-05 1.716681569814682007e-02 -9.588563442230224609e-02 -2.530776858329772949e-01
8.972148597240447998e-02 -2.255094200372695923e-01 -2.501526176929473877e-01 1.631095260381698608e-01 -1.706285923719406128e-01 3.685596585273742676e-01 -7.851364091038703918e-03 3.439604938030242920e-01 -2.487981226295232773e-03 -2.376153692603111267e-02 -1.607313193380832672e-02 3.771828860044479370e-02 2.176170051097869873e-02 1.243304833769798279e-01 -5.355994030833244324e-02 -1.917994767427444458e-01 -2.533039152622222900e-01 2.089178115129470825e-01 -2.914696335792541504e-01 2.401343882083892822e-01 6.812959909439086914e-02 2.748098969459533691e-01 7.176452875137329102e-02 4.387807846069335938e-02 -6.550908833742141724e-02 -4.422048851847648621e-02 1.276052743196487427e-02 9.236490726470947266e-02 -1.158773154020309448e-01 6.451538763940334320e-03 -3.241018652915954590e-01 9.565751254558563232e-02 -1.779281497001647949e-01 6.906125694513320923e-02 1.956833340227603912e-02 -2.215208113193511963e-02 6.188615411520004272e-02 -9.062175452709197998e-02 6.745886802673339844e-02 -2.385681122541427612e-02 3.589615225791931152e-02 -9.206554293632507324e-02 -1.197579782456159592e-02 1.185320019721984863e-01 -1.994658708572387695e-01 -1.488946080207824707e-01 -2.880428135395050049e-01 -2.790389955043792725e-01 1.004479378461837769e-01 -1.026737540960311890e-01 -7.751166075468063354e-02 5.180057510733604431e-02 7.655987143516540527e-02 1.088170558214187622e-01 -1.098318472504615784e-01 -9.551921859383583069e-03 9.749419242143630981e-02 3.023135960102081299e-01 -3.475043475627899170e-01 -3.457282781600952148e-01 -1.325599551200866699e-01 -4.087640047073364258e-01 -1.213160753250122070e-01 -5.108840465545654297e-01 -3.754398599267005920e-02 1.761204935610294342e-02 -6.945570558309555054e-02 -7.693823426961898804e-02 3.718882426619529724e-02 -1.196488663554191589e-01
-6.376659125089645386e-02 4.383851215243339539e-02 4.411378130316734314e-02 -7.324025034904479980e-02 -3.854241594672203064e-02 9.244568645954132080e-03 1.138765662908554077e-01 6.703282147645950317e-02 7.980699837207794189e-02 -4.294674098491668701e-02 1.213690787553787231e-01 -2.987313643097877502e-02 -2.705999836325645447e-02 -9.025948122143745422e-03 -3.248878568410873413e-02 5.889307335019111633e-02 -1.516098976135253906e-01 1.519149821251630783e-02 7.769895344972610474e-02 4.369603842496871948e-02 1.585715077817440033e-02 -4.214396700263023376e-03 -7.898975163698196411e-02 4.234727844595909119e-02 1.333976835012435913e-01 -8.045936003327369690e-03 6.995390355587005615e-02 6.623561680316925049e-02 -2.252369001507759094e-02 -3.455770760774612427e-02 -7.328911870718002319e-02 1.050008926540613174e-02 -8.386632055044174194e-02 9.328766167163848877e-02 -1.070030312985181808e-02 -4.887553304433822632e-02 -1.186690405011177063e-01 2.699824515730142593e-03 1.478434652090072632e-01 -5.797090381383895874e-02 3.601631522178649902e-02 -3.356274962425231934e-02 3.412462025880813599e-02 -4.865619540214538574e-02 -2.025276049971580505e-02 -4.386208206415176392e-02 9.024156630039215088e-02 -5.008354317396879196e-03 -1.028458625078201294e-01 -7.331617176532745361e-02 -6.714147329330444336e-02 5.461587756872177124e-02 -8.307038247585296631e-02 8.305330574512481689e-02 7.346104830503463745e-02 6.984256207942962646e-02 8.473712950944900513e-02 -2.117007598280906677e-02 -1.724200882017612457e-02 9.374015778303146362e-02 1.187142580747604370e-01 -1.433271020650863647e-01 -3.937643766403198242e-02 5.859989672899246216e-02 -4.787656664848327637e-02 -5.658061057329177856e-02 -5.726702138781547546e-02 1.428045704960823059e-02 -1.478661596775054932e-01 -9.286908805370330811e-02
-9.203494526445865631e-03 1.273996289819478989e-02 1.544248685240745544e-02 1.299037486314773560e-01 2.277073077857494354e-02 -2.935137785971164703e-02 -8.805783838033676147e-02 2.624900043010711670e-01 6.376254558563232422e-02 -4.729218780994415283e-02 2.624489367008209229e-02 -2.656809240579605103e-02 -3.083505434915423393e-03 1.128663271665573120e-01 2.132270112633705139e-02 -2.027477473020553589e-01 -3.222303837537765503e-02 1.062921062111854553e-01 -2.636229991912841797e-02 -1.418678909540176392e-01 2.174576371908187866e-02 8.571217954158782959e-02 2.908993698656558990e-02 -7.752782851457595825e-02 -4.952470306307077408e-03 -1.194224432110786438e-01 3.251572325825691223e-02 -5.778947472572326660e-02 -5.236401036381721497e-02 -7.874478399753570557e-02 6.345292925834655762e-02 2.905402518808841705e-02 9.327269345521926880e-02 -1.444635838270187378e-01 8.657781779766082764e-02 3.299115598201751709e-02 -8.283914625644683838e-02 2.593503333628177643e-02 8.077189326286315918e-03 3.866713121533393860e-02 1.639520749449729919e-03 -6.950129568576812744e-02 1.121215447783470154e-01 -7.573732733726501465e-02 8.726113289594650269e-02 -9.127993881702423096e-02 -8.394137257710099220e-04 6.214372068643569946e-02 -8.596561104059219360e-02 -1.004111021757125854e-02 6.040599569678306580e-02 1.324453204870223999e-02 -6.253457977436482906e-04 1.003426387906074524e-01 -1.062574423849582672e-02 -6.137938797473907471e-02 -6.565985083580017090e-02 3.581722974777221680e-01 -8.885537832975387573e-02 -1.535275019705295563e-02 -4.882680997252464294e-02 3.292920589447021484e-01 1.315759122371673584e-01 -4.266290664672851562e-01 -8.267945796251296997e-02 8.808919042348861694e-02 -9.694493375718593597e-03 1.417465601116418839e-02 -1.323109678924083710e-02 7.817976176738739014e-02
9.685587137937545776e-03 -1.026111841201782227e-01 2.394840419292449951e-01 9.421680122613906860e-02 -4.877869412302970886e-02 1.307100988924503326e-02 -6.744051724672317505e-02 6.982596218585968018e-02 1.080904006958007812e-01 1.678150519728660583e-02 3.139254078269004822e-02 -8.330199122428894043e-02 7.442692667245864868e-02 2.997784689068794250e-02 6.726993620395660400e-02 -1.573419384658336639e-02 8.683389425277709961e-02 -4.235094785690307617e-02 1.028001308441162109e-01 -1.223292294889688492e-02 -1.352641135454177856e-01 -3.453322127461433411e-02 -7.564892526715993881e-03 -1.110694333910942078e-01 -7.811097055673599243e-02 9.635739773511886597e-02 6.150686368346214294e-02 5.212562158703804016e-02 -1.026559248566627502e-02 -3.745428286492824554e-03 2.261335253715515137e-01 -1.342584043741226196e-01 -1.797610335052013397e-02 -9.907129220664501190e-03 -9.698719531297683716e-02 2.853725664317607880e-02 1.319723483175039291e-02 4.990398511290550232e-02 -4.467828199267387390e-02 1.247905120253562927e-01 -8.297663182020187378e-02 2.773997187614440918e-02 -1.991192996501922607e-02 1.332483291625976562e-01 1.179924383759498596e-01 -1.121851131319999695e-01 5.250546708703041077e-02 2.243651251774281263e-04 9.072018414735794067e-02 -6.570418179035186768e-02 -8.829186856746673584e-02 9.451560676097869873e-02 7.906565070152282715e-02 5.517688766121864319e-02 -2.406627312302589417e-02 9.751710295677185059e-02 -4.627944529056549072e-02 3.397178649902343750e-01 9.942150115966796875e-02 -4.026135504245758057e-01 -6.824958324432373047e-02 2.359677702188491821e-01 -7.633168995380401611e-02 -5.326735228300094604e-02 5.614862311631441116e-03 9.419856965541839600e-02 -6.109220534563064575e-02 1.024022698402404785e-01 -3.079584240913391113e-02 1.412128359079360962e-01
1.605552621185779572e-03 -4.661048054695129395e-01 7.836432009935379028e-02 -3.565726280212402344e-01 -3.569514304399490356e-02 -1.667289882898330688e-01 -3.991341590881347656e-02 -2.977940998971462250e-02 7.611881941556930542e-02 1.853091455996036530e-02 -1.317307353019714355e-01 1.029711402952671051e-02 -9.943134337663650513e-02 -8.405757695436477661e-02 2.108961343765258789e-02 -2.483660429716110229e-01 7.096609473228454590e-02 -1.386753022670745850e-01 -1.590988412499427795e-02 -2.341663837432861328e-01 -1.285115033388137817e-01 9.895404428243637085e-02 -5.705839954316616058e-03 8.811110258102416992e-02 6.544388085603713989e-02 4.896483197808265686e-02 5.925505887717008591e-03 -1.425982359796762466e-02 -1.248409375548362732e-01 -1.319874227046966553e-01 7.912118732929229736e-02 -4.420915991067886353e-02 -1.079390496015548706e-01 -1.616633087396621704e-01 -1.107418164610862732e-01 7.474613934755325317e-02 -1.341764628887176514e-02 -1.134527176618576050e-01 -2.705578878521919250e-02 -8.253945410251617432e-02 7.828839123249053955e-02 7.651661336421966553e-02 8.307142555713653564e-02 1.368102617561817169e-02 2.155055850744247437e-02 1.164104193449020386e-01 -2.795469015836715698e-02 9.562607854604721069e-02 -5.138668790459632874e-02 7.367423176765441895e-02 8.575166575610637665e-03 -1.045685783028602600e-01 1.816907711327075958e-02 -4.260218888521194458e-02 9.804324805736541748e-02 -5.873882910236716270e-04 1.280468609184026718e-02 8.514812588691711426e-01 2.248211055994033813e-01 4.757530093193054199e-01 -8.691272884607315063e-02 4.553196132183074951e-01 3.527833521366119385e-02 -2.403806298971176147e-01 -6.424104422330856323e-02 1.126822382211685181e-01 6.016505509614944458e-02 6.571449339389801025e-02 -8.684737980365753174e-02 2.666052244603633881e-02
-1.928844489157199860e-02 1.835195571184158325e-01 1.942933537065982819e-02 3.217250481247901917e-02 -6.154855340719223022e-02 -2.605260536074638367e-02 1.000870913267135620e-01 -2.142841182649135590e-02 -8.072602003812789917e-02 1.171076111495494843e-02 -3.601899370551109314e-03 -1.164439097046852112e-01 -4.658121615648269653e-02 -7.115674763917922974e-02 -2.050579758360981941e-03 3.943141549825668335e-02 -6.294822786003351212e-03 8.591887354850769043e-02 6.424897164106369019e-02 9.569521993398666382e-02 -6.568388640880584717e-02 -1.934895664453506470e-02 6.985602527856826782e-02 -2.583137340843677521e-02 -1.617988795042037964e-01 6.702803820371627808e-02 1.051987484097480774e-01 -2.187301777303218842e-02 4.305370151996612549e-02 2.632468193769454956e-02 -4.406443983316421509e-02 -1.148432418704032898e-01 -1.308820992708206177e-01 -1.594920083880424500e-02 4.811437800526618958e-02 -2.703374624252319336e-02 -8.760775625705718994e-02 9.355399757623672485e-03 2.310637198388576508e-02 7.584737241268157959e-02 8.463757112622261047e-03 -1.018110141158103943e-01 -1.150487661361694336e-01 -1.798902638256549835e-02 2.241773903369903564e-02 -1.216351892799139023e-02 3.879811987280845642e-02 -2.478252910077571869e-02 1.225179433822631836e-02 1.895051077008247375e-02 7.860351353883743286e-02 3.742466121912002563e-02 -1.573993116617202759e-01 2.259489893913269043e-01 -9.421757608652114868e-02 1.578129976987838745e-01 9.132733941078186035e-02 -3.124515414237976074e-01 7.731237262487411499e-02 5.439229682087898254e-02 2.488080784678459167e-02 -2.114723250269889832e-02 5.234363561612553895e-05 -7.198192179203033447e-02 3.121780604124069214e-02 -1.264416873455047607e-01 -3.421812877058982849e-02 2.186199873685836792e-01 3.134310618042945862e-02 2.054750025272369385e-01
1.086043776012957096e-03 1.782007515430450439e-01 4.180289059877395630e-02 -7.132868170738220215e-01 1.533706039190292358e-01 -3.607032299041748047e-01 1.022137999534606934e-01 -3.467260897159576416e-01 -3.074950911104679108e-02 3.343334421515464783e-02 -2.199741639196872711e-02 -3.976483363658189774e-03 -9.244765341281890869e-02 -7.107028365135192871e-02 5.404530465602874756e-02 2.116309255361557007e-01 -4.595638066530227661e-02 -4.792481362819671631e-01 8.041507750749588013e-02 -1.109797880053520203e-01 8.681537210941314697e-02 -1.825273036956787109e-01 -1.676524616777896881e-02 9.830486029386520386e-02 5.753547698259353638e-02 -8.738571777939796448e-03 6.637462973594665527e-02 -5.809152126312255859e-02 -7.163781672716140747e-02 1.348891109228134155e-01 -2.414126880466938019e-02 -1.787754334509372711e-02 4.132873192429542542e-02 6.209147721529006958e-02 9.156312048435211182e-02 1.780379936099052429e-02 2.030215226113796234e-02 1.654037460684776306e-02 -7.666498422622680664e-02 -6.270463578402996063e-03 -2.780208364129066467e-03 8.905026316642761230e-02 3.545528277754783630e-02 1.652703736908733845e-03 1.434226334095001221e-01 3.229584991931915283e-01 1.771161891520023346e-02 1.270757168531417847e-01 -3.067864291369915009e-02 1.989525556564331055e-01 -2.061010152101516724e-02 -2.711179666221141815e-02 1.224713325500488281e-01 8.502228558063507080e-02 -2.367109991610050201e-02 7.802069932222366333e-02 -1.875803805887699127e-02 -5.270292758941650391e-01 5.775972083210945129e-02 9.271698594093322754e-01 -2.809196338057518005e-02 3.222761154174804688e-01 1.365940272808074951e-01 3.523378968238830566e-01 5.103963240981101990e-02 -1.247520968317985535e-01 -7.398906350135803223e-02 -6.843807548284530640e-02 6.088462099432945251e-02 -3.808594495058059692e-02
3.846053406596183777e-02 2.979802154004573822e-02 2.070546336472034454e-02 5.077094212174415588e-02 -1.010908260941505432e-01 3.390719369053840637e-02 8.298227936029434204e-02 5.736346542835235596e-02 5.647784098982810974e-02 -2.329583466053009033e-02 -3.202641382813453674e-02 -4.997948184609413147e-02 8.353107422590255737e-02 -5.950042232871055603e-02 6.416743993759155273e-02 -6.469839066267013550e-02 1.156074553728103638e-01 -1.065088063478469849e-01 -1.201994437724351883e-02 1.376482192426919937e-02 1.225960403680801392e-01 -4.422550648450851440e-02 -1.313748806715011597e-01 1.486973091959953308e-02 -2.576539665460586548e-02 2.215914241969585419e-02 4.068789258599281311e-02 5.001206696033477783e-02 4.029146512039005756e-04 -3.288027271628379822e-02 1.714114658534526825e-02 -8.204544335603713989e-02 -1.991017535328865051e-02 -1.055585443973541260e-01 -3.075872920453548431e-02 -1.323274075984954834e-01 1.243805745616555214e-03 1.970903761684894562e-02 1.749998033046722412e-01 5.355172604322433472e-02 -5.075845494866371155e-02 1.046460866928100586e-01 2.491742372512817383e-02 6.229746155440807343e-03 2.264777272939682007e-01 -1.402672529220581055e-01 5.868589505553245544e-02 -4.576365277171134949e-02 -9.041523188352584839e-02 -1.791577935218811035e-01 4.068305343389511108e-02 -7.305898517370223999e-02 -1.454310119152069092e-02 1.393395364284515381e-01 -3.212807327508926392e-02 -7.879363745450973511e-02 -1.289505213499069214e-01 -1.818612068891525269e-01 2.314452081918716431e-01 -2.958912849426269531e-01 3.426551818847656250e-02 -2.181870043277740479e-01 -4.187010228633880615e-02 -2.590530812740325928e-01 -6.488538347184658051e-03 -1.163057759404182434e-01 1.322473287582397461e-01 1.147405579686164856e-01 -3.965191915631294250e-02 4.414010047912597656e-02
2.101774513721466064e-02 3.744938224554061890e-02 1.230264380574226379e-01 -1.412886679172515869e-01 8.226513862609863281e-03 4.532495886087417603e-02 -1.243209466338157654e-01 1.468244567513465881e-02 3.321682289242744446e-02 -8.788824081420898438e-03 9.681902080774307251e-02 2.144399099051952362e-02 -7.216641213744878769e-03 1.994363404810428619e-02 7.949139177799224854e-02 7.045058161020278931e-02 2.151476591825485229e-01 3.436549752950668335e-02 -4.235922545194625854e-02 3.314305096864700317e-02 -2.745088934898376465e-01 -8.103077858686447144e-02 -8.065537363290786743e-02 2.340357936918735504e-02 -9.844454377889633179e-02 -2.641970932018011808e-04 6.885410845279693604e-02 -9.571667760610580444e-02 -3.993454575538635254e-02 -3.508954495191574097e-02 1.372858136892318726e-01 8.979380130767822266e-02 3.626235947012901306e-02 2.860162593424320221e-02 -1.563296616077423096e-01 6.185749545693397522e-02 1.684079878032207489e-02 -3.979204222559928894e-02 3.568584844470024109e-02 9.427148848772048950e-03 2.607915550470352173e-02 9.237186610698699951e-02 -2.113759703934192657e-02 -6.104915402829647064e-03 2.016797214746475220e-01 2.656525075435638428e-01 -3.228155523538589478e-02 -3.454879298806190491e-02 -2.508699297904968262e-01 -1.749176383018493652e-01 -8.953456580638885498e-02 5.677849799394607544e-02 -9.635997563600540161e-02 -4.114435240626335144e-02 3.678987547755241394e-02 -4.499828070402145386e-02 -4.029208794236183167e-02 -6.979267299175262451e-02 1.777953803539276123e-01 -2.430369406938552856e-01 -2.244967967271804810e-02 -7.407698780298233032e-02 -6.182662397623062134e-02 1.818891465663909912e-01 1.174248009920120239e-01 -3.072807937860488892e-02 3.277874365448951721e-02 7.523465901613235474e-03 -1.267025172710418701e-01 3.041305020451545715e-02
-3.461109846830368042e-02 1.306643337011337280e-01 -1.418469697237014771e-01 -4.233519732952117920e-02 9.134998917579650879e-02 9.396584704518318176e-03 7.558144629001617432e-02 -4.843953996896743774e-02 1.077050045132637024e-01 -2.126317098736763000e-02 1.205087080597877502e-01 -4.826252162456512451e-02 9.026432037353515625e-02 -4.522889479994773865e-02 -7.122885901480913162e-03 1.864532008767127991e-02 -1.819024831056594849e-01 2.319884300231933594e-02 -7.207893580198287964e-02 4.896102473139762878e-03 1.029884591698646545e-01 -1.970049366354942322e-02 -4.766179621219635010e-02 1.070218905806541443e-01 -6.436564028263092041e-02 7.226679474115371704e-03 -1.112312674522399902e-01 -2.533047646284103394e-02 6.607022881507873535e-02 -3.852633386850357056e-02 -2.746501564979553223e-01 4.295653849840164185e-02 -1.187909301370382309e-02 -4.356566444039344788e-02 2.392956800758838654e-02 3.475020453333854675e-02 -1.267769280821084976e-02 -6.067444756627082825e-02 -8.707103133201599121e-02 5.994074512273073196e-03 2.316296286880970001e-02 -5.269560217857360840e-02 -7.234086096286773682e-02 -1.538619995117187500e-01 -7.818105071783065796e-02 6.295415759086608887e-02 2.926816046237945557e-02 3.080835752189159393e-02 4.859835281968116760e-02 5.647182092070579529e-02 -5.648543313145637512e-02 -1.838073693215847015e-02 1.102341711521148682e-01 -1.267454624176025391e-01 3.133239597082138062e-02 -1.110504791140556335e-01 4.780155420303344727e-02 -3.289410173892974854e-01 -1.389325410127639771e-01 5.471313595771789551e-01 -5.815265700221061707e-02 -2.421460300683975220e-01 5.078173801302909851e-02 3.579184785485267639e-02 -2.393120527267456055e-02 -1.596045494079589844e-01 -1.942859380505979061e-04 -1.508913785219192505e-01 -3.126936778426170349e-02 -1.350901126861572266e-01
-1.000506058335304260e-02 -1.042521074414253235e-01 6.472662836313247681e-02 -9.262350201606750488e-02 2.588445842266082764e-01 -1.253678090870380402e-02 1.810493171215057373e-01 -4.752913489937782288e-02 -8.850476145744323730e-02 2.922110259532928467e-03 8.908335119485855103e-02 -4.671904444694519043e-02 -2.570766210556030273e-02 -5.874967202544212341e-02 -2.419110387563705444e-05 -6.142569333314895630e-02 2.531383931636810303e-01 7.371888309717178345e-02 2.076799869537353516e-01 1.459829416126012802e-02 8.174896240234375000e-02 3.087117150425910950e-02 1.933186873793601990e-02 -2.529705315828323364e-02 -1.162114515900611877e-01 1.588641665875911713e-02 1.005788743495941162e-01 5.812502279877662659e-02 -5.305055156350135803e-02 -1.137951314449310303e-01 2.795977294445037842e-01 -8.400920033454895020e-02 2.237774431705474854e-01 -8.130931854248046875e-02 2.202653139829635620e-01 -1.029422599822282791e-02 8.312314003705978394e-02 -2.006247267127037048e-02 -4.553581029176712036e-02 5.167844146490097046e-02 -9.947556257247924805e-02 -2.843715623021125793e-02 6.486488878726959229e-02 1.009609401226043701e-01 1.406357139348983765e-01 7.565521448850631714e-02 2.093268632888793945e-01 -6.658328324556350708e-02 1.995892226696014404e-01 1.013140194118022919e-02 -1.223272681236267090e-01 9.054286777973175049e-02 9.023845940828323364e-02 5.349591746926307678e-02 -8.572057634592056274e-02 -3.346742317080497742e-02 -1.401622663252055645e-03 1.791054904460906982e-01 2.659375071525573730e-01 3.106292523443698883e-02 4.742872714996337891e-02 1.467624455690383911e-01 2.145060151815414429e-01 1.787777431309223175e-02 1.125612482428550720e-01 -4.860101267695426941e-02 -1.534766517579555511e-02 -7.389876991510391235e-02 1.125952973961830139e-01 6.193856149911880493e-02
4.611981101334095001e-03 5.334712914191186428e-04 -1.188468486070632935e-01 -1.693159155547618866e-02 -5.943462252616882324e-02 3.833344206213951111e-02 -1.220385506749153137e-01 -6.071002781391143799e-02 -1.923900656402111053e-02 -1.508095674216747284e-02 7.526985555887222290e-02 -8.470037579536437988e-02 2.191966399550437927e-02 -4.631134495139122009e-02 -4.661827534437179565e-02 -6.121593993157148361e-03 -1.441785097122192383e-01 9.505760669708251953e-02 -1.082047298550605774e-01 -3.982176259160041809e-02 2.995024435222148895e-02 3.113802336156368256e-02 4.301141202449798584e-02 9.786017239093780518e-03 -1.062174960970878601e-01 3.932417184114456177e-02 -9.344904124736785889e-02 9.015099704265594482e-02 1.540481448173522949e-01 1.415027957409620285e-02 4.365937784314155579e-02 1.140135303139686584e-01 5.340563133358955383e-02 -2.334556728601455688e-02 5.428006872534751892e-02 -1.731251180171966553e-02 -1.593585908412933350e-01 6.625799089670181274e-02 1.802778244018554688e-02 4.742937162518501282e-02 3.025464899837970734e-02 -3.122763708233833313e-02 -5.185421556234359741e-02 2.683933265507221222e-02 -4.057932272553443909e-02 1.360733807086944580e-01 2.597212605178356171e-02 -3.526785597205162048e-02 -4.862195998430252075e-02 1.921974569559097290e-01 4.317318275570869446e-02 5.755426734685897827e-02 5.383334308862686157e-02 1.998699009418487549e-01 -1.565694622695446014e-02 -1.202245354652404785e-01 -5.920945852994918823e-02 -1.495019495487213135e-01 -9.390166401863098145e-02 2.431852668523788452e-01 3.754694387316703796e-02 -2.820186018943786621e-01 -7.611273974180221558e-02 2.607663571834564209e-01 2.955031953752040863e-02 1.812913417816162109e-01 3.417570143938064575e-02 2.646114230155944824e-01 5.716760456562042236e-02 -1.450673490762710571e-01
-2.698822505772113800e-02 4.785572737455368042e-02 -2.502700872719287872e-02 -5.752724409103393555e-02 -6.889369338750839233e-02 -5.759764090180397034e-02 2.393856197595596313e-01 9.687727689743041992e-02 -8.602639660239219666e-03 -2.675197646021842957e-02 9.605837054550647736e-03 7.040675729513168335e-02 1.720649190247058868e-02 -4.856676980853080750e-02 1.280611660331487656e-02 2.356126159429550171e-02 -7.215091492980718613e-03 2.566450973972678185e-03 -5.670500919222831726e-02 -4.507407546043395996e-02 2.342250943183898926e-02 -2.406931668519973755e-02 -5.423981696367263794e-02 1.956283301115036011e-02 -2.689881995320320129e-02 -1.163289621472358704e-01 2.519298717379570007e-02 -2.084065601229667664e-02 6.462197285145521164e-03 5.573587492108345032e-03 -1.351871639490127563e-01 -1.089512482285499573e-01 2.620442770421504974e-02 -2.232980877161026001e-01 1.012178659439086914e-01 6.850343942642211914e-02 1.226753555238246918e-02 -5.429915338754653931e-02 -2.894025854766368866e-02 1.074622385203838348e-02 -1.486481428146362305e-01 3.075743466615676880e-02 5.764984060078859329e-03 2.177418619394302368e-01 -1.033369824290275574e-01 -2.143481187522411346e-02 -9.735887497663497925e-02 -3.075408339500427246e-01 2.688569575548171997e-02 -1.275827288627624512e-01 4.450216516852378845e-02 1.628033071756362915e-01 -7.436591386795043945e-02 1.590110175311565399e-02 5.115028098225593567e-02 -8.131582289934158325e-02 1.818065997213125229e-03 2.718685269355773926e-01 -1.264142245054244995e-01 7.860518246889114380e-02 4.714991524815559387e-02 -4.546782374382019043e-01 9.493725001811981201e-02 -1.056782230734825134e-01 4.409223422408103943e-02 6.911566108465194702e-02 9.853509813547134399e-02 -1.223307847976684570e-01 5.555124580860137939e-02 -1.459731254726648331e-02
8.419536054134368896e-02 -1.501975357532501221e-01 -2.705140113830566406e-01 3.951163887977600098e-01 -1.951403729617595673e-02 -1.048816815018653870e-01 -1.710873795673251152e-03 -3.006250262260437012e-01 -4.820479452610015869e-02 -7.170245051383972168e-02 -9.250833652913570404e-03 -1.380463242530822754e-01 1.730638369917869568e-02 -1.870634406805038452e-01 8.355630934238433838e-02 -8.607383072376251221e-02 -2.143261134624481201e-01 9.355629235506057739e-02 2.264144644141197205e-02 -3.584069386124610901e-02 1.507193148136138916e-01 -1.275002956390380859e-01 8.865167200565338135e-02 -5.539521574974060059e-02 -1.096557900309562683e-01 -9.660129249095916748e-02 6.781252473592758179e-02 2.949207648634910583e-02 -3.787571191787719727e-02 -1.029197219759225845e-02 -2.506058812141418457e-01 -1.166008934378623962e-01 -3.796113654971122742e-02 7.421270757913589478e-02 1.052657067775726318e-01 4.673069342970848083e-03 -1.113207824528217316e-02 -7.253615558147430420e-02 6.361163407564163208e-02 5.570314452052116394e-02 -8.043677359819412231e-02 -7.070162147283554077e-02 -7.211787253618240356e-02 1.100448518991470337e-01 -1.639689505100250244e-01 -1.676708012819290161e-01 3.632473945617675781e-02 1.157762557268142700e-01 1.697153598070144653e-01 1.776028871536254883e-01 -2.654166519641876221e-02 7.945876568555831909e-02 3.051909990608692169e-02 1.234838962554931641e-01 4.518687352538108826e-02 4.232434928417205811e-02 -6.528943777084350586e-02 3.110988140106201172e-01 -2.260761559009552002e-01 -2.997189462184906006e-01 9.396534413099288940e-03 -8.467159420251846313e-02 -1.727638952434062958e-02 2.793069183826446533e-01 2.663769572973251343e-02 1.188594922423362732e-01 1.657423190772533417e-02 6.169924139976501465e-02 -7.295572012662887573e-02 1.874056607484817505e-01
-5.791224166750907898e-02 -1.124516874551773071e-01 -7.465003430843353271e-02 -6.668877601623535156e-01 8.246701955795288086e-02 2.944574654102325439e-01 1.327710300683975220e-01 6.181941553950309753e-02 -9.512011706829071045e-02 -4.340588301420211792e-02 5.978812277317047119e-02 -1.059641502797603607e-02 -9.428638964891433716e-02 3.749421238899230957e-02 6.296697258949279785e-02 1.495697814971208572e-02 5.529245361685752869e-02 -4.379891455173492432e-01 1.597077101469039917e-01 8.125673979520797729e-02 1.267316788434982300e-01 9.244009107351303101e-02 3.661614144220948219e-03 -4.133747890591621399e-02 2.681658044457435608e-02 -6.626013666391372681e-02 -1.769101060926914215e-02 3.723115101456642151e-02 -6.094826757907867432e-02 -8.689596503973007202e-02 -8.878337591886520386e-02 -1.716404855251312256e-01 3.592781722545623779e-02 7.385867089033126831e-02 2.923291027545928955e-01 -3.966305032372474670e-02 6.452074646949768066e-02 9.122611582279205322e-02 -1.182879805564880371e-01 1.038956791162490845e-01 -1.560071762651205063e-02 -1.291567236185073853e-01 8.718463778495788574e-02 9.093675762414932251e-02 2.976175397634506226e-02 2.221767157316207886e-01 2.012841217219829559e-02 -1.324186474084854126e-01 1.442923992872238159e-01 3.542326763272285461e-02 -1.533083897083997726e-02 -2.876910008490085602e-02 9.309659153223037720e-02 8.806959725916385651e-03 4.866510257124900818e-02 3.621235862374305725e-02 -3.767020255327224731e-02 9.610496461391448975e-02 2.060034871101379395e-02 1.070915102958679199e+00 -7.285192608833312988e-02 -3.167884051799774170e-01 2.985990047454833984e-01 -1.524454951286315918e-01 4.679039865732192993e-02 2.111194655299186707e-02 -4.430029168725013733e-02 -3.523058071732521057e-02 7.982564717531204224e-02 1.904799975454807281e-02
-2.081293053925037384e-02 -4.063480198383331299e-01 -4.960139393806457520e-01 -3.034631013870239258e-01 6.580655276775360107e-02 2.019144892692565918e-01 5.726534500718116760e-02 -2.756889164447784424e-02 7.654944807291030884e-02 -2.389785461127758026e-02 9.676116704940795898e-02 -4.604812338948249817e-02 -1.236073672771453857e-02 4.968051612377166748e-02 1.044331640005111694e-01 -3.207162618637084961e-01 -4.107641875743865967e-01 2.597304061055183411e-02 5.822205170989036560e-02 1.175002977252006531e-01 -2.441560791339725256e-04 -1.700783073902130127e-01 -4.980267956852912903e-02 7.269429415464401245e-02 2.814215980470180511e-02 -2.876380085945129395e-02 1.000819653272628784e-01 -3.782388567924499512e-02 -4.136074706912040710e-02 -2.293750792741775513e-01 -3.623614013195037842e-01 1.061574369668960571e-01 2.784407464787364006e-03 -9.958875365555286407e-03 -4.484261572360992432e-02 9.285249561071395874e-02 7.329022139310836792e-02 -2.069403044879436493e-02 -4.529590532183647156e-02 -4.043284431099891663e-02 -7.677809894084930420e-02 3.425773233175277710e-02 -3.869594633579254150e-02 1.516797244548797607e-01 -4.736861288547515869e-01 9.790159761905670166e-02 -5.895939469337463379e-02 4.763082042336463928e-02 -1.681549288332462311e-02 4.628337919712066650e-02 -5.132074654102325439e-02 6.512292660772800446e-03 -8.916042745113372803e-02 4.325452446937561035e-02 -7.540062069892883301e-02 -6.576628983020782471e-02 -6.220149807631969452e-04 8.120673298835754395e-01 -4.739209115505218506e-01 6.426637619733810425e-02 -1.993381977081298828e-02 -3.569054305553436279e-01 -6.011692807078361511e-02 6.404281407594680786e-02 -5.408769100904464722e-02 -3.482837975025177002e-02 1.300221402198076248e-02 7.224636524915695190e-02 6.921317428350448608e-02 1.886911503970623016e-02
-4.853728692978620529e-03 4.657684266567230225e-01 1.671499162912368774e-01 3.348386883735656738e-01 -2.719251811504364014e-01 -1.498778443783521652e-02 -5.044787749648094177e-02 -3.996279239654541016e-01 -6.434562802314758301e-02 -1.935431547462940216e-02 5.040387809276580811e-02 2.395595237612724304e-02 9.078103303909301758e-02 1.731434487737715244e-03 -1.397551223635673523e-02 4.128838181495666504e-01 2.219655923545360565e-02 1.035634279251098633e-01 -3.450309634208679199e-01 1.113918200135231018e-01 5.145484581589698792e-02 -1.339548379182815552e-01 -3.600982576608657837e-02 3.999299928545951843e-02 1.173447258770465851e-02 5.345834419131278992e-02 -5.437760800123214722e-02 -3.106831945478916168e-02 9.070082753896713257e-02 3.872545808553695679e-02 1.844904124736785889e-01 1.605081856250762939e-01 -2.283665388822555542e-01 2.379961311817169189e-02 1.201112344861030579e-01 3.622801974415779114e-02 1.013270393013954163e-01 -9.478087723255157471e-02 -4.436519742012023926e-02 -3.261489793658256531e-02 -5.806739255785942078e-02 -1.234004832804203033e-02 -4.171896353363990784e-02 -2.011234015226364136e-01 6.085783615708351135e-02 -1.123792305588722229e-01 -3.737905621528625488e-01 9.107681689783930779e-04 -1.783173903822898865e-02 1.570028662681579590e-01 1.354714576154947281e-02 6.071088090538978577e-02 -1.185716241598129272e-01 -9.046686440706253052e-02 -6.026365980505943298e-02 7.200712710618972778e-02 -3.061275184154510498e-02 -7.294180393218994141e-01 -2.841884829103946686e-02 -5.006519556045532227e-01 -3.714641928672790527e-01 -1.268467456102371216e-01 1.075139152817428112e-03 3.521461784839630127e-01 -2.026907913386821747e-02 1.456800755113363266e-02 1.124972403049468994e-01 4.250340163707733154e-02 8.096066117286682129e-02 -3.056303411722183228e-02
-4.734196513891220093e-02 -1.702813059091567993e-02 -4.713543951511383057e-01 -1.159016266465187073e-01 3.900124728679656982e-01 1.714494824409484863e-01 3.653094768524169922e-01 1.053145453333854675e-01 6.496626138687133789e-02 -1.787857338786125183e-02 -1.541699916124343872e-01 3.927739709615707397e-02 6.317243445664644241e-03 -1.356465648859739304e-02 5.677389726042747498e-02 -9.764917194843292236e-02 -4.333827495574951172e-01 1.765611022710800171e-02 3.567370474338531494e-01 -1.184768825769424438e-01 2.210757434368133545e-01 1.549768820405006409e-02 -7.057095319032669067e-02 5.058376863598823547e-02 5.362479016184806824e-02 -2.302771434187889099e-02 -2.812148258090019226e-02 2.037792182818520814e-05 1.074974685907363892e-01 -9.892265498638153076e-02 -3.605693876743316650e-01 -2.571246400475502014e-02 4.545051157474517822e-01 -9.810723364353179932e-03 4.259985983371734619e-01 -4.367077723145484924e-02 1.853493601083755493e-02 -6.423418968915939331e-02 5.040935799479484558e-02 -3.769733011722564697e-02 6.707644462585449219e-02 6.580077856779098511e-02 -9.688682109117507935e-02 1.476363837718963623e-02 -4.203985929489135742e-01 1.752891540527343750e-01 2.539881765842437744e-01 -1.852753385901451111e-02 3.860943913459777832e-01 -2.046577632427215576e-01 -5.483858287334442139e-03 4.720568656921386719e-02 2.947921119630336761e-02 7.325862348079681396e-02 6.511459499597549438e-02 -5.108822509646415710e-02 -1.913691870868206024e-02 1.987841278314590454e-01 -3.507468402385711670e-01 -4.954117164015769958e-02 3.824521303176879883e-01 -1.855671778321266174e-02 2.614815235137939453e-01 1.269998997449874878e-01 -2.017982490360736847e-02 -1.339954975992441177e-02 2.673672325909137726e-02 -5.564636737108230591e-02 -1.091277971863746643e-01 1.330304308794438839e-03
-1.648094691336154938e-02 -2.801321633160114288e-02 2.131219357252120972e-01 5.246271193027496338e-02 1.491892486810684204e-01 7.495810277760028839e-03 -3.068090677261352539e-01 -1.645310074090957642e-01 7.785344123840332031e-02 -7.534132897853851318e-02 -5.591873079538345337e-02 4.254818707704544067e-02 8.073414862155914307e-02 2.603238448500633240e-02 2.359761483967304230e-02 -5.442731082439422607e-02 3.552581965923309326e-01 3.295094519853591919e-02 -2.172456122934818268e-02 1.213220134377479553e-02 -2.198062390089035034e-01 1.402316093444824219e-01 8.184976875782012939e-02 6.780706346035003662e-02 8.693776279687881470e-02 -6.759265065193176270e-02 -6.744622718542814255e-03 -1.725308969616889954e-02 -6.419704854488372803e-02 -1.204342115670442581e-02 2.931572198867797852e-01 -1.758420094847679138e-02 6.590422242879867554e-02 -1.154847517609596252e-01 -2.123215347528457642e-01 1.624332815408706665e-01 -8.066688477993011475e-02 5.673865228891372681e-02 2.167747914791107178e-02 9.837394207715988159e-02 -9.399997070431709290e-03 -7.139188796281814575e-02 3.026468306779861450e-02 2.041770517826080322e-02 2.889372110366821289e-01 -3.779098764061927795e-02 5.232451483607292175e-02 1.456651650369167328e-02 -3.846273422241210938e-01 1.426924020051956177e-02 -6.163547560572624207e-02 -4.635954648256301880e-02 -6.038940325379371643e-02 -4.070675373077392578e-02 2.870619064196944237e-03 5.839638039469718933e-02 2.588584646582603455e-02 7.320295274257659912e-02 1.568971276283264160e-01 -3.213442862033843994e-02 1.313762962818145752e-01 8.242502808570861816e-02 -1.918077468872070312e-01 -1.532075554132461548e-01 -1.807031035423278809e-02 -2.081952057778835297e-03 -3.827512846328318119e-04 -3.358576074242591858e-02 -6.476795673370361328e-02 3.554301336407661438e-03
7.213950157165527344e-02 -4.113925248384475708e-02 1.150239165872335434e-02 5.037887766957283020e-02 1.219294220209121704e-01 1.960469968616962433e-02 -6.085438188165426254e-03 -4.188327863812446594e-02 -3.258913382887840271e-02 3.712681354954838753e-03 1.625656336545944214e-02 -3.097385913133621216e-02 2.243969962000846863e-02 -5.517963320016860962e-02 1.778672263026237488e-02 5.295577645301818848e-02 -6.699832528829574585e-02 -5.102358013391494751e-02 8.554465137422084808e-03 -1.502541825175285339e-02 9.613801725208759308e-03 -2.918911725282669067e-02 4.639800637960433960e-02 -1.410279143601655960e-02 -6.467989832162857056e-02 2.779422886669635773e-02 8.093283325433731079e-02 5.582256242632865906e-02 7.935248315334320068e-03 -8.646736294031143188e-02 -2.107288092374801636e-01 8.810829371213912964e-02 -6.816225498914718628e-02 -2.239243872463703156e-02 -6.501861661672592163e-02 -1.581185311079025269e-01 -2.557300589978694916e-02 4.092398658394813538e-02 5.115148052573204041e-02 -8.980883657932281494e-02 -1.787758059799671173e-02 1.045098528265953064e-01 -9.453771263360977173e-02 -6.460010260343551636e-02 -1.550862342119216919e-01 6.887806951999664307e-02 5.097120627760887146e-02 -1.268732100725173950e-01 -3.294148296117782593e-02 -1.806176602840423584e-01 -1.868648827075958252e-02 -1.961828209459781647e-02 2.992430515587329865e-02 1.803198643028736115e-02 -2.279041148722171783e-02 2.556521594524383545e-01 -1.195057178847491741e-03 -2.909976541996002197e-01 -4.895416647195816040e-02 2.489119321107864380e-01 1.172793433070182800e-01 -3.223071098327636719e-01 5.467997491359710693e-02 -4.765242338180541992e-01 9.162271395325660706e-03 1.219188496470451355e-01 9.217645972967147827e-03 -1.319640129804611206e-01 -6.395411491394042969e-02 3.267742395401000977e-01
2.055637538433074951e-03 -1.036671828478574753e-02 -4.966495325788855553e-04 -1.957814581692218781e-02 1.199008664116263390e-03 1.772906258702278137e-02 -2.458169311285018921e-02 3.940906748175621033e-02 -1.373203005641698837e-02 5.303955078125000000e-02 8.813563734292984009e-02 1.154680550098419189e-01 -1.014731526374816895e-01 1.949787326157093048e-02 -9.293047711253166199e-03 1.589016988873481750e-02 1.066328138113021851e-01 -7.569602876901626587e-02 9.897905588150024414e-02 -7.220598310232162476e-02 5.279094725847244263e-02 1.513589173555374146e-02 -2.751510031521320343e-02 -8.762348443269729614e-02 5.241547711193561554e-03 -1.339531689882278442e-01 -6.641114503145217896e-02 -2.939282730221748352e-02 2.376752160489559174e-02 -4.904587566852569580e-02 1.720856875181198120e-01 -9.197700023651123047e-02 -2.126032300293445587e-02 8.491063863039016724e-02 -6.324578821659088135e-02 -5.409992113709449768e-02 1.181697472929954529e-01 2.798587642610073090e-02 -4.242224618792533875e-03 2.583420649170875549e-02 4.728281497955322266e-02 -7.806909852661192417e-04 2.227254956960678101e-02 3.395455330610275269e-02 7.693859934806823730e-02 -1.273182928562164307e-01 -5.022221803665161133e-02 3.197265043854713440e-02 9.048699587583541870e-02 -1.192689239978790283e-01 -5.409072339534759521e-02 -1.572206467390060425e-01 -1.038868427276611328e-01 -1.921360045671463013e-01 1.128296628594398499e-01 9.304064512252807617e-02 -4.020198807120323181e-02 1.231400147080421448e-01 -3.094759769737720490e-03 -2.533883750438690186e-01 2.169642597436904907e-02 2.773098349571228027e-01 1.059805154800415039e-01 -2.850794494152069092e-01 3.952879458665847778e-02 -1.342501193284988403e-01 -6.005207449197769165e-02 -2.791512608528137207e-01 8.151454851031303406e-03 1.681149154901504517e-01
1.045067012310028076e-01 3.567633405327796936e-02 -4.533479809761047363e-01 -1.445520762354135513e-02 6.724177300930023193e-02 -6.228326261043548584e-02 -3.390562534332275391e-02 1.455055475234985352e-01 1.668235845863819122e-02 -8.072694763541221619e-03 -2.374238334596157074e-02 1.242226921021938324e-02 -7.850985229015350342e-02 5.951424129307270050e-03 -6.129644066095352173e-02 -8.241525292396545410e-02 -3.468451797962188721e-01 -3.964811936020851135e-02 -5.366735905408859253e-02 -4.754683747887611389e-02 1.682478785514831543e-01 -1.143055316060781479e-02 7.050666213035583496e-02 -6.388246268033981323e-02 -1.917463913559913635e-02 3.345144912600517273e-02 1.231881696730852127e-02 6.413985788822174072e-02 4.616682976484298706e-02 -6.386052072048187256e-02 -4.730760157108306885e-01 1.217590942978858948e-01 -1.695989072322845459e-02 1.020054072141647339e-01 9.991810470819473267e-02 -4.377539083361625671e-02 4.981658421456813812e-03 5.623000487685203552e-02 -4.679386969655752182e-03 2.389305643737316132e-02 -9.146633744239807129e-02 -1.360474973917007446e-01 -6.935314089059829712e-02 -2.243143022060394287e-01 -3.411612510681152344e-01 1.782919466495513916e-01 1.149936616420745850e-01 1.790018528699874878e-01 1.390853226184844971e-01 -2.743561565876007080e-01 -8.959550410509109497e-02 9.555078297853469849e-02 7.925959676504135132e-02 -5.365238711237907410e-02 1.000734865665435791e-01 1.527333538979291916e-02 -1.930915191769599915e-02 -3.635430932044982910e-01 -3.798974454402923584e-01 4.456697702407836914e-01 1.341860592365264893e-01 2.343543618917465210e-02 7.055080682039260864e-02 -5.038478374481201172e-01 5.105539783835411072e-02 -5.417548120021820068e-02 -5.678258091211318970e-02 7.903553545475006104e-02 5.581097677350044250e-02 -1.707772463560104370e-01
9.888578206300735474e-02 1.418430060148239136e-01 2.782236039638519287e-01 5.715009756386280060e-03 3.551797568798065186e-01 -3.448615595698356628e-02 1.260303705930709839e-01 4.211733862757682800e-02 1.422895044088363647e-01 -1.513839792460203171e-02 -4.732252284884452820e-02 6.875182967633008957e-03 -8.558101952075958252e-02 -4.135946929454803467e-02 -4.604274034500122070e-02 -7.063403725624084473e-02 3.146297633647918701e-01 -6.893848534673452377e-03 3.556195497512817383e-01 1.225773468613624573e-01 1.361769586801528931e-01 3.782482072710990906e-02 -4.164906963706016541e-02 -1.956918276846408844e-02 -7.890111953020095825e-02 -3.721874905750155449e-03 -9.253787994384765625e-02 4.942570999264717102e-02 -4.533519595861434937e-02 2.844159677624702454e-02 3.180433511734008789e-01 -1.075322479009628296e-01 2.509098649024963379e-01 -9.182085096836090088e-02 9.130408987402915955e-03 -3.820723667740821838e-02 -1.987270545214414597e-03 3.157696127891540527e-02 3.700922429561614990e-02 -3.072956949472427368e-02 -2.982668206095695496e-02 4.487497732043266296e-02 7.301139086484909058e-02 -4.399439319968223572e-02 3.650912940502166748e-01 -3.956437855958938599e-02 3.784443438053131104e-01 -2.501585707068443298e-02 1.493626385927200317e-01 -3.987244889140129089e-02 -5.688480660319328308e-02 -1.677957363426685333e-02 7.474759221076965332e-02 -3.212715312838554382e-02 6.929563730955123901e-02 -6.356925237923860550e-03 -7.967980206012725830e-02 -5.538241565227508545e-02 3.047868609428405762e-01 1.507987678050994873e-01 3.401943445205688477e-01 2.965180389583110809e-02 1.617475971579551697e-02 -1.521755242720246315e-03 -5.221685767173767090e-02 2.071896940469741821e-02 1.759662479162216187e-02 5.965923890471458435e-02 1.368554979562759399e-01 -4.679807648062705994e-02
-1.063690241426229477e-02 3.849263489246368408e-02 -1.343442946672439575e-01 6.904931068420410156e-01 1.511966139078140259e-01 1.442013382911682129e-01 -7.202161103487014771e-02 -2.336650043725967407e-01 1.328840479254722595e-02 2.025886438786983490e-02 6.483019143342971802e-02 3.116431273519992828e-02 -9.583660960197448730e-02 1.982813701033592224e-02 -2.703058533370494843e-02 8.114299178123474121e-02 -1.157843619585037231e-01 3.914391398429870605e-01 5.706420913338661194e-02 -1.386390533298254013e-02 -1.187190711498260498e-01 -1.141326501965522766e-01 2.985021844506263733e-02 -6.760993599891662598e-02 7.570229005068540573e-03 3.080190159380435944e-03 1.010754611343145370e-02 1.200561895966529846e-01 9.125058352947235107e-02 3.085816651582717896e-02 -1.113006100058555603e-01 1.956910081207752228e-02 3.299873694777488708e-02 -7.373857498168945312e-02 5.766810104250907898e-02 -4.682176187634468079e-02 6.323520210571587086e-04 4.423647373914718628e-02 -1.409393399953842163e-01 -1.994017325341701508e-02 5.198112502694129944e-02 3.052607923746109009e-02 1.541861426085233688e-02 4.773606359958648682e-02 5.361057817935943604e-03 -3.669759929180145264e-01 9.008756279945373535e-02 1.614750549197196960e-02 -5.381011869758367538e-03 1.815404891967773438e-01 -7.544071972370147705e-02 -5.698535963892936707e-02 3.243931382894515991e-02 5.627372115850448608e-02 5.916701257228851318e-02 -1.173272356390953064e-01 -6.049018725752830505e-02 -2.387189269065856934e-01 2.360142208635807037e-02 -8.415333032608032227e-01 9.068489819765090942e-02 -3.568426519632339478e-02 2.963673789054155350e-03 2.249265015125274658e-01 2.753195725381374359e-02 5.615059286355972290e-02 4.440434649586677551e-02 -6.870819628238677979e-02 -2.603659406304359436e-02 -5.115170031785964966e-02
3.412925451993942261e-02 8.839622139930725098e-03 3.347399532794952393e-01 -3.195640072226524353e-02 5.475802347064018250e-02 -2.916738623753190041e-03 -3.425648435950279236e-02 -6.567737087607383728e-03 -5.929556209594011307e-03 1.669935323297977448e-02 -4.072627425193786621e-02 7.916665636003017426e-03 -4.581891372799873352e-02 -3.902294114232063293e-02 -1.219608858227729797e-01 -5.066637322306632996e-02 4.314956068992614746e-01 1.321498304605484009e-01 8.095636963844299316e-02 6.006310228258371353e-03 8.015383034944534302e-02 2.671319246292114258e-02 4.935318231582641602e-02 -3.194200620055198669e-02 1.520482897758483887e-01 -4.167788848280906677e-02 5.610771011561155319e-03 -1.254381425678730011e-02 -1.649007387459278107e-02 -8.454331010580062866e-02 2.969085574150085449e-01 7.737552374601364136e-02 -1.212581545114517212e-01 -1.287134177982807159e-02 7.495346665382385254e-02 6.802462041378021240e-02 1.440867967903614044e-02 3.085700608789920807e-02 -3.664303338155150414e-03 3.338396176695823669e-02 -3.876095637679100037e-02 -2.767087146639823914e-02 5.670576170086860657e-02 5.000034347176551819e-02 3.228109776973724365e-01 1.218803226947784424e-01 7.542590796947479248e-02 -3.902912512421607971e-02 -3.501383960247039795e-02 -6.600793451070785522e-02 -4.458250105381011963e-02 5.132132023572921753e-02 -6.842512637376785278e-02 -4.784595686942338943e-03 1.041095182299613953e-01 1.081148628145456314e-02 4.803606122732162476e-02 7.686288654804229736e-02 2.732405960559844971e-01 -2.919958829879760742e-01 -1.088711619377136230e-01 4.621882364153862000e-02 1.217275634407997131e-01 -2.481107413768768311e-02 -5.692370701581239700e-03 -6.638518720865249634e-02 -4.690344259142875671e-02 3.423256799578666687e-03 -1.798862777650356293e-02 6.893489509820938110e-02
-3.110111283604055643e-04 4.936697706580162048e-02 -2.905414700508117676e-01 -1.525077410042285919e-02 1.691873073577880859e-01 1.239982694387435913e-01 4.234969615936279297e-02 4.338780418038368225e-02 -7.573533337563276291e-03 -6.770695094019174576e-03 -1.127451309002935886e-03 -2.649492584168910980e-02 7.833759486675262451e-02 -1.545504294335842133e-02 -4.629852995276451111e-02 -1.031357347965240479e-01 -2.923185527324676514e-01 -7.214023172855377197e-02 1.960270553827285767e-01 -5.736929550766944885e-02 1.499308794736862183e-01 7.879552990198135376e-02 5.105025321245193481e-02 -3.713550046086311340e-02 -3.207691013813018799e-02 3.245570510625839233e-02 2.852044999599456787e-02 3.843455761671066284e-02 3.761865198612213135e-02 1.210698559880256653e-01 -1.407169699668884277e-01 -6.733168661594390869e-02 2.906283140182495117e-01 1.935468520969152451e-03 1.975534260272979736e-01 8.716414868831634521e-02 -1.338022500276565552e-01 -2.159993629902601242e-03 -1.285290159285068512e-02 6.734014302492141724e-02 -7.525447756052017212e-02 2.684220485389232635e-02 1.507713459432125092e-02 1.191317960619926453e-01 -3.131280541419982910e-01 -8.949531614780426025e-02 3.505754470825195312e-01 8.606977760791778564e-02 7.947721332311630249e-02 3.744299337267875671e-02 5.905319005250930786e-02 8.942370116710662842e-02 -3.962672129273414612e-02 -4.128361493349075317e-02 1.263405568897724152e-02 2.643506228923797607e-02 -8.387517184019088745e-03 -1.877140849828720093e-01 -1.912957429885864258e-01 2.451471388339996338e-01 3.159125447273254395e-01 -1.558930128812789917e-01 5.404159426689147949e-02 -2.474745512008666992e-01 2.634784579277038574e-02 -4.228078573942184448e-02 8.976013213396072388e-02 -3.264201432466506958e-02 -4.499282687902450562e-02 -7.577916234731674194e-02
1.112968698143959045e-01 9.933525323867797852e-02 2.356085777282714844e-01 5.449361726641654968e-02 9.086758643388748169e-02 -8.333980292081832886e-02 1.805930398404598236e-02 -1.578472405672073364e-01 -1.147892624139785767e-01 3.103789091110229492e-01 -3.703832998871803284e-02 2.669858336448669434e-01 -1.037908867001533508e-01 3.212122321128845215e-01 4.679313674569129944e-02 1.407648902386426926e-02 1.240817457437515259e-01 -2.850845269858837128e-02 -5.531195178627967834e-02 3.717288374900817871e-02 6.248228996992111206e-02 -1.243652924895286560e-01 9.261552989482879639e-02 2.574808597564697266e-01 4.612368717789649963e-02 1.568476706743240356e-01 6.698976457118988037e-02 1.149016842246055603e-01 6.068294867873191833e-03 1.084802113473415375e-02 1.628267467021942139e-01 1.565433479845523834e-02 6.841101497411727905e-02 -4.747491702437400818e-02 -6.239591632038354874e-03 -9.469194710254669189e-02 -2.151423692703247070e-02 7.155044004321098328e-03 -2.979165175929665565e-03 -6.962861120700836182e-02 7.923697680234909058e-02 -1.033738907426595688e-02 -1.062002107501029968e-01 -1.525594294071197510e-01 2.199712097644805908e-01 4.624636843800544739e-02 -9.596773306839168072e-04 1.209411844611167908e-01 3.012102283537387848e-02 1.889434456825256348e-01 4.627431556582450867e-02 -2.363340705633163452e-01 8.927805721759796143e-02 -2.068346589803695679e-01 5.798342078924179077e-02 -1.001212298870086670e-01 -9.176679886877536774e-03 -1.366938054561614990e-01 1.271723508834838867e-01 -4.332698881626129150e-03 -9.025516360998153687e-02 -3.893479704856872559e-02 -4.003275558352470398e-02 1.910276114940643311e-01 1.196965295821428299e-02 -3.462997674942016602e-01 -9.809433668851852417e-02 -1.633466333150863647e-01 -8.133716881275177002e-02 -3.153192102909088135e-01
-7.239614427089691162e-02 -5.595199298113584518e-03 -2.210991680622100830e-01 -3.727592155337333679e-02 -3.488540053367614746e-01 7.695093005895614624e-02 2.596032321453094482e-01 -6.614528596401214600e-02 1.522931177169084549e-02 -1.548544783145189285e-02 -2.980856969952583313e-02 4.425601288676261902e-02 2.105524949729442596e-02 4.762123525142669678e-02 3.518407791852951050e-02 -2.118666283786296844e-02 -2.132059186697006226e-01 -1.223987191915512085e-01 -2.295034080743789673e-01 -8.076759427785873413e-02 3.194120526313781738e-01 3.051812388002872467e-02 -5.391806736588478088e-02 4.117603600025177002e-02 -8.083795756101608276e-02 -8.483812958002090454e-02 8.224209398031234741e-02 -1.220259591937065125e-01 3.620266541838645935e-02 -4.470905289053916931e-02 -3.697946369647979736e-01 4.734887741506099701e-03 -2.198106646537780762e-01 3.511522896587848663e-03 1.395021826028823853e-01 6.679415702819824219e-02 8.543237298727035522e-02 -7.738371938467025757e-02 -5.673671886324882507e-02 1.311333477497100830e-02 -9.424436837434768677e-02 1.002898998558521271e-02 -2.020954340696334839e-02 5.650221183896064758e-02 -2.956648170948028564e-01 -1.627430617809295654e-01 -3.261632621288299561e-01 -1.272423118352890015e-01 3.245265781879425049e-01 9.305816143751144409e-02 -1.309325080364942551e-02 3.988750651478767395e-02 1.060550808906555176e-01 1.020757034420967102e-01 1.646661781705915928e-03 8.177073299884796143e-02 1.943964883685112000e-02 1.298622786998748779e-02 -3.220338523387908936e-01 3.192147016525268555e-01 -1.443760395050048828e-01 1.251405179500579834e-01 3.313152790069580078e-01 -1.241595968604087830e-01 -2.825762517750263214e-02 1.339162234216928482e-02 4.203493148088455200e-02 -7.419075816869735718e-02 -1.250636763870716095e-02 -1.470868475735187531e-02
-3.443639352917671204e-02 -1.162230521440505981e-01 1.065270155668258667e-01 3.765884637832641602e-01 -2.982674725353717804e-02 -2.258145958185195923e-01 2.904983162879943848e-01 2.285729646682739258e-01 -1.302368007600307465e-02 2.651432715356349945e-02 -1.208563894033432007e-01 1.089096162468194962e-02 3.357369452714920044e-02 3.790244087576866150e-02 -8.712093532085418701e-02 -2.329981513321399689e-02 -7.904112339019775391e-02 1.637309491634368896e-01 6.991921365261077881e-02 -1.444627344608306885e-01 3.906406760215759277e-01 8.313152194023132324e-02 -1.279821898788213730e-02 1.162316948175430298e-01 7.140622287988662720e-02 -1.926102489233016968e-02 -9.403544664382934570e-02 -3.216369822621345520e-02 -3.116096369922161102e-02 -1.963144354522228241e-02 -3.061046637594699860e-02 1.462139934301376343e-01 -1.530340909957885742e-01 6.989763677120208740e-02 3.906294703483581543e-01 4.179599136114120483e-02 2.420521154999732971e-02 -7.446943968534469604e-02 -5.625298246741294861e-02 -2.994929626584053040e-02 -1.417586393654346466e-02 3.364630416035652161e-02 7.950798422098159790e-02 7.408158481121063232e-02 5.949655175209045410e-02 -8.201549947261810303e-02 3.808288648724555969e-02 3.970663994550704956e-02 3.552090823650360107e-01 -9.775455296039581299e-02 -5.562392622232437134e-02 6.204697862267494202e-02 6.102671474218368530e-02 1.020905748009681702e-02 -3.461739420890808105e-02 -1.410813722759485245e-02 7.040920853614807129e-02 8.972387015819549561e-02 8.287288993597030640e-02 -6.189345121383666992e-01 -7.097800821065902710e-02 2.663150727748870850e-01 2.100507467985153198e-01 -2.446997761726379395e-01 5.540916323661804199e-02 -1.302353441715240479e-01 4.500495642423629761e-02 3.040828369557857513e-02 1.164909228682518005e-01 -2.808394283056259155e-02
-7.029076106846332550e-03 1.068220362067222595e-01 5.810438990592956543e-01 2.462140843272209167e-02 -2.339852899312973022e-01 -7.295461744070053101e-02 4.602681100368499756e-01 2.513458952307701111e-02 6.718040443956851959e-03 6.125487759709358215e-02 1.645731553435325623e-02 6.416767835617065430e-02 -1.014020591974258423e-01 -3.547347709536552429e-02 3.288567811250686646e-02 7.467497140169143677e-02 4.760509133338928223e-01 1.354794111102819443e-02 -3.369331061840057373e-01 -1.223400328308343887e-02 4.695982635021209717e-01 5.526154860854148865e-02 9.751050174236297607e-02 -2.397546358406543732e-02 -4.350521415472030640e-02 -5.417225137352943420e-02 5.402538925409317017e-02 1.313795745372772217e-01 9.130841493606567383e-02 7.153280824422836304e-02 4.637773036956787109e-01 2.825502306222915649e-03 -2.158523648977279663e-01 -5.447909981012344360e-02 6.019789576530456543e-01 -1.461852900683879852e-02 5.772779881954193115e-02 -2.600869536399841309e-02 -7.984015159308910370e-03 2.052299492061138153e-02 7.180298864841461182e-02 -1.017686352133750916e-01 3.771478310227394104e-03 -8.505291491746902466e-02 3.996066749095916748e-01 3.496417030692100525e-02 -2.108246982097625732e-01 2.824423136189579964e-03 5.174268484115600586e-01 -5.489001981914043427e-03 -1.145809665322303772e-01 -2.191840671002864838e-03 -5.306135490536689758e-02 1.186095364391803741e-02 2.988938428461551666e-02 1.000834815204143524e-02 -1.225391104817390442e-01 -1.727425456047058105e-01 5.643474459648132324e-01 -7.336460053920745850e-02 -2.939204871654510498e-01 1.364569664001464844e-01 3.897014558315277100e-01 -6.250272691249847412e-02 -4.573475196957588196e-02 -7.222741376608610153e-03 9.254639595746994019e-02 -3.886393830180168152e-02 -5.535939708352088928e-02 -3.272146917879581451e-03
-1.408997364342212677e-02 -2.724104821681976318e-01 -8.520092815160751343e-02 2.158244606107473373e-03 -5.049182474613189697e-02 4.200062453746795654e-01 3.205150365829467773e-02 -2.567912638187408447e-01 -8.905944414436817169e-03 9.949686005711555481e-03 9.220910817384719849e-02 -5.633287131786346436e-02 -1.228047311305999756e-01 -6.204372271895408630e-02 -1.070201620459556580e-01 -7.412321865558624268e-02 8.924972265958786011e-02 1.037746435031294823e-03 -7.182370126247406006e-02 1.555683165788650513e-01 1.205328926444053650e-01 -6.671571731567382812e-02 -9.864623658359050751e-03 3.049609623849391937e-02 8.987356722354888916e-02 -1.483000908046960831e-02 -1.104186773300170898e-01 6.684274971485137939e-02 4.230446368455886841e-02 1.182163953781127930e-01 -6.895950436592102051e-02 -3.304265066981315613e-02 5.635058879852294922e-02 -1.117275357246398926e-01 4.755995422601699829e-02 6.697568297386169434e-02 -2.427623048424720764e-02 4.153821244835853577e-02 -7.222215831279754639e-02 1.247704252600669861e-01 9.170337766408920288e-02 -1.525829453021287918e-02 4.418376088142395020e-02 1.791747510433197021e-01 -9.702082723379135132e-02 1.580005586147308350e-01 4.646726697683334351e-02 -1.856493055820465088e-01 1.264598127454519272e-02 4.989258572459220886e-02 -2.349678426980972290e-02 -5.526716262102127075e-02 -7.307403534650802612e-02 -5.873800069093704224e-02 6.224052608013153076e-02 -4.534717649221420288e-02 4.122995585203170776e-02 1.429768651723861694e-01 1.040079519152641296e-01 -1.553121060132980347e-01 -3.157344087958335876e-02 -3.131306171417236328e-01 9.102656692266464233e-02 3.069585561752319336e-01 6.528422981500625610e-02 -2.317213639616966248e-02 -3.191880509257316589e-02 -1.186092733405530453e-03 7.057904452085494995e-02 7.921245694160461426e-02
8.438707143068313599e-02 2.661316655576229095e-02 -2.293057441711425781e-01 -1.129002049565315247e-01 -2.622680664062500000e-01 -8.183492720127105713e-02 5.673026293516159058e-02 1.362534910440444946e-01 -1.034902855753898621e-01 7.294660061597824097e-02 5.132419615983963013e-02 -2.367442101240158081e-02 3.692477568984031677e-02 1.383885461837053299e-02 -1.063739601522684097e-02 6.729188561439514160e-02 -1.544536501169204712e-01 -1.715910285711288452e-01 -2.298872768878936768e-01 -7.807421032339334488e-03 2.402718365192413330e-01 2.935022115707397461e-02 -3.080112487077713013e-02 -2.541725523769855499e-02 -1.192719209939241409e-03 8.089771121740341187e-02 -3.739836439490318298e-02 -5.135660246014595032e-02 -5.541393533349037170e-02 -1.611890941858291626e-01 -1.776950955390930176e-01 -1.762934923171997070e-01 -5.902970582246780396e-02 1.517522800713777542e-02 1.337099075317382812e-01 1.605087816715240479e-01 6.894309073686599731e-02 -1.109966635704040527e-01 4.715985152870416641e-03 -4.565086215734481812e-02 -7.802946120500564575e-02 1.254779845476150513e-01 -5.859014019370079041e-02 -6.971138529479503632e-03 -1.959827244281768799e-01 -2.721465751528739929e-02 -2.303074449300765991e-01 -3.156931488774716854e-04 2.703565657138824463e-01 -1.075484137982130051e-02 -1.149142440408468246e-02 6.743228435516357422e-02 4.975270945578813553e-03 1.689960062503814697e-02 5.975184962153434753e-02 -5.328576639294624329e-02 4.005581885576248169e-02 7.287769019603729248e-02 -2.428112365305423737e-02 4.893462061882019043e-01 -1.059783771634101868e-01 7.540965080261230469e-02 1.059833317995071411e-01 -3.169060051441192627e-01 7.687071710824966431e-02 -4.872066900134086609e-03 -5.816732719540596008e-02 -2.793075144290924072e-02 1.635801047086715698e-02 -3.495340421795845032e-02
-4.381898790597915649e-02 -9.133744984865188599e-02 -7.928058505058288574e-02 -1.429829001426696777e-01 -1.723312735557556152e-01 -1.741086393594741821e-01 -2.154446020722389221e-02 9.030025452375411987e-02 -3.529625758528709412e-02 4.556279629468917847e-02 -8.748390525579452515e-02 -1.859194040298461914e-02 -1.469639316201210022e-02 -4.120196774601936340e-02 8.115919679403305054e-02 -7.118847966194152832e-02 -1.047078669071197510e-01 -2.116384357213973999e-01 -2.499055415391921997e-01 -1.172923520207405090e-01 -9.387209080159664154e-03 4.676188528537750244e-02 3.938130661845207214e-02 -3.879452124238014221e-02 3.366104513406753540e-02 -3.037397935986518860e-02 -3.609019517898559570e-02 -3.602777048945426941e-02 5.582340992987155914e-03 -1.400858908891677856e-01 -5.943635106086730957e-02 -1.371052116155624390e-01 -2.496814578771591187e-01 7.071330398321151733e-02 -1.762095391750335693e-01 5.002716928720474243e-02 3.279778733849525452e-02 -6.062091886997222900e-02 8.697228133678436279e-02 1.027065888047218323e-01 4.885404184460639954e-02 6.539044901728630066e-03 -4.603352397680282593e-02 2.359424903988838196e-02 -6.420839577913284302e-02 1.531276386231184006e-02 -2.447924166917800903e-01 -6.035004928708076477e-02 -1.278579831123352051e-01 -1.395160704851150513e-01 8.980946615338325500e-03 4.387816041707992554e-02 8.173172175884246826e-02 -3.528513759374618530e-02 2.580191195011138916e-02 1.268718242645263672e-01 1.804718980565667152e-03 2.807999849319458008e-01 -2.584239542484283447e-01 4.800467789173126221e-01 -2.424184083938598633e-01 2.838303446769714355e-01 -1.788604110479354858e-01 -5.440841242671012878e-02 -3.541302680969238281e-02 1.033491920679807663e-02 -1.171562895178794861e-01 -1.330079138278961182e-02 -2.179128304123878479e-02 -5.727348476648330688e-02
