1.278419196605682373e-01
-8.486080169677734375e-01
6.179672107100486755e-02
5.059115290641784668e-01
5.013132095336914062e-01
4.484792351722717285e-01
-7.490546107292175293e-01
-1.458803750574588776e-02
-3.133438825607299805e-01
6.360891461372375488e-01
5.978308320045471191e-01
-6.489791274070739746e-01
1.195477098226547241e-01
-1.272932738065719604e-01
-1.027101650834083557e-01
-6.551730036735534668e-01
-1.670821011066436768e-01
-1.776265799999237061e-01
-2.689068913459777832e-01
2.259508818387985229e-01
4.327914416790008545e-01
-2.955910563468933105e-01
-1.446351706981658936e-01
-5.966771841049194336e-01
-1.023792475461959839e-01
1.003169566392898560e-01
-3.518675640225410461e-02
-8.195801824331283569e-02
1.295536905527114868e-01
7.731715589761734009e-02
5.654150620102882385e-02
8.671920746564865112e-02
3.681862726807594299e-02
5.286337137222290039e-01
-1.127362549304962158e-01
8.576124161481857300e-02
-3.689758181571960449e-01
4.053635597229003906e-01
-7.574334144592285156e-01
-5.891932174563407898e-02
-6.119726300239562988e-01
-8.747517466545104980e-01
-7.605704665184020996e-02
1.122077032923698425e-01
-1.702027171850204468e-01
2.237038612365722656e-01
-2.980437874794006348e-01
2.416835874319076538e-01
3.581357002258300781e-01
-3.464102149009704590e-01
4.014017879962921143e-01
5.536816716194152832e-01
6.340275518596172333e-03
1.195466052740812302e-02
5.415931344032287598e-01
-2.186595797538757324e-01
-6.287672370672225952e-02
-3.880791366100311279e-01
8.450177311897277832e-02
-8.980111479759216309e-01
5.870663523674011230e-01
-2.057534307241439819e-01
-9.894491732120513916e-02
2.283378839492797852e-01
-1.376346200704574585e-01
1.593501418828964233e-01
1.803789287805557251e-01
1.371959745883941650e-01
-5.835518613457679749e-02
-7.195394039154052734e-01
-1.276372969150543213e-01
-2.876808680593967438e-02
9.264591336250305176e-02
4.771945253014564514e-02
4.567835032939910889e-01
-3.707616031169891357e-02
-5.647741556167602539e-01
-2.027016133069992065e-01
-2.176325917243957520e-01
-8.079302310943603516e-02
6.800942420959472656e-01
-8.569544553756713867e-02
-8.360447883605957031e-01
3.867767155170440674e-01
-1.049687117338180542e-01
2.069232612848281860e-01
-5.876928567886352539e-01
-1.037435606122016907e-01
7.595779001712799072e-02
-8.110661506652832031e-01
2.473666972946375608e-04
-7.185640186071395874e-02
-6.705785989761352539e-01
-1.963099688291549683e-01
7.149899005889892578e-02
1.217115372419357300e-01
-8.817908167839050293e-02
4.619184732437133789e-01
-3.201268613338470459e-01
-1.198735833168029785e-01
