-3.513330593705177307e-03 -5.945091834291815758e-04 3.352355957031250000e-02 -3.571181441657245159e-04 5.946240853518247604e-04 3.752389457076787949e-04 -2.446985745336860418e-04 -1.031279861927032471e-01 1.054667984135448933e-03 -2.192398969782516360e-04 -5.491183325648307800e-02 1.045199017971754074e-02 2.178853843361139297e-03 5.982491746544837952e-02 1.759780943393707275e-02 2.014653570950031281e-02 -7.461711764335632324e-02 -1.136817131191492081e-02 1.103351265192031860e-02 -7.030752021819353104e-04 -3.184197121299803257e-04 3.057005815207958221e-03 4.424717742949724197e-03 -2.370306849479675293e-02 -2.069099573418498039e-04 6.315254722721874714e-04 1.583373360335826874e-02 -1.079679280519485474e-02 1.766961213434115052e-04 3.321797400712966919e-02 5.359186790883541107e-03 6.515300367027521133e-03 -2.125283499481156468e-04 -2.626070519909262657e-03 -4.928704001940786839e-04 8.536878973245620728e-02 9.649459272623062134e-03 2.028282964602112770e-03 -3.259339369833469391e-03 -2.043219981715083122e-03 1.596776535734534264e-03 8.863318711519241333e-03 1.183252874761819839e-02 -1.324430806562304497e-03 -7.284990046173334122e-03 -2.402676641941070557e-02 -4.096870124340057373e-02 -1.467647263780236244e-03 4.431123286485671997e-02 1.445574592798948288e-02 1.663606497459113598e-03 -1.673321798443794250e-02 1.124855945818126202e-03 1.554936752654612064e-04 3.502864018082618713e-02 1.484837569296360016e-02 3.085401549469679594e-04 3.683647955767810345e-04 2.350410446524620056e-03 1.057106815278530121e-02 -5.279865581542253494e-03 2.189357066527009010e-03 -3.601395338773727417e-02 8.563083247281610966e-05 -1.015195436775684357e-02 -6.992793176323175430e-03 -8.994932472705841064e-02 -7.563903636764734983e-05 -1.273140776902437210e-03 -3.250807523727416992e-03 8.254070417024195194e-04 1.530000474303960800e-02 7.108263671398162842e-03 -8.408344583585858345e-04 -6.747403647750616074e-03 4.786630347371101379e-02 9.132333216257393360e-04 9.361525299027562141e-04 7.773859542794525623e-04 9.288880228996276855e-02 2.875782549381256104e-02 -1.463726744987070560e-03 -4.054030287079513073e-04 -1.761936582624912262e-02 -6.138002965599298477e-03 -6.150314118713140488e-03 -3.842176496982574463e-02 -5.597761832177639008e-03 -2.071084827184677124e-02 3.454425837844610214e-03 2.722810022532939911e-03 9.636079519987106323e-02 -1.780251041054725647e-02 8.482138812541961670e-02 -2.606583759188652039e-03 -5.996516719460487366e-02 -3.431590972468256950e-03 8.905573631636798382e-04 -2.905125543475151062e-02 3.479612933006137609e-04
-1.050158888101577759e-01 1.032291096635162830e-03 -1.427231077104806900e-02 -5.511199310421943665e-02 -6.211017817258834839e-02 2.718130499124526978e-02 6.028892844915390015e-02 -6.114995852112770081e-02 -5.503658950328826904e-02 3.184319706633687019e-03 -8.916093409061431885e-02 -5.687180534005165100e-02 9.828494861721992493e-03 5.681231245398521423e-02 5.505168810486793518e-02 6.111825816333293915e-03 -4.067068547010421753e-02 1.270491257309913635e-02 7.979091256856918335e-03 -4.768859967589378357e-02 6.495578587055206299e-02 -4.220382496714591980e-02 3.671333193778991699e-02 1.065709348767995834e-02 -3.208271041512489319e-02 5.843032896518707275e-02 5.466571077704429626e-02 -1.185897272080183029e-02 -5.501086264848709106e-02 3.907116129994392395e-02 -2.722242847084999084e-02 -1.854832470417022705e-02 -1.982063753530383110e-03 -4.232212528586387634e-02 -4.665363579988479614e-02 -6.748028844594955444e-02 1.623339354991912842e-01 -6.258980929851531982e-02 -2.125038765370845795e-03 5.458741262555122375e-02 2.836551517248153687e-02 -1.907609403133392334e-02 9.286582469940185547e-02 -5.766619369387626648e-02 7.048861682415008545e-02 -6.915187835693359375e-02 -2.966254204511642456e-02 -4.670834541320800781e-02 3.130952641367912292e-02 -7.810217887163162231e-02 4.948050901293754578e-02 -4.495603591203689575e-02 6.440467387437820435e-02 -1.612236083019524813e-04 1.957355439662933350e-02 3.309101983904838562e-02 -4.306570813059806824e-02 2.709932159632444382e-03 6.716269254684448242e-02 -2.348535321652889252e-02 -7.460147142410278320e-02 -8.167897909879684448e-02 -1.935756206512451172e-02 -4.265464958734810352e-04 6.510327756404876709e-02 8.650361001491546631e-02 5.696299951523542404e-03 5.532947927713394165e-02 5.476717650890350342e-02 -2.367053879424929619e-03 1.304782344959676266e-04 -4.877522215247154236e-02 -3.761526197195053101e-02 7.250328548252582550e-03 -1.248197816312313080e-02 -2.326116338372230530e-02 8.962614834308624268e-02 5.770454928278923035e-02 7.343064248561859131e-02 9.377738833427429199e-02 -1.377521455287933350e-02 -8.154867589473724365e-02 -5.281617492437362671e-02 3.458299487829208374e-02 1.022079735994338989e-01 -6.496154703199863434e-03 2.140970900654792786e-02 -4.787629470229148865e-03 -4.144934937357902527e-03 -6.225129473023116589e-04 6.365621089935302734e-02 -3.648171201348304749e-02 -1.984404027462005615e-02 -1.072948947548866272e-01 -4.059011861681938171e-02 7.578184455633163452e-02 -5.198493599891662598e-03 -6.475954502820968628e-02 -4.275265615433454514e-03 8.620262891054153442e-02
-1.087819971144199371e-02 -4.219222348183393478e-03 1.450066268444061279e-02 -1.827253215014934540e-02 -5.523776635527610779e-02 -5.953533691354095936e-04 -4.307365976274013519e-03 1.002967655658721924e-01 -4.308686777949333191e-02 -4.632561467587947845e-04 -2.700082398951053619e-02 9.884993731975555420e-02 2.474529901519417763e-03 -2.839802019298076630e-02 -3.586440905928611755e-02 1.070831436663866043e-02 -4.178408905863761902e-02 -6.818487495183944702e-02 1.137470081448554993e-02 -4.008645564317703247e-02 4.460531473159790039e-02 -3.389029577374458313e-02 -1.555184926837682724e-02 -1.238756068050861359e-02 9.509134292602539062e-02 5.622024834156036377e-02 -7.380715757608413696e-02 1.459092088043689728e-02 8.622022345662117004e-03 1.647253893315792084e-02 -4.989605396986007690e-02 8.338487707078456879e-03 -3.890329753630794585e-05 2.115269936621189117e-02 4.269018024206161499e-02 -1.210256516933441162e-01 1.185048092156648636e-02 -3.484680131077766418e-02 1.684808358550071716e-02 -5.851714406162500381e-03 3.439307585358619690e-02 -3.680490702390670776e-02 -7.083526998758316040e-02 -7.385773351415991783e-04 1.261336822062730789e-02 -3.056013956665992737e-02 1.419613230973482132e-02 6.097123026847839355e-02 4.426741227507591248e-02 2.634926466271281242e-03 -4.565321654081344604e-02 1.607916131615638733e-02 3.310235042590647936e-04 -2.878486737608909607e-02 -5.484614986926317215e-03 -3.038356080651283264e-02 -2.597731538116931915e-02 5.503476713784039021e-04 -5.038476362824440002e-02 7.557511329650878906e-03 3.057497786357998848e-03 5.000416561961174011e-02 -4.164049029350280762e-02 1.966479234397411346e-03 2.048707380890846252e-02 8.641898632049560547e-03 -7.421948760747909546e-02 -4.419543221592903137e-02 -6.601880770176649094e-03 -1.305532269179821014e-02 5.907393642701208591e-05 -5.112538929097354412e-04 -2.490019612014293671e-02 -4.759239498525857925e-03 -4.866947419941425323e-03 6.477486342191696167e-02 -3.387918928638100624e-03 -2.864472009241580963e-02 6.033251527696847916e-03 6.247441843152046204e-02 -4.030609503388404846e-03 -4.324713349342346191e-02 1.076728850603103638e-02 4.450137168169021606e-02 6.436742842197418213e-02 2.290040068328380585e-02 -2.011930383741855621e-02 2.147200983017683029e-03 -5.565562285482883453e-03 -2.638165093958377838e-02 5.826588720083236694e-02 6.798459216952323914e-03 -3.714101621881127357e-03 2.570538036525249481e-02 4.360213875770568848e-02 4.428330808877944946e-02 -3.026720369234681129e-03 -4.642887040972709656e-02 -2.468127757310867310e-02 3.483851999044418335e-02
-1.671801693737506866e-02 1.623368938453495502e-03 1.220481004565954208e-02 -5.652372166514396667e-02 8.300031721591949463e-02 -5.248013418167829514e-03 -1.662205345928668976e-02 3.958105575293302536e-03 5.829587951302528381e-02 -8.013731800019741058e-03 -1.174366548657417297e-01 7.006269693374633789e-02 1.328580174595117569e-02 4.114442318677902222e-02 -4.831539466977119446e-02 -1.135830767452716827e-02 1.201672293245792389e-02 8.155391551554203033e-03 3.129979223012924194e-02 -5.374002456665039062e-02 -7.434889674186706543e-02 -5.826940387487411499e-02 -5.086800083518028259e-02 1.156694814562797546e-02 -4.108531028032302856e-02 3.729095682501792908e-02 2.830282598733901978e-02 1.421050913631916046e-02 -6.782270222902297974e-02 7.718839216977357864e-03 6.153871864080429077e-02 7.171515841037034988e-03 2.013005549088120461e-03 -4.348128288984298706e-02 6.830818206071853638e-02 1.676229201257228851e-02 1.399040669202804565e-01 -6.710027158260345459e-02 -5.936326086521148682e-02 -5.779403820633888245e-02 3.595154732465744019e-02 6.258765608072280884e-02 -1.116321906447410583e-01 -3.702152520418167114e-02 2.627687761560082436e-03 1.604364439845085144e-02 9.570476412773132324e-02 6.676223129034042358e-02 2.814515866339206696e-02 3.151002153754234314e-02 3.919938579201698303e-02 -1.393868308514356613e-02 9.125770628452301025e-02 -7.689231634140014648e-02 3.837290778756141663e-02 -4.618239402770996094e-02 1.582530438899993896e-01 -1.012945547699928284e-02 5.560171604156494141e-02 1.087029185146093369e-02 2.330572903156280518e-02 -7.624924182891845703e-02 1.814782805740833282e-02 3.820806523435749114e-05 8.122256258502602577e-04 7.273744326084852219e-03 7.172481715679168701e-02 4.548873379826545715e-02 -4.620232433080673218e-02 1.822273433208465576e-02 2.396570751443505287e-03 7.483451068401336670e-02 -5.169392377138137817e-02 -6.423145998269319534e-03 -2.173256687819957733e-02 -5.225103814154863358e-03 -3.059391118586063385e-02 -6.770890951156616211e-02 -2.753260917961597443e-02 -7.312476634979248047e-02 3.874085377901792526e-03 1.342934966087341309e-01 -5.746670439839363098e-02 3.040262125432491302e-02 -6.684147566556930542e-02 -1.065871119499206543e-02 -9.089700877666473389e-03 5.749200005084276199e-03 4.512144369073212147e-04 -2.189498580992221832e-02 -1.933297887444496155e-02 9.824121743440628052e-02 9.292955510318279266e-03 -7.340829819440841675e-02 -3.878073766827583313e-02 -6.565583497285842896e-02 -1.069575082510709763e-02 -6.269875913858413696e-02 -1.440573105355724692e-04 -9.100970625877380371e-02
9.644473902881145477e-04 -8.531914651393890381e-02 1.932612853124737740e-03 1.945434021763503551e-03 2.627270994707942009e-03 1.489467322826385498e-01 1.947570708580315113e-03 6.271047890186309814e-02 -3.306168830022215843e-03 -6.569041311740875244e-02 -4.632097110152244568e-02 -5.277655646204948425e-02 5.758358538150787354e-02 3.703013807535171509e-02 1.260131597518920898e-01 3.150413685943931341e-04 1.805253885686397552e-02 -2.580708451569080353e-02 -2.613974213600158691e-01 6.070749950595200062e-04 5.113490624353289604e-04 3.656073007732629776e-03 1.406622817739844322e-03 8.306848816573619843e-03 3.017780138179659843e-03 -3.865426406264305115e-03 2.190277725458145142e-01 3.008787631988525391e-01 -3.201559011358767748e-04 1.629754155874252319e-02 7.733197510242462158e-02 -1.625061384402215481e-03 1.060336232185363770e-01 -2.029638271778821945e-03 3.802764462307095528e-03 -1.605497896671295166e-01 -8.959981799125671387e-02 -1.972603604372125119e-05 1.420386979589238763e-04 -4.852303391089662910e-05 3.837636613752692938e-04 -3.157206177711486816e-01 -1.535017788410186768e-02 -1.865272670984268188e-01 4.476696718484163284e-03 3.754840581677854061e-04 5.946224555373191833e-03 -7.851911708712577820e-03 -2.282729931175708771e-02 -4.491620231419801712e-03 -9.714206680655479431e-04 -1.455416679382324219e-01 2.500106813386082649e-03 -2.517514163628220558e-03 -5.520430859178304672e-03 -3.553408663719892502e-03 -1.652508799452334642e-04 -3.909234888851642609e-03 -1.965335570275783539e-03 -2.589913783594965935e-03 -2.136666327714920044e-03 2.267610980197787285e-03 -2.551647424697875977e-01 -9.136242419481277466e-02 1.850445419549942017e-01 2.268808195367455482e-03 8.464643359184265137e-02 -1.514631207101047039e-03 -1.733289333060383797e-03 2.131119817495346069e-01 -8.179141581058502197e-02 -1.376220285892486572e-01 1.798001378774642944e-01 -4.979885369539260864e-02 2.766337692737579346e-01 -2.457511238753795624e-02 -1.538557349704205990e-03 -3.656803164631128311e-03 8.054968930082395673e-05 -1.568287461996078491e-01 -2.672825939953327179e-04 -4.316819366067647934e-03 -6.407538312487304211e-04 6.676636170595884323e-03 -5.044948309659957886e-03 3.132987320423126221e-01 -1.942396163940429688e-03 8.953804522752761841e-02 3.709377720952033997e-03 -5.526721361093223095e-04 -2.820023801177740097e-03 1.235696449875831604e-01 2.765257377177476883e-03 9.465768933296203613e-02 -1.079872599802911282e-03 -1.667132526636123657e-01 -2.444373220205307007e-01 1.109283301047980785e-03 7.096679881215095520e-03 1.163895649369806051e-04
6.838602013885974884e-03 1.297163516283035278e-01 1.280920114368200302e-02 1.684743619989603758e-04 1.676125917583703995e-03 2.634338140487670898e-01 -8.420609869062900543e-03 1.405297592282295227e-02 1.086489018052816391e-02 -1.618702858686447144e-01 1.702180057764053345e-01 3.464072942733764648e-02 -4.490528702735900879e-01 1.517986413091421127e-02 -2.556689679622650146e-01 3.592516295611858368e-04 2.557077910751104355e-03 -2.218577079474925995e-02 2.940870523452758789e-01 3.287535393610596657e-03 -1.858817064203321934e-03 -6.521138362586498260e-03 -2.205803059041500092e-03 5.972974468022584915e-03 1.059564016759395599e-02 -1.883705263026058674e-03 1.083206832408905029e-01 2.922848239541053772e-02 7.027928251773118973e-03 1.019952520728111267e-01 -8.836257457733154297e-02 9.741267422214150429e-04 1.470746994018554688e-01 -8.918173611164093018e-03 1.249555870890617371e-02 5.003176257014274597e-02 7.737441360950469971e-02 -1.285765692591667175e-02 -4.188054241240024567e-03 6.030300632119178772e-03 1.384661626070737839e-02 -8.824746310710906982e-02 4.859351739287376404e-02 1.517855674028396606e-01 5.147701129317283630e-03 2.434810157865285873e-03 -1.973391473293304443e-01 -1.729100942611694336e-02 7.465838640928268433e-02 -8.583979681134223938e-03 1.217107754200696945e-02 -2.923542857170104980e-01 6.809795740991830826e-03 -3.242311766371130943e-03 1.259833225049078465e-04 -5.802669376134872437e-02 -3.859457792714238167e-03 1.797766536474227905e-01 -1.119049498811364174e-03 1.443748944438993931e-03 -2.542017318774014711e-04 -4.569210577756166458e-03 1.254139989614486694e-01 1.160319522023200989e-01 -1.663591563701629639e-01 -4.329262766987085342e-03 -1.642484590411186218e-02 -3.277644515037536621e-03 -3.452466335147619247e-03 9.960162639617919922e-02 -1.159200668334960938e-01 2.980799414217472076e-02 -1.387955993413925171e-01 1.609605401754379272e-01 -4.343506395816802979e-01 5.012147594243288040e-03 -1.213457551784813404e-03 -1.331986580044031143e-02 -6.112143164500594139e-04 -4.349719732999801636e-03 1.318899798206984997e-03 5.420767702162265778e-03 -1.700354181230068207e-02 -6.276924908161163330e-02 2.427341043949127197e-01 -1.692122966051101685e-02 -4.323144443333148956e-03 4.014976024627685547e-01 2.490369079168885946e-04 -1.387056661769747734e-03 1.353904837742447853e-03 -6.743042171001434326e-02 2.807261655107140541e-03 1.156610921025276184e-01 -5.733384750783443451e-05 4.618834704160690308e-02 -5.084570050239562988e-01 -7.901523262262344360e-03 3.717605955898761749e-03 -1.467110309749841690e-02
5.458109080791473389e-04 -2.306485548615455627e-04 -3.226241387892514467e-04 4.223198629915714264e-04 1.021919160848483443e-04 -2.782908733934164047e-03 -1.180769777420209721e-05 5.313403159379959106e-02 1.007008468150161207e-04 -1.384161878377199173e-04 -1.144952103495597839e-01 -1.289588361978530884e-01 3.031383082270622253e-02 2.264710608869791031e-03 -3.370588421821594238e-01 -1.368825440295040607e-03 5.255195777863264084e-03 -6.734310835599899292e-02 -2.389709502458572388e-01 -9.285905434808228165e-06 -2.673181588761508465e-04 -3.763659624382853508e-04 2.007462717301677912e-05 1.904595876112580299e-03 7.169416494434699416e-05 -3.811436181422322989e-04 -5.766721069812774658e-02 -5.913317203521728516e-02 3.283861151430755854e-04 -1.001048162579536438e-01 5.668748170137405396e-02 -7.027449319139122963e-04 2.385062362009193748e-05 3.289223968749865890e-05 1.735005571390502155e-05 1.446867734193801880e-01 1.140717864036560059e-01 -1.330019586021080613e-04 -3.020358562935143709e-04 1.791820832295343280e-04 -2.484056458342820406e-04 -6.514777243137359619e-02 3.128298521041870117e-01 -1.617312518646940589e-04 6.451170193031430244e-04 9.003943414427340031e-04 3.431677818298339844e-01 -6.688045687042176723e-05 -2.892217226326465607e-02 -3.776614612434059381e-04 -1.693564263405278325e-04 1.872496306896209717e-01 4.198079986963421106e-04 1.342715986538678408e-04 3.510703681968152523e-04 1.945877261459827423e-02 5.991520083625800908e-05 -3.753631608560681343e-04 2.284101938130334020e-04 -8.960062987171113491e-04 -1.031904481351375580e-03 -1.194466458400711417e-04 -1.070028916001319885e-01 1.496960758231580257e-04 -2.133612334728240967e-01 3.130469995085150003e-04 -1.107039675116539001e-01 -1.816266158130019903e-04 9.617540490580722690e-05 -4.090542346239089966e-02 -5.019990494474768639e-04 -9.589622914791107178e-02 -2.768565118312835693e-01 -6.228277925401926041e-05 1.660779416561126709e-01 -5.796553194522857666e-02 -2.863314002752304077e-04 -1.629042817512527108e-04 9.695707558421418071e-05 -3.316361084580421448e-02 -1.229024259373545647e-03 1.417760504409670830e-04 8.036815415835008025e-05 -4.503589868545532227e-02 2.319074571132659912e-01 -1.203969046473503113e-01 9.098254377022385597e-04 3.091580569744110107e-01 1.012226333841681480e-03 -1.330581289948895574e-04 -6.959389895200729370e-02 -4.984435439109802246e-02 6.360790575854480267e-04 1.957341432571411133e-01 1.358418521704152226e-04 -2.349999994039535522e-01 3.441156819462776184e-02 2.129948843503370881e-04 2.636342309415340424e-03 1.030370549415238202e-04
