-1.538393460214138031e-02
-5.258117988705635071e-02
-1.200993880629539490e-01
-9.106380492448806763e-02
1.180143505334854126e-01
-1.181369945406913757e-01
7.081048190593719482e-02
-8.897035568952560425e-02
8.692226558923721313e-02
-3.418424725532531738e-02
-7.445232570171356201e-02
9.965077787637710571e-02
1.215579807758331299e-01
-1.048757322132587433e-02
6.078052334487438202e-03
1.475530024617910385e-02
7.895241491496562958e-03
3.489638492465019226e-02
-7.423631101846694946e-02
1.039131283760070801e-01
-2.659109607338905334e-02
3.090398572385311127e-02
1.056295335292816162e-01
8.499279618263244629e-02
1.171598583459854126e-01
-2.141835726797580719e-02
1.193526550196111202e-03
2.121815457940101624e-02
1.227363124489784241e-01
8.340820670127868652e-02
-7.977891713380813599e-02
-8.312956243753433228e-02
-4.113108664751052856e-02
3.175805509090423584e-02
5.529537424445152283e-02
-4.106904380023479462e-03
-1.006004363298416138e-01
-8.843769878149032593e-02
-6.514593213796615601e-02
-1.904108002781867981e-02
-2.961860224604606628e-02
-8.263084292411804199e-02
7.673486322164535522e-02
1.097376421093940735e-01
7.407838106155395508e-02
-5.999177321791648865e-02
-6.364002823829650879e-02
9.480043500661849976e-02
-1.098541617393493652e-01
-3.644628077745437622e-02
-8.755888789892196655e-02
9.177260845899581909e-02
2.085805870592594147e-02
-1.134068667888641357e-01
-8.293341100215911865e-02
-5.277834832668304443e-02
-2.534356154501438141e-02
-1.303504407405853271e-02
-5.278492718935012817e-02
-5.826630443334579468e-02
-8.049334585666656494e-02
-5.050725489854812622e-02
8.067990839481353760e-02
7.785593718290328979e-02
4.190690442919731140e-02
9.600472450256347656e-02
-1.074940189719200134e-01
1.000472754240036011e-01
-5.585423111915588379e-02
5.474872887134552002e-02
1.033458709716796875e-01
1.131938025355339050e-01
7.708354294300079346e-02
-3.060686588287353516e-02
2.191369608044624329e-02
6.118133291602134705e-02
-7.922267913818359375e-02
2.190838009119033813e-02
-1.188743188977241516e-01
-2.683993056416511536e-02
-1.838443614542484283e-02
7.405322976410388947e-03
-4.954816028475761414e-02
9.633141756057739258e-02
4.716507345438003540e-02
-5.581765994429588318e-02
7.142189145088195801e-02
8.316867984831333160e-03
9.595900774002075195e-02
8.938067592680454254e-03
-7.785575836896896362e-02
4.336033388972282410e-02
1.060816049575805664e-01
7.178866863250732422e-02
-2.502071298658847809e-02
-3.336993232369422913e-02
-1.115350350737571716e-01
-1.502250321209430695e-02
-5.070900544524192810e-02
-2.784289605915546417e-02
