3.911929205060005188e-02
-8.494931459426879883e-02
8.015718311071395874e-02
-4.059499502182006836e-02
7.472153753042221069e-02
9.631039202213287354e-02
9.428369812667369843e-03
6.515298038721084595e-02
9.021049737930297852e-02
-9.151697158813476562e-03
-8.705061674118041992e-02
-7.952997833490371704e-02
-7.164859026670455933e-02
8.210890740156173706e-02
5.594405159354209900e-02
2.000621519982814789e-02
-5.776447057723999023e-02
-6.723930686712265015e-02
2.162821404635906219e-02
-4.246694967150688171e-02
-8.150229603052139282e-02
-1.808483712375164032e-02
6.601268053054809570e-02
2.193210087716579437e-02
-6.972258538007736206e-02
1.390537060797214508e-02
9.706880897283554077e-02
4.697911813855171204e-02
9.061467647552490234e-02
9.574349969625473022e-02
-3.944467380642890930e-02
-2.507826127111911774e-02
-5.899101495742797852e-02
-6.444772332906723022e-02
3.945703431963920593e-02
-3.737679868936538696e-02
-5.282058939337730408e-02
-2.760197035968303680e-02
-5.011105444282293320e-03
6.412994861602783203e-02
9.185925871133804321e-02
2.305406332015991211e-02
2.062618732452392578e-02
8.731931447982788086e-02
-7.670968025922775269e-02
4.155236482620239258e-02
-2.557858265936374664e-02
-4.694541916251182556e-02
6.661864370107650757e-02
-2.068336121737957001e-02
4.075111076235771179e-02
5.414044857025146484e-02
3.850671276450157166e-02
9.133008867502212524e-02
-6.478384882211685181e-02
-7.710051722824573517e-03
2.187283150851726532e-02
6.365704815834760666e-03
3.561082109808921814e-02
-8.302217721939086914e-02
-1.079730968922376633e-02
9.625714272260665894e-02
-9.534846991300582886e-02
5.445782095193862915e-02
-3.329134080559015274e-03
-5.050493404269218445e-02
9.018172323703765869e-02
-7.444379478693008423e-02
6.827413290739059448e-02
-5.738845095038414001e-02
7.768130395561456680e-03
9.626714140176773071e-02
9.469448775053024292e-02
-4.366175085306167603e-02
3.530978038907051086e-02
-1.867853477597236633e-02
-5.115622282028198242e-02
-1.650235615670681000e-02
-9.899657219648361206e-02
-9.947258234024047852e-02
-8.607936091721057892e-03
-3.437774255871772766e-02
8.308962732553482056e-02
-8.650773763656616211e-02
-2.350364997982978821e-02
-6.326329708099365234e-02
-7.363077253103256226e-02
7.755638659000396729e-02
-6.951788812875747681e-02
-9.992396831512451172e-02
6.811614334583282471e-02
-4.248440265655517578e-03
-8.163213729858398438e-02
7.251646369695663452e-02
2.584930695593357086e-02
-4.429229721426963806e-02
7.238588482141494751e-02
1.677554845809936523e-02
-2.113143168389797211e-02
8.598917722702026367e-02
